1573523576.997398,-0.001247,-0.001039,0.012256,0.002725,-0.032254,-0.053649,0.550498,0.013850,0.001515,0.829952,0.036815,0.002688
1573523577.156738,-0.003587,-0.002595,0.011949,0.002025,-0.032084,-0.053776,0.693090,0.024349,0.004646,0.971671,0.056253,0.005226
1573523577.251368,-0.004567,-0.003806,0.011764,0.001512,-0.031604,-0.052991,0.789722,0.032011,0.006616,1.066224,0.062832,0.004560
1573523577.316108,-0.006129,-0.004744,0.011520,0.000842,-0.031263,-0.052476,0.859550,0.037499,0.008749,1.129409,0.067326,0.005749
1573523577.345988,-0.009400,-0.007192,0.011249,0.000607,-0.030622,-0.051232,0.896556,0.040275,0.010154,1.159435,0.064446,0.005866
1573523577.470488,-0.011692,-0.009321,0.011126,0.000859,-0.030608,-0.050798,1.050324,0.048280,0.011150,1.289919,0.065073,0.008413
1573523577.505348,-0.016577,-0.012196,0.010927,0.001100,-0.029574,-0.048740,1.096809,0.049957,0.011774,1.325482,0.069016,0.014289
1573523577.599968,-0.022991,-0.015658,0.010618,0.000578,-0.029095,-0.047445,1.228859,0.057305,0.015128,1.419590,0.070025,0.026799
1573523577.664698,-0.034045,-0.020305,0.010086,-0.000080,-0.028027,-0.044328,1.320391,0.061953,0.019763,1.477242,0.079171,0.036732
1573523577.754338,-0.045477,-0.026772,0.009590,-0.001256,-0.028220,-0.042316,1.451957,0.072587,0.026352,1.564701,0.107079,0.044346
1573523577.819058,-0.058762,-0.034976,0.009070,-0.002151,-0.027625,-0.040276,1.547764,0.081297,0.032277,1.631593,0.124404,0.047541
1573523577.913688,-0.079032,-0.041305,0.008277,-0.003563,-0.027047,-0.038540,1.703828,0.093253,0.041958,1.738989,0.119065,0.040710
1573523577.998348,-0.108407,-0.047749,0.007545,-0.003805,-0.027191,-0.037673,1.851612,0.100487,0.050965,1.820799,0.089888,0.046228
1573523578.102928,-0.119110,-0.050264,0.007280,-0.003583,-0.027347,-0.037527,2.047492,0.107148,0.058268,1.897068,0.058923,0.057634
1573523578.197548,-0.146952,-0.059537,0.006702,-0.003176,-0.026834,-0.037216,2.227531,0.110255,0.068587,1.951400,0.059402,0.073495
1573523578.292168,-0.162905,-0.068337,0.006255,-0.003114,-0.026487,-0.037494,2.416967,0.117492,0.078939,2.029812,0.089287,0.077688
1573523578.411688,-0.173280,-0.078520,0.005992,-0.002695,-0.026103,-0.037880,2.670133,0.128269,0.088589,2.142935,0.090751,0.071985
1573523578.516278,-0.181096,-0.088411,0.005781,-0.002037,-0.026288,-0.038149,2.900677,0.136086,0.096668,2.241152,0.071814,0.078242
1573523578.610898,-0.186717,-0.096897,0.005623,-0.001573,-0.025809,-0.037996,3.118590,0.143293,0.103061,2.341890,0.061583,0.041483
1573523578.705518,-0.188802,-0.100512,0.005561,-0.001132,-0.025928,-0.038195,3.343484,0.149872,0.107039,2.395099,0.098527,0.063635
1573523578.859898,-0.191037,-0.106060,0.005508,-0.000255,-0.026417,-0.037596,3.720339,0.168950,0.119812,2.500761,0.121842,0.099381
1573523578.954518,-0.193170,-0.107655,0.005328,0.000021,-0.027037,-0.037269,3.961731,0.180578,0.130293,2.603650,0.117651,0.102175
1573523579.049148,-0.198839,-0.109646,0.005110,0.000483,-0.028098,-0.037762,4.211805,0.189288,0.140347,2.683950,0.107846,0.083095
1573523579.143768,-0.205403,-0.111336,0.004877,0.000830,-0.028757,-0.038612,4.469630,0.198863,0.150710,2.766006,0.116826,0.094349
1573523579.283208,-0.208342,-0.113977,0.004849,0.000523,-0.028295,-0.038566,4.860899,0.213685,0.166340,2.835368,0.135669,0.128149
1573523579.367868,-0.208851,-0.120064,0.004790,-0.000147,-0.029069,-0.038397,5.104305,0.225686,0.176433,2.886568,0.120844,0.108171
1573523579.492368,-0.208038,-0.127701,0.004654,-0.000742,-0.029408,-0.037271,5.467396,0.239993,0.187523,2.946748,0.086918,0.070169
1573523579.621848,-0.208038,-0.136306,0.004427,-0.001053,-0.029269,-0.036208,5.844890,0.252508,0.195304,2.893119,0.104388,0.058491
1573523579.716468,-0.207785,-0.142629,0.004276,-0.001749,-0.029351,-0.034763,6.117787,0.264208,0.203817,2.884375,0.147027,0.122287
1573523579.870848,-0.221955,-0.150756,0.003602,-0.001983,-0.029419,-0.033219,6.556908,0.287781,0.234657,2.836750,0.128962,0.155604
1573523579.965468,-0.241442,-0.158023,0.003078,-0.001794,-0.029241,-0.031473,6.822853,0.300685,0.255823,2.829182,0.106259,0.114582
1573523580.060098,-0.255469,-0.161972,0.002739,-0.001429,-0.028964,-0.029974,7.093888,0.312928,0.270768,2.859489,0.119455,0.084111
1573523580.169648,-0.273792,-0.166263,0.002419,-0.002394,-0.029486,-0.027622,7.413027,0.328235,0.286579,2.875526,0.153160,0.095460
1573523580.249328,-0.286323,-0.168036,0.002154,-0.003534,-0.031213,-0.025313,7.652203,0.339876,0.299819,2.882026,0.152674,0.120818
1573523580.343948,-0.294690,-0.169932,0.002060,-0.003706,-0.032132,-0.022106,7.931336,0.353025,0.315933,2.896502,0.160337,0.158579
1573523580.438568,-0.304780,-0.172719,0.001842,-0.004379,-0.031989,-0.019508,8.212157,0.368376,0.335259,2.923890,0.150253,0.163634
1573523580.568048,-0.315422,-0.178118,0.001678,-0.005528,-0.032430,-0.017105,8.600191,0.387855,0.359657,3.014109,0.137183,0.149207
1573523580.662668,-0.323011,-0.182617,0.001443,-0.005760,-0.032801,-0.015313,8.896525,0.401043,0.376379,3.095918,0.174972,0.151396
1573523580.792148,-0.331193,-0.186870,0.001243,-0.006035,-0.033444,-0.013521,9.309420,0.424002,0.400721,3.191779,0.180423,0.182015
1573523580.891748,-0.341372,-0.191027,0.000972,-0.006236,-0.034208,-0.012240,9.630838,0.444159,0.425233,3.225525,0.193154,0.203676
1573523581.011258,-0.351809,-0.195321,0.000740,-0.006104,-0.035314,-0.011841,10.022187,0.466182,0.450901,3.354731,0.160897,0.158500
1573523581.105878,-0.357950,-0.197247,0.000600,-0.006458,-0.035822,-0.011926,10.348290,0.487247,0.469399,3.526051,0.214361,0.179207
1573523581.260258,-0.374945,-0.200200,0.000277,-0.007507,-0.036091,-0.011650,10.907916,0.529239,0.511574,3.689491,0.247114,0.250397
1573523581.295118,-0.392045,-0.199561,0.000200,-0.008118,-0.037147,-0.011774,11.036632,0.542729,0.527560,3.720579,0.240454,0.261725
1573523581.389738,-0.395940,-0.197866,0.000208,-0.009025,-0.037042,-0.011363,11.397155,0.564196,0.551886,3.815135,0.209612,0.213884
1573523581.544118,-0.397734,-0.179712,0.000756,-0.009619,-0.036538,-0.011387,12.004298,0.608050,0.582583,4.013015,0.269970,0.208997
1573523581.643728,-0.400793,-0.161785,0.001164,-0.010634,-0.035911,-0.010786,12.413172,0.640247,0.607312,4.132106,0.282864,0.247775
1573523581.798088,-0.395888,-0.154070,0.001554,-0.010932,-0.034937,-0.010530,13.051324,0.679554,0.639955,4.165469,0.298973,0.234731
1573523581.892718,-0.379585,-0.136795,0.002296,-0.011057,-0.033998,-0.010492,13.457195,0.711146,0.651915,4.250019,0.360430,0.259018
1573523582.032158,-0.353132,-0.115077,0.003319,-0.011334,-0.034161,-0.010804,14.055682,0.759619,0.670231,4.314703,0.327569,0.248608
1573523582.146698,-0.338054,-0.103366,0.003938,-0.011084,-0.033583,-0.010042,14.550489,0.791363,0.683322,4.370338,0.275073,0.175413
1573523582.211418,-0.328686,-0.088556,0.004335,-0.011811,-0.033056,-0.008921,14.833761,0.804618,0.688331,4.405249,0.274734,0.164422
1573523582.365808,-0.326563,-0.074596,0.004674,-0.011315,-0.032364,-0.008726,15.518542,0.848882,0.715618,4.439003,0.348144,0.234454
1573523582.460428,-0.324415,-0.070477,0.004815,-0.011523,-0.032186,-0.007186,15.938320,0.880652,0.737719,4.445755,0.412284,0.279210
1573523582.555048,-0.320390,-0.074059,0.004886,-0.011635,-0.032834,-0.006256,16.363372,0.918782,0.759252,4.507366,0.420675,0.245449
1573523582.649668,-0.316535,-0.084617,0.004700,-0.010928,-0.033960,-0.006245,16.793816,0.954189,0.777150,4.555664,0.346002,0.196903
1573523582.744288,-0.308060,-0.095778,0.004672,-0.010692,-0.035360,-0.005886,17.225111,0.981631,0.786610,4.538373,0.280706,0.159049
1573523582.838908,-0.303442,-0.104269,0.004466,-0.010128,-0.036993,-0.005179,17.656275,1.008398,0.801139,4.536469,0.347167,0.204081
1573523582.968398,-0.299567,-0.106838,0.004561,-0.009201,-0.037707,-0.005569,18.247025,1.060525,0.827340,4.578055,0.420069,0.271747
1573523583.063018,-0.307479,-0.111699,0.004299,-0.008962,-0.037545,-0.005838,18.674659,1.104936,0.859431,4.598469,0.414239,0.247383
1573523583.187518,-0.322364,-0.120206,0.003984,-0.008991,-0.037240,-0.005898,19.243212,1.154990,0.894511,4.592602,0.342173,0.164752
1573523583.272188,-0.338429,-0.135183,0.003553,-0.009541,-0.037010,-0.006134,19.624787,1.186323,0.920164,4.598875,0.328764,0.165638
1573523583.411638,-0.353673,-0.155666,0.003132,-0.009785,-0.037035,-0.006260,20.259923,1.242459,0.960632,4.607940,0.414401,0.273702
1573523583.506248,-0.356895,-0.163278,0.003020,-0.010287,-0.036091,-0.005766,20.695653,1.284186,0.989612,4.591466,0.423542,0.299071
1573523583.600868,-0.362992,-0.180781,0.002508,-0.010952,-0.035469,-0.005687,21.124702,1.322276,1.023568,4.602811,0.371404,0.258639
1573523583.735328,-0.370856,-0.216430,0.001442,-0.011908,-0.035300,-0.006000,21.738310,1.369242,1.065167,4.612542,0.374654,0.203670
1573523583.849878,-0.370396,-0.235904,0.001058,-0.011407,-0.034766,-0.006126,22.261358,1.415669,1.090026,4.598448,0.406878,0.242240
1573523583.944498,-0.382721,-0.243613,0.000701,-0.010726,-0.034007,-0.005861,22.694970,1.458470,1.125327,4.627899,0.399403,0.262509
1573523584.039118,-0.392586,-0.240471,0.000793,-0.010548,-0.033619,-0.005452,23.133779,1.499982,1.156765,4.647304,0.421047,0.284782
1573523584.198488,-0.395645,-0.228137,0.001133,-0.010781,-0.034058,-0.005211,23.882765,1.566778,1.201441,4.593199,0.349826,0.273171
1573523584.293108,-0.404376,-0.186672,0.001962,-0.010823,-0.035981,-0.004087,24.347029,1.602507,1.229196,4.588312,0.339704,0.270443
1573523584.387718,-0.410748,-0.161083,0.002422,-0.011103,-0.035761,-0.003191,24.795042,1.636181,1.259598,4.622619,0.413902,0.310656
1573523584.547088,-0.420894,-0.142699,0.002900,-0.011447,-0.035757,-0.001793,25.526427,1.708992,1.310498,4.645682,0.415809,0.258419
1573523584.641708,-0.424396,-0.135061,0.002978,-0.012338,-0.034973,-0.000517,25.963660,1.744798,1.340398,4.643367,0.440457,0.290941
1573523584.766208,-0.425784,-0.132299,0.003035,-0.012988,-0.033853,-0.000628,26.542919,1.794167,1.377392,4.674279,0.343497,0.276214
1573523584.860828,-0.422602,-0.143444,0.002776,-0.012999,-0.033628,-0.000665,26.974022,1.819384,1.403077,4.654779,0.302592,0.290560
1573523584.955448,-0.413967,-0.157716,0.002567,-0.013346,-0.033170,-0.001760,27.405325,1.844800,1.423826,4.620695,0.348583,0.292637
1573523585.050078,-0.385499,-0.211312,0.001623,-0.012354,-0.032452,-0.003192,27.818066,1.878559,1.430606,4.599761,0.418324,0.288218
1573523585.144688,-0.347944,-0.265407,0.000709,-0.012021,-0.032324,-0.004522,28.227605,1.905199,1.429660,4.565656,0.382387,0.266258
1573523585.239308,-0.327422,-0.291337,0.000368,-0.011609,-0.032768,-0.005237,28.642589,1.936458,1.438478,4.536038,0.365196,0.260404
1573523585.373768,-0.291134,-0.318806,0.000187,-0.011382,-0.033497,-0.006796,29.239904,1.975603,1.440399,4.542917,0.322062,0.222960
1573523585.493288,-0.261420,-0.338334,-0.000077,-0.011357,-0.032967,-0.007329,29.780561,2.003686,1.443389,4.529823,0.331507,0.227537
1573523585.587908,-0.245390,-0.370938,-0.000796,-0.011385,-0.032704,-0.007627,30.199453,2.032846,1.457499,4.487297,0.397060,0.242681
1573523585.727348,-0.236634,-0.388027,-0.001230,-0.011699,-0.032243,-0.007499,30.821473,2.075739,1.484140,4.505588,0.283783,0.182870
1573523585.812008,-0.231623,-0.389087,-0.001044,-0.010767,-0.032397,-0.006727,31.202520,2.104989,1.492018,4.487727,0.300937,0.204351
1573523585.906608,-0.226848,-0.385394,-0.000971,-0.010649,-0.032468,-0.005772,31.631695,2.133242,1.508365,4.440811,0.339325,0.230047
1573523586.060998,-0.227419,-0.370488,-0.000639,-0.010450,-0.032043,-0.003871,32.317599,2.191003,1.545300,4.387369,0.357510,0.248614
1573523586.155618,-0.235754,-0.355655,-0.000357,-0.009982,-0.031188,-0.001800,32.740336,2.231264,1.574337,4.393214,0.372521,0.237402
1573523586.250238,-0.245558,-0.328878,0.000226,-0.010315,-0.029298,0.000313,33.164859,2.270093,1.599321,4.401345,0.333879,0.210317
1573523586.344868,-0.263765,-0.284142,0.001149,-0.010496,-0.027983,0.001728,33.593928,2.309997,1.624486,4.358044,0.318935,0.199564
1573523586.504228,-0.278446,-0.264311,0.001480,-0.010453,-0.027491,0.003544,34.286068,2.385518,1.674398,4.352867,0.432599,0.271338
1573523586.534108,-0.289155,-0.250819,0.001799,-0.009733,-0.028158,0.004432,34.421424,2.416238,1.688440,4.346779,0.459161,0.284947
1573523586.663588,-0.290351,-0.246285,0.001916,-0.009886,-0.028025,0.005576,34.978022,2.476792,1.724266,4.327024,0.389257,0.254204
1573523586.758208,-0.293518,-0.242501,0.001963,-0.010489,-0.027414,0.007109,35.385932,2.517677,1.750371,4.274477,0.334968,0.224479
1573523586.852828,-0.297475,-0.241452,0.001933,-0.010933,-0.027451,0.007383,35.788095,2.555068,1.777073,4.244463,0.330054,0.238115
1573523586.947448,-0.301826,-0.236057,0.002059,-0.011519,-0.027553,0.008133,36.196214,2.593596,1.803347,4.248634,0.379622,0.262532
1573523587.106808,-0.303946,-0.231753,0.002154,-0.012016,-0.027152,0.009883,36.865272,2.658826,1.845627,4.206538,0.414527,0.240828
1573523587.201418,-0.306720,-0.241859,0.001782,-0.012668,-0.027797,0.012202,37.256154,2.699267,1.876975,4.203407,0.452389,0.254016
1573523587.296038,-0.303461,-0.249307,0.001620,-0.013080,-0.027386,0.013717,37.644477,2.737528,1.898936,4.183173,0.434868,0.232822
1573523587.390648,-0.304146,-0.244512,0.001717,-0.013465,-0.027294,0.015049,38.051250,2.777117,1.921696,4.177749,0.434433,0.265126
1573523587.515148,-0.302567,-0.231371,0.002089,-0.013505,-0.027177,0.016363,38.578565,2.827374,1.947639,4.163298,0.429519,0.245290
1573523587.609768,-0.305180,-0.222852,0.002200,-0.014346,-0.027018,0.018189,38.977698,2.864922,1.971353,4.170316,0.474622,0.210741
1573523587.704388,-0.305537,-0.215487,0.002429,-0.014895,-0.027020,0.019164,39.375387,2.913004,1.987162,4.160723,0.545135,0.186560
1573523587.799008,-0.309681,-0.206801,0.002566,-0.015894,-0.027046,0.020357,39.774177,2.969709,2.007108,4.148491,0.705355,0.191003
1573523587.893628,-0.311322,-0.198954,0.002730,-0.016943,-0.027215,0.021707,40.167717,3.041703,2.026128,4.132229,0.867544,0.196332
1573523588.052988,-0.310350,-0.186781,0.003073,-0.017203,-0.026782,0.022771,40.823720,3.190394,2.058795,4.068449,0.982075,0.250527
1573523588.117738,-0.305244,-0.180356,0.003351,-0.017336,-0.026689,0.023637,41.073265,3.252207,2.067064,4.035028,1.017758,0.258066
1573523588.212358,-0.301307,-0.172324,0.003593,-0.017111,-0.026686,0.024355,41.450589,3.352724,2.083407,3.994593,1.111845,0.206509
1573523588.306978,-0.298950,-0.167377,0.003777,-0.017338,-0.026235,0.025881,41.822969,3.464923,2.096892,3.950705,1.270365,0.189838
1573523588.461348,-0.298530,-0.160557,0.004002,-0.017311,-0.026102,0.027061,42.421585,3.683567,2.121077,3.823697,1.592873,0.175441
1573523588.555968,-0.301372,-0.152505,0.004111,-0.017772,-0.025768,0.028143,42.787030,3.840731,2.138258,3.784335,1.786634,0.150503
1573523588.655568,-0.298902,-0.146431,0.004327,-0.017750,-0.026449,0.027802,43.159690,4.025357,2.149384,3.715508,1.953938,0.181272
1573523588.750188,-0.297283,-0.135786,0.004589,-0.018202,-0.026397,0.027492,43.506604,4.209678,2.161676,3.639330,2.045634,0.194466
1573523588.844808,-0.293460,-0.130895,0.004807,-0.018488,-0.025679,0.027514,43.819345,4.406819,2.173246,3.519858,2.167958,0.198138
1573523588.939428,-0.293536,-0.136099,0.004594,-0.018656,-0.024757,0.027232,44.142059,4.620338,2.196418,3.388156,2.318774,0.203308
1573523589.034048,-0.295163,-0.147845,0.004433,-0.018817,-0.024321,0.027129,44.429807,4.849993,2.219516,3.233299,2.495141,0.206467
1573523589.158558,-0.298497,-0.154453,0.004337,-0.019023,-0.023940,0.027064,44.803495,5.174862,2.246873,3.079894,2.676175,0.171386
1573523589.253168,-0.304164,-0.156284,0.004318,-0.019394,-0.023593,0.026938,45.070176,5.436423,2.266752,2.930510,2.833021,0.154083
1573523589.283048,-0.313283,-0.149062,0.004399,-0.019254,-0.023744,0.026829,45.148459,5.525736,2.276099,2.869197,2.880038,0.157413
1573523589.412538,-0.316271,-0.142205,0.004526,-0.019270,-0.023447,0.026441,45.508430,5.912703,2.297619,2.704437,3.055335,0.185466
1573523589.507158,-0.319974,-0.127851,0.004750,-0.019424,-0.023055,0.026012,45.771324,6.206883,2.315274,2.629168,3.105587,0.185033
1573523589.601778,-0.324308,-0.111375,0.005002,-0.020059,-0.021849,0.026087,46.028397,6.504969,2.331701,2.512603,3.186382,0.213358
1573523589.696388,-0.322895,-0.109565,0.005005,-0.020769,-0.020593,0.026137,46.267396,6.806250,2.349337,2.415894,3.252775,0.170226
1573523589.790998,-0.322519,-0.108671,0.004936,-0.021430,-0.019571,0.025920,46.500080,7.116176,2.366317,2.266481,3.352589,0.159801
1573523589.885618,-0.289008,-0.077928,0.005248,-0.021999,-0.018412,0.025590,46.771716,7.426067,2.353198,2.156278,3.434919,0.148770
1573523590.010128,-0.254719,-0.042909,0.005456,-0.021868,-0.017132,0.025731,47.107452,7.851331,2.344870,2.008800,3.554001,0.122459
1573523590.104748,-0.204394,0.013892,0.006199,-0.021562,-0.015442,0.025783,47.355213,8.169074,2.306009,1.932239,3.602240,0.102531
1573523590.204338,-0.159257,0.061517,0.006972,-0.020698,-0.014481,0.025893,47.612658,8.508674,2.268558,1.913359,3.654225,0.083890
1573523590.298958,-0.140145,0.053669,0.006746,-0.020938,-0.012956,0.025803,47.797610,8.837415,2.275508,1.807521,3.710801,0.097521
1573523590.393568,-0.118172,0.063472,0.006737,-0.020937,-0.012003,0.025836,47.977691,9.170434,2.272521,1.703665,3.704602,0.075036
1573523590.488188,-0.070464,0.085408,0.007123,-0.020575,-0.011159,0.025823,48.171812,9.478906,2.245589,1.595787,3.680605,0.078519
1573523590.582808,-0.037776,0.111232,0.007613,-0.019825,-0.010613,0.025484,48.343835,9.799870,2.224557,1.459821,3.711346,0.103363
1573523590.707298,-0.029329,0.116707,0.007601,-0.019834,-0.009867,0.025177,48.516172,10.254916,2.232185,1.291228,3.752507,0.064062
1573523590.801918,-0.012710,0.133047,0.007709,-0.019873,-0.009172,0.025457,48.645092,10.592812,2.225780,1.215380,3.714426,0.037540
1573523590.896538,-0.008516,0.124136,0.007412,-0.020502,-0.008451,0.024817,48.737143,10.928915,2.238620,1.047511,3.669008,0.038541
1573523590.991158,-0.020234,0.121081,0.007171,-0.020864,-0.007438,0.024799,48.824542,11.291807,2.252891,0.917462,3.707931,0.034585
1573523591.085768,-0.042274,0.119429,0.006966,-0.021580,-0.006875,0.024493,48.901345,11.681036,2.271958,0.814665,3.855922,0.070698
1573523591.180388,-0.039241,0.129913,0.007001,-0.022031,-0.005964,0.024763,48.984725,12.049479,2.276081,0.748661,3.922975,0.087618
1573523591.309868,-0.044504,0.135049,0.006895,-0.022830,-0.005078,0.024995,49.072675,12.575104,2.293164,0.553859,3.999597,0.089997
1573523591.404488,-0.051768,0.144415,0.006936,-0.023655,-0.004050,0.025636,49.131113,12.973831,2.298746,0.452125,4.035502,0.023169
1573523591.499108,-0.052895,0.160628,0.007150,-0.024126,-0.002816,0.026223,49.187013,13.369848,2.293483,0.358663,4.084830,0.026175
1573523591.593728,-0.032543,0.170587,0.007446,-0.023796,-0.001728,0.027085,49.230271,13.717709,2.281930,0.309159,4.111797,0.028792
1573523591.688338,-0.022205,0.171099,0.007460,-0.024020,-0.000651,0.027522,49.249601,14.079693,2.283817,0.175126,4.161344,0.063417
1573523591.782958,-0.021833,0.169942,0.007567,-0.024133,0.000038,0.027902,49.254062,14.467300,2.287061,0.062482,4.174933,0.068470
1573523591.907468,-0.012174,0.171931,0.007730,-0.023790,0.000584,0.028653,49.263412,14.969006,2.285368,0.001488,4.217374,0.023092
1573523592.002088,-0.011027,0.172307,0.007733,-0.023704,0.001556,0.029638,49.258940,15.365883,2.287334,-0.112340,4.251089,0.026350
1573523592.096708,-0.013394,0.167757,0.007701,-0.024085,0.001903,0.031125,49.237517,15.768600,2.291679,-0.173826,4.289734,0.003439
1573523592.191328,-0.008638,0.167454,0.007713,-0.024346,0.002327,0.032459,49.225333,16.163467,2.290630,-0.142288,4.352025,0.002202
1573523592.285948,-0.007201,0.166328,0.007722,-0.024753,0.003302,0.033432,49.212528,16.568780,2.290792,-0.119482,4.391667,0.003724
1573523592.390528,-0.006119,0.160009,0.007674,-0.024910,0.004251,0.034217,49.184732,17.014770,2.293689,-0.229842,4.411216,0.016968
1573523592.510048,-0.005085,0.158560,0.007764,-0.024605,0.004973,0.034856,49.148483,17.538798,2.293913,-0.328660,4.461250,0.019455
1573523592.604668,-0.000731,0.155523,0.007777,-0.024051,0.005653,0.035372,49.109233,17.939951,2.295123,-0.413114,4.474425,0.033868
1573523592.699288,0.006587,0.152172,0.007800,-0.023312,0.006254,0.035665,49.062629,18.328184,2.298287,-0.505318,4.461121,0.058395
1573523592.793908,0.014565,0.145542,0.007847,-0.022934,0.006943,0.036029,49.004552,18.701568,2.304633,-0.509451,4.452588,0.054866
1573523592.888528,0.019109,0.141705,0.007912,-0.022302,0.007317,0.036531,48.955084,19.097498,2.307617,-0.441127,4.502678,0.023731
1573523592.983148,0.027840,0.138083,0.008029,-0.021303,0.007760,0.037362,48.916751,19.478674,2.306902,-0.418315,4.515037,0.022777
1573523593.107648,0.028167,0.135355,0.008030,-0.020645,0.008115,0.037861,48.853561,20.037301,2.311252,-0.492773,4.550930,0.024095
1573523593.202268,0.030799,0.130521,0.007953,-0.020174,0.007818,0.038890,48.795029,20.443810,2.318633,-0.563512,4.513016,0.043712
1573523593.296888,0.029691,0.129526,0.007919,-0.019592,0.007622,0.039672,48.735404,20.875706,2.324383,-0.597343,4.552124,0.065052
1573523593.391508,0.029539,0.127846,0.007883,-0.019079,0.007271,0.040431,48.670792,21.304809,2.332373,-0.630235,4.606078,0.061394
1573523593.486118,0.027509,0.124769,0.007813,-0.018456,0.007194,0.040601,48.600995,21.746937,2.339567,-0.583540,4.631211,0.029336
1573523593.580738,0.022953,0.119765,0.007846,-0.017962,0.007030,0.041028,48.526783,22.199485,2.341337,-0.557724,4.676683,0.012365
1573523593.710218,0.019130,0.115894,0.007761,-0.017549,0.006395,0.041561,48.437118,22.819142,2.345020,-0.537222,4.707388,-0.006119
1573523593.829738,0.015900,0.114163,0.007658,-0.017364,0.006432,0.042558,48.351575,23.402443,2.351061,-0.674069,4.737211,0.057794
1573523593.929328,0.009038,0.112504,0.007545,-0.017280,0.006797,0.042697,48.264632,23.920913,2.359969,-0.701690,4.782498,0.053261
1573523594.053838,0.013909,0.112671,0.007507,-0.017033,0.006865,0.043707,48.186930,24.486635,2.369326,-0.699088,4.773623,0.069537
1573523594.148458,0.014388,0.111195,0.007431,-0.016705,0.006875,0.044995,48.114602,24.933859,2.378180,-0.723953,4.782703,0.061020
1573523594.277938,0.012324,0.109603,0.007348,-0.016793,0.006716,0.046037,48.010874,25.567977,2.387674,-0.713921,4.841509,0.042878
1573523594.402428,0.015026,0.108979,0.007310,-0.016859,0.006831,0.046806,47.928358,26.157634,2.396038,-0.735692,4.873120,0.057975
1573523594.497048,0.024843,0.106496,0.007316,-0.016506,0.007092,0.047761,47.881928,26.552165,2.401037,-0.701539,4.846583,0.054803
1573523594.591678,0.035776,0.103793,0.007363,-0.015880,0.007003,0.048441,47.841458,26.947748,2.402952,-0.650989,4.822008,0.051053
1573523594.686298,0.044695,0.101688,0.007415,-0.015335,0.007298,0.049387,47.800197,27.336196,2.406941,-0.665498,4.788424,0.067076
1573523594.845658,0.053697,0.098800,0.007583,-0.014550,0.007359,0.050017,47.707161,28.023813,2.413538,-0.679404,4.742970,0.057293
1573523594.940268,0.062932,0.095887,0.007800,-0.013661,0.007098,0.050936,47.663712,28.399428,2.411935,-0.633956,4.690558,0.064331
1573523595.034888,0.067574,0.092977,0.007878,-0.012804,0.007048,0.051874,47.613346,28.810961,2.411866,-0.538159,4.706842,0.013182
1573523595.129508,0.074394,0.090561,0.007877,-0.012098,0.006622,0.052377,47.577128,29.195510,2.415791,-0.560392,4.695400,0.033176
1573523595.254008,0.078653,0.087112,0.007838,-0.011355,0.006531,0.052769,47.510414,29.731305,2.422772,-0.562751,4.648405,0.046930
1573523595.353608,0.082642,0.084095,0.007865,-0.010614,0.006253,0.052595,47.456554,30.149108,2.428928,-0.597322,4.616131,0.062241
1573523595.478088,0.086993,0.081550,0.007904,-0.009824,0.006159,0.052693,47.391676,30.679365,2.435073,-0.570181,4.615682,0.067205
1573523595.602598,0.090526,0.079726,0.007990,-0.009486,0.005981,0.052650,47.332430,31.214952,2.439934,-0.485715,4.598571,0.025907
1573523595.697218,0.092700,0.078715,0.008025,-0.009142,0.005956,0.052853,47.290616,31.625656,2.440691,-0.520863,4.581896,0.025925
1573523595.791838,0.097598,0.076525,0.008140,-0.008553,0.005167,0.052682,47.251704,32.001398,2.440126,-0.529627,4.549459,0.033859
1573523595.916338,0.100947,0.074126,0.008236,-0.007888,0.004558,0.052300,47.192723,32.531759,2.439060,-0.507817,4.566962,0.020162
1573523596.045808,0.102146,0.072879,0.008223,-0.007616,0.004250,0.052435,47.123627,33.107020,2.444718,-0.540662,4.536883,0.045671
1573523596.140428,0.104280,0.071559,0.008265,-0.007509,0.003844,0.052094,47.073441,33.509332,2.449854,-0.567889,4.529682,0.067383
1573523596.299788,0.105658,0.070530,0.008280,-0.007346,0.003717,0.052069,46.993951,34.209246,2.457558,-0.470087,4.500376,0.048566
1573523596.394388,0.106465,0.069878,0.008232,-0.007293,0.003368,0.051560,46.950815,34.623707,2.464716,-0.480078,4.512495,0.035540
1573523596.489008,0.106703,0.069354,0.008228,-0.006933,0.003448,0.051399,46.903105,35.045927,2.466206,-0.519786,4.507682,0.033375
1573523596.583648,0.108470,0.068391,0.008257,-0.006810,0.003485,0.051702,46.857879,35.444062,2.470368,-0.526186,4.484965,0.045194
1573523596.678268,0.109993,0.067523,0.008297,-0.006842,0.003071,0.052017,46.813142,35.847028,2.473294,-0.516354,4.473688,0.044464
1573523596.802748,0.110951,0.066717,0.008310,-0.006519,0.003054,0.052439,46.751074,36.388210,2.479262,-0.465062,4.456048,0.056818
1573523596.932238,0.112132,0.065536,0.008343,-0.006517,0.002866,0.052990,46.690509,36.944960,2.484070,-0.509329,4.412324,0.048559
1573523597.026858,0.113769,0.064904,0.008386,-0.006218,0.002797,0.053640,46.645456,37.336921,2.486558,-0.547687,4.357262,0.050020
1573523597.151358,0.114718,0.064404,0.008386,-0.005979,0.002836,0.054447,46.580673,37.865891,2.492779,-0.497166,4.346712,0.046958
1573523597.245978,0.115061,0.063962,0.008360,-0.005984,0.002702,0.055298,46.535460,38.271452,2.497426,-0.450381,4.338204,0.029580
1573523597.340598,0.115959,0.063509,0.008395,-0.006000,0.002664,0.056177,46.495575,38.667857,2.500069,-0.466720,4.295822,0.070328
1573523597.435228,0.116569,0.062924,0.008463,-0.005844,0.002789,0.056261,46.450550,39.063291,2.501840,-0.486307,4.281200,0.036246
1573523597.594578,0.116652,0.062919,0.008561,-0.005982,0.002853,0.056339,46.369626,39.736268,2.504051,-0.549911,4.212334,0.067329
1573523597.669278,0.116445,0.063123,0.008607,-0.006215,0.002918,0.056381,46.329492,40.053352,2.508069,-0.531957,4.219335,0.073403
1573523597.753938,0.116969,0.063676,0.008684,-0.006967,0.002905,0.056591,46.303436,40.398557,2.509527,-0.444604,4.232569,0.016972
1573523597.878438,0.117269,0.064078,0.008710,-0.007563,0.002599,0.056692,46.259579,40.917526,2.511681,-0.491990,4.170625,0.063060
1573523598.002938,0.117378,0.064210,0.008683,-0.007778,0.002383,0.056682,46.200150,41.433637,2.522989,-0.527830,4.130066,0.067881
1573523598.097558,0.117507,0.064077,0.008670,-0.007763,0.002426,0.056712,46.150899,41.820016,2.529429,-0.520981,4.118252,0.054758
1573523598.167278,0.117338,0.063896,0.008677,-0.008305,0.002337,0.056781,46.115191,42.111141,2.531659,-0.509258,4.133857,0.045018
1573523598.286798,0.117576,0.063861,0.008743,-0.008645,0.002591,0.056760,46.056432,42.592351,2.535114,-0.568079,4.091706,0.061755
1573523598.381398,0.117682,0.063419,0.008821,-0.009061,0.002791,0.057081,45.999705,42.965909,2.535931,-0.556925,4.018441,0.040294
1573523598.476028,0.117967,0.063112,0.008789,-0.008892,0.003130,0.057635,45.939526,43.334347,2.542817,-0.636763,4.021375,0.071793
1573523598.635388,0.118176,0.062735,0.008737,-0.009492,0.002609,0.057863,45.838667,43.970639,2.555180,-0.637169,4.009748,0.055967
1573523598.729998,0.118187,0.061922,0.008755,-0.009987,0.002325,0.057600,45.770832,44.344456,2.559170,-0.631720,3.949181,0.045915
1573523598.794738,0.118144,0.061540,0.008704,-0.010970,0.002017,0.057667,45.728187,44.598357,2.565334,-0.645888,3.927970,0.044668
1573523598.904298,0.117587,0.061327,0.008752,-0.011637,0.001336,0.057537,45.648691,45.044784,2.568225,-0.731684,3.922786,0.061041
1573523599.028788,0.117082,0.061440,0.008743,-0.012606,0.000927,0.058061,45.549117,45.543795,2.578796,-0.856296,3.896882,0.072877
1573523599.143328,0.116539,0.061265,0.008760,-0.013167,0.000755,0.058159,45.435597,46.001085,2.583978,-0.977370,3.856192,0.059599
1573523599.237948,0.115808,0.061437,0.008796,-0.014281,0.000530,0.058799,45.339357,46.380050,2.586143,-1.059757,3.823272,0.052257
1573523599.332558,0.115628,0.061329,0.008868,-0.015074,0.000337,0.058920,45.238766,46.744172,2.588403,-1.120949,3.807213,0.056365
1573523599.427178,0.115897,0.060853,0.008953,-0.015343,0.000680,0.059038,45.122998,47.083721,2.592953,-1.240399,3.746745,0.076902
1573523599.551658,0.116145,0.060673,0.009010,-0.015678,0.000643,0.058755,44.962712,47.531909,2.601711,-1.435703,3.648923,0.086778
1573523599.676168,0.116502,0.060069,0.009046,-0.014936,0.000730,0.057823,44.764711,47.961663,2.608386,-1.548248,3.586326,0.034255
1573523599.745888,0.117107,0.059398,0.009093,-0.014628,0.000347,0.056264,44.652163,48.178892,2.608010,-1.598517,3.536849,0.016749
1573523599.835508,0.117168,0.059014,0.009158,-0.014271,0.000108,0.055464,44.495663,48.477555,2.607059,-1.692546,3.465646,0.017956
1573523599.930138,0.117474,0.058542,0.009197,-0.013734,-0.000110,0.054444,44.321935,48.785269,2.606606,-1.791749,3.403592,0.014937
1573523600.024758,0.117442,0.058311,0.009207,-0.013142,-0.000280,0.053517,44.138871,49.103139,2.607670,-1.915102,3.320530,0.034794
1573523600.154238,0.117426,0.057994,0.009259,-0.012752,-0.000236,0.052576,43.867192,49.517495,2.610406,-2.084725,3.187534,0.035927
1573523600.268778,0.117578,0.057674,0.009297,-0.012305,-0.000218,0.051973,43.612907,49.864256,2.610029,-2.173318,3.092384,-0.012699
1573523600.373358,0.117781,0.057422,0.009296,-0.011915,-0.000288,0.051486,43.372253,50.168794,2.608905,-2.292844,2.986050,-0.020382
1573523600.497858,0.117867,0.057285,0.009285,-0.011833,-0.000469,0.050987,43.076961,50.528325,2.606635,-2.420463,2.880951,-0.023231
1573523600.592478,0.117768,0.057322,0.009297,-0.011720,-0.000739,0.051046,42.840136,50.800516,2.604532,-2.519899,2.786566,-0.009753
1573523600.687098,0.117660,0.057435,0.009342,-0.011742,-0.000943,0.051462,42.597970,51.065985,2.602434,-2.623295,2.695128,0.005959
1573523600.781728,0.117514,0.057537,0.009383,-0.011699,-0.001035,0.051553,42.345868,51.322903,2.600801,-2.697240,2.598487,-0.005367
1573523600.876348,0.117229,0.057735,0.009423,-0.011737,-0.001122,0.051694,42.087714,51.573768,2.597528,-2.775132,2.472473,-0.006870
1573523601.005828,0.116170,0.058321,0.009256,-0.011578,-0.000923,0.052212,41.712860,51.934178,2.603455,-2.944502,2.315355,-0.002316
1573523601.100428,0.115319,0.058785,0.009136,-0.011666,-0.000619,0.052349,41.424528,52.185873,2.607216,-3.029540,2.225317,-0.014285
1573523601.205018,0.113782,0.059571,0.009000,-0.012202,-0.000303,0.053067,41.099322,52.477175,2.613164,-3.105972,2.108346,0.009010
1573523601.289678,0.112718,0.060192,0.008909,-0.012701,0.000235,0.053606,40.831969,52.689253,2.618781,-3.177533,2.007777,0.027204
1573523601.384288,0.112016,0.060744,0.008868,-0.012844,0.000771,0.054564,40.526105,52.892405,2.621624,-3.246302,1.881364,0.014054
1573523601.478908,0.110875,0.061482,0.008776,-0.012806,0.001169,0.055274,40.210088,53.110978,2.627686,-3.277700,1.751433,0.038729
1573523601.593438,0.109695,0.062329,0.008744,-0.012901,0.001651,0.056009,39.826019,53.345301,2.633040,-3.324385,1.644741,0.045701
1573523601.732878,0.109259,0.062806,0.008677,-0.012937,0.001579,0.056442,39.347288,53.576138,2.642306,-3.423961,1.492004,0.025197
1573523601.827498,0.108219,0.063643,0.008632,-0.013003,0.001860,0.056758,39.008907,53.749511,2.646013,-3.484295,1.335725,0.025304
1573523601.951998,0.107387,0.064475,0.008545,-0.013237,0.002332,0.057306,38.562983,53.930846,2.652712,-3.508652,1.151338,0.028209
1573523602.046608,0.106765,0.065080,0.008522,-0.013244,0.002570,0.057564,38.222118,54.049802,2.656031,-3.543470,1.076064,0.021096
1573523602.171108,0.106520,0.065397,0.008453,-0.013605,0.003284,0.057601,37.780663,54.170153,2.662571,-3.574626,0.918622,0.028025
1573523602.300588,0.106324,0.065679,0.008411,-0.013815,0.003877,0.058054,37.320376,54.268889,2.668940,-3.548944,0.814396,0.030042
1573523602.395198,0.106004,0.066046,0.008431,-0.013782,0.004196,0.058463,36.985562,54.359436,2.668030,-3.502826,0.846616,-0.002171
1573523602.489818,0.105750,0.066314,0.008435,-0.013790,0.004562,0.058762,36.653983,54.440943,2.667568,-3.533721,0.743785,0.023149
1573523602.609338,0.105394,0.066749,0.008398,-0.013940,0.004762,0.059203,36.225808,54.527779,2.672060,-3.567357,0.450692,0.038463
1573523602.679038,0.105055,0.067260,0.008303,-0.014371,0.005235,0.059730,35.973766,54.573707,2.680835,-3.569603,0.390799,0.029679
1573523602.773668,0.104769,0.067589,0.008269,-0.014151,0.005606,0.060710,35.635248,54.615720,2.683376,-3.531076,0.414950,0.006133
1573523602.933028,0.104215,0.068431,0.008181,-0.014232,0.006144,0.061601,35.068390,54.705916,2.686904,-3.493406,0.472637,0.028304
1573523603.027648,0.103579,0.069313,0.008165,-0.014332,0.006825,0.061681,34.725926,54.763327,2.689857,-3.512578,0.402235,0.032446
1573523603.122268,0.103010,0.069943,0.008105,-0.014627,0.007348,0.061998,34.389178,54.804380,2.696185,-3.501624,0.332421,0.052059
1573523603.246768,0.102500,0.070435,0.008105,-0.014539,0.007732,0.062008,33.951296,54.845863,2.700256,-3.449653,0.292648,0.029406
1573523603.341388,0.102068,0.071026,0.008143,-0.014499,0.008063,0.061955,33.615874,54.872543,2.699593,-3.461671,0.105392,0.009039
1573523603.436008,0.101457,0.071490,0.008182,-0.014698,0.008510,0.061912,33.283012,54.889083,2.693993,-3.494958,0.107766,-0.042373
1573523603.530628,0.101342,0.071861,0.008217,-0.015089,0.008710,0.062176,32.948151,54.914868,2.688805,-3.487956,0.148839,-0.021463
1573523603.625248,0.101280,0.071379,0.008284,-0.015079,0.009125,0.062278,32.629817,54.918916,2.683295,-3.465335,0.172419,0.002027
1573523603.689978,0.100986,0.070933,0.008364,-0.015366,0.009334,0.062677,32.413617,54.916074,2.680199,-3.482161,0.093266,0.050184
1573523603.849358,0.100365,0.070528,0.008386,-0.015524,0.009777,0.063033,31.871081,54.909139,2.683730,-3.410832,0.013753,0.029920
1573523603.943968,0.099962,0.070328,0.008352,-0.015542,0.010019,0.063315,31.548213,54.903661,2.686979,-3.419210,0.021124,0.001916
1573523604.038588,0.099523,0.070049,0.008320,-0.015649,0.010321,0.063564,31.228826,54.897167,2.686901,-3.430747,0.001268,0.000827
1573523604.133218,0.099267,0.070152,0.008266,-0.015758,0.010739,0.063774,30.908142,54.894542,2.690025,-3.383273,-0.014807,-0.023922
1573523604.232818,0.098710,0.069807,0.008213,-0.016174,0.011012,0.063585,30.577263,54.884422,2.691134,-3.357230,-0.012531,-0.013051
1573523604.382218,0.098066,0.070530,0.008203,-0.016431,0.011086,0.063465,30.063658,54.888762,2.693347,-3.345151,0.009314,0.048153
1573523604.476848,0.097501,0.070683,0.008268,-0.016171,0.011430,0.063472,29.741588,54.884719,2.694513,-3.278470,0.007698,0.084346
1573523604.571468,0.097635,0.070178,0.008316,-0.015835,0.011562,0.063135,29.437354,54.882031,2.697420,-3.262109,0.076712,0.039319
1573523604.666088,0.097921,0.069785,0.008354,-0.015738,0.011631,0.063150,29.131719,54.891792,2.696852,-3.308322,0.167992,-0.014716
1573523604.795568,0.098459,0.069058,0.008414,-0.015442,0.011677,0.063107,28.715739,54.913179,2.687816,-3.289508,0.206698,-0.050941
1573523604.890188,0.098915,0.067525,0.008484,-0.014932,0.011816,0.062594,28.422683,54.913862,2.679512,-3.271513,0.149488,-0.019968
1573523604.989788,0.098865,0.065902,0.008554,-0.014639,0.011452,0.062217,28.105285,54.907770,2.674187,-3.264499,0.087578,0.016486
1573523605.144178,0.099065,0.064326,0.008599,-0.014332,0.011324,0.061742,27.615845,54.902584,2.675931,-3.245515,0.099787,0.035982
1573523605.238788,0.098684,0.062862,0.008615,-0.014150,0.011191,0.061415,27.315350,54.892913,2.676676,-3.230187,0.113993,0.016171
1573523605.373248,0.098192,0.062068,0.008564,-0.014103,0.011095,0.061254,26.880501,54.899781,2.679136,-3.196084,0.148518,-0.034381
1573523605.447948,0.098366,0.061366,0.008548,-0.014193,0.011014,0.061260,26.648778,54.905389,2.677460,-3.211530,0.120798,-0.043124
1573523605.522648,0.098426,0.060532,0.008522,-0.014205,0.010943,0.061119,26.414084,54.905951,2.677414,-3.256396,0.090510,-0.037755
1573523605.677028,0.098287,0.059623,0.008472,-0.014207,0.011019,0.060962,25.910544,54.909288,2.677645,-3.320189,0.099062,-0.008075
1573523605.771628,0.097410,0.059110,0.008447,-0.014276,0.011228,0.060837,25.588048,54.907109,2.678699,-3.356382,0.101961,0.012025
1573523605.901118,0.096789,0.057755,0.008364,-0.014506,0.011268,0.060655,25.150784,54.902643,2.687039,-3.398143,0.064996,0.035948
1573523605.995738,0.096285,0.056551,0.008330,-0.014538,0.011528,0.060474,24.830837,54.891257,2.690945,-3.437725,0.053894,0.020928
1573523606.090358,0.095646,0.055527,0.008366,-0.014496,0.011950,0.060186,24.503598,54.880889,2.688573,-3.486996,0.080951,-0.000560
1573523606.184978,0.095000,0.054583,0.008400,-0.014473,0.012064,0.060129,24.166298,54.875797,2.683718,-3.542146,0.112135,-0.008562
1573523606.344338,0.094480,0.053821,0.008402,-0.014325,0.012208,0.059997,23.583993,54.879045,2.679530,-3.712313,0.079373,-0.025985
1573523606.443938,0.093794,0.053189,0.008398,-0.014310,0.012009,0.059972,23.197794,54.873376,2.677315,-3.786583,0.061095,-0.010812
1573523606.533578,0.093797,0.052942,0.008412,-0.014147,0.011854,0.059989,22.854810,54.873247,2.676719,-3.849652,0.032833,0.021116
1573523606.628188,0.093497,0.052871,0.008397,-0.014042,0.011865,0.060688,22.480598,54.870948,2.679940,-3.908716,0.029086,0.033418
1573523606.722808,0.093241,0.053317,0.008356,-0.014055,0.011932,0.061633,22.098690,54.877381,2.685551,-3.989982,0.064356,0.023480
1573523606.847308,0.092842,0.053292,0.008399,-0.013917,0.011911,0.062555,21.585698,54.881291,2.682546,-4.103729,0.091757,-0.006358
1573523606.946898,0.092615,0.053001,0.008469,-0.013564,0.011870,0.063178,21.169856,54.880720,2.675083,-4.148128,0.091882,-0.021543
1573523607.036538,0.092328,0.052829,0.008496,-0.013281,0.011690,0.063700,20.788072,54.877176,2.670495,-4.203118,0.036548,-0.013184
1573523607.131158,0.092096,0.052702,0.008542,-0.013066,0.011470,0.064224,20.380007,54.870107,2.667850,-4.276522,-0.029042,0.031094
1573523607.225778,0.091978,0.052713,0.008517,-0.012885,0.011351,0.064931,19.969081,54.863394,2.672645,-4.346707,0.005409,0.031302
1573523607.385138,0.091588,0.052440,0.008566,-0.012783,0.011138,0.065487,19.256932,54.861905,2.664890,-4.470754,0.110595,-0.040809
1573523607.479758,0.090961,0.052194,0.008628,-0.012778,0.011062,0.066148,18.821164,54.857500,2.654239,-4.500737,0.102119,-0.046501
1573523607.574358,0.090636,0.052051,0.008648,-0.012874,0.011054,0.066830,18.386317,54.856604,2.650067,-4.548058,0.009104,0.019556
1573523607.668988,0.090417,0.051649,0.008631,-0.012838,0.010980,0.067225,17.948572,54.844144,2.653242,-4.611387,-0.042616,0.034491
1573523607.793488,0.090323,0.051164,0.008603,-0.012979,0.010939,0.067475,17.366239,54.829393,2.660236,-4.714194,-0.030366,0.016614
1573523607.888098,0.090186,0.050488,0.008571,-0.013130,0.010877,0.067550,16.916985,54.820083,2.659955,-4.750889,0.048505,-0.054821
1573523608.017578,0.090070,0.049930,0.008538,-0.013387,0.010780,0.067752,16.295788,54.820616,2.656027,-4.809441,0.068061,-0.036236
1573523608.142068,0.090129,0.049117,0.008512,-0.013603,0.010701,0.067477,15.695661,54.819005,2.660061,-4.876380,-0.034990,0.057219
1573523608.266568,0.090204,0.048336,0.008504,-0.013611,0.010816,0.067372,15.092293,54.804807,2.665968,-4.921834,-0.027878,0.024725
1573523608.396048,0.090350,0.047841,0.008504,-0.013577,0.010712,0.067255,14.455573,54.801921,2.665155,-4.959265,0.042869,-0.034962
1573523608.490668,0.090330,0.047562,0.008486,-0.013658,0.010366,0.067195,13.978511,54.802533,2.662353,-5.025068,0.016906,-0.041089
1573523608.585278,0.090229,0.047249,0.008471,-0.013715,0.009920,0.067237,13.494181,54.796483,2.660828,-5.090059,-0.005840,0.004050
1573523608.679898,0.089977,0.046974,0.008469,-0.013792,0.009608,0.067343,13.003001,54.784077,2.663538,-5.123331,-0.048699,0.036812
1573523608.839258,0.089860,0.046753,0.008462,-0.013958,0.009482,0.067324,12.182594,54.773583,2.670042,-5.156701,-0.014281,0.020999
1573523608.933868,0.089804,0.046571,0.008471,-0.014161,0.009378,0.067377,11.690881,54.775422,2.670594,-5.183015,0.035200,0.002905
1573523608.993628,0.089750,0.046382,0.008476,-0.014378,0.009307,0.067447,11.382447,54.777034,2.670990,-5.194210,0.058966,-0.020095
1573523609.088248,0.089670,0.046144,0.008483,-0.014529,0.009200,0.067648,10.890288,54.777049,2.670774,-5.227076,0.023197,0.025015
1573523609.182858,0.089615,0.045982,0.008494,-0.014592,0.009085,0.067616,10.394985,54.775360,2.673955,-5.238325,0.000635,0.051181
1573523609.277478,0.089635,0.045742,0.008528,-0.014496,0.008766,0.067457,9.895507,54.767603,2.675646,-5.280468,-0.047952,0.044953
1573523609.436828,0.089477,0.045552,0.008519,-0.014554,0.008550,0.067352,9.041761,54.756473,2.678578,-5.344335,-0.012918,0.005438
1573523609.531448,0.089425,0.045079,0.008521,-0.014461,0.008030,0.067020,8.531337,54.741714,2.679039,-5.369983,-0.006449,-0.001970
1573523609.626068,0.089398,0.044717,0.008528,-0.014503,0.007641,0.066724,8.018550,54.730944,2.678057,-5.419669,-0.004364,-0.005152
1573523609.720678,0.089383,0.044459,0.008532,-0.014550,0.007353,0.066554,7.507985,54.721600,2.678651,-5.404066,0.005347,0.007519
1573523609.855138,0.089466,0.044232,0.008539,-0.014378,0.007117,0.066504,6.788159,54.712802,2.679166,-5.364615,0.024115,0.012550
1573523609.974658,0.089562,0.044078,0.008608,-0.014153,0.007116,0.066694,6.151432,54.703146,2.677181,-5.380670,-0.062472,0.041692
1573523610.069278,0.089619,0.043942,0.008670,-0.013949,0.007251,0.066943,5.647004,54.687679,2.675813,-5.396704,-0.075387,0.031253
1573523610.193778,0.089683,0.044000,0.008678,-0.013833,0.007337,0.067532,4.979446,54.675901,2.678759,-5.420829,-0.034928,0.017327
1573523610.288388,0.089707,0.044005,0.008694,-0.014004,0.007113,0.067954,4.462770,54.678649,2.676361,-5.495008,0.036553,-0.027047
1573523610.383008,0.089694,0.043984,0.008734,-0.013969,0.006816,0.068659,3.939780,54.680346,2.669957,-5.496270,0.053463,-0.008041
1573523610.477608,0.089695,0.043986,0.008765,-0.013966,0.006631,0.069222,3.416872,54.679593,2.667831,-5.488284,-0.023007,0.018152
1573523610.572238,0.089690,0.043918,0.008799,-0.013808,0.006461,0.069635,2.896692,54.669446,2.668297,-5.481583,-0.076445,0.062875
1573523610.666858,0.089789,0.043783,0.008867,-0.013576,0.006197,0.070115,2.376466,54.661230,2.667515,-5.485452,-0.009702,0.023111
1573523610.796338,0.090046,0.043586,0.008920,-0.013429,0.005767,0.070426,1.672014,54.661700,2.663679,-5.478097,0.044604,-0.032229
1573523610.890958,0.090277,0.043355,0.008958,-0.013335,0.005454,0.070902,1.159168,54.663199,2.658261,-5.531711,0.018636,-0.029106
1573523610.985578,0.090298,0.043158,0.008998,-0.013286,0.005239,0.071523,0.632119,54.655907,2.650565,-5.562122,-0.032914,-0.032309
1573523611.144938,0.090211,0.043025,0.008999,-0.013033,0.005121,0.072108,-0.260584,54.642592,2.649885,-5.530828,0.023003,0.008782
1573523611.239558,0.090559,0.042898,0.009031,-0.012690,0.005084,0.072750,-0.764027,54.636890,2.650075,-5.502865,-0.024267,0.044123
1573523611.334168,0.090893,0.042819,0.009062,-0.012529,0.005107,0.073156,-1.267352,54.636817,2.650917,-5.493147,-0.012244,0.023690
1573523611.428778,0.091220,0.042843,0.009091,-0.012611,0.004994,0.073669,-1.771751,54.645871,2.650505,-5.485001,-0.035345,-0.006612
1573523611.523398,0.091610,0.042820,0.009104,-0.012660,0.004743,0.073702,-2.285186,54.656920,2.648077,-5.545322,-0.034833,-0.022688
1573523611.618008,0.091501,0.042879,0.009126,-0.012793,0.004640,0.074152,-2.824372,54.665395,2.642309,-5.589831,-0.000420,-0.034645
1573523611.742508,0.091644,0.042758,0.009204,-0.012771,0.004554,0.074275,-3.514122,54.672631,2.633755,-5.530845,0.008930,0.011715
1573523611.837108,0.092014,0.042513,0.009297,-0.012458,0.004447,0.074165,-4.020173,54.675067,2.627833,-5.508594,0.037960,0.033289
1573523611.931738,0.092172,0.042296,0.009361,-0.012095,0.004754,0.074277,-4.530807,54.672736,2.624009,-5.498910,0.014306,0.008931
1573523612.026358,0.092538,0.041945,0.009386,-0.012053,0.004514,0.074177,-5.027301,54.666956,2.620051,-5.474505,-0.011923,-0.025352
1573523612.120978,0.092594,0.041768,0.009352,-0.012065,0.004223,0.074328,-5.543816,54.662309,2.621926,-5.493603,0.009137,-0.026455
1573523612.245478,0.092674,0.041628,0.009288,-0.012003,0.003820,0.074395,-6.229764,54.662634,2.627168,-5.531371,0.050642,0.011977
1573523612.345078,0.092857,0.041512,0.009241,-0.011927,0.003603,0.074454,-6.774275,54.662300,2.632719,-5.536589,0.091524,-0.001846
1573523612.439678,0.093108,0.041409,0.009227,-0.011774,0.003507,0.074397,-7.282076,54.664623,2.635519,-5.496763,0.086821,-0.012404
1573523612.534308,0.093128,0.041343,0.009216,-0.011665,0.003500,0.074301,-7.800676,54.666248,2.635922,-5.478355,0.040181,0.008048
1573523612.628928,0.093253,0.041362,0.009270,-0.011787,0.003289,0.074566,-8.317614,54.676013,2.632440,-5.513271,0.016297,0.009844
1573523612.723548,0.093004,0.041428,0.009279,-0.012110,0.003254,0.074998,-8.854783,54.679998,2.631374,-5.527115,0.023625,0.014369
1573523612.853038,0.092742,0.041504,0.009227,-0.012296,0.003190,0.075096,-9.588994,54.685895,2.635931,-5.528481,0.091867,-0.014378
1573523612.912798,0.092717,0.041531,0.009191,-0.012340,0.003314,0.075023,-9.919915,54.689621,2.639499,-5.518686,0.113323,-0.008619
1573523613.037298,0.092690,0.041509,0.009182,-0.012392,0.003358,0.074868,-10.608965,54.704039,2.641666,-5.543077,0.062036,0.005109
1573523613.131918,0.092910,0.041368,0.009256,-0.012207,0.003453,0.074620,-11.116309,54.707985,2.634594,-5.530001,0.032392,-0.011082
1573523613.291258,0.093273,0.041193,0.009333,-0.011967,0.003458,0.074443,-11.971021,54.712553,2.626300,-5.521788,0.053877,-0.018610
1573523613.385888,0.093428,0.041003,0.009347,-0.011971,0.003239,0.074116,-12.482631,54.714799,2.625778,-5.503846,0.076850,0.019410
1573523613.480508,0.093509,0.040886,0.009311,-0.012135,0.002865,0.074074,-12.999280,54.720772,2.632599,-5.492496,0.048044,0.032820
1573523613.575128,0.093637,0.040829,0.009303,-0.012337,0.002660,0.074252,-13.509755,54.728259,2.636928,-5.512329,0.070574,-0.004831
1573523613.669748,0.093787,0.040774,0.009317,-0.012527,0.002669,0.074411,-14.018878,54.737944,2.634954,-5.520442,0.055945,-0.022272
1573523613.764368,0.093837,0.040815,0.009358,-0.012585,0.002714,0.074471,-14.534811,54.746394,2.627370,-5.507590,0.072373,-0.015205
1573523613.888868,0.093876,0.040876,0.009390,-0.012551,0.002692,0.074527,-15.222229,54.756889,2.625229,-5.538756,0.099268,0.017614
1573523613.983498,0.093600,0.040990,0.009424,-0.012628,0.002611,0.074755,-15.766988,54.765629,2.622968,-5.525881,0.084982,0.003364
1573523614.078118,0.093419,0.041079,0.009470,-0.012554,0.002708,0.074797,-16.301470,54.775882,2.618167,-5.491852,0.074410,-0.004051
1573523614.197638,0.093242,0.041150,0.009527,-0.012522,0.002658,0.074906,-16.972220,54.781828,2.611554,-5.494737,0.076074,-0.003720
1573523614.332098,0.093158,0.041126,0.009534,-0.012498,0.002608,0.074967,-17.722483,54.787436,2.610960,-5.533820,0.079494,-0.007827
1573523614.426718,0.093024,0.041112,0.009525,-0.012284,0.002526,0.074847,-18.261718,54.786961,2.610045,-5.543779,0.075772,-0.032843
1573523614.521338,0.092984,0.040985,0.009534,-0.011939,0.002523,0.074569,-18.792281,54.784803,2.605490,-5.562710,0.086008,-0.036253
1573523614.615958,0.093168,0.040831,0.009568,-0.011478,0.002453,0.074162,-19.303820,54.784021,2.600551,-5.557015,0.054689,-0.033381
1573523614.710578,0.093386,0.040679,0.009585,-0.011221,0.002413,0.074007,-19.810183,54.783846,2.597587,-5.531967,0.059693,-0.002263
1573523614.840048,0.093906,0.040455,0.009587,-0.010974,0.002393,0.073687,-20.476275,54.786215,2.600992,-5.477827,0.063969,0.002678
1573523614.869928,0.094371,0.040304,0.009563,-0.010966,0.002370,0.073651,-20.600605,54.789487,2.605246,-5.463782,0.067998,-0.005229
1573523614.964548,0.094778,0.040073,0.009556,-0.010729,0.002293,0.073334,-21.086141,54.786702,2.606124,-5.463541,0.028098,-0.003645
1573523615.089048,0.095131,0.039867,0.009577,-0.010385,0.002418,0.073149,-21.734860,54.777437,2.603275,-5.451281,0.007021,-0.007623
1573523615.193628,0.095871,0.039568,0.009640,-0.009942,0.002541,0.072967,-22.240663,54.766359,2.600380,-5.450221,0.021435,0.020877
1573523615.283268,0.096112,0.039381,0.009654,-0.009757,0.002652,0.072784,-22.707944,54.761810,2.600874,-5.452220,0.042776,0.014244
1573523615.372908,0.096284,0.039398,0.009634,-0.009704,0.002816,0.072984,-23.177809,54.760904,2.603208,-5.409781,0.024312,0.004029
1573523615.467528,0.096328,0.039402,0.009632,-0.009781,0.002558,0.072786,-23.688995,54.760095,2.606014,-5.397538,-0.021040,0.027612
1573523615.567128,0.096051,0.039498,0.009607,-0.009848,0.002246,0.072687,-24.260661,54.758610,2.611560,-5.430027,-0.025467,0.025791
1573523615.716528,0.096033,0.039492,0.009640,-0.009829,0.001908,0.072393,-25.078292,54.763955,2.611272,-5.414690,0.026960,0.020208
1573523615.816128,0.096171,0.039424,0.009673,-0.009801,0.001680,0.072161,-25.614120,54.771215,2.611773,-5.385106,0.048254,0.044450
1573523615.880858,0.096116,0.039420,0.009658,-0.009852,0.001415,0.071903,-25.971455,54.784904,2.615248,-5.396391,0.037450,0.043976
1573523615.975498,0.095548,0.039493,0.009626,-0.010200,0.001288,0.071892,-26.535523,54.793008,2.619433,-5.429212,0.013791,0.018541
1573523616.134848,0.095284,0.039438,0.009586,-0.010482,0.001056,0.071375,-27.427048,54.792667,2.625336,-5.409834,0.011764,0.003661
1573523616.229468,0.095074,0.039375,0.009562,-0.010602,0.000947,0.071217,-27.969587,54.785252,2.628975,-5.454778,0.041051,0.014235
1573523616.324088,0.095247,0.039243,0.009603,-0.010421,0.000852,0.071073,-28.478151,54.774578,2.626409,-5.439122,0.060280,0.020716
1573523616.418708,0.095246,0.039241,0.009598,-0.010319,0.000796,0.071028,-28.995800,54.770890,2.627470,-5.380500,0.068740,-0.006168
1573523616.513328,0.095205,0.039258,0.009583,-0.010316,0.000567,0.071120,-29.517888,54.767605,2.630412,-5.366401,0.000710,0.035759
1573523616.637828,0.095481,0.039208,0.009623,-0.010242,0.000326,0.070787,-30.168478,54.763613,2.632003,-5.354295,-0.019593,0.044914
1573523616.732448,0.095477,0.039165,0.009650,-0.010295,0.000327,0.070368,-30.675466,54.768647,2.632800,-5.341993,0.064119,0.012172
1573523616.827078,0.095539,0.039142,0.009646,-0.010238,0.000372,0.070153,-31.176491,54.778795,2.632523,-5.339858,0.089416,0.011138
1573523616.921698,0.095772,0.039106,0.009651,-0.010171,0.000524,0.069985,-31.651292,54.789234,2.634020,-5.320097,0.109613,0.007249
1573523617.081058,0.095278,0.039145,0.009655,-0.010344,0.000467,0.069995,-32.550118,54.801475,2.636279,-5.318846,-0.003552,0.024463
1573523617.175678,0.095423,0.039210,0.009653,-0.010356,0.000258,0.069999,-33.039572,54.804046,2.638121,-5.303195,0.013299,-0.005568
1573523617.270298,0.095018,0.039276,0.009669,-0.010516,-0.000086,0.070001,-33.587014,54.815426,2.633568,-5.269072,0.040976,0.005900
1573523617.364918,0.094761,0.039310,0.009699,-0.010640,-0.000225,0.069980,-34.108604,54.825183,2.630882,-5.196952,0.056278,0.019562
1573523617.524278,0.094536,0.039302,0.009710,-0.010802,-0.000414,0.069770,-34.954021,54.840712,2.629709,-5.113510,0.081844,-0.015754
1573523617.618878,0.094298,0.039267,0.009740,-0.010928,-0.000772,0.069444,-35.459194,54.850397,2.623496,-4.988134,0.071176,-0.031660
1573523617.713508,0.094069,0.039231,0.009761,-0.011127,-0.000919,0.069098,-35.951094,54.859045,2.620121,-4.909476,0.058686,0.019189
1573523617.837988,0.094008,0.039181,0.009785,-0.011306,-0.000915,0.068913,-36.561597,54.862619,2.620706,-4.792957,0.035958,0.048994
1573523617.932618,0.094179,0.039102,0.009773,-0.011397,-0.001128,0.068337,-36.999256,54.868268,2.626221,-4.696377,0.054139,0.011698
1573523618.027248,0.094094,0.039081,0.009743,-0.011483,-0.001039,0.068189,-37.447122,54.870457,2.628967,-4.579434,0.064729,-0.007613
1573523618.121868,0.094001,0.039072,0.009751,-0.011384,-0.001051,0.068114,-37.886408,54.875405,2.626905,-4.495944,0.095790,-0.006174
1573523618.216478,0.093795,0.039067,0.009795,-0.011335,-0.001019,0.068115,-38.323072,54.883793,2.621138,-4.425858,0.103147,0.009941
1573523618.311098,0.094020,0.039021,0.009866,-0.011138,-0.000945,0.068230,-38.705669,54.889083,2.616492,-4.310156,0.049536,0.054544
1573523618.435598,0.094285,0.038991,0.009903,-0.011013,-0.000914,0.068356,-39.203206,54.891121,2.619334,-4.190954,0.007171,0.016134
1573523618.555118,0.094390,0.038991,0.009931,-0.010886,-0.000935,0.068607,-39.681079,54.892717,2.616411,-4.068509,0.031677,-0.005289
1573523618.659678,0.094477,0.039097,0.009915,-0.010800,-0.000819,0.069245,-40.096201,54.896157,2.621137,-3.992766,0.058052,0.024593
1573523618.784188,0.094215,0.039158,0.009924,-0.010721,-0.000746,0.069741,-40.623613,54.896532,2.622621,-3.976324,0.035371,0.007673
1573523618.878808,0.094189,0.039132,0.009950,-0.010755,-0.000826,0.069889,-41.000875,54.893718,2.618902,-3.960456,-0.090395,0.000035
1573523618.973428,0.094390,0.039106,0.009958,-0.010741,-0.000991,0.069900,-41.354075,54.881018,2.618781,-3.918040,-0.233302,0.012093
1573523619.068048,0.094409,0.039067,0.009936,-0.010797,-0.001051,0.069756,-41.719821,54.850464,2.622766,-3.872226,-0.322732,0.000431
1573523619.162668,0.094438,0.038990,0.009949,-0.010838,-0.001141,0.069385,-42.083091,54.815106,2.621439,-3.869511,-0.402484,-0.000773
1573523619.302108,0.094338,0.038926,0.009987,-0.010747,-0.001095,0.069011,-42.632536,54.746276,2.618048,-3.872406,-0.554495,0.033861
1573523619.416658,0.094282,0.038914,0.010002,-0.010688,-0.000881,0.068839,-43.075520,54.668796,2.620469,-3.836387,-0.765875,0.015348
1573523619.511268,0.094317,0.038892,0.010037,-0.010672,-0.000714,0.068738,-43.428103,54.582540,2.615074,-3.770460,-0.978936,-0.014973
1573523619.635768,0.094218,0.038904,0.010022,-0.010750,-0.000719,0.068804,-43.907683,54.440962,2.614856,-3.694552,-1.239042,0.002652
1573523619.735378,0.094041,0.038900,0.010023,-0.010846,-0.000800,0.068814,-44.304928,54.303205,2.615418,-3.660768,-1.394252,0.011791
1573523619.829998,0.093935,0.038863,0.010028,-0.010779,-0.000902,0.068786,-44.677650,54.151646,2.614043,-3.641494,-1.485880,-0.031725
1573523619.924628,0.093886,0.038812,0.010090,-0.010516,-0.000853,0.068743,-45.035512,53.985012,2.601971,-3.578158,-1.680699,-0.029580
1573523620.079018,0.094009,0.038791,0.010108,-0.010156,-0.000940,0.068711,-45.563395,53.679432,2.597737,-3.344941,-2.107250,0.004367
1573523620.173638,0.094177,0.038809,0.010092,-0.010160,-0.001031,0.068803,-45.860051,53.467339,2.602354,-3.170590,-2.291586,0.016281
1573523620.268248,0.093984,0.038885,0.010027,-0.010555,-0.001184,0.068822,-46.180860,53.255266,2.613254,-3.059646,-2.434585,0.027433
1573523620.357898,0.093227,0.038966,0.009960,-0.010935,-0.001294,0.068187,-46.517403,53.050513,2.623766,-2.949927,-2.552843,0.034996
1573523620.432608,0.092384,0.039036,0.009909,-0.011273,-0.001452,0.067973,-46.828622,52.869228,2.629384,-2.830156,-2.675496,0.034878
1573523620.522248,0.091758,0.039087,0.009895,-0.011476,-0.001616,0.067807,-47.138983,52.633275,2.633043,-2.681753,-2.850378,-0.002940
1573523620.681608,0.091219,0.039117,0.009932,-0.011538,-0.001790,0.067835,-47.600030,52.160945,2.625632,-2.374079,-3.099315,0.009456
1573523620.716468,0.090874,0.039121,0.009948,-0.011698,-0.001835,0.067744,-47.718248,52.053068,2.623935,-2.288307,-3.141711,0.022941
1573523620.870848,0.090542,0.039142,0.009949,-0.011862,-0.001901,0.067645,-48.083955,51.550833,2.628182,-1.925622,-3.389608,0.023663
1573523620.930588,0.090246,0.039153,0.009927,-0.011973,-0.001930,0.067667,-48.239391,51.340716,2.630704,-1.803352,-3.434162,0.002812
1573523621.030198,0.089898,0.039197,0.009922,-0.011987,-0.002030,0.068201,-48.460204,50.987328,2.630460,-1.620366,-3.456599,0.014687
1573523621.124818,0.089831,0.039237,0.009909,-0.011841,-0.002103,0.068729,-48.616659,50.647830,2.634329,-1.461368,-3.512466,0.039298
1573523621.219438,0.089633,0.039290,0.009910,-0.011828,-0.002056,0.069205,-48.768235,50.307636,2.637379,-1.275103,-3.568737,0.028072
1573523621.314058,0.089620,0.039346,0.009905,-0.011879,-0.002034,0.069698,-48.873910,49.966715,2.639236,-1.016427,-3.663037,0.014159
1573523621.408678,0.089687,0.039369,0.009880,-0.011960,-0.002043,0.069898,-48.945465,49.626405,2.643176,-0.770494,-3.685141,-0.010588
1573523621.533168,0.089633,0.039407,0.009867,-0.011945,-0.002074,0.070240,-49.032511,49.169043,2.644045,-0.540743,-3.699430,-0.006308
1573523621.627788,0.089684,0.039454,0.009817,-0.011960,-0.001858,0.070531,-49.066583,48.817554,2.648181,-0.377125,-3.673676,-0.018061
1573523621.722408,0.089854,0.039486,0.009788,-0.011864,-0.001627,0.070838,-49.065473,48.464534,2.647992,-0.181039,-3.666654,-0.002852
1573523621.817028,0.090098,0.039506,0.009746,-0.011948,-0.001361,0.071010,-49.030552,48.114638,2.655112,0.073579,-3.658872,0.013924
1573523621.911648,0.090219,0.039542,0.009705,-0.012069,-0.001185,0.071324,-48.995502,47.774483,2.662943,0.262490,-3.651699,0.015834
1573523622.036148,0.090578,0.039540,0.009702,-0.012117,-0.000914,0.071336,-48.893326,47.330958,2.664556,0.513846,-3.562769,0.001284
1573523622.130768,0.090617,0.039546,0.009683,-0.012084,-0.000659,0.071359,-48.830853,47.005183,2.661545,0.669584,-3.492999,-0.050184
1573523622.210448,0.090471,0.039579,0.009637,-0.012191,-0.000300,0.071452,-48.782218,46.735431,2.661146,0.802752,-3.465695,-0.038320
1573523622.320008,0.090433,0.039607,0.009604,-0.012063,0.000186,0.071573,-48.671589,46.360154,2.660963,1.076080,-3.429584,-0.006021
1573523622.419598,0.090441,0.039630,0.009593,-0.012036,0.000593,0.071781,-48.541610,46.026229,2.659658,1.198609,-3.354907,-0.020465
1573523622.479358,0.090381,0.039723,0.009570,-0.011956,0.001283,0.072076,-48.460387,45.828615,2.657372,1.204048,-3.345622,-0.064085
1573523622.573978,0.090351,0.039774,0.009609,-0.011912,0.001891,0.072059,-48.322530,45.518468,2.644630,1.315408,-3.287852,-0.038975
1573523622.668578,0.090385,0.039839,0.009624,-0.011509,0.002460,0.072191,-48.167259,45.207519,2.634789,1.445170,-3.187956,-0.039554
1573523622.763198,0.090551,0.039871,0.009637,-0.011076,0.003117,0.072097,-47.972799,44.909335,2.626735,1.619912,-3.109289,-0.016234
1573523622.857838,0.090694,0.039905,0.009617,-0.010648,0.003749,0.071822,-47.771029,44.617807,2.623361,1.745722,-3.031993,-0.024687
1573523622.987318,0.090621,0.040136,0.009540,-0.010399,0.004267,0.071853,-47.553464,44.229204,2.626951,1.884055,-2.877582,-0.019769
1573523623.081928,0.090650,0.040290,0.009509,-0.010096,0.004787,0.071912,-47.351776,43.959235,2.625991,1.978832,-2.775009,-0.023255
1573523623.206428,0.090651,0.040477,0.009481,-0.009725,0.005386,0.072061,-47.076549,43.617620,2.621952,2.136814,-2.655075,-0.033774
1573523623.330918,0.090694,0.040602,0.009427,-0.009958,0.006175,0.071811,-46.793068,43.305696,2.621423,2.284558,-2.601856,-0.024286
1573523623.370758,0.090592,0.040847,0.009379,-0.010125,0.006724,0.071893,-46.720325,43.207574,2.625756,2.340028,-2.568269,0.002892
1573523623.525138,0.090547,0.041064,0.009322,-0.010295,0.007332,0.071862,-46.365260,42.821068,2.632230,2.405725,-2.548082,-0.021991
1573523623.619768,0.090497,0.041390,0.009251,-0.010381,0.007929,0.072031,-46.162839,42.586349,2.636394,2.462428,-2.521709,-0.039531
1573523623.714388,0.090485,0.041857,0.009129,-0.010445,0.008480,0.072152,-45.961226,42.350049,2.647873,2.524866,-2.513197,-0.055142
1573523623.809008,0.090403,0.042233,0.009064,-0.010425,0.009090,0.072272,-45.743195,42.115605,2.652628,2.555848,-2.451218,-0.014332
1573523623.933508,0.090414,0.042418,0.009077,-0.010399,0.009522,0.072417,-45.437501,41.819845,2.650051,2.621226,-2.333694,0.015873
1573523624.038088,0.090435,0.042386,0.009077,-0.010410,0.010015,0.072510,-45.151663,41.595091,2.653049,2.739835,-2.221215,0.058682
1573523624.122748,0.090464,0.042221,0.009093,-0.010532,0.010583,0.072680,-44.912124,41.427799,2.653557,2.769229,-2.175459,0.037931
1573523624.217368,0.090570,0.042316,0.009043,-0.010673,0.011433,0.073004,-44.653203,41.242306,2.661840,2.814556,-2.198083,0.029547
1573523624.351828,0.090728,0.042267,0.009062,-0.010630,0.012160,0.073393,-44.275776,40.965510,2.661564,2.841289,-2.194973,0.033270
1573523624.406598,0.090872,0.041903,0.009027,-0.010711,0.012891,0.073965,-44.104059,40.878015,2.665956,2.861059,-2.179142,0.022450
1573523624.555998,0.091088,0.041033,0.008987,-0.011008,0.013675,0.074200,-43.646519,40.602432,2.666978,2.983153,-2.162353,-0.035802
1573523624.630698,0.091221,0.041134,0.008947,-0.010870,0.014490,0.074895,-43.419634,40.462752,2.668738,3.069073,-2.114993,-0.006005
1573523624.725328,0.091694,0.040790,0.008867,-0.010957,0.015296,0.075012,-43.122045,40.304307,2.680112,3.144238,-2.100336,0.033118
1573523624.879688,0.092051,0.040427,0.008822,-0.010890,0.015898,0.075102,-42.630886,40.012856,2.688785,3.163466,-2.126284,0.005464
1573523624.974308,0.092357,0.039865,0.008743,-0.010883,0.016510,0.075128,-42.322375,39.854736,2.701096,3.242582,-2.057923,0.002593
1573523625.068948,0.092932,0.039288,0.008698,-0.010838,0.016729,0.074812,-42.012652,39.699056,2.711512,3.347154,-1.976626,0.024872
1573523625.163548,0.093630,0.038323,0.008662,-0.010902,0.017088,0.074133,-41.689038,39.566832,2.722360,3.401864,-1.950567,0.040434
1573523625.258178,0.094194,0.037508,0.008646,-0.010913,0.017380,0.073605,-41.364230,39.425247,2.729855,3.407341,-1.941857,0.033766
1573523625.387658,0.094502,0.037659,0.008616,-0.010825,0.017661,0.073706,-40.927855,39.184038,2.741430,3.493588,-1.853806,0.047854
1573523625.482278,0.094837,0.036873,0.008601,-0.010854,0.017908,0.073467,-40.588466,39.044797,2.746781,3.542738,-1.901289,-0.004349
1573523625.576898,0.095225,0.036223,0.008602,-0.010904,0.018057,0.073308,-40.251615,38.892547,2.747908,3.555782,-1.934441,-0.000153
1573523625.671518,0.095270,0.035277,0.008602,-0.011057,0.018348,0.073218,-39.904210,38.748544,2.747535,3.615167,-1.904393,-0.005785
1573523625.766138,0.095517,0.035325,0.008611,-0.010935,0.018482,0.073260,-39.564427,38.575124,2.746445,3.683808,-1.896988,-0.017896
1573523625.860768,0.095679,0.034874,0.008591,-0.010899,0.018507,0.073180,-39.210435,38.415009,2.749051,3.743494,-1.850151,0.010275
1573523625.955378,0.095598,0.034221,0.008549,-0.010981,0.018452,0.073256,-38.842813,38.256918,2.756518,3.802763,-1.819503,0.049253
1573523626.079878,0.095570,0.033284,0.008501,-0.011218,0.018361,0.073209,-38.353966,38.060047,2.773573,3.850470,-1.755346,0.087029
1573523626.209358,0.095415,0.034409,0.008564,-0.011192,0.018485,0.073568,-37.871017,37.787321,2.772072,3.830125,-1.876257,0.027709
1573523626.333858,0.095546,0.034120,0.008544,-0.011195,0.018578,0.073495,-37.390688,37.561751,2.777274,3.886320,-1.957775,-0.003631
1573523626.428458,0.095708,0.033906,0.008579,-0.011027,0.018997,0.073428,-37.024507,37.398687,2.772473,3.905283,-1.960781,-0.009694
1573523626.523088,0.096056,0.033463,0.008610,-0.010891,0.019171,0.073179,-36.658662,37.240849,2.769744,3.929830,-1.958096,-0.001229
1573523626.617708,0.096370,0.032603,0.008690,-0.011031,0.019160,0.072904,-36.289233,37.088842,2.762311,3.960503,-1.928113,0.045082
1573523626.712328,0.096506,0.032702,0.008772,-0.010902,0.019525,0.073306,-35.923866,36.913633,2.756616,3.983156,-1.969982,0.059297
1573523626.806938,0.096703,0.032574,0.008745,-0.010908,0.019721,0.073089,-35.555670,36.739109,2.767741,3.992175,-1.989717,0.053050
1573523626.931438,0.096752,0.032207,0.008794,-0.010693,0.019934,0.073104,-35.057577,36.510179,2.763799,4.032121,-1.986755,-0.021528
1573523627.026048,0.096645,0.031793,0.008831,-0.010629,0.020200,0.073277,-34.670539,36.339737,2.754421,4.082069,-1.964744,-0.031381
1573523627.125648,0.096782,0.031684,0.008837,-0.010658,0.020500,0.073459,-34.274091,36.155283,2.752557,4.088935,-1.970069,-0.001303
1573523627.220258,0.096855,0.031967,0.008873,-0.010480,0.020687,0.073547,-33.892157,35.967905,2.750230,4.113983,-1.969686,0.035235
1573523627.314878,0.096988,0.032190,0.008866,-0.010722,0.020588,0.073381,-33.512391,35.763460,2.754742,4.088204,-2.065061,0.020966
1573523627.409498,0.097193,0.032052,0.008860,-0.011009,0.020550,0.073155,-33.137947,35.571453,2.760101,4.067488,-2.063500,0.034099
1573523627.533978,0.096940,0.031358,0.008855,-0.011526,0.020333,0.072947,-32.620428,35.323079,2.762735,4.116602,-1.981352,-0.008249
1573523627.628588,0.096685,0.030585,0.008841,-0.011935,0.020082,0.073074,-32.216658,35.148776,2.763236,4.173399,-1.919772,0.003301
1573523627.723218,0.096772,0.029967,0.008810,-0.012383,0.019854,0.073033,-31.825900,34.977501,2.770023,4.184117,-1.982513,0.011782
1573523627.817818,0.096489,0.029576,0.008806,-0.012692,0.019825,0.073349,-31.422772,34.791862,2.771336,4.170260,-2.025708,0.022280
1573523627.887548,0.096285,0.029131,0.008809,-0.013025,0.019935,0.073750,-31.132960,34.657462,2.769584,4.146219,-2.072360,-0.000327
1573523628.007068,0.096095,0.028650,0.008821,-0.013265,0.019852,0.074054,-30.631438,34.412129,2.764476,4.142791,-2.116264,-0.016856
1573523628.076778,0.096014,0.028167,0.008823,-0.013494,0.019904,0.074066,-30.345510,34.274353,2.764712,4.145549,-2.074535,-0.006743
1573523628.226158,0.095817,0.027579,0.008861,-0.013176,0.019957,0.074191,-29.715297,34.001213,2.757610,4.167210,-1.972080,0.018870
1573523628.325768,0.095686,0.026768,0.008866,-0.012968,0.019982,0.073618,-29.288633,33.836019,2.757617,4.166881,-1.994992,0.016598
1573523628.390508,0.095965,0.026484,0.008883,-0.012824,0.020049,0.073551,-29.034887,33.726284,2.757906,4.151428,-2.028471,0.008431
1573523628.514998,0.096211,0.026173,0.008896,-0.012921,0.020010,0.073300,-28.536052,33.485662,2.758665,4.133351,-2.045115,-0.005273
1573523628.609618,0.096787,0.026122,0.008962,-0.012700,0.019924,0.073064,-28.170582,33.305952,2.752294,4.122004,-2.038620,-0.021895
1573523628.704238,0.097153,0.026037,0.009011,-0.012638,0.019900,0.072960,-27.803087,33.127799,2.747957,4.114550,-1.973686,0.023584
1573523628.828728,0.097335,0.025826,0.009043,-0.012437,0.019893,0.072710,-27.297690,32.894994,2.748100,4.098894,-1.979289,0.044076
1573523628.923348,0.097582,0.025916,0.009051,-0.012449,0.019873,0.072661,-26.926841,32.706139,2.755356,4.056015,-1.998367,0.073119
1573523629.017968,0.096949,0.025352,0.009033,-0.012585,0.019769,0.072732,-26.505531,32.517878,2.758843,4.074000,-2.010137,0.046675
1573523629.112588,0.096131,0.024903,0.008994,-0.012709,0.019845,0.072930,-26.076874,32.331334,2.763165,4.086526,-1.991435,0.022294
1573523629.207188,0.095622,0.024348,0.008978,-0.012738,0.019832,0.072897,-25.659022,32.154734,2.762711,4.100666,-1.966636,0.011119
1573523629.301818,0.094968,0.023722,0.008943,-0.012786,0.019872,0.072942,-25.230702,31.983285,2.764974,4.145556,-1.929491,0.035666
1573523629.426318,0.094512,0.023105,0.008955,-0.012798,0.019945,0.073146,-24.694318,31.765583,2.767355,4.104096,-1.948669,0.063804
1573523629.525918,0.094128,0.022633,0.008949,-0.012732,0.019991,0.073311,-24.261065,31.584882,2.773746,4.116892,-1.955486,0.089274
1573523629.620538,0.094409,0.022688,0.008959,-0.012814,0.019956,0.073412,-23.894528,31.404851,2.781102,4.054189,-1.961828,0.034775
1573523629.715148,0.094494,0.022639,0.008965,-0.012786,0.019936,0.073502,-23.519222,31.224303,2.783315,4.034102,-1.959640,0.028643
1573523629.809768,0.094623,0.022624,0.008975,-0.012740,0.019755,0.073804,-23.140614,31.041337,2.783531,4.005240,-1.984003,0.009459
1573523629.904398,0.093974,0.022424,0.008949,-0.012919,0.019566,0.074438,-22.715397,30.845785,2.785459,4.018827,-1.954376,0.039686
1573523630.028878,0.094374,0.022592,0.008914,-0.012955,0.019512,0.074994,-22.242148,30.608234,2.800816,3.984462,-1.975320,0.079622
1573523630.118528,0.094783,0.022874,0.008857,-0.013251,0.019321,0.075603,-21.914970,30.418991,2.819701,3.915648,-2.022100,0.087106
1573523630.218128,0.095351,0.022952,0.008839,-0.013675,0.019163,0.075773,-21.570416,30.211775,2.832579,3.810811,-2.113558,0.046549
1573523630.312738,0.094452,0.022558,0.008789,-0.014040,0.019167,0.076014,-21.156717,29.992537,2.838260,3.772869,-2.199476,0.027980
1573523630.407358,0.094381,0.022418,0.008810,-0.014153,0.019086,0.076253,-20.798661,29.786452,2.838546,3.741030,-2.213871,0.042088
1573523630.501978,0.093685,0.021956,0.008754,-0.014313,0.019087,0.076490,-20.397715,29.579962,2.847723,3.755651,-2.208263,0.053876
1573523630.626478,0.094604,0.022042,0.008797,-0.014060,0.018943,0.076075,-19.995285,29.323775,2.857076,3.666875,-2.236841,0.085187
1573523630.726078,0.094559,0.021874,0.008773,-0.014360,0.018787,0.076115,-19.632676,29.095450,2.868973,3.576090,-2.332383,0.078477
1573523630.820698,0.094914,0.021771,0.008780,-0.014491,0.018797,0.075829,-19.326891,28.882603,2.877655,3.517989,-2.388819,0.074604
1573523630.920298,0.095281,0.021708,0.008776,-0.014430,0.018853,0.075571,-19.009990,28.653466,2.886980,3.437439,-2.460240,0.045479
1573523631.009938,0.095464,0.021550,0.008817,-0.014265,0.018785,0.075479,-18.714802,28.438598,2.885838,3.350340,-2.525326,0.041275
1573523631.129458,0.095840,0.021560,0.008844,-0.014080,0.018896,0.075782,-18.347790,28.151965,2.887006,3.306710,-2.547993,0.026744
1573523631.229058,0.096143,0.021560,0.008887,-0.014048,0.018907,0.075976,-18.041881,27.910996,2.884921,3.284051,-2.600484,0.023408
1573523631.333638,0.096366,0.021670,0.008934,-0.014140,0.018945,0.076167,-17.724410,27.639827,2.884820,3.198272,-2.631528,0.049888
1573523631.453158,0.096471,0.021762,0.008988,-0.014156,0.018879,0.076527,-17.350690,27.317319,2.883423,3.108226,-2.685461,0.050110
1573523631.547778,0.096102,0.021701,0.008976,-0.014303,0.018645,0.076963,-17.027875,27.044154,2.886655,3.043831,-2.749764,0.028719
1573523631.672288,0.096403,0.021733,0.009019,-0.014141,0.018405,0.077314,-16.672592,26.702280,2.884736,2.926490,-2.888201,0.011537
1573523631.766898,0.096127,0.021647,0.009071,-0.014189,0.018134,0.078036,-16.371127,26.417248,2.875245,2.882848,-2.904988,-0.001726
1573523631.861518,0.096263,0.021682,0.009092,-0.014331,0.018009,0.078610,-16.112815,26.144090,2.872897,2.850489,-2.882287,0.008735
1573523631.956138,0.096591,0.021795,0.009061,-0.014579,0.017999,0.079434,-15.876347,25.874714,2.882799,2.813825,-2.908387,0.060226
1573523632.050768,0.096737,0.021792,0.009033,-0.014671,0.018024,0.079604,-15.627372,25.599216,2.893807,2.728878,-2.995731,0.062040
1573523632.210138,0.096396,0.021621,0.009015,-0.014694,0.018194,0.079754,-15.180546,25.108711,2.898050,2.542292,-3.141670,-0.003418
1573523632.304758,0.096880,0.021553,0.009073,-0.014287,0.018395,0.079209,-14.986479,24.841668,2.892321,2.455713,-3.175007,-0.011332
1573523632.399378,0.097331,0.021458,0.009155,-0.014003,0.018382,0.078643,-14.795958,24.565723,2.882252,2.370583,-3.201729,0.002074
1573523632.523878,0.097368,0.021157,0.009179,-0.014007,0.018119,0.077628,-14.497862,24.183140,2.883489,2.378330,-3.161493,0.066992
1573523632.653358,0.097287,0.020787,0.009170,-0.014093,0.017791,0.076644,-14.183926,23.779608,2.894941,2.219432,-3.217671,0.100457
1573523632.713118,0.097054,0.020399,0.009149,-0.014211,0.017492,0.075806,-14.025760,23.591338,2.902158,2.143694,-3.252096,0.099933
1573523632.807738,0.096549,0.020028,0.009128,-0.014182,0.017227,0.075716,-13.771096,23.280333,2.907761,2.054672,-3.330565,0.027521
1573523632.902358,0.096224,0.019756,0.009122,-0.014268,0.016857,0.075894,-13.531794,22.963380,2.907800,2.039860,-3.363810,0.012474
1573523632.996978,0.096614,0.019741,0.009148,-0.013989,0.016721,0.075586,-13.368687,22.671477,2.907178,1.968705,-3.380805,0.018396
1573523633.126458,0.096711,0.019735,0.009156,-0.013784,0.016906,0.075316,-13.132348,22.249279,2.911946,1.858503,-3.375519,0.064276
1573523633.221078,0.096814,0.019823,0.009208,-0.013534,0.016892,0.075635,-12.966275,21.939061,2.913317,1.785878,-3.382969,0.100659
1573523633.315698,0.096323,0.019827,0.009213,-0.013634,0.016770,0.076041,-12.757290,21.591759,2.919759,1.708568,-3.454081,0.117756
1573523633.410318,0.096034,0.019823,0.009233,-0.013604,0.016719,0.076499,-12.571357,21.252715,2.925267,1.618541,-3.467369,0.111448
1573523633.504938,0.095825,0.019795,0.009236,-0.013736,0.016647,0.076785,-12.397765,20.909269,2.932797,1.579494,-3.434467,0.095715
1573523633.604538,0.096051,0.019922,0.009302,-0.013737,0.016158,0.077541,-12.257397,20.560017,2.931929,1.536172,-3.464082,0.056834
1573523633.724058,0.096098,0.019953,0.009326,-0.013871,0.015848,0.077947,-12.084331,20.131404,2.933092,1.394797,-3.540754,0.039369
1573523633.818678,0.095870,0.019942,0.009323,-0.014026,0.015624,0.078380,-11.933151,19.771943,2.935810,1.266971,-3.607696,0.043047
1573523633.913298,0.096049,0.020029,0.009353,-0.014066,0.015438,0.078751,-11.834707,19.428744,2.936778,1.209153,-3.621856,0.051674
1573523634.007898,0.096643,0.020154,0.009425,-0.013789,0.015203,0.079140,-11.776988,19.115788,2.935554,1.158729,-3.570327,0.073876
1573523634.102528,0.097047,0.020246,0.009474,-0.013747,0.014931,0.079523,-11.711645,18.788620,2.937051,1.066098,-3.573829,0.068941
1573523634.197148,0.097075,0.020224,0.009481,-0.013693,0.014683,0.079676,-11.607604,18.447741,2.943859,1.021598,-3.561291,0.088471
1573523634.326628,0.097488,0.020290,0.009547,-0.013547,0.014301,0.080000,-11.519989,18.001331,2.947441,0.868259,-3.555267,0.069383
1573523634.421258,0.097834,0.020342,0.009600,-0.013517,0.013955,0.080226,-11.479311,17.673051,2.947230,0.752585,-3.585019,0.056066
1573523634.515878,0.098146,0.020368,0.009645,-0.013421,0.013684,0.080333,-11.442205,17.344289,2.944308,0.669254,-3.593112,0.009098
1573523634.610488,0.098287,0.020346,0.009709,-0.013317,0.013352,0.080394,-11.383361,17.008026,2.936429,0.723293,-3.579334,0.022143
1573523634.705108,0.098266,0.020335,0.009769,-0.013108,0.013224,0.081024,-11.302068,16.668658,2.928468,0.729426,-3.591725,0.041319
1573523634.799728,0.098498,0.020340,0.009838,-0.012748,0.013020,0.081409,-11.249563,16.350745,2.924935,0.638764,-3.592904,0.029172
1573523634.959088,0.098742,0.020350,0.009900,-0.012494,0.012832,0.081599,-11.171730,15.797878,2.919271,0.564512,-3.594003,0.022811
1573523635.053688,0.098945,0.020387,0.009914,-0.012303,0.012593,0.081658,-11.135713,15.472882,2.923712,0.581711,-3.564265,0.065353
1573523635.148318,0.099156,0.020379,0.009955,-0.012097,0.012242,0.081609,-11.096266,15.151753,2.927107,0.592156,-3.518865,0.083567
1573523635.272818,0.099243,0.020357,0.010002,-0.011945,0.011798,0.081606,-11.023911,14.711349,2.929010,0.558101,-3.543668,0.048632
1573523635.367448,0.099080,0.020329,0.010015,-0.012044,0.011460,0.081592,-10.954893,14.349936,2.926658,0.467280,-3.556916,-0.023678
1573523635.462068,0.099070,0.020293,0.010041,-0.012001,0.011142,0.081593,-10.903401,14.005904,2.921198,0.454511,-3.557183,0.000690
1573523635.601508,0.099013,0.020266,0.010072,-0.011934,0.010926,0.081738,-10.821156,13.502616,2.918418,0.550259,-3.519501,0.035721
1573523635.651308,0.098913,0.020258,0.010101,-0.011798,0.010768,0.082235,-10.770468,13.314723,2.915948,0.586298,-3.517500,0.059147
1573523635.765848,0.098996,0.020253,0.010120,-0.011799,0.010545,0.082350,-10.710231,12.917712,2.920156,0.530790,-3.518453,0.052225
1573523635.870438,0.099024,0.020210,0.010129,-0.011894,0.010144,0.082158,-10.655842,12.536582,2.922519,0.474600,-3.529737,0.041054
1573523635.999918,0.099069,0.020214,0.010113,-0.011934,0.009834,0.082081,-10.603137,12.078042,2.930477,0.485772,-3.535264,0.016672
1573523636.079608,0.099170,0.020203,0.010126,-0.011837,0.009560,0.081829,-10.573994,11.804309,2.929793,0.500816,-3.514069,-0.008891
1573523636.219048,0.099127,0.020224,0.010136,-0.011910,0.009353,0.081739,-10.503052,11.304239,2.927376,0.529180,-3.505453,0.019257
1573523636.313668,0.099120,0.020197,0.010144,-0.012056,0.009139,0.081335,-10.453236,10.966156,2.930940,0.571373,-3.491794,0.048640
1573523636.473028,0.099132,0.020156,0.010174,-0.012102,0.008916,0.081173,-10.353272,10.403238,2.933424,0.555958,-3.494629,0.028194
1573523636.567648,0.099083,0.020071,0.010205,-0.012182,0.008739,0.081205,-10.279235,10.053412,2.929607,0.529310,-3.487849,0.019905
1573523636.662278,0.099154,0.020049,0.010244,-0.012264,0.008610,0.081025,-10.226491,9.725111,2.926293,0.531324,-3.462353,0.038117
1573523636.756898,0.099173,0.020028,0.010254,-0.012312,0.008566,0.081114,-10.167637,9.395335,2.929091,0.554256,-3.431502,0.038018
1573523636.851518,0.099272,0.020042,0.010296,-0.012371,0.008351,0.080987,-10.115682,9.076685,2.926771,0.610713,-3.405721,0.039977
1573523636.946138,0.099394,0.020019,0.010341,-0.012168,0.008068,0.080934,-10.048674,8.759015,2.924099,0.657619,-3.418401,0.021288
1573523637.105498,0.099529,0.020039,0.010400,-0.011801,0.007904,0.080996,-9.941153,8.228804,2.914109,0.651555,-3.417734,-0.017299
1573523637.165258,0.099795,0.020064,0.010414,-0.011524,0.007825,0.080938,-9.912647,8.062739,2.913085,0.658055,-3.378326,-0.015446
1573523637.274818,0.099863,0.019995,0.010415,-0.011579,0.007696,0.080888,-9.832165,7.695266,2.913983,0.723287,-3.295027,0.034887
1573523637.419248,0.099823,0.019938,0.010420,-0.011551,0.007388,0.081102,-9.706204,7.205626,2.922433,0.824302,-3.196337,0.088579
1573523637.513868,0.099913,0.019782,0.010465,-0.011622,0.007101,0.081144,-9.617344,6.889645,2.922343,0.781584,-3.202673,0.048571
1573523637.608488,0.099901,0.019667,0.010445,-0.011798,0.006942,0.081153,-9.515121,6.551668,2.926459,0.774883,-3.199794,-0.016627
1573523637.703108,0.099994,0.019561,0.010411,-0.011971,0.006877,0.081247,-9.417606,6.228166,2.928916,0.799021,-3.147992,-0.037929
1573523637.797728,0.100128,0.019442,0.010346,-0.011934,0.006412,0.080951,-9.312377,5.915803,2.941215,0.915000,-3.022383,0.024048
1573523637.927208,0.100454,0.019198,0.010306,-0.011792,0.006083,0.081048,-9.136638,5.515857,2.958715,1.140945,-2.905778,0.113129
1573523638.021828,0.100744,0.019009,0.010301,-0.011809,0.005981,0.080977,-9.011331,5.251679,2.971675,1.162851,-2.900555,0.101388
1573523638.146328,0.100859,0.019018,0.010252,-0.011806,0.005937,0.080973,-8.870164,4.901712,2.992861,1.136894,-2.901891,0.066131
1573523638.270838,0.101036,0.018880,0.010255,-0.011699,0.005689,0.080773,-8.717185,4.547288,2.999479,1.171710,-2.866646,0.021148
1573523638.365448,0.101262,0.018683,0.010323,-0.011646,0.005557,0.080421,-8.588654,4.284105,2.990022,1.226317,-2.807401,-0.007520
1573523638.460078,0.101503,0.018524,0.010334,-0.011553,0.005495,0.080159,-8.453514,4.032631,2.989500,1.324368,-2.747343,-0.008786
1573523638.559678,0.101711,0.018469,0.010385,-0.011603,0.005596,0.079766,-8.314709,3.784871,2.981294,1.431177,-2.669133,0.006022
1573523638.654298,0.102031,0.018398,0.010395,-0.011493,0.005693,0.079821,-8.169136,3.573387,2.985794,1.534990,-2.572424,0.093544
1573523638.793748,0.102487,0.018215,0.010418,-0.011258,0.005617,0.079925,-7.926739,3.259748,3.001918,1.658798,-2.446127,0.115983
1573523638.903308,0.102845,0.017996,0.010491,-0.010917,0.005454,0.080175,-7.715904,3.017167,3.002168,1.699467,-2.366615,0.065950
1573523638.997928,0.103182,0.017846,0.010581,-0.010355,0.005265,0.080369,-7.531633,2.823326,2.991646,1.664269,-2.348722,0.017306
1573523639.127418,0.103359,0.017842,0.010655,-0.010107,0.005330,0.080134,-7.325803,2.550144,2.979087,1.601325,-2.381766,-0.018185
1573523639.222038,0.103514,0.017754,0.010714,-0.009988,0.005308,0.080275,-7.167390,2.336234,2.968042,1.629352,-2.363180,-0.014788
1573523639.346538,0.103716,0.017605,0.010751,-0.009929,0.005229,0.080319,-6.947441,2.055363,2.962813,1.726989,-2.262717,0.019069
1573523639.471048,0.103874,0.017532,0.010771,-0.009814,0.005110,0.080345,-6.713932,1.776999,2.959042,1.777378,-2.204695,0.009385
1573523639.565668,0.104019,0.017491,0.010792,-0.009557,0.004957,0.080365,-6.526688,1.572831,2.958132,1.787869,-2.178876,0.024191
1573523639.660288,0.104100,0.017521,0.010823,-0.009254,0.004726,0.080456,-6.342657,1.367372,2.955830,1.779592,-2.178065,0.030904
1573523639.754908,0.104440,0.017464,0.010823,-0.009070,0.004553,0.080463,-6.165328,1.199115,2.961736,1.793419,-2.121852,0.034031
1573523639.849538,0.104690,0.017423,0.010828,-0.008798,0.004446,0.080491,-5.985347,1.038030,2.965564,1.855546,-2.028897,0.013743
1573523639.949138,0.104889,0.017361,0.010816,-0.008797,0.004508,0.080333,-5.796655,0.867195,2.970869,1.917662,-1.960926,0.013378
1573523640.073638,0.105165,0.017265,0.010822,-0.008530,0.004389,0.080389,-5.541911,0.653726,2.973226,1.938511,-1.932713,0.006996
1573523640.168268,0.105454,0.017119,0.010801,-0.008486,0.004397,0.080284,-5.346889,0.501970,2.979095,1.968682,-1.866112,0.008867
1573523640.262878,0.105713,0.016963,0.010817,-0.008290,0.004376,0.080234,-5.140228,0.354813,2.978322,2.040480,-1.818835,-0.013109
1573523640.402318,0.105982,0.016863,0.010806,-0.008137,0.004343,0.079792,-4.848709,0.153237,2.976112,2.172140,-1.642489,-0.031177
1573523640.452118,0.106029,0.016850,0.010800,-0.008121,0.004238,0.079606,-4.743420,0.079546,2.976173,2.198946,-1.601400,-0.015327
1573523640.566658,0.106142,0.016783,0.010817,-0.007959,0.004297,0.079516,-4.478870,-0.075943,2.974451,2.299914,-1.470030,0.036061
1573523640.706088,0.106283,0.016695,0.010836,-0.007935,0.004275,0.079440,-4.154172,-0.250054,2.974945,2.314385,-1.360831,0.035557
1573523640.800708,0.106282,0.016659,0.010875,-0.007862,0.004123,0.079677,-3.925041,-0.384454,2.970439,2.363638,-1.273747,0.018730
1573523640.895318,0.106232,0.016683,0.010921,-0.007869,0.004062,0.080097,-3.693886,-0.511518,2.963077,2.427011,-1.130279,0.017425
1573523641.054678,0.106170,0.016717,0.010953,-0.007778,0.004093,0.080270,-3.297421,-0.682800,2.959410,2.491774,-0.944221,0.028310
1573523641.149298,0.106238,0.016645,0.010975,-0.007783,0.004186,0.080269,-3.050599,-0.764021,2.956368,2.503663,-0.855013,0.022998
1573523641.273788,0.106361,0.016588,0.010996,-0.007608,0.004303,0.080287,-2.730612,-0.832764,2.952624,2.527653,-0.728912,-0.023091
1573523641.368408,0.106529,0.016489,0.011003,-0.007402,0.004472,0.079960,-2.480072,-0.855648,2.949172,2.555685,-0.670220,-0.051671
1573523641.472988,0.106652,0.016417,0.010971,-0.007186,0.004526,0.080003,-2.200262,-0.892941,2.954795,2.591370,-0.548685,-0.011465
1573523641.557648,0.106779,0.016302,0.010892,-0.007096,0.004606,0.079894,-1.967871,-0.917749,2.971646,2.606859,-0.442177,0.018305
1573523641.717008,0.106771,0.016276,0.010868,-0.007199,0.004698,0.079905,-1.557673,-0.977211,2.983025,2.580225,-0.332212,0.043423
1573523641.811628,0.106786,0.016228,0.010847,-0.007206,0.004723,0.079920,-1.309546,-1.012748,2.990947,2.551488,-0.335091,0.044337
1573523641.906248,0.106737,0.016205,0.010845,-0.007170,0.004807,0.079991,-1.059496,-1.068273,2.993129,2.520617,-0.330418,0.017426
1573523642.000868,0.106764,0.016159,0.010817,-0.007340,0.004933,0.079764,-0.823792,-1.096140,3.000447,2.495520,-0.301000,-0.000627
1573523642.095488,0.106739,0.016155,0.010783,-0.007381,0.005223,0.080072,-0.584082,-1.131324,3.005968,2.484426,-0.293526,0.007259
1573523642.254848,0.106715,0.016138,0.010806,-0.007508,0.005249,0.080126,-0.184918,-1.193449,3.005107,2.506437,-0.371732,0.000050
1573523642.349468,0.106709,0.016114,0.010847,-0.007512,0.005209,0.080156,0.058625,-1.234657,2.997006,2.467995,-0.371735,-0.005130
1573523642.444098,0.106692,0.016129,0.010810,-0.007680,0.005340,0.080182,0.280939,-1.271363,3.002207,2.420467,-0.350982,0.003511
1573523642.603458,0.106667,0.016182,0.010777,-0.007729,0.005468,0.080189,0.653474,-1.341690,3.011582,2.459107,-0.311831,0.039615
1573523642.698078,0.106611,0.016197,0.010778,-0.007873,0.005783,0.080506,0.879461,-1.388650,3.013459,2.460971,-0.337716,0.017272
1573523642.792698,0.106540,0.016250,0.010798,-0.008016,0.005965,0.080697,1.099058,-1.440155,3.009366,2.448396,-0.359291,0.008074
1573523642.852458,0.106527,0.016274,0.010821,-0.007812,0.006122,0.080694,1.249084,-1.456102,3.004902,2.441576,-0.345531,0.011111
1573523643.011818,0.106499,0.016293,0.010845,-0.007531,0.006223,0.080696,1.655294,-1.501345,3.002368,2.476377,-0.291330,0.040456
1573523643.106438,0.106483,0.016317,0.010862,-0.007339,0.006246,0.080633,1.903078,-1.536089,3.000505,2.511747,-0.337471,0.016020
1573523643.201058,0.106474,0.016317,0.010834,-0.007275,0.006324,0.080578,2.150784,-1.574327,3.005420,2.513986,-0.388116,-0.007963
1573523643.360418,0.106457,0.016327,0.010818,-0.007215,0.006350,0.080533,2.570065,-1.642075,3.007716,2.576037,-0.375153,0.009637
1573523643.455038,0.106447,0.016360,0.010793,-0.007211,0.006440,0.080469,2.822969,-1.675949,3.013758,2.621362,-0.307903,0.051761
1573523643.549658,0.106400,0.016400,0.010745,-0.007264,0.006615,0.080807,3.079488,-1.702081,3.030253,2.645262,-0.290322,0.075577
1573523643.644278,0.106435,0.016436,0.010752,-0.007417,0.006504,0.080456,3.327723,-1.758074,3.036522,2.664984,-0.333823,0.046614
1573523643.738898,0.106460,0.016457,0.010753,-0.007536,0.006404,0.080158,3.600032,-1.843750,3.038847,2.735055,-0.408838,-0.006633
1573523643.863388,0.106449,0.016492,0.010755,-0.007534,0.006441,0.079739,3.958586,-1.909766,3.036932,2.830901,-0.391332,-0.004240
1573523643.958008,0.106432,0.016556,0.010770,-0.007442,0.006552,0.079682,4.241633,-1.958544,3.035544,2.887870,-0.337771,0.047824
1573523644.117368,0.106390,0.016597,0.010826,-0.007450,0.006627,0.079524,4.710703,-2.019111,3.035077,2.934105,-0.363984,0.070831
1573523644.211968,0.106332,0.016675,0.010821,-0.007440,0.006741,0.079718,5.000596,-2.060335,3.040502,3.011926,-0.459166,0.028465
1573523644.321548,0.106307,0.016754,0.010835,-0.007354,0.006793,0.080116,5.346947,-2.120511,3.038893,3.136131,-0.527529,-0.005048
1573523644.465968,0.106269,0.016857,0.010839,-0.007400,0.006866,0.080459,5.819035,-2.210205,3.037426,3.261937,-0.529787,0.021552
1573523644.560568,0.106152,0.016994,0.010849,-0.007374,0.006994,0.080909,6.141819,-2.252612,3.038792,3.305632,-0.467527,0.058816
1573523644.655208,0.106015,0.017154,0.010803,-0.007449,0.007224,0.081358,6.467930,-2.297452,3.053288,3.335629,-0.449316,0.068659
1573523644.809568,0.105858,0.017326,0.010760,-0.007384,0.007319,0.081859,7.015424,-2.360654,3.068796,3.530588,-0.442323,0.040544
1573523644.904198,0.105696,0.017546,0.010749,-0.007390,0.007486,0.082009,7.367485,-2.397049,3.074420,3.654312,-0.434227,0.042050
1573523644.998818,0.105545,0.017770,0.010695,-0.007617,0.007514,0.082321,7.731916,-2.458493,3.089598,3.676974,-0.435589,0.053551
1573523645.093438,0.105462,0.017916,0.010666,-0.007860,0.007905,0.082463,8.074371,-2.514522,3.099954,3.705715,-0.483749,0.013114
1573523645.193038,0.105375,0.017992,0.010623,-0.008100,0.008186,0.082736,8.447794,-2.573040,3.111147,3.803491,-0.451657,0.031659
1573523645.317548,0.105487,0.018073,0.010605,-0.008247,0.008431,0.082636,8.916921,-2.652921,3.121614,3.930705,-0.437487,0.055930
1573523645.442048,0.105521,0.018045,0.010631,-0.008453,0.008730,0.082623,9.390804,-2.717620,3.125416,3.993596,-0.435679,0.072036
1573523645.571528,0.105408,0.018118,0.010624,-0.008626,0.009151,0.082719,9.898298,-2.779446,3.133748,3.981889,-0.444343,0.035946
1573523645.696038,0.105228,0.018187,0.010639,-0.008778,0.009499,0.082837,10.400966,-2.835905,3.136447,4.055519,-0.422834,0.078498
1573523645.790658,0.104982,0.018266,0.010633,-0.008922,0.009795,0.083079,10.797470,-2.875588,3.143598,4.080250,-0.446199,0.080078
1573523645.920138,0.104783,0.018360,0.010638,-0.009132,0.010033,0.083120,11.333233,-2.945679,3.148314,4.116145,-0.530336,0.006222
1573523646.009778,0.104634,0.018468,0.010651,-0.009138,0.010172,0.083125,11.716023,-2.995171,3.145156,4.147254,-0.522758,0.010535
1573523646.104398,0.104446,0.018624,0.010665,-0.009190,0.010167,0.083067,12.133860,-3.048100,3.143795,4.184290,-0.495718,0.062469
1573523646.223928,0.104423,0.018899,0.010699,-0.009255,0.010154,0.083008,12.636257,-3.122445,3.147852,4.212951,-0.502267,0.105817
1573523646.358388,0.104499,0.019115,0.010728,-0.009235,0.010231,0.083300,13.212378,-3.211522,3.153743,4.289048,-0.562693,0.046075
1573523646.453008,0.104612,0.019254,0.010793,-0.009147,0.010254,0.083421,13.620150,-3.279570,3.143039,4.306935,-0.610107,0.011574
1573523646.547608,0.104913,0.019300,0.010878,-0.008973,0.010153,0.083322,14.006242,-3.349357,3.127490,4.290647,-0.625803,0.001704
1573523646.706978,0.104921,0.019343,0.010957,-0.008888,0.010089,0.083407,14.705450,-3.437758,3.116591,4.347148,-0.488885,0.099991
1573523646.801598,0.104922,0.019315,0.011037,-0.008793,0.009938,0.083488,15.130744,-3.479653,3.109818,4.397256,-0.492891,0.113266
1573523646.896218,0.104763,0.019308,0.011079,-0.008725,0.009839,0.083790,15.576585,-3.520923,3.104388,4.406877,-0.607564,0.011691
1573523647.055578,0.104572,0.019257,0.011079,-0.008545,0.010026,0.083931,16.285187,-3.589277,3.099689,4.421085,-0.629691,-0.021502
1573523647.150198,0.104572,0.019257,0.011079,-0.008545,0.010026,0.083931,16.706101,-3.647206,3.099296,4.467147,-0.585187,0.022379
1573523647.304578,0.104150,0.019091,0.011026,-0.008180,0.009945,0.083990,17.434354,-3.653026,3.116375,4.512395,-0.481803,0.098987
1573523647.369328,0.103963,0.019086,0.011015,-0.008136,0.009891,0.083981,17.732747,-3.658612,3.124011,4.519300,-0.487435,0.094815
1573523647.493808,0.103858,0.019238,0.010984,-0.008156,0.009767,0.083952,18.307149,-3.719019,3.137284,4.536147,-0.562915,0.008843
1573523647.653158,0.103890,0.019449,0.010972,-0.008092,0.009659,0.083842,19.029147,-3.810057,3.141963,4.573054,-0.560570,0.016485
1573523647.747788,0.103870,0.019603,0.010963,-0.007967,0.009488,0.083772,19.484381,-3.867300,3.146952,4.620361,-0.588300,0.019022
1573523647.907148,0.103852,0.019682,0.010956,-0.008046,0.009294,0.083723,20.242860,-3.967600,3.158756,4.632411,-0.509694,0.103008
1573523648.051568,0.103760,0.019742,0.010939,-0.008148,0.009157,0.083777,20.933897,-4.050224,3.173486,4.618786,-0.577885,0.055070
1573523648.161128,0.103633,0.019756,0.010937,-0.008324,0.009020,0.083846,21.462854,-4.119170,3.180729,4.659828,-0.542634,0.066007
1573523648.255758,0.103507,0.019776,0.010923,-0.008488,0.008837,0.083793,21.928795,-4.172369,3.188323,4.722523,-0.547665,0.054097
1573523648.350368,0.103453,0.019865,0.010918,-0.008545,0.008571,0.083659,22.389106,-4.228876,3.191209,4.734971,-0.566821,0.037521
1573523648.410128,0.103392,0.019975,0.010941,-0.008571,0.008343,0.083566,22.693428,-4.265856,3.187952,4.769491,-0.530722,0.063265
1573523648.539598,0.103255,0.020046,0.010977,-0.008681,0.008097,0.083508,23.349175,-4.347097,3.184033,4.814327,-0.616535,0.041627
1573523648.693968,0.103164,0.020168,0.010979,-0.008704,0.008074,0.083495,24.102458,-4.444322,3.191115,4.788040,-0.615221,0.068262
1573523648.788588,0.103141,0.020369,0.010987,-0.008652,0.008220,0.083693,24.545480,-4.498754,3.195413,4.803466,-0.560154,0.052369
1573523648.918058,0.103089,0.020550,0.010997,-0.008634,0.008499,0.083752,25.152976,-4.568741,3.202111,4.796961,-0.578629,0.062130
1573523649.012658,0.103087,0.020751,0.011035,-0.008691,0.008534,0.083753,25.606992,-4.639242,3.199513,4.802764,-0.568596,0.069023
1573523649.107278,0.103148,0.020858,0.011092,-0.008642,0.008390,0.083643,26.066094,-4.701469,3.192113,4.820434,-0.573906,0.063492
1573523649.201908,0.103199,0.020978,0.011153,-0.008554,0.008262,0.083839,26.534170,-4.766914,3.182043,4.808897,-0.608387,0.053323
1573523649.361268,0.103205,0.021005,0.011171,-0.008423,0.008264,0.083866,27.297736,-4.847322,3.186583,4.766003,-0.558913,0.055369
1573523649.455878,0.103202,0.020943,0.011201,-0.008371,0.008128,0.083807,27.756474,-4.880127,3.182038,4.773855,-0.614466,0.028864
1573523649.550478,0.103218,0.020900,0.011235,-0.008287,0.008057,0.083747,28.217143,-4.933522,3.177516,4.761075,-0.586276,0.049013
1573523649.645108,0.103191,0.020858,0.011231,-0.008245,0.007953,0.083669,28.690084,-4.980591,3.180967,4.723793,-0.527301,0.073326
1573523649.864198,0.103297,0.020802,0.011254,-0.008186,0.007733,0.083691,29.709248,-5.093720,3.196642,4.691124,-0.533900,0.075661
1573523649.953838,0.103358,0.020800,0.011271,-0.008105,0.007147,0.083155,30.185023,-5.161862,3.197062,4.709187,-0.553703,0.058324
1573523650.053438,0.103335,0.020825,0.011264,-0.008004,0.006819,0.082878,30.688690,-5.215562,3.200535,4.674179,-0.560954,0.036409
1573523650.212788,0.103270,0.020838,0.011275,-0.007866,0.006597,0.082427,31.480547,-5.292041,3.207053,4.707067,-0.480819,0.090804
1573523650.337288,0.103196,0.020793,0.011282,-0.007788,0.006569,0.081929,32.087396,-5.339574,3.214894,4.694774,-0.528530,0.089113
1573523650.441858,0.103136,0.020685,0.011259,-0.007953,0.006461,0.081734,32.587735,-5.398867,3.226598,4.617629,-0.609760,0.048984
1573523650.561378,0.103033,0.020646,0.011262,-0.008027,0.006532,0.081624,33.144973,-5.455203,3.234461,4.605949,-0.561446,0.065683
1573523650.655978,0.102952,0.020617,0.011254,-0.008293,0.006536,0.081692,33.579278,-5.505064,3.244362,4.594697,-0.521288,0.077100
1573523650.750608,0.102889,0.020559,0.011264,-0.008502,0.006621,0.081699,34.002685,-5.545084,3.247880,4.586151,-0.494021,0.069199
1573523650.845228,0.102863,0.020473,0.011243,-0.008705,0.006755,0.081754,34.409679,-5.580198,3.260768,4.599364,-0.464360,0.067785
1573523650.939838,0.102826,0.020403,0.011196,-0.008730,0.006723,0.081878,34.843714,-5.607420,3.279471,4.571910,-0.472028,0.057915
1573523651.094198,0.102833,0.020412,0.011188,-0.008834,0.006972,0.082215,35.518670,-5.684671,3.294396,4.522130,-0.531211,0.083378
1573523651.188828,0.102860,0.020397,0.011199,-0.008893,0.007026,0.082542,35.926073,-5.729747,3.298842,4.514055,-0.505684,0.063016
1573523651.288408,0.102798,0.020428,0.011201,-0.008911,0.007174,0.082921,36.373406,-5.774488,3.297169,4.495853,-0.508835,0.012904
1573523651.417898,0.102862,0.020411,0.011191,-0.008762,0.007667,0.083610,36.887080,-5.795517,3.298811,4.456951,-0.301476,0.004075
1573523651.537408,0.102943,0.020419,0.011178,-0.008629,0.007962,0.083926,37.369366,-5.809711,3.304055,4.434258,-0.175604,0.035066
1573523651.666888,0.103101,0.020354,0.011173,-0.008519,0.007984,0.083969,37.893373,-5.831956,3.317145,4.362581,-0.125581,0.081976
1573523651.761498,0.103120,0.020304,0.011172,-0.008439,0.007977,0.084040,38.301008,-5.829969,3.323821,4.320445,-0.035074,0.053023
1573523651.856098,0.103218,0.020255,0.011171,-0.008514,0.008038,0.084107,38.673494,-5.840380,3.328213,4.301882,0.075258,0.014406
1573523652.000518,0.103186,0.020278,0.011175,-0.008649,0.008002,0.083945,39.305726,-5.832662,3.326573,4.230157,0.389744,0.006555
1573523652.139958,0.103119,0.020300,0.011177,-0.008786,0.007854,0.083899,39.927614,-5.771060,3.325031,4.224837,0.727709,0.009054
1573523652.234578,0.103085,0.020286,0.011212,-0.008834,0.007893,0.083830,40.329045,-5.692773,3.315361,4.191110,0.842528,0.014236
1573523652.359068,0.103066,0.020290,0.011246,-0.008766,0.008099,0.083934,40.830349,-5.562963,3.307998,4.059317,1.016236,0.040696
1573523652.453688,0.103060,0.020264,0.011245,-0.008749,0.008206,0.084132,41.195329,-5.440776,3.310636,3.954915,1.181214,0.039503
1573523652.548308,0.103126,0.020245,0.011241,-0.008680,0.008260,0.084383,41.535961,-5.307784,3.318044,3.862460,1.382771,0.052454
1573523652.647888,0.103077,0.020243,0.011250,-0.008682,0.008170,0.084759,41.939047,-5.146977,3.318700,3.793127,1.563398,0.026199
1573523652.802258,0.103168,0.020192,0.011238,-0.008913,0.008319,0.084612,42.452992,-4.909152,3.322279,3.590681,1.865171,-0.039764
1573523652.896888,0.103191,0.020163,0.011211,-0.009176,0.008295,0.084793,42.772525,-4.747430,3.328312,3.483215,2.059854,-0.013152
1573523653.036318,0.103200,0.020166,0.011179,-0.009376,0.008241,0.084952,43.240378,-4.469490,3.348940,3.276774,2.303150,0.086363
1573523653.150848,0.103162,0.020193,0.011178,-0.009322,0.008246,0.085086,43.623382,-4.200248,3.358330,3.149563,2.405353,0.078360
1573523653.245458,0.103186,0.020220,0.011198,-0.009206,0.008419,0.085511,43.895851,-3.939838,3.358604,3.057266,2.524355,0.042815
1573523653.399828,0.103215,0.020237,0.011182,-0.009235,0.008335,0.085758,44.359058,-3.552573,3.366233,2.857773,2.679638,0.014923
1573523653.454608,0.103231,0.020269,0.011171,-0.009345,0.008284,0.086033,44.511334,-3.420883,3.370350,2.773313,2.752362,0.014612
1573523653.594038,0.103274,0.020299,0.011152,-0.009451,0.008339,0.086525,44.860550,-3.039573,3.381567,2.530816,2.958234,0.052409
1573523653.688658,0.103304,0.020278,0.011153,-0.009778,0.008337,0.086761,45.064221,-2.787399,3.386727,2.430483,3.028339,0.055169
1573523653.783268,0.103356,0.020277,0.011148,-0.009991,0.008461,0.087147,45.252072,-2.514185,3.396899,2.325330,3.068838,0.045506
1573523653.907758,0.103406,0.020259,0.011179,-0.010189,0.008696,0.087421,45.476220,-2.148295,3.395267,2.126515,3.122558,0.049015
1573523654.002378,0.103409,0.020307,0.011155,-0.010544,0.009004,0.087965,45.622424,-1.898723,3.410242,1.923149,3.151638,0.035225
1573523654.096988,0.103350,0.020335,0.011158,-0.010708,0.009136,0.088380,45.802615,-1.602478,3.413680,1.755542,3.189928,0.049620
1573523654.191608,0.103273,0.020357,0.011178,-0.010944,0.009212,0.088851,45.977587,-1.298015,3.414968,1.675285,3.205429,0.077924
1573523654.286218,0.103188,0.020374,0.011170,-0.011195,0.009610,0.089163,46.117942,-0.968883,3.426489,1.665646,3.260132,0.104970
1573523654.415688,0.103167,0.020329,0.011178,-0.011181,0.009623,0.089282,46.329739,-0.491348,3.436305,1.614663,3.383937,0.060501
1573523654.540188,0.103145,0.020318,0.011187,-0.011072,0.009605,0.089596,46.538042,-0.015604,3.437740,1.519285,3.533065,0.028764
1573523654.634798,0.103269,0.020246,0.011214,-0.010996,0.009751,0.089876,46.601711,0.358002,3.425529,1.363913,3.603720,0.031656
1573523654.729418,0.103373,0.020180,0.011255,-0.010687,0.009884,0.089863,46.664276,0.768088,3.415704,1.202243,3.714220,0.043731
1573523654.853908,0.103420,0.020198,0.011274,-0.010475,0.009950,0.089930,46.789567,1.249915,3.415818,1.125320,3.826189,0.064844
1573523654.953498,0.103446,0.020189,0.011302,-0.010223,0.009844,0.089959,46.915884,1.668459,3.415243,1.104991,3.917220,0.082861
1573523655.048118,0.103417,0.020214,0.011333,-0.010217,0.009744,0.090103,47.045229,2.036494,3.410931,1.036091,3.990170,0.048517
1573523655.142728,0.103416,0.020230,0.011339,-0.010172,0.009737,0.090232,47.142545,2.417766,3.408642,0.913182,4.043646,0.014492
1573523655.237338,0.103429,0.020222,0.011351,-0.010169,0.009720,0.090273,47.221202,2.795002,3.406551,0.790064,4.117947,0.022603
1573523655.331958,0.103408,0.020230,0.011369,-0.010139,0.009720,0.090358,47.302160,3.193888,3.402845,0.694483,4.219333,0.042026
1573523655.456438,0.103416,0.020225,0.011386,-0.010029,0.009693,0.090460,47.386142,3.741422,3.402558,0.584229,4.275515,0.059855
1573523655.580948,0.103408,0.020218,0.011402,-0.010169,0.009584,0.090453,47.465085,4.250963,3.405511,0.555276,4.321916,0.015061
1573523655.705448,0.103419,0.020196,0.011418,-0.010228,0.009455,0.090495,47.523854,4.782499,3.405489,0.376912,4.380558,0.027193
1573523655.805028,0.103485,0.020152,0.011430,-0.010336,0.009365,0.090685,47.526086,5.212447,3.405437,0.342154,4.419604,-0.004827
1573523655.899658,0.103505,0.020134,0.011459,-0.010406,0.009436,0.090964,47.532362,5.643226,3.395730,0.311473,4.470001,0.007549
1573523655.934518,0.103502,0.020108,0.011478,-0.010568,0.009371,0.090853,47.539967,5.786998,3.393176,0.290518,4.466133,0.010998
1573523656.093868,0.103513,0.020074,0.011498,-0.010671,0.009361,0.090722,47.559483,6.501942,3.392930,0.134576,4.470163,0.034029
1573523656.248238,0.103561,0.020033,0.011554,-0.010809,0.009443,0.090663,47.528847,7.185477,3.381703,0.004724,4.496856,0.031251
1573523656.402618,0.103606,0.020000,0.011569,-0.010742,0.009479,0.090666,47.491816,7.899192,3.389321,-0.131512,4.481787,0.066271
1573523656.467358,0.103607,0.019984,0.011575,-0.010547,0.009371,0.090461,47.500698,8.206374,3.392077,-0.086977,4.499027,0.049464
1573523656.561958,0.103621,0.019963,0.011540,-0.010562,0.009302,0.090295,47.492039,8.632209,3.407547,-0.017564,4.513480,0.028786
1573523656.656588,0.103580,0.019998,0.011533,-0.010385,0.009305,0.090293,47.534053,9.077270,3.409910,-0.012888,4.542652,0.018459
1573523656.751198,0.103596,0.020027,0.011506,-0.010387,0.009406,0.090231,47.524102,9.480104,3.418215,-0.099805,4.545583,0.030145
1573523656.845818,0.103521,0.020091,0.011515,-0.010318,0.009578,0.089934,47.545972,9.896283,3.415571,-0.174982,4.515219,0.054661
1573523656.940428,0.103360,0.020192,0.011505,-0.010359,0.009889,0.089666,47.582935,10.302088,3.421274,-0.226113,4.535949,0.086906
1573523657.035028,0.103171,0.020315,0.011522,-0.010346,0.010254,0.089336,47.628660,10.716175,3.417768,-0.197984,4.554364,0.058776
1573523657.129658,0.103133,0.020344,0.011550,-0.010277,0.010569,0.089170,47.590084,11.147587,3.404389,-0.093012,4.549656,-0.012912
1573523657.254148,0.103010,0.020431,0.011586,-0.010120,0.010771,0.088799,47.635945,11.715672,3.386408,-0.024518,4.553753,-0.039833
1573523657.348768,0.102879,0.020532,0.011538,-0.010052,0.010936,0.088251,47.712079,12.135227,3.395924,-0.052265,4.536047,-0.002813
1573523657.448358,0.102752,0.020609,0.011515,-0.010054,0.011163,0.087856,47.738419,12.572711,3.405842,-0.153550,4.544091,0.065102
1573523657.542978,0.102676,0.020641,0.011493,-0.010091,0.011371,0.087526,47.724426,12.994073,3.417958,-0.137044,4.523388,0.053162
