1573538250.081016,-0.057061,-0.021650,0.007947,-0.010876,0.069604,-0.055082,0.773228,0.238192,-0.011390,0.991739,0.287325,-0.010244
1573538250.205546,-1.060215,0.827661,0.069354,-0.006387,0.075118,-0.065468,0.760084,0.244358,0.049513,1.020309,0.301494,0.075617
1573538250.265336,-1.149894,1.026089,0.094256,-0.006465,0.073866,-0.066736,0.835912,0.267409,0.053865,1.102189,0.302979,0.085221
1573538250.330096,-1.035071,1.197035,0.099147,-0.006878,0.072074,-0.063936,0.921101,0.282648,0.043844,1.183045,0.288957,0.071064
1573538250.414796,-0.932973,1.192131,0.089915,-0.006712,0.071726,-0.064615,1.028401,0.304401,0.039070,1.272894,0.287550,0.062435
1573538250.454656,-0.762726,1.047366,0.063576,-0.006560,0.070282,-0.064838,1.077836,0.307647,0.029381,1.297759,0.270844,0.046415
1573538250.524406,-0.637095,0.836555,0.040229,-0.005975,0.070490,-0.065967,1.153276,0.320917,0.024026,1.334796,0.270359,0.036158
1573538250.614066,-0.497236,0.656190,0.023184,-0.006640,0.069537,-0.066929,1.269808,0.339558,0.016495,1.385569,0.262367,0.033544
1573538250.678836,-0.364868,0.488782,0.011878,-0.006166,0.070095,-0.068607,1.341032,0.348792,0.008787,1.406456,0.247484,0.032134
1573538250.718696,-0.203993,0.340755,0.005216,-0.007614,0.069848,-0.069283,1.393935,0.356492,-0.008067,1.416894,0.232335,0.012059
1573538250.773486,-0.089956,0.281790,0.003880,-0.008857,0.070696,-0.069809,1.480144,0.371571,-0.022765,1.458205,0.230618,-0.012572
1573538250.868146,-0.057539,0.275787,0.004062,-0.009276,0.071366,-0.070631,1.644361,0.407012,-0.032422,1.537587,0.285545,-0.067201
1573538250.927936,-0.048004,0.200009,0.003209,-0.009843,0.071895,-0.071190,1.735662,0.425154,-0.036335,1.567970,0.303360,-0.077142
1573538251.022586,-0.040692,0.133860,0.002599,-0.010245,0.071779,-0.071234,1.892621,0.457658,-0.044070,1.627490,0.316524,-0.070927
1573538251.162096,-0.034828,0.099430,0.002271,-0.010402,0.071746,-0.071307,2.140761,0.502085,-0.050459,1.746858,0.255752,-0.013881
1573538251.211906,-0.030443,0.063869,0.001849,-0.010266,0.072462,-0.072146,2.231718,0.516065,-0.050598,1.772566,0.240075,0.005589
1573538251.306566,-0.017915,0.039076,0.001599,-0.009569,0.072677,-0.072226,2.404149,0.536909,-0.048265,1.809502,0.193059,0.066648
1573538251.465986,-0.011770,0.016436,0.001451,-0.008820,0.073248,-0.072683,2.692615,0.567249,-0.038574,1.812204,0.218762,0.048804
1573538251.530756,-0.009911,0.000972,0.001445,-0.008186,0.073420,-0.072995,2.809212,0.583485,-0.037167,1.809050,0.273174,0.014328
1573538251.655306,-0.012918,-0.015139,0.001434,-0.007904,0.073541,-0.073228,3.032188,0.623869,-0.038975,1.826891,0.365918,-0.037579
1573538251.784826,-0.016703,-0.023994,0.001590,-0.008084,0.073583,-0.073156,3.271926,0.672885,-0.045023,1.880138,0.364117,-0.042595
1573538251.879486,-0.014824,-0.029687,0.001745,-0.008185,0.073486,-0.073234,3.449115,0.704589,-0.049985,1.882208,0.308701,-0.030629
1573538251.909376,-0.018226,-0.039917,0.001834,-0.008427,0.073303,-0.073483,3.502334,0.714332,-0.051075,1.877018,0.296504,-0.021160
1573538252.004026,-0.010997,-0.032508,0.002023,-0.008560,0.073198,-0.074116,3.683171,0.741347,-0.053911,1.879469,0.284939,0.006881
1573538252.128576,-0.001309,-0.007677,0.002298,-0.008521,0.072931,-0.074577,3.925450,0.781395,-0.056481,1.868571,0.357910,-0.013092
1573538252.258106,-0.000460,-0.003894,0.002334,-0.008705,0.072734,-0.075278,4.168597,0.835761,-0.062936,1.874415,0.463200,-0.077104
1573538252.382656,0.008432,0.011508,0.002541,-0.009212,0.072690,-0.075874,4.411351,0.891367,-0.075922,1.964610,0.411306,-0.065773
1573538252.462376,0.014052,0.018684,0.002597,-0.010104,0.073069,-0.076683,4.572206,0.919476,-0.080853,2.014182,0.317297,-0.027351
1573538252.507206,0.020584,0.033838,0.002665,-0.010513,0.072986,-0.077000,4.669905,0.933321,-0.083279,2.034974,0.278734,-0.005164
1573538252.636746,0.022566,0.047681,0.002715,-0.010254,0.072779,-0.077032,4.944106,0.966939,-0.079972,2.077940,0.228996,0.055844
1573538252.761286,0.017193,0.057034,0.002619,-0.009476,0.072902,-0.077828,5.210911,1.005145,-0.071938,2.110221,0.356176,0.033732
1573538252.855946,0.014957,0.060470,0.002594,-0.008694,0.072785,-0.078390,5.410924,1.044705,-0.070065,2.087057,0.450787,-0.003062
1573538252.980496,0.009500,0.059258,0.002606,-0.008138,0.072801,-0.078812,5.668930,1.105096,-0.071405,2.074900,0.478357,-0.021451
1573538253.015366,0.010309,0.059782,0.002664,-0.007966,0.072750,-0.079392,5.742363,1.121449,-0.072698,2.093353,0.458459,-0.020239
1573538253.110026,0.013158,0.059706,0.002745,-0.008317,0.073068,-0.079854,5.944740,1.162387,-0.075551,2.175097,0.407173,-0.015908
1573538253.264466,0.013059,0.060087,0.002805,-0.008312,0.072799,-0.080205,6.291803,1.225011,-0.077537,2.281869,0.422220,-0.012246
1573538253.329236,0.012362,0.060952,0.002881,-0.007882,0.072715,-0.080735,6.442568,1.255551,-0.079356,2.292914,0.479632,-0.026472
1573538253.458766,0.012566,0.063972,0.002941,-0.007557,0.072448,-0.081334,6.741308,1.325735,-0.083735,2.256543,0.589130,-0.038660
1573538253.553416,0.010602,0.053364,0.003022,-0.007951,0.072447,-0.082456,6.945921,1.381803,-0.087789,2.243258,0.592334,-0.032627
1573538253.658046,0.009169,0.041901,0.003100,-0.008849,0.072438,-0.082886,7.177114,1.439544,-0.091113,2.327227,0.536519,-0.024197
1573538253.707856,0.007091,0.031045,0.003189,-0.009344,0.072209,-0.082934,7.287178,1.464751,-0.092710,2.373397,0.515598,-0.016463
1573538253.802516,0.007674,0.026280,0.003281,-0.009546,0.072270,-0.082448,7.514598,1.511930,-0.094165,2.454493,0.480916,0.000413
1573538253.932046,0.007542,0.024237,0.003336,-0.009032,0.072457,-0.082376,7.836625,1.577352,-0.096228,2.499160,0.531883,-0.013893
1573538254.041656,0.007155,0.025087,0.003327,-0.008495,0.072543,-0.082286,8.113689,1.642054,-0.096913,2.490546,0.624405,-0.001473
1573538254.121366,0.006702,0.021067,0.003301,-0.008260,0.072758,-0.082288,8.310434,1.693165,-0.096720,2.479345,0.644669,0.002479
1573538254.216026,0.008003,0.013896,0.003332,-0.008509,0.072859,-0.082140,8.540031,1.752339,-0.096815,2.473860,0.631689,0.004007
1573538254.310686,0.011141,0.011415,0.003446,-0.008753,0.072940,-0.081986,8.774767,1.810998,-0.098416,2.528597,0.621062,-0.007867
1573538254.465126,0.012137,0.003402,0.003488,-0.008901,0.072949,-0.081895,9.167908,1.906132,-0.100415,2.643266,0.647491,-0.018162
1573538254.534886,0.010751,-0.004160,0.003473,-0.008897,0.072832,-0.081782,9.348885,1.952908,-0.101544,2.662782,0.679633,-0.020554
1573538254.654446,0.012468,-0.007858,0.003495,-0.008880,0.072980,-0.081698,9.664635,2.036351,-0.105597,2.636707,0.721485,-0.036044
1573538254.749106,0.014433,-0.013600,0.003518,-0.009144,0.072826,-0.081197,9.909401,2.101165,-0.108635,2.637581,0.668214,-0.015339
1573538254.813876,0.015826,-0.016817,0.003497,-0.009472,0.072722,-0.080762,10.079126,2.142104,-0.109987,2.655633,0.637798,-0.018878
1573538254.908536,0.018833,-0.022416,0.003472,-0.009433,0.072587,-0.079669,10.328011,2.200152,-0.111938,2.703443,0.648706,-0.008670
1573538255.003196,0.021841,-0.025445,0.003442,-0.009249,0.072580,-0.078575,10.585205,2.262338,-0.113428,2.758227,0.714015,-0.019200
1573538255.162626,0.024287,-0.026180,0.003377,-0.008957,0.072345,-0.077978,11.029584,2.385598,-0.118779,2.791610,0.811364,-0.037952
1573538255.257286,0.028538,-0.026396,0.003335,-0.008649,0.072041,-0.077608,11.292401,2.458678,-0.123043,2.753352,0.754132,-0.033568
1573538255.322046,0.033405,-0.027205,0.003317,-0.008800,0.071821,-0.077057,11.469812,2.503187,-0.125333,2.741183,0.687137,-0.010262
1573538255.416716,0.035014,-0.024898,0.003357,-0.009042,0.071521,-0.076105,11.733852,2.566934,-0.127036,2.777753,0.676508,-0.009089
1573538255.511376,0.033542,-0.021539,0.003431,-0.008980,0.071146,-0.075397,12.004026,2.636486,-0.129756,2.826145,0.761770,-0.028529
1573538255.606036,0.029995,-0.020568,0.003390,-0.009092,0.071459,-0.075253,12.274073,2.713889,-0.131289,2.832980,0.819319,-0.024834
1573538255.730586,0.025555,-0.012306,0.003494,-0.009010,0.071661,-0.074432,12.639663,2.817395,-0.134320,2.862170,0.758632,-0.010456
1573538255.855136,0.016272,-0.009544,0.003597,-0.008884,0.072398,-0.074583,13.005390,2.915524,-0.135613,2.899535,0.718463,-0.025214
1573538255.919906,0.007785,-0.007868,0.003714,-0.008661,0.072347,-0.074886,13.199783,2.968290,-0.137422,2.919429,0.744271,-0.042357
1573538256.014566,0.001552,-0.008873,0.003875,-0.008689,0.072356,-0.075236,13.476041,3.045460,-0.142868,2.918220,0.831667,-0.059637
1573538256.109226,-0.000394,-0.014284,0.004030,-0.008857,0.071947,-0.074653,13.746308,3.126608,-0.148845,2.917183,0.884008,-0.034182
1573538256.203886,-0.004313,-0.027082,0.004112,-0.009025,0.071733,-0.074075,14.006556,3.207607,-0.149113,2.915908,0.853466,0.000201
1573538256.328446,-0.008808,-0.036999,0.004197,-0.009152,0.071599,-0.074059,14.357220,3.308519,-0.147825,2.931073,0.793054,-0.007991
1573538256.423106,-0.014415,-0.047517,0.004252,-0.009072,0.071722,-0.074625,14.619752,3.380921,-0.147454,2.953594,0.788617,-0.029679
1573538256.517766,-0.016622,-0.064756,0.004320,-0.009418,0.072034,-0.074369,14.872723,3.450694,-0.149491,2.932281,0.826778,-0.034185
1573538256.612416,-0.017277,-0.067921,0.004357,-0.009345,0.072365,-0.075463,15.144480,3.528832,-0.151646,2.905661,0.851656,-0.020643
1573538256.707076,-0.018122,-0.069184,0.004344,-0.009467,0.072855,-0.076862,15.415146,3.607791,-0.152684,2.892301,0.826332,-0.013365
1573538256.866496,-0.019620,-0.067584,0.004327,-0.009486,0.073125,-0.078381,15.877969,3.743107,-0.155175,2.903567,0.880832,-0.018634
1573538256.931256,-0.020029,-0.069423,0.004388,-0.009910,0.073422,-0.079265,16.061477,3.799732,-0.156523,2.903665,0.913754,-0.012262
1573538257.055816,-0.020649,-0.066599,0.004466,-0.010644,0.073954,-0.079779,16.427612,3.914388,-0.157545,2.932201,0.882417,0.002895
1573538257.150466,-0.020053,-0.065692,0.004568,-0.011079,0.074063,-0.080179,16.710174,3.995801,-0.159393,2.980960,0.816141,-0.016677
1573538257.215236,-0.020180,-0.063491,0.004605,-0.011315,0.074129,-0.080842,16.908626,4.049490,-0.161504,2.980611,0.793936,-0.035394
1573538257.309896,-0.022379,-0.058230,0.004640,-0.010966,0.074182,-0.081775,17.198120,4.130981,-0.165994,2.968207,0.863592,-0.048456
1573538257.404556,-0.023025,-0.057162,0.004712,-0.011079,0.073979,-0.082167,17.478767,4.216953,-0.170103,2.950378,0.956434,-0.029604
1573538257.529116,-0.023432,-0.057111,0.004798,-0.011212,0.073932,-0.082270,17.844806,4.337741,-0.172707,2.961851,0.980763,-0.008370
1573538257.658646,-0.023352,-0.055537,0.004821,-0.011465,0.074034,-0.082470,18.228304,4.465070,-0.173988,2.947924,0.988520,-0.002589
1573538257.748326,-0.023275,-0.050156,0.004799,-0.011376,0.073768,-0.082766,18.500875,4.557855,-0.175049,2.948110,1.024400,-0.007363
1573538257.813096,-0.020268,-0.041199,0.004750,-0.011734,0.074114,-0.083571,18.705934,4.626774,-0.176663,2.959837,1.034477,-0.008367
1573538257.907756,-0.018322,-0.026138,0.004748,-0.012111,0.074140,-0.084096,19.012087,4.731906,-0.181439,2.976725,1.037928,-0.043802
1573538258.007386,-0.015221,-0.021116,0.004783,-0.012795,0.073992,-0.083682,19.314759,4.832104,-0.187859,3.018585,1.018417,-0.055024
1573538258.131936,-0.013811,-0.010116,0.004745,-0.013427,0.074105,-0.084090,19.707188,4.970371,-0.197593,3.015616,1.120913,-0.060681
1573538258.226596,-0.013124,-0.002804,0.004709,-0.013906,0.074373,-0.084700,20.001277,5.081078,-0.202810,2.988539,1.141240,-0.031766
1573538258.351146,-0.015115,0.004298,0.004574,-0.014125,0.074662,-0.085355,20.384474,5.224344,-0.204204,2.987368,1.096906,0.001718
1573538258.465746,-0.019181,0.013680,0.004381,-0.013930,0.074825,-0.085588,20.741761,5.359668,-0.201526,2.948377,1.150459,0.013665
1573538258.510576,-0.022744,0.026762,0.004309,-0.013515,0.074851,-0.085716,20.896617,5.423246,-0.201576,2.928006,1.217095,0.000186
1573538258.575346,-0.027134,0.039379,0.004209,-0.013439,0.074631,-0.085664,21.107988,5.514613,-0.201998,2.922459,1.274939,-0.007603
1573538258.699896,-0.029573,0.052845,0.004161,-0.013293,0.074681,-0.085746,21.496812,5.683140,-0.205058,2.952863,1.271596,-0.031614
1573538258.824456,-0.034740,0.065161,0.004129,-0.012490,0.074393,-0.086175,21.886287,5.849860,-0.207216,2.937748,1.235767,0.004691
1573538258.919106,-0.040562,0.072038,0.004179,-0.011907,0.073871,-0.085701,22.174137,5.977116,-0.207201,2.921536,1.313016,-0.008463
1573538259.013766,-0.044178,0.073134,0.004222,-0.011710,0.073206,-0.084798,22.445112,6.104107,-0.208900,2.908978,1.363683,-0.024891
1573538259.173196,-0.046577,0.058211,0.004320,-0.012088,0.072972,-0.084449,22.859935,6.296854,-0.209741,2.878232,1.281796,-0.003999
1573538259.208076,-0.047614,0.054476,0.004383,-0.012144,0.072566,-0.084263,22.941912,6.335260,-0.209302,2.853852,1.286626,0.009220
1573538259.297736,-0.048689,0.054873,0.004352,-0.012081,0.072298,-0.084369,23.190484,6.452046,-0.207492,2.794543,1.365039,0.015666
1573538259.427266,-0.046371,0.056371,0.004366,-0.012203,0.072060,-0.084689,23.539329,6.631184,-0.208497,2.694951,1.436465,-0.027164
1573538259.526916,-0.046195,0.064110,0.004347,-0.012167,0.072025,-0.085235,23.821367,6.780557,-0.213540,2.717539,1.434190,-0.034432
1573538259.616576,-0.047857,0.071130,0.004265,-0.012053,0.072160,-0.086277,24.080000,6.916145,-0.215696,2.752584,1.429514,-0.001633
1573538259.711236,-0.052452,0.078043,0.004160,-0.011903,0.072026,-0.087143,24.349982,7.055798,-0.213038,2.742272,1.392312,0.036680
1573538259.805896,-0.058811,0.085032,0.004089,-0.011694,0.071904,-0.087948,24.619880,7.196660,-0.209464,2.705744,1.442770,0.002142
1573538259.900556,-0.064301,0.090242,0.004085,-0.011839,0.071620,-0.088837,24.880898,7.344064,-0.212105,2.665928,1.525175,-0.046935
1573538260.059986,-0.070751,0.094090,0.004077,-0.011832,0.071426,-0.089890,25.313145,7.595572,-0.215352,2.670151,1.518176,0.007592
1573538260.154646,-0.077152,0.096257,0.004099,-0.011776,0.071112,-0.090170,25.571883,7.743910,-0.212987,2.683151,1.479947,0.037264
1573538260.214426,-0.081310,0.095493,0.004130,-0.011964,0.071136,-0.090627,25.725807,7.831471,-0.210461,2.663040,1.486493,0.028286
1573538260.309086,-0.085427,0.095568,0.004145,-0.012127,0.071076,-0.090972,25.976800,7.977086,-0.209785,2.624068,1.526276,-0.007942
1573538260.403746,-0.086831,0.096161,0.004143,-0.012261,0.071000,-0.091312,26.213041,8.118636,-0.210871,2.568732,1.530562,-0.006499
1573538260.498406,-0.090821,0.097063,0.004153,-0.012399,0.070928,-0.091815,26.453191,8.265969,-0.210356,2.545857,1.576545,-0.006202
1573538260.627936,-0.094740,0.097991,0.004167,-0.012523,0.070977,-0.092607,26.780326,8.474381,-0.210877,2.505401,1.610170,-0.014720
1573538260.752486,-0.096214,0.101652,0.004196,-0.012721,0.070739,-0.092997,27.090700,8.676273,-0.214121,2.468459,1.582571,0.008148
1573538260.817246,-0.100073,0.104585,0.004150,-0.013116,0.070887,-0.093971,27.249395,8.777370,-0.211432,2.490527,1.542772,0.051592
1573538260.911906,-0.104253,0.109387,0.004087,-0.013088,0.070792,-0.094691,27.496652,8.935082,-0.208477,2.480487,1.612080,0.003745
1573538261.006566,-0.110930,0.113664,0.003991,-0.013088,0.070842,-0.096005,27.743335,9.096950,-0.205857,2.477378,1.593257,0.033471
1573538261.101226,-0.117535,0.116551,0.003917,-0.012949,0.070414,-0.096785,27.986162,9.257487,-0.201911,2.427604,1.592154,0.024765
1573538261.255666,-0.124082,0.119922,0.003819,-0.012941,0.070285,-0.097866,28.364966,9.509311,-0.193610,2.431737,1.591847,0.057398
1573538261.350316,-0.129464,0.123366,0.003745,-0.012974,0.070255,-0.099174,28.598560,9.663715,-0.187726,2.483488,1.623193,0.027302
1573538261.415086,-0.134568,0.126636,0.003710,-0.012763,0.070234,-0.100291,28.762841,9.774889,-0.187005,2.457896,1.648477,-0.012988
1573538261.574516,-0.139433,0.130502,0.003707,-0.012574,0.070370,-0.101621,29.157919,10.044750,-0.189620,2.420559,1.655079,-0.006513
1573538261.604406,-0.141773,0.133549,0.003740,-0.012413,0.070452,-0.102938,29.229655,10.095302,-0.190017,2.422835,1.651964,0.004909
1573538261.699066,-0.144490,0.134031,0.003724,-0.012365,0.070285,-0.103889,29.455921,10.250328,-0.187986,2.442820,1.641623,0.023693
1573538261.858506,-0.145907,0.133566,0.003714,-0.012402,0.070441,-0.105064,29.838048,10.504898,-0.188969,2.491632,1.583700,-0.013352
1573538261.953166,-0.147659,0.132034,0.003707,-0.012452,0.070566,-0.105997,30.071847,10.651216,-0.189866,2.534956,1.548132,-0.015577
1573538262.047826,-0.149448,0.131005,0.003695,-0.012462,0.070615,-0.106713,30.307326,10.796698,-0.189528,2.502424,1.561019,0.015777
1573538262.172376,-0.151292,0.130440,0.003728,-0.012297,0.070663,-0.107181,30.611463,10.993696,-0.184799,2.384997,1.563891,0.064675
1573538262.237146,-0.155887,0.128248,0.003708,-0.012337,0.070609,-0.107450,30.761555,11.096970,-0.179839,2.316463,1.551464,0.059419
1573538262.301906,-0.156870,0.126387,0.003781,-0.012232,0.070564,-0.107979,30.901358,11.193086,-0.176596,2.233724,1.561332,0.052850
1573538262.456356,-0.156794,0.124835,0.003839,-0.012196,0.070389,-0.108424,31.238693,11.433247,-0.169090,2.237916,1.541309,0.065136
1573538262.551006,-0.155630,0.122714,0.003909,-0.012214,0.070297,-0.108580,31.449657,11.573997,-0.165329,2.277510,1.507507,0.020884
1573538262.645666,-0.154177,0.121081,0.003950,-0.012178,0.070365,-0.108734,31.667721,11.713222,-0.164749,2.294326,1.441108,0.006064
1573538262.775196,-0.153228,0.118906,0.003943,-0.012438,0.070582,-0.108992,31.962835,11.894769,-0.165252,2.290162,1.373661,-0.012433
1573538262.805096,-0.152220,0.117666,0.003957,-0.012592,0.070786,-0.109403,32.029302,11.933789,-0.166049,2.279170,1.360511,-0.021356
1573538262.899756,-0.152193,0.115822,0.003925,-0.012788,0.070913,-0.109629,32.244110,12.060736,-0.168364,2.292136,1.334156,-0.025551
1573538263.024306,-0.151241,0.115230,0.003893,-0.012806,0.071288,-0.110009,32.526668,12.227506,-0.168824,2.292545,1.420593,0.003603
1573538263.153836,-0.151134,0.115503,0.003811,-0.012726,0.071587,-0.110506,32.823318,12.417518,-0.166107,2.246543,1.493354,0.019927
1573538263.248486,-0.151298,0.115952,0.003704,-0.012686,0.072086,-0.111011,33.038641,12.557586,-0.161567,2.263555,1.453153,0.047693
1573538263.343146,-0.151603,0.117188,0.003610,-0.012656,0.072348,-0.111535,33.254600,12.697973,-0.156007,2.243620,1.488206,0.041053
1573538263.402936,-0.151400,0.119111,0.003548,-0.012543,0.072085,-0.111711,33.387639,12.788858,-0.153744,2.182724,1.529156,0.028590
1573538263.502586,-0.151888,0.120549,0.003462,-0.012604,0.071933,-0.112129,33.599187,12.937717,-0.150492,2.067176,1.482426,0.016464
1573538263.657006,-0.152306,0.122038,0.003405,-0.012783,0.071870,-0.112475,33.918947,13.168304,-0.148147,2.094927,1.451139,0.017938
1573538263.751666,-0.153315,0.123639,0.003326,-0.012886,0.071746,-0.113030,34.121062,13.306231,-0.145107,2.107769,1.392667,0.032927
1573538263.816426,-0.154590,0.124694,0.003260,-0.013098,0.071679,-0.113430,34.263973,13.399646,-0.142059,2.116944,1.337475,0.043035
1573538263.975846,-0.156191,0.124959,0.003244,-0.013135,0.071715,-0.113909,34.606225,13.610655,-0.135431,2.144991,1.294461,0.025308
1573538264.005736,-0.157953,0.124212,0.003228,-0.012883,0.071602,-0.114402,34.675960,13.656370,-0.134877,2.147867,1.313780,0.015208
1573538264.100386,-0.158540,0.123408,0.003231,-0.012654,0.071459,-0.114677,34.880918,13.785713,-0.134466,2.140230,1.359108,-0.009846
1573538264.224936,-0.159467,0.122628,0.003254,-0.012362,0.071376,-0.114996,35.145013,13.967227,-0.141646,2.094166,1.484280,-0.071218
1573538264.354466,-0.160253,0.122400,0.003259,-0.012432,0.071417,-0.115253,35.418349,14.154262,-0.147919,2.165558,1.408065,-0.019907
1573538264.449126,-0.161509,0.122288,0.003284,-0.012539,0.071380,-0.115625,35.615369,14.282799,-0.148981,2.126378,1.387297,0.008802
1573538264.573676,-0.164207,0.121108,0.003355,-0.012639,0.071482,-0.115873,35.866414,14.468930,-0.147559,1.963570,1.529062,0.048346
1573538264.603566,-0.165703,0.120219,0.003414,-0.012848,0.071203,-0.115938,35.921302,14.515528,-0.146812,1.920643,1.538152,0.063300
1573538264.698226,-0.166778,0.119810,0.003502,-0.013114,0.070748,-0.115954,36.092120,14.659033,-0.142910,1.856153,1.531961,0.037874
1573538264.792886,-0.168642,0.119149,0.003531,-0.013570,0.070819,-0.116490,36.263218,14.800067,-0.141662,1.901602,1.481657,0.012508
1573538264.952296,-0.168325,0.119285,0.003599,-0.013777,0.070536,-0.116230,36.572905,15.019713,-0.136765,2.002057,1.308804,0.053831
1573538265.046956,-0.169342,0.118394,0.003626,-0.014046,0.070623,-0.116210,36.757533,15.141366,-0.131574,1.950219,1.322227,0.050696
1573538265.151586,-0.169313,0.117823,0.003695,-0.014038,0.070791,-0.116413,36.950127,15.281308,-0.129875,1.829091,1.392717,0.012779
1573538265.206376,-0.168943,0.117857,0.003723,-0.013927,0.070930,-0.116600,37.046295,15.355115,-0.129916,1.779833,1.394098,-0.006042
1573538265.301036,-0.168886,0.117991,0.003689,-0.013830,0.070779,-0.116545,37.214194,15.491369,-0.131912,1.739262,1.440304,-0.025949
1573538265.460466,-0.169190,0.117879,0.003641,-0.013970,0.070684,-0.116405,37.500785,15.721556,-0.135897,1.862041,1.386291,-0.021072
1573538265.555126,-0.169647,0.117052,0.003620,-0.013974,0.070373,-0.115988,37.685834,15.855978,-0.135681,1.887909,1.352554,0.027098
1573538265.649786,-0.169597,0.117409,0.003596,-0.013726,0.070201,-0.115918,37.867761,15.991417,-0.131651,1.829333,1.420654,0.058780
1573538265.744446,-0.169636,0.117897,0.003602,-0.013499,0.069897,-0.115720,38.042926,16.132233,-0.124038,1.773350,1.462087,0.094520
1573538265.869006,-0.169645,0.118451,0.003622,-0.013422,0.069717,-0.115863,38.254675,16.317424,-0.119945,1.699512,1.483497,0.007215
1573538265.898896,-0.169791,0.118425,0.003634,-0.013546,0.069541,-0.115863,38.303240,16.360084,-0.120058,1.694865,1.481896,0.002796
1573538266.003526,-0.169825,0.118178,0.003648,-0.013687,0.069469,-0.115627,38.478443,16.514358,-0.121255,1.680362,1.466452,-0.006842
1573538266.152976,-0.169878,0.117672,0.003668,-0.013901,0.069803,-0.115580,38.727973,16.726750,-0.118222,1.705133,1.433696,0.062278
1573538266.217746,-0.169937,0.116912,0.003702,-0.014261,0.070325,-0.115500,38.830377,16.816541,-0.115298,1.634449,1.495697,0.029530
1573538266.312406,-0.169986,0.115993,0.003756,-0.014542,0.070507,-0.115044,38.976882,16.960359,-0.114741,1.529670,1.546306,0.010124
1573538266.407076,-0.169780,0.115299,0.003848,-0.014867,0.070499,-0.114745,39.119613,17.105582,-0.115511,1.509091,1.537556,-0.003669
1573538266.506736,-0.170734,0.113637,0.003910,-0.015230,0.070199,-0.114119,39.266124,17.259071,-0.117783,1.497901,1.540011,-0.016971
1573538266.661176,-0.170249,0.113534,0.003989,-0.015717,0.069928,-0.113589,39.491900,17.486476,-0.122100,1.456464,1.506630,-0.042673
1573538266.775776,-0.170604,0.111904,0.004046,-0.016012,0.069746,-0.112530,39.652525,17.658841,-0.123446,1.410289,1.522877,0.022723
1573538266.850496,-0.170653,0.111155,0.004088,-0.016193,0.069477,-0.111676,39.751338,17.772318,-0.122360,1.345637,1.580631,0.015298
1573538266.935196,-0.170395,0.110576,0.004113,-0.016268,0.069202,-0.111008,39.858920,17.905212,-0.121833,1.271306,1.608291,0.009180
1573538267.069726,-0.170206,0.109926,0.004125,-0.016165,0.068952,-0.110448,40.030804,18.114617,-0.117974,1.326723,1.521905,0.016225
1573538267.099616,-0.170425,0.109430,0.004079,-0.015708,0.068703,-0.110850,40.071564,18.162452,-0.116913,1.326341,1.548661,-0.003574
1573538267.194286,-0.170650,0.109237,0.004015,-0.015489,0.068745,-0.111834,40.196253,18.312179,-0.116684,1.307129,1.592191,0.009878
1573538267.353716,-0.170976,0.109298,0.003939,-0.015376,0.068638,-0.113028,40.398694,18.576949,-0.111732,1.172907,1.677555,0.028084
1573538267.448386,-0.171548,0.108523,0.003875,-0.015534,0.068378,-0.113936,40.511825,18.745220,-0.108109,1.119479,1.734810,0.024414
1573538267.543046,-0.172627,0.107797,0.003878,-0.015576,0.067889,-0.115279,40.613561,18.908482,-0.104970,1.056496,1.706590,0.036038
1573538267.667596,-0.173571,0.106375,0.003921,-0.015802,0.067665,-0.116201,40.737551,19.117778,-0.101020,0.993140,1.691138,0.026229
1573538267.762266,-0.174266,0.104408,0.003992,-0.016040,0.067345,-0.116909,40.826447,19.279782,-0.099665,0.944187,1.754879,0.015678
1573538267.851946,-0.175067,0.102115,0.004055,-0.016172,0.066948,-0.117397,40.904799,19.439353,-0.099161,0.877800,1.837559,0.010627
1573538267.951596,-0.175686,0.099370,0.004158,-0.016327,0.066576,-0.117593,40.986334,19.624489,-0.098213,0.827126,1.884313,0.031874
1573538268.046256,-0.176210,0.097326,0.004253,-0.016337,0.066119,-0.117868,41.057412,19.798588,-0.095454,0.774503,1.873359,0.037358
1573538268.140926,-0.176267,0.096161,0.004321,-0.016400,0.065644,-0.118168,41.125131,19.970749,-0.092877,0.729760,1.860607,0.033137
1573538268.270466,-0.176111,0.095010,0.004389,-0.016521,0.065032,-0.118572,41.215150,20.214779,-0.090576,0.680879,1.925486,0.012077
1573538268.365126,-0.174972,0.094306,0.004447,-0.016594,0.064273,-0.118601,41.278429,20.393513,-0.090642,0.671717,1.894158,-0.002448
1573538268.459786,-0.173910,0.093598,0.004496,-0.016787,0.063604,-0.118916,41.340352,20.572355,-0.091779,0.662192,1.921620,0.000537
1573538268.519566,-0.174128,0.092022,0.004557,-0.017052,0.063247,-0.119428,41.377444,20.686948,-0.091849,0.640268,1.955403,0.017537
1573538268.619206,-0.173366,0.091356,0.004616,-0.017358,0.062973,-0.119824,41.439786,20.885196,-0.088496,0.593926,2.054265,0.046577
1573538268.743766,-0.172702,0.090342,0.004686,-0.017818,0.062615,-0.120091,41.508690,21.141925,-0.084612,0.528152,2.073008,0.029680
1573538268.868316,-0.170733,0.089460,0.004765,-0.018196,0.061949,-0.120013,41.571214,21.397498,-0.083690,0.482428,2.069570,0.011723
1573538268.903196,-0.172510,0.084956,0.004840,-0.018544,0.061214,-0.119955,41.586436,21.472973,-0.083338,0.479488,2.080408,0.016956
1573538269.007836,-0.171756,0.081872,0.004954,-0.018841,0.060503,-0.119670,41.634861,21.689232,-0.080386,0.469109,2.108378,0.056381
1573538269.152306,-0.169519,0.080511,0.004997,-0.018834,0.059813,-0.118907,41.695251,21.996674,-0.073631,0.353162,2.157925,0.037251
1573538269.217076,-0.169416,0.076773,0.005080,-0.018963,0.059192,-0.118241,41.714949,22.136534,-0.072051,0.310829,2.182381,0.018239
1573538269.326696,-0.168778,0.073380,0.005157,-0.019352,0.058779,-0.117678,41.743365,22.372559,-0.071602,0.252516,2.201130,0.003027
1573538269.471166,-0.166545,0.071551,0.005224,-0.019635,0.058363,-0.116894,41.775948,22.686172,-0.070040,0.210124,2.225909,0.026561
1573538269.501066,-0.165468,0.069459,0.005247,-0.019445,0.058186,-0.116176,41.782585,22.754985,-0.068706,0.207519,2.229017,0.030455
1573538269.660486,-0.163569,0.068311,0.005267,-0.019512,0.057683,-0.115963,41.811375,23.107579,-0.063302,0.145757,2.259233,0.030810
1573538269.785046,-0.162204,0.067296,0.005300,-0.019726,0.057110,-0.115808,41.826042,23.385098,-0.060127,0.094339,2.263601,0.026558
1573538269.849816,-0.161616,0.066101,0.005345,-0.019946,0.056618,-0.115789,41.830086,23.531099,-0.059005,0.046189,2.295605,0.021131
1573538269.944476,-0.161312,0.064789,0.005396,-0.020202,0.056051,-0.115857,41.830589,23.749004,-0.057568,-0.021750,2.336487,0.023368
1573538270.069036,-0.159591,0.064042,0.005422,-0.020292,0.055504,-0.115918,41.821186,24.038144,-0.055879,-0.132589,2.348688,0.007772
1573538270.098926,-0.158138,0.063225,0.005463,-0.020485,0.054961,-0.115901,41.817311,24.106756,-0.056099,-0.144702,2.349700,0.007188
1573538270.193596,-0.157220,0.062436,0.005491,-0.020595,0.054321,-0.116045,41.803174,24.330454,-0.055206,-0.160700,2.363008,0.018939
1573538270.288256,-0.156611,0.061449,0.005521,-0.020684,0.053705,-0.116089,41.786573,24.554419,-0.053356,-0.198337,2.379460,0.022765
1573538270.417796,-0.156566,0.059841,0.005555,-0.020814,0.053092,-0.116119,41.753440,24.861317,-0.049435,-0.306461,2.385297,0.033534
1573538270.542346,-0.156109,0.058284,0.005616,-0.020863,0.052509,-0.116081,41.707476,25.153724,-0.046769,-0.392728,2.381193,0.016588
1573538270.666896,-0.155552,0.057168,0.005678,-0.020883,0.052118,-0.116033,41.655361,25.448543,-0.046567,-0.444407,2.401567,-0.003058
1573538270.701776,-0.155491,0.055544,0.005735,-0.021000,0.051721,-0.115794,41.639015,25.531599,-0.046801,-0.452606,2.400468,0.007151
1573538270.836296,-0.155578,0.054676,0.005733,-0.021229,0.051419,-0.115684,41.575597,25.857560,-0.043801,-0.490246,2.433386,0.022056
1573538270.891096,-0.156685,0.052741,0.005751,-0.021299,0.050938,-0.115256,41.546553,25.997432,-0.042207,-0.504673,2.460208,0.024623
1573538271.015646,-0.156580,0.051743,0.005760,-0.021478,0.050666,-0.114821,41.482141,26.304784,-0.038712,-0.524336,2.474152,0.024499
1573538271.140196,-0.156020,0.050918,0.005797,-0.021616,0.050341,-0.114398,41.414361,26.611134,-0.036187,-0.570396,2.487924,0.024043
1573538271.269726,-0.156233,0.049797,0.005831,-0.021726,0.050083,-0.114299,41.337261,26.934777,-0.031992,-0.614053,2.508666,0.043704
1573538271.299616,-0.156736,0.048363,0.005867,-0.021898,0.049806,-0.114361,41.317084,27.011232,-0.030975,-0.631338,2.515032,0.042161
1573538271.404246,-0.156489,0.047081,0.005894,-0.022069,0.049491,-0.114348,41.247983,27.274236,-0.027034,-0.682855,2.568805,0.029044
1573538271.488936,-0.156021,0.045565,0.005966,-0.022174,0.049010,-0.114406,41.187613,27.490243,-0.025893,-0.724400,2.576454,0.018511
1573538271.648356,-0.155254,0.044701,0.006046,-0.022253,0.048640,-0.114403,41.071735,27.898471,-0.023371,-0.738245,2.595119,0.028191
1573538271.743016,-0.155095,0.043420,0.006106,-0.022415,0.048249,-0.114394,41.000899,28.141294,-0.021416,-0.749803,2.616570,0.014698
1573538271.867556,-0.155264,0.041853,0.006155,-0.022578,0.047895,-0.114364,40.903684,28.468269,-0.020287,-0.791673,2.679372,0.012423
1573538271.907426,-0.155549,0.040092,0.006188,-0.022775,0.047526,-0.114114,40.870274,28.572686,-0.019762,-0.808708,2.695595,0.015185
1573538272.007066,-0.155490,0.038593,0.006251,-0.022962,0.047311,-0.113898,40.786838,28.837883,-0.018604,-0.844881,2.707107,0.017888
1573538272.091746,-0.155192,0.037234,0.006327,-0.023082,0.047128,-0.113584,40.714255,29.063634,-0.017639,-0.860858,2.735890,0.020044
1573538272.246186,-0.154172,0.036424,0.006373,-0.023297,0.047093,-0.113065,40.584345,29.481572,-0.012392,-0.861871,2.802032,0.051960
1573538272.340846,-0.153787,0.035504,0.006433,-0.023345,0.046939,-0.112434,40.502159,29.746052,-0.008406,-0.877307,2.818338,0.038512
1573538272.470376,-0.153040,0.035215,0.006457,-0.023347,0.046793,-0.111978,40.379978,30.109475,-0.007540,-1.013580,2.833372,-0.004728
1573538272.500266,-0.152190,0.035344,0.006446,-0.023274,0.046806,-0.111722,40.351071,30.192412,-0.007522,-1.035340,2.836106,-0.002428
1573538272.659686,-0.151731,0.035493,0.006398,-0.023194,0.046811,-0.111739,40.186193,30.650280,-0.003596,-1.014679,2.915195,0.038039
1573538272.779266,-0.152044,0.035296,0.006349,-0.023087,0.046781,-0.111591,40.066008,31.007630,0.002582,-0.985042,2.974109,0.046296
1573538272.849006,-0.151682,0.034989,0.006313,-0.023028,0.046650,-0.111292,39.995602,31.215639,0.006355,-1.045120,2.990231,0.041682
1573538272.943666,-0.151257,0.035273,0.006293,-0.022912,0.046659,-0.111085,39.893117,31.502239,0.009406,-1.124416,3.000779,0.015632
1573538273.038326,-0.152764,0.034341,0.006305,-0.022912,0.046559,-0.110586,39.776606,31.797612,0.010036,-1.181933,3.036006,0.010929
1573538273.162876,-0.152489,0.033883,0.006357,-0.022873,0.046384,-0.110075,39.632933,32.176470,0.012744,-1.137248,3.125375,0.031567
1573538273.247576,-0.151874,0.034051,0.006425,-0.022819,0.046399,-0.109632,39.538697,32.439529,0.014505,-1.138288,3.162349,0.032450
1573538273.292406,-0.151725,0.033544,0.006482,-0.022804,0.046311,-0.109008,39.488142,32.577348,0.015518,-1.149873,3.174033,0.036422
1573538273.446846,-0.151349,0.033115,0.006522,-0.022807,0.046344,-0.108583,39.306839,33.063387,0.019558,-1.210248,3.207923,0.026047
1573538273.541506,-0.151890,0.032296,0.006515,-0.022719,0.046295,-0.108062,39.190313,33.368966,0.023002,-1.195443,3.256551,0.034437
1573538273.636166,-0.151452,0.031993,0.006518,-0.022679,0.046337,-0.107450,39.078876,33.674209,0.026890,-1.198755,3.301241,0.046169
1573538273.765696,-0.151013,0.031961,0.006534,-0.022482,0.046464,-0.106806,38.922691,34.101724,0.032244,-1.274763,3.314499,0.029781
1573538273.850396,-0.150070,0.032283,0.006545,-0.022328,0.046614,-0.106277,38.815113,34.380133,0.033752,-1.341826,3.322054,0.017015
1573538273.930106,-0.149941,0.032995,0.006552,-0.022347,0.046685,-0.106232,38.708031,34.650741,0.034056,-1.317900,3.342067,0.015754
1573538274.049666,-0.150078,0.033777,0.006566,-0.022322,0.046744,-0.106136,38.550688,35.060101,0.035874,-1.281039,3.384085,0.042350
1573538274.144316,-0.150357,0.034162,0.006571,-0.022290,0.046868,-0.106262,38.428354,35.389209,0.039871,-1.256454,3.420274,0.054041
1573538274.238976,-0.150492,0.034513,0.006568,-0.022199,0.046876,-0.106465,38.306455,35.720799,0.043166,-1.291379,3.448775,0.023710
1573538274.363516,-0.151478,0.034297,0.006579,-0.022095,0.046841,-0.106473,38.133328,36.160850,0.044020,-1.382500,3.463312,-0.000524
1573538274.428276,-0.151477,0.033833,0.006581,-0.022130,0.046725,-0.106496,38.043686,36.380986,0.044396,-1.368141,3.452383,0.013376
1573538274.552836,-0.151272,0.033559,0.006582,-0.022246,0.046858,-0.106627,37.876229,36.805075,0.048928,-1.353370,3.472415,0.037307
1573538274.617596,-0.150493,0.033140,0.006589,-0.022298,0.047066,-0.106949,37.793282,37.015646,0.050991,-1.365969,3.465813,0.016970
1573538274.742146,-0.150791,0.032409,0.006618,-0.022304,0.047157,-0.107004,37.622650,37.444311,0.054246,-1.362318,3.478099,0.030536
1573538274.836796,-0.150477,0.032099,0.006618,-0.022297,0.047248,-0.107056,37.494948,37.766660,0.058272,-1.365009,3.477356,0.052121
1573538274.901556,-0.151400,0.031401,0.006635,-0.022186,0.047293,-0.107094,37.400511,37.995968,0.061611,-1.344609,3.493148,0.044778
1573538274.996216,-0.150974,0.030853,0.006679,-0.022085,0.047332,-0.106877,37.275769,38.319956,0.063891,-1.338893,3.510606,0.019164
1573538275.115776,-0.150814,0.030619,0.006723,-0.022020,0.047431,-0.106768,37.111276,38.736131,0.064036,-1.405073,3.490011,0.011851
1573538275.215406,-0.150563,0.030528,0.006740,-0.021994,0.047413,-0.106606,36.973698,39.083653,0.066359,-1.364949,3.544779,0.035339
1573538275.344936,-0.150367,0.030637,0.006693,-0.022075,0.047318,-0.106327,36.801141,39.543546,0.070740,-1.350025,3.548420,0.020355
1573538275.439596,-0.150653,0.030566,0.006669,-0.022026,0.047301,-0.105913,36.668471,39.882141,0.073795,-1.391225,3.535857,0.027033
1573538275.564146,-0.150489,0.030508,0.006668,-0.021949,0.047306,-0.105569,36.492507,40.319911,0.076388,-1.430125,3.550066,0.029847
1573538275.648846,-0.149841,0.030490,0.006632,-0.021976,0.047415,-0.105485,36.378696,40.608491,0.080049,-1.392273,3.537454,0.025063
1573538275.753456,-0.149597,0.030791,0.006594,-0.021917,0.047571,-0.105368,36.239563,40.975410,0.085084,-1.326451,3.545270,0.057763
1573538275.848126,-0.149507,0.030926,0.006593,-0.021865,0.047606,-0.104926,36.115152,41.309419,0.091053,-1.340701,3.565511,0.056912
1573538275.942786,-0.150477,0.031594,0.006611,-0.021654,0.047702,-0.104603,35.976791,41.665739,0.093888,-1.384587,3.565332,0.020079
1573538276.037436,-0.150270,0.031718,0.006675,-0.021556,0.047757,-0.103990,35.845762,42.000301,0.093407,-1.437028,3.554457,-0.004340
1573538276.102206,-0.149581,0.031701,0.006696,-0.021643,0.047880,-0.103332,35.758626,42.221235,0.093666,-1.432160,3.557849,0.016883
1573538276.216796,-0.149053,0.031908,0.006702,-0.021720,0.047941,-0.102746,35.602374,42.625774,0.097188,-1.384865,3.578629,0.028148
1573538276.291516,-0.149412,0.032546,0.006721,-0.021746,0.048273,-0.102333,35.496486,42.904117,0.098600,-1.366525,3.607448,0.037357
1573538276.386176,-0.149768,0.033023,0.006745,-0.021718,0.048459,-0.102144,35.364040,43.253718,0.101784,-1.363974,3.611824,0.056887
1573538276.540616,-0.150343,0.033451,0.006732,-0.021687,0.048530,-0.102171,35.145579,43.824772,0.109545,-1.410965,3.640154,0.027588
1573538276.640256,-0.151424,0.034159,0.006751,-0.021541,0.048605,-0.101984,34.988682,44.210987,0.108217,-1.480586,3.634136,-0.003501
1573538276.764806,-0.151892,0.034373,0.006732,-0.021575,0.048540,-0.101863,34.800428,44.672894,0.108073,-1.447517,3.653857,0.014828
1573538276.824586,-0.152927,0.034662,0.006729,-0.021593,0.048397,-0.101459,34.704033,44.909835,0.108971,-1.424046,3.698022,0.042404
1573538276.889356,-0.153112,0.034740,0.006738,-0.021617,0.048419,-0.101445,34.610884,45.153267,0.111750,-1.397283,3.718678,0.058503
1573538276.984016,-0.152748,0.034386,0.006792,-0.021616,0.048475,-0.101526,34.482424,45.496091,0.116293,-1.404984,3.709546,0.045032
1573538277.113546,-0.152287,0.033830,0.006839,-0.021616,0.048538,-0.101676,34.302044,45.960665,0.122868,-1.445327,3.667893,0.060674
1573538277.238096,-0.151903,0.033234,0.006869,-0.021670,0.048658,-0.101584,34.125840,46.404326,0.126809,-1.453055,3.674469,0.005495
1573538277.302866,-0.151177,0.032544,0.006907,-0.021790,0.048568,-0.101358,34.039827,46.621019,0.126669,-1.465358,3.635206,-0.002355
1573538277.397526,-0.150572,0.032115,0.006914,-0.021998,0.048495,-0.101467,33.909881,46.947549,0.128993,-1.437568,3.616765,0.041502
1573538277.492186,-0.149881,0.031705,0.006929,-0.022117,0.048443,-0.101653,33.782925,47.272806,0.134255,-1.416036,3.614365,0.056751
1573538277.586846,-0.149615,0.031863,0.006920,-0.022109,0.048376,-0.101662,33.653457,47.616739,0.139819,-1.366808,3.668173,0.054906
1573538277.741286,-0.150133,0.032423,0.006871,-0.022049,0.048365,-0.101512,33.431427,48.195203,0.145804,-1.452437,3.622915,0.044699
1573538277.835956,-0.150692,0.033085,0.006881,-0.021895,0.048452,-0.101458,33.284071,48.558468,0.150348,-1.473833,3.626536,0.058255
1573538277.900726,-0.151164,0.033608,0.006856,-0.021911,0.048422,-0.101442,33.183712,48.806713,0.153045,-1.443884,3.620734,0.035385
1573538277.995386,-0.151446,0.034010,0.006867,-0.021842,0.048439,-0.101489,33.045217,49.160821,0.155900,-1.417059,3.660644,0.038411
1573538278.090046,-0.151685,0.034198,0.006887,-0.021650,0.048507,-0.101536,32.908242,49.513653,0.159778,-1.423357,3.671512,0.051587
1573538278.184706,-0.151647,0.034122,0.006917,-0.021510,0.048511,-0.101523,32.772084,49.856644,0.163489,-1.471018,3.626818,0.030594
1573538278.344136,-0.151550,0.034212,0.006927,-0.021561,0.048472,-0.101465,32.540217,50.426250,0.167167,-1.454408,3.542799,0.026463
1573538278.438796,-0.151485,0.034193,0.006919,-0.021661,0.048373,-0.101487,32.402471,50.759024,0.170199,-1.491494,3.572114,0.034087
1573538278.533456,-0.151364,0.034185,0.006877,-0.021672,0.048358,-0.101541,32.264268,51.094855,0.175342,-1.475731,3.571372,0.042396
1573538278.657996,-0.151275,0.034280,0.006844,-0.021645,0.048207,-0.101425,32.084086,51.538021,0.182101,-1.436518,3.516447,0.060378
1573538278.752656,-0.150755,0.033945,0.006830,-0.021578,0.047985,-0.101324,31.954627,51.855549,0.187912,-1.442967,3.469596,0.045008
1573538278.847316,-0.150251,0.033636,0.006811,-0.021439,0.047759,-0.101148,31.822770,52.171094,0.193320,-1.471960,3.423855,0.056774
1573538278.941976,-0.149820,0.033332,0.006834,-0.021318,0.047704,-0.100909,31.686838,52.482407,0.198394,-1.521632,3.368604,0.049249
1573538279.036636,-0.149729,0.033336,0.006828,-0.021196,0.047660,-0.100782,31.541002,52.802995,0.203042,-1.554058,3.357395,0.061881
1573538279.131296,-0.150086,0.033267,0.006811,-0.020969,0.047571,-0.100456,31.387067,53.128844,0.208827,-1.563308,3.331904,0.049008
1573538279.260826,-0.149961,0.032979,0.006832,-0.020790,0.047539,-0.100264,31.184974,53.547389,0.213623,-1.589087,3.241225,0.041998
1573538279.290716,-0.149898,0.032768,0.006868,-0.020623,0.047556,-0.100108,31.138052,53.638397,0.214158,-1.608340,3.216004,0.036265
1573538279.385376,-0.149871,0.032768,0.006865,-0.020456,0.047452,-0.100072,30.982892,53.938260,0.218274,-1.684407,3.168791,0.047097
1573538279.544816,-0.149946,0.032932,0.006862,-0.020306,0.047302,-0.100091,30.706625,54.437796,0.229012,-1.788727,3.048331,0.061876
1573538279.639476,-0.150096,0.033089,0.006863,-0.020228,0.047096,-0.100217,30.531695,54.724211,0.234505,-1.878136,2.952197,0.050336
1573538279.704236,-0.150309,0.033246,0.006860,-0.020126,0.046915,-0.100296,30.404421,54.916431,0.236853,-1.966718,2.882952,0.024028
1573538279.858676,-0.150764,0.033007,0.006840,-0.019954,0.046676,-0.100032,30.089331,55.356666,0.241168,-2.019851,2.807750,0.017660
1573538279.923446,-0.150395,0.032362,0.006888,-0.020030,0.046418,-0.099908,29.966850,55.513198,0.241493,-2.028978,2.764951,0.014117
1573538279.988206,-0.150063,0.031793,0.006944,-0.020107,0.046278,-0.099741,29.842182,55.670972,0.241550,-2.057623,2.716137,0.015884
1573538280.127716,-0.149688,0.031215,0.007029,-0.020070,0.046062,-0.099758,29.557393,56.017782,0.243782,-2.167211,2.536391,0.025817
1573538280.237306,-0.149357,0.030795,0.007105,-0.019768,0.045708,-0.099666,29.322579,56.269138,0.245569,-2.247609,2.362317,0.034337
1573538280.302076,-0.149166,0.030581,0.007174,-0.019461,0.045273,-0.099508,29.179652,56.408835,0.246650,-2.302051,2.275309,0.037837
1573538280.461496,-0.149189,0.030550,0.007196,-0.019217,0.044759,-0.099503,28.804060,56.756096,0.251844,-2.402212,2.133525,0.028189
1573538280.491396,-0.149237,0.030635,0.007231,-0.019005,0.044226,-0.099500,28.731616,56.817688,0.251814,-2.407824,2.112293,0.022777
1573538280.586056,-0.149495,0.030870,0.007219,-0.018810,0.043870,-0.099598,28.499209,57.014568,0.252899,-2.432691,2.021214,0.000485
1573538280.745476,-0.149723,0.031083,0.007204,-0.018775,0.043475,-0.099692,28.100710,57.325362,0.251997,-2.558275,1.859693,-0.015661
1573538280.840136,-0.149952,0.031345,0.007176,-0.018771,0.043144,-0.099669,27.851935,57.498888,0.251530,-2.629155,1.768180,-0.004151
1573538280.899916,-0.150182,0.031628,0.007165,-0.018666,0.042908,-0.099795,27.690086,57.608390,0.251431,-2.656233,1.734365,0.001685
1573538280.994576,-0.150347,0.031633,0.007114,-0.018649,0.042569,-0.099793,27.437779,57.769609,0.253050,-2.656296,1.679852,0.012284
1573538281.089236,-0.150737,0.031882,0.007072,-0.018534,0.042315,-0.099762,27.179687,57.935096,0.256040,-2.673057,1.630357,0.035605
1573538281.188876,-0.150966,0.031705,0.007049,-0.018722,0.042140,-0.099639,26.911277,58.088091,0.260322,-2.720601,1.531005,0.040662
1573538281.308456,-0.151121,0.031368,0.007041,-0.018868,0.041877,-0.099602,26.587050,58.251987,0.265173,-2.774570,1.389763,0.037013
1573538281.408096,-0.151280,0.031096,0.007055,-0.018935,0.041649,-0.099510,26.314509,58.372788,0.267724,-2.791776,1.254667,0.026054
1573538281.502746,-0.151548,0.030771,0.007055,-0.019146,0.041196,-0.099344,26.053899,58.475530,0.270168,-2.819359,1.152643,0.031436
1573538281.597406,-0.151775,0.030452,0.007084,-0.019324,0.040686,-0.099141,25.790684,58.569363,0.271571,-2.856520,1.044447,0.014526
1573538281.692066,-0.152051,0.030038,0.007135,-0.019456,0.040273,-0.098988,25.524315,58.654251,0.271414,-2.854505,0.967995,0.019978
1573538281.786726,-0.152200,0.029572,0.007183,-0.019518,0.039993,-0.098861,25.259526,58.731581,0.272495,-2.857312,0.881259,0.035974
1573538281.881386,-0.152271,0.028969,0.007262,-0.019704,0.039488,-0.098868,24.993969,58.801208,0.274937,-2.873723,0.781511,0.053609
1573538282.040806,-0.152335,0.028483,0.007318,-0.019813,0.039023,-0.098781,24.538125,58.905923,0.279913,-2.906831,0.607160,0.011820
1573538282.100596,-0.152211,0.028020,0.007385,-0.020020,0.038463,-0.098466,24.372382,58.931147,0.278589,-2.900400,0.502730,-0.002803
1573538282.225146,-0.151972,0.027364,0.007465,-0.020185,0.038036,-0.098310,24.020557,58.978179,0.277263,-2.877411,0.402699,0.017899
1573538282.289916,-0.151593,0.026971,0.007551,-0.020052,0.037831,-0.098269,23.841531,58.999278,0.277759,-2.856146,0.402981,0.051689
1573538282.384576,-0.151261,0.026527,0.007623,-0.019902,0.037651,-0.098283,23.578118,59.033660,0.282712,-2.859773,0.422308,0.072897
1573538282.479236,-0.150940,0.026135,0.007669,-0.019796,0.037454,-0.098190,23.313278,59.066242,0.288402,-2.864338,0.362638,0.073349
1573538282.613756,-0.151000,0.025672,0.007667,-0.019742,0.037088,-0.098215,22.931968,59.098383,0.294418,-2.866996,0.154271,0.002983
1573538282.703426,-0.151185,0.025233,0.007638,-0.019747,0.036821,-0.098282,22.677337,59.103304,0.294040,-2.872915,0.040412,-0.025141
1573538282.842926,-0.151337,0.024963,0.007644,-0.019687,0.036522,-0.098473,22.281313,59.103244,0.291463,-2.841630,0.040960,0.011166
1573538282.892746,-0.151543,0.024654,0.007651,-0.019583,0.036097,-0.098664,22.141013,59.102797,0.292561,-2.851863,0.052931,0.031006
1573538282.987406,-0.151710,0.024322,0.007668,-0.019567,0.035847,-0.098715,21.872011,59.103710,0.296122,-2.871713,0.018431,0.045804
1573538283.082066,-0.152025,0.023930,0.007697,-0.019439,0.035593,-0.098862,21.602256,59.098624,0.299691,-2.837279,-0.060830,0.038885
1573538283.206606,-0.152153,0.023646,0.007725,-0.019325,0.035442,-0.099055,21.253478,59.083805,0.304845,-2.799652,-0.126299,0.046917
1573538283.301266,-0.151913,0.023217,0.007856,-0.019620,0.035107,-0.099030,20.994188,59.070204,0.306613,-2.789913,-0.118592,0.060064
1573538283.395926,-0.151281,0.022802,0.008016,-0.019855,0.034782,-0.098703,20.739227,59.056106,0.308860,-2.782077,-0.148658,0.061677
1573538283.490586,-0.150574,0.022436,0.008135,-0.019995,0.034535,-0.098500,20.483987,59.032584,0.308230,-2.806142,-0.326592,-0.031347
1573538283.585246,-0.150117,0.022264,0.008201,-0.020167,0.034419,-0.098344,20.223567,58.993516,0.300657,-2.788224,-0.464549,-0.085205
1573538283.679896,-0.149727,0.022115,0.008250,-0.020414,0.034343,-0.098111,19.964487,58.948139,0.290955,-2.763431,-0.450239,-0.079336
1573538283.809456,-0.149339,0.022046,0.008272,-0.020597,0.034359,-0.097759,19.611802,58.900207,0.285543,-2.738974,-0.296350,0.010322
1573538283.904086,-0.148904,0.022023,0.008283,-0.020631,0.034416,-0.097276,19.357135,58.873730,0.288143,-2.738006,-0.297323,0.039566
1573538283.998746,-0.148568,0.022037,0.008301,-0.020611,0.034378,-0.096766,19.102673,58.843184,0.292622,-2.717862,-0.393713,0.043117
1573538284.093396,-0.148074,0.022194,0.008311,-0.020582,0.034258,-0.096239,18.849678,58.798251,0.293842,-2.710466,-0.550286,-0.003141
1573538284.188056,-0.147650,0.022683,0.008329,-0.020542,0.034090,-0.095997,18.593101,58.749625,0.292831,-2.704864,-0.530206,-0.005073
1573538284.282716,-0.147176,0.023312,0.008307,-0.020437,0.034019,-0.095693,18.335111,58.707496,0.294472,-2.705568,-0.415606,0.046198
1573538284.437156,-0.146635,0.023879,0.008263,-0.020220,0.034054,-0.095143,17.917466,58.648084,0.301674,-2.684705,-0.461833,0.008518
1573538284.501916,-0.146985,0.023546,0.008274,-0.020053,0.034269,-0.095147,17.743059,58.611819,0.300835,-2.672711,-0.593950,-0.033841
1573538284.626466,-0.146668,0.023866,0.008218,-0.019686,0.034473,-0.094764,17.407152,58.531548,0.294366,-2.696357,-0.681224,-0.084692
1573538284.755986,-0.146308,0.023996,0.008175,-0.019221,0.034632,-0.094544,17.055619,58.450597,0.286860,-2.736813,-0.582528,-0.023309
1573538284.785886,-0.146188,0.023711,0.008154,-0.018728,0.034618,-0.094420,16.973737,58.433285,0.287617,-2.748142,-0.560623,0.003912
1573538284.880536,-0.146052,0.023666,0.008176,-0.018653,0.034645,-0.094491,16.713384,58.380443,0.289215,-2.779782,-0.578831,0.030086
1573538285.005086,-0.145818,0.023246,0.008168,-0.018205,0.034412,-0.094428,16.369396,58.300105,0.293064,-2.795670,-0.735206,0.006461
1573538285.104716,-0.145674,0.023245,0.008177,-0.018315,0.034397,-0.094517,16.092648,58.223323,0.291176,-2.786081,-0.799795,-0.035873
1573538285.199376,-0.145488,0.022868,0.008172,-0.018070,0.034139,-0.094402,15.831315,58.149151,0.289133,-2.797175,-0.746005,-0.011561
1573538285.353816,-0.145442,0.022860,0.008193,-0.018085,0.034077,-0.094477,15.394341,58.039899,0.290283,-2.875297,-0.703872,0.018094
1573538285.388686,-0.145018,0.022617,0.008186,-0.017928,0.033749,-0.094362,15.298005,58.015619,0.291843,-2.887399,-0.725787,0.014291
1573538285.543126,-0.145030,0.022524,0.008198,-0.017915,0.033755,-0.094503,14.851435,57.891651,0.290177,-2.895478,-0.846966,-0.039663
1573538285.612886,-0.144426,0.022095,0.008172,-0.017719,0.033696,-0.094203,14.660251,57.831361,0.288756,-2.898870,-0.858305,-0.047897
1573538285.732446,-0.144417,0.021873,0.008188,-0.017716,0.033833,-0.094342,14.312243,57.728541,0.284586,-2.973986,-0.842333,-0.012240
1573538285.802196,-0.143874,0.021472,0.008185,-0.017476,0.033874,-0.093861,14.112691,57.669918,0.285677,-2.989288,-0.819510,0.012807
1573538285.896856,-0.143819,0.021273,0.008191,-0.017446,0.034076,-0.094019,13.832159,57.591568,0.287919,-3.004850,-0.831217,0.032370
1573538285.986526,-0.143554,0.020835,0.008196,-0.017304,0.033954,-0.093862,13.569240,57.516212,0.292724,-3.003876,-0.819163,0.045284
1573538286.081186,-0.143721,0.020550,0.008206,-0.017231,0.034192,-0.093949,13.284439,57.435745,0.294859,-3.079385,-0.806365,0.009316
1573538286.205736,-0.141611,0.022546,0.008153,-0.017444,0.034269,-0.092498,12.907029,57.367269,0.295359,-3.178394,-0.777208,-0.011432
1573538286.300386,-0.140349,0.023755,0.008266,-0.017513,0.034083,-0.091624,12.609414,57.311257,0.286953,-3.192937,-0.761504,-0.021384
1573538286.395036,-0.139634,0.024453,0.008262,-0.017644,0.034329,-0.091074,12.307099,57.249182,0.283873,-3.205250,-0.809135,-0.032056
1573538286.489696,-0.139715,0.024123,0.008271,-0.017752,0.034410,-0.091159,12.003052,57.167114,0.280673,-3.224247,-0.878191,-0.029377
1573538286.584356,-0.139794,0.023849,0.008273,-0.017846,0.034557,-0.091221,11.696634,57.080396,0.278405,-3.252587,-0.902473,-0.014096
1573538286.679016,-0.139762,0.023533,0.008285,-0.017993,0.034691,-0.091270,11.388907,56.995732,0.278040,-3.304585,-0.885446,0.009923
1573538286.773666,-0.139740,0.023310,0.008297,-0.018041,0.034836,-0.091443,11.073268,56.910580,0.278625,-3.379113,-0.878638,0.013277
1573538286.903186,-0.139828,0.022991,0.008317,-0.018122,0.035036,-0.091655,10.632125,56.795682,0.279053,-3.410345,-0.862734,-0.013605
1573538286.997856,-0.140141,0.022752,0.008345,-0.018136,0.035159,-0.091817,10.305366,56.708552,0.274286,-3.412109,-0.912086,-0.057491
1573538287.097496,-0.140429,0.022847,0.008339,-0.018141,0.035255,-0.091841,9.955042,56.613325,0.268011,-3.448431,-0.957771,-0.050548
1573538287.187166,-0.139585,0.023342,0.008260,-0.018132,0.035490,-0.091270,9.650461,56.535699,0.267240,-3.492759,-0.962244,-0.026333
1573538287.281826,-0.139451,0.022731,0.008329,-0.018182,0.035460,-0.091333,9.325688,56.443106,0.263876,-3.524377,-0.976019,-0.009820
1573538287.376486,-0.139607,0.022374,0.008386,-0.018237,0.035366,-0.091067,8.991917,56.347075,0.262355,-3.536610,-1.009282,0.000103
1573538287.501026,-0.139416,0.021950,0.008431,-0.018478,0.035172,-0.090941,8.558081,56.218791,0.260205,-3.546367,-1.042131,-0.021104
1573538287.595686,-0.139085,0.021596,0.008474,-0.018625,0.035116,-0.090701,8.231039,56.121770,0.257287,-3.559187,-1.032357,-0.022868
1573538287.690346,-0.138679,0.021370,0.008487,-0.018752,0.035153,-0.090469,7.901793,56.029122,0.255776,-3.587719,-0.998460,-0.011918
1573538287.785006,-0.138377,0.021304,0.008506,-0.018751,0.035264,-0.090277,7.565806,55.935931,0.254361,-3.633509,-1.028723,-0.024180
1573538287.879666,-0.137842,0.021322,0.008508,-0.018812,0.035298,-0.090032,7.229198,55.841424,0.251291,-3.673780,-1.070415,-0.043228
1573538287.974326,-0.137924,0.021593,0.008483,-0.018896,0.035377,-0.089778,6.875761,55.738647,0.247169,-3.693382,-1.097495,-0.042189
1573538288.103856,-0.137980,0.021851,0.008451,-0.018906,0.035453,-0.089579,6.390685,55.593022,0.243872,-3.723475,-1.154132,-0.014720
1573538288.198516,-0.137924,0.022140,0.008411,-0.018897,0.035532,-0.089386,6.033312,55.485086,0.243973,-3.753864,-1.146775,-0.006011
1573538288.293176,-0.137886,0.022460,0.008361,-0.018911,0.035563,-0.089248,5.671079,55.378142,0.244279,-3.800281,-1.135290,-0.006631
1573538288.387836,-0.137721,0.022787,0.008304,-0.018831,0.035749,-0.089202,5.306801,55.273322,0.245072,-3.846452,-1.133949,-0.014699
1573538288.482486,-0.137408,0.023044,0.008233,-0.018733,0.036002,-0.089193,4.943177,55.170512,0.246437,-3.874702,-1.122703,-0.009973
1573538288.577146,-0.137244,0.023239,0.008185,-0.018587,0.036222,-0.089155,4.577220,55.064996,0.245222,-3.867882,-1.155556,-0.040136
1573538288.701706,-0.137020,0.023472,0.008145,-0.018488,0.036446,-0.089064,4.095370,54.920013,0.242228,-3.885404,-1.219370,-0.023453
1573538288.796356,-0.136864,0.023428,0.008168,-0.018494,0.036485,-0.089082,3.730713,54.805511,0.240644,-3.915335,-1.215852,0.002925
1573538288.920906,-0.136868,0.023721,0.008134,-0.018424,0.036650,-0.089128,3.233422,54.658656,0.241693,-3.997822,-1.151063,-0.009371
1573538288.985676,-0.136866,0.023907,0.008159,-0.018774,0.036747,-0.089232,2.971290,54.585353,0.240193,-4.028910,-1.135804,-0.015098
1573538289.080336,-0.137150,0.024003,0.008094,-0.018341,0.036990,-0.089153,2.581236,54.473062,0.239961,-4.036132,-1.162509,-0.020025
1573538289.174996,-0.137710,0.024144,0.008030,-0.017854,0.037139,-0.089267,2.184630,54.353815,0.240033,-4.046827,-1.220348,0.000340
1573538289.304526,-0.137644,0.024258,0.007999,-0.017741,0.037171,-0.089293,1.659698,54.190043,0.239858,-4.074114,-1.298286,-0.009936
1573538289.429066,-0.138208,0.024303,0.008031,-0.017799,0.037347,-0.089352,1.135964,54.018345,0.236465,-4.137174,-1.323051,-0.021176
1573538289.523726,-0.138384,0.024254,0.008088,-0.018107,0.037537,-0.089681,0.739476,53.894477,0.232235,-4.184837,-1.257613,-0.037286
1573538289.593476,-0.138708,0.024235,0.008153,-0.018427,0.037692,-0.089903,0.440364,53.803423,0.226546,-4.211587,-1.224080,-0.048840
1573538289.703076,-0.138404,0.024210,0.008188,-0.018541,0.037870,-0.089732,-0.014171,53.673027,0.220655,-4.222385,-1.234994,-0.036696
1573538289.777796,-0.139694,0.024823,0.008248,-0.018330,0.037992,-0.089115,-0.369520,53.564102,0.215694,-4.281787,-1.263081,0.002316
1573538289.907326,-0.140503,0.025125,0.008276,-0.018109,0.037986,-0.088582,-0.948229,53.382301,0.213845,-4.329385,-1.362170,-0.004762
1573538290.026886,-0.140793,0.025013,0.008322,-0.018104,0.038134,-0.088624,-1.470681,53.216710,0.210174,-4.355464,-1.333565,-0.036787
1573538290.121536,-0.140645,0.024563,0.008369,-0.018240,0.038115,-0.088733,-1.871513,53.093041,0.205181,-4.378820,-1.281338,-0.031716
1573538290.251066,-0.140802,0.024272,0.008408,-0.018389,0.037879,-0.089018,-2.438166,52.923642,0.198507,-4.398164,-1.320543,-0.063533
1573538290.300886,-0.140426,0.023581,0.008414,-0.018157,0.037747,-0.089042,-2.636781,52.859501,0.195837,-4.396882,-1.348722,-0.062433
1573538290.375606,-0.140035,0.023077,0.008404,-0.017836,0.037840,-0.089276,-2.947645,52.760050,0.192943,-4.395073,-1.384413,-0.037341
1573538290.500156,-0.139737,0.022570,0.008397,-0.017830,0.037934,-0.089493,-3.478659,52.589543,0.192515,-4.398726,-1.382034,0.000890
1573538290.629676,-0.139369,0.022183,0.008448,-0.018060,0.037912,-0.089515,-4.029040,52.414944,0.190310,-4.367453,-1.371986,-0.020277
1573538290.724326,-0.139077,0.021839,0.008530,-0.018132,0.037885,-0.089459,-4.429520,52.290277,0.187145,-4.383372,-1.339946,-0.022536
1573538290.784106,-0.137579,0.020942,0.008552,-0.018185,0.038136,-0.089191,-4.637948,52.230724,0.188101,-4.354147,-1.310392,-0.004401
1573538290.878766,-0.137230,0.020805,0.008570,-0.018140,0.038185,-0.089048,-5.040545,52.110773,0.187798,-4.356664,-1.316667,-0.012465
1573538290.978396,-0.136922,0.020729,0.008582,-0.017846,0.038296,-0.088781,-5.466904,51.982750,0.186715,-4.355053,-1.342006,-0.013487
1573538291.102946,-0.136594,0.020629,0.008550,-0.017686,0.038490,-0.088496,-5.998840,51.819058,0.189522,-4.348974,-1.343061,0.032236
1573538291.227486,-0.136691,0.020753,0.008518,-0.017603,0.038520,-0.088159,-6.548294,51.647672,0.190654,-4.383456,-1.387813,-0.015047
1573538291.322146,-0.136389,0.020779,0.008515,-0.017828,0.038583,-0.088134,-6.958397,51.522866,0.189260,-4.408742,-1.363519,-0.020707
1573538291.426776,-0.137141,0.021313,0.008485,-0.017761,0.038653,-0.088021,-7.453851,51.366747,0.184579,-4.458477,-1.415424,-0.042346
1573538291.496516,-0.138216,0.022016,0.008469,-0.017551,0.038780,-0.087872,-7.809971,51.250676,0.180428,-4.508433,-1.437453,-0.035901
1573538291.576216,-0.138539,0.022264,0.008491,-0.017444,0.038995,-0.087540,-8.184166,51.130704,0.176738,-4.535493,-1.451475,-0.038312
1573538291.735636,-0.138690,0.022398,0.008497,-0.017553,0.039193,-0.087254,-8.920246,50.895832,0.171333,-4.586042,-1.454992,-0.026565
1573538291.830286,-0.138290,0.022060,0.008510,-0.017608,0.039478,-0.086802,-9.332802,50.764016,0.170492,-4.540472,-1.425704,-0.002960
1573538291.924946,-0.137653,0.021588,0.008536,-0.017670,0.039765,-0.086340,-9.732347,50.638841,0.170568,-4.504029,-1.409193,-0.006278
1573538292.034546,-0.136539,0.020884,0.008541,-0.017653,0.039871,-0.085348,-10.177498,50.499733,0.170771,-4.451521,-1.464119,-0.025100
1573538292.079376,-0.135577,0.020354,0.008523,-0.017481,0.039850,-0.084184,-10.340300,50.448043,0.171387,-4.412334,-1.494161,-0.034047
1573538292.198946,-0.135190,0.020078,0.008539,-0.017609,0.039743,-0.083378,-10.852526,50.274190,0.167033,-4.414843,-1.490142,-0.042166
1573538292.268686,-0.135197,0.020029,0.008575,-0.017888,0.039617,-0.082711,-11.160209,50.170853,0.163224,-4.399113,-1.463385,-0.048791
1573538292.428106,-0.135635,0.020264,0.008643,-0.018235,0.039503,-0.082202,-11.888942,49.931170,0.156131,-4.511938,-1.447868,-0.022490
1573538292.522766,-0.135847,0.020348,0.008711,-0.018546,0.039542,-0.081773,-12.326493,49.791365,0.151517,-4.553223,-1.417455,-0.022264
1573538292.647296,-0.135955,0.020403,0.008748,-0.018578,0.039795,-0.081313,-12.896869,49.608900,0.146992,-4.525541,-1.500660,-0.039923
1573538292.697116,-0.135804,0.020371,0.008748,-0.018522,0.040161,-0.081317,-13.116504,49.535964,0.145420,-4.522276,-1.514008,-0.042151
1573538292.776826,-0.135117,0.019934,0.008775,-0.018953,0.040562,-0.081814,-13.441845,49.426276,0.142346,-4.480207,-1.510175,-0.041097
1573538292.871476,-0.134504,0.019599,0.008814,-0.019506,0.040895,-0.082206,-13.836439,49.295538,0.140152,-4.466804,-1.475374,-0.006061
1573538293.030896,-0.134004,0.019290,0.008852,-0.019981,0.041011,-0.082710,-14.524445,49.077255,0.137543,-4.445555,-1.420790,-0.041123
1573538293.125556,-0.134237,0.019419,0.008872,-0.020125,0.040883,-0.082963,-14.955570,48.939249,0.132554,-4.471489,-1.406591,-0.035390
1573538293.250106,-0.133835,0.019255,0.008796,-0.019849,0.040853,-0.082857,-15.499623,48.767094,0.129364,-4.505249,-1.467368,-0.061448
1573538293.279996,-0.133416,0.019138,0.008706,-0.019486,0.040864,-0.082387,-15.621584,48.731281,0.130690,-4.486646,-1.471741,-0.070241
1573538293.439416,-0.133117,0.019017,0.008597,-0.019224,0.040823,-0.081872,-16.324792,48.500195,0.125368,-4.459558,-1.449695,-0.008534
1573538293.479276,-0.132748,0.018801,0.008561,-0.019345,0.040948,-0.081646,-16.486289,48.450637,0.127249,-4.449306,-1.395456,0.016593
1573538293.628726,-0.132597,0.018684,0.008562,-0.019364,0.041001,-0.081602,-17.143523,48.246895,0.129598,-4.446969,-1.413572,0.007817
1573538293.723386,-0.133443,0.019161,0.008576,-0.019307,0.041273,-0.081362,-17.604524,48.094055,0.126922,-4.486615,-1.448796,-0.011371
1573538293.788146,-0.133816,0.019365,0.008545,-0.019261,0.041623,-0.081053,-17.911664,47.993042,0.125559,-4.489818,-1.447590,-0.020375
1573538293.882806,-0.134070,0.019597,0.008492,-0.019365,0.041584,-0.080462,-18.352193,47.850624,0.121967,-4.530987,-1.467933,-0.055308
1573538294.042226,-0.133924,0.019558,0.008449,-0.019673,0.041348,-0.080337,-19.074900,47.617911,0.114051,-4.605137,-1.483185,-0.048455
1573538294.072116,-0.134163,0.019771,0.008417,-0.019834,0.041384,-0.080230,-19.226111,47.569772,0.112966,-4.627929,-1.457133,-0.034424
1573538294.231536,-0.134031,0.019683,0.008407,-0.019830,0.041635,-0.080239,-19.952828,47.340110,0.109898,-4.575078,-1.465255,0.001466
1573538294.326186,-0.134025,0.019680,0.008392,-0.019704,0.041948,-0.080434,-20.383415,47.202452,0.112424,-4.551466,-1.444117,0.035407
1573538294.385976,-0.134132,0.019761,0.008350,-0.019559,0.042224,-0.080694,-20.661282,47.113854,0.115727,-4.581509,-1.438968,0.034323
1573538294.545396,-0.134276,0.019814,0.008306,-0.019413,0.042400,-0.080781,-21.397220,46.876312,0.116095,-4.584129,-1.493602,-0.045383
1573538294.575286,-0.133637,0.019366,0.008331,-0.019501,0.042532,-0.081337,-21.497109,46.844813,0.115227,-4.538418,-1.472178,-0.054369
1573538294.669936,-0.133282,0.019074,0.008366,-0.019742,0.042600,-0.081959,-21.904938,46.713713,0.108940,-4.537659,-1.447279,-0.056968
1573538294.829356,-0.133345,0.019088,0.008432,-0.019938,0.042646,-0.082656,-22.632508,46.481281,0.103181,-4.593138,-1.432515,0.021460
1573538294.924016,-0.133970,0.019449,0.008474,-0.019821,0.042785,-0.082951,-23.099756,46.331680,0.101911,-4.641152,-1.403936,0.023849
1573538294.988776,-0.134200,0.019600,0.008474,-0.019616,0.042977,-0.083476,-23.410973,46.235930,0.101889,-4.647458,-1.392734,0.002526
1573538295.148196,-0.133865,0.019363,0.008465,-0.019395,0.043186,-0.083856,-24.127033,46.018354,0.100630,-4.610096,-1.416988,-0.024722
1573538295.178096,-0.133389,0.019056,0.008430,-0.019265,0.043569,-0.084135,-24.235645,45.985854,0.101675,-4.566667,-1.422352,-0.021564
1573538295.272756,-0.133232,0.018987,0.008409,-0.019230,0.043588,-0.084621,-24.657741,45.853048,0.100275,-4.574005,-1.449533,-0.025679
1573538295.432176,-0.133230,0.019029,0.008380,-0.019259,0.043668,-0.084850,-25.388945,45.620518,0.096202,-4.584359,-1.451658,-0.025388
1573538295.526836,-0.133045,0.018970,0.008362,-0.019404,0.043816,-0.085351,-25.811550,45.490389,0.095254,-4.572545,-1.400784,-0.014408
1573538295.586616,-0.133268,0.019190,0.008365,-0.019375,0.043862,-0.085829,-26.098752,45.402351,0.093728,-4.596907,-1.384809,-0.006313
1573538295.721136,-0.133367,0.019332,0.008323,-0.019113,0.044175,-0.086069,-26.725104,45.212669,0.095000,-4.631063,-1.407269,0.001132
1573538295.775926,-0.133466,0.019425,0.008302,-0.018732,0.044219,-0.086405,-26.983346,45.131217,0.095017,-4.632398,-1.448399,-0.012455
1573538295.870586,-0.133461,0.019455,0.008267,-0.018489,0.044553,-0.086773,-27.419382,44.992185,0.092568,-4.612312,-1.474226,-0.052663
1573538296.030006,-0.133088,0.019250,0.008224,-0.018384,0.044840,-0.087405,-28.130097,44.765751,0.086026,-4.605965,-1.469469,-0.031948
1573538296.124656,-0.133053,0.019245,0.008223,-0.018619,0.044987,-0.088137,-28.561868,44.630396,0.084195,-4.607854,-1.428820,-0.011418
1573538296.189416,-0.133272,0.019378,0.008219,-0.018700,0.045237,-0.088720,-28.868537,44.532980,0.083744,-4.613305,-1.418076,0.013135
1573538296.343866,-0.133432,0.019469,0.008193,-0.018601,0.045469,-0.089121,-29.582437,44.308185,0.087358,-4.583666,-1.465417,-0.011881
1573538296.378736,-0.133717,0.019645,0.008157,-0.018395,0.045676,-0.089231,-29.755748,44.249565,0.087410,-4.599838,-1.453579,-0.006376
1573538296.473396,-0.133866,0.019683,0.008172,-0.018232,0.045818,-0.089317,-30.195482,44.105082,0.083958,-4.627002,-1.500328,-0.052085
1573538296.627836,-0.133973,0.019701,0.008186,-0.018340,0.045972,-0.089358,-30.911674,43.869082,0.075486,-4.639803,-1.488671,-0.034327
1573538296.722486,-0.133232,0.019154,0.008228,-0.018698,0.046162,-0.089890,-31.294706,43.747666,0.074693,-4.593771,-1.435501,0.009462
1573538296.817146,-0.133021,0.018913,0.008273,-0.018703,0.046289,-0.089822,-31.709796,43.614292,0.074988,-4.601923,-1.451801,0.026713
1573538296.946676,-0.133008,0.018874,0.008284,-0.018554,0.046697,-0.089986,-32.297907,43.422733,0.075057,-4.564845,-1.468874,-0.008178
1573538296.996506,-0.132919,0.018867,0.008274,-0.018500,0.047061,-0.090322,-32.516468,43.351705,0.074544,-4.539815,-1.469033,-0.023324
1573538297.071226,-0.132897,0.018862,0.008270,-0.018481,0.047225,-0.089899,-32.853280,43.242978,0.072522,-4.533695,-1.466193,-0.032537
1573538297.230646,-0.132703,0.018733,0.008270,-0.018835,0.047261,-0.089803,-33.563067,43.015468,0.069917,-4.558191,-1.457108,0.002137
1573538297.325306,-0.132448,0.018564,0.008286,-0.019239,0.047197,-0.090128,-33.975340,42.886581,0.070037,-4.561899,-1.450293,-0.017891
1573538297.390066,-0.132598,0.018714,0.008274,-0.019270,0.047212,-0.089619,-34.280346,42.788369,0.067715,-4.567396,-1.478118,-0.032737
1573538297.514626,-0.132639,0.018751,0.008246,-0.019288,0.047428,-0.089315,-34.849651,42.605473,0.063761,-4.580671,-1.451678,-0.038926
1573538297.579396,-0.132733,0.018861,0.008206,-0.019142,0.047649,-0.088953,-35.151467,42.508544,0.061949,-4.595889,-1.467081,-0.041468
1573538297.674056,-0.132865,0.019034,0.008178,-0.019028,0.047840,-0.088460,-35.596574,42.364483,0.058349,-4.603259,-1.488506,-0.028869
1573538297.808576,-0.132647,0.018917,0.008150,-0.019013,0.048137,-0.088430,-36.195959,42.171894,0.059335,-4.562477,-1.452327,0.023324
1573538297.893256,-0.132588,0.018924,0.008109,-0.018903,0.048745,-0.088580,-36.573631,42.050378,0.062507,-4.523084,-1.451978,0.016548
1573538297.987926,-0.132760,0.019106,0.008066,-0.018739,0.049137,-0.088371,-37.013952,41.907264,0.063256,-4.558863,-1.461907,-0.014514
1573538298.097526,-0.132805,0.019177,0.008033,-0.018553,0.049101,-0.087869,-37.515007,41.743235,0.061553,-4.565187,-1.480919,-0.023027
1573538298.177236,-0.132654,0.019091,0.008049,-0.018525,0.048934,-0.087136,-37.865031,41.627141,0.059385,-4.544696,-1.497404,-0.027320
1573538298.271896,-0.132461,0.018963,0.008118,-0.018742,0.048793,-0.086674,-38.277358,41.490448,0.057518,-4.530804,-1.469380,0.011254
1573538298.366556,-0.131569,0.018340,0.008181,-0.018964,0.048751,-0.086445,-38.640962,41.374950,0.060074,-4.503041,-1.418512,0.038980
1573538298.516016,-0.131205,0.018134,0.008207,-0.018823,0.048939,-0.086245,-39.283334,41.170766,0.063539,-4.446806,-1.425913,0.001454
1573538298.585766,-0.130967,0.018033,0.008182,-0.018605,0.049236,-0.086124,-39.572740,41.075322,0.063981,-4.398079,-1.447366,-0.008638
1573538298.700356,-0.131322,0.018340,0.008171,-0.018554,0.049507,-0.086019,-40.098137,40.895425,0.062386,-4.420265,-1.489170,-0.006981
1573538298.775086,-0.131624,0.018565,0.008209,-0.018814,0.049692,-0.086041,-40.445149,40.776394,0.059468,-4.461107,-1.489239,-0.011605
1573538298.869746,-0.131470,0.018462,0.008265,-0.019219,0.049832,-0.086408,-40.849350,40.638582,0.057062,-4.450371,-1.472816,-0.001360
1573538299.014226,-0.131439,0.018477,0.008315,-0.019444,0.050025,-0.086630,-41.481369,40.431148,0.057988,-4.395107,-1.405686,0.040842
1573538299.123826,-0.131481,0.018554,0.008362,-0.019440,0.050017,-0.086678,-41.963114,40.273583,0.060226,-4.401690,-1.447126,0.024839
1573538299.188586,-0.131661,0.018734,0.008376,-0.019298,0.049887,-0.086551,-42.259805,40.172525,0.059983,-4.434620,-1.464225,0.000137
1573538299.348016,-0.131803,0.018897,0.008342,-0.019148,0.049912,-0.086433,-42.972262,39.930110,0.055879,-4.394123,-1.484653,-0.036142
1573538299.377906,-0.131569,0.018836,0.008316,-0.019229,0.049952,-0.086431,-43.086517,39.892655,0.055802,-4.373085,-1.463272,-0.027412
1573538299.472566,-0.131428,0.018827,0.008340,-0.019431,0.049921,-0.086809,-43.489632,39.758157,0.052910,-4.366370,-1.458558,-0.017610
1573538299.567226,-0.131462,0.018976,0.008381,-0.019636,0.050217,-0.087027,-43.908050,39.621342,0.052191,-4.401591,-1.408075,0.036237
1573538299.726646,-0.131661,0.019280,0.008394,-0.019385,0.050641,-0.086854,-44.626819,39.389503,0.053775,-4.358967,-1.415328,-0.003231
1573538299.821306,-0.132025,0.019696,0.008328,-0.018977,0.050958,-0.086749,-45.070420,39.243100,0.053373,-4.341070,-1.454819,-0.015238
1573538299.906006,-0.132094,0.019892,0.008283,-0.018654,0.051200,-0.086444,-45.447572,39.115373,0.053061,-4.340906,-1.485907,-0.016278
1573538300.040526,-0.131849,0.019856,0.008241,-0.018872,0.051345,-0.086705,-46.008802,38.926291,0.053177,-4.316965,-1.464588,-0.010233
1573538300.135176,-0.131280,0.019551,0.008265,-0.019207,0.051272,-0.085980,-46.376912,38.808611,0.053725,-4.286501,-1.373598,0.016277
1573538300.209926,-0.131067,0.019459,0.008287,-0.019549,0.051136,-0.085439,-46.677998,38.712925,0.053748,-4.258880,-1.373145,0.004351
1573538300.324506,-0.131108,0.019602,0.008314,-0.019610,0.051085,-0.084956,-47.170722,38.555201,0.054102,-4.246581,-1.367305,0.020150
1573538300.389266,-0.131252,0.019840,0.008310,-0.019321,0.051111,-0.084337,-47.461162,38.461072,0.054792,-4.268525,-1.382561,0.018223
1573538300.508846,-0.131333,0.020035,0.008291,-0.019067,0.051172,-0.083780,-47.981026,38.290138,0.055359,-4.261281,-1.440807,-0.025420
1573538300.578596,-0.131304,0.020130,0.008279,-0.019009,0.051145,-0.083511,-48.278033,38.189916,0.052328,-4.256367,-1.460264,-0.051410
1573538300.673256,-0.131126,0.020151,0.008303,-0.019331,0.051351,-0.083578,-48.668893,38.061700,0.047546,-4.232959,-1.388950,-0.024465
1573538300.767926,-0.131437,0.020466,0.008293,-0.019351,0.051408,-0.083640,-49.092625,37.921957,0.045578,-4.241235,-1.387665,-0.012486
1573538300.927346,-0.131512,0.020600,0.008279,-0.019378,0.051573,-0.083730,-49.770494,37.697926,0.045831,-4.236672,-1.377449,0.004661
1573538300.987136,-0.131744,0.020906,0.008235,-0.019303,0.051759,-0.083608,-50.045367,37.608139,0.045814,-4.258923,-1.388030,-0.017070
1573538301.101726,-0.131987,0.021217,0.008185,-0.018941,0.051734,-0.083270,-50.556376,37.441360,0.043926,-4.246676,-1.388920,-0.037031
1573538301.241226,-0.132061,0.021373,0.008125,-0.018906,0.051733,-0.082883,-51.153687,37.246476,0.041755,-4.227012,-1.371944,-0.000280
1573538301.271106,-0.131848,0.021296,0.008111,-0.018947,0.051694,-0.082961,-51.259403,37.212825,0.042986,-4.211309,-1.364546,0.023177
1573538301.365766,-0.131577,0.021144,0.008091,-0.018987,0.051529,-0.083003,-51.629420,37.091160,0.046555,-4.164626,-1.378649,0.027732
1573538301.525196,-0.131482,0.021160,0.008094,-0.019276,0.051377,-0.083225,-52.280182,36.875587,0.047611,-4.124009,-1.335145,-0.022820
1573538301.594946,-0.131475,0.021237,0.008114,-0.019396,0.051360,-0.083163,-52.562806,36.782661,0.045047,-4.099311,-1.331554,-0.032693
1573538301.699566,-0.130949,0.020955,0.008113,-0.019452,0.051404,-0.083010,-52.943697,36.662527,0.045064,-4.066272,-1.287121,0.005073
1573538301.779276,-0.130603,0.020824,0.008129,-0.019493,0.051369,-0.082754,-53.237872,36.572262,0.046802,-4.038232,-1.271795,0.021561
1573538301.873926,-0.130350,0.020797,0.008125,-0.019222,0.051531,-0.082247,-53.599279,36.458407,0.051017,-3.978223,-1.302873,0.046887
1573538301.968586,-0.130366,0.020931,0.008100,-0.019129,0.051786,-0.081565,-53.975095,36.331566,0.054202,-3.938830,-1.357159,-0.003844
1573538302.093136,-0.129896,0.020727,0.008112,-0.019199,0.052018,-0.081253,-54.422801,36.178930,0.051039,-3.850831,-1.333310,-0.036661
1573538302.197766,-0.129708,0.020725,0.008152,-0.019272,0.052194,-0.080804,-54.807107,36.046008,0.048129,-3.789159,-1.318314,0.019110
1573538302.292426,-0.129722,0.020850,0.008158,-0.019366,0.052244,-0.080257,-55.165229,35.921907,0.051277,-3.751823,-1.323024,0.049515
1573538302.441876,-0.129930,0.021128,0.008161,-0.019541,0.052250,-0.080216,-55.738805,35.709932,0.055575,-3.678637,-1.473519,0.014647
1573538302.471766,-0.130239,0.021493,0.008144,-0.019453,0.052274,-0.080003,-55.876013,35.655196,0.055787,-3.676313,-1.532237,0.004812
1573538302.581376,-0.130514,0.021850,0.008118,-0.019560,0.052141,-0.080023,-56.296135,35.471738,0.054135,-3.543217,-1.654474,-0.022799
1573538302.725846,-0.130410,0.021934,0.008121,-0.019494,0.052217,-0.079971,-56.787650,35.225322,0.051449,-3.369237,-1.818933,-0.000556
1573538302.795606,-0.130727,0.022316,0.008129,-0.019420,0.052292,-0.079847,-57.049866,35.084918,0.052413,-3.329511,-1.890871,0.045544
1573538302.895246,-0.131024,0.022705,0.008121,-0.019374,0.052333,-0.079923,-57.405735,34.881633,0.058877,-3.233311,-1.986790,0.056322
1573538303.039716,-0.131071,0.022932,0.008149,-0.019453,0.052308,-0.079876,-57.867397,34.581520,0.063341,-3.017199,-2.159961,0.006463
1573538303.074586,-0.131234,0.023233,0.008215,-0.019399,0.052315,-0.079756,-57.989241,34.498867,0.061611,-2.972520,-2.224036,-0.006743
1573538303.189176,-0.131362,0.023504,0.008266,-0.019569,0.052227,-0.079271,-58.333499,34.227824,0.059145,-2.806552,-2.399563,-0.000481
1573538303.323686,-0.131610,0.023847,0.008359,-0.019723,0.052025,-0.078805,-58.724430,33.889767,0.058106,-2.681411,-2.527183,0.006634
1573538303.388456,-0.131656,0.024153,0.008448,-0.019802,0.051686,-0.078205,-58.915037,33.718683,0.055899,-2.570839,-2.631667,-0.001172
1573538303.513006,-0.132249,0.024784,0.008433,-0.019831,0.051493,-0.078262,-59.272479,33.354049,0.056132,-2.317124,-2.821648,-0.007187
1573538303.582756,-0.132588,0.025214,0.008439,-0.020014,0.050812,-0.078275,-59.460997,33.139228,0.055155,-2.172288,-2.906603,-0.008214
1573538303.672426,-0.132946,0.025725,0.008468,-0.020087,0.050394,-0.078170,-59.685026,32.856710,0.054590,-2.017802,-2.993504,0.014594
1573538303.767086,-0.133317,0.026116,0.008433,-0.019923,0.050378,-0.078584,-59.894270,32.554526,0.058067,-1.836620,-3.067198,0.051994
1573538303.896616,-0.133618,0.026528,0.008414,-0.019831,0.050249,-0.078868,-60.137790,32.135261,0.064616,-1.524345,-3.181816,0.032457
1573538303.991276,-0.133683,0.026802,0.008419,-0.019866,0.050151,-0.079066,-60.282384,31.825008,0.066224,-1.322921,-3.258336,0.007029
1573538304.110846,-0.133972,0.027340,0.008408,-0.019775,0.049991,-0.078858,-60.456868,31.409716,0.067895,-1.063847,-3.329719,0.021233
1573538304.240376,-0.134116,0.027701,0.008383,-0.019758,0.049573,-0.078972,-60.588736,30.960682,0.069615,-0.702564,-3.422830,-0.024874
1573538304.275256,-0.134194,0.027990,0.008321,-0.019669,0.049234,-0.078966,-60.626673,30.831108,0.070657,-0.617269,-3.439541,-0.027140
1573538304.379886,-0.134248,0.028126,0.008283,-0.019487,0.049063,-0.078900,-60.685254,30.468838,0.070101,-0.424579,-3.395587,0.016376
1573538304.469566,-0.134285,0.028200,0.008259,-0.019295,0.048615,-0.078823,-60.719949,30.163819,0.075615,-0.300489,-3.378280,0.067449
1573538304.589136,-0.134319,0.028342,0.008257,-0.019185,0.048216,-0.078846,-60.743728,29.758238,0.084616,-0.071043,-3.362910,0.074320
1573538304.683796,-0.134348,0.028645,0.008263,-0.019039,0.047973,-0.078729,-60.743815,29.431809,0.089272,0.192623,-3.378595,0.015876
1573538304.843216,-0.134174,0.028788,0.008318,-0.019417,0.047658,-0.078443,-60.684843,28.897480,0.085617,0.535575,-3.284688,-0.010134
1573538304.873106,-0.133627,0.028924,0.008388,-0.019574,0.047123,-0.078142,-60.665196,28.805508,0.083015,0.576185,-3.257274,-0.002254
1573538304.967766,-0.133292,0.029220,0.008397,-0.019636,0.046768,-0.077830,-60.607344,28.498300,0.084549,0.674314,-3.204195,0.035501
1573538305.062426,-0.132809,0.029497,0.008436,-0.019666,0.046340,-0.077397,-60.538079,28.196950,0.086921,0.817560,-3.151410,0.040192
1573538305.186966,-0.132411,0.029917,0.008439,-0.019884,0.045959,-0.076775,-60.425177,27.805970,0.091932,1.066591,-3.077052,0.054642
1573538305.316496,-0.132209,0.030078,0.008443,-0.019795,0.045631,-0.076661,-60.272478,27.411561,0.095267,1.312943,-2.965302,-0.000634
1573538305.411156,-0.132328,0.030439,0.008411,-0.019847,0.045442,-0.076359,-60.144117,27.128272,0.095741,1.401312,-2.865127,0.008091
1573538305.470946,-0.132376,0.030967,0.008368,-0.019857,0.045146,-0.076144,-60.059832,26.952559,0.096616,1.490559,-2.797907,-0.008267
1573538305.585536,-0.132476,0.031813,0.008310,-0.019846,0.044828,-0.075937,-59.882557,26.629660,0.095998,1.640145,-2.662982,-0.006898
1573538305.715066,-0.132466,0.032351,0.008300,-0.020014,0.044301,-0.075994,-59.657017,26.291605,0.092485,1.852917,-2.474026,-0.041666
1573538305.789796,-0.132375,0.032695,0.008298,-0.020138,0.043820,-0.075962,-59.515859,26.108560,0.089393,1.933578,-2.376873,-0.034046
1573538305.914356,-0.132603,0.032986,0.008268,-0.020233,0.043462,-0.076035,-59.268451,25.814326,0.087081,2.032174,-2.292298,-0.013300
1573538306.009016,-0.132899,0.033282,0.008228,-0.020406,0.043186,-0.075938,-59.071483,25.599007,0.086501,2.119733,-2.191889,-0.014646
1573538306.078766,-0.133042,0.033444,0.008219,-0.020297,0.042846,-0.075949,-58.920670,25.449729,0.085376,2.181738,-2.082597,-0.007993
1573538306.168436,-0.133252,0.033726,0.008192,-0.020391,0.042438,-0.076072,-58.720879,25.268219,0.085481,2.253813,-1.926817,0.009154
1573538306.263096,-0.133421,0.033882,0.008191,-0.020447,0.041929,-0.076201,-58.504738,25.091597,0.086297,2.299282,-1.788112,0.014160
1573538306.387646,-0.133352,0.033799,0.008218,-0.020600,0.041440,-0.076100,-58.208452,24.880223,0.085920,2.471736,-1.639615,-0.003793
1573538306.517176,-0.132975,0.033553,0.008227,-0.020688,0.040966,-0.075941,-57.879877,24.686061,0.085233,2.592119,-1.456924,0.000877
1573538306.611836,-0.132849,0.034679,0.008162,-0.020517,0.040767,-0.075887,-57.632561,24.551122,0.082827,2.601578,-1.313464,-0.047134
1573538306.736386,-0.131908,0.033598,0.008279,-0.020575,0.040098,-0.075802,-57.310280,24.412235,0.076272,2.691350,-1.184505,-0.007121
1573538306.806146,-0.131347,0.033501,0.008311,-0.020567,0.039668,-0.075666,-57.121920,24.338415,0.074906,2.786869,-1.092173,-0.009810
1573538306.895806,-0.130981,0.033499,0.008340,-0.020713,0.039212,-0.075606,-56.869372,24.248741,0.072772,2.866923,-0.999291,-0.015847
1573538306.995456,-0.130509,0.033496,0.008374,-0.020736,0.038779,-0.075634,-56.585012,24.157806,0.070469,2.905878,-0.910748,-0.016576
1573538307.115016,-0.130452,0.034331,0.008330,-0.020744,0.038618,-0.075188,-56.231321,24.052799,0.066637,2.990871,-0.810176,-0.033298
1573538307.209676,-0.129821,0.033568,0.008477,-0.020710,0.038066,-0.074965,-55.951430,23.987447,0.061439,3.015107,-0.789076,0.006185
1573538307.274436,-0.129560,0.033608,0.008524,-0.020841,0.037658,-0.074563,-55.757977,23.938720,0.061083,3.004577,-0.778074,0.041037
1573538307.428886,-0.129163,0.033648,0.008542,-0.020856,0.037297,-0.074234,-55.288882,23.829602,0.068102,3.118670,-0.623886,0.026992
1573538307.513586,-0.128753,0.033717,0.008570,-0.020808,0.036871,-0.074047,-55.024014,23.782894,0.067675,3.176443,-0.538576,0.002735
1573538307.588306,-0.128143,0.034144,0.008609,-0.020778,0.036573,-0.073829,-54.790437,23.746124,0.065470,3.193785,-0.500026,-0.015891
1573538307.717836,-0.127973,0.034528,0.008607,-0.020908,0.036465,-0.073494,-54.375208,23.678268,0.063823,3.236135,-0.546250,0.010425
1573538307.812486,-0.127819,0.035128,0.008611,-0.021090,0.036502,-0.073155,-54.067320,23.622877,0.064502,3.274292,-0.576679,0.013419
1573538307.872276,-0.127856,0.035792,0.008587,-0.021281,0.036735,-0.072854,-53.868924,23.585194,0.064879,3.319685,-0.578082,-0.005084
1573538307.966926,-0.127932,0.036526,0.008567,-0.021402,0.037082,-0.072739,-53.549288,23.530811,0.062460,3.411589,-0.528560,-0.030106
1573538308.061586,-0.128253,0.036961,0.008522,-0.021515,0.037339,-0.072613,-53.218699,23.480150,0.061198,3.498728,-0.508946,-0.002395
1573538308.186136,-0.128728,0.037026,0.008481,-0.021633,0.037679,-0.072404,-52.774952,23.414080,0.063880,3.543218,-0.542392,0.030238
1573538308.315666,-0.129231,0.036912,0.008465,-0.021875,0.037950,-0.072101,-52.310832,23.346688,0.066840,3.580135,-0.513668,0.011770
1573538308.410326,-0.129753,0.036630,0.008477,-0.021854,0.038052,-0.071952,-51.964948,23.304104,0.065956,3.648426,-0.456747,-0.001213
1573538308.475086,-0.130104,0.036345,0.008517,-0.021675,0.037983,-0.071837,-51.725160,23.278620,0.063523,3.681974,-0.449668,-0.004528
1573538308.569746,-0.130393,0.036180,0.008565,-0.021750,0.038097,-0.071750,-51.373668,23.237989,0.061352,3.692542,-0.480672,0.019206
1573538308.709246,-0.130506,0.036502,0.008593,-0.021880,0.038259,-0.071497,-50.855631,23.170722,0.061879,3.717866,-0.427917,-0.005005
1573538308.818846,-0.131388,0.035360,0.008633,-0.021764,0.038228,-0.071717,-50.431703,23.134859,0.056499,3.806053,-0.398462,-0.031338
1573538308.913506,-0.131140,0.035627,0.008649,-0.021695,0.038291,-0.071921,-50.074410,23.097752,0.052884,3.834287,-0.431615,-0.017483
1573538309.008166,-0.130326,0.036500,0.008623,-0.021586,0.038525,-0.071703,-49.722729,23.054887,0.053554,3.848584,-0.434882,0.000823
1573538309.072936,-0.129852,0.037011,0.008625,-0.021687,0.038867,-0.071437,-49.478859,23.027913,0.052850,3.859734,-0.408887,-0.013275
1573538309.207456,-0.129570,0.037366,0.008609,-0.021541,0.038928,-0.071213,-48.959937,22.975507,0.049513,3.924970,-0.371276,-0.038603
1573538309.327016,-0.129433,0.037665,0.008559,-0.021425,0.038984,-0.071050,-48.489613,22.932718,0.047211,3.971789,-0.360273,-0.008165
1573538309.421676,-0.129485,0.037664,0.008541,-0.021405,0.039096,-0.070908,-48.112093,22.901991,0.047562,3.989765,-0.337889,0.017954
1573538309.516336,-0.129508,0.038133,0.008509,-0.021563,0.039555,-0.070856,-47.735041,22.865191,0.048541,3.963026,-0.405462,-0.006209
1573538309.610996,-0.129639,0.038596,0.008486,-0.021702,0.039946,-0.070995,-47.356135,22.821080,0.048380,4.011157,-0.511089,0.015725
1573538309.675756,-0.130123,0.038883,0.008464,-0.021390,0.040157,-0.071231,-47.085653,22.787324,0.048658,4.084475,-0.510598,0.002581
1573538309.815266,-0.130312,0.039340,0.008438,-0.021247,0.040497,-0.071718,-46.509186,22.719756,0.045977,4.112439,-0.457960,-0.028020
1573538309.865076,-0.130543,0.039725,0.008402,-0.021028,0.040705,-0.072223,-46.299067,22.697085,0.044551,4.128503,-0.437474,-0.025974
1573538309.959736,-0.130233,0.040468,0.008357,-0.020923,0.041018,-0.072525,-45.913228,22.654802,0.042991,4.155451,-0.406844,-0.018170
1573538310.114186,-0.130247,0.040996,0.008322,-0.020974,0.041474,-0.072795,-45.268651,22.590293,0.046908,4.188996,-0.453266,0.061849
1573538310.243706,-0.130089,0.041511,0.008293,-0.020960,0.041817,-0.073023,-44.729584,22.529578,0.053957,4.200953,-0.490945,0.044085
1573538310.273606,-0.129920,0.041944,0.008253,-0.020928,0.042106,-0.073195,-44.608383,22.515272,0.055869,4.212856,-0.486511,0.018453
1573538310.418086,-0.129754,0.042572,0.008197,-0.020689,0.042270,-0.073406,-43.998210,22.449422,0.051544,4.268573,-0.402984,-0.060676
1573538310.462916,-0.130092,0.043151,0.008120,-0.020369,0.042581,-0.073777,-43.797737,22.430234,0.050507,4.291044,-0.380636,-0.053256
1573538310.557576,-0.129895,0.043749,0.008058,-0.020374,0.042922,-0.073843,-43.396773,22.392057,0.049872,4.296221,-0.408934,-0.003725
1573538310.716996,-0.130436,0.044214,0.008024,-0.020559,0.043391,-0.073772,-42.693598,22.321636,0.053842,4.358198,-0.510555,0.065972
1573538310.811656,-0.130617,0.044509,0.008016,-0.020601,0.043762,-0.073874,-42.278535,22.274612,0.058414,4.362251,-0.500592,0.055888
1573538310.936206,-0.130870,0.044458,0.008016,-0.020315,0.043919,-0.074061,-41.731093,22.222155,0.061492,4.396219,-0.394167,-0.026639
1573538310.966096,-0.131045,0.044671,0.007988,-0.019969,0.044156,-0.074290,-41.597541,22.213147,0.060141,4.410450,-0.347926,-0.067714
1573538311.110576,-0.131581,0.044928,0.007945,-0.019859,0.044517,-0.074535,-40.945529,22.172121,0.048028,4.483698,-0.304750,-0.062787
1573538311.220176,-0.131648,0.045390,0.007926,-0.020069,0.044799,-0.074431,-40.452239,22.131773,0.045214,4.521195,-0.399181,-0.009364
1573538311.314836,-0.131705,0.045852,0.007958,-0.020300,0.045177,-0.074306,-40.023951,22.090591,0.043299,4.519976,-0.459710,0.011023
1573538311.409496,-0.131499,0.046326,0.008042,-0.020508,0.045632,-0.074102,-39.600679,22.043599,0.041276,4.545297,-0.502167,0.011332
1573538311.534046,-0.131775,0.046732,0.008082,-0.020368,0.045982,-0.074028,-39.022447,21.983830,0.038330,4.575835,-0.440930,-0.025825
1573538311.633686,-0.131561,0.047073,0.008063,-0.020054,0.046156,-0.074168,-38.572987,21.943905,0.035170,4.581515,-0.365423,-0.059933
1573538311.728346,-0.131409,0.047476,0.008017,-0.019737,0.046287,-0.074216,-38.142413,21.910398,0.031454,4.612313,-0.352019,-0.047907
1573538311.823006,-0.131007,0.047784,0.008003,-0.019773,0.046479,-0.073924,-37.718497,21.874365,0.029900,4.615167,-0.413433,-0.013627
1573538311.917666,-0.130723,0.048024,0.008026,-0.019969,0.046784,-0.073650,-37.291550,21.835268,0.027925,4.620692,-0.442916,-0.011357
1573538312.012326,-0.130297,0.048306,0.008063,-0.020027,0.047023,-0.073400,-36.867416,21.795507,0.024256,4.622639,-0.443700,-0.034482
1573538312.131896,-0.130415,0.048624,0.008060,-0.019858,0.047049,-0.073353,-36.310871,21.745819,0.019176,4.638855,-0.396081,-0.036703
1573538312.166776,-0.130725,0.049170,0.008008,-0.019724,0.047130,-0.073267,-36.138213,21.730701,0.018713,4.655103,-0.371840,-0.030946
1573538312.261426,-0.130881,0.049737,0.007982,-0.019790,0.047291,-0.073083,-35.690837,21.691033,0.017869,4.657330,-0.395965,0.009318
1573538312.390956,-0.130594,0.050240,0.007960,-0.019905,0.047504,-0.072949,-35.097462,21.636603,0.023349,4.652456,-0.427529,0.045121
1573538312.515516,-0.130964,0.050644,0.007950,-0.019766,0.047794,-0.072931,-34.502544,21.582493,0.025831,4.696453,-0.433211,0.006711
1573538312.610176,-0.131033,0.050984,0.007940,-0.019506,0.047993,-0.073124,-34.056306,21.543158,0.024027,4.687481,-0.418422,-0.021844
1573538312.674946,-0.131141,0.051295,0.007888,-0.019294,0.048288,-0.073275,-33.748774,21.518428,0.023103,4.710240,-0.381287,-0.028882
1573538312.769606,-0.131117,0.051694,0.007874,-0.019161,0.048562,-0.073505,-33.302027,21.484836,0.019556,4.704998,-0.344388,-0.025665
1573538312.864266,-0.131262,0.052165,0.007876,-0.019169,0.049004,-0.073875,-32.852490,21.448584,0.019556,4.685394,-0.393913,0.035723
1573538312.958916,-0.131190,0.052535,0.007864,-0.019285,0.049411,-0.073990,-32.410194,21.410297,0.023869,4.693346,-0.408404,0.038794
1573538313.113366,-0.131002,0.052918,0.007852,-0.019237,0.049917,-0.074288,-31.695914,21.343282,0.028159,4.641747,-0.436608,-0.006035
1573538313.208026,-0.130837,0.053307,0.007821,-0.019181,0.050321,-0.074621,-31.262340,21.301307,0.027933,4.635279,-0.453432,-0.007413
1573538313.327596,-0.131020,0.053729,0.007801,-0.018897,0.050687,-0.075132,-30.701337,21.249100,0.024963,4.627835,-0.419572,-0.035366
1573538313.372446,-0.130895,0.054128,0.007737,-0.018777,0.051044,-0.075616,-30.498879,21.230278,0.025257,4.632168,-0.418657,-0.023965
1573538313.462116,-0.130545,0.054445,0.007733,-0.018803,0.051250,-0.075829,-30.096530,21.189870,0.025495,4.621600,-0.480353,0.013461
1573538313.556776,-0.130190,0.054769,0.007707,-0.018802,0.051634,-0.076116,-29.674670,21.142196,0.027325,4.569273,-0.540552,0.015515
1573538313.686306,-0.130097,0.055120,0.007670,-0.018768,0.051856,-0.076166,-29.088367,21.063575,0.030642,4.525571,-0.678877,0.021019
1573538313.810856,-0.130058,0.055533,0.007642,-0.018687,0.052057,-0.076314,-28.524978,20.974717,0.033851,4.526601,-0.723409,0.016160
1573538313.875626,-0.130294,0.056036,0.007596,-0.018632,0.052306,-0.076481,-28.219975,20.926858,0.034256,4.540767,-0.723113,-0.007273
1573538314.005166,-0.130167,0.056509,0.007563,-0.018619,0.052631,-0.076667,-27.636336,20.829211,0.035017,4.513185,-0.762324,0.003275
1573538314.104806,-0.129811,0.056895,0.007556,-0.018735,0.053024,-0.076898,-27.202601,20.748894,0.036739,4.464454,-0.847030,0.027621
1573538314.159606,-0.129143,0.057246,0.007570,-0.018622,0.053262,-0.076953,-26.984583,20.700158,0.039044,4.427626,-0.899126,0.023417
1573538314.284156,-0.128489,0.057499,0.007568,-0.018527,0.053489,-0.077072,-26.461672,20.584579,0.041112,4.382801,-0.995752,0.008562
1573538314.408716,-0.127917,0.057762,0.007568,-0.018608,0.053863,-0.076959,-25.945015,20.452685,0.043527,4.304285,-1.129411,0.013243
1573538314.533266,-0.127183,0.058155,0.007565,-0.018565,0.054090,-0.076890,-25.440265,20.306363,0.042456,4.287442,-1.187993,-0.041533
1573538314.627926,-0.126868,0.058616,0.007527,-0.018609,0.054502,-0.076905,-25.050012,20.187507,0.040391,4.227806,-1.283823,-0.016420
1573538314.662796,-0.126860,0.059180,0.007466,-0.018737,0.054858,-0.076832,-24.901512,20.138859,0.040778,4.215025,-1.323597,-0.005164
1573538314.757456,-0.127014,0.059826,0.007407,-0.018827,0.055369,-0.076906,-24.495302,20.004568,0.041966,4.183947,-1.429435,0.013127
1573538314.901936,-0.127148,0.060403,0.007366,-0.018708,0.055964,-0.077037,-23.888926,19.789635,0.041536,4.119233,-1.531852,-0.010984
1573538314.981646,-0.127394,0.061033,0.007296,-0.018595,0.056398,-0.076996,-23.548609,19.662315,0.042796,4.102081,-1.609554,0.007798
1573538315.076306,-0.127167,0.061435,0.007278,-0.018504,0.056765,-0.076904,-23.172819,19.505430,0.044311,4.059886,-1.688927,-0.013058
1573538315.230756,-0.126801,0.061794,0.007239,-0.018301,0.057119,-0.076933,-22.570355,19.241458,0.039168,3.972763,-1.759035,-0.053952
1573538315.265626,-0.126365,0.062034,0.007262,-0.018311,0.057564,-0.077155,-22.455831,19.183931,0.037278,3.936058,-1.783050,-0.046965
1573538315.360286,-0.126234,0.062451,0.007209,-0.018299,0.058147,-0.077483,-22.092661,19.011297,0.035951,3.887192,-1.905849,-0.011885
1573538315.464926,-0.126373,0.062977,0.007179,-0.018322,0.058867,-0.077779,-21.682628,18.802409,0.034926,3.827388,-2.065598,-0.026249
1573538315.609396,-0.126272,0.063383,0.007129,-0.018290,0.059454,-0.077946,-21.144220,18.494979,0.032126,3.717407,-2.203009,-0.024183
1573538315.674166,-0.126327,0.063884,0.007112,-0.018268,0.059889,-0.077966,-20.903388,18.349192,0.030829,3.665715,-2.289979,-0.005707
1573538315.768826,-0.126130,0.064241,0.007102,-0.018218,0.060172,-0.078075,-20.571945,18.131142,0.029975,3.592863,-2.362172,-0.026514
1573538315.863486,-0.126174,0.064729,0.007102,-0.018045,0.060319,-0.078086,-20.230105,17.907578,0.025139,3.576582,-2.354200,-0.029667
1573538315.958146,-0.126242,0.065255,0.007082,-0.017824,0.060406,-0.078069,-19.892818,17.680593,0.025186,3.469564,-2.417728,0.033505
1573538316.052806,-0.126479,0.065865,0.007011,-0.017410,0.060513,-0.078008,-19.554525,17.443209,0.030002,3.387923,-2.526059,0.050667
1573538316.202276,-0.126166,0.066160,0.006998,-0.017156,0.060628,-0.078262,-19.077760,17.056698,0.033691,3.269467,-2.671925,-0.022267
1573538316.306896,-0.126131,0.066609,0.006991,-0.016896,0.061059,-0.078216,-18.741852,16.774394,0.031727,3.188229,-2.762169,-0.005191
1573538316.401556,-0.125921,0.066985,0.006954,-0.016715,0.061433,-0.078343,-18.458160,16.514440,0.033300,3.101169,-2.786886,-0.007591
1573538316.526116,-0.125963,0.067506,0.006891,-0.016625,0.061735,-0.078301,-18.072976,16.166405,0.036381,3.040413,-2.808016,0.041538
1573538316.560996,-0.126206,0.068145,0.006782,-0.016343,0.061892,-0.078515,-17.952069,16.064297,0.041230,3.031620,-2.839349,0.064437
1573538316.655656,-0.126166,0.068602,0.006773,-0.016136,0.062188,-0.078643,-17.674125,15.792168,0.049754,2.921387,-2.939858,0.095428
1573538316.810116,-0.126085,0.069038,0.006762,-0.015960,0.062437,-0.078757,-17.238379,15.337602,0.060890,2.821022,-2.951501,0.016730
1573538316.874876,-0.126144,0.069549,0.006789,-0.016162,0.062945,-0.078516,-17.054784,15.146990,0.058451,2.805387,-2.946692,-0.038125
1573538316.999436,-0.126045,0.069979,0.006730,-0.016068,0.063276,-0.078400,-16.724678,14.774778,0.057591,2.694767,-3.053402,-0.002264
1573538317.128966,-0.126061,0.070499,0.006711,-0.015816,0.063766,-0.078017,-16.384720,14.370527,0.061309,2.603536,-3.130847,0.037777
1573538317.158856,-0.125937,0.070902,0.006703,-0.015736,0.064385,-0.077761,-16.316792,14.281047,0.063224,2.588657,-3.111242,0.037726
1573538317.253516,-0.125902,0.071368,0.006660,-0.015711,0.064775,-0.077497,-16.079593,13.988675,0.068761,2.555861,-3.059314,0.042937
1573538317.412946,-0.126165,0.072077,0.006630,-0.015876,0.065231,-0.077490,-15.665905,13.494724,0.071495,2.554391,-3.023794,0.003068
1573538317.507606,-0.126105,0.072471,0.006589,-0.015777,0.065393,-0.077743,-15.436095,13.210349,0.073943,2.493152,-3.011648,0.007517
1573538317.602266,-0.126144,0.072975,0.006581,-0.015975,0.065708,-0.077761,-15.204513,12.923799,0.075294,2.416391,-3.031828,0.030298
1573538317.726816,-0.126339,0.073604,0.006557,-0.015917,0.065908,-0.077767,-14.902442,12.535430,0.079701,2.351806,-3.083695,0.043237
1573538317.821486,-0.126357,0.074094,0.006559,-0.015975,0.066002,-0.077869,-14.678117,12.245413,0.080676,2.398014,-3.038111,-0.016235
1573538317.851376,-0.126342,0.074609,0.006506,-0.015749,0.066264,-0.077905,-14.606649,12.154838,0.081544,2.415950,-3.029398,-0.023100
1573538318.010806,-0.126304,0.075189,0.006446,-0.015681,0.066766,-0.077872,-14.221211,11.673812,0.079315,2.375173,-3.027915,-0.004552
1573538318.075566,-0.126278,0.075711,0.006402,-0.015407,0.066861,-0.077944,-14.073669,11.477906,0.081315,2.301877,-3.059969,0.018056
1573538318.200126,-0.126240,0.076271,0.006399,-0.015619,0.067201,-0.077941,-13.793208,11.101592,0.083482,2.267940,-3.044931,0.039442
1573538318.274866,-0.126289,0.076861,0.006377,-0.015425,0.067562,-0.077963,-13.627457,10.875950,0.087217,2.288424,-3.006875,0.035524
1573538318.359556,-0.126268,0.077458,0.006337,-0.015322,0.067998,-0.077687,-13.434296,10.625130,0.090407,2.303350,-2.968339,0.033845
1573538318.454216,-0.126303,0.078019,0.006316,-0.015152,0.068076,-0.077727,-13.218007,10.343143,0.092966,2.267391,-2.969820,0.017367
1573538318.613646,-0.126368,0.078622,0.006344,-0.015497,0.068413,-0.077678,-12.860617,9.864615,0.090505,2.200040,-3.012656,-0.014091
1573538318.673426,-0.126449,0.079198,0.006339,-0.015443,0.068586,-0.077733,-12.724767,9.681098,0.088582,2.214058,-3.000858,-0.011981
1573538318.802966,-0.126566,0.079813,0.006338,-0.015514,0.068934,-0.077573,-12.433052,9.288502,0.087436,2.231390,-2.975257,-0.006357
1573538318.907596,-0.126700,0.080400,0.006330,-0.015327,0.068984,-0.077752,-12.189761,8.972057,0.085480,2.251525,-2.953214,0.001970
1573538318.957406,-0.126346,0.080707,0.006359,-0.015356,0.069138,-0.077828,-12.087070,8.840393,0.084105,2.212909,-2.941101,0.010965
1573538319.067026,-0.126201,0.081135,0.006352,-0.015312,0.069267,-0.077831,-11.847552,8.523683,0.086950,2.170616,-2.943002,0.057406
1573538319.211496,-0.126120,0.081614,0.006364,-0.015327,0.069494,-0.077569,-11.542812,8.102608,0.093422,2.122342,-2.934912,0.025278
1573538319.276266,-0.126031,0.082045,0.006329,-0.015161,0.069476,-0.077341,-11.409445,7.917410,0.094603,2.108535,-2.918521,0.008769
1573538319.390856,-0.126148,0.082627,0.006290,-0.015007,0.069686,-0.077060,-11.162961,7.580623,0.094603,2.177709,-2.886093,-0.016717
1573538319.525366,-0.126311,0.083235,0.006252,-0.014987,0.069790,-0.076817,-10.862336,7.190063,0.090133,2.253860,-2.830812,-0.041132
1573538319.620026,-0.126411,0.083825,0.006220,-0.015139,0.070197,-0.076519,-10.654951,6.922141,0.088211,2.209523,-2.828978,-0.009263
1573538319.654896,-0.126463,0.084364,0.006210,-0.015515,0.070519,-0.076283,-10.582330,6.824378,0.087968,2.181642,-2.833235,-0.001160
1573538319.754546,-0.126652,0.084957,0.006212,-0.015897,0.070809,-0.075957,-10.367284,6.535021,0.089872,2.138901,-2.874540,0.042043
1573538319.874106,-0.126817,0.085527,0.006183,-0.015890,0.071118,-0.075802,-10.111165,6.186953,0.097331,2.095365,-2.842184,0.068562
1573538319.968766,-0.127012,0.086086,0.006141,-0.015603,0.071209,-0.075806,-9.906576,5.910891,0.103563,2.129946,-2.806992,0.040207
1573538320.063426,-0.127158,0.086633,0.006096,-0.015570,0.071382,-0.075834,-9.700201,5.641293,0.106632,2.176421,-2.778701,0.010312
1573538320.158096,-0.127370,0.087188,0.006047,-0.015520,0.071483,-0.075976,-9.487234,5.369156,0.105371,2.216998,-2.778038,-0.047338
1573538320.252756,-0.127651,0.087825,0.006004,-0.015771,0.071833,-0.075754,-9.273180,5.093110,0.101710,2.188646,-2.818738,-0.025196
1573538320.412186,-0.127844,0.088406,0.005963,-0.015778,0.072099,-0.075749,-8.917903,4.637848,0.100552,2.205861,-2.773652,0.011755
1573538320.506846,-0.127946,0.088990,0.005930,-0.015862,0.072587,-0.075566,-8.707098,4.374216,0.103754,2.198649,-2.723052,0.059816
1573538320.631406,-0.128192,0.089611,0.005888,-0.015867,0.072845,-0.075231,-8.420663,4.025026,0.113060,2.202654,-2.714815,0.087887
1573538320.726066,-0.128306,0.090124,0.005851,-0.015655,0.072833,-0.074987,-8.206782,3.762217,0.121311,2.209477,-2.686691,0.059938
1573538320.820716,-0.128311,0.090605,0.005823,-0.015431,0.072943,-0.074347,-7.996563,3.509756,0.127659,2.218836,-2.634487,0.054409
1573538320.915376,-0.128297,0.091072,0.005810,-0.015474,0.073117,-0.073781,-7.785802,3.265054,0.129594,2.263320,-2.565546,-0.014354
1573538321.010036,-0.128144,0.091482,0.005833,-0.015625,0.073263,-0.073069,-7.578136,3.035864,0.125871,2.315406,-2.488858,-0.026113
1573538321.104696,-0.128129,0.091991,0.005843,-0.015516,0.073256,-0.072450,-7.359792,2.803442,0.123589,2.364056,-2.467802,-0.015795
1573538321.234226,-0.128202,0.092539,0.005834,-0.015309,0.073218,-0.072113,-7.044052,2.487199,0.119967,2.439852,-2.382806,-0.000406
1573538321.294006,-0.128362,0.093130,0.005811,-0.015216,0.073355,-0.071764,-6.892187,2.337301,0.121706,2.437978,-2.356840,0.044175
1573538321.358776,-0.128488,0.093694,0.005802,-0.015455,0.073639,-0.071387,-6.730749,2.180489,0.124829,2.407878,-2.316329,0.071900
1573538321.453436,-0.128641,0.094265,0.005785,-0.015586,0.073932,-0.070850,-6.499194,1.957239,0.132326,2.415033,-2.247874,0.075350
1573538321.577986,-0.128701,0.094753,0.005785,-0.015637,0.074027,-0.070633,-6.187346,1.682505,0.139580,2.527593,-2.103506,0.047530
1573538321.707516,-0.128723,0.095231,0.005771,-0.015751,0.074196,-0.070061,-5.855585,1.417156,0.143371,2.618848,-1.962249,-0.005100
1573538321.802176,-0.128663,0.095663,0.005786,-0.015932,0.074332,-0.069706,-5.605745,1.242809,0.140285,2.707825,-1.807530,-0.026290
1573538321.926726,-0.128879,0.096218,0.005754,-0.016189,0.074492,-0.069368,-5.259437,1.013133,0.136953,2.722108,-1.687425,-0.030778
1573538321.956616,-0.129032,0.096766,0.005757,-0.016164,0.074417,-0.069341,-5.165684,0.952267,0.134820,2.726621,-1.694832,-0.028593
1573538322.081166,-0.129178,0.097307,0.005719,-0.016248,0.074308,-0.069183,-4.814096,0.731856,0.132130,2.784466,-1.689292,-0.017534
1573538322.210696,-0.129174,0.097785,0.005706,-0.016167,0.074321,-0.069214,-4.446555,0.517256,0.130339,2.813979,-1.675459,0.022435
1573538322.275456,-0.129207,0.098291,0.005666,-0.016220,0.074395,-0.068821,-4.263185,0.409924,0.132349,2.858433,-1.568056,0.013033
1573538322.400006,-0.129215,0.098778,0.005710,-0.016232,0.074361,-0.068672,-3.904021,0.221312,0.132734,2.879953,-1.455915,0.030891
1573538322.514606,-0.129271,0.099291,0.005691,-0.016329,0.074483,-0.068501,-3.567669,0.057235,0.134218,2.919426,-1.340069,-0.003178
1573538322.559436,-0.129270,0.099770,0.005694,-0.016360,0.074592,-0.068562,-3.434724,-0.000096,0.132814,2.940703,-1.302804,-0.000579
1573538322.654096,-0.129291,0.100290,0.005652,-0.016514,0.074801,-0.068455,-3.153001,-0.121395,0.133720,2.971987,-1.228270,0.006049
1573538322.748756,-0.129238,0.100736,0.005662,-0.016458,0.074852,-0.068656,-2.875478,-0.227260,0.132103,2.978681,-1.149796,-0.014853
1573538322.908176,-0.129228,0.101255,0.005620,-0.016602,0.075000,-0.068488,-2.402050,-0.402028,0.131771,2.988257,-1.060476,-0.000442
1573538323.002836,-0.129189,0.101730,0.005614,-0.016563,0.075051,-0.068227,-2.125335,-0.496586,0.129546,2.980531,-1.020489,-0.032823
1573538323.127386,-0.129210,0.102233,0.005591,-0.016690,0.075284,-0.068051,-1.751314,-0.614491,0.126010,3.013253,-0.879824,-0.007593
1573538323.157276,-0.129306,0.102729,0.005577,-0.016672,0.075408,-0.068012,-1.654917,-0.641588,0.125528,3.039289,-0.859258,0.006818
1573538323.251936,-0.129324,0.103207,0.005565,-0.016749,0.075558,-0.068005,-1.368617,-0.716466,0.126758,3.063865,-0.760582,0.017047
1573538323.381456,-0.129320,0.103708,0.005540,-0.016914,0.075853,-0.067978,-0.972180,-0.803529,0.127365,3.077401,-0.608970,-0.003538
1573538323.506006,-0.129336,0.104231,0.005510,-0.017179,0.076210,-0.067817,-0.592869,-0.876180,0.129363,3.001544,-0.577013,0.027517
1573538323.600666,-0.129323,0.104753,0.005511,-0.017438,0.076491,-0.067545,-0.310255,-0.927398,0.130288,3.003560,-0.498210,0.002384
1573538323.725216,-0.129341,0.105257,0.005485,-0.017709,0.076722,-0.067259,0.064819,-0.980269,0.128780,3.054027,-0.365693,-0.022311
1573538323.819876,-0.129357,0.105770,0.005469,-0.017914,0.076983,-0.066964,0.356925,-1.013541,0.126189,3.139667,-0.339568,-0.022558
1573538323.854746,-0.129405,0.106269,0.005452,-0.018046,0.077216,-0.066662,0.467608,-1.024268,0.124686,3.171264,-0.302121,-0.027011
1573538324.009196,-0.129476,0.106735,0.005427,-0.018120,0.077505,-0.066429,0.961339,-1.056248,0.122459,3.242379,-0.165352,0.010005
1573538324.073956,-0.129529,0.107210,0.005416,-0.018176,0.077770,-0.066193,1.168673,-1.061520,0.122929,3.248710,-0.086618,0.026145
1573538324.198496,-0.129612,0.107663,0.005408,-0.018274,0.078006,-0.065989,1.570789,-1.057107,0.125240,3.264707,0.080357,0.020391
1573538324.263256,-0.129710,0.108100,0.005410,-0.018348,0.078189,-0.065897,1.777724,-1.044386,0.124232,3.266574,0.150469,-0.002613
1573538324.357916,-0.129824,0.108541,0.005373,-0.018201,0.078196,-0.066061,2.087480,-1.025018,0.124541,3.332466,0.170706,0.005931
1573538324.452566,-0.129871,0.108997,0.005351,-0.018164,0.078310,-0.066187,2.404208,-1.001956,0.124053,3.444456,0.266136,-0.009783
1573538324.547226,-0.129934,0.109484,0.005332,-0.018144,0.078379,-0.066450,2.729844,-0.971956,0.122765,3.481069,0.314390,-0.013893
1573538324.676746,-0.129990,0.109986,0.005308,-0.018113,0.078542,-0.066584,3.180886,-0.919227,0.120550,3.515835,0.502972,-0.019816
1573538324.801296,-0.130060,0.110489,0.005288,-0.018172,0.078741,-0.066834,3.621380,-0.842193,0.118772,3.590605,0.704912,-0.017763
