1573539302.971493,0.030188,-0.009150,0.015478,-0.016307,0.065712,-0.053748,1.909427,0.067965,-0.020151,1.511340,0.128227,-0.020682
1573539303.041253,0.067648,0.016429,0.014957,-0.016752,0.065523,-0.054632,2.011625,0.077495,-0.031487,1.571888,0.136040,-0.028172
1573539303.081093,0.109643,0.044471,0.014475,-0.018008,0.065222,-0.054562,2.074531,0.083036,-0.044119,1.605840,0.136307,-0.031205
1573539303.190673,0.161826,0.093583,0.013886,-0.017239,0.064471,-0.054578,2.254567,0.097490,-0.059368,1.701157,0.154038,-0.039870
1573539303.315213,0.174345,0.137057,0.012701,-0.016573,0.064223,-0.056542,2.476740,0.120011,-0.066450,1.825327,0.170765,-0.045954
1573539303.444723,0.171798,0.169079,0.011781,-0.016372,0.063927,-0.056421,2.722380,0.141694,-0.071893,1.936679,0.177773,-0.041619
1573539303.569263,0.095978,0.156841,0.010361,-0.016316,0.064029,-0.058329,2.972418,0.168539,-0.052438,2.005253,0.210777,-0.032073
1573539303.728673,0.111751,0.129910,0.011728,-0.016948,0.064505,-0.058964,3.300495,0.199697,-0.067272,2.086324,0.229726,-0.044121
1573539303.843253,0.057499,0.071717,0.012655,-0.017135,0.064398,-0.058436,3.537891,0.228159,-0.049542,2.151774,0.229142,-0.022556
1573539303.982723,-0.012407,-0.023301,0.015860,-0.017255,0.064308,-0.059527,3.835569,0.265878,-0.022786,2.214571,0.277833,-0.008760
1573539304.107263,-0.073270,-0.098483,0.019481,-0.018958,0.063575,-0.059783,4.102145,0.303788,0.001052,2.267225,0.296957,0.006050
1573539304.326443,-0.097006,-0.177206,0.024078,-0.020889,0.063608,-0.060979,4.598599,0.363853,0.013640,2.398990,0.251767,0.016192
1573539304.391203,-0.024286,-0.168600,0.023337,-0.018023,0.062220,-0.060829,4.754890,0.373948,-0.014075,2.443255,0.244172,0.002904
1573539304.515743,0.004869,-0.101940,0.019652,-0.017438,0.061350,-0.062323,5.075419,0.402245,-0.030277,2.528143,0.244546,-0.010108
1573539304.645253,-0.006692,-0.019031,0.015317,-0.016913,0.060651,-0.063581,5.416080,0.435805,-0.028784,2.612586,0.236065,-0.004246
1573539304.799683,-0.019751,0.058626,0.011186,-0.015273,0.060594,-0.064283,5.844874,0.470645,-0.024260,2.728737,0.232949,-0.012569
1573539304.929193,-0.018295,0.129688,0.007611,-0.014410,0.060496,-0.065332,6.215488,0.494161,-0.027795,2.812597,0.194700,-0.011315
1573539305.053723,-0.011178,0.181342,0.005159,-0.013253,0.059816,-0.066618,6.583778,0.513240,-0.033379,2.889451,0.154625,-0.007267
1573539305.183233,-0.010269,0.228010,0.003011,-0.012604,0.059748,-0.068095,6.967300,0.531175,-0.035859,2.908230,0.106173,-0.006501
1573539305.307773,-0.014630,0.260592,0.001506,-0.012176,0.059818,-0.070214,7.331148,0.543423,-0.036256,2.887246,0.054138,-0.010745
1573539305.467173,-0.013750,0.278705,0.000616,-0.012047,0.060492,-0.071656,7.788570,0.549956,-0.037077,2.847064,0.017598,-0.000104
1573539305.591713,-0.016075,0.292290,-0.000054,-0.011678,0.061138,-0.072708,8.145037,0.551098,-0.034517,2.834423,-0.017927,0.010644
1573539305.716243,-0.023293,0.294447,-0.000107,-0.010758,0.061194,-0.074156,8.498025,0.548050,-0.030962,2.804430,-0.060338,0.011966
1573539305.845753,-0.040003,0.280499,0.000665,-0.010793,0.061134,-0.075614,8.855967,0.540261,-0.025699,2.792431,-0.099552,0.016570
1573539306.000173,-0.067776,0.273414,0.000991,-0.010945,0.060463,-0.076818,9.293327,0.528252,-0.014177,2.834288,-0.138850,0.030096
1573539306.129683,-0.088755,0.264576,0.001405,-0.009876,0.059997,-0.078090,9.663046,0.513553,-0.003779,2.845310,-0.165556,0.024855
1573539306.254223,-0.108693,0.266640,0.001152,-0.009890,0.060173,-0.079110,10.021625,0.497698,0.007370,2.855444,-0.182321,0.027644
1573539306.378753,-0.125695,0.266761,0.001101,-0.009838,0.060460,-0.080532,10.388277,0.478057,0.017521,2.935445,-0.218231,0.037928
1573539306.508273,-0.143492,0.255824,0.001702,-0.010638,0.060840,-0.082404,10.776602,0.453403,0.027123,3.020608,-0.232422,0.051167
1573539306.717483,-0.159796,0.247664,0.002200,-0.011324,0.061647,-0.083486,11.422303,0.403614,0.040396,3.180959,-0.269915,0.045053
1573539306.792203,-0.188023,0.235090,0.002921,-0.012706,0.061764,-0.084708,11.660461,0.383012,0.050759,3.235686,-0.292731,0.054201
1573539306.916733,-0.201789,0.221884,0.003636,-0.014155,0.062439,-0.085397,12.075617,0.346959,0.059614,3.352863,-0.325195,0.067218
1573539307.076143,-0.217817,0.216493,0.003930,-0.015241,0.062456,-0.085698,12.626920,0.295389,0.074256,3.505621,-0.343756,0.063279
1573539307.170783,-0.229917,0.212256,0.004266,-0.016104,0.062598,-0.086127,12.967871,0.263357,0.082460,3.604177,-0.361422,0.068552
1573539307.330183,-0.227312,0.183506,0.005748,-0.017076,0.062847,-0.086250,13.556433,0.207846,0.084521,3.773022,-0.387144,0.055759
1573539307.454713,-0.221525,0.177441,0.006164,-0.017341,0.063278,-0.086127,14.036421,0.160218,0.085791,3.894261,-0.407306,0.047714
1573539307.579243,-0.215715,0.169587,0.006532,-0.018041,0.063256,-0.086775,14.532146,0.111645,0.086762,4.021648,-0.422303,0.044747
1573539307.708753,-0.193380,0.165157,0.006601,-0.017968,0.062886,-0.087253,15.066350,0.061698,0.082017,4.141849,-0.444204,0.040119
1573539307.863173,-0.173079,0.153456,0.007131,-0.018205,0.062481,-0.088319,15.715011,-0.004048,0.076625,4.266413,-0.489061,0.037829
1573539307.992693,-0.158611,0.137622,0.007867,-0.018174,0.062029,-0.089551,16.274366,-0.062377,0.071108,4.359490,-0.491582,0.029169
1573539308.117223,-0.155176,0.110530,0.009014,-0.018493,0.061388,-0.090826,16.820707,-0.121417,0.069048,4.438042,-0.516816,0.022443
1573539308.241763,-0.143560,0.085389,0.010088,-0.018240,0.060541,-0.091847,17.374555,-0.181775,0.062050,4.518022,-0.538889,0.021077
1573539308.371283,-0.130923,0.069735,0.010819,-0.018729,0.060483,-0.093205,17.959747,-0.247770,0.054117,4.584816,-0.550622,0.022049
1573539308.530693,-0.124860,0.053514,0.011514,-0.018668,0.059544,-0.094705,18.693069,-0.333544,0.050584,4.674335,-0.560053,0.004381
1573539308.655233,-0.120740,0.035831,0.012347,-0.019175,0.058673,-0.096463,19.269802,-0.400725,0.044993,4.731195,-0.568724,0.001529
1573539308.779763,-0.116264,0.020132,0.013105,-0.019288,0.057615,-0.098567,19.863430,-0.469700,0.038217,4.792453,-0.578700,-0.010713
1573539308.909273,-0.113452,0.012844,0.013519,-0.019550,0.057873,-0.100038,20.483579,-0.542882,0.032647,4.835617,-0.581951,-0.006032
1573539309.063713,-0.113378,0.017494,0.013366,-0.019096,0.058358,-0.100964,21.234292,-0.634098,0.032557,4.861276,-0.592767,0.004336
1573539309.193213,-0.106666,0.027222,0.012977,-0.018050,0.058604,-0.101231,21.857269,-0.707231,0.030777,4.893459,-0.569303,0.004464
1573539309.317743,-0.097537,0.039198,0.012446,-0.016415,0.058694,-0.101083,22.463076,-0.774442,0.029564,4.928981,-0.564771,0.005606
1573539309.442273,-0.092069,0.050530,0.011858,-0.015064,0.058743,-0.101274,23.075163,-0.841252,0.029694,4.971868,-0.564076,-0.007645
1573539309.571783,-0.085818,0.059563,0.011478,-0.014506,0.058490,-0.101574,23.721254,-0.911917,0.026509,5.010437,-0.559636,-0.006823
1573539309.726213,-0.079216,0.066436,0.011217,-0.014218,0.057969,-0.102049,24.502005,-0.996122,0.023136,5.071543,-0.557321,0.002145
1573539309.855733,-0.068054,0.075702,0.010892,-0.012879,0.057619,-0.102705,25.151661,-1.060303,0.017719,5.084092,-0.543382,0.000182
1573539309.980263,-0.061789,0.091556,0.010112,-0.010512,0.056737,-0.103695,25.779302,-1.121848,0.018473,5.107226,-0.514640,-0.013417
1573539310.109783,-0.069030,0.091856,0.010239,-0.009971,0.056417,-0.104476,26.449726,-1.192965,0.020202,5.144002,-0.521262,-0.006205
1573539310.264213,-0.071199,0.090937,0.010358,-0.010029,0.056564,-0.105655,27.251933,-1.274484,0.018482,5.190697,-0.521572,-0.006252
1573539310.393733,-0.072332,0.094654,0.010226,-0.010412,0.056663,-0.106541,27.923097,-1.342714,0.018819,5.209468,-0.515280,0.001762
1573539310.518273,-0.073662,0.086105,0.010828,-0.011807,0.056110,-0.107871,28.577465,-1.410014,0.012970,5.250141,-0.512086,-0.014575
1573539310.642803,-0.085990,0.067998,0.011779,-0.013992,0.056000,-0.108687,29.257817,-1.489529,0.010871,5.301963,-0.545075,-0.012068
1573539310.772323,-0.085773,0.074393,0.011428,-0.014325,0.056684,-0.108459,29.942839,-1.558043,0.011960,5.326801,-0.529594,-0.006583
1573539310.926753,-0.091798,0.075434,0.011484,-0.014902,0.057005,-0.108701,30.772045,-1.647510,0.014482,5.370026,-0.526271,0.001029
1573539311.051283,-0.097200,0.076157,0.011523,-0.015114,0.057053,-0.109078,31.449016,-1.721350,0.016066,5.401270,-0.534376,-0.013908
1573539311.180813,-0.101745,0.082420,0.011277,-0.014600,0.057144,-0.109304,32.142045,-1.795279,0.019210,5.425973,-0.543318,-0.003960
1573539311.305343,-0.101892,0.093434,0.010839,-0.013822,0.056941,-0.109675,32.796749,-1.860444,0.022466,5.441260,-0.533399,-0.000193
1573539311.464743,-0.102605,0.097569,0.010747,-0.013470,0.056691,-0.109334,33.654732,-1.946528,0.023403,5.474573,-0.527372,-0.001618
1573539311.589283,-0.101362,0.103294,0.010527,-0.012461,0.056553,-0.109583,34.325116,-2.007989,0.023883,5.488621,-0.514186,-0.005883
1573539311.718803,-0.097161,0.108214,0.010301,-0.011952,0.055831,-0.110413,35.029783,-2.066475,0.022136,5.513822,-0.501697,-0.002120
1573539311.843343,-0.091446,0.112459,0.010126,-0.010781,0.055290,-0.112098,35.703978,-2.116168,0.021028,5.524633,-0.483611,0.008667
1573539311.972853,-0.087133,0.115417,0.009984,-0.010083,0.054918,-0.113987,36.412330,-2.168395,0.021976,5.539091,-0.465615,0.009181
1573539312.077473,-0.083385,0.117312,0.009943,-0.009324,0.054688,-0.115949,36.985089,-2.207152,0.020223,5.570593,-0.448393,-0.010294
1573539312.256803,-0.080557,0.119277,0.009898,-0.008489,0.054083,-0.117854,37.977845,-2.276095,0.017973,5.591810,-0.401890,0.009502
1573539312.381323,-0.077845,0.121907,0.009845,-0.007547,0.054265,-0.120095,38.660615,-2.315359,0.018264,5.610882,-0.362651,0.006980
1573539312.505853,-0.075942,0.123377,0.009878,-0.006814,0.054631,-0.122304,39.346913,-2.352027,0.017503,5.616074,-0.334912,0.000874
1573539312.695143,-0.074080,0.124549,0.009901,-0.007592,0.055268,-0.124044,40.402355,-2.406472,0.014238,5.646843,-0.286139,-0.003556
1573539312.789783,-0.072032,0.127594,0.009845,-0.008028,0.056189,-0.125706,40.920484,-2.426182,0.011918,5.649406,-0.223197,-0.014939
1573539312.854543,-0.070387,0.127891,0.009910,-0.008323,0.056199,-0.127599,41.274904,-2.435182,0.009177,5.634452,-0.188867,-0.001844
1573539313.043833,-0.069280,0.126961,0.010040,-0.007891,0.056110,-0.129352,42.327337,-2.453966,0.005650,5.651277,-0.072142,-0.031822
1573539313.168373,-0.068169,0.126776,0.010118,-0.007861,0.056129,-0.130923,43.019697,-2.453636,-0.001072,5.667448,-0.010663,-0.043037
1573539313.277973,-0.066966,0.126533,0.010197,-0.008052,0.055880,-0.133266,43.628740,-2.446078,-0.007769,5.666304,0.080696,-0.040962
1573539313.392533,-0.066606,0.125447,0.010326,-0.008008,0.055960,-0.135259,44.263281,-2.428896,-0.011937,5.678688,0.144587,-0.015466
1573539313.581823,-0.065760,0.124772,0.010411,-0.008127,0.056439,-0.137113,45.325534,-2.385180,-0.020410,5.678926,0.311995,-0.069732
1573539313.706353,-0.064911,0.123737,0.010547,-0.008706,0.057337,-0.137510,46.021578,-2.340543,-0.031462,5.692128,0.416409,-0.064044
1573539313.880703,-0.062356,0.123453,0.010586,-0.009583,0.057652,-0.137964,47.012276,-2.261511,-0.044476,5.724623,0.536453,-0.064544
1573539313.990283,-0.059908,0.121919,0.010663,-0.010410,0.058164,-0.138496,47.633851,-2.200899,-0.055141,5.707039,0.641332,-0.074963
1573539314.055043,-0.055986,0.116198,0.010923,-0.011556,0.058639,-0.138397,48.014744,-2.164502,-0.065348,5.697776,0.703276,-0.064086
1573539314.309093,-0.050607,0.111339,0.011116,-0.013099,0.058921,-0.138250,49.471204,-1.958069,-0.084253,5.667796,0.968165,-0.050257
1573539314.368873,-0.045049,0.107791,0.011232,-0.014353,0.059153,-0.137951,49.826185,-1.905166,-0.093438,5.682751,1.018368,-0.071476
1573539314.528273,-0.040984,0.103908,0.011391,-0.015385,0.059186,-0.137900,50.742581,-1.733301,-0.109751,5.720562,1.203255,-0.063722
1573539314.593033,-0.031165,0.100869,0.011432,-0.017026,0.059866,-0.136088,51.145666,-1.663315,-0.121858,5.751060,1.259168,-0.067224
1573539314.782323,-0.029580,0.100723,0.011454,-0.017222,0.058459,-0.136507,52.247265,-1.410067,-0.137012,5.718740,1.444882,-0.063370
1573539314.906863,-0.021869,0.102352,0.011373,-0.018171,0.057944,-0.135390,52.981743,-1.228756,-0.151439,5.701780,1.589800,-0.068049
1573539315.131023,-0.015150,0.107079,0.011193,-0.018834,0.057464,-0.134085,54.270221,-0.844974,-0.176893,5.651276,1.871239,-0.105894
1573539315.190803,-0.006799,0.110033,0.011048,-0.019696,0.057582,-0.132172,54.625806,-0.738124,-0.189116,5.648388,1.947411,-0.105956
1573539315.255563,-0.007639,0.115341,0.010875,-0.019728,0.056848,-0.131489,54.977911,-0.608726,-0.194456,5.619499,2.033778,-0.099441
1573539315.444853,-0.010554,0.114856,0.010863,-0.019774,0.056724,-0.130379,56.026559,-0.198621,-0.209613,5.515352,2.287373,-0.093137
1573539315.569383,-0.015254,0.112536,0.010753,-0.019757,0.056819,-0.129559,56.691979,0.095932,-0.212103,5.415161,2.427556,-0.066175
1573539315.728793,-0.026460,0.104970,0.010789,-0.018753,0.056289,-0.129508,57.513020,0.505633,-0.207895,5.312828,2.671965,-0.070727
1573539315.853323,-0.041618,0.093703,0.010920,-0.017791,0.055714,-0.129541,58.125438,0.858344,-0.199101,5.181247,2.879902,-0.072530
1573539315.918083,-0.056213,0.083131,0.011000,-0.016911,0.055179,-0.129559,58.427585,1.055649,-0.185993,5.098282,3.000785,-0.053435
1573539316.107373,-0.069436,0.072748,0.011084,-0.016742,0.054649,-0.129850,59.351024,1.651737,-0.173453,4.945121,3.237291,-0.000796
1573539316.301653,-0.084144,0.063785,0.011153,-0.016272,0.054001,-0.130040,60.266814,2.315300,-0.156952,4.717382,3.518759,-0.010642
1573539316.391313,-0.095071,0.057140,0.011219,-0.015846,0.053191,-0.129949,60.673150,2.647121,-0.146536,4.629572,3.695273,-0.024242
1573539316.515843,-0.104006,0.050767,0.011324,-0.015492,0.052176,-0.130045,61.243486,3.127226,-0.140894,4.509852,3.866332,-0.025107
1573539316.690203,-0.105679,0.044983,0.011463,-0.015459,0.051397,-0.130213,62.006802,3.817653,-0.136459,4.334350,4.037291,0.037394
1573539316.769903,-0.104271,0.041473,0.011594,-0.015260,0.050835,-0.130385,62.350988,4.144754,-0.133678,4.232388,4.136338,0.044207
1573539316.899413,-0.104445,0.039225,0.011697,-0.014835,0.050523,-0.130542,62.887584,4.694087,-0.130373,4.049820,4.309499,0.007435
1573539317.053833,-0.107885,0.035315,0.011920,-0.014727,0.050058,-0.130711,63.539132,5.388066,-0.131100,3.962609,4.494623,0.016502
1573539317.133543,-0.105862,0.033274,0.012146,-0.015094,0.049950,-0.130134,63.850312,5.745696,-0.133217,3.904596,4.583624,0.027823
1573539317.307883,-0.106131,0.030179,0.012395,-0.015547,0.049425,-0.129947,64.507700,6.557435,-0.131206,3.725023,4.774400,0.011323
1573539317.527063,-0.110489,0.025673,0.012584,-0.015807,0.049090,-0.129263,65.291810,7.625033,-0.128540,3.544835,4.969667,-0.009486
1573539317.591823,-0.116971,0.023126,0.012668,-0.016016,0.048681,-0.128740,65.516606,7.955288,-0.125009,3.511625,5.031495,-0.006902
1573539317.716363,-0.120442,0.021575,0.012685,-0.016216,0.048026,-0.128246,65.951850,8.594074,-0.124227,3.469960,5.143792,-0.023268
1573539317.845873,-0.127853,0.020159,0.012735,-0.016431,0.047516,-0.127598,66.397437,9.278499,-0.123637,3.418309,5.253530,-0.022854
1573539317.970413,-0.138815,0.020830,0.012765,-0.016229,0.046696,-0.127437,66.830100,9.960782,-0.123089,3.355448,5.359608,-0.023432
1573539318.129803,-0.143525,0.026360,0.012674,-0.016331,0.046587,-0.126713,67.367735,10.832663,-0.127998,3.291522,5.456261,-0.033701
1573539318.254343,-0.146760,0.031133,0.012614,-0.016304,0.046205,-0.126105,67.780113,11.523885,-0.134139,3.266049,5.541590,-0.044277
1573539318.319093,-0.148944,0.033941,0.012639,-0.016236,0.045855,-0.125586,67.989980,11.886911,-0.139458,3.246374,5.596100,-0.055844
1573539318.508383,-0.150543,0.032705,0.012715,-0.015962,0.045660,-0.125221,68.603949,12.962505,-0.148536,3.261786,5.698007,-0.038901
1573539318.667783,-0.149003,0.034481,0.012727,-0.015968,0.045375,-0.124916,69.127024,13.869226,-0.155590,3.309669,5.720385,-0.025887
1573539318.792313,-0.147115,0.037083,0.012743,-0.016206,0.044525,-0.124925,69.536926,14.578100,-0.163676,3.324642,5.771643,-0.040632
1573539318.877003,-0.148688,0.038397,0.012787,-0.015951,0.044025,-0.124865,69.821515,15.075109,-0.169000,3.326781,5.814479,-0.041823
1573539319.046363,-0.149925,0.039347,0.012851,-0.015691,0.043398,-0.125482,70.384869,16.069444,-0.175690,3.323024,5.870723,-0.025320
1573539319.170893,-0.153235,0.040065,0.012907,-0.015398,0.043243,-0.126186,70.804814,16.818254,-0.180809,3.330220,5.929537,-0.040137
1573539319.330293,-0.151870,0.042273,0.012937,-0.015601,0.043119,-0.126031,71.336609,17.762368,-0.190780,3.349841,5.983202,-0.036808
1573539319.390063,-0.151755,0.043501,0.013004,-0.015781,0.043364,-0.125989,71.536721,18.118565,-0.195717,3.356762,6.005865,-0.043444
1573539319.544483,-0.151898,0.044604,0.013127,-0.016394,0.043764,-0.125743,72.054622,19.046372,-0.207550,3.354674,6.031066,-0.068464
1573539319.708863,-0.150933,0.046819,0.013187,-0.017154,0.044140,-0.125386,72.605676,20.031422,-0.224780,3.344956,6.006630,-0.068412
1573539319.833393,-0.150165,0.049860,0.013228,-0.018107,0.044648,-0.124569,73.026511,20.774354,-0.236720,3.346211,5.990713,-0.051522
1573539319.928033,-0.151209,0.048671,0.013308,-0.018427,0.045261,-0.123594,73.341844,21.344082,-0.242435,3.327980,5.985880,-0.066599
1573539320.117323,-0.152357,0.047145,0.013442,-0.018366,0.045148,-0.122848,73.970544,22.485895,-0.259085,3.312583,6.021606,-0.081730
1573539320.246833,-0.150973,0.049303,0.013430,-0.018892,0.045769,-0.121723,74.408828,23.263233,-0.271715,3.342191,6.017483,-0.067657
1573539320.371373,-0.148596,0.050589,0.013380,-0.019604,0.045793,-0.121398,74.821533,23.997592,-0.279952,3.333387,6.036120,-0.058075
1573539320.495893,-0.147318,0.052648,0.013325,-0.020451,0.045905,-0.121142,75.241919,24.747467,-0.287699,3.354003,6.101888,-0.061355
1573539320.655293,-0.145464,0.054717,0.013337,-0.021573,0.045794,-0.121509,75.782782,25.707929,-0.301735,3.394293,6.127386,-0.075482
1573539320.725033,-0.144539,0.056129,0.013278,-0.022209,0.045795,-0.121763,76.018843,26.126525,-0.306984,3.414802,6.144012,-0.076693
1573539320.909323,-0.143185,0.056662,0.013249,-0.022235,0.045682,-0.121336,76.650616,27.257435,-0.320069,3.457417,6.231462,-0.068952
1573539321.033853,-0.143734,0.055078,0.013276,-0.022109,0.045566,-0.121713,77.076018,28.035576,-0.326935,3.471483,6.292633,-0.077989
1573539321.193243,-0.144686,0.054031,0.013263,-0.022072,0.045287,-0.122222,77.632060,29.052007,-0.338204,3.538259,6.391604,-0.088620
1573539321.317763,-0.145188,0.054795,0.013192,-0.021620,0.045038,-0.122389,78.078377,29.860696,-0.347048,3.588856,6.466169,-0.073303
1573539321.442293,-0.144907,0.056072,0.013134,-0.022337,0.044883,-0.121716,78.534273,30.672194,-0.356028,3.625715,6.534848,-0.062666
1573539321.571803,-0.144934,0.055694,0.013185,-0.022805,0.043606,-0.122346,78.999336,31.516095,-0.364313,3.650487,6.600791,-0.055806
1573539321.731203,-0.145789,0.054997,0.013275,-0.023044,0.042471,-0.123153,79.581905,32.577670,-0.375721,3.715855,6.704975,-0.060089
1573539321.790983,-0.146853,0.054802,0.013302,-0.022747,0.042138,-0.124368,79.803116,32.988177,-0.379689,3.730685,6.750118,-0.060561
1573539321.980263,-0.147469,0.054792,0.013279,-0.022072,0.042201,-0.125072,80.510699,34.283130,-0.389236,3.781053,6.869729,-0.053254
1573539322.109773,-0.147179,0.055019,0.013169,-0.021533,0.042837,-0.124526,80.997349,35.174433,-0.393233,3.809163,6.926311,-0.047858
1573539322.234303,-0.147717,0.055030,0.013160,-0.020942,0.042975,-0.124751,81.472901,36.049986,-0.398935,3.843223,7.008438,-0.048473
1573539322.393703,-0.147572,0.055065,0.013135,-0.021021,0.043595,-0.124079,82.089330,37.172918,-0.404578,3.882176,7.089596,-0.035006
1573539322.513263,-0.147834,0.055080,0.013081,-0.020564,0.043510,-0.123732,82.556231,38.032208,-0.407101,3.910450,7.165650,-0.033964
1573539322.587983,-0.147918,0.054140,0.013120,-0.019908,0.043283,-0.123712,82.841109,38.570282,-0.409023,3.923075,7.214498,-0.035907
1573539322.772273,-0.148201,0.053405,0.013169,-0.018569,0.043158,-0.123927,83.559601,39.915723,-0.414975,3.966632,7.312080,-0.025396
1573539322.926693,-0.148031,0.052086,0.013269,-0.017604,0.042446,-0.124246,84.162096,41.048961,-0.420526,3.988065,7.387972,-0.034400
1573539322.991443,-0.148064,0.051027,0.013330,-0.016592,0.041982,-0.124306,84.412448,41.531690,-0.423218,3.991755,7.427744,-0.037507
1573539323.115973,-0.148508,0.050842,0.013321,-0.016145,0.041937,-0.123870,84.912551,42.468727,-0.426194,4.023122,7.483600,-0.018594
1573539323.310243,-0.148696,0.050343,0.013323,-0.015300,0.041625,-0.123586,85.694539,43.940306,-0.429517,4.044029,7.589569,-0.018096
1573539323.434773,-0.148889,0.050285,0.013350,-0.014254,0.041231,-0.123459,86.198845,44.898538,-0.432179,4.073195,7.664177,-0.029019
1573539323.594173,-0.149450,0.051116,0.013379,-0.013900,0.040424,-0.123222,86.861758,46.140497,-0.439176,4.099389,7.748862,-0.035967
1573539323.653943,-0.149746,0.051782,0.013318,-0.013187,0.039599,-0.124117,87.114594,46.617251,-0.440708,4.108772,7.786895,-0.042209
1573539323.783463,-0.149650,0.051917,0.013329,-0.012644,0.039137,-0.124807,87.648140,47.630695,-0.446157,4.101861,7.818208,-0.041672
1573539323.972743,-0.149372,0.051861,0.013358,-0.012054,0.039012,-0.125049,88.425579,49.114192,-0.455269,4.111398,7.878410,-0.048944
1573539324.127173,-0.149445,0.051626,0.013458,-0.012563,0.039336,-0.125089,89.063983,50.329750,-0.464162,4.136100,7.913960,-0.039778
1573539324.191923,-0.149396,0.051190,0.013553,-0.012731,0.039459,-0.125351,89.332162,50.838411,-0.468333,4.135463,7.911967,-0.039572
1573539324.316453,-0.149191,0.050783,0.013601,-0.012779,0.040599,-0.125632,89.846382,51.819965,-0.473468,4.126795,7.937392,-0.040147
1573539324.505743,-0.149418,0.050465,0.013727,-0.013488,0.040946,-0.125842,90.640987,53.321942,-0.485029,4.159310,7.972661,-0.040610
1573539324.635253,-0.148865,0.049590,0.013815,-0.013325,0.041340,-0.126355,91.173336,54.343436,-0.492766,4.143104,7.997021,-0.054834
1573539324.794643,-0.147886,0.048523,0.013818,-0.012775,0.041369,-0.126399,91.819994,55.601002,-0.500765,4.138051,8.005087,-0.063510
1573539324.919163,-0.147498,0.047895,0.013813,-0.012522,0.041929,-0.125816,92.330459,56.591321,-0.507549,4.104119,8.030495,-0.068176
1573539324.983923,-0.146689,0.046827,0.013774,-0.012103,0.042422,-0.125624,92.583292,57.096738,-0.508666,4.096216,8.030259,-0.063870
1573539325.173203,-0.146359,0.045978,0.013741,-0.012588,0.042631,-0.125629,93.360748,58.603544,-0.517730,4.118941,8.037529,-0.049576
1573539325.297723,-0.145629,0.044629,0.013700,-0.012479,0.043146,-0.125065,93.862199,59.586038,-0.520378,4.095764,8.052843,-0.050355
1573539325.447173,-0.145834,0.044157,0.013671,-0.013181,0.043610,-0.124905,94.481902,60.784658,-0.525464,4.110760,8.063721,-0.037353
1573539325.556753,-0.144376,0.041935,0.013685,-0.012978,0.044197,-0.125349,94.909924,61.632974,-0.525801,4.100271,8.053062,-0.027944
1573539325.706173,-0.145416,0.042164,0.013638,-0.014139,0.044573,-0.124946,95.542813,62.847641,-0.529992,4.116732,8.082313,-0.037038
1573539325.895443,-0.145741,0.041797,0.013603,-0.015022,0.044979,-0.124501,96.333011,64.372048,-0.535062,4.129690,8.113008,-0.040961
1573539325.990083,-0.145014,0.040592,0.013598,-0.015257,0.045460,-0.124216,96.712877,65.117262,-0.537292,4.117155,8.108996,-0.061307
1573539326.119593,-0.144847,0.040199,0.013652,-0.015281,0.045900,-0.124385,97.246380,66.160076,-0.545483,4.119001,8.106740,-0.052430
1573539326.184343,-0.144296,0.039324,0.013675,-0.015507,0.046503,-0.124853,97.503378,66.666944,-0.548409,4.114652,8.091652,-0.046724
1573539326.373623,-0.143439,0.038419,0.013690,-0.015211,0.046937,-0.125540,98.264415,68.178136,-0.557732,4.095360,8.086823,-0.052733
1573539326.498153,-0.143558,0.038586,0.013630,-0.014984,0.047358,-0.125931,98.776855,69.190013,-0.561168,4.091366,8.094464,-0.028977
1573539326.692423,-0.143847,0.038802,0.013515,-0.015162,0.047637,-0.126104,99.574883,70.771693,-0.565906,4.095119,8.123544,-0.050342
1573539326.782073,-0.143348,0.038281,0.013436,-0.014950,0.047563,-0.126320,99.929280,71.489113,-0.566582,4.089955,8.120449,-0.034271
1573539326.846833,-0.143903,0.039056,0.013498,-0.015020,0.047263,-0.126089,100.209645,72.028757,-0.572235,4.100681,8.130684,-0.031518
1573539327.036113,-0.143606,0.038407,0.013348,-0.015016,0.046762,-0.126179,100.973116,73.559165,-0.574548,4.077756,8.131719,-0.049471
1573539327.165633,-0.142881,0.037784,0.013250,-0.014339,0.046382,-0.126433,101.481309,74.603557,-0.577352,4.064191,8.148996,-0.049441
1573539327.260273,-0.143360,0.038342,0.013270,-0.014532,0.046335,-0.126637,101.877355,75.386900,-0.583315,4.067476,8.155307,-0.045035
1573539327.384813,-0.143293,0.038386,0.013298,-0.014349,0.046371,-0.126409,102.379029,76.402054,-0.590515,4.043348,8.146557,-0.049596
1573539327.574093,-0.143416,0.038520,0.013275,-0.014386,0.046311,-0.126533,103.151534,77.945520,-0.598400,4.068770,8.152428,-0.046383
1573539327.698623,-0.144472,0.039615,0.013256,-0.014969,0.046917,-0.127184,103.686857,78.987956,-0.605830,4.102442,8.180347,-0.048242
1573539327.858033,-0.145374,0.040329,0.013241,-0.016190,0.047964,-0.128355,104.371160,80.304360,-0.612948,4.120246,8.174083,-0.030000
1573539327.922783,-0.143398,0.037199,0.013202,-0.017081,0.048191,-0.128677,104.595747,80.756042,-0.607971,4.081733,8.103866,-0.028479
1573539328.047313,-0.143591,0.037569,0.013186,-0.016817,0.048377,-0.128246,105.106693,81.775576,-0.611625,4.103285,8.111179,-0.031357
1573539328.236593,-0.143779,0.037837,0.013189,-0.017000,0.049432,-0.128213,105.890050,83.315900,-0.618205,4.112874,8.142750,-0.039707
1573539328.361123,-0.143804,0.038037,0.013208,-0.016923,0.050214,-0.127838,106.400853,84.330803,-0.624800,4.113336,8.138583,-0.054841
1573539328.520523,-0.144081,0.038281,0.013114,-0.016954,0.050850,-0.127616,107.061697,85.634741,-0.631826,4.127316,8.144906,-0.072674
1573539328.640083,-0.144441,0.038737,0.013098,-0.017113,0.051276,-0.127614,107.563781,86.618557,-0.639705,4.129189,8.144277,-0.061186
1573539328.774573,-0.144382,0.038720,0.013118,-0.017030,0.051692,-0.127692,108.116998,87.711986,-0.648762,4.130043,8.148680,-0.062680
1573539328.899103,-0.143972,0.038253,0.013166,-0.017184,0.051853,-0.128096,108.624099,88.710792,-0.656251,4.151884,8.141821,-0.048418
1573539329.058513,-0.144312,0.038422,0.013222,-0.018025,0.051514,-0.128494,109.299162,90.013818,-0.665685,4.169806,8.169317,-0.042795
1573539329.183043,-0.145008,0.039051,0.013204,-0.018261,0.051300,-0.129323,109.836313,91.053245,-0.672047,4.197734,8.197909,-0.050585
1573539329.247793,-0.145696,0.039495,0.013105,-0.018717,0.050610,-0.130575,110.128808,91.604130,-0.673063,4.229591,8.224269,-0.045563
1573539329.437083,-0.145313,0.038906,0.013060,-0.018911,0.050456,-0.131883,110.923837,93.147671,-0.679754,4.244383,8.242231,-0.053646
1573539329.561613,-0.144646,0.038119,0.013044,-0.018568,0.050094,-0.132641,111.440788,94.152834,-0.684984,4.266720,8.242408,-0.060122
1573539329.656263,-0.144643,0.038185,0.013076,-0.018299,0.050298,-0.133201,111.844379,94.933598,-0.691643,4.293109,8.246998,-0.056631
1573539329.785773,-0.144545,0.038115,0.013138,-0.018291,0.050488,-0.133594,112.399260,95.996888,-0.700551,4.309569,8.247344,-0.057757
1573539329.975063,-0.144398,0.037951,0.013151,-0.018348,0.050179,-0.133684,113.219713,97.554681,-0.713364,4.363113,8.266509,-0.062228
1573539330.099593,-0.144137,0.037902,0.013175,-0.017984,0.050142,-0.133632,113.761619,98.581996,-0.721001,4.380123,8.275217,-0.049940
1573539330.258993,-0.144469,0.038605,0.013165,-0.017504,0.050095,-0.133735,114.475523,99.922558,-0.729149,4.410765,8.283585,-0.038346
1573539330.323753,-0.143963,0.038176,0.013172,-0.017074,0.050453,-0.133984,114.752125,100.442336,-0.731105,4.423749,8.279892,-0.034205
1573539330.518033,-0.144040,0.038281,0.013154,-0.017133,0.050668,-0.133800,115.621861,102.055828,-0.737523,4.481992,8.318339,-0.034015
1573539330.697353,-0.144063,0.038216,0.013167,-0.017106,0.050634,-0.133713,116.419913,103.536796,-0.745130,4.508533,8.334787,-0.065191
1573539330.762113,-0.143472,0.037575,0.013104,-0.016773,0.050471,-0.134428,116.701705,104.067616,-0.746718,4.506942,8.335308,-0.076958
1573539330.921513,-0.142806,0.037012,0.013060,-0.015964,0.050606,-0.135133,117.402437,105.378633,-0.754886,4.528000,8.322784,-0.066926
1573539330.986273,-0.142578,0.036710,0.013069,-0.015815,0.050781,-0.134696,117.689076,105.906413,-0.759247,4.528386,8.298052,-0.060673
1573539331.175563,-0.142343,0.036424,0.012975,-0.015636,0.051040,-0.134743,118.541085,107.469346,-0.765527,4.566401,8.305815,-0.052582
1573539331.300093,-0.142313,0.036592,0.012799,-0.015082,0.050569,-0.135026,119.115255,108.519013,-0.764939,4.600552,8.340311,-0.030785
1573539331.424633,-0.142088,0.036802,0.012726,-0.014194,0.050912,-0.135542,119.683980,109.567637,-0.766370,4.631760,8.357951,-0.028418
1573539331.519273,-0.142216,0.037210,0.012728,-0.014063,0.051224,-0.135513,120.121212,110.372660,-0.769612,4.626469,8.362303,-0.023252
1573539331.648793,-0.142307,0.038078,0.012671,-0.013115,0.051684,-0.136280,120.715190,111.491879,-0.773378,4.614085,8.420991,-0.044482
1573539331.838083,-0.142182,0.038210,0.012610,-0.012764,0.051881,-0.136930,121.585307,113.098098,-0.781012,4.661335,8.460155,-0.042328
1573539331.962623,-0.142128,0.038178,0.012557,-0.012847,0.052225,-0.137222,122.160398,114.151329,-0.784476,4.653004,8.460153,-0.042760
1573539332.171843,-0.142456,0.038870,0.012521,-0.012618,0.052183,-0.137874,123.140481,115.953493,-0.796071,4.657953,8.512818,-0.043285
1573539332.246553,-0.142871,0.039383,0.012484,-0.012894,0.052049,-0.138332,123.501398,116.612819,-0.799325,4.675793,8.538668,-0.028188
1573539332.356143,-0.143072,0.039628,0.012483,-0.013062,0.052022,-0.138708,124.021510,117.559011,-0.802902,4.668042,8.573100,-0.025902
1573539332.505583,-0.143311,0.039906,0.012488,-0.013253,0.051872,-0.139074,124.729111,118.854116,-0.808775,4.679829,8.618084,-0.033424
1573539332.625123,-0.143958,0.040448,0.012464,-0.013976,0.051474,-0.139137,125.315542,119.912691,-0.814015,4.699277,8.676512,-0.033218
1573539332.784513,-0.143438,0.040177,0.012453,-0.013432,0.051702,-0.139493,126.043647,121.285586,-0.819647,4.698701,8.689926,-0.049996
1573539332.909043,-0.143225,0.039761,0.012358,-0.013577,0.051328,-0.139367,126.620403,122.358682,-0.820922,4.666582,8.709076,-0.049820
1573539333.038553,-0.143096,0.039537,0.012333,-0.013659,0.051198,-0.139555,127.217661,123.481246,-0.826182,4.670663,8.718516,-0.051232
1573539333.163083,-0.143514,0.040076,0.012350,-0.013812,0.051145,-0.139757,127.814065,124.590870,-0.833415,4.672733,8.774555,-0.041788
1573539333.322483,-0.143880,0.040816,0.012304,-0.013500,0.050709,-0.139806,128.572650,126.027769,-0.840016,4.678705,8.821533,-0.030412
1573539333.447023,-0.144460,0.041688,0.012299,-0.013490,0.050636,-0.139682,129.178985,127.166200,-0.846168,4.695864,8.882558,-0.031026
1573539333.556613,-0.145527,0.042861,0.012268,-0.013997,0.050569,-0.139535,129.737036,128.191945,-0.851757,4.736970,8.956375,-0.039211
1573539333.701063,-0.145619,0.043047,0.012265,-0.013881,0.050273,-0.139844,130.427394,129.497014,-0.856837,4.760613,8.980853,-0.023942
1573539333.825593,-0.145786,0.043256,0.012268,-0.013746,0.049810,-0.140140,131.027788,130.627133,-0.859645,4.769987,9.007288,-0.020302
1573539333.984983,-0.145756,0.042990,0.012267,-0.013921,0.049676,-0.140504,131.785782,132.053129,-0.863205,4.762556,9.050205,-0.037566
1573539334.109513,-0.144635,0.041272,0.012283,-0.014087,0.049669,-0.140867,132.336422,133.105965,-0.863848,4.739117,9.025239,-0.039749
1573539334.239023,-0.145597,0.042058,0.012358,-0.015122,0.049330,-0.140519,132.990022,134.312549,-0.873624,4.770179,9.067655,-0.046569
1573539334.363563,-0.145725,0.041789,0.012457,-0.015969,0.049135,-0.140697,133.589466,135.428185,-0.881783,4.769359,9.062526,-0.047152
1573539334.522953,-0.145467,0.041395,0.012537,-0.016176,0.049264,-0.140429,134.340262,136.850490,-0.888521,4.764488,9.031065,-0.023888
1573539334.647483,-0.145667,0.041743,0.012570,-0.016063,0.049290,-0.140648,134.941984,137.988421,-0.893836,4.764704,9.040783,-0.028046
1573539334.772013,-0.146460,0.042773,0.012665,-0.016176,0.048578,-0.141005,135.572900,139.165916,-0.903548,4.783512,9.077614,-0.025853
1573539334.901523,-0.146375,0.042507,0.012697,-0.016524,0.048626,-0.141213,136.188121,140.325692,-0.908090,4.760832,9.068039,-0.047789
1573539335.026053,-0.145671,0.041271,0.012707,-0.017354,0.048862,-0.142218,136.754511,141.395307,-0.912892,4.759172,9.028755,-0.072378
1573539335.185453,-0.144494,0.039836,0.012741,-0.017299,0.048989,-0.143035,137.468127,142.762713,-0.923061,4.697639,8.953359,-0.078139
1573539335.250213,-0.142669,0.037510,0.012722,-0.017234,0.049635,-0.143908,137.700801,143.233858,-0.921236,4.635457,8.850591,-0.074085
1573539335.439503,-0.139980,0.033924,0.012662,-0.017266,0.049744,-0.145369,138.467997,144.759631,-0.923616,4.538977,8.723678,-0.052231
1573539335.564043,-0.139655,0.033835,0.012620,-0.016562,0.049723,-0.146098,139.022316,145.853932,-0.928014,4.522281,8.734684,-0.035317
1573539335.723443,-0.140750,0.035675,0.012646,-0.016051,0.049144,-0.145930,139.796584,147.348416,-0.941971,4.528657,8.810495,-0.063581
1573539335.847983,-0.140791,0.035762,0.012594,-0.015657,0.049296,-0.144965,140.360365,148.450077,-0.948099,4.542021,8.811500,-0.062866
1573539335.967533,-0.139417,0.034152,0.012550,-0.014854,0.049809,-0.144998,140.840921,149.421444,-0.948927,4.499830,8.732813,-0.060437
1573539336.102033,-0.140066,0.034804,0.012467,-0.014987,0.049762,-0.144134,141.460011,150.633595,-0.955813,4.457602,8.756398,-0.052364
1573539336.226563,-0.141621,0.036618,0.012434,-0.015057,0.049289,-0.143788,142.077264,151.812148,-0.969200,4.536487,8.810381,-0.085184
1573539336.385963,-0.142504,0.037516,0.012404,-0.015492,0.049379,-0.143684,142.829934,153.255513,-0.979376,4.507544,8.846093,-0.047972
1573539336.510493,-0.143804,0.039092,0.012325,-0.015945,0.049057,-0.144041,143.453194,154.432048,-0.987122,4.547483,8.848400,-0.069305
1573539336.635023,-0.144235,0.039463,0.012193,-0.016839,0.048886,-0.144944,144.046617,155.554542,-0.989592,4.579314,8.901250,-0.054086
1573539336.764533,-0.143655,0.038544,0.012174,-0.017360,0.048814,-0.146302,144.611783,156.655623,-0.992991,4.564323,8.855681,-0.047646
1573539336.923933,-0.143820,0.038704,0.012201,-0.017672,0.048898,-0.146013,145.347265,158.068820,-1.000967,4.542042,8.815659,-0.041855
1573539336.983713,-0.141962,0.036214,0.012179,-0.017607,0.049114,-0.146543,145.535091,158.464837,-0.995107,4.476143,8.708285,-0.027521
1573539337.172993,-0.143127,0.037617,0.012193,-0.017898,0.048877,-0.146018,146.439087,160.193325,-1.006816,4.534705,8.793475,-0.056329
1573539337.302503,-0.142344,0.036727,0.012263,-0.017596,0.048481,-0.146322,146.993732,161.288719,-1.014536,4.497617,8.752739,-0.047869
1573539337.427033,-0.140048,0.034156,0.012218,-0.016530,0.048863,-0.147198,147.443272,162.235095,-1.010524,4.393217,8.616010,-0.048571
1573539337.586433,-0.140808,0.035198,0.012210,-0.016414,0.048884,-0.147065,148.175446,163.664256,-1.021176,4.386188,8.642151,-0.031172
1573539337.710963,-0.140572,0.035011,0.012243,-0.016322,0.048919,-0.147709,148.713218,164.730728,-1.025968,4.427375,8.637946,-0.030009
1573539337.775713,-0.140309,0.034831,0.012288,-0.016231,0.049181,-0.148542,148.985388,165.275097,-1.028916,4.400116,8.608850,-0.030456
1573539337.965003,-0.140013,0.034703,0.012386,-0.015823,0.048997,-0.149006,149.803170,166.898305,-1.036285,4.329847,8.609012,-0.025238
1573539338.089533,-0.139303,0.034315,0.012487,-0.014818,0.049431,-0.149839,150.312586,167.937451,-1.042096,4.332739,8.545004,-0.020014
1573539338.248923,-0.139037,0.034181,0.012610,-0.014807,0.049475,-0.150170,150.997349,169.297610,-1.049464,4.308501,8.561388,-0.027793
1573539338.373463,-0.139764,0.035216,0.012690,-0.014763,0.049771,-0.150165,151.565771,170.417933,-1.060696,4.312889,8.603302,-0.053800
1573539338.502973,-0.140528,0.036254,0.012612,-0.014865,0.050669,-0.150293,152.155394,171.578695,-1.067466,4.325372,8.627672,-0.063392
1573539338.662373,-0.140324,0.036073,0.012610,-0.014808,0.051082,-0.150868,152.831925,172.936022,-1.078862,4.293575,8.586292,-0.071153
1573539338.786893,-0.139242,0.034776,0.012557,-0.014772,0.051929,-0.151714,153.309507,173.918354,-1.080478,4.257993,8.504204,-0.053609
1573539338.911433,-0.138903,0.034371,0.012603,-0.014908,0.052113,-0.152237,153.821525,174.953128,-1.087681,4.219324,8.470285,-0.049792
1573539338.976183,-0.138553,0.033982,0.012615,-0.014741,0.052129,-0.152912,154.076870,175.486350,-1.091190,4.198813,8.464908,-0.053180
1573539339.165463,-0.138264,0.033613,0.012640,-0.014615,0.051549,-0.153677,154.860150,177.084197,-1.101119,4.186323,8.453554,-0.041956
1573539339.289993,-0.137628,0.032695,0.012622,-0.014683,0.051809,-0.154092,155.343312,178.090109,-1.103857,4.137063,8.414164,-0.046162
1573539339.449393,-0.137033,0.032016,0.012641,-0.014265,0.051527,-0.155529,155.968991,179.397592,-1.110152,4.098312,8.374515,-0.041231
1573539339.573923,-0.137797,0.033260,0.012562,-0.013765,0.051104,-0.156775,156.522136,180.527314,-1.115879,4.123961,8.438936,-0.044255
1573539339.698453,-0.138725,0.034742,0.012522,-0.013393,0.050498,-0.157535,157.090130,181.681548,-1.125136,4.159819,8.513746,-0.052452
1573539339.827963,-0.139182,0.035391,0.012466,-0.013452,0.050938,-0.158133,157.644948,182.812273,-1.130132,4.145772,8.514008,-0.036770
1573539339.982373,-0.138298,0.034107,0.012506,-0.013410,0.051045,-0.159084,158.228535,184.044292,-1.135110,4.104451,8.437842,-0.049885
1573539340.111873,-0.138442,0.034450,0.012517,-0.012944,0.050729,-0.159759,158.767161,185.167991,-1.142339,4.098588,8.459615,-0.038872
1573539340.236403,-0.138479,0.034775,0.012522,-0.011818,0.050581,-0.160679,159.274942,186.235548,-1.146045,4.073708,8.448687,-0.020106
1573539340.365923,-0.138883,0.035441,0.012503,-0.011513,0.051143,-0.160568,159.816922,187.364808,-1.149979,4.075939,8.480642,-0.038845
1573539340.490453,-0.139803,0.036855,0.012521,-0.011191,0.050901,-0.160536,160.381898,188.521934,-1.160153,4.118192,8.553425,-0.035005
1573539340.649853,-0.140013,0.037160,0.012535,-0.010911,0.051057,-0.159785,161.044208,189.904423,-1.166108,4.101851,8.549591,-0.033231
1573539340.774393,-0.140312,0.037606,0.012509,-0.010614,0.051320,-0.159165,161.561614,190.993071,-1.171826,4.073719,8.561601,-0.054141
1573539340.898923,-0.140827,0.038324,0.012502,-0.010379,0.050867,-0.158962,162.095669,192.113262,-1.179873,4.100385,8.593419,-0.043017
1573539341.028433,-0.140629,0.038012,0.012483,-0.010160,0.050930,-0.158911,162.606457,193.201680,-1.182978,4.078338,8.572755,-0.044502
1573539341.182853,-0.139842,0.036992,0.012504,-0.009787,0.051334,-0.158577,163.182071,194.450175,-1.188566,4.023165,8.513045,-0.052676
1573539341.312363,-0.140581,0.038070,0.012506,-0.009721,0.051027,-0.158307,163.749664,195.637166,-1.198022,4.045882,8.554596,-0.046470
1573539341.436903,-0.140826,0.038488,0.012521,-0.009085,0.051064,-0.158269,164.255972,196.724617,-1.205147,4.022155,8.562593,-0.053337
1573539341.561433,-0.141836,0.039857,0.012533,-0.008972,0.050666,-0.158000,164.818583,197.895840,-1.216783,4.070586,8.636989,-0.048005
1573539341.690943,-0.143001,0.041356,0.012556,-0.008674,0.050568,-0.157882,165.401355,199.115265,-1.227164,4.087114,8.703449,-0.039072
1573539341.850343,-0.144105,0.042892,0.012601,-0.009237,0.050813,-0.157502,166.136175,200.618040,-1.241857,4.138638,8.787366,-0.058438
1573539341.974883,-0.143798,0.041998,0.012656,-0.010020,0.050910,-0.157849,166.622997,201.643583,-1.248705,4.128876,8.727702,-0.053490
1573539342.099413,-0.143479,0.041091,0.012722,-0.010997,0.050919,-0.158300,167.110778,202.664167,-1.257382,4.106615,8.676825,-0.077610
1573539342.228923,-0.143247,0.040561,0.012787,-0.011992,0.051486,-0.158914,167.628746,203.731948,-1.269804,4.079587,8.629413,-0.089253
1573539342.383353,-0.143754,0.041240,0.012764,-0.012085,0.051859,-0.159526,168.281085,205.096175,-1.282729,4.100202,8.621471,-0.077435
1573539342.512863,-0.144154,0.041902,0.012718,-0.011917,0.051913,-0.160172,168.834968,206.248797,-1.292456,4.116655,8.631587,-0.076422
1573539342.637403,-0.143453,0.040722,0.012654,-0.012031,0.052598,-0.160208,169.279889,207.203668,-1.291857,4.066106,8.523803,-0.036697
1573539342.761933,-0.143804,0.041487,0.012609,-0.011529,0.052778,-0.160938,169.814295,208.320236,-1.296470,4.076626,8.561214,-0.039790
1573539342.891443,-0.143822,0.041421,0.012580,-0.011735,0.052749,-0.161365,170.341046,209.413571,-1.300416,4.069032,8.551612,-0.051056
1573539343.045863,-0.143133,0.040249,0.012551,-0.012031,0.052363,-0.162028,170.922969,210.644884,-1.302633,4.044600,8.482199,-0.039071
1573539343.175373,-0.142479,0.039149,0.012543,-0.012389,0.052370,-0.161931,171.400491,211.653369,-1.304469,3.993649,8.398047,-0.051548
1573539343.299903,-0.142816,0.039410,0.012509,-0.012497,0.051945,-0.161868,171.916028,212.723971,-1.311294,4.018789,8.402840,-0.062375
1573539343.429413,-0.142601,0.039085,0.012463,-0.012197,0.051876,-0.161750,172.416862,213.783501,-1.315145,3.995827,8.375200,-0.055389
1573539343.583833,-0.142934,0.039472,0.012387,-0.012104,0.051578,-0.161823,173.052457,215.111105,-1.321592,4.004570,8.380955,-0.053050
1573539343.713353,-0.143414,0.040306,0.012389,-0.011567,0.051449,-0.162009,173.601284,216.250077,-1.329535,4.013885,8.405076,-0.035797
1573539343.837883,-0.144656,0.042059,0.012356,-0.011673,0.051364,-0.161493,174.189851,217.424018,-1.338392,4.072149,8.488159,-0.045493
1573539343.962423,-0.144571,0.041467,0.012355,-0.012300,0.051495,-0.162025,174.673616,218.418089,-1.341627,4.077259,8.434259,-0.040861
1573539344.091933,-0.144443,0.040794,0.012301,-0.012808,0.051893,-0.162474,175.164056,219.424927,-1.339973,4.037538,8.358361,-0.022890
1573539344.246353,-0.143679,0.038795,0.012238,-0.013083,0.052260,-0.162814,175.679354,220.524273,-1.332566,3.918049,8.214549,-0.032751
1573539344.375863,-0.143731,0.037526,0.012107,-0.013740,0.052638,-0.162690,176.120752,221.446685,-1.324444,3.897585,8.086366,-0.018499
1573539344.500393,-0.143863,0.037018,0.011986,-0.013772,0.053205,-0.162858,176.564506,222.370638,-1.316509,3.870852,8.012625,0.000024
1573539344.624923,-0.144096,0.036730,0.011891,-0.013905,0.053724,-0.163280,177.014698,223.304673,-1.309337,3.796613,7.960789,-0.008662
1573539344.784323,-0.144255,0.036416,0.011826,-0.014232,0.054036,-0.163263,177.595258,224.508862,-1.307197,3.796993,7.896780,-0.024501
1573539344.908853,-0.143932,0.035673,0.011804,-0.014365,0.054376,-0.163073,178.028294,225.405744,-1.304256,3.785723,7.815668,-0.007054
1573539345.038363,-0.143424,0.034980,0.011823,-0.014399,0.054404,-0.162883,178.484821,226.344718,-1.302030,3.747357,7.732098,0.009699
1573539345.162893,-0.143116,0.034476,0.011861,-0.014578,0.054215,-0.162626,178.928620,227.256196,-1.301404,3.693075,7.669996,0.002935
1573539345.292403,-0.142769,0.034041,0.011944,-0.015013,0.054141,-0.162117,179.396174,228.214371,-1.303662,3.710401,7.633234,0.009613
1573539345.446833,-0.142125,0.033231,0.011995,-0.015025,0.053839,-0.162750,179.938648,229.334775,-1.302941,3.693499,7.584739,0.011364
1573539345.576333,-0.142036,0.033383,0.012009,-0.014819,0.054336,-0.163195,180.414592,230.316378,-1.302489,3.680411,7.576867,0.004169
1573539345.700863,-0.141450,0.032738,0.012034,-0.014898,0.054878,-0.163405,180.844212,231.210294,-1.303219,3.643016,7.524069,-0.015488
1573539345.825383,-0.141662,0.032773,0.012006,-0.015528,0.055168,-0.163972,181.301660,232.146215,-1.304894,3.649505,7.511909,-0.021002
1573539345.954893,-0.140414,0.031349,0.012052,-0.015490,0.055064,-0.165067,181.708250,233.010022,-1.306279,3.598943,7.419044,-0.024048
1573539346.109313,-0.140150,0.031054,0.012020,-0.015159,0.055204,-0.165635,182.242987,234.132416,-1.306962,3.571202,7.367131,-0.013601
1573539346.238813,-0.140420,0.031469,0.011981,-0.014793,0.055103,-0.166022,182.720025,235.125749,-1.306876,3.553562,7.373300,-0.001649
1573539346.363343,-0.140551,0.031736,0.011951,-0.014444,0.054996,-0.166467,183.167457,236.062587,-1.306398,3.556496,7.380232,-0.001358
1573539346.487873,-0.140829,0.032170,0.011923,-0.014313,0.055297,-0.167097,183.619273,237.004327,-1.305723,3.561024,7.392424,0.004547
1573539346.647263,-0.140815,0.032125,0.011878,-0.014390,0.055585,-0.167701,184.175694,238.166832,-1.301007,3.555832,7.360356,0.020086
1573539346.776773,-0.140630,0.031982,0.011873,-0.014179,0.055859,-0.168449,184.608184,239.086507,-1.296530,3.497466,7.316013,0.022769
1573539346.901303,-0.139717,0.031097,0.011846,-0.013672,0.056004,-0.169070,184.985383,239.906424,-1.289597,3.436699,7.234638,0.023661
1573539347.025833,-0.139097,0.030566,0.011894,-0.013755,0.056042,-0.170177,185.381921,240.755431,-1.286738,3.408026,7.178767,0.029636
1573539347.155343,-0.139771,0.031326,0.011868,-0.013965,0.056282,-0.171026,185.851159,241.735823,-1.283203,3.424031,7.200129,0.036958
1573539347.254973,-0.140080,0.031798,0.011846,-0.013773,0.056334,-0.172530,186.200212,242.483535,-1.279827,3.409038,7.209762,0.036744
1573539347.374513,-0.140190,0.031938,0.011805,-0.013850,0.056473,-0.173297,186.605538,243.349077,-1.272864,3.392168,7.185397,0.050878
1573539347.563803,-0.140025,0.031775,0.011819,-0.013809,0.056553,-0.174027,187.228172,244.686546,-1.263342,3.343967,7.136398,0.047811
1573539347.693313,-0.139912,0.031699,0.011812,-0.013485,0.056414,-0.174360,187.650232,245.603305,-1.255888,3.325980,7.117275,0.056667
1573539347.847733,-0.139635,0.031420,0.011838,-0.013281,0.056354,-0.174492,188.147201,246.680279,-1.248071,3.298313,7.091894,0.049744
1573539347.977233,-0.139913,0.031634,0.011842,-0.013403,0.056040,-0.174409,188.586606,247.626698,-1.243432,3.267529,7.099602,0.043606
1573539348.101763,-0.139744,0.031473,0.011911,-0.013362,0.055838,-0.174736,188.986862,248.500820,-1.239870,3.242822,7.060143,0.052232
1573539348.226283,-0.139961,0.031620,0.011968,-0.013645,0.055665,-0.175013,189.399797,249.392282,-1.236682,3.240106,7.041878,0.044271
1573539348.355793,-0.139703,0.031261,0.012044,-0.014134,0.055533,-0.175563,189.808169,250.274975,-1.234776,3.208313,7.022960,0.024058
1573539348.510213,-0.138716,0.030042,0.012104,-0.014709,0.055012,-0.175988,190.258709,251.273336,-1.231218,3.157073,6.959705,0.021178
1573539348.639723,-0.139387,0.030695,0.012057,-0.014958,0.055116,-0.176010,190.689835,252.214944,-1.227874,3.156229,6.957735,0.025321
1573539348.764243,-0.140132,0.031431,0.012027,-0.015275,0.054760,-0.176166,191.112514,253.135385,-1.225242,3.169196,6.963729,0.025582
1573539348.893753,-0.140422,0.031729,0.011988,-0.015127,0.054672,-0.176256,191.523499,254.043970,-1.220029,3.138726,6.957479,0.021561
1573539349.048163,-0.140855,0.032127,0.011946,-0.015296,0.054557,-0.176394,192.018183,255.135170,-1.216866,3.134984,6.964523,0.013572
1573539349.177673,-0.141843,0.033173,0.011912,-0.015511,0.054367,-0.176962,192.467702,256.109433,-1.214540,3.155881,6.997745,0.026023
1573539349.302203,-0.141783,0.032759,0.011996,-0.015938,0.054267,-0.177120,192.841916,256.940196,-1.212979,3.125512,6.931717,0.043318
1573539349.426743,-0.141209,0.031842,0.012094,-0.016291,0.054418,-0.177504,193.184877,257.718978,-1.211040,3.049288,6.857446,0.028401
1573539349.556243,-0.140526,0.030815,0.012151,-0.016619,0.054448,-0.177901,193.532060,258.514007,-1.207915,3.025811,6.779586,0.021244
1573539349.710653,-0.140294,0.030270,0.012143,-0.017046,0.054785,-0.178411,193.970163,259.503343,-1.200739,2.998170,6.709029,0.046796
1573539349.840163,-0.140007,0.029651,0.012132,-0.017448,0.054728,-0.178550,194.327325,260.312110,-1.191852,2.934459,6.649028,0.047841
1573539349.964693,-0.139342,0.028680,0.012159,-0.017612,0.054659,-0.178870,194.649898,261.057576,-1.185664,2.899132,6.567570,0.027686
1573539350.089223,-0.138332,0.027422,0.012196,-0.017750,0.054526,-0.179499,194.953735,261.780253,-1.181434,2.847303,6.487524,0.030802
1573539350.248613,-0.138590,0.027612,0.012146,-0.017587,0.054747,-0.179657,195.403190,262.821356,-1.172285,2.829836,6.466222,0.046214
1573539350.378123,-0.139611,0.028729,0.012025,-0.017608,0.054913,-0.179129,195.801187,263.730681,-1.163598,2.821254,6.475732,0.049272
1573539350.502643,-0.139768,0.028713,0.012025,-0.017969,0.054934,-0.178501,196.147229,264.523725,-1.157748,2.800559,6.443087,0.055975
1573539350.632163,-0.139890,0.028764,0.012011,-0.018386,0.054699,-0.178034,196.513739,265.357887,-1.149016,2.771270,6.435299,0.056884
1573539350.756683,-0.139413,0.028032,0.012039,-0.018598,0.054632,-0.177922,196.827284,266.100963,-1.142537,2.758147,6.376806,0.045426
1573539350.911093,-0.139389,0.027925,0.012043,-0.018640,0.054287,-0.177856,197.250051,267.077344,-1.135384,2.745767,6.346927,0.061372
1573539351.040603,-0.138461,0.026727,0.012131,-0.018691,0.053963,-0.178125,197.557070,267.815225,-1.127665,2.665037,6.259772,0.072003
1573539351.165133,-0.138125,0.026273,0.012161,-0.018731,0.053864,-0.178134,197.870779,268.563279,-1.119331,2.641758,6.197171,0.063788
1573539351.289653,-0.138414,0.026715,0.012135,-0.018600,0.054102,-0.178271,198.214977,269.368245,-1.112055,2.649129,6.213164,0.047774
1573539351.449053,-0.138587,0.026915,0.012134,-0.018393,0.054264,-0.178808,198.640789,270.373691,-1.104871,2.635127,6.231340,0.042426
1573539351.573573,-0.138796,0.027170,0.012116,-0.018317,0.054526,-0.179613,198.970997,271.161892,-1.098871,2.618766,6.203820,0.052589
1573539351.703083,-0.138663,0.026971,0.012141,-0.018178,0.054716,-0.180324,199.295058,271.947568,-1.093280,2.592530,6.152966,0.050464
1573539351.832603,-0.138714,0.027013,0.012136,-0.018045,0.055005,-0.180815,199.622187,272.741175,-1.088150,2.552434,6.133546,0.037294
1573539351.957123,-0.138308,0.026443,0.012178,-0.017848,0.054947,-0.181734,199.909389,273.461838,-1.085034,2.507228,6.083317,0.038063
1573539352.111553,-0.138176,0.026171,0.012191,-0.017596,0.054762,-0.182554,200.277646,274.381217,-1.079972,2.460563,6.058889,0.038850
1573539352.241053,-0.137877,0.025617,0.012222,-0.017455,0.054574,-0.183217,200.568225,275.126728,-1.075290,2.423116,6.010600,0.039250
1573539352.365583,-0.137594,0.025058,0.012246,-0.017437,0.054399,-0.183763,200.840363,275.835166,-1.071234,2.356964,5.971182,0.039875
1573539352.490123,-0.137033,0.024120,0.012290,-0.017449,0.054199,-0.184757,201.089960,276.509845,-1.066703,2.262020,5.908174,0.035043
1573539352.619633,-0.136740,0.023655,0.012285,-0.017384,0.053952,-0.185632,201.356731,277.236702,-1.061137,2.216536,5.867170,0.031989
1573539352.774043,-0.137244,0.024217,0.012206,-0.017266,0.054108,-0.186044,201.706134,278.172753,-1.052784,2.156245,5.871654,0.034124
1573539352.903553,-0.137383,0.024337,0.012149,-0.017109,0.054155,-0.186304,201.975145,278.930329,-1.044498,2.086933,5.873977,0.039157
1573539353.038053,-0.138027,0.025143,0.012019,-0.016698,0.054502,-0.186272,202.263555,279.757523,-1.036920,2.028363,5.907709,0.006548
1573539353.157593,-0.138410,0.025605,0.011934,-0.016256,0.054692,-0.186174,202.504428,280.479974,-1.032149,1.949092,5.911025,0.019512
1573539353.312003,-0.138843,0.026018,0.011865,-0.015754,0.054902,-0.185911,202.799800,281.408380,-1.023871,1.819099,5.912563,0.038905
1573539353.441503,-0.139295,0.026461,0.011798,-0.015409,0.055036,-0.185445,203.033379,282.195380,-1.017803,1.672746,5.921440,0.011297
1573539353.566033,-0.139542,0.026754,0.011742,-0.015238,0.055223,-0.185055,203.238121,282.943772,-1.015763,1.550675,5.960038,-0.007744
1573539353.690563,-0.139457,0.026730,0.011706,-0.015020,0.055170,-0.184755,203.418423,283.675453,-1.013632,1.422534,5.967965,0.009730
1573539353.820063,-0.139074,0.026006,0.011728,-0.015122,0.054887,-0.184652,203.564649,284.391976,-1.010895,1.225759,5.910293,0.029697
1573539353.974473,-0.138704,0.025158,0.011777,-0.015282,0.054747,-0.184584,203.710403,285.246317,-1.007691,0.989488,5.862802,0.013174
1573539354.103973,-0.137781,0.023327,0.011899,-0.015422,0.054404,-0.184573,203.770522,285.882950,-1.008019,0.800592,5.777638,0.002361
1573539354.228503,-0.136982,0.021728,0.011969,-0.015628,0.053993,-0.184797,203.810084,286.497428,-1.007907,0.627257,5.734864,0.005120
1573539354.353043,-0.136770,0.020535,0.012028,-0.015837,0.053503,-0.185288,203.843834,287.143689,-1.006420,0.423814,5.670224,0.017769
1573539354.512433,-0.136193,0.019384,0.012099,-0.015961,0.052831,-0.185718,203.861752,287.977365,-1.003661,0.195809,5.593064,0.025700
1573539354.636963,-0.135806,0.018325,0.012195,-0.016248,0.052258,-0.186139,203.851156,288.622744,-1.004728,0.006173,5.538141,0.003091
1573539354.766463,-0.135553,0.017610,0.012242,-0.016384,0.051769,-0.186620,203.819991,289.304394,-1.004662,-0.216460,5.488768,0.014821
1573539354.890983,-0.135550,0.017269,0.012246,-0.016340,0.051598,-0.187026,203.775463,289.976398,-1.001737,-0.379586,5.458647,0.014565
1573539355.020493,-0.135719,0.017412,0.012247,-0.016461,0.051490,-0.187429,203.720702,290.708598,-1.001699,-0.567473,5.449838,-0.000928
1573539355.174913,-0.135966,0.018006,0.012216,-0.016309,0.051721,-0.187588,203.632187,291.601987,-1.002815,-0.797331,5.444912,0.006707
1573539355.294453,-0.136064,0.018206,0.012222,-0.016184,0.051883,-0.187405,203.547130,292.302911,-1.003242,-0.960679,5.415830,0.016292
1573539355.428943,-0.135729,0.017799,0.012255,-0.016306,0.051985,-0.187318,203.411546,293.040676,-1.003558,-1.152304,5.359167,0.002651
1573539355.553463,-0.135444,0.017567,0.012258,-0.016439,0.052086,-0.187129,203.261606,293.713457,-1.003773,-1.328980,5.309491,-0.001310
1573539355.712853,-0.135539,0.017326,0.012281,-0.016444,0.052050,-0.186918,203.043826,294.581422,-1.002873,-1.525627,5.237982,0.029469
1573539355.777613,-0.135495,0.017178,0.012271,-0.016461,0.051876,-0.186512,202.947054,294.930513,-1.000132,-1.595193,5.188254,0.042970
1573539355.961913,-0.135679,0.016666,0.012294,-0.016549,0.051512,-0.186321,202.630004,295.859371,-0.991953,-1.850937,4.951476,0.046591
1573539356.091413,-0.135751,0.015916,0.012344,-0.016622,0.051201,-0.186012,202.375734,296.487817,-0.987841,-2.071749,4.910297,0.014495
1573539356.285683,-0.135255,0.015131,0.012367,-0.016809,0.051015,-0.185523,201.951886,297.421968,-0.979110,-2.318267,4.851698,0.051218
1573539356.375343,-0.135287,0.014516,0.012383,-0.017022,0.051125,-0.184900,201.736318,297.851136,-0.974297,-2.480254,4.804417,0.040173
1573539356.440093,-0.135355,0.014624,0.012381,-0.016946,0.051148,-0.185000,201.572502,298.166620,-0.971986,-2.575054,4.779637,0.038890
1573539356.629373,-0.135094,0.014748,0.012389,-0.017031,0.051396,-0.184222,201.061625,299.084487,-0.968979,-2.855893,4.704855,0.023543
1573539356.753903,-0.133603,0.014664,0.012442,-0.017168,0.051111,-0.183468,200.697810,299.655039,-0.970154,-3.070277,4.652767,0.001591
1573539356.913303,-0.133299,0.014596,0.012471,-0.017147,0.051026,-0.182853,200.190731,300.396237,-0.969625,-3.323855,4.638768,0.008885
1573539357.037833,-0.132170,0.015101,0.012461,-0.016987,0.050755,-0.182436,199.768728,300.992400,-0.970440,-3.510809,4.655976,0.010574
1573539357.112553,-0.131399,0.016824,0.012320,-0.016805,0.050618,-0.182376,199.503098,301.382391,-0.968353,-3.619468,4.703542,0.003442
1573539357.291873,-0.130864,0.017354,0.012315,-0.016707,0.050415,-0.182011,198.837821,302.252321,-0.969592,-3.819107,4.810798,-0.002027
1573539357.416403,-0.130207,0.018769,0.012289,-0.016719,0.050064,-0.181860,198.353988,302.877083,-0.971331,-3.981437,4.889586,0.007039
1573539357.575793,-0.129619,0.019493,0.012330,-0.016480,0.049782,-0.181708,197.706863,303.669854,-0.976103,-4.176049,4.968729,-0.018716
1573539357.700323,-0.128844,0.020285,0.012378,-0.016207,0.049769,-0.181414,197.182802,304.295566,-0.983574,-4.284987,5.014362,-0.029069
1573539357.829833,-0.127798,0.021463,0.012418,-0.016181,0.049636,-0.181373,196.621013,304.958736,-0.992023,-4.434590,5.081252,-0.024814
1573539357.954363,-0.126454,0.022857,0.012440,-0.016257,0.049245,-0.181062,196.064603,305.601401,-1.000467,-4.567053,5.127440,-0.030785
1573539358.113763,-0.125384,0.023338,0.012503,-0.016568,0.048677,-0.180740,195.331298,306.414601,-1.009795,-4.729234,5.199540,-0.039012
1573539358.178513,-0.124009,0.024559,0.012504,-0.016908,0.048453,-0.180234,195.029872,306.751476,-1.015457,-4.798259,5.236337,-0.045006
1573539358.322973,-0.122681,0.026110,0.012484,-0.017244,0.048384,-0.179822,194.331989,307.515194,-1.025798,-4.951437,5.334350,-0.067217
1573539358.492333,-0.121756,0.027451,0.012473,-0.017550,0.048299,-0.179511,193.488572,308.428015,-1.041862,-5.085451,5.461189,-0.090505
1573539358.616863,-0.122536,0.026908,0.012488,-0.017755,0.048161,-0.179297,192.851646,309.096006,-1.049483,-5.136903,5.535925,-0.058541
1573539358.776253,-0.124782,0.026418,0.012480,-0.017693,0.047993,-0.179411,192.010591,309.985827,-1.056509,-5.249588,5.637247,-0.060497
1573539358.900773,-0.126948,0.026204,0.012499,-0.017569,0.047870,-0.179588,191.335676,310.697485,-1.064993,-5.380499,5.734773,-0.059304
1573539359.030273,-0.128234,0.026654,0.012465,-0.017735,0.047744,-0.179650,190.620658,311.451100,-1.072542,-5.506041,5.826192,-0.062060
1573539359.154803,-0.130069,0.026375,0.012453,-0.017648,0.048019,-0.179618,189.916688,312.184117,-1.078790,-5.591842,5.909424,-0.053598
1573539359.314193,-0.131460,0.026593,0.012423,-0.017866,0.048396,-0.179118,189.008520,313.130617,-1.087263,-5.702682,5.997652,-0.066314
1573539359.373963,-0.134275,0.026630,0.012389,-0.017902,0.048475,-0.179110,188.645129,313.496936,-1.090443,-5.761145,6.045094,-0.066502
1573539359.533353,-0.138013,0.026769,0.012380,-0.017891,0.048505,-0.179255,187.685703,314.485753,-1.100773,-5.903426,6.134543,-0.051934
1573539359.692743,-0.140300,0.027903,0.012327,-0.017970,0.048667,-0.178904,186.713402,315.489003,-1.110757,-6.016282,6.228615,-0.054698
1573539359.817283,-0.143168,0.027477,0.012353,-0.017727,0.048617,-0.178970,185.932454,316.283184,-1.118590,-6.102183,6.325962,-0.043847
1573539359.976683,-0.145366,0.027178,0.012363,-0.017280,0.049000,-0.178621,184.928185,317.311386,-1.125452,-6.206196,6.406529,-0.030428
1573539360.101203,-0.146367,0.026864,0.012414,-0.017137,0.048905,-0.178561,184.143485,318.116996,-1.131891,-6.276963,6.471467,-0.039817
1573539360.230713,-0.146645,0.026568,0.012443,-0.017007,0.049155,-0.178846,183.326018,318.958140,-1.136756,-6.338240,6.542572,-0.030171
1573539360.355243,-0.146537,0.026305,0.012467,-0.017013,0.049369,-0.178940,182.536814,319.770230,-1.140935,-6.404276,6.594602,-0.037128
1573539360.479763,-0.146471,0.025509,0.012506,-0.016908,0.049562,-0.179059,181.740064,320.582688,-1.145351,-6.453442,6.643780,-0.041446
1573539360.639163,-0.146960,0.026110,0.012506,-0.016880,0.050015,-0.179616,180.701821,321.654581,-1.152490,-6.513513,6.728035,-0.028655
1573539360.763683,-0.147280,0.026044,0.012496,-0.016657,0.050251,-0.179865,179.880811,322.492824,-1.156001,-6.584482,6.771720,-0.037654
1573539360.893183,-0.148310,0.025914,0.012491,-0.016303,0.050091,-0.180855,179.007275,323.378307,-1.159881,-6.648477,6.847917,-0.022201
1573539361.022693,-0.149808,0.026151,0.012460,-0.015827,0.050382,-0.181510,178.112103,324.285466,-1.162295,-6.739524,6.904051,-0.007597
1573539361.177093,-0.150661,0.026744,0.012404,-0.015550,0.050904,-0.181868,177.043852,325.374632,-1.164280,-6.837531,7.002737,-0.019177
1573539361.301613,-0.151222,0.026823,0.012367,-0.015334,0.051156,-0.182330,176.172966,326.259257,-1.165878,-6.926763,7.081865,-0.017925
1573539361.431123,-0.151315,0.027500,0.012295,-0.015318,0.051443,-0.182577,175.267508,327.187689,-1.165832,-6.969476,7.143095,-0.009240
1573539361.555643,-0.151620,0.027626,0.012320,-0.015346,0.051697,-0.183095,174.392278,328.083639,-1.169235,-7.016568,7.195001,-0.016247
1573539361.680163,-0.151585,0.027333,0.012352,-0.015133,0.051712,-0.183751,173.515274,328.977367,-1.171177,-7.077448,7.258588,-0.003278
1573539361.839553,-0.151229,0.026107,0.012413,-0.014801,0.051566,-0.184698,172.386572,330.118965,-1.169315,-7.150314,7.313442,0.007212
1573539361.934193,-0.150491,0.025153,0.012403,-0.014892,0.051558,-0.185201,171.722800,330.789230,-1.164790,-7.180585,7.346165,-0.004043
1573539362.093593,-0.151068,0.025608,0.012396,-0.014756,0.051763,-0.185804,170.556734,331.975756,-1.167781,-7.284486,7.421739,-0.021614
1573539362.218123,-0.151038,0.025235,0.012460,-0.014539,0.052018,-0.186452,169.646981,332.897584,-1.172786,-7.330232,7.462786,-0.029058
1573539362.377523,-0.152529,0.026775,0.012410,-0.014220,0.052032,-0.187832,168.431787,334.126824,-1.182998,-7.441497,7.548240,-0.052472
1573539362.502043,-0.154186,0.028527,0.012369,-0.014175,0.052190,-0.188643,167.462186,335.113305,-1.194063,-7.522204,7.624218,-0.040959
1573539362.566803,-0.155328,0.029660,0.012388,-0.014296,0.052411,-0.189308,166.952067,335.637611,-1.202580,-7.562108,7.676986,-0.039796
1573539362.756083,-0.156234,0.030743,0.012388,-0.014996,0.053037,-0.189875,165.500896,337.126063,-1.215661,-7.666671,7.784550,-0.052698
1573539362.915473,-0.156109,0.030474,0.012464,-0.015431,0.053046,-0.190497,164.284852,338.366374,-1.226132,-7.704720,7.842522,-0.034942
1573539363.040003,-0.155979,0.030388,0.012499,-0.015844,0.053209,-0.190810,163.332441,339.341946,-1.232430,-7.751865,7.882592,-0.048922
1573539363.104753,-0.155773,0.030156,0.012536,-0.016000,0.053356,-0.190871,162.837757,339.848237,-1.237303,-7.774140,7.913648,-0.052946
1573539363.294033,-0.155806,0.030220,0.012532,-0.016274,0.053229,-0.191139,161.362656,341.354955,-1.245684,-7.840027,7.981791,-0.051859
1573539363.418563,-0.155049,0.029190,0.012555,-0.016126,0.053523,-0.190819,160.402066,342.323112,-1.248695,-7.874637,7.974160,-0.043515
1573539363.577943,-0.155091,0.029326,0.012523,-0.016583,0.053552,-0.190881,159.149526,343.602623,-1.252084,-7.924974,8.027594,-0.026954
1573539363.702473,-0.154887,0.029204,0.012526,-0.016726,0.053779,-0.190694,158.168706,344.601229,-1.254688,-7.965913,8.074593,-0.015965
1573539363.826993,-0.154784,0.029043,0.012536,-0.016828,0.053858,-0.190993,157.179573,345.606130,-1.255966,-8.007266,8.100469,-0.010850
1573539363.956493,-0.154584,0.028874,0.012544,-0.016964,0.053992,-0.191198,156.149068,346.651557,-1.256548,-8.041135,8.133693,-0.015216
1573539364.081023,-0.154495,0.028733,0.012539,-0.017337,0.054284,-0.191066,155.154220,347.667361,-1.259516,-8.099923,8.187040,-0.034206
1573539364.240423,-0.154370,0.028509,0.012551,-0.017669,0.054334,-0.191167,153.872019,348.973340,-1.264715,-8.118742,8.214324,-0.035300
1573539364.350003,-0.154495,0.028539,0.012558,-0.018112,0.054429,-0.191556,152.987397,349.880486,-1.270042,-8.145910,8.236247,-0.045271
1573539364.494443,-0.154282,0.028294,0.012481,-0.018165,0.054505,-0.192379,151.813371,351.065792,-1.268614,-8.186777,8.286984,-0.014982
1573539364.618973,-0.154252,0.028243,0.012408,-0.018496,0.054822,-0.192671,150.797641,352.096689,-1.263891,-8.212699,8.301738,0.010214
1573539364.778373,-0.153768,0.027720,0.012357,-0.018383,0.054884,-0.192954,149.494350,353.403566,-1.257190,-8.263337,8.352698,0.001953
1573539364.838143,-0.153587,0.027603,0.012339,-0.018244,0.054713,-0.193172,148.999017,353.894879,-1.255461,-8.298984,8.356308,-0.000635
1573539364.967653,-0.153966,0.028203,0.012256,-0.018297,0.054748,-0.193193,147.907419,354.991262,-1.253297,-8.325514,8.396219,0.000209
1573539365.156933,-0.154072,0.028685,0.012228,-0.017795,0.054748,-0.193062,146.305974,356.584673,-1.255942,-8.400909,8.448475,-0.010324
1573539365.281463,-0.154362,0.029314,0.012214,-0.017403,0.054974,-0.193106,145.238542,357.648052,-1.258250,-8.442537,8.480378,0.000901
1573539365.386083,-0.154136,0.029283,0.012160,-0.017042,0.055079,-0.193321,144.351185,358.527634,-1.254784,-8.484077,8.478772,0.001672
1573539365.500643,-0.153622,0.028751,0.012164,-0.016872,0.055355,-0.193554,143.390923,359.480825,-1.250884,-8.496536,8.515343,0.018416
1573539365.630143,-0.152558,0.027393,0.012138,-0.016660,0.055241,-0.193818,142.315221,360.539139,-1.241335,-8.529351,8.493992,0.025267
1573539365.819433,-0.151322,0.025842,0.012147,-0.016293,0.054966,-0.194085,140.728566,362.095153,-1.234358,-8.534833,8.478500,-0.011452
1573539365.978823,-0.150571,0.025009,0.012149,-0.015815,0.054599,-0.194489,139.379288,363.403915,-1.233843,-8.490453,8.389241,-0.015887
1573539366.103353,-0.151797,0.026823,0.012095,-0.015450,0.054461,-0.195207,138.265303,364.498342,-1.241708,-8.525600,8.409134,-0.017218
1573539366.227873,-0.152786,0.028250,0.012061,-0.015372,0.054381,-0.195539,137.163396,365.589664,-1.247639,-8.564510,8.433580,0.000718
1573539366.357383,-0.153215,0.028902,0.012092,-0.015357,0.054564,-0.195964,136.039432,366.696826,-1.253088,-8.558830,8.424115,-0.012397
1573539366.481903,-0.153873,0.029769,0.012106,-0.015588,0.054667,-0.196343,134.955102,367.774665,-1.259831,-8.560863,8.429422,-0.013129
1573539366.641283,-0.154044,0.030053,0.012129,-0.015692,0.054681,-0.196708,133.587979,369.127665,-1.264761,-8.555234,8.426525,-0.012187
1573539366.765813,-0.153064,0.028782,0.012152,-0.015516,0.054784,-0.196997,132.562775,370.130896,-1.260759,-8.520847,8.362187,-0.010271
1573539366.890333,-0.153118,0.028892,0.012142,-0.015802,0.054995,-0.197198,131.505700,371.176077,-1.262183,-8.504014,8.351340,-0.011187
1573539367.019833,-0.152770,0.028583,0.012153,-0.015392,0.055016,-0.197815,130.411841,372.238658,-1.260383,-8.476893,8.307884,0.013118
1573539367.144363,-0.152803,0.028679,0.012129,-0.015283,0.054931,-0.198205,129.351331,373.271959,-1.259188,-8.490692,8.286563,-0.001167
1573539367.239003,-0.152902,0.028937,0.012149,-0.015035,0.054814,-0.198463,128.540497,374.061936,-1.261094,-8.494188,8.299812,0.002240
1573539367.368503,-0.152755,0.028873,0.012199,-0.014912,0.054912,-0.198634,127.447826,375.128884,-1.261896,-8.459125,8.259767,0.011576
1573539367.557783,-0.152930,0.029186,0.012161,-0.014962,0.054963,-0.198650,125.837636,376.694658,-1.260868,-8.486964,8.227060,-0.018423
1573539367.712193,-0.152958,0.029390,0.012170,-0.014805,0.054892,-0.198785,124.520426,377.968157,-1.263598,-8.493546,8.210940,-0.019892
1573539367.841713,-0.151919,0.028337,0.012235,-0.014223,0.054896,-0.198594,123.451402,378.974304,-1.266037,-8.433704,8.130065,-0.030529
1573539367.966223,-0.151408,0.027900,0.012253,-0.013789,0.055043,-0.198867,122.416300,379.959168,-1.266684,-8.408364,8.087890,-0.002030
1573539368.090753,-0.151344,0.027897,0.012268,-0.013817,0.055349,-0.198999,121.374413,380.960905,-1.267303,-8.405935,8.077377,-0.003581
1573539368.220263,-0.151554,0.028184,0.012255,-0.013946,0.055133,-0.199274,120.275796,382.016283,-1.267673,-8.415172,8.063901,0.005889
1573539368.344783,-0.152430,0.029623,0.012243,-0.013683,0.055090,-0.199738,119.177289,383.065008,-1.275146,-8.433417,8.078099,-0.015611
1573539368.499203,-0.153140,0.030651,0.012260,-0.013422,0.054795,-0.200309,117.837905,384.348012,-1.284786,-8.463571,8.083310,-0.023367
1573539368.628703,-0.153760,0.031487,0.012275,-0.013612,0.054758,-0.200840,116.718782,385.425859,-1.293102,-8.473923,8.080237,-0.035320
1573539368.758203,-0.153977,0.031924,0.012289,-0.013523,0.055136,-0.200767,115.612573,386.483300,-1.300623,-8.476840,8.082049,-0.039106
1573539368.882723,-0.154639,0.032742,0.012261,-0.014058,0.054993,-0.201582,114.536773,387.527131,-1.307425,-8.467859,8.088593,-0.020909
1573539369.042113,-0.153549,0.031220,0.012269,-0.014321,0.055251,-0.201853,113.250830,388.746479,-1.302885,-8.409536,8.013031,-0.015040
1573539369.166633,-0.152890,0.030381,0.012270,-0.014337,0.055404,-0.202173,112.241466,389.706974,-1.300099,-8.381234,7.991427,-0.014430
1573539369.291153,-0.153081,0.030717,0.012235,-0.014503,0.055634,-0.202652,111.192045,390.709234,-1.301546,-8.372273,7.954478,-0.012887
1573539369.420653,-0.152667,0.030269,0.012210,-0.014191,0.055540,-0.203126,110.123145,391.710214,-1.300195,-8.335420,7.919277,-0.014977
1573539369.545173,-0.153079,0.031029,0.012204,-0.013953,0.055213,-0.203176,109.055243,392.725752,-1.306268,-8.366204,7.932865,-0.016342
1573539369.704573,-0.153205,0.031340,0.012148,-0.013678,0.055281,-0.203136,107.715697,393.996509,-1.304816,-8.336510,7.907542,-0.006287
1573539369.829093,-0.153460,0.031787,0.012130,-0.013633,0.055165,-0.203327,106.665126,394.997723,-1.305345,-8.340097,7.902554,0.003939
1573539369.953613,-0.153129,0.031358,0.012075,-0.013920,0.055416,-0.203633,105.651889,395.958888,-1.298775,-8.320085,7.874447,0.003844
1573539370.083123,-0.152654,0.030738,0.012072,-0.014081,0.055029,-0.203778,104.596130,396.950762,-1.297221,-8.327242,7.863973,-0.032300
1573539370.242513,-0.153090,0.031503,0.012065,-0.013738,0.054950,-0.204195,103.241434,398.230872,-1.307800,-8.323263,7.839842,-0.052199
1573539370.367033,-0.152754,0.031189,0.012050,-0.013445,0.055018,-0.204856,102.225146,399.180551,-1.309729,-8.268907,7.759205,-0.034527
1573539370.431783,-0.152475,0.030959,0.012064,-0.013333,0.055068,-0.205090,101.704306,399.667943,-1.310953,-8.252625,7.748960,-0.021764
1573539370.621063,-0.152107,0.030593,0.012110,-0.013263,0.055133,-0.205405,100.162629,401.116455,-1.310876,-8.266238,7.756003,-0.002076
1573539370.745583,-0.152055,0.030709,0.012173,-0.013205,0.055315,-0.205459,99.139480,402.081358,-1.316087,-8.224767,7.747862,-0.016371
1573539370.875103,-0.152316,0.031267,0.012188,-0.012825,0.055138,-0.205785,98.055320,403.105484,-1.323840,-8.224891,7.742489,-0.053770
1573539370.964753,-0.151818,0.030732,0.012218,-0.012728,0.055303,-0.206117,97.346118,403.767091,-1.327966,-8.198751,7.704437,-0.047653
1573539371.154033,-0.151595,0.030458,0.012206,-0.012853,0.055308,-0.206428,95.814270,405.203099,-1.330955,-8.173458,7.628701,-0.031493
1573539371.283533,-0.150696,0.029444,0.012198,-0.012375,0.055302,-0.206832,94.797167,406.133581,-1.331044,-8.156018,7.627756,-0.058559
1573539371.437953,-0.150545,0.029311,0.012180,-0.012296,0.055025,-0.207371,93.542502,407.300605,-1.337056,-8.115038,7.585185,-0.043185
1573539371.502713,-0.149960,0.028672,0.012191,-0.011950,0.055015,-0.207499,93.043816,407.749367,-1.336707,-8.035809,7.530899,-0.038491
1573539371.662103,-0.150025,0.029003,0.012212,-0.011530,0.054863,-0.207511,91.742211,408.952014,-1.342480,-8.050114,7.542423,0.014868
1573539371.821493,-0.150377,0.029716,0.012211,-0.011236,0.054719,-0.207576,90.419725,410.180688,-1.342211,-8.090623,7.551966,0.029350
1573539371.946023,-0.151024,0.030765,0.012251,-0.011118,0.054371,-0.207862,89.363062,411.172577,-1.348723,-8.121761,7.580768,-0.019111
1573539372.100423,-0.152042,0.032335,0.012273,-0.010985,0.054058,-0.208225,88.037861,412.421129,-1.362267,-8.158046,7.601077,-0.031528
1573539372.165173,-0.152087,0.032372,0.012296,-0.011059,0.053973,-0.208120,87.516311,412.909839,-1.365317,-8.145274,7.580608,-0.042184
1573539372.354453,-0.152534,0.033040,0.012288,-0.011048,0.053856,-0.208185,85.948937,414.373787,-1.375159,-8.161850,7.595307,-0.029971
1573539372.483953,-0.152577,0.033030,0.012315,-0.011407,0.053942,-0.208115,84.908528,415.355221,-1.378976,-8.103141,7.586443,-0.015478
1573539372.638353,-0.152854,0.033340,0.012322,-0.011745,0.053956,-0.208109,83.655019,416.542925,-1.385593,-8.098013,7.593841,-0.030925
1573539372.767863,-0.152504,0.032825,0.012334,-0.012020,0.054050,-0.208056,82.646897,417.494587,-1.385077,-8.048379,7.554469,-0.009032
1573539372.892383,-0.152900,0.033420,0.012391,-0.012238,0.053936,-0.208377,81.628845,418.468477,-1.393407,-8.059773,7.533805,-0.021738
1573539373.016903,-0.152352,0.032651,0.012431,-0.012504,0.053911,-0.208501,80.673884,419.362234,-1.392871,-8.005395,7.502630,0.006519
1573539373.146393,-0.152206,0.032502,0.012462,-0.012714,0.053755,-0.208870,79.656572,420.328620,-1.392232,-7.969926,7.509750,0.006397
1573539373.305783,-0.151861,0.032021,0.012458,-0.012950,0.053641,-0.209166,78.418617,421.494090,-1.391131,-7.946719,7.458219,-0.012491
1573539373.430313,-0.151860,0.032171,0.012438,-0.012978,0.053892,-0.209761,77.438262,422.421475,-1.389970,-7.890630,7.430953,0.015744
1573539373.524943,-0.152197,0.032788,0.012391,-0.012824,0.053912,-0.210451,76.669229,423.150858,-1.389089,-7.915162,7.445823,-0.010612
1573539373.684333,-0.152259,0.033016,0.012365,-0.012606,0.053852,-0.210944,75.404474,424.343139,-1.390588,-7.934541,7.456570,-0.002457
1573539373.838743,-0.151903,0.032497,0.012350,-0.012809,0.053673,-0.211183,74.222535,425.456706,-1.386453,-7.837968,7.358635,0.001478
1573539373.968243,-0.151953,0.032801,0.012373,-0.012430,0.053290,-0.211697,73.192345,426.422872,-1.389330,-7.865146,7.358023,0.001673
1573539374.028013,-0.151786,0.032739,0.012384,-0.012251,0.053042,-0.212354,72.730062,426.854779,-1.389279,-7.879064,7.360158,0.004489
1573539374.217273,-0.152583,0.033961,0.012417,-0.012324,0.052494,-0.212805,71.174456,428.324954,-1.400022,-7.946898,7.361905,-0.028897
1573539374.346773,-0.152791,0.034407,0.012419,-0.012265,0.052317,-0.213640,70.130709,429.302688,-1.407571,-7.934894,7.360155,-0.048727
1573539374.501193,-0.152772,0.034498,0.012412,-0.012273,0.052396,-0.213980,68.916517,430.435602,-1.413041,-7.921366,7.325219,-0.023757
1573539374.565943,-0.152235,0.033857,0.012399,-0.012183,0.052605,-0.214307,68.453233,430.855576,-1.409381,-7.861114,7.285907,-0.001910
1573539374.755223,-0.151715,0.033352,0.012375,-0.012007,0.052787,-0.214772,67.004898,432.187909,-1.403772,-7.854859,7.209613,0.005606
1573539374.884723,-0.151096,0.032615,0.012400,-0.012119,0.052746,-0.215198,66.038804,433.069456,-1.402017,-7.820521,7.144685,-0.011112
1573539375.009253,-0.150305,0.031679,0.012391,-0.012101,0.053025,-0.215391,65.132218,433.885983,-1.397604,-7.763582,7.070655,0.007856
1573539375.103893,-0.150104,0.031604,0.012367,-0.011950,0.053178,-0.216126,64.414039,434.535818,-1.394807,-7.750214,7.027719,-0.001064
1573539375.228413,-0.149958,0.031495,0.012357,-0.012079,0.053137,-0.216625,63.464437,435.394830,-1.394353,-7.735972,6.996482,-0.002870
1573539375.417683,-0.149700,0.031204,0.012358,-0.012290,0.053180,-0.216909,62.030290,436.691614,-1.391219,-7.688032,6.954808,0.010151
1573539375.547183,-0.148993,0.030257,0.012369,-0.012434,0.053236,-0.217200,61.094593,437.516686,-1.386300,-7.649215,6.864171,0.009896
1573539375.701593,-0.148433,0.029500,0.012364,-0.012589,0.053471,-0.217458,59.972206,438.505588,-1.377692,-7.600224,6.778182,0.028840
1573539375.771333,-0.148266,0.029348,0.012334,-0.012516,0.053434,-0.217798,59.460541,438.957719,-1.371929,-7.576916,6.775819,0.029595
1573539375.955613,-0.148765,0.030222,0.012297,-0.012633,0.053349,-0.217680,58.015382,440.258622,-1.371066,-7.632378,6.772663,0.022755
1573539376.080133,-0.149784,0.031895,0.012265,-0.012626,0.053192,-0.217774,56.974017,441.204424,-1.374676,-7.649643,6.810865,0.010078
1573539376.179753,-0.149911,0.032268,0.012274,-0.012426,0.053321,-0.218020,56.200724,441.888122,-1.375058,-7.666850,6.806088,0.014558
1573539376.369023,-0.150499,0.033241,0.012273,-0.012399,0.053322,-0.218137,54.698134,443.231004,-1.373820,-7.708514,6.837984,0.022988
1573539376.428793,-0.151029,0.034128,0.012256,-0.012610,0.053242,-0.218496,54.193380,443.695505,-1.375788,-7.730194,6.881188,0.010388
1573539376.618073,-0.151095,0.034371,0.012271,-0.012583,0.053187,-0.218646,52.726648,445.000969,-1.376189,-7.712498,6.863774,-0.000922
1573539376.747573,-0.151048,0.034479,0.012318,-0.012602,0.053319,-0.218793,51.733214,445.884150,-1.378936,-7.681191,6.876435,-0.002345
1573539376.901973,-0.151157,0.034794,0.012346,-0.012553,0.053376,-0.218773,50.538391,446.953171,-1.381457,-7.669094,6.855831,0.006960
1573539377.031483,-0.149968,0.033306,0.012473,-0.012750,0.053484,-0.218619,49.651073,447.724481,-1.380133,-7.565215,6.748845,0.015731
1573539377.156003,-0.148845,0.032053,0.012531,-0.012520,0.054033,-0.218341,48.805065,448.442850,-1.376469,-7.502267,6.660599,0.002911
1573539377.280523,-0.149616,0.033374,0.012542,-0.012500,0.053983,-0.218602,47.790322,449.357338,-1.383394,-7.559970,6.713126,-0.001652
1573539377.410023,-0.149715,0.033674,0.012539,-0.012562,0.054064,-0.218894,46.803506,450.230017,-1.384922,-7.527250,6.686286,-0.004485
1573539377.564423,-0.150072,0.034457,0.012532,-0.012489,0.054197,-0.219460,45.598272,451.300943,-1.388831,-7.537509,6.704471,0.000688
1573539377.639143,-0.150192,0.034874,0.012505,-0.012155,0.054069,-0.219857,45.016793,451.810510,-1.388569,-7.559827,6.695988,0.005246
1573539377.818453,-0.150125,0.034961,0.012468,-0.012319,0.054010,-0.220354,43.666822,453.005131,-1.384747,-7.515922,6.704068,0.008828
1573539377.947953,-0.150258,0.035432,0.012432,-0.012071,0.053876,-0.220828,42.671189,453.891456,-1.384665,-7.537922,6.688573,-0.007088
1573539378.102363,-0.149928,0.035357,0.012394,-0.011538,0.054191,-0.221031,41.528144,454.882814,-1.381547,-7.503689,6.603959,0.006014
1573539378.167113,-0.150069,0.035757,0.012374,-0.011693,0.054161,-0.221460,41.027131,455.331381,-1.381988,-7.491824,6.614950,-0.001424
1573539378.356393,-0.150244,0.036215,0.012372,-0.011744,0.054080,-0.222061,39.584847,456.607356,-1.384224,-7.538152,6.623952,-0.000052
1573539378.480913,-0.150000,0.036124,0.012351,-0.011727,0.054155,-0.222900,38.670253,457.404877,-1.381460,-7.494861,6.582142,-0.001525
1573539378.620383,-0.151013,0.037689,0.012332,-0.012124,0.054091,-0.222875,37.528941,458.446496,-1.388648,-7.542772,6.658914,-0.009777
1573539378.764823,-0.151832,0.038970,0.012288,-0.012290,0.054338,-0.223753,36.374244,459.484033,-1.392669,-7.584147,6.704646,-0.005607
1573539378.829573,-0.151764,0.038986,0.012265,-0.012413,0.054634,-0.224531,35.914734,459.889445,-1.390471,-7.555292,6.677017,-0.005016
1573539379.018853,-0.151462,0.038738,0.012253,-0.012570,0.054912,-0.225004,34.534714,461.105953,-1.389838,-7.501498,6.635951,-0.017061
1573539379.148353,-0.151148,0.038429,0.012241,-0.012878,0.055254,-0.225131,33.613930,461.909742,-1.388874,-7.444700,6.546389,-0.004444
1573539379.302753,-0.150988,0.038405,0.012239,-0.012986,0.055378,-0.225283,32.490300,462.897477,-1.387254,-7.390826,6.520519,0.000183
1573539379.432253,-0.150582,0.038039,0.012284,-0.013175,0.055532,-0.224935,31.582294,463.695622,-1.387561,-7.381737,6.472242,0.009467
1573539379.536853,-0.150196,0.037583,0.012259,-0.013501,0.055759,-0.224872,30.874166,464.314065,-1.382075,-7.323308,6.419558,0.005657
1573539379.681293,-0.150140,0.037656,0.012223,-0.013601,0.055860,-0.224856,29.835117,465.221555,-1.378874,-7.264746,6.382343,0.008402
1573539379.810803,-0.149898,0.037370,0.012172,-0.013813,0.055975,-0.224873,28.933352,466.000227,-1.371747,-7.228862,6.328076,0.026982
1573539379.965213,-0.150039,0.037767,0.012124,-0.013840,0.056113,-0.225026,27.807292,466.983413,-1.366608,-7.231869,6.313627,0.030251
1573539380.094713,-0.149800,0.037705,0.012100,-0.013676,0.056433,-0.225312,26.897049,467.762139,-1.359049,-7.192400,6.275900,0.044296
1573539380.219233,-0.149799,0.037986,0.012073,-0.013447,0.056495,-0.225732,25.996817,468.538781,-1.355214,-7.194112,6.264047,0.007956
1573539380.343743,-0.149853,0.038288,0.012038,-0.013504,0.056618,-0.225714,25.094747,469.322659,-1.353101,-7.195405,6.252744,0.010697
1573539380.503133,-0.150634,0.039802,0.011985,-0.013304,0.056359,-0.225929,23.839457,470.432786,-1.357045,-7.248236,6.288393,-0.010058
1573539380.567883,-0.151126,0.040848,0.011935,-0.013112,0.056328,-0.225916,23.313983,470.901232,-1.358735,-7.281971,6.328804,-0.009086
1573539380.692413,-0.151002,0.040971,0.011897,-0.012972,0.056415,-0.226165,22.427344,471.666297,-1.356100,-7.259972,6.296911,0.001882
1573539380.881683,-0.150978,0.041046,0.011839,-0.013258,0.057023,-0.226236,21.105221,472.812686,-1.349498,-7.201718,6.246848,0.013832
1573539381.011193,-0.151307,0.041617,0.011792,-0.013617,0.057263,-0.226169,20.164379,473.640466,-1.346830,-7.197784,6.248648,0.010171
1573539381.145683,-0.151657,0.042294,0.011783,-0.013881,0.057421,-0.225846,19.169081,474.521669,-1.346968,-7.181500,6.293643,0.019631
1573539381.280153,-0.151730,0.042650,0.011774,-0.013900,0.057425,-0.225729,18.194295,475.378591,-1.346959,-7.200522,6.263886,-0.009069
1573539381.419623,-0.151214,0.042218,0.011774,-0.013689,0.057318,-0.225831,17.242317,476.187050,-1.343108,-7.120146,6.183167,0.028808
1573539381.544153,-0.151288,0.042558,0.011756,-0.013896,0.057952,-0.226054,16.371152,476.949355,-1.339273,-7.084839,6.173334,0.011747
1573539381.673663,-0.151286,0.042788,0.011742,-0.014047,0.058045,-0.226018,15.453425,477.748957,-1.337984,-7.105264,6.160651,0.015178
1573539381.768303,-0.151223,0.042924,0.011787,-0.014188,0.058055,-0.226208,14.793503,478.323710,-1.339471,-7.092277,6.127905,0.014377
1573539381.957573,-0.151058,0.042871,0.011810,-0.014477,0.058052,-0.226302,13.488891,479.458255,-1.337480,-6.997468,6.078258,0.021550
1573539382.082103,-0.151399,0.043429,0.011805,-0.015041,0.058096,-0.226002,12.599764,480.254272,-1.334520,-6.978537,6.116526,0.048947
1573539382.211603,-0.151635,0.044027,0.011794,-0.015085,0.058237,-0.225784,11.668479,481.076690,-1.329837,-7.011259,6.103767,0.042078
1573539382.366023,-0.151755,0.044469,0.011783,-0.015062,0.058088,-0.226106,10.565888,482.038792,-1.324257,-7.013122,6.092179,0.036648
1573539382.495533,-0.151301,0.044369,0.011734,-0.014454,0.058430,-0.226080,9.691754,482.767907,-1.314737,-6.968373,6.037668,0.035311
1573539382.620053,-0.150845,0.044113,0.011702,-0.014192,0.058725,-0.226293,8.876389,483.453321,-1.306351,-6.927602,5.971420,0.035787
1573539382.744573,-0.150696,0.044000,0.011595,-0.014487,0.059051,-0.226413,8.070755,484.142984,-1.292735,-6.844995,5.884088,0.051888
1573539382.874073,-0.150510,0.043960,0.011570,-0.014483,0.059116,-0.226379,7.219025,484.868172,-1.283435,-6.788042,5.835725,0.051188
1573539383.028493,-0.150250,0.043747,0.011546,-0.014566,0.059156,-0.226473,6.224459,485.714582,-1.272125,-6.723185,5.819079,0.051568
1573539383.123133,-0.149565,0.043013,0.011534,-0.014465,0.059738,-0.226305,5.696317,486.142890,-1.261828,-6.649213,5.693293,0.055863
1573539383.282523,-0.149500,0.043189,0.011454,-0.014306,0.060036,-0.226804,4.654245,487.017475,-1.248586,-6.585223,5.624937,0.056301
1573539383.407053,-0.149705,0.043933,0.011420,-0.013922,0.060088,-0.227330,3.788875,487.754077,-1.240896,-6.603256,5.607045,0.066627
1573539383.566453,-0.149617,0.044214,0.011360,-0.013564,0.060318,-0.227315,2.744224,488.628002,-1.223938,-6.584676,5.579134,0.077851
1573539383.695963,-0.150179,0.045362,0.011279,-0.013643,0.060613,-0.227180,1.824235,489.417255,-1.211641,-6.628175,5.615652,0.098927
1573539383.820493,-0.150413,0.046098,0.011208,-0.013487,0.060898,-0.227057,0.966593,490.141289,-1.197437,-6.632928,5.601884,0.092733
1573539383.945023,-0.150598,0.046690,0.011171,-0.013480,0.061000,-0.226975,0.116689,490.862607,-1.186666,-6.606811,5.570967,0.085468
1573539384.074533,-0.151239,0.048114,0.011127,-0.013244,0.060792,-0.227356,-0.849558,491.695349,-1.177474,-6.655264,5.648410,0.095887
1573539384.228953,-0.151893,0.049456,0.011076,-0.013279,0.060762,-0.227579,-1.972319,492.666529,-1.163162,-6.709130,5.708864,0.108239
1573539384.358453,-0.152291,0.050376,0.011038,-0.013419,0.060704,-0.228006,-2.894993,493.459403,-1.150633,-6.725628,5.700648,0.105469
1573539384.482993,-0.152861,0.051569,0.010993,-0.013375,0.060860,-0.228194,-3.804124,494.250336,-1.138814,-6.768675,5.720500,0.099951
1573539384.612503,-0.152994,0.051990,0.010965,-0.013790,0.060923,-0.228294,-4.686696,495.011902,-1.124354,-6.748690,5.727169,0.110918
1573539384.766913,-0.152822,0.051969,0.010980,-0.014028,0.060887,-0.228453,-5.695020,495.869948,-1.108095,-6.689966,5.685838,0.112760
1573539384.891443,-0.152468,0.051698,0.010978,-0.014403,0.060755,-0.228578,-6.474660,496.529694,-1.091854,-6.639594,5.599167,0.122124
1573539385.020953,-0.152169,0.051573,0.010974,-0.014563,0.060824,-0.228728,-7.283404,497.201764,-1.075504,-6.593974,5.524946,0.111281
1573539385.145493,-0.151661,0.051158,0.010986,-0.014775,0.060774,-0.228921,-8.022334,497.811911,-1.060034,-6.493869,5.441565,0.119473
1573539385.274993,-0.151150,0.050750,0.011043,-0.014853,0.060355,-0.229012,-8.805677,498.458042,-1.044005,-6.430086,5.364888,0.149604
1573539385.429413,-0.151052,0.050934,0.011102,-0.014715,0.060160,-0.229212,-9.787954,499.276071,-1.026261,-6.394355,5.317507,0.130473
1573539385.558923,-0.150873,0.051023,0.011159,-0.014677,0.060092,-0.229198,-10.590821,499.944555,-1.013455,-6.376013,5.292511,0.130174
1573539385.683463,-0.150703,0.051154,0.011202,-0.014509,0.059683,-0.229036,-11.379119,500.601790,-1.000133,-6.351267,5.259117,0.134970
1573539385.807983,-0.149968,0.050608,0.011254,-0.014202,0.059724,-0.228793,-12.086904,501.171107,-0.982734,-6.243701,5.151404,0.144391
1573539385.967383,-0.148621,0.049207,0.011284,-0.013928,0.059689,-0.228471,-12.915261,501.810333,-0.958407,-6.121410,4.991154,0.110711
1573539386.086933,-0.147658,0.048332,0.011315,-0.013656,0.059634,-0.228621,-13.530080,502.279591,-0.941910,-6.015780,4.872304,0.131828
1573539386.156673,-0.146782,0.047482,0.011318,-0.013630,0.059434,-0.228695,-13.838273,502.499779,-0.928335,-5.916908,4.755214,0.143076
1573539386.345953,-0.146764,0.047818,0.011288,-0.013658,0.059468,-0.228767,-14.937920,503.375681,-0.903512,-5.853918,4.678393,0.113620
1573539386.470483,-0.147028,0.048571,0.011247,-0.013605,0.059533,-0.228907,-15.692664,503.981312,-0.888609,-5.870144,4.670730,0.126082
1573539386.565123,-0.147352,0.049394,0.011191,-0.013561,0.059860,-0.229065,-16.269569,504.439734,-0.875066,-5.858386,4.655745,0.139532
1573539386.694633,-0.147693,0.050262,0.011158,-0.013608,0.060441,-0.229384,-17.056474,505.066592,-0.858836,-5.856350,4.634145,0.124758
1573539386.883923,-0.147625,0.050538,0.011142,-0.013722,0.060882,-0.229711,-18.138839,505.912058,-0.834279,-5.797883,4.565805,0.138511
1573539387.008453,-0.148015,0.051487,0.011119,-0.013707,0.061220,-0.230191,-18.896410,506.522949,-0.819497,-5.799370,4.545704,0.133946
1573539387.167853,-0.148748,0.052892,0.011072,-0.013666,0.061200,-0.230799,-19.913561,507.345350,-0.802407,-5.850375,4.551890,0.102194
1573539387.252533,-0.149047,0.053667,0.011003,-0.013759,0.061152,-0.231213,-20.434278,507.753576,-0.792522,-5.843141,4.507715,0.088857
1573539387.357133,-0.149270,0.054363,0.010921,-0.013824,0.061173,-0.231542,-21.059409,508.230609,-0.780415,-5.807638,4.414559,0.086329
1573539387.546413,-0.149176,0.054616,0.010937,-0.013740,0.061245,-0.232050,-22.141959,509.032482,-0.766995,-5.701099,4.147564,0.069928
1573539387.670943,-0.149244,0.055163,0.010872,-0.013816,0.061622,-0.232281,-22.839342,509.529423,-0.757224,-5.656899,3.985153,0.043876
1573539387.765583,-0.149019,0.055224,0.010845,-0.014036,0.061549,-0.232477,-23.335769,509.864059,-0.751733,-5.617253,3.836591,0.035589
1573539387.895083,-0.149217,0.055955,0.010796,-0.014169,0.061515,-0.232687,-24.086959,510.376919,-0.746656,-5.597959,3.681956,0.041113
1573539388.084363,-0.149457,0.056748,0.010707,-0.014163,0.061644,-0.232841,-25.155077,511.065162,-0.733822,-5.535667,3.449015,0.033986
1573539388.208893,-0.150136,0.058234,0.010619,-0.014218,0.061815,-0.232887,-25.933643,511.577875,-0.730671,-5.598683,3.315738,0.011969
1573539388.368283,-0.150053,0.058422,0.010644,-0.014536,0.061491,-0.232855,-26.820410,512.087371,-0.729915,-5.587232,3.106399,0.033391
1573539388.433043,-0.150071,0.058836,0.010640,-0.014725,0.061191,-0.232695,-27.188921,512.298082,-0.728208,-5.581767,3.020822,0.038772
1573539388.557553,-0.150187,0.059368,0.010641,-0.014936,0.061037,-0.232534,-27.901120,512.685701,-0.726331,-5.591360,2.830208,0.019240
1573539388.746823,-0.150083,0.059598,0.010676,-0.015149,0.060906,-0.232333,-28.953475,513.197241,-0.725763,-5.581273,2.558426,0.021410
1573539388.871343,-0.150160,0.060068,0.010693,-0.015277,0.060792,-0.232238,-29.662521,513.527392,-0.724574,-5.578263,2.413847,0.032101
1573539389.030733,-0.149956,0.060163,0.010732,-0.015315,0.060707,-0.231995,-30.530612,513.879030,-0.722618,-5.542041,2.154409,0.018207
1573539389.150273,-0.149764,0.060166,0.010769,-0.015409,0.060648,-0.231787,-31.162284,514.097632,-0.722074,-5.491733,1.945200,0.024140
1573539389.284753,-0.149483,0.060069,0.010800,-0.015560,0.060534,-0.231529,-31.858329,514.306313,-0.719203,-5.430108,1.682504,0.035904
1573539389.434183,-0.149298,0.060039,0.010817,-0.015681,0.060400,-0.231213,-32.628352,514.497869,-0.714746,-5.368109,1.358365,0.025611
1573539389.533813,-0.149040,0.059959,0.010826,-0.015857,0.060344,-0.230829,-33.115172,514.577075,-0.712280,-5.310333,1.128879,0.014013
1573539389.668293,-0.149099,0.060434,0.010742,-0.016003,0.060557,-0.230539,-33.811968,514.687370,-0.707050,-5.288708,0.869573,0.006637
1573539389.757943,-0.149288,0.061187,0.010637,-0.016067,0.060819,-0.230229,-34.288854,514.752068,-0.701653,-5.270733,0.737330,0.009837
1573539389.947213,-0.149325,0.061941,0.010547,-0.016165,0.061071,-0.230117,-35.291896,514.866868,-0.697362,-5.226160,0.485779,0.005139
1573539390.071743,-0.149378,0.062822,0.010454,-0.016146,0.061298,-0.230107,-35.960010,514.922417,-0.693205,-5.186909,0.299960,0.010556
1573539390.231133,-0.149184,0.063466,0.010407,-0.016119,0.061369,-0.230061,-36.789459,514.954216,-0.690373,-5.116901,0.078482,0.009785
1573539390.295883,-0.149059,0.064187,0.010364,-0.015972,0.061359,-0.230146,-37.136561,514.964043,-0.689477,-5.112463,-0.004823,0.000044
1573539390.485153,-0.149463,0.065184,0.010327,-0.015851,0.061329,-0.230449,-38.145410,514.968206,-0.691746,-5.117011,-0.193881,-0.004924
1573539390.609683,-0.149210,0.065839,0.010306,-0.015775,0.061275,-0.230210,-38.789272,514.937246,-0.692270,-5.117525,-0.340927,-0.004968
1573539390.734213,-0.149116,0.066629,0.010281,-0.015713,0.061410,-0.229847,-39.433366,514.885656,-0.693145,-5.099996,-0.514746,-0.005804
1573539390.828853,-0.148834,0.067249,0.010257,-0.015720,0.061580,-0.229578,-39.920277,514.832140,-0.693439,-5.075857,-0.620927,-0.001402
1573539390.958353,-0.148692,0.067645,0.010245,-0.015788,0.061792,-0.229292,-40.572981,514.737028,-0.695387,-5.031811,-0.797554,-0.017172
1573539391.147633,-0.148755,0.068238,0.010214,-0.015816,0.062014,-0.228874,-41.526335,514.562739,-0.699858,-4.997199,-1.022479,-0.028393
1573539391.272163,-0.148941,0.068838,0.010177,-0.015870,0.062239,-0.228792,-42.150789,514.424041,-0.704684,-4.971231,-1.172432,-0.046678
1573539391.431553,-0.149083,0.069194,0.010152,-0.015940,0.062400,-0.228464,-42.928933,514.213968,-0.710621,-4.921145,-1.356863,-0.042338
1573539391.496303,-0.149111,0.069750,0.010124,-0.016000,0.062454,-0.228250,-43.246454,514.121497,-0.713180,-4.892834,-1.436295,-0.043289
1573539391.685573,-0.149237,0.070467,0.010074,-0.015918,0.062635,-0.228066,-44.167915,513.828186,-0.720224,-4.802495,-1.655932,-0.043614
1573539391.810103,-0.149267,0.071314,0.010013,-0.015870,0.062756,-0.227935,-44.771085,513.613021,-0.726494,-4.759661,-1.805891,-0.068832
1573539391.934623,-0.149302,0.071999,0.009994,-0.015976,0.062822,-0.227730,-45.367044,513.383664,-0.735049,-4.702031,-1.933537,-0.057363
1573539392.034243,-0.149110,0.072514,0.009997,-0.016111,0.062982,-0.227457,-45.840397,513.192472,-0.742104,-4.662041,-2.044812,-0.057416
1573539392.158763,-0.148948,0.072956,0.009992,-0.016246,0.063042,-0.227189,-46.417937,512.932709,-0.750469,-4.621976,-2.175114,-0.062116
1573539392.348023,-0.149036,0.073664,0.009963,-0.016224,0.063151,-0.227196,-47.286401,512.502716,-0.763222,-4.511594,-2.347211,-0.047578
1573539392.472543,-0.148719,0.074325,0.009974,-0.016302,0.063191,-0.226982,-47.840204,512.210622,-0.766126,-4.430064,-2.419957,0.025956
1573539392.631933,-0.148711,0.075034,0.009955,-0.016404,0.063148,-0.226758,-48.537974,511.808561,-0.763853,-4.290712,-2.636663,-0.014720
1573539392.711633,-0.148726,0.075645,0.009964,-0.016573,0.063127,-0.226479,-48.879943,511.597625,-0.768881,-4.230427,-2.709714,-0.040385
1573539392.821203,-0.148950,0.076221,0.009968,-0.016700,0.063269,-0.226178,-49.341759,511.296889,-0.777061,-4.133147,-2.801800,-0.065415
1573539393.010483,-0.148832,0.076622,0.010009,-0.016816,0.063267,-0.225742,-50.113045,510.763266,-0.788313,-4.007832,-2.908059,-0.001615
1573539393.135013,-0.148831,0.077230,0.010023,-0.016931,0.063269,-0.225394,-50.603795,510.400954,-0.791830,-3.834393,-2.983248,-0.018338
1573539393.229643,-0.148615,0.077658,0.010014,-0.016918,0.063238,-0.225490,-50.960996,510.119694,-0.795807,-3.696764,-3.025459,-0.044007
1573539393.359143,-0.148207,0.078345,0.010039,-0.017018,0.063236,-0.225297,-51.435856,509.732443,-0.805558,-3.549816,-3.079804,-0.055858
1573539393.548423,-0.148107,0.079111,0.010072,-0.017158,0.063469,-0.224915,-52.087336,509.152942,-0.822734,-3.325402,-3.126566,-0.082056
1573539393.672943,-0.148391,0.079510,0.010090,-0.017252,0.063775,-0.224712,-52.494232,508.763314,-0.835383,-3.215464,-3.123610,-0.074329
1573539393.832333,-0.148266,0.080278,0.010132,-0.017386,0.064195,-0.224225,-52.994264,508.275503,-0.849645,-2.994710,-3.081590,-0.038120
1573539393.892113,-0.148279,0.080519,0.010132,-0.017260,0.064465,-0.224075,-53.165566,508.093355,-0.851973,-2.901929,-3.070815,-0.027664
1573539394.081383,-0.148546,0.081052,0.010155,-0.017272,0.064676,-0.223694,-53.693697,507.521126,-0.862570,-2.655520,-2.995865,-0.045512
1573539394.220863,-0.148718,0.081552,0.010128,-0.017174,0.064856,-0.223785,-54.056117,507.107287,-0.870347,-2.466129,-2.906405,-0.070438
1573539394.335423,-0.149284,0.082292,0.010125,-0.017191,0.065259,-0.223725,-54.347032,506.775797,-0.883573,-2.334947,-2.837266,-0.075176
1573539394.430053,-0.148035,0.082095,0.010135,-0.017243,0.065225,-0.223382,-54.523494,506.530577,-0.885322,-2.229886,-2.752004,-0.045070
1573539394.559553,-0.148228,0.081872,0.010105,-0.017312,0.065473,-0.223193,-54.780838,506.178466,-0.885219,-2.104880,-2.615557,-0.025025
1573539394.748833,-0.148038,0.082214,0.010095,-0.017310,0.065553,-0.223188,-55.152696,505.708148,-0.890743,-1.902811,-2.409097,-0.038743
1573539394.873363,-0.148230,0.082148,0.010013,-0.017211,0.065768,-0.222930,-55.358544,505.408327,-0.886969,-1.777479,-2.286244,-0.039464
1573539395.032763,-0.148189,0.082414,0.010065,-0.017319,0.065905,-0.223014,-55.629535,505.066776,-0.898140,-1.658278,-2.097344,-0.035791
1573539395.107483,-0.148816,0.082627,0.010032,-0.017292,0.066160,-0.222820,-55.747363,504.902491,-0.898638,-1.602392,-2.018341,-0.034641
1573539395.281823,-0.148124,0.082840,0.010070,-0.017235,0.066136,-0.222882,-56.003733,504.585463,-0.908085,-1.478270,-1.846310,-0.033682
1573539395.411323,-0.148075,0.083095,0.010069,-0.017302,0.066405,-0.222618,-56.171516,504.361995,-0.911579,-1.401731,-1.735495,-0.026210
1573539395.565743,-0.148250,0.083101,0.010052,-0.017217,0.066562,-0.222662,-56.372860,504.099355,-0.913934,-1.304550,-1.631544,-0.032479
1573539395.695253,-0.148259,0.083201,0.009947,-0.016914,0.066850,-0.222599,-56.514407,503.888032,-0.906674,-1.226190,-1.560224,-0.023828
1573539395.755033,-0.148131,0.083672,0.010015,-0.017238,0.067218,-0.222446,-56.600438,503.805197,-0.919014,-1.205612,-1.521335,-0.031377
1573539395.949293,-0.147530,0.084000,0.009967,-0.017207,0.067487,-0.222107,-56.796378,503.532548,-0.919027,-1.102366,-1.414911,-0.029698
1573539396.073813,-0.147337,0.084162,0.009930,-0.017279,0.067480,-0.222065,-56.926148,503.364321,-0.919332,-1.055729,-1.358527,-0.026459
1573539396.198333,-0.146853,0.084568,0.009903,-0.017320,0.067340,-0.221715,-57.037168,503.215577,-0.919879,-1.005030,-1.293633,-0.024257
1573539396.357733,-0.146989,0.084977,0.009858,-0.017275,0.067554,-0.222004,-57.196239,503.004833,-0.921272,-0.949372,-1.234685,-0.021350
1573539396.422473,-0.146535,0.085538,0.009790,-0.017414,0.067679,-0.221442,-57.232770,502.943136,-0.916528,-0.915010,-1.199754,-0.020560
1573539396.611753,-0.146667,0.085907,0.009777,-0.017438,0.067841,-0.221584,-57.403054,502.721167,-0.920818,-0.874358,-1.113085,-0.015501
1573539396.736273,-0.147035,0.085375,0.009582,-0.017123,0.068077,-0.221396,-57.466709,502.566042,-0.900083,-0.811233,-1.077149,-0.005477
1573539396.895673,-0.146814,0.085939,0.009528,-0.017027,0.068274,-0.221340,-57.586929,502.402114,-0.897643,-0.760934,-1.019574,-0.001378
1573539397.005253,-0.146844,0.085858,0.009503,-0.017139,0.068574,-0.221283,-57.658216,502.295296,-0.896686,-0.722031,-0.975470,0.002723
1573539397.084943,-0.146739,0.086689,0.009463,-0.017191,0.068898,-0.221360,-57.717787,502.218491,-0.896883,-0.698968,-0.943915,-0.001311
1573539397.274223,-0.146866,0.087135,0.009438,-0.017254,0.069096,-0.221511,-57.841061,502.047627,-0.898433,-0.630896,-0.876893,-0.002034
1573539397.433613,-0.146647,0.087735,0.009410,-0.017276,0.069331,-0.221439,-57.937530,501.918226,-0.898772,-0.581952,-0.813171,-0.000019
1573539397.558143,-0.146540,0.088260,0.009384,-0.017394,0.069519,-0.221103,-58.004293,501.830311,-0.899798,-0.541336,-0.760107,-0.000614
1573539397.622893,-0.146337,0.088866,0.009361,-0.017453,0.069660,-0.221044,-58.039931,501.786773,-0.900723,-0.524772,-0.729907,0.002472
1573539397.812173,-0.146911,0.089003,0.009393,-0.017788,0.070192,-0.221329,-58.149302,501.654027,-0.909198,-0.479012,-0.670141,-0.002145
1573539397.936703,-0.146834,0.089619,0.009360,-0.017781,0.070368,-0.221256,-58.208225,501.573719,-0.908745,-0.445707,-0.628729,0.001773
1573539398.096093,-0.146721,0.090104,0.009337,-0.017804,0.070549,-0.221071,-58.275245,501.480983,-0.908798,-0.408362,-0.583089,0.000493
1573539398.220633,-0.146541,0.090233,0.009331,-0.017956,0.070722,-0.220687,-58.318688,501.423731,-0.911080,-0.375769,-0.544518,-0.001625
1573539398.285373,-0.146449,0.090893,0.009297,-0.017934,0.070869,-0.220567,-58.345549,501.390888,-0.910751,-0.366885,-0.524834,0.002990
1573539398.534433,-0.146366,0.091397,0.009270,-0.017974,0.070990,-0.220343,-58.430707,501.270743,-0.910965,-0.313029,-0.467058,-0.000528
1573539398.629073,-0.146522,0.091604,0.009432,-0.018588,0.071154,-0.219842,-58.469624,501.244869,-0.928851,-0.305955,-0.435723,-0.011003
1573539398.758573,-0.146666,0.091838,0.009442,-0.019100,0.071563,-0.220267,-58.533322,501.204273,-0.944521,-0.292707,-0.384260,-0.009968
1573539398.883103,-0.146321,0.093655,0.009179,-0.018478,0.071580,-0.219418,-58.561340,501.175992,-0.931717,-0.248212,-0.323233,0.004099
1573539399.012603,-0.146687,0.093878,0.009164,-0.018647,0.071827,-0.219337,-58.589376,501.132998,-0.934436,-0.180586,-0.250115,0.002210
1573539399.137133,-0.147096,0.094155,0.009262,-0.019095,0.072040,-0.219277,-58.614375,501.102103,-0.943550,-0.127852,-0.176396,-0.005067
1573539399.296523,-0.146753,0.094047,0.009229,-0.019016,0.072101,-0.218408,-58.607040,501.096041,-0.940618,-0.041646,-0.072692,-0.001785
1573539399.356293,-0.146766,0.094564,0.009208,-0.019068,0.072291,-0.218240,-58.608970,501.093268,-0.941149,-0.010665,-0.031466,-0.002187
1573539399.545573,-0.147764,0.097376,0.009073,-0.019094,0.072515,-0.219332,-58.660468,501.050501,-0.940074,-0.046272,-0.062205,0.010138
1573539399.675073,-0.146633,0.095236,0.009220,-0.019352,0.072219,-0.216805,-58.608439,501.104478,-0.947326,-0.006413,-0.018282,-0.005784
1573539399.799603,-0.146436,0.095456,0.009189,-0.019491,0.072310,-0.215964,-58.608249,501.111817,-0.947215,-0.006381,-0.012858,0.000004
1573539399.904203,-0.146401,0.096014,0.009143,-0.019463,0.072421,-0.215491,-58.608997,501.111552,-0.945639,-0.003768,-0.008994,0.001535
1573539400.018773,-0.146374,0.096509,0.009111,-0.019469,0.072516,-0.214972,-58.608935,501.112617,-0.945149,0.001554,-0.001139,0.001818
1573539400.237933,-0.146351,0.097000,0.009082,-0.019450,0.072593,-0.214459,-58.608529,501.113509,-0.944209,0.004787,0.003516,0.003011
1573539400.337553,-0.146353,0.097505,0.009057,-0.019429,0.072666,-0.213943,-58.608360,501.114214,-0.943750,0.006040,0.003228,0.004957
1573539400.496933,-0.146373,0.098027,0.009032,-0.019387,0.072751,-0.213455,-58.607801,501.114101,-0.942915,0.009697,0.006883,0.003782
1573539400.556703,-0.146415,0.098590,0.009015,-0.019374,0.072833,-0.212979,-58.608881,501.112962,-0.943271,0.009635,0.006681,0.004917
1573539400.745983,-0.146447,0.099149,0.008997,-0.019360,0.072902,-0.212476,-58.609066,501.113594,-0.943042,0.011293,0.010681,0.004948
1573539400.875493,-0.146484,0.099725,0.008973,-0.019328,0.072957,-0.211872,-58.609304,501.113835,-0.942283,0.014157,0.012927,0.007210
1573539401.000023,-0.146535,0.100299,0.008952,-0.019310,0.073046,-0.211303,-58.609462,501.113259,-0.941586,0.015761,0.012525,0.006140
1573539401.094663,-0.146598,0.100892,0.008936,-0.019331,0.073130,-0.210787,-58.610919,501.112164,-0.941832,0.014263,0.014637,0.007307
1573539401.219183,-0.146657,0.101496,0.008916,-0.019307,0.073195,-0.210235,-58.611881,501.111568,-0.941345,0.015578,0.016028,0.007729
1573539401.408453,-0.146716,0.102059,0.008906,-0.019292,0.073253,-0.209656,-58.611096,501.111883,-0.941102,0.017627,0.016803,0.008584
1573539401.537953,-0.146766,0.102620,0.008895,-0.019266,0.073301,-0.209089,-58.611437,501.111685,-0.941343,0.017905,0.018066,0.008386
1573539401.692353,-0.146814,0.103191,0.008881,-0.019231,0.073333,-0.208508,-58.611368,501.111916,-0.941102,0.021097,0.018781,0.008551
1573539401.757103,-0.146864,0.103766,0.008865,-0.019193,0.073370,-0.207920,-58.612786,501.110157,-0.941127,0.019145,0.017813,0.008850
