1573524797.633576,-0.001999,-0.002563,0.011812,-0.017145,-0.025395,0.028540,2.280677,0.263847,0.044680,1.706554,0.187510,0.036252
1573524797.758086,0.134777,-0.010137,0.019004,-0.014465,-0.027078,-0.001325,1.608340,0.193211,0.046371,1.169366,0.097001,0.030868
1573524797.882586,0.289691,-0.042237,0.023220,-0.016581,-0.026736,-0.021646,1.315617,0.141409,0.033141,0.884913,0.019386,0.020015
1573524797.917456,0.400937,-0.198320,0.026018,-0.016642,-0.022244,-0.027572,1.126627,0.104178,0.025312,0.717294,-0.017023,0.014192
1573524798.012076,0.425602,-0.376825,0.028429,-0.015726,-0.016140,-0.014380,1.172294,0.094980,0.026625,0.717893,-0.046010,0.012881
1573524798.071836,0.439999,-0.545934,0.031827,-0.013390,-0.010299,-0.005613,1.204134,0.089693,0.028531,0.725562,-0.058209,0.010983
1573524798.166466,0.433906,-0.599677,0.033126,-0.011378,-0.009152,0.002838,1.296395,0.090521,0.030298,0.774154,-0.068682,0.007270
1573524798.166466,0.424756,-0.616990,0.033635,-0.009653,-0.009234,0.011050,1.324613,0.097517,0.031100,0.796623,-0.060316,0.007859
1573524798.261096,0.405562,-0.608706,0.032861,-0.010171,-0.011389,0.017094,1.454549,0.105977,0.033903,0.886822,-0.040160,0.014087
1573524798.325846,0.383823,-0.577748,0.031887,-0.005952,-0.013975,0.020475,1.575641,0.120918,0.035679,0.984256,-0.020642,0.017268
1573524798.420466,0.362253,-0.532623,0.031141,-0.000697,-0.012796,0.022762,1.725532,0.134204,0.036647,1.114552,0.000505,0.018283
1573524798.515096,0.345164,-0.500971,0.029571,0.002336,-0.013751,0.031264,1.887189,0.148541,0.040703,1.231330,0.001473,0.020247
1573524798.579846,0.328844,-0.473002,0.028080,0.005728,-0.013811,0.038616,2.009901,0.161963,0.044563,1.286866,0.008966,0.021631
1573524798.674466,0.316360,-0.440377,0.026462,0.009368,-0.015924,0.045366,2.166594,0.175714,0.048665,1.316271,0.014808,0.015854
1573524798.769096,0.309482,-0.427991,0.025167,0.009155,-0.015196,0.053961,2.321083,0.184609,0.052678,1.331422,0.001407,0.012971
1573524798.833846,0.302489,-0.420098,0.023954,0.005808,-0.015232,0.061392,2.456387,0.193457,0.056891,1.390189,0.010766,0.023196
1573524798.928476,0.294936,-0.414555,0.022910,0.000979,-0.015873,0.059973,2.648413,0.203558,0.062637,1.494767,0.024678,0.040102
1573524798.958356,0.288734,-0.412486,0.021585,0.000447,-0.017883,0.057788,2.732838,0.210793,0.067385,1.546413,0.033532,0.051798
1573524799.082876,0.284207,-0.413045,0.021137,-0.000365,-0.022294,0.054396,2.951151,0.220362,0.075730,1.631347,0.027886,0.055738
1573524799.177506,0.281725,-0.408661,0.020679,-0.002281,-0.026363,0.055735,3.128991,0.224874,0.081337,1.667953,0.010211,0.046864
1573524799.306986,0.277858,-0.400131,0.020657,-0.000273,-0.027405,0.057506,3.365440,0.228295,0.086542,1.712730,0.000861,0.046478
1573524799.366756,0.275105,-0.390986,0.021415,0.000863,-0.028515,0.057866,3.483128,0.230603,0.086612,1.739548,-0.000173,0.046158
1573524799.486286,0.271398,-0.380915,0.021935,-0.000247,-0.029602,0.056824,3.714371,0.233031,0.090259,1.796992,-0.010235,0.039908
1573524799.620756,0.268507,-0.371649,0.022431,0.000103,-0.029892,0.057529,3.973505,0.232143,0.092786,1.837987,-0.012981,0.029947
1573524799.725346,0.265321,-0.364175,0.022591,0.003614,-0.031899,0.057411,4.186580,0.231391,0.094192,1.877913,-0.037731,0.018937
1573524799.874746,0.261167,-0.347436,0.021733,0.007474,-0.031126,0.055108,4.488097,0.226161,0.098550,1.862399,-0.043419,0.028956
1573524800.024166,0.260109,-0.336823,0.021361,0.010086,-0.030526,0.057119,4.766543,0.221230,0.103129,1.787674,-0.046173,0.028883
1573524800.123776,0.259115,-0.321602,0.020994,0.012967,-0.030660,0.060982,4.950440,0.217987,0.105282,1.749625,-0.056495,0.028285
1573524800.223386,0.259705,-0.316042,0.021088,0.014201,-0.032826,0.065498,5.120460,0.213139,0.107003,1.714316,-0.066744,0.032958
1573524800.377776,0.261229,-0.314607,0.020811,0.016954,-0.033140,0.067747,5.369778,0.204532,0.112574,1.627472,-0.076305,0.025293
1573524800.472406,0.262161,-0.323479,0.020574,0.018689,-0.033285,0.068086,5.544559,0.199940,0.115772,1.601656,-0.074963,0.020814
1573524800.567036,0.260685,-0.337916,0.020311,0.018914,-0.033730,0.064058,5.776769,0.194804,0.118359,1.662723,-0.083034,0.021798
1573524800.726416,0.259592,-0.351501,0.020311,0.017324,-0.034499,0.059193,6.117653,0.181470,0.120204,1.740763,-0.100982,0.016836
1573524800.821036,0.258355,-0.375705,0.020983,0.018549,-0.034508,0.057662,6.355096,0.173839,0.119302,1.816080,-0.095769,0.016037
1573524800.915666,0.252823,-0.396804,0.021434,0.017797,-0.033185,0.055844,6.624114,0.168346,0.119301,1.901062,-0.088124,0.012385
1573524801.080036,0.244981,-0.421555,0.021620,0.016803,-0.033323,0.056065,7.038337,0.152053,0.119989,1.934328,-0.102683,-0.006934
1573524801.224466,0.238694,-0.450433,0.021676,0.016115,-0.035589,0.058598,7.428218,0.145415,0.121292,1.981814,-0.084966,-0.002654
1573524801.329056,0.235989,-0.469653,0.022268,0.015305,-0.035687,0.056434,7.686561,0.141353,0.119027,2.024578,-0.056431,0.009184
1573524801.428666,0.238201,-0.507241,0.022871,0.014120,-0.037208,0.059139,7.951125,0.141811,0.119425,2.089154,-0.049959,0.011634
1573524801.578086,0.241399,-0.531877,0.022817,0.012826,-0.038300,0.066146,8.303991,0.138724,0.123149,2.135085,-0.054901,0.008243
1573524801.707576,0.245661,-0.538809,0.022195,0.013197,-0.036841,0.070911,8.594887,0.136053,0.128632,2.166987,-0.060000,0.003310
1573524801.832096,0.250124,-0.559057,0.022224,0.011787,-0.035128,0.077175,8.892835,0.135151,0.131593,2.198907,-0.050379,0.008957
1573524801.926726,0.252390,-0.593314,0.022807,0.011320,-0.034247,0.080869,9.120790,0.131153,0.133027,2.239756,-0.048166,0.011527
1573524802.056226,0.253041,-0.627626,0.023717,0.009044,-0.033146,0.085555,9.431005,0.120724,0.134400,2.275801,-0.045811,0.016417
1573524802.160826,0.252610,-0.671407,0.024667,0.007637,-0.033988,0.088474,9.658093,0.105022,0.137574,2.292859,-0.069748,0.018327
1573524802.275376,0.253396,-0.748393,0.026437,0.005295,-0.034388,0.090766,9.940387,0.084603,0.139890,2.352851,-0.086452,0.005719
1573524802.464636,0.251452,-0.760522,0.026502,0.004155,-0.033802,0.091706,10.437189,0.065628,0.142786,2.422835,-0.084977,0.015837
1573524802.559266,0.254664,-0.807101,0.027511,0.004169,-0.032792,0.091992,10.662907,0.054919,0.146291,2.448063,-0.085240,0.021234
1573524802.718636,0.257322,-0.846125,0.028435,0.003270,-0.033029,0.091591,11.064388,0.038545,0.149864,2.504464,-0.076520,0.019964
1573524802.813266,0.259045,-0.870467,0.029019,0.000744,-0.033522,0.092292,11.314502,0.027459,0.152629,2.538798,-0.081219,0.021915
1573524802.907896,0.259935,-0.880286,0.028983,-0.002514,-0.033621,0.093009,11.578942,0.016613,0.157278,2.571752,-0.100831,0.026557
1573524803.032406,0.261342,-0.895233,0.029387,-0.005590,-0.033484,0.092954,11.878443,-0.001880,0.161212,2.576172,-0.113847,0.022092
1573524803.161896,0.260453,-0.895382,0.029427,-0.009301,-0.031764,0.095198,12.202845,-0.022910,0.164800,2.596595,-0.110499,0.030006
1573524803.316276,0.258583,-0.897952,0.029460,-0.012502,-0.030131,0.097181,12.609103,-0.048405,0.171720,2.621807,-0.118307,0.038817
1573524803.475666,0.256514,-0.898591,0.029578,-0.016000,-0.027911,0.100696,13.032297,-0.078269,0.176000,2.652203,-0.126754,0.019361
1573524803.635046,0.255724,-0.899633,0.029633,-0.017656,-0.024494,0.104656,13.463080,-0.101942,0.180609,2.684258,-0.124145,0.030506
1573524803.729676,0.252838,-0.884382,0.029312,-0.018931,-0.022781,0.105006,13.729686,-0.120256,0.182249,2.709852,-0.126829,0.032128
1573524803.918926,0.252169,-0.875537,0.029139,-0.019273,-0.022244,0.107192,14.245884,-0.144219,0.185181,2.740436,-0.124898,0.027626
1573524804.013546,0.249001,-0.838698,0.028289,-0.020212,-0.022686,0.109003,14.517431,-0.156840,0.182090,2.757321,-0.148537,0.022229
1573524804.167936,0.249993,-0.821443,0.027946,-0.019486,-0.022352,0.109799,14.918813,-0.172732,0.182589,2.751157,-0.148153,0.011340
1573524804.327316,0.249375,-0.815139,0.027718,-0.019371,-0.021495,0.114581,15.333887,-0.194964,0.186459,2.763682,-0.138319,0.013177
1573524804.421936,0.250491,-0.823201,0.027930,-0.020443,-0.019780,0.119737,15.605064,-0.208969,0.188177,2.775576,-0.139125,0.013897
1573524804.581306,0.249715,-0.831942,0.028242,-0.022271,-0.017567,0.120632,16.005050,-0.242680,0.190580,2.764754,-0.166075,0.016929
1573524804.675936,0.244159,-0.821490,0.027873,-0.024295,-0.016885,0.121500,16.276548,-0.280703,0.193612,2.768263,-0.193080,0.021904
1573524804.800446,0.241354,-0.811500,0.027544,-0.024399,-0.015688,0.122314,16.654977,-0.310757,0.195482,2.803104,-0.204151,0.011289
1573524804.929936,0.239865,-0.807176,0.027319,-0.024246,-0.016172,0.123844,17.039438,-0.341134,0.197603,2.832429,-0.210515,0.003468
1573524805.024556,0.240595,-0.811268,0.027350,-0.024956,-0.014648,0.125223,17.302969,-0.361890,0.200029,2.840668,-0.217108,0.006432
1573524805.178956,0.241647,-0.814991,0.027401,-0.025699,-0.016492,0.127600,17.753039,-0.397949,0.202112,2.857150,-0.235055,0.005790
1573524805.308456,0.242711,-0.820099,0.027376,-0.027528,-0.017963,0.129320,18.115276,-0.434706,0.207526,2.875191,-0.244554,0.016634
1573524805.462836,0.243874,-0.821667,0.027249,-0.027492,-0.019514,0.130387,18.562071,-0.470356,0.213179,2.874470,-0.247769,0.011410
1573524805.557476,0.243621,-0.814238,0.026764,-0.028097,-0.020848,0.129672,18.844516,-0.497241,0.218491,2.887160,-0.265484,-0.001912
1573524805.716856,0.245311,-0.816267,0.026862,-0.028003,-0.022779,0.130494,19.296880,-0.533475,0.217812,2.909992,-0.262873,-0.002113
1573524805.811486,0.246312,-0.811120,0.026646,-0.027798,-0.025122,0.130710,19.585909,-0.550466,0.218631,2.930515,-0.277083,-0.003292
1573524805.970856,0.247385,-0.806445,0.026518,-0.027773,-0.026335,0.130712,20.062221,-0.588697,0.217959,2.947104,-0.268462,0.001996
1573524806.070466,0.248399,-0.802953,0.026214,-0.026786,-0.026297,0.129323,20.353483,-0.606024,0.222742,2.966916,-0.250941,0.000089
1573524806.224846,0.248789,-0.800449,0.026172,-0.026313,-0.027094,0.129027,20.794273,-0.640625,0.220929,2.959265,-0.255799,-0.005182
1573524806.319476,0.249067,-0.798690,0.026052,-0.025844,-0.026952,0.128722,21.089300,-0.661470,0.221582,2.979965,-0.260485,-0.009657
1573524806.473866,0.250555,-0.802129,0.026135,-0.024994,-0.027287,0.128931,21.536171,-0.691292,0.221404,2.973142,-0.254690,0.000669
1573524806.568496,0.252024,-0.807266,0.026273,-0.025305,-0.027725,0.129246,21.796518,-0.713152,0.222638,2.968957,-0.252095,0.007504
1573524806.727866,0.253839,-0.812817,0.026459,-0.024207,-0.028779,0.129362,22.245647,-0.739081,0.223560,2.965169,-0.248320,-0.005577
1573524806.852376,0.254009,-0.813835,0.026346,-0.023977,-0.029240,0.131123,22.670184,-0.769166,0.223853,3.001710,-0.255748,-0.015489
1573524806.966926,0.256274,-0.828319,0.026952,-0.023086,-0.029525,0.134120,22.939737,-0.785757,0.220317,2.969552,-0.237152,0.000210
1573524807.171116,0.257306,-0.831511,0.026788,-0.022451,-0.030011,0.137479,23.558387,-0.826008,0.227947,2.985645,-0.227065,0.003269
1573524807.265746,0.257560,-0.826398,0.026359,-0.022399,-0.030409,0.140170,23.880913,-0.842790,0.233887,3.008431,-0.202319,0.008875
1573524807.455006,0.257508,-0.827186,0.026412,-0.022313,-0.030722,0.141290,24.464384,-0.880567,0.231615,3.014514,-0.183276,-0.010566
1573524807.549636,0.257175,-0.824202,0.026417,-0.022383,-0.029559,0.141509,24.760908,-0.895918,0.226730,3.033229,-0.172576,-0.015541
1573524807.733906,0.257022,-0.823764,0.026284,-0.021987,-0.032551,0.141279,25.365625,-0.921034,0.227340,3.062455,-0.099625,-0.005279
1573524807.868386,0.257277,-0.821441,0.026031,-0.022514,-0.034171,0.141769,25.829632,-0.932240,0.233845,3.072353,-0.056621,0.016559
1573524808.022786,0.258355,-0.825397,0.026101,-0.022840,-0.036207,0.143948,26.317442,-0.938526,0.233850,3.116465,-0.004222,-0.016060
1573524808.142316,0.259427,-0.831123,0.026072,-0.023449,-0.036588,0.145610,26.705130,-0.935436,0.239119,3.122283,0.027393,-0.019386
1573524808.246906,0.262037,-0.844029,0.026240,-0.023893,-0.036687,0.145029,27.035633,-0.924676,0.245824,3.116806,0.069997,-0.000470
1573524808.401306,0.263715,-0.852602,0.026481,-0.026908,-0.037275,0.145643,27.534635,-0.931734,0.249748,3.142242,0.097811,0.015314
1573524808.560686,0.265072,-0.857829,0.026610,-0.028770,-0.036823,0.146701,28.062716,-0.917520,0.248966,3.135625,0.170140,-0.017706
1573524808.655306,0.265465,-0.863923,0.026805,-0.029999,-0.036578,0.147914,28.389029,-0.910693,0.246420,3.140440,0.236707,-0.013960
1573524808.814686,0.266240,-0.873022,0.027177,-0.030559,-0.037622,0.148833,28.896603,-0.873639,0.245671,3.161155,0.325531,0.006425
1573524808.909316,0.267978,-0.882198,0.027511,-0.029861,-0.038733,0.149781,29.223983,-0.824835,0.247084,3.169141,0.369771,0.004798
1573524809.063716,0.268247,-0.885221,0.027621,-0.029044,-0.037969,0.149422,29.699239,-0.752810,0.245350,3.159730,0.457736,-0.018799
1573524809.163336,0.268682,-0.888431,0.027734,-0.028390,-0.037296,0.150577,30.030164,-0.692753,0.242470,3.138141,0.529733,-0.008978
1573524809.257966,0.268946,-0.892576,0.027890,-0.028821,-0.037915,0.150479,30.351260,-0.645717,0.242365,3.114582,0.588895,0.022180
1573524809.412366,0.269621,-0.898389,0.027916,-0.028429,-0.038962,0.154260,30.848405,-0.541895,0.254797,3.098477,0.709693,0.044082
1573524809.506996,0.270363,-0.898344,0.027886,-0.028827,-0.039066,0.156001,31.146805,-0.465853,0.260506,3.078449,0.789204,0.048727
1573524809.601626,0.270322,-0.896619,0.027823,-0.029018,-0.038505,0.158601,31.393067,-0.383040,0.264642,3.034180,0.854977,0.025761
1573524809.696266,0.270696,-0.899329,0.027897,-0.028291,-0.039654,0.161812,31.630061,-0.275266,0.269848,3.006799,0.933097,0.032476
1573524809.855646,0.270165,-0.890631,0.027660,-0.027471,-0.041623,0.165872,32.120999,-0.103063,0.272082,2.996175,1.064656,0.068766
1573524809.950276,0.269607,-0.888085,0.027530,-0.028379,-0.041200,0.168985,32.377076,-0.011707,0.279938,2.947992,1.142165,0.068260
1573524810.074786,0.268871,-0.884639,0.027268,-0.028824,-0.040713,0.170705,32.735988,0.122131,0.291464,2.877895,1.223500,0.062564
1573524810.204286,0.268904,-0.886605,0.027000,-0.028921,-0.040708,0.172636,33.099660,0.276364,0.316154,2.817083,1.313700,0.075416
1573524810.298916,0.269263,-0.888085,0.026720,-0.029613,-0.039861,0.175555,33.369853,0.394844,0.337501,2.769906,1.396536,0.096739
1573524810.423426,0.269289,-0.892601,0.026672,-0.030603,-0.039748,0.178616,33.681839,0.558889,0.358867,2.693310,1.491030,0.093089
1573524810.518056,0.269184,-0.897957,0.026849,-0.030805,-0.039936,0.180825,33.924346,0.697771,0.367816,2.637990,1.564252,0.084484
1573524810.612686,0.268957,-0.897268,0.026916,-0.032134,-0.040514,0.183246,34.234080,0.818658,0.371491,2.607001,1.616767,0.093219
1573524810.707316,0.269234,-0.900186,0.026912,-0.034328,-0.040383,0.185745,34.497569,0.933882,0.388275,2.558048,1.673783,0.110985
1573524810.811916,0.270036,-0.901228,0.026836,-0.037504,-0.040373,0.188308,34.811307,1.058137,0.407363,2.505281,1.729639,0.124962
1573524810.961326,0.271753,-0.903707,0.026710,-0.041173,-0.039807,0.188956,35.232329,1.256387,0.438240,2.400194,1.815431,0.134173
1573524811.055956,0.274557,-0.899339,0.026282,-0.045062,-0.039268,0.188342,35.554171,1.351557,0.464396,2.331021,1.857641,0.154860
1573524811.150586,0.276379,-0.901846,0.026313,-0.048292,-0.038749,0.188547,35.867565,1.453802,0.484714,2.275880,1.892695,0.174646
1573524811.245216,0.277312,-0.894587,0.026037,-0.050481,-0.039140,0.188593,36.216559,1.584501,0.499014,2.240457,1.958491,0.173302
1573524811.369726,0.276474,-0.880977,0.025674,-0.051192,-0.040981,0.188072,36.663012,1.805918,0.506878,2.211328,2.065694,0.159035
1573524811.499216,0.275065,-0.869274,0.025269,-0.051951,-0.040169,0.186012,37.041003,2.049640,0.520915,2.097505,2.153885,0.172966
1573524811.583886,0.274695,-0.859727,0.024931,-0.052753,-0.039712,0.185072,37.302831,2.203912,0.534250,2.035361,2.207071,0.201443
1573524811.718356,0.276582,-0.854989,0.024598,-0.053925,-0.038243,0.184108,37.615387,2.470567,0.568004,1.937241,2.267972,0.204463
1573524811.812986,0.275863,-0.843365,0.024053,-0.052756,-0.037671,0.183292,37.844865,2.693736,0.584749,1.827706,2.338860,0.194059
1573524811.907616,0.277601,-0.830892,0.023577,-0.053050,-0.038445,0.182194,38.069982,2.892085,0.596913,1.720497,2.384316,0.195784
1573524812.002246,0.282334,-0.811379,0.023023,-0.053901,-0.039146,0.180047,38.430106,3.079170,0.598612,1.696569,2.435102,0.200940
1573524812.096876,0.286846,-0.785719,0.022045,-0.054652,-0.039828,0.178804,38.813366,3.287096,0.606883,1.684354,2.521389,0.200206
1573524812.256246,0.291855,-0.758224,0.021221,-0.056344,-0.040308,0.177484,39.296019,3.658978,0.616748,1.584938,2.600568,0.187631
1573524812.320996,0.292317,-0.734286,0.020286,-0.056676,-0.040510,0.176908,39.542781,3.824744,0.620246,1.572657,2.622705,0.189484
1573524812.445506,0.289932,-0.715012,0.019720,-0.056674,-0.041240,0.175810,39.862931,4.167301,0.625588,1.498742,2.674487,0.199103
1573524812.570016,0.289460,-0.690097,0.018733,-0.056764,-0.042269,0.176831,40.202952,4.512471,0.642759,1.408099,2.741876,0.218746
1573524812.664636,0.288589,-0.665567,0.017843,-0.056348,-0.043691,0.176265,40.462070,4.792099,0.650188,1.322285,2.819441,0.223659
1573524812.759266,0.291333,-0.639810,0.016965,-0.056723,-0.045487,0.176786,40.764539,5.057456,0.655749,1.292159,2.862881,0.209330
1573524812.853886,0.288150,-0.607206,0.015684,-0.055990,-0.046482,0.176534,41.015430,5.362836,0.660359,1.279750,2.928295,0.201810
1573524812.948516,0.285694,-0.578927,0.014559,-0.055225,-0.048206,0.176805,41.260515,5.672233,0.667893,1.282855,2.966873,0.196267
1573524813.043136,0.286380,-0.545675,0.013432,-0.055343,-0.049780,0.176778,41.550765,5.969206,0.666283,1.282039,3.006953,0.205067
1573524813.172626,0.287506,-0.509600,0.012220,-0.055612,-0.052236,0.175905,41.904258,6.383637,0.668602,1.222200,3.068656,0.201051
1573524813.267246,0.292467,-0.479586,0.011389,-0.056433,-0.053344,0.175784,42.210345,6.671227,0.662555,1.205128,3.104412,0.199142
1573524813.391756,0.288239,-0.449979,0.010329,-0.056259,-0.052802,0.175388,42.473986,7.098300,0.671182,1.135941,3.142715,0.194784
1573524813.521246,0.291156,-0.436666,0.010163,-0.057146,-0.052300,0.175088,42.707060,7.497563,0.676108,1.087313,3.152352,0.180123
1573524813.615866,0.294740,-0.420506,0.009893,-0.058135,-0.052723,0.175083,42.933192,7.785389,0.671133,1.102430,3.141883,0.161511
1573524813.770266,0.297188,-0.404392,0.009461,-0.058662,-0.052737,0.175186,43.200752,8.271656,0.678296,1.052758,3.157072,0.141374
1573524813.864896,0.296329,-0.394205,0.009312,-0.059249,-0.053395,0.175477,43.363820,8.584929,0.673521,1.018814,3.176422,0.138407
1573524813.954536,0.292809,-0.388461,0.009267,-0.059654,-0.053743,0.174200,43.484129,8.890821,0.670454,0.988492,3.177581,0.131469
1573524814.054136,0.300630,-0.371992,0.009200,-0.061505,-0.054549,0.173626,43.728971,9.168711,0.654796,0.993603,3.144142,0.136580
1573524814.148766,0.297961,-0.358477,0.008446,-0.061648,-0.055165,0.172914,43.873409,9.494258,0.672539,0.965353,3.144974,0.142335
1573524814.243386,0.301592,-0.327666,0.007576,-0.063297,-0.055980,0.173261,44.169439,9.791190,0.660281,1.029633,3.121218,0.126173
1573524814.402766,0.304100,-0.311080,0.007158,-0.063828,-0.057456,0.173337,44.463816,10.294916,0.663750,1.092272,3.084242,0.107448
1573524814.497386,0.303009,-0.302799,0.006910,-0.064077,-0.056488,0.173997,44.607924,10.598068,0.663876,1.099244,3.068574,0.104358
1573524814.592016,0.314760,-0.287915,0.007054,-0.066376,-0.058647,0.172333,44.900516,10.822151,0.643474,1.190487,2.999429,0.111236
1573524814.721506,0.310892,-0.270627,0.006369,-0.066324,-0.058155,0.173007,45.127551,11.260830,0.647640,1.228246,2.968789,0.113045
1573524814.816136,0.325644,-0.217819,0.005212,-0.068408,-0.060950,0.172698,45.701034,11.519326,0.611605,1.435261,2.935480,0.110456
1573524814.970536,0.325991,-0.196912,0.004459,-0.069454,-0.059991,0.172092,46.052334,11.996403,0.619099,1.438462,2.891166,0.099463
1573524815.055206,0.319296,-0.182229,0.003801,-0.069010,-0.059252,0.173359,46.243956,12.327505,0.618673,1.461789,2.904690,0.097557
1573524815.159796,0.313584,-0.168211,0.003492,-0.068394,-0.059382,0.173758,46.491487,12.723994,0.605626,1.499410,2.916416,0.100293
1573524815.254426,0.311618,-0.153484,0.003181,-0.069355,-0.058565,0.173154,46.736805,13.037726,0.592374,1.533322,2.889009,0.106539
1573524815.403856,0.321646,-0.111351,0.002121,-0.071631,-0.059528,0.173043,47.358595,13.447259,0.585930,1.698523,2.814292,0.102628
1573524815.508436,0.318379,-0.069236,0.000768,-0.072642,-0.058649,0.172978,47.861585,13.856791,0.565908,1.835805,2.834563,0.101057
1573524815.603066,0.324478,-0.039627,0.000099,-0.074564,-0.059222,0.173458,48.304117,14.117713,0.548903,1.962230,2.802666,0.092975
1573524815.697706,0.330925,-0.008677,-0.000479,-0.076099,-0.059277,0.173533,48.779628,14.375491,0.526662,2.103027,2.776822,0.097843
1573524815.792336,0.341931,0.034321,-0.001037,-0.078151,-0.059687,0.173907,49.396590,14.623311,0.476434,2.308860,2.745672,0.092177
1573524815.951716,0.348335,0.053792,-0.000971,-0.079234,-0.060415,0.172754,49.981144,15.041096,0.441971,2.440642,2.720673,0.069065
1573524816.076236,0.344428,0.072305,-0.001302,-0.078766,-0.061782,0.173009,50.484664,15.509685,0.416747,2.556778,2.778321,0.055842
1573524816.205736,0.343638,0.094064,-0.001757,-0.079257,-0.062331,0.172443,51.036089,15.952069,0.397608,2.701765,2.813119,0.067951
1573524816.300366,0.342332,0.106431,-0.001827,-0.079360,-0.063003,0.174247,51.438638,16.292438,0.374510,2.804852,2.849686,0.073935
1573524816.414926,0.331554,0.116365,-0.002227,-0.077925,-0.062557,0.175635,51.886625,16.823825,0.363856,2.894695,2.935560,0.065658
1573524816.549396,0.337635,0.117388,-0.001590,-0.078611,-0.061663,0.175636,52.329236,17.128408,0.332433,2.962253,2.921653,0.043445
1573524816.644036,0.336247,0.117419,-0.000915,-0.077859,-0.061580,0.176453,52.667418,17.449423,0.283724,3.022108,2.965512,0.037351
1573524816.773526,0.324186,0.118049,-0.001012,-0.075698,-0.061534,0.177408,53.088148,18.062559,0.268565,3.115876,3.088638,0.028970
1573524816.868156,0.313717,0.107906,-0.000698,-0.073365,-0.060792,0.178940,53.290222,18.498858,0.250010,3.118552,3.151496,0.026221
1573524816.962796,0.312661,0.096387,-0.000126,-0.071461,-0.061210,0.179106,53.480854,18.797851,0.236441,3.100970,3.180810,0.036669
1573524817.057426,0.304414,0.084471,0.000254,-0.069517,-0.061412,0.181154,53.683828,19.209629,0.226669,3.075909,3.237434,0.045890
1573524817.211826,0.294487,0.074331,0.000386,-0.067443,-0.061479,0.181249,54.075301,19.858232,0.231988,3.108057,3.326233,0.033085
1573524817.306456,0.279804,0.070658,0.000082,-0.065056,-0.060405,0.181706,54.326260,20.428541,0.238304,3.137056,3.451640,0.028234
1573524817.465846,0.273492,0.065057,0.000114,-0.063020,-0.060735,0.181069,54.760096,21.086758,0.243188,3.176171,3.551520,0.032004
1573524817.560476,0.261293,0.057317,-0.000039,-0.060342,-0.061476,0.180264,54.992039,21.659344,0.249748,3.178939,3.664723,0.039110
1573524817.655106,0.251223,0.047043,0.000190,-0.057810,-0.061637,0.179174,55.189402,22.181255,0.241266,3.155413,3.751142,0.037494
1573524817.814486,0.246736,0.038140,0.000464,-0.056215,-0.060836,0.177718,55.582840,22.822640,0.240417,3.171304,3.792856,0.027660
1573524817.909126,0.233900,0.034661,0.000000,-0.054467,-0.059671,0.178545,55.839289,23.432850,0.260752,3.176579,3.917682,0.020208
1573524818.003756,0.232422,0.023587,0.000249,-0.054006,-0.059337,0.177886,56.008556,23.746280,0.270270,3.173018,3.913166,0.022091
1573524818.098396,0.218106,0.019423,-0.000236,-0.051042,-0.058977,0.178190,56.267828,24.450425,0.290728,3.167174,4.048092,0.034957
1573524818.193026,0.204341,0.015336,-0.000743,-0.048274,-0.057989,0.180014,56.505775,25.140780,0.315535,3.146200,4.167959,0.062203
1573524818.352406,0.190693,0.010476,-0.000997,-0.046357,-0.057166,0.180795,56.954396,26.103959,0.329583,3.161239,4.282157,0.065338
1573524818.447026,0.182509,0.005326,-0.000968,-0.044723,-0.055963,0.179780,57.169547,26.661056,0.328868,3.168058,4.342460,0.052509
1573524818.541666,0.179026,-0.000405,-0.000631,-0.042672,-0.056576,0.178072,57.388246,27.154618,0.313329,3.180186,4.399040,0.047286
1573524818.666186,0.170708,-0.000414,-0.000797,-0.040618,-0.056422,0.177318,57.774692,27.938880,0.314274,3.197507,4.511895,0.061730
1573524818.795686,0.158926,0.001024,-0.001092,-0.038026,-0.055545,0.176727,58.180202,28.864012,0.315209,3.210570,4.638041,0.064480
1573524818.920196,0.153091,0.001942,-0.001301,-0.036879,-0.053597,0.175727,58.556035,29.587888,0.327476,3.235092,4.679064,0.056714
1573524819.014826,0.148705,0.002683,-0.001493,-0.035890,-0.052272,0.176655,58.819816,30.130434,0.337720,3.235093,4.714414,0.064206
1573524819.139336,0.143393,0.004924,-0.001830,-0.035151,-0.051117,0.177001,59.214672,30.859236,0.359505,3.236353,4.764288,0.082120
1573524819.268836,0.141342,0.005476,-0.001870,-0.033925,-0.050662,0.177188,59.598570,31.548631,0.372424,3.242573,4.779773,0.092925
1573524819.363476,0.136547,0.009472,-0.002293,-0.032938,-0.049372,0.179256,59.910957,32.156190,0.396443,3.251698,4.825420,0.103903
1573524819.458096,0.132912,0.011646,-0.002539,-0.031669,-0.048619,0.180038,60.184664,32.724696,0.414444,3.245565,4.865778,0.105594
1573524819.612506,0.129473,0.013254,-0.002711,-0.031070,-0.047722,0.180987,60.673301,33.573931,0.433545,3.261908,4.883425,0.104108
1573524819.707126,0.126902,0.014442,-0.002825,-0.031123,-0.047014,0.182702,60.979574,34.095740,0.445567,3.274590,4.888818,0.108594
1573524819.801766,0.126157,0.013828,-0.002892,-0.031255,-0.046367,0.182325,61.251962,34.542021,0.463254,3.266741,4.870674,0.110749
1573524819.896396,0.122186,0.015912,-0.003198,-0.031347,-0.046563,0.184599,61.596418,35.138400,0.486670,3.287260,4.902360,0.113142
1573524820.055776,0.117757,0.017593,-0.003442,-0.032044,-0.047549,0.184874,62.193454,36.077451,0.512592,3.330947,4.934254,0.116405
1573524820.150406,0.113443,0.017773,-0.003433,-0.032181,-0.047645,0.184535,62.539533,36.684634,0.511653,3.337474,4.967405,0.120472
1573524820.245036,0.110962,0.016718,-0.003412,-0.032029,-0.048369,0.184005,62.856019,37.245401,0.517930,3.331466,4.996966,0.129514
1573524820.339656,0.109585,0.016132,-0.003384,-0.032231,-0.048091,0.184420,63.165116,37.748107,0.526818,3.344500,4.996432,0.124483
1573524820.499056,0.108610,0.016448,-0.003520,-0.032348,-0.047926,0.184730,63.706374,38.563362,0.552726,3.366108,5.000662,0.122063
1573524820.593686,0.107911,0.015836,-0.003503,-0.033108,-0.048190,0.185162,64.042729,39.044226,0.570593,3.378166,4.996634,0.123987
1573524820.688316,0.108698,0.013682,-0.003297,-0.032279,-0.048389,0.185490,64.300991,39.497493,0.574561,3.349278,4.994065,0.126820
1573524820.812836,0.110471,0.011617,-0.003026,-0.032090,-0.048856,0.185309,64.679323,40.051323,0.574849,3.338194,4.962711,0.129592
1573524820.942336,0.111486,0.009684,-0.002795,-0.032372,-0.049250,0.184767,65.089056,40.649178,0.577834,3.343017,4.932712,0.118448
1573524821.066846,0.110025,0.008885,-0.002873,-0.031836,-0.048944,0.184866,65.482938,41.315937,0.595121,3.342020,4.943935,0.118697
1573524821.161486,0.110254,0.006409,-0.002712,-0.031006,-0.049411,0.185027,65.739362,41.795119,0.592739,3.318815,4.940894,0.125202
1573524821.256116,0.110145,0.005082,-0.002637,-0.030476,-0.048936,0.186024,66.007538,42.261950,0.599623,3.306628,4.935453,0.125860
1573524821.400556,0.109254,0.004025,-0.002510,-0.029616,-0.048882,0.186533,66.454578,43.032287,0.604696,3.291400,4.930219,0.131442
1573524821.510126,0.109552,0.003084,-0.002398,-0.028619,-0.048492,0.186562,66.746422,43.573166,0.607182,3.269415,4.930814,0.127982
1573524821.604756,0.110688,0.002296,-0.002268,-0.028635,-0.048494,0.187603,67.034364,43.980600,0.609749,3.264415,4.907913,0.121732
1573524821.699386,0.111573,0.001778,-0.002209,-0.027981,-0.048273,0.187750,67.301332,44.418282,0.619605,3.257710,4.891941,0.125118
1573524821.794016,0.111892,0.001380,-0.002141,-0.027179,-0.048658,0.187289,67.588614,44.903131,0.625761,3.250957,4.902238,0.125007
1573524821.888646,0.112355,0.000635,-0.001981,-0.026800,-0.048472,0.187128,67.865393,45.353832,0.625074,3.235815,4.892316,0.124141
1573524822.013156,0.113408,0.000075,-0.001845,-0.026841,-0.048169,0.187182,68.240470,45.903534,0.630664,3.230340,4.868551,0.116803
1573524822.142646,0.114210,-0.000421,-0.001635,-0.026800,-0.047315,0.186697,68.628806,46.466826,0.623899,3.236775,4.822036,0.107201
1573524822.267156,0.114644,-0.000594,-0.001447,-0.026065,-0.047190,0.187017,69.013668,47.071362,0.616983,3.207334,4.839318,0.112545
1573524822.361786,0.114588,-0.000591,-0.001351,-0.024777,-0.047303,0.187291,69.288355,47.583985,0.620275,3.198020,4.841551,0.109137
1573524822.456416,0.114954,-0.001271,-0.001145,-0.024658,-0.047526,0.187950,69.584529,48.038501,0.608528,3.200404,4.835126,0.104922
1573524822.551046,0.114640,-0.001299,-0.001032,-0.024243,-0.047949,0.188568,69.891541,48.549425,0.606298,3.191997,4.844562,0.109529
1573524822.710426,0.114070,-0.000958,-0.001013,-0.023352,-0.048070,0.189134,70.385001,49.398480,0.620002,3.164917,4.868155,0.118497
1573524822.805056,0.115484,-0.001611,-0.000931,-0.022031,-0.047688,0.188954,70.584252,49.828944,0.626559,3.141587,4.848177,0.111504
1573524822.899686,0.113148,-0.000421,-0.001015,-0.021345,-0.048064,0.189392,70.921575,50.464534,0.633384,3.138740,4.895398,0.123578
1573524823.014246,0.113672,-0.000757,-0.001023,-0.021083,-0.048263,0.188554,71.265041,51.010058,0.649762,3.123829,4.893177,0.132281
1573524823.153696,0.111495,-0.000294,-0.000930,-0.020658,-0.049197,0.188615,71.750654,51.875142,0.650930,3.141907,4.933673,0.111326
1573524823.248326,0.110377,0.000223,-0.000909,-0.019871,-0.050769,0.189235,72.090956,52.506597,0.652790,3.146487,4.988973,0.111127
1573524823.342956,0.111776,-0.001253,-0.000700,-0.019357,-0.052212,0.188839,72.356567,52.966499,0.646782,3.129602,4.996883,0.110948
1573524823.437596,0.112171,-0.002511,-0.000488,-0.019108,-0.053095,0.187319,72.649827,53.447356,0.638926,3.134562,5.006067,0.101412
1573524823.591996,0.110035,-0.001394,-0.000540,-0.018764,-0.052432,0.186120,73.167338,54.342561,0.648218,3.134361,5.029346,0.088460
1573524823.686626,0.110167,-0.001466,-0.000502,-0.019207,-0.052577,0.186710,73.477526,54.795482,0.653993,3.142675,5.013372,0.096082
1573524823.816126,0.109770,-0.001229,-0.000504,-0.018455,-0.051950,0.186121,73.848291,55.490766,0.664803,3.113190,5.019261,0.101974
1573524823.910756,0.110484,-0.001627,-0.000450,-0.018638,-0.051838,0.186522,74.127523,55.906137,0.671487,3.104989,4.999077,0.097468
1573524824.035266,0.111919,-0.002627,-0.000300,-0.018158,-0.052589,0.186999,74.482403,56.492586,0.676393,3.115739,4.994841,0.094093
1573524824.159776,0.113680,-0.003614,-0.000165,-0.017388,-0.053098,0.186960,74.812976,57.061265,0.686131,3.082672,4.983172,0.117931
1573524824.289266,0.113538,-0.003754,-0.000048,-0.017050,-0.053591,0.186746,75.230249,57.753218,0.683574,3.082325,5.006523,0.099511
1573524824.413786,0.113035,-0.003762,0.000110,-0.016953,-0.053166,0.185789,75.623815,58.400468,0.671186,3.079817,5.013934,0.090102
1573524824.508406,0.112409,-0.003545,0.000137,-0.016107,-0.054115,0.185823,75.945256,58.999730,0.669358,3.094785,5.045515,0.099549
1573524824.637906,0.111917,-0.003842,0.000363,-0.017210,-0.054373,0.186704,76.407697,59.629679,0.654982,3.115182,5.025447,0.089788
1573524824.762426,0.111627,-0.003554,0.000394,-0.016858,-0.054425,0.187123,76.810775,60.295523,0.663172,3.092077,5.045588,0.085268
1573524824.886936,0.111078,-0.003451,0.000508,-0.017386,-0.054260,0.187638,77.233639,60.923467,0.657786,3.118263,5.038215,0.080817
1573524825.016436,0.111255,-0.003480,0.000579,-0.018008,-0.053437,0.187959,77.629619,61.493166,0.662605,3.123264,4.998834,0.078827
1573524825.111066,0.111276,-0.003001,0.000504,-0.017598,-0.052291,0.187527,77.878727,61.949519,0.676698,3.087978,4.989065,0.089809
1573524825.235586,0.112014,-0.003137,0.000478,-0.016745,-0.052384,0.187820,78.213648,62.572065,0.692675,3.062133,4.993225,0.099095
1573524825.360106,0.114115,-0.004232,0.000567,-0.016941,-0.051994,0.187614,78.511136,62.994846,0.704801,3.054850,4.941702,0.096513
1573524825.454736,0.115412,-0.004821,0.000645,-0.017285,-0.052557,0.189222,78.782545,63.366093,0.710416,3.061945,4.931540,0.096270
1573524825.559336,0.115131,-0.004378,0.000669,-0.017735,-0.051999,0.190193,79.116305,63.854734,0.714275,3.077908,4.927785,0.095237
1573524825.708746,0.113129,-0.003238,0.000672,-0.017607,-0.052011,0.190731,79.658175,64.756268,0.717412,3.097874,4.961546,0.101697
1573524825.803386,0.113476,-0.003249,0.000724,-0.017625,-0.052028,0.191543,79.948864,65.208851,0.721569,3.089657,4.957244,0.115307
1573524825.898016,0.113486,-0.003223,0.000741,-0.018345,-0.051794,0.192001,80.264413,65.620598,0.730525,3.102368,4.940781,0.103735
1573524825.992646,0.112258,-0.002437,0.000731,-0.019196,-0.051133,0.192381,80.628782,66.093199,0.738706,3.130454,4.949604,0.093681
1573524826.152036,0.112553,-0.002829,0.000810,-0.018925,-0.051983,0.192385,81.146853,66.921604,0.744079,3.176420,4.983402,0.090752
1573524826.256626,0.110417,-0.002287,0.000782,-0.019575,-0.052298,0.190979,81.601170,67.571235,0.741781,3.201717,5.020584,0.097362
1573524826.406046,0.108437,-0.000966,0.000662,-0.018862,-0.052931,0.191705,82.170631,68.584118,0.763352,3.217710,5.099284,0.086467
1573524826.505656,0.108682,-0.001078,0.000699,-0.018589,-0.052737,0.190958,82.474527,69.089275,0.766398,3.225951,5.107079,0.078906
1573524826.635156,0.108297,-0.000960,0.000732,-0.018140,-0.053002,0.190190,82.923357,69.836395,0.771489,3.239039,5.133717,0.087675
1573524826.749706,0.107298,-0.001046,0.000780,-0.018989,-0.053443,0.189330,83.394323,70.463078,0.769084,3.276284,5.148189,0.089957
1573524826.844346,0.106375,-0.000675,0.000781,-0.020346,-0.052614,0.189268,83.756333,70.880755,0.772108,3.289734,5.131950,0.096978
1573524826.938986,0.107360,-0.000748,0.000884,-0.020453,-0.051895,0.190444,84.011759,71.252364,0.772957,3.276421,5.110543,0.094056
1573524827.048566,0.108493,-0.001219,0.000955,-0.020485,-0.051702,0.190419,84.329075,71.708568,0.778811,3.290703,5.092413,0.089775
1573524827.168106,0.108240,-0.001011,0.000951,-0.020340,-0.051707,0.190340,84.744321,72.352990,0.788373,3.310107,5.102475,0.100944
1573524827.287636,0.106314,-0.000178,0.000975,-0.020188,-0.051929,0.190383,85.224865,73.144229,0.786506,3.337097,5.153675,0.094333
1573524827.382276,0.109279,-0.001473,0.001139,-0.019480,-0.051505,0.190187,85.349745,73.392121,0.786915,3.294425,5.109728,0.087631
1573524827.541666,0.110439,-0.001951,0.001175,-0.018869,-0.051404,0.190344,85.781746,74.142425,0.801780,3.285278,5.103418,0.099191
1573524827.636296,0.110635,-0.001657,0.001113,-0.019463,-0.050023,0.190568,86.027188,74.482695,0.822536,3.262196,5.069914,0.105207
1573524827.760816,0.109686,-0.000995,0.001095,-0.019876,-0.049635,0.191190,86.474412,75.143865,0.831998,3.296648,5.073280,0.082165
1573524827.855446,0.108498,-0.000317,0.001043,-0.020468,-0.049637,0.192003,86.883096,75.687696,0.845907,3.333419,5.082819,0.087917
1573524827.984956,0.109642,-0.001111,0.001165,-0.020333,-0.050341,0.192004,87.299923,76.323569,0.845708,3.332083,5.086751,0.101552
1573524828.109466,0.108566,-0.000800,0.001184,-0.020642,-0.050983,0.192566,87.814842,77.087279,0.847196,3.369673,5.119019,0.092138
1573524828.233986,0.107662,-0.000911,0.001463,-0.019708,-0.052289,0.192491,88.285433,77.963554,0.814825,3.398196,5.199683,0.075863
1573524828.328616,0.106195,-0.000353,0.001291,-0.020523,-0.052563,0.192423,88.725959,78.547349,0.839816,3.458044,5.206786,0.082583
1573524828.458126,0.106162,-0.000656,0.001315,-0.021083,-0.053264,0.192903,89.235830,79.224735,0.846936,3.464060,5.207253,0.116563
1573524828.582626,0.106592,-0.001064,0.001350,-0.021791,-0.053274,0.192981,89.694188,79.765442,0.860173,3.477369,5.173398,0.120667
1573524828.677256,0.105931,-0.000899,0.001362,-0.021420,-0.053963,0.193021,90.081816,80.400946,0.866384,3.509943,5.221917,0.124362
1573524828.836636,0.105789,-0.000833,0.001438,-0.021132,-0.053977,0.192989,90.644744,81.286023,0.873769,3.533864,5.263066,0.118324
1573524828.986046,0.106608,-0.001465,0.001609,-0.020655,-0.054214,0.192330,91.133107,82.057707,0.868605,3.546473,5.264980,0.106518
1573524829.090646,0.106231,-0.001603,0.001731,-0.020948,-0.054522,0.192028,91.562455,82.648809,0.857821,3.553949,5.285113,0.091729
1573524829.185276,0.104368,-0.000466,0.001764,-0.021070,-0.054244,0.192837,92.002895,83.332951,0.847400,3.567738,5.320288,0.093607
1573524829.309796,0.101951,0.000760,0.001786,-0.021320,-0.054152,0.193204,92.592080,84.215690,0.838796,3.632708,5.358825,0.081142
1573524829.404426,0.100164,0.001801,0.001696,-0.021337,-0.054784,0.194318,93.060938,84.953132,0.849743,3.664762,5.401853,0.085519
1573524829.528946,0.101058,0.001228,0.001856,-0.022175,-0.053840,0.194164,93.465288,85.381767,0.842565,3.652684,5.351256,0.088730
1573524829.653476,0.103525,0.000245,0.002085,-0.020994,-0.053460,0.194393,93.710231,85.867071,0.836949,3.611942,5.320980,0.090171
1573524829.753086,0.106028,-0.000502,0.002219,-0.020677,-0.052180,0.194306,93.865390,86.073792,0.837231,3.576347,5.249285,0.093996
1573524829.847716,0.107182,-0.000824,0.002192,-0.019546,-0.052316,0.194583,94.105937,86.553909,0.856679,3.560656,5.256229,0.091392
1573524830.007106,0.106728,-0.000255,0.002156,-0.019036,-0.052051,0.195282,94.663294,87.472616,0.871044,3.565488,5.263209,0.096433
1573524830.101746,0.106857,0.000234,0.002077,-0.018280,-0.051236,0.195532,94.921339,87.967481,0.890205,3.531593,5.264771,0.107631
1573524830.196386,0.107129,0.000610,0.002048,-0.017002,-0.051148,0.196372,95.184933,88.548782,0.906585,3.498169,5.305580,0.101148
1573524830.291016,0.107150,0.001139,0.001987,-0.016362,-0.050374,0.196749,95.444685,89.057781,0.923878,3.490826,5.309847,0.090113
1573524830.385646,0.108190,0.000786,0.001926,-0.016353,-0.050492,0.197884,95.705004,89.416286,0.952128,3.504422,5.274294,0.087424
1573524830.530096,0.110932,-0.000423,0.002005,-0.016189,-0.049999,0.197936,95.964845,89.795354,0.972565,3.426968,5.204790,0.112890
1573524830.634686,0.108675,0.000745,0.001953,-0.016365,-0.050755,0.198439,96.536489,90.671559,0.975333,3.472792,5.277244,0.102985
1573524830.729326,0.107012,0.001826,0.001936,-0.016643,-0.050547,0.199349,96.958475,91.320875,0.977156,3.497777,5.306533,0.099860
1573524830.858826,0.108517,0.001285,0.001998,-0.016329,-0.050637,0.200281,97.315352,91.865441,0.990183,3.491992,5.274376,0.114053
1573524830.953466,0.109377,0.001179,0.002006,-0.016289,-0.050112,0.200706,97.549015,92.217741,1.005748,3.454555,5.247987,0.131624
1573524831.048096,0.109943,0.000776,0.002120,-0.016301,-0.050013,0.200033,97.837870,92.643521,1.002594,3.452363,5.232287,0.120126
1573524831.142726,0.110021,0.000841,0.002111,-0.016312,-0.049510,0.199521,98.123508,93.076451,1.016085,3.454771,5.225698,0.113639
1573524831.282186,0.110360,0.000197,0.002318,-0.016013,-0.050654,0.199951,98.630139,93.921797,0.999271,3.465019,5.266874,0.123303
1573524831.391766,0.109990,-0.000147,0.002411,-0.016380,-0.051436,0.199644,99.091066,94.588802,0.993499,3.498459,5.292272,0.103599
1573524831.456516,0.109259,0.000102,0.002441,-0.016347,-0.051573,0.199441,99.365683,95.044037,0.987299,3.493382,5.318664,0.104068
1573524831.586016,0.109449,-0.000101,0.002526,-0.016057,-0.051539,0.198838,99.780334,95.727056,0.984918,3.492839,5.319829,0.104415
1573524831.645786,0.109652,-0.000343,0.002587,-0.016000,-0.051552,0.198364,99.958589,96.023397,0.982455,3.487951,5.319211,0.096272
1573524831.740416,0.110186,-0.000691,0.002640,-0.015825,-0.051714,0.198296,100.242228,96.488126,0.982888,3.475370,5.311331,0.092607
1573524831.835046,0.110425,-0.000970,0.002706,-0.016289,-0.051808,0.198509,100.560833,96.923347,0.985766,3.495993,5.296257,0.088102
1573524831.929686,0.110491,-0.001075,0.002743,-0.016626,-0.051921,0.198885,100.898631,97.393021,0.991426,3.497766,5.296785,0.102054
1573524832.059176,0.110648,-0.001383,0.002779,-0.017457,-0.052018,0.198981,101.374128,97.975264,0.999065,3.512942,5.266662,0.101346
1573524832.138876,0.110457,-0.001441,0.002803,-0.018253,-0.052015,0.199157,101.696455,98.330123,1.002716,3.537909,5.246261,0.100780
1573524832.248456,0.110058,-0.001197,0.002814,-0.018339,-0.051689,0.198868,102.097882,98.923898,1.010870,3.542645,5.246624,0.106643
1573524832.343076,0.109847,-0.001147,0.002797,-0.018660,-0.051641,0.198809,102.457691,99.399264,1.023798,3.548873,5.251967,0.105100
1573524832.437726,0.109621,-0.001114,0.002802,-0.019310,-0.051207,0.198383,102.813371,99.809262,1.031695,3.559178,5.225879,0.107430
1573524832.532356,0.109299,-0.000828,0.002792,-0.019290,-0.050851,0.198251,103.147669,100.317667,1.041316,3.562971,5.218806,0.105687
1573524832.656866,0.109328,-0.000957,0.002773,-0.019648,-0.050670,0.197687,103.582997,100.883519,1.059208,3.574556,5.185845,0.103629
1573524832.751506,0.110439,-0.001393,0.002836,-0.019531,-0.050857,0.198556,103.855723,101.249133,1.064929,3.545610,5.166880,0.116694
1573524832.846146,0.109472,-0.001230,0.002769,-0.019706,-0.051585,0.198249,104.302251,101.915937,1.084140,3.573614,5.223471,0.115645
1573524832.940776,0.110095,-0.001447,0.002772,-0.019640,-0.051692,0.198813,104.617462,102.368684,1.111263,3.571898,5.224704,0.116815
1573524833.035416,0.109484,-0.001357,0.002762,-0.020072,-0.051859,0.198508,105.064814,102.976134,1.130022,3.610886,5.245684,0.113431
1573524833.130046,0.109669,-0.001248,0.002762,-0.020316,-0.051454,0.198947,105.386819,103.413004,1.143688,3.618302,5.226819,0.108015
1573524833.249586,0.109649,-0.000837,0.002725,-0.020506,-0.050559,0.199272,105.762903,103.933407,1.164265,3.590062,5.185596,0.119989
1573524833.354176,0.109431,-0.000693,0.002704,-0.020753,-0.050625,0.199678,106.164856,104.501359,1.179358,3.589150,5.183281,0.129751
1573524833.448806,0.109024,-0.000365,0.002606,-0.021051,-0.050081,0.199220,106.477657,104.930064,1.208255,3.588368,5.164766,0.136482
1573524833.543446,0.109089,-0.000190,0.002528,-0.021203,-0.049699,0.199398,106.772875,105.338439,1.230861,3.590548,5.144965,0.133231
1573524833.638076,0.109074,-0.000153,0.002494,-0.021348,-0.049624,0.199433,107.107795,105.797947,1.252153,3.598107,5.136897,0.145110
1573524833.732706,0.108831,-0.000167,0.002566,-0.021364,-0.049701,0.199139,107.462280,106.338858,1.251244,3.609029,5.148340,0.144536
1573524833.827336,0.108786,-0.000295,0.002670,-0.021779,-0.049519,0.198917,107.815188,106.794560,1.245015,3.611608,5.128929,0.142590
1573524833.951856,0.108471,-0.000262,0.002769,-0.022012,-0.049485,0.198884,108.304097,107.484873,1.241973,3.628130,5.149145,0.123602
1573524834.046486,0.107965,0.000031,0.002904,-0.022239,-0.049051,0.199043,108.680947,108.004773,1.221842,3.662351,5.144231,0.085357
1573524834.141116,0.107547,0.000255,0.002931,-0.022172,-0.048975,0.199029,109.057579,108.561106,1.220031,3.668723,5.156946,0.088764
1573524834.235756,0.107240,0.000607,0.002937,-0.022243,-0.048820,0.199709,109.421264,109.085416,1.225684,3.652111,5.154740,0.103414
1573524834.330386,0.106658,0.001037,0.002805,-0.022754,-0.048482,0.200014,109.819714,109.557570,1.256911,3.668395,5.113171,0.107723
1573524834.425016,0.106406,0.001697,0.002781,-0.022098,-0.048989,0.201593,110.176684,110.271522,1.266734,3.684301,5.155455,0.108056
1573524834.554516,0.109451,0.000486,0.002951,-0.021421,-0.048978,0.202730,110.352575,110.591523,1.268884,3.646304,5.095567,0.102003
1573524834.679026,0.109573,0.000903,0.002966,-0.021215,-0.048312,0.203489,110.719472,111.168276,1.282841,3.627304,5.079815,0.126388
1573524834.808526,0.109607,0.000985,0.003204,-0.020485,-0.048468,0.204146,111.179076,112.021286,1.247064,3.629252,5.117005,0.103849
1573524834.903156,0.108592,0.001709,0.003248,-0.020243,-0.048317,0.204525,111.588690,112.712637,1.237678,3.637911,5.164070,0.095006
1573524835.027666,0.108363,0.001956,0.003324,-0.020318,-0.048033,0.205009,112.039715,113.366143,1.233987,3.674406,5.149462,0.075737
1573524835.112346,0.110482,0.000922,0.003486,-0.020625,-0.047997,0.205101,112.204064,113.464246,1.222854,3.694375,5.064022,0.045708
1573524835.246816,0.111769,0.000265,0.003559,-0.020511,-0.048319,0.205483,112.631519,114.051472,1.233703,3.622638,5.024616,0.105528
1573524835.341446,0.112913,-0.000245,0.003656,-0.020934,-0.048217,0.205634,112.907955,114.311554,1.232296,3.650278,4.997037,0.059820
1573524835.500826,0.113621,-0.000379,0.003710,-0.021267,-0.047885,0.205560,113.431080,114.911748,1.232634,3.641516,4.946144,0.069989
1573524835.595466,0.114240,-0.000627,0.003920,-0.021150,-0.047727,0.205291,113.746013,115.321488,1.202175,3.651470,4.952561,0.101721
1573524835.724956,0.116684,-0.001267,0.004057,-0.020564,-0.047487,0.205979,113.971535,115.636366,1.201123,3.591215,4.836346,0.063284
1573524835.849466,0.115243,-0.000634,0.004123,-0.020310,-0.047260,0.206135,114.515616,116.458667,1.184156,3.627674,4.900080,0.074941
1573524835.944096,0.113983,0.000545,0.004160,-0.019828,-0.047697,0.207361,115.034426,117.321633,1.171035,3.661871,4.992856,0.076248
1573524836.063636,0.113343,0.001397,0.004191,-0.019284,-0.047636,0.208540,115.512572,118.122319,1.166219,3.677042,5.008988,0.066408
1573524836.198106,0.113418,0.001319,0.004138,-0.019173,-0.047618,0.208219,115.995502,118.770291,1.188438,3.676276,4.983231,0.080535
1573524836.292736,0.114513,0.000963,0.004163,-0.018678,-0.047498,0.208609,116.195046,119.083639,1.200204,3.638631,4.951332,0.085028
1573524836.387366,0.115231,0.000563,0.004176,-0.017958,-0.048135,0.208843,116.484754,119.588346,1.210046,3.636100,4.993300,0.080204
1573524836.541766,0.115702,0.000520,0.004218,-0.017426,-0.048060,0.209061,116.954404,120.329657,1.214927,3.652795,4.986553,0.060418
1573524836.666276,0.115648,0.001344,0.004144,-0.016774,-0.047154,0.209595,117.277117,120.959880,1.221363,3.595452,4.975270,0.080472
1573524836.795766,0.116374,0.000923,0.004235,-0.016747,-0.047030,0.209742,117.672300,121.496290,1.209633,3.574067,4.928887,0.062917
1573524836.935226,0.115430,0.001696,0.004216,-0.016643,-0.046701,0.209858,118.260377,122.363509,1.205327,3.591456,4.947493,0.089720
1573524837.034836,0.114506,0.002636,0.004081,-0.016412,-0.046842,0.210349,118.746960,123.135570,1.240788,3.648414,5.008363,0.058098
1573524837.144406,0.111631,0.005017,0.003910,-0.016670,-0.046774,0.211902,119.448116,124.176548,1.259487,3.700583,5.063627,0.076581
1573524837.239036,0.115070,0.003332,0.004018,-0.015888,-0.047118,0.211973,119.434472,124.209440,1.264782,3.637171,5.003649,0.113385
1573524837.333666,0.117579,0.002164,0.004097,-0.015353,-0.046964,0.212014,119.490949,124.301624,1.274491,3.551009,4.938920,0.105741
1573524837.488046,0.120987,0.000805,0.004189,-0.015159,-0.046589,0.212579,119.631610,124.397123,1.287232,3.518112,4.792107,0.101064
1573524837.587656,0.123722,-0.000123,0.004370,-0.015209,-0.046233,0.213262,119.702380,124.374491,1.280443,3.467428,4.713976,0.109041
1573524837.742056,0.124226,-0.000358,0.004390,-0.015093,-0.046576,0.214378,120.239103,125.104839,1.293120,3.469954,4.715919,0.087012
1573524837.836686,0.123089,0.000181,0.004438,-0.016143,-0.046705,0.215108,120.810205,125.693680,1.281702,3.538793,4.723036,0.075350
1573524837.931326,0.123582,-0.000040,0.004459,-0.016606,-0.046934,0.215968,121.145693,126.017536,1.287185,3.547527,4.701547,0.069935
1573524838.090696,0.122676,0.000603,0.004452,-0.016624,-0.046462,0.215932,121.750723,126.859905,1.292004,3.545060,4.685144,0.069822
1573524838.250076,0.122483,0.000225,0.004524,-0.016994,-0.046897,0.215359,122.406055,127.651711,1.286402,3.585139,4.668783,0.069537
1573524838.344706,0.120677,0.000253,0.004451,-0.017432,-0.047832,0.214716,123.055560,128.466755,1.297641,3.655829,4.735828,0.079311
1573524838.499096,0.119640,-0.000067,0.004428,-0.017817,-0.048836,0.213963,123.855265,129.467013,1.311061,3.724957,4.792783,0.089436
1573524838.568826,0.117841,0.000168,0.004415,-0.018293,-0.049409,0.213616,124.398661,130.136262,1.310944,3.797253,4.850973,0.080125
1573524838.688346,0.115665,0.000685,0.004354,-0.019064,-0.049844,0.213679,125.159222,131.062922,1.325379,3.867046,4.910445,0.077401
1573524838.782976,0.114178,0.000911,0.004322,-0.019470,-0.049808,0.212867,125.683504,131.689780,1.333572,3.863839,4.976496,0.088587
1573524838.942356,0.114483,0.000276,0.004478,-0.020068,-0.049533,0.212504,126.247323,132.241838,1.323176,3.803801,4.957567,0.098586
1573524839.036976,0.116321,-0.000811,0.004570,-0.020059,-0.049605,0.212204,126.410606,132.351211,1.332823,3.754389,4.924511,0.098404
1573524839.131606,0.114502,0.000002,0.004596,-0.020243,-0.050102,0.213035,127.086651,133.299848,1.323867,3.815356,5.019549,0.076260
1573524839.226246,0.113833,-0.000240,0.004698,-0.020190,-0.051306,0.212580,127.674413,134.156800,1.304086,3.854903,5.113283,0.077234
1573524839.385616,0.113777,-0.000187,0.004773,-0.019989,-0.051164,0.212565,128.274416,135.036057,1.295715,3.808387,5.131384,0.067229
1573524839.480246,0.113633,-0.000094,0.004842,-0.019894,-0.050916,0.212479,128.635671,135.572203,1.284739,3.786001,5.151829,0.065258
1573524839.639626,0.113950,-0.000105,0.004904,-0.019467,-0.050895,0.212906,129.183460,136.436585,1.281302,3.752660,5.161466,0.072475
1573524839.784066,0.114314,-0.000397,0.004983,-0.019894,-0.050871,0.213428,129.694536,137.013335,1.280543,3.727283,5.140155,0.076704
1573524839.888646,0.114456,-0.000496,0.005037,-0.020454,-0.050489,0.213454,130.064102,137.390473,1.277320,3.708162,5.132394,0.079620
1573524839.983276,0.114617,-0.000563,0.005128,-0.020008,-0.050658,0.213961,130.409436,138.012898,1.261889,3.723518,5.152690,0.069211
1573524840.077906,0.115056,-0.000706,0.005144,-0.020084,-0.050363,0.213877,130.674754,138.350688,1.266785,3.742014,5.099043,0.045801
1573524840.182496,0.116252,-0.001198,0.005287,-0.019431,-0.050157,0.214041,130.840978,138.730105,1.248229,3.643334,5.082248,0.072370
1573524840.331906,0.115810,-0.000778,0.005318,-0.018659,-0.049833,0.213888,131.345997,139.709171,1.246199,3.615328,5.096281,0.080995
1573524840.426536,0.117270,-0.001590,0.005327,-0.018433,-0.050153,0.214560,131.528883,139.984420,1.257773,3.637111,5.053672,0.056488
1573524840.521166,0.118290,-0.002110,0.005294,-0.018458,-0.050206,0.214991,131.710379,140.184772,1.286772,3.631452,5.011475,0.057266
1573524840.650656,0.119768,-0.002583,0.005330,-0.019051,-0.049663,0.215963,131.893516,140.238699,1.301416,3.581248,4.903263,0.073916
1573524840.775156,0.119590,-0.002451,0.005447,-0.018821,-0.049702,0.215662,132.363554,140.946157,1.279524,3.591516,4.883085,0.059412
1573524840.899666,0.119788,-0.002318,0.005490,-0.019495,-0.049489,0.216166,132.871097,141.402474,1.294897,3.624113,4.817974,0.070617
1573524841.029156,0.120519,-0.002670,0.005530,-0.019722,-0.049691,0.216363,133.284323,141.844413,1.308058,3.664501,4.755784,0.069352
1573524841.123786,0.119307,-0.002551,0.005650,-0.020196,-0.050629,0.215943,134.050616,142.767020,1.268237,3.762438,4.831553,0.077769
1573524841.248286,0.118037,-0.002165,0.005675,-0.020654,-0.051013,0.215698,134.824031,143.694088,1.259171,3.839195,4.862432,0.066529
1573524841.342916,0.116620,-0.001769,0.005677,-0.020824,-0.051674,0.215212,135.546175,144.655064,1.255700,3.920833,4.944672,0.067772
1573524841.482366,0.115799,-0.001562,0.005717,-0.020996,-0.051482,0.214840,136.233670,145.498637,1.250380,3.989190,4.956603,0.048534
1573524841.596916,0.116440,-0.001611,0.005750,-0.020483,-0.051386,0.214636,136.544555,146.029709,1.256019,3.959814,4.950668,0.046249
1573524841.691546,0.117694,-0.002248,0.005894,-0.019562,-0.051985,0.214590,136.763270,146.516366,1.230620,3.937088,4.955868,0.045299
1573524841.850906,0.118604,-0.002577,0.006015,-0.018706,-0.052250,0.214875,137.254930,147.363153,1.211761,3.914433,4.950778,0.041496
1573524841.945536,0.118107,-0.002483,0.006002,-0.018620,-0.052663,0.214732,137.742747,148.041742,1.211261,3.951871,4.975828,0.038097
1573524842.070046,0.116662,-0.001600,0.006055,-0.017803,-0.053267,0.215383,138.534219,149.419108,1.187261,4.002430,5.097023,0.059209
1573524842.199536,0.116068,-0.001283,0.006117,-0.017773,-0.053611,0.216099,139.143309,150.269576,1.171540,4.016202,5.132623,0.068423
1573524842.319066,0.116098,-0.000791,0.006127,-0.016805,-0.053529,0.216308,139.570552,151.134418,1.172234,3.993353,5.201534,0.064687
1573524842.388796,0.116550,-0.000604,0.006172,-0.015880,-0.053513,0.216813,139.730973,151.615552,1.166237,3.975969,5.226289,0.057094
1573524842.543196,0.114678,0.001052,0.006083,-0.015588,-0.053994,0.218690,140.738675,153.165263,1.174912,4.041165,5.344475,0.052667
1573524842.672686,0.116264,0.000290,0.006098,-0.014932,-0.054462,0.218919,141.020277,153.694357,1.192528,3.994708,5.336868,0.033686
1573524842.797196,0.116294,0.000391,0.006042,-0.015225,-0.054005,0.218798,141.452781,154.159708,1.208684,3.981352,5.288840,0.045169
1573524842.891826,0.116816,0.000184,0.005950,-0.014793,-0.053763,0.218368,141.649771,154.502762,1.240434,3.952902,5.257090,0.038024
1573524842.986456,0.118925,-0.000818,0.006005,-0.014072,-0.053182,0.217936,141.427428,154.269448,1.256571,3.846910,5.136949,0.044390
1573524843.096036,0.119339,-0.001051,0.006005,-0.013482,-0.052932,0.217374,141.667152,154.741666,1.266723,3.802998,5.118377,0.062882
1573524843.240466,0.121219,-0.002350,0.006081,-0.013378,-0.052682,0.216041,141.805345,154.863478,1.278214,3.730622,5.028330,0.063712
1573524843.335096,0.122303,-0.002714,0.006086,-0.012941,-0.052110,0.215675,141.851210,154.986418,1.292869,3.688312,4.972349,0.053951
1573524843.429726,0.122662,-0.002561,0.006052,-0.012767,-0.051522,0.215653,141.998744,155.230924,1.310560,3.644322,4.924144,0.065403
1573524843.554236,0.122240,-0.001875,0.006100,-0.012625,-0.051021,0.216161,142.459979,155.925956,1.300485,3.618618,4.920634,0.078582
1573524843.683736,0.120702,-0.000807,0.006049,-0.013341,-0.050587,0.216615,143.182295,156.755326,1.308598,3.641580,4.939845,0.075592
1573524843.778356,0.118241,0.000680,0.005966,-0.013577,-0.050410,0.217073,143.928823,157.821198,1.313498,3.710095,5.033546,0.074342
1573524843.872986,0.117559,0.001104,0.005922,-0.013825,-0.050366,0.217676,144.401775,158.396241,1.325010,3.737489,5.036446,0.079753
1573524844.027386,0.119185,0.000311,0.005893,-0.013348,-0.049849,0.216994,144.551102,158.649581,1.365124,3.625192,4.959920,0.084371
1573524844.122006,0.120538,-0.000679,0.006080,-0.013408,-0.049706,0.216758,144.697675,158.739663,1.340119,3.598107,4.903682,0.064418
1573524844.216636,0.120961,-0.001204,0.006068,-0.013504,-0.050146,0.216571,145.042421,159.163326,1.358169,3.601069,4.901834,0.072205
1573524844.346136,0.121525,-0.001855,0.006154,-0.013439,-0.050695,0.216503,145.530760,159.823330,1.347257,3.602415,4.892777,0.079517
1573524844.440766,0.121461,-0.001377,0.005987,-0.013006,-0.050464,0.216975,145.763311,160.291629,1.399298,3.554570,4.889633,0.097967
1573524844.535396,0.121742,-0.001395,0.006045,-0.013005,-0.050346,0.217668,146.051671,160.691431,1.389992,3.541363,4.873015,0.096851
1573524844.630026,0.122712,-0.001693,0.006139,-0.012559,-0.050072,0.217705,146.170504,160.984250,1.377969,3.506502,4.862006,0.094589
1573524844.789416,0.123562,-0.001678,0.006165,-0.012426,-0.049284,0.217820,146.446273,161.318006,1.389859,3.453982,4.786437,0.094910
1573524844.884046,0.123215,-0.001558,0.006162,-0.013162,-0.049154,0.218043,146.848703,161.602723,1.396250,3.466277,4.758810,0.085558
1573524845.038456,0.121407,-0.001518,0.006139,-0.013845,-0.050219,0.217960,147.945709,162.918682,1.395359,3.554095,4.850753,0.076707
1573524845.133086,0.121027,-0.001647,0.006111,-0.013984,-0.050485,0.217795,148.419965,163.513697,1.403974,3.580922,4.879156,0.072910
1573524845.292456,0.122244,-0.001726,0.006127,-0.013944,-0.049693,0.218085,148.612768,163.708289,1.422372,3.516055,4.762414,0.077367
1573524845.387096,0.119555,-0.001220,0.006085,-0.014548,-0.050194,0.217499,149.555564,164.854597,1.414549,3.608781,4.852511,0.086322
1573524845.481726,0.121054,-0.001700,0.006036,-0.014677,-0.049694,0.217557,149.457049,164.578694,1.454469,3.512673,4.738426,0.109110
1573524845.596286,0.121348,-0.001656,0.006031,-0.014638,-0.049443,0.217297,149.701088,164.899446,1.473865,3.480855,4.697061,0.124343
1573524845.735736,0.120004,-0.001293,0.005980,-0.015872,-0.049353,0.217228,150.494258,165.571314,1.494203,3.574887,4.683446,0.110299
1573524845.830366,0.119602,-0.001184,0.005865,-0.016208,-0.049273,0.216195,150.894659,165.995495,1.517454,3.581535,4.666309,0.125762
1573524845.925006,0.118763,-0.001201,0.005864,-0.016609,-0.049638,0.215508,151.509889,166.666079,1.518999,3.616036,4.689337,0.135176
1573524846.024616,0.117603,-0.001156,0.005848,-0.016779,-0.050290,0.214818,152.297026,167.684422,1.522138,3.662850,4.770624,0.143465
1573524846.179016,0.117950,-0.001275,0.005752,-0.016533,-0.050616,0.214869,152.819158,168.439494,1.574245,3.663592,4.783202,0.142378
1573524846.273646,0.116799,-0.000990,0.005751,-0.016969,-0.050698,0.214573,153.491132,169.196678,1.578792,3.730013,4.817434,0.148837
1573524846.398156,0.116641,-0.001070,0.005729,-0.016980,-0.051220,0.214503,154.159211,170.084632,1.604519,3.749867,4.853353,0.158867
1573524846.492786,0.116046,-0.000876,0.005716,-0.017359,-0.051376,0.214655,154.730995,170.711841,1.614079,3.769324,4.854794,0.170205
1573524846.587416,0.115986,-0.000447,0.005719,-0.016937,-0.051094,0.214572,155.038530,171.308362,1.627789,3.742968,4.852029,0.167398
1573524846.746796,0.115925,-0.000678,0.005720,-0.017444,-0.051500,0.214371,155.773163,172.081469,1.654092,3.761638,4.827567,0.177035
1573524846.841426,0.115447,-0.000583,0.005753,-0.017972,-0.051314,0.214161,156.269662,172.553205,1.654702,3.794014,4.809604,0.160920
1573524846.970906,0.114992,-0.000408,0.005693,-0.018393,-0.051572,0.214493,156.973611,173.341075,1.690644,3.812670,4.809472,0.172931
1573524847.095426,0.116088,-0.000613,0.005752,-0.018130,-0.051131,0.214460,157.129416,173.585799,1.704386,3.733104,4.717928,0.177058
1573524847.190056,0.116442,-0.000636,0.005785,-0.018327,-0.050740,0.214140,157.360210,173.778973,1.715151,3.709545,4.633432,0.165420
1573524847.284686,0.117073,-0.000705,0.005859,-0.018549,-0.050259,0.213926,157.607618,173.944082,1.714976,3.677537,4.582411,0.161314
1573524847.379316,0.117877,-0.000872,0.006016,-0.018536,-0.049724,0.213634,157.728437,174.061643,1.687531,3.633077,4.515242,0.155735
1573524847.538706,0.118298,-0.000793,0.005997,-0.018859,-0.049288,0.213736,158.159800,174.454103,1.730849,3.589840,4.429283,0.151319
1573524847.633326,0.118365,-0.000638,0.005940,-0.018786,-0.048820,0.213799,158.353932,174.703729,1.763182,3.542715,4.359553,0.149657
1573524847.727956,0.117582,-0.000326,0.005890,-0.018802,-0.048944,0.213868,158.909714,175.450352,1.777111,3.557097,4.387841,0.159537
1573524847.862426,0.116099,0.000433,0.005863,-0.018748,-0.048590,0.213792,159.587296,176.449234,1.789034,3.561899,4.424944,0.148134
1573524847.976966,0.114615,0.001098,0.005866,-0.018458,-0.048838,0.214151,160.324862,177.616053,1.792802,3.590857,4.508295,0.150181
1573524848.071596,0.114508,0.001009,0.005819,-0.018556,-0.049248,0.214032,160.791435,178.179627,1.829516,3.604296,4.509351,0.169610
1573524848.230976,0.114380,0.000847,0.005956,-0.018453,-0.049310,0.213918,161.440473,179.043672,1.813449,3.569833,4.484775,0.181016
1573524848.325606,0.114203,0.001142,0.005906,-0.018823,-0.048944,0.214419,161.772079,179.318569,1.840223,3.579431,4.441102,0.160624
1573524848.420236,0.114653,0.000867,0.005941,-0.019144,-0.048714,0.214213,161.998226,179.402196,1.843269,3.562779,4.377443,0.159244
1573524848.579616,0.115075,0.000800,0.005924,-0.018763,-0.048220,0.213849,162.348911,179.942314,1.890386,3.478609,4.318967,0.202342
1573524848.674236,0.115053,0.000807,0.005959,-0.018704,-0.048235,0.214058,162.702230,180.428475,1.891479,3.478567,4.288821,0.176298
1573524848.768866,0.115152,0.000935,0.005992,-0.018580,-0.047935,0.214393,162.885471,180.731524,1.895768,3.431842,4.256830,0.170454
1573524848.893386,0.115255,0.000809,0.005972,-0.018485,-0.048074,0.214325,163.315464,181.314273,1.926684,3.424772,4.250323,0.189924
1573524848.988016,0.115229,0.000822,0.006018,-0.018341,-0.048287,0.214764,163.694475,181.911115,1.927311,3.407097,4.266228,0.190167
1573524849.132456,0.114960,0.001149,0.006109,-0.017870,-0.048421,0.215312,164.291652,182.975399,1.918148,3.389582,4.276636,0.181660
1573524849.242016,0.113880,0.001765,0.006193,-0.017946,-0.049357,0.216823,165.372339,184.522947,1.895128,3.474891,4.419379,0.196031
1573524849.336636,0.114455,0.001412,0.006224,-0.017695,-0.049465,0.216568,165.579360,184.870192,1.911964,3.444126,4.415010,0.184539
1573524849.431266,0.114430,0.001481,0.006223,-0.017666,-0.049704,0.216770,166.068142,185.579088,1.928285,3.478947,4.442619,0.168341
1573524849.525896,0.113733,0.001689,0.006280,-0.017917,-0.049882,0.217827,166.682231,186.360159,1.916616,3.512708,4.467053,0.164812
1573524849.625506,0.113831,0.001740,0.006292,-0.018230,-0.049315,0.217652,166.886085,186.457094,1.935418,3.428554,4.383593,0.206394
1573524849.779906,0.113709,0.001631,0.006315,-0.018323,-0.049453,0.217455,167.498253,187.204185,1.967302,3.411654,4.338557,0.199136
1573524849.874536,0.114658,0.001356,0.006273,-0.018401,-0.049043,0.217371,167.428101,186.964913,2.011493,3.353183,4.226457,0.189398
1573524849.969166,0.114932,0.000901,0.006332,-0.018492,-0.049884,0.217739,167.869458,187.466928,2.009599,3.381510,4.267194,0.175253
1573524850.063796,0.115547,0.000768,0.006319,-0.018738,-0.049745,0.218085,167.973417,187.414263,2.039000,3.330027,4.190841,0.165088
1573524850.223166,0.115531,0.000632,0.006365,-0.018803,-0.049932,0.217703,168.568603,188.148838,2.048969,3.279899,4.117535,0.163871
1573524850.317796,0.115451,0.000448,0.006372,-0.018780,-0.050425,0.217780,169.029508,188.761001,2.068763,3.255290,4.134311,0.164800
1573524850.412416,0.115451,0.000599,0.006360,-0.018797,-0.050035,0.217574,169.224901,189.003920,2.088473,3.162999,4.097228,0.170443
1573524850.536936,0.115282,0.000581,0.006374,-0.018455,-0.050210,0.217057,169.710297,189.800063,2.102479,3.115561,4.134481,0.183644
1573524850.631556,0.115377,0.000691,0.006381,-0.018452,-0.049916,0.217095,169.862529,190.004400,2.113468,3.061053,4.074193,0.173792
1573524850.790936,0.115065,0.000955,0.006442,-0.018247,-0.049733,0.217150,170.432609,190.892795,2.115443,2.984153,4.066684,0.167627
1573524850.885556,0.115462,0.000807,0.006481,-0.017785,-0.049838,0.217169,170.582357,191.312691,2.120727,2.878553,4.068108,0.176540
1573524850.980176,0.114018,0.001711,0.006532,-0.017751,-0.049915,0.218207,171.358440,192.501449,2.100049,2.887034,4.166620,0.166525
1573524851.074816,0.113427,0.002186,0.006594,-0.017639,-0.049950,0.219164,171.829468,193.277618,2.084497,2.851287,4.206280,0.157744
1573524851.189366,0.113868,0.001733,0.006652,-0.017492,-0.050647,0.219229,172.131750,193.776888,2.089934,2.772174,4.210475,0.158165
1573524851.328816,0.114869,0.001444,0.006698,-0.016930,-0.050424,0.218944,172.091269,194.033854,2.101090,2.618909,4.189970,0.122850
1573524851.423446,0.116022,0.001259,0.006694,-0.016373,-0.049738,0.218595,171.773754,193.889314,2.124806,2.446057,4.107917,0.107452
1573524851.518076,0.116095,0.001247,0.006681,-0.016310,-0.049804,0.218857,171.984036,194.287695,2.145001,2.361367,4.101183,0.118127
1573524851.677446,0.116469,0.000892,0.006777,-0.016088,-0.050073,0.219102,172.356459,195.030887,2.131615,2.227700,4.107807,0.124545
1573524851.772076,0.116950,0.000650,0.006791,-0.016143,-0.050100,0.219765,172.450750,195.243373,2.137308,2.120392,4.084422,0.090137
1573524851.871686,0.117574,0.000562,0.006765,-0.015852,-0.049789,0.220262,172.323620,195.318730,2.165074,1.968415,4.073473,0.089694
1573524852.021096,0.117870,0.000539,0.006737,-0.015863,-0.049410,0.220528,172.368632,195.604786,2.190063,1.796828,4.047812,0.093048
1573524852.115716,0.118321,0.000392,0.006824,-0.015572,-0.049133,0.220504,172.307533,195.797032,2.172603,1.645352,4.016152,0.109990
1573524852.210346,0.118360,0.000380,0.006888,-0.015457,-0.048883,0.220467,172.397989,196.176647,2.155855,1.510781,4.014486,0.111438
1573524852.339836,0.118503,0.000416,0.006946,-0.015711,-0.048698,0.220904,172.552751,196.541878,2.146128,1.362453,4.004564,0.096716
1573524852.439446,0.118758,0.000568,0.006964,-0.015952,-0.048521,0.221454,172.643871,196.736409,2.152361,1.252187,3.996243,0.082372
1573524852.558976,0.119596,0.000660,0.007080,-0.015857,-0.048009,0.221797,172.474536,196.838364,2.126543,1.044719,3.968750,0.099632
1573524852.688476,0.118038,0.001299,0.007026,-0.016136,-0.047741,0.221954,172.966282,197.795000,2.138798,0.912405,4.028391,0.095622
1573524852.803026,0.116945,0.001641,0.006987,-0.016408,-0.047842,0.222173,173.393955,198.636520,2.152473,0.799868,4.084342,0.089360
1573524852.937496,0.115373,0.001870,0.007030,-0.016475,-0.047968,0.222035,173.905531,199.779081,2.130799,0.637866,4.178314,0.096354
1573524853.032126,0.116522,0.001666,0.007123,-0.016135,-0.047641,0.222523,173.529169,199.727669,2.117103,0.405788,4.139210,0.106762
1573524853.126756,0.118048,0.001592,0.007186,-0.016120,-0.046993,0.223059,172.996305,199.286281,2.122635,0.160423,4.038440,0.097013
1573524853.286136,0.118548,0.001528,0.007200,-0.016174,-0.046899,0.223651,172.919408,199.734109,2.127235,-0.126311,4.019112,0.080304
1573524853.380756,0.118139,0.001544,0.007240,-0.016661,-0.046974,0.223922,173.153412,200.202350,2.119105,-0.248449,4.045875,0.089491
1573524853.475386,0.116652,0.002036,0.007272,-0.016606,-0.047161,0.224073,173.632165,201.358700,2.094092,-0.357595,4.163781,0.097444
1573524853.570006,0.116788,0.001871,0.007318,-0.016548,-0.047161,0.224019,173.530285,201.657043,2.090734,-0.578853,4.154297,0.104273
1573524853.729376,0.117411,0.001897,0.007316,-0.016525,-0.046726,0.224378,173.113948,201.866523,2.105140,-0.960939,4.095251,0.084712
1573524853.828986,0.118287,0.002043,0.007319,-0.016637,-0.045975,0.224824,172.561113,201.547103,2.112205,-1.207741,3.983985,0.073797
1573524853.983366,0.118133,0.002076,0.007334,-0.016368,-0.045898,0.224689,172.346565,202.298187,2.122043,-1.511702,3.968169,0.095648
1573524854.077986,0.118268,0.002138,0.007305,-0.016303,-0.045932,0.224948,172.155961,202.620472,2.144420,-1.699684,3.924608,0.107363
1573524854.232376,0.118183,0.002259,0.007254,-0.016291,-0.046023,0.225218,171.869937,203.236615,2.183530,-1.984707,3.862739,0.119855
1573524854.327006,0.118125,0.002194,0.007253,-0.016539,-0.046347,0.225522,171.804284,203.655933,2.196301,-2.128447,3.847633,0.106480
1573524854.481386,0.118039,0.001955,0.007320,-0.017050,-0.046610,0.225556,171.713769,204.347049,2.189921,-2.331954,3.814226,0.100933
1573524854.521236,0.117734,0.001858,0.007336,-0.017447,-0.047057,0.225675,171.905320,204.699593,2.190761,-2.335651,3.820473,0.103716
1573524854.650726,0.117741,0.001621,0.007371,-0.017986,-0.047365,0.225886,171.754237,205.133787,2.198342,-2.453410,3.727024,0.102670
1573524854.740366,0.117656,0.001741,0.007335,-0.017823,-0.047565,0.226248,171.554302,205.583980,2.218712,-2.542323,3.665419,0.081834
1573524854.834996,0.117649,0.001772,0.007294,-0.017435,-0.048043,0.226499,171.379949,206.226711,2.247708,-2.666502,3.641653,0.089809
1573524854.924646,0.117787,0.001656,0.007289,-0.017397,-0.048252,0.226443,171.138097,206.555436,2.259130,-2.793584,3.638325,0.083068
1573524855.024256,0.117916,0.001327,0.007388,-0.017857,-0.048180,0.226403,170.896803,206.721817,2.244092,-2.910267,3.580586,0.088132
1573524855.103936,0.117649,0.001264,0.007424,-0.017922,-0.048269,0.226394,170.804700,207.189728,2.235089,-2.970471,3.563504,0.087456
1573524855.178646,0.117475,0.001191,0.007487,-0.018300,-0.047787,0.226035,170.603221,207.282491,2.211596,-3.063548,3.472642,0.093525
1573524855.278256,0.117225,0.001168,0.007506,-0.018577,-0.047801,0.226021,170.411822,207.681895,2.215253,-3.173160,3.456862,0.095853
1573524855.372886,0.117069,0.001221,0.007522,-0.018668,-0.047684,0.226123,170.154973,208.049957,2.213538,-3.239180,3.438830,0.087230
1573524855.437626,0.117009,0.001422,0.007501,-0.018471,-0.047829,0.226747,169.957584,208.444987,2.226248,-3.280467,3.442745,0.078082
1573524855.527286,0.116983,0.001416,0.007493,-0.018467,-0.048083,0.227011,169.749903,208.887703,2.235869,-3.332586,3.459682,0.068640
1573524855.621906,0.116974,0.001403,0.007488,-0.018484,-0.048272,0.227186,169.490931,209.315545,2.239926,-3.403039,3.462258,0.087648
1573524855.721516,0.116903,0.001393,0.007527,-0.018475,-0.048288,0.227724,169.204399,209.769460,2.230963,-3.459015,3.474468,0.077820
1573524855.816146,0.116481,0.001571,0.007526,-0.018681,-0.048653,0.228261,169.279322,210.585811,2.240707,-3.456263,3.542390,0.073377
1573524855.945646,0.116337,0.001262,0.007550,-0.019144,-0.048677,0.227969,168.931018,210.905617,2.242646,-3.495150,3.530894,0.042814
1573524856.035296,0.116100,0.001424,0.007544,-0.019314,-0.048625,0.228240,168.762321,211.383211,2.247434,-3.543637,3.547751,0.044540
1573524856.129926,0.116023,0.001676,0.007527,-0.019405,-0.048713,0.229160,168.485966,211.842075,2.258046,-3.600268,3.584306,0.050014
1573524856.224566,0.116495,0.001534,0.007561,-0.019508,-0.049103,0.230492,168.142036,212.214038,2.271835,-3.644093,3.585166,0.075776
1573524856.319196,0.117134,0.001077,0.007615,-0.019646,-0.049712,0.231382,167.805801,212.501150,2.271414,-3.612103,3.619120,0.065238
1573524856.413826,0.118061,0.000533,0.007691,-0.019683,-0.050081,0.231974,167.317648,212.629067,2.287022,-3.609862,3.638720,0.063056
1573524856.568216,0.118855,-0.000014,0.007776,-0.019955,-0.050323,0.232630,166.697094,212.909782,2.283821,-3.593209,3.686569,0.059352
1573524856.667826,0.119123,0.000055,0.007763,-0.020171,-0.050231,0.232998,166.309700,213.100731,2.301662,-3.591857,3.723567,0.043309
1573524856.762456,0.118001,-0.001817,0.008123,-0.019788,-0.051229,0.232770,166.741283,214.909634,2.158655,-3.549593,3.966047,0.041094
1573524856.886976,0.118055,-0.003430,0.008412,-0.020033,-0.050936,0.232832,166.148348,215.120900,2.051351,-3.626551,3.967963,0.009687
1573524856.981596,0.117782,-0.003865,0.008489,-0.020142,-0.050774,0.232724,165.828308,215.474662,2.016971,-3.656689,4.001202,0.021530
1573524857.076216,0.117591,-0.004108,0.008534,-0.020179,-0.050810,0.232879,165.570367,215.957648,1.996896,-3.624100,4.047973,0.022105
1573524857.235586,0.117373,-0.004392,0.008583,-0.020054,-0.051102,0.233129,165.151372,216.910169,1.996659,-3.651006,4.154973,0.034663
1573524857.330216,0.117218,-0.004540,0.008608,-0.020038,-0.051028,0.233002,164.838032,217.356468,1.991765,-3.676560,4.213550,0.016965
1573524857.479636,0.117167,-0.004474,0.008622,-0.019728,-0.050890,0.233249,164.237261,218.160197,1.978862,-3.753390,4.337469,0.034186
1573524857.584226,0.117237,-0.004963,0.008693,-0.019785,-0.051079,0.233245,163.922843,218.699564,1.961221,-3.753415,4.408631,0.025667
1573524857.678856,0.116127,-0.005155,0.008736,-0.020297,-0.051677,0.233571,164.308067,219.874390,1.951844,-3.644200,4.555157,0.023659
1573524857.773476,0.116242,-0.005318,0.008776,-0.020252,-0.051609,0.233643,163.965165,220.377544,1.936972,-3.682443,4.602650,0.028073
1573524857.868106,0.116116,-0.005470,0.008823,-0.020271,-0.051839,0.234086,163.844814,221.184465,1.923556,-3.672233,4.693997,0.022991
1573524858.022506,0.115778,-0.005212,0.008794,-0.020694,-0.051657,0.234072,163.392733,221.885613,1.938115,-3.684239,4.761745,0.020818
1573524858.117136,0.115524,-0.005048,0.008805,-0.020968,-0.051539,0.234760,163.207167,222.465714,1.950798,-3.667771,4.814493,0.033678
1573524858.276516,0.116030,-0.005456,0.008861,-0.020857,-0.051669,0.234981,162.473104,223.075382,1.944242,-3.710217,4.866187,0.036526
1573524858.371146,0.116867,-0.006465,0.009011,-0.020980,-0.051654,0.235649,161.869812,223.081641,1.912344,-3.753986,4.836819,0.035414
1573524858.510606,0.118280,-0.007414,0.009126,-0.020788,-0.052068,0.235050,160.997644,223.271666,1.891846,-3.778665,4.863936,0.029187
1573524858.625146,0.118160,-0.008015,0.009202,-0.020900,-0.052375,0.234634,160.827168,224.133291,1.871618,-3.753687,4.951681,0.039666
1573524858.719776,0.118361,-0.008160,0.009215,-0.020929,-0.052642,0.234705,160.521234,224.641833,1.875624,-3.742918,5.005320,0.044896
1573524858.864206,0.118230,-0.008425,0.009233,-0.021071,-0.053116,0.234421,160.219041,225.611314,1.884578,-3.706541,5.103950,0.040105
1573524858.973776,0.117677,-0.008752,0.009254,-0.021756,-0.053517,0.233173,160.400011,226.604821,1.900780,-3.616225,5.206292,0.045633
1573524859.068406,0.117637,-0.009332,0.009289,-0.022494,-0.054419,0.231778,160.649597,227.463284,1.929606,-3.490353,5.296327,0.051290
1573524859.163036,0.117205,-0.010308,0.009304,-0.023155,-0.055611,0.228927,161.119830,228.646508,1.976261,-3.369847,5.426500,0.070988
1573524859.272606,0.116593,-0.010220,0.009264,-0.023236,-0.055849,0.226927,161.331165,230.040525,2.008885,-3.290987,5.572117,0.063712
1573524859.412056,0.115986,-0.010083,0.009217,-0.023457,-0.055824,0.225297,161.375189,231.439106,2.034770,-3.205997,5.704356,0.062322
1573524859.571426,0.116153,-0.009864,0.009193,-0.023371,-0.056083,0.223855,161.196239,232.828306,2.062647,-3.158299,5.820658,0.072243
1573524859.666056,0.116352,-0.009436,0.009158,-0.023341,-0.056357,0.223554,161.138702,233.728317,2.092045,-3.126301,5.900684,0.073026
1573524859.760676,0.116407,-0.009634,0.009196,-0.023632,-0.056881,0.223484,161.179051,234.604917,2.103144,-3.066465,5.988004,0.071152
1573524859.920046,0.116553,-0.009570,0.009199,-0.023774,-0.056690,0.224062,160.636067,235.427343,2.114319,-3.047601,6.027343,0.081469
1573524860.049536,0.116471,-0.009338,0.009188,-0.024002,-0.056998,0.224355,160.460985,236.424720,2.112150,-3.016426,6.079478,0.099820
1573524860.174026,0.115465,-0.008519,0.009117,-0.024203,-0.056629,0.224375,160.634309,237.942021,2.136909,-2.961749,6.211806,0.081869
1573524860.268666,0.114772,-0.008322,0.009111,-0.024329,-0.056808,0.224140,160.728554,239.063900,2.141923,-2.917256,6.323348,0.074415
1573524860.413096,0.114520,-0.008780,0.009180,-0.025126,-0.056639,0.223362,160.836687,240.185284,2.147496,-2.831075,6.372203,0.081243
1573524860.517676,0.112884,-0.008045,0.009068,-0.024913,-0.055962,0.224175,160.733658,241.506050,2.157635,-2.824290,6.457117,0.081013
1573524860.677066,0.114352,-0.008509,0.009148,-0.025804,-0.056191,0.223555,160.648387,242.239834,2.192198,-2.734357,6.445072,0.082625
1573524860.771696,0.114693,-0.008851,0.009243,-0.026004,-0.056462,0.223459,160.658158,243.061121,2.175999,-2.689180,6.521009,0.075730
1573524860.931076,0.114941,-0.008588,0.009297,-0.025858,-0.056283,0.223122,160.407361,244.438734,2.173935,-2.675943,6.588387,0.098938
1573524861.025706,0.114425,-0.008010,0.009311,-0.025308,-0.056429,0.222875,160.256468,245.670556,2.157985,-2.675049,6.712926,0.088372
1573524861.120336,0.114579,-0.007792,0.009356,-0.025237,-0.056619,0.222266,160.277413,246.755908,2.150339,-2.628580,6.803953,0.073706
1573524861.214956,0.114637,-0.007747,0.009416,-0.025300,-0.056569,0.222106,160.270780,247.772721,2.132959,-2.612075,6.881537,0.076832
1573524861.369356,0.113868,-0.007873,0.009467,-0.025165,-0.056611,0.221753,159.893964,249.119115,2.103103,-2.617315,6.958359,0.068802
1573524861.404216,0.114018,-0.007537,0.009522,-0.025295,-0.056517,0.221975,160.038197,249.690099,2.084514,-2.577779,7.008374,0.058864
1573524861.563576,0.114074,-0.006853,0.009565,-0.025338,-0.056481,0.222062,159.792942,251.140030,2.073415,-2.560523,7.082513,0.061431
1573524861.717966,0.114562,-0.005788,0.009619,-0.025098,-0.056682,0.222394,159.487873,252.538842,2.060078,-2.546096,7.179768,0.051170
1573524861.812596,0.115689,-0.004936,0.009616,-0.025319,-0.056531,0.223070,159.407595,253.233534,2.086673,-2.514732,7.199034,0.066574
1573524861.907226,0.115312,-0.004352,0.009622,-0.025414,-0.056536,0.223061,159.189722,253.937599,2.075842,-2.496443,7.222958,0.072907
1573524862.036716,0.116665,-0.003659,0.009732,-0.025721,-0.056726,0.223874,159.134396,255.035502,2.047527,-2.437710,7.287251,0.056480
1573524862.161216,0.116544,-0.003260,0.009743,-0.025699,-0.056893,0.224397,158.923446,256.287583,2.026749,-2.427814,7.389774,0.051912
1573524862.255856,0.118530,-0.002514,0.009864,-0.026081,-0.057076,0.225642,159.067588,257.321797,2.012666,-2.358373,7.461058,0.059764
1573524862.380366,0.118870,-0.001623,0.009853,-0.026196,-0.056938,0.226188,158.929791,258.583506,2.017450,-2.306156,7.523948,0.068113
1573524862.479976,0.118926,-0.001083,0.009853,-0.026556,-0.057036,0.226963,158.886689,259.629518,2.024829,-2.260316,7.593630,0.065820
1573524862.574606,0.119720,-0.001139,0.009914,-0.027046,-0.057093,0.227887,158.914595,260.475741,2.020372,-2.217281,7.645433,0.052391
1573524862.728996,0.118811,-0.001071,0.009863,-0.027216,-0.056675,0.228026,158.573521,261.607692,2.027916,-2.206685,7.678972,0.068102
1573524862.823626,0.119709,-0.000739,0.009924,-0.027711,-0.056172,0.228426,158.601030,262.234138,2.020215,-2.133735,7.668023,0.060543
1573524862.918256,0.118568,-0.000399,0.009898,-0.027781,-0.055892,0.228620,158.359361,263.097627,2.012962,-2.141009,7.690568,0.057254
1573524863.012876,0.117725,0.000842,0.009869,-0.027736,-0.055436,0.229012,158.125069,263.932532,2.010969,-2.139583,7.728299,0.063639
1573524863.142366,0.116752,0.002931,0.009869,-0.027675,-0.055475,0.228946,157.832463,265.246975,1.991476,-2.126591,7.816714,0.069675
1573524863.202136,0.116622,0.003992,0.009881,-0.027676,-0.055090,0.229231,157.737124,265.723020,1.985675,-2.123043,7.822176,0.074268
1573524863.331616,0.115369,0.004639,0.009823,-0.027568,-0.054946,0.230251,157.348291,266.934341,1.990553,-2.139078,7.891650,0.062323
1573524863.456126,0.115200,0.005280,0.009835,-0.027502,-0.054782,0.231002,157.072018,268.003945,1.983646,-2.121892,7.936172,0.064708
1573524863.520866,0.114724,0.004986,0.009768,-0.027480,-0.054701,0.231640,156.867698,268.545335,2.008754,-2.133761,7.949932,0.071649
1573524863.675246,0.115092,0.005339,0.009778,-0.027517,-0.054716,0.231728,156.587104,269.815915,2.021044,-2.105045,7.979297,0.080441
1573524863.814696,0.113040,0.004924,0.009693,-0.027456,-0.054526,0.232307,156.074279,270.986680,2.031251,-2.143524,8.043528,0.058809
1573524863.929236,0.111936,0.002764,0.009676,-0.027579,-0.054388,0.232304,155.727606,271.654847,2.049611,-2.163525,8.038971,0.063322
1573524864.023866,0.109622,-0.000582,0.009609,-0.027339,-0.053897,0.232218,155.177313,272.072513,2.051859,-2.202509,7.975628,0.065591
1573524864.108526,0.107962,-0.003064,0.009506,-0.027231,-0.053471,0.232741,154.776681,272.546719,2.091482,-2.229534,7.927122,0.065120
1573524864.277856,0.103813,-0.006627,0.009299,-0.026926,-0.052793,0.233075,153.826111,273.718397,2.124714,-2.336935,7.909745,0.073992
1573524864.367506,0.097380,-0.011048,0.008940,-0.026586,-0.051588,0.234042,152.812493,274.119956,2.202156,-2.481554,7.851449,0.092268
1573524864.437226,0.089399,-0.013949,0.008547,-0.026029,-0.050630,0.234940,151.601957,274.613248,2.252661,-2.672387,7.816333,0.101158
1573524864.561736,0.082299,-0.016018,0.008236,-0.026044,-0.049688,0.236670,150.520041,275.600135,2.268967,-2.813831,7.789314,0.127803
1573524864.701186,0.076883,-0.017379,0.007989,-0.025688,-0.049015,0.238280,149.436699,276.703908,2.295360,-2.941324,7.797846,0.117283
1573524864.780866,0.074843,-0.019183,0.007878,-0.025705,-0.048856,0.239217,148.949409,277.132945,2.327969,-2.982806,7.793858,0.109400
1573524864.875496,0.076096,-0.021008,0.007943,-0.025991,-0.048718,0.238954,148.942388,277.494352,2.353632,-2.936323,7.754919,0.110975
1573524865.004976,0.074890,-0.021980,0.007846,-0.025825,-0.048471,0.239463,148.356210,278.418172,2.398953,-2.974280,7.729635,0.128233
1573524865.134476,0.073758,-0.024134,0.007784,-0.025423,-0.048463,0.239910,147.664839,279.312922,2.429915,-3.012790,7.719186,0.112634
1573524865.224116,0.072135,-0.025773,0.007709,-0.025246,-0.048314,0.240450,147.118209,279.913473,2.444556,-3.080749,7.712789,0.114051
1573524865.353596,0.073975,-0.028227,0.007770,-0.025434,-0.048571,0.240874,146.951587,280.569512,2.485519,-3.019119,7.697520,0.114390
1573524865.478106,0.074783,-0.029341,0.007764,-0.025433,-0.048425,0.241270,146.662879,281.325897,2.525901,-3.003600,7.652181,0.134173
1573524865.612576,0.074978,-0.030320,0.007787,-0.025643,-0.048614,0.241598,146.292323,282.405894,2.536181,-3.004377,7.673238,0.141631
1573524865.667356,0.074293,-0.030975,0.007734,-0.025522,-0.048981,0.242192,145.906546,283.022296,2.547269,-3.037560,7.723334,0.135646
1573524865.766966,0.075139,-0.032933,0.007799,-0.025189,-0.049332,0.242265,145.515625,283.668625,2.573866,-3.040404,7.740354,0.136057
1573524865.921346,0.074886,-0.034825,0.007773,-0.025238,-0.049277,0.242416,144.940312,284.805892,2.613607,-3.084557,7.729121,0.157824
1573524866.015976,0.075228,-0.036777,0.007779,-0.025750,-0.049456,0.243434,144.809403,285.452172,2.637789,-3.045364,7.735328,0.141456
1573524866.110606,0.075246,-0.038433,0.007762,-0.026164,-0.049862,0.243726,144.609706,286.180619,2.661488,-3.024911,7.770129,0.119638
1573524866.250056,0.074314,-0.038765,0.007726,-0.026504,-0.050236,0.244193,144.087278,287.613504,2.681785,-3.043155,7.846594,0.127122
1573524866.364606,0.073462,-0.039367,0.007719,-0.026939,-0.050458,0.244936,143.698897,288.811553,2.671777,-3.030840,7.894703,0.121121
1573524866.459236,0.073079,-0.040062,0.007753,-0.027140,-0.050674,0.245488,143.359700,289.741532,2.651238,-3.029903,7.937553,0.122820
1573524866.583736,0.073825,-0.041616,0.007856,-0.027216,-0.051055,0.245743,143.016391,290.715047,2.633209,-3.040839,7.977556,0.113339
1573524866.708246,0.073592,-0.042899,0.007943,-0.027435,-0.050948,0.245467,142.653353,291.668674,2.601066,-3.027824,7.993169,0.114070
1573524866.802876,0.073857,-0.044698,0.008067,-0.027284,-0.051058,0.245133,142.304606,292.271857,2.564463,-3.043000,7.968392,0.108892
1573524866.962246,0.073838,-0.046154,0.008168,-0.027330,-0.051264,0.244765,141.778711,293.504660,2.530888,-3.037987,7.990282,0.099992
1573524867.056876,0.074403,-0.047655,0.008227,-0.027113,-0.051166,0.244387,141.488792,293.925588,2.535903,-3.038654,7.950896,0.100364
1573524867.191356,0.074745,-0.048640,0.008297,-0.027325,-0.051320,0.244187,141.185377,294.913661,2.528718,-3.013148,7.962444,0.094691
1573524867.310876,0.074494,-0.048600,0.008306,-0.027556,-0.051564,0.243760,140.863644,295.967398,2.532733,-3.000161,7.998320,0.101520
1573524867.405506,0.073175,-0.047795,0.008286,-0.027691,-0.051804,0.243802,140.412002,297.047914,2.517835,-3.032908,8.066487,0.098535
1573524867.500126,0.073619,-0.048449,0.008351,-0.027883,-0.052063,0.243544,140.244060,297.798439,2.506856,-3.001955,8.094671,0.079246
1573524867.624616,0.073306,-0.048728,0.008353,-0.027747,-0.052220,0.243214,139.743369,298.836738,2.505134,-3.023398,8.107549,0.098397
1573524867.754116,0.070918,-0.047362,0.008265,-0.027378,-0.052328,0.243790,138.780054,300.343005,2.501376,-3.114535,8.182930,0.107014
1573524867.878626,0.071195,-0.048261,0.008308,-0.027246,-0.052489,0.243600,138.342543,301.251746,2.502862,-3.144468,8.189596,0.100961
1573524868.003126,0.070800,-0.048183,0.008333,-0.027012,-0.052540,0.243534,137.779457,302.301487,2.501434,-3.166728,8.229915,0.091506
1573524868.132616,0.070855,-0.048297,0.008361,-0.026866,-0.052539,0.243893,137.309560,303.301951,2.501015,-3.158539,8.221850,0.089963
1573524868.227246,0.070716,-0.048095,0.008361,-0.026954,-0.052441,0.244056,137.046510,304.073669,2.510999,-3.140935,8.201618,0.107989
1573524868.321876,0.071673,-0.049118,0.008465,-0.026833,-0.052546,0.244346,136.846676,304.623680,2.493040,-3.165588,8.181542,0.104485
1573524868.451366,0.073006,-0.050619,0.008586,-0.026835,-0.052783,0.244619,136.621384,305.423674,2.477984,-3.141510,8.204623,0.071331
1573524868.570896,0.072949,-0.051030,0.008628,-0.026678,-0.052860,0.244583,136.126324,306.416396,2.463763,-3.153161,8.222001,0.076422
1573524868.665516,0.073265,-0.051230,0.008590,-0.026469,-0.052711,0.244471,135.797622,307.043332,2.499769,-3.160242,8.161394,0.076739
1573524868.760146,0.073078,-0.051358,0.008588,-0.026319,-0.052992,0.244296,135.353792,307.896224,2.502328,-3.187559,8.189388,0.067484
1573524868.854766,0.072773,-0.051229,0.008536,-0.026189,-0.053253,0.244365,134.890285,308.802457,2.526585,-3.201539,8.236329,0.081305
1573524868.949396,0.072769,-0.051409,0.008591,-0.026045,-0.053225,0.244676,134.508655,309.544560,2.508530,-3.216463,8.247062,0.092485
1573524869.078876,0.072660,-0.051421,0.008619,-0.025697,-0.053212,0.244973,133.905849,310.596220,2.509397,-3.260267,8.257707,0.081946
1573524869.203386,0.072984,-0.051654,0.008638,-0.026071,-0.053185,0.244634,133.760472,311.580036,2.519586,-3.216565,8.274213,0.099484
1573524869.332876,0.073276,-0.051904,0.008628,-0.026166,-0.052944,0.244279,133.452674,312.491866,2.546941,-3.187769,8.252786,0.089481
1573524869.427496,0.073035,-0.051882,0.008634,-0.025998,-0.053036,0.244454,132.997096,313.333601,2.539137,-3.208181,8.282652,0.075841
1573524869.522116,0.073636,-0.052564,0.008648,-0.025920,-0.052998,0.244479,132.735424,313.910400,2.553967,-3.216134,8.258382,0.089549
1573524869.616746,0.074927,-0.053725,0.008677,-0.025463,-0.053253,0.244937,132.402711,314.313951,2.588798,-3.224116,8.213859,0.090317
1573524869.711376,0.074545,-0.053425,0.008714,-0.025466,-0.053191,0.245207,132.030142,315.162855,2.566426,-3.237628,8.223046,0.085845
1573524869.805996,0.074226,-0.053167,0.008749,-0.025959,-0.052993,0.245582,131.923122,316.022137,2.544244,-3.196203,8.250225,0.075621
1573524869.960376,0.073353,-0.052408,0.008744,-0.025991,-0.053001,0.245582,131.281430,317.575333,2.532175,-3.209411,8.312502,0.083200
1573524870.069946,0.072101,-0.051228,0.008703,-0.025864,-0.053099,0.245473,130.633285,318.912528,2.524774,-3.238347,8.370615,0.085440
1573524870.214376,0.071500,-0.050783,0.008698,-0.026240,-0.053012,0.245735,130.216188,320.298132,2.522080,-3.225096,8.420472,0.087156
1573524870.333896,0.072485,-0.051934,0.008750,-0.025876,-0.053426,0.245902,129.732111,321.056463,2.527621,-3.238086,8.428548,0.076703
1573524870.468366,0.071666,-0.051125,0.008765,-0.026010,-0.053234,0.246103,129.219827,322.385575,2.510105,-3.252951,8.454698,0.079670
1573524870.562986,0.070594,-0.050245,0.008762,-0.025785,-0.053674,0.246831,128.496563,323.640475,2.481801,-3.310563,8.516886,0.074995
1573524870.697456,0.071036,-0.050715,0.008785,-0.025688,-0.053963,0.247159,128.010007,324.717551,2.492679,-3.313228,8.545481,0.065540
1573524870.816976,0.071417,-0.051062,0.008823,-0.025467,-0.054100,0.247643,127.517565,325.637535,2.491584,-3.340030,8.555082,0.073128
1573524870.911596,0.071883,-0.051481,0.008817,-0.025224,-0.054294,0.247923,127.125854,326.350413,2.515462,-3.342089,8.548163,0.078782
1573524871.006226,0.072258,-0.052056,0.008821,-0.025155,-0.054846,0.248136,126.747647,327.218194,2.531069,-3.343669,8.564169,0.080175
1573524871.160606,0.072527,-0.052616,0.008863,-0.025403,-0.055390,0.248496,126.320875,328.652677,2.525057,-3.318112,8.608707,0.087884
1573524871.255236,0.072308,-0.052645,0.008845,-0.025790,-0.055667,0.248081,126.139568,329.674294,2.532570,-3.298267,8.667949,0.095255
1573524871.409636,0.073117,-0.053299,0.008863,-0.025937,-0.055543,0.248382,125.912381,330.706136,2.561035,-3.262304,8.643531,0.080336
1573524871.509226,0.073487,-0.053568,0.008903,-0.025823,-0.055594,0.248528,125.611243,331.455167,2.558104,-3.249697,8.651172,0.042453
1573524871.603856,0.074232,-0.054160,0.008994,-0.025823,-0.055654,0.248701,125.463906,332.053926,2.530164,-3.208605,8.618418,0.027100
1573524871.698486,0.074308,-0.054272,0.009090,-0.025747,-0.056128,0.249255,125.093902,333.016547,2.484389,-3.221766,8.615189,0.053259
1573524871.857846,0.074205,-0.054168,0.009151,-0.025711,-0.056223,0.249252,124.543313,334.466544,2.457941,-3.199116,8.621461,0.065646
1573524871.952466,0.074349,-0.054378,0.009225,-0.025701,-0.056396,0.248731,124.251048,335.311621,2.428606,-3.202599,8.676322,0.070951
1573524872.047096,0.073211,-0.053548,0.009217,-0.025677,-0.056868,0.248739,123.644044,336.736870,2.407166,-3.260978,8.783594,0.076770
1573524872.206456,0.072450,-0.052765,0.009228,-0.025479,-0.056790,0.248737,122.871065,338.382240,2.383355,-3.274244,8.802533,0.044001
1573524872.301076,0.069976,-0.050566,0.009188,-0.025687,-0.056927,0.249327,122.128877,340.166278,2.324974,-3.317702,8.937814,0.033507
1573524872.455456,0.070670,-0.051013,0.009272,-0.025021,-0.057248,0.249609,121.339342,341.390451,2.293264,-3.373580,8.936184,0.015217
1573524872.550086,0.073559,-0.053311,0.009403,-0.024411,-0.057374,0.249693,121.281262,341.179052,2.312777,-3.344804,8.796489,0.036570
1573524872.679566,0.073794,-0.053554,0.009423,-0.024073,-0.057627,0.249718,120.680717,342.314237,2.311396,-3.358176,8.767514,0.052516
1573524872.804076,0.075223,-0.054673,0.009533,-0.023638,-0.057662,0.249704,120.328666,342.850867,2.300212,-3.376549,8.752507,0.002341
1573524872.898706,0.076407,-0.055561,0.009589,-0.023526,-0.057621,0.250282,120.225069,343.183392,2.305090,-3.344178,8.719315,-0.008803
1573524873.028196,0.076574,-0.055481,0.009646,-0.023417,-0.057416,0.250934,119.810061,344.153586,2.285480,-3.339109,8.635472,0.026069
1573524873.122826,0.076853,-0.055518,0.009632,-0.023363,-0.057179,0.251652,119.563080,344.749295,2.305628,-3.286389,8.557585,0.028092
1573524873.217456,0.076456,-0.055142,0.009605,-0.023220,-0.057402,0.252400,119.020030,345.797032,2.305964,-3.323944,8.608442,0.040904
1573524873.371846,0.076936,-0.055351,0.009633,-0.023235,-0.057069,0.253245,118.643760,346.763894,2.321721,-3.295168,8.608492,0.070446
1573524873.466476,0.076192,-0.054438,0.009572,-0.022971,-0.056729,0.253207,118.007626,347.756005,2.335868,-3.350125,8.608026,0.079686
1573524873.561096,0.077228,-0.055551,0.009584,-0.023460,-0.056645,0.253396,118.269005,348.068739,2.385322,-3.256540,8.541348,0.070562
1573524873.600936,0.077104,-0.055272,0.009584,-0.023179,-0.056481,0.253527,117.968399,348.394029,2.381921,-3.283502,8.541358,0.053127
1573524873.750346,0.077328,-0.055535,0.009532,-0.023148,-0.056494,0.253677,117.556415,349.567577,2.435305,-3.273269,8.515888,0.066274
1573524873.844976,0.077348,-0.055498,0.009486,-0.022699,-0.056646,0.254008,116.913191,350.399366,2.469075,-3.328022,8.515323,0.080006
1573524874.004346,0.077785,-0.055863,0.009534,-0.022408,-0.056730,0.253886,116.260407,351.572995,2.464629,-3.332945,8.492569,0.069748
1573524874.098976,0.078829,-0.056922,0.009577,-0.022923,-0.056834,0.254125,116.501069,351.992826,2.488729,-3.246486,8.460025,0.086030
1573524874.228466,0.078698,-0.057155,0.009562,-0.023185,-0.057361,0.253962,116.099639,353.370580,2.504056,-3.190052,8.510574,0.085548
1573524874.323096,0.079096,-0.057649,0.009552,-0.023465,-0.057415,0.253870,116.061915,354.004628,2.534702,-3.128624,8.514846,0.070040
1573524874.447606,0.079056,-0.057640,0.009605,-0.023664,-0.057320,0.253766,115.796800,355.048440,2.519900,-3.083646,8.514783,0.081305
1573524874.572116,0.079505,-0.057967,0.009611,-0.023746,-0.057089,0.253850,115.645752,355.816886,2.543611,-3.002151,8.468009,0.089565
1573524874.666746,0.079598,-0.057879,0.009630,-0.023730,-0.056845,0.254140,115.405209,356.463833,2.532589,-2.957635,8.436417,0.087277
1573524874.796236,0.079365,-0.058049,0.009611,-0.024035,-0.057229,0.253540,115.116957,357.854500,2.555889,-2.946069,8.498302,0.124276
1573524874.920746,0.079218,-0.057878,0.009625,-0.024005,-0.057111,0.253366,114.705504,358.938892,2.540320,-2.883870,8.536811,0.093580
1573524875.045246,0.077827,-0.056890,0.009617,-0.024285,-0.057396,0.253178,114.103873,360.831417,2.502742,-2.905385,8.642028,0.087433
1573524875.174736,0.076650,-0.055975,0.009624,-0.024551,-0.057521,0.253042,113.520569,362.605733,2.472719,-2.926371,8.740110,0.080635
1573524875.269366,0.074649,-0.054248,0.009642,-0.024785,-0.057628,0.253243,112.822578,364.434325,2.391614,-2.943699,8.871965,0.082530
1573524875.363986,0.073360,-0.053088,0.009603,-0.024942,-0.057736,0.253338,112.260114,365.958810,2.376182,-2.977544,8.937054,0.078858
1573524875.523356,0.072357,-0.052092,0.009578,-0.025050,-0.057915,0.254046,111.503488,367.929860,2.369838,-3.071915,9.058381,0.043925
1573524875.617976,0.073488,-0.052935,0.009556,-0.024775,-0.057977,0.254105,111.309498,368.287939,2.421953,-3.083653,8.998427,0.072837
1573524875.772366,0.073525,-0.052769,0.009579,-0.024370,-0.058270,0.254645,110.496532,369.750801,2.417431,-3.125771,8.939892,0.060881
1573524875.866996,0.074583,-0.053759,0.009679,-0.024000,-0.058633,0.254859,110.202622,370.229486,2.399019,-3.158976,8.913740,0.066834
1573524875.996486,0.075284,-0.054490,0.009735,-0.023863,-0.059015,0.254926,109.828986,371.228848,2.399175,-3.183556,8.953232,0.067875
1573524876.120996,0.076150,-0.055041,0.009826,-0.023688,-0.058789,0.254734,109.557206,371.853580,2.382884,-3.209411,8.869433,0.077307
1573524876.215636,0.076584,-0.055316,0.009892,-0.023562,-0.058712,0.254638,109.290236,372.451471,2.361819,-3.209087,8.835522,0.041873
1573524876.310266,0.077069,-0.055865,0.009877,-0.023755,-0.058904,0.255060,109.267631,373.129830,2.399079,-3.175743,8.797205,0.053551
1573524876.469636,0.076818,-0.055662,0.009907,-0.023728,-0.059010,0.255111,108.660393,374.727606,2.372898,-3.194467,8.827881,0.070992
1573524876.564256,0.075691,-0.054920,0.009872,-0.024181,-0.059161,0.255089,108.305252,376.194974,2.371156,-3.184097,8.913323,0.073473
1573524876.718646,0.075582,-0.054790,0.009843,-0.024000,-0.059305,0.255247,107.600452,377.690503,2.402714,-3.232811,8.942848,0.083892
1573524876.818256,0.077165,-0.056152,0.009966,-0.024162,-0.059237,0.255730,107.921259,377.719010,2.400690,-3.162693,8.835143,0.101204
1573524876.912886,0.075286,-0.054533,0.009980,-0.024395,-0.059044,0.255744,107.295690,379.435613,2.334566,-3.181545,8.938028,0.086445
1573524877.007516,0.075553,-0.054458,0.010023,-0.024063,-0.058698,0.255985,106.884219,379.966892,2.328339,-3.202065,8.894389,0.077435
1573524877.161906,0.075900,-0.054645,0.010074,-0.023983,-0.058556,0.256148,106.494413,381.060325,2.319351,-3.126730,8.864193,0.080917
1573524877.256536,0.075772,-0.054755,0.010060,-0.024121,-0.058903,0.256037,106.207511,382.150221,2.337493,-3.108974,8.915840,0.067929
1573524877.415896,0.075558,-0.054616,0.010103,-0.024251,-0.058943,0.256177,105.712953,383.702320,2.304525,-3.086033,8.957471,0.068290
1573524877.525466,0.075366,-0.054407,0.010173,-0.024305,-0.058792,0.256200,105.403174,384.692702,2.254282,-3.051368,8.961162,0.063165
1573524877.669886,0.075402,-0.054540,0.010136,-0.024188,-0.059156,0.256207,104.805638,386.149350,2.291729,-3.071901,8.992567,0.068227
1573524877.764506,0.075379,-0.054393,0.010185,-0.023788,-0.059264,0.256534,104.200768,387.031071,2.261991,-3.109968,8.990668,0.074146
1573524877.859136,0.075561,-0.054378,0.010208,-0.023606,-0.059078,0.256699,103.863294,387.647054,2.261007,-3.099859,8.952346,0.087344
1573524877.958736,0.075715,-0.054589,0.010221,-0.023963,-0.058925,0.256772,103.919834,388.375499,2.265133,-3.017885,8.962359,0.057562
1573524878.108136,0.075774,-0.054691,0.010273,-0.024050,-0.058930,0.256722,103.541915,389.699806,2.243428,-3.014564,8.996770,0.054907
1573524878.207746,0.075182,-0.054243,0.010274,-0.023967,-0.059200,0.256843,102.917587,391.067821,2.225457,-3.051985,9.035531,0.068801
1573524878.332246,0.075465,-0.054468,0.010273,-0.023712,-0.059409,0.256984,102.377550,392.119439,2.243789,-3.055902,9.018286,0.051508
1573524878.456756,0.076381,-0.055221,0.010261,-0.023339,-0.059723,0.257289,101.947419,392.868831,2.292339,-3.097330,9.014524,0.075697
1573524878.551376,0.077331,-0.055969,0.010322,-0.023426,-0.059600,0.257396,102.049461,393.088930,2.308299,-3.043480,8.956562,0.088176
1573524878.645976,0.078927,-0.057099,0.010372,-0.023125,-0.059526,0.257885,102.085466,392.903418,2.342842,-2.996033,8.852340,0.071571
1573524878.805356,0.079822,-0.057520,0.010437,-0.022753,-0.059198,0.258151,101.705461,393.552620,2.335051,-2.997432,8.747490,0.068623
1573524878.899976,0.079857,-0.057550,0.010473,-0.022671,-0.059268,0.258077,101.356938,394.371048,2.314691,-3.015513,8.755578,0.066507
1573524879.039416,0.078444,-0.056552,0.010449,-0.022865,-0.059399,0.257996,100.602586,396.479951,2.277504,-3.031188,8.877432,0.050444
1573524879.153966,0.079188,-0.057055,0.010449,-0.023262,-0.059111,0.258268,100.893780,396.833656,2.316701,-2.950052,8.792891,0.061341
1573524879.248586,0.079504,-0.057187,0.010451,-0.023541,-0.058882,0.258533,101.011695,397.333447,2.337771,-2.885292,8.767998,0.085154
1573524879.402976,0.078301,-0.056137,0.010423,-0.023535,-0.058796,0.258558,100.184208,399.380847,2.323309,-2.922279,8.845079,0.068836
1573524879.502576,0.078462,-0.056346,0.010408,-0.023725,-0.058882,0.258668,100.084907,400.182232,2.337463,-2.906766,8.870967,0.053066
1573524879.597206,0.078475,-0.056220,0.010408,-0.023645,-0.058795,0.258991,99.793703,400.910470,2.346442,-2.933688,8.864056,0.066478
1573524879.721706,0.079705,-0.057358,0.010394,-0.023992,-0.058797,0.259295,100.189304,401.107848,2.425269,-2.819750,8.769484,0.070114
1573524879.846206,0.080715,-0.058074,0.010363,-0.023560,-0.058642,0.259603,99.945055,401.314864,2.500685,-2.804419,8.655591,0.071744
1573524879.990636,0.080998,-0.058403,0.010319,-0.023543,-0.058737,0.259608,99.641313,402.344443,2.554476,-2.793689,8.662113,0.088674
1573524880.100196,0.081381,-0.058602,0.010323,-0.023683,-0.058449,0.260170,99.656322,402.819188,2.580901,-2.746547,8.612951,0.101332
1573524880.194826,0.081480,-0.058621,0.010322,-0.023466,-0.058488,0.260429,99.241441,403.568541,2.592639,-2.765934,8.606686,0.082510
1573524880.319336,0.082331,-0.059329,0.010341,-0.023827,-0.058142,0.260772,99.611857,403.754172,2.630164,-2.660756,8.538519,0.073631
1573524880.448816,0.080270,-0.057738,0.010306,-0.023961,-0.058645,0.260355,98.408753,406.850553,2.562028,-2.785094,8.749069,0.104673
1573524880.543446,0.079357,-0.057017,0.010335,-0.023910,-0.058842,0.259946,97.656861,408.507545,2.501881,-2.823208,8.847977,0.082952
1573524880.667946,0.078285,-0.056202,0.010401,-0.024021,-0.058810,0.259811,97.006748,410.348594,2.427024,-2.841848,8.955855,0.059797
1573524880.762566,0.076953,-0.055229,0.010321,-0.024069,-0.059449,0.259897,96.067454,412.634809,2.429973,-2.948162,9.149286,0.078108
1573524880.921926,0.077165,-0.055539,0.010341,-0.024468,-0.059134,0.259733,96.092719,413.666891,2.453354,-2.851518,9.096435,0.085319
1573524881.016546,0.076973,-0.055314,0.010362,-0.024424,-0.058979,0.259784,95.758611,414.576594,2.441172,-2.848057,9.102330,0.076748
1573524881.111176,0.076965,-0.055311,0.010354,-0.024455,-0.058976,0.259871,95.502912,415.463045,2.458952,-2.835937,9.126254,0.071093
1573524881.205796,0.077255,-0.055670,0.010357,-0.024637,-0.058920,0.259717,95.521177,416.101783,2.482497,-2.789938,9.125667,0.076539
1573524881.365156,0.077284,-0.055450,0.010409,-0.024326,-0.058714,0.260296,94.866301,417.381875,2.460847,-2.805910,9.114249,0.057935
1573524881.459786,0.077763,-0.056138,0.010417,-0.024697,-0.058923,0.260064,95.055186,418.039522,2.484428,-2.735125,9.122775,0.038299
1573524881.554406,0.078815,-0.056966,0.010407,-0.024606,-0.058837,0.259964,95.211853,418.039923,2.541522,-2.709910,9.034889,0.067187
1573524881.688886,0.078255,-0.056596,0.010416,-0.024652,-0.059093,0.259958,94.578118,419.837847,2.519708,-2.710376,9.096288,0.082462
1573524881.803416,0.078364,-0.056498,0.010469,-0.024793,-0.058496,0.259868,94.559794,420.408517,2.497506,-2.640986,9.047976,0.060752
1573524881.962786,0.078462,-0.056616,0.010474,-0.024553,-0.058745,0.259714,93.937889,421.908326,2.498378,-2.695152,9.098955,0.079844
1573524882.057426,0.077072,-0.055657,0.010495,-0.025047,-0.058761,0.259592,93.521747,423.910784,2.427043,-2.693716,9.238329,0.071455
1573524882.152036,0.075544,-0.054370,0.010509,-0.025221,-0.058592,0.259530,92.830858,425.872271,2.362615,-2.696510,9.341857,0.041181
1573524882.251646,0.074800,-0.053804,0.010546,-0.025600,-0.058265,0.259600,92.684037,427.017024,2.310683,-2.660375,9.359480,0.053177
1573524882.406036,0.075589,-0.054191,0.010584,-0.025315,-0.057881,0.259803,92.468305,427.546240,2.329997,-2.624633,9.270915,0.048179
1573524882.500656,0.077535,-0.055357,0.010647,-0.024900,-0.057114,0.259912,92.900929,426.353390,2.379636,-2.565094,9.028130,0.068471
1573524882.660016,0.077486,-0.055299,0.010664,-0.024788,-0.057174,0.259916,92.382257,427.956767,2.369003,-2.557977,9.063017,0.055376
1573524882.754636,0.077594,-0.055291,0.010662,-0.024586,-0.056994,0.259595,92.056378,428.626744,2.383621,-2.573462,9.048381,0.035958
1573524882.849266,0.077942,-0.055526,0.010633,-0.024169,-0.056992,0.259321,91.591842,429.188030,2.420625,-2.603479,9.022913,0.037435
1573524882.943886,0.076643,-0.054499,0.010607,-0.024751,-0.057083,0.259875,91.274382,431.193840,2.388557,-2.593742,9.150420,0.041900
1573524883.068396,0.075529,-0.053552,0.010604,-0.024979,-0.057342,0.260310,90.527414,433.534898,2.341779,-2.615918,9.263130,0.025784
1573524883.163026,0.074913,-0.053003,0.010591,-0.025199,-0.057327,0.260544,90.180326,434.888076,2.327472,-2.601618,9.311898,0.027924
1573524883.272586,0.075072,-0.053093,0.010598,-0.025265,-0.057235,0.260942,90.052614,435.570063,2.336641,-2.568043,9.288860,0.028676
