1571103791.557143,0.132437,-0.010450,0.009147,0.097099,0.121827,-0.012670,0.819240,0.024505,-0.096898,1.021272,0.006581,-0.078058
1571103791.631903,0.266824,-0.023639,-0.002253,0.096116,0.061912,-0.010514,1.033497,0.029857,-0.054683,1.185077,0.025333,-0.046915
1571103791.696703,0.473581,-0.053828,-0.003628,0.094177,0.046011,-0.012048,1.150079,0.020573,-0.059671,1.273448,0.014766,-0.063469
1571103791.761503,0.689542,-0.059399,0.002147,0.093790,0.041185,-0.011982,1.241849,0.021766,-0.085399,1.345144,0.013722,-0.096452
1571103791.826313,1.052571,-0.060048,0.023125,0.092745,0.033969,-0.011900,1.348664,0.019621,-0.133998,1.419922,0.006740,-0.138994
1571103791.916033,1.283155,-0.051475,0.045125,0.093071,0.034565,-0.010962,1.478056,0.022152,-0.185354,1.494258,0.001087,-0.178411
1571103792.015733,1.475955,-0.028243,0.066070,0.091823,0.029730,-0.011003,1.641996,0.017320,-0.233097,1.597892,-0.002686,-0.215589
1571103792.140343,1.534838,-0.015212,0.073926,0.092661,0.028482,-0.009795,1.849137,0.018283,-0.275863,1.750299,-0.004773,-0.277053
1571103792.299863,1.549771,0.006328,0.075669,0.092983,0.025559,-0.010289,2.149886,0.014507,-0.325801,1.891740,-0.007223,-0.292648
1571103792.424473,1.528025,0.015963,0.073245,0.092194,0.023995,-0.010535,2.403475,0.009421,-0.360183,2.007240,-0.044854,-0.306880
1571103792.549093,1.480468,0.025395,0.067768,0.092506,0.023089,-0.011123,2.663797,0.002177,-0.391253,2.108071,-0.050189,-0.324982
1571103792.678703,1.476381,0.007465,0.068298,0.092580,0.023614,-0.011514,2.937513,0.000619,-0.438067,2.195221,0.005754,-0.354018
1571103792.833233,1.514122,-0.029551,0.074048,0.092759,0.025651,-0.011127,3.273083,0.005995,-0.506252,2.263511,0.021671,-0.346358
1571103792.962843,1.532864,-0.050468,0.077141,0.092745,0.028038,-0.012047,3.568262,0.004614,-0.559634,2.330348,-0.009239,-0.357447
1571103793.087463,1.536477,-0.052899,0.077540,0.092495,0.029632,-0.013037,3.863980,0.002307,-0.607422,2.408352,-0.031382,-0.366153
1571103793.212083,1.536033,-0.051015,0.076970,0.092205,0.030634,-0.014698,4.170909,-0.005114,-0.652881,2.487994,-0.057691,-0.396184
1571103793.341693,1.535290,-0.017280,0.076661,0.092443,0.031897,-0.015375,4.496735,-0.014353,-0.707558,2.583302,-0.072246,-0.423085
1571103793.496213,1.521351,0.029738,0.074611,0.093018,0.033199,-0.015905,4.903937,-0.021691,-0.770055,2.698817,-0.033877,-0.458069
1571103793.625823,1.477557,0.096617,0.068391,0.093370,0.033787,-0.016814,5.261790,-0.030215,-0.815931,2.801423,-0.050391,-0.463255
1571103793.750443,1.434946,0.146828,0.062464,0.092342,0.033879,-0.018176,5.617351,-0.039989,-0.859431,2.902149,-0.044122,-0.483083
1571103793.875063,1.351462,0.242949,0.051162,0.091674,0.034433,-0.020060,5.981830,-0.050239,-0.884547,2.965224,-0.056165,-0.415541
1571103794.034583,1.315423,0.266515,0.046867,0.091135,0.036557,-0.021799,6.462777,-0.061288,-0.938235,3.066521,-0.053687,-0.423916
1571103794.159193,1.311540,0.271310,0.046637,0.092112,0.038048,-0.022676,6.847954,-0.068606,-0.993168,3.124859,-0.050983,-0.442267
1571103794.288793,1.270686,0.320395,0.040585,0.091183,0.037478,-0.023086,7.250011,-0.079526,-1.025112,3.167775,-0.082935,-0.393828
1571103794.413423,1.226277,0.373506,0.034553,0.091152,0.037260,-0.022763,7.651052,-0.090029,-1.051884,3.233813,-0.049837,-0.383818
1571103794.572923,1.196285,0.423102,0.030327,0.090582,0.036065,-0.022555,8.177054,-0.092764,-1.099298,3.299350,-0.003230,-0.395363
1571103794.697553,1.181696,0.470904,0.028256,0.089191,0.034863,-0.021635,8.591956,-0.095421,-1.137691,3.370262,-0.030107,-0.379685
1571103794.822173,1.175092,0.490919,0.027432,0.088451,0.033531,-0.019933,9.014175,-0.105992,-1.179268,3.417211,-0.105228,-0.350496
1571103794.951783,1.169791,0.495197,0.026810,0.087898,0.031386,-0.019552,9.457685,-0.120216,-1.224962,3.464286,-0.052093,-0.424057
1571103795.076403,1.199394,0.459539,0.031006,0.086281,0.031619,-0.017797,9.894391,-0.116701,-1.301029,3.527561,-0.004324,-0.472734
1571103795.235913,1.200005,0.434423,0.031287,0.084504,0.030633,-0.017378,10.463210,-0.126007,-1.368806,3.574845,-0.083634,-0.367177
1571103795.360533,1.208065,0.419096,0.032430,0.084129,0.029528,-0.015982,10.914980,-0.127516,-1.422827,3.632784,-0.018806,-0.434024
1571103795.490143,1.217146,0.404757,0.033764,0.083827,0.029998,-0.015010,11.389717,-0.127806,-1.489079,3.695179,-0.048648,-0.451624
1571103795.614773,1.216943,0.391454,0.033918,0.082902,0.029866,-0.013925,11.853726,-0.131095,-1.542974,3.718699,-0.018453,-0.373568
1571103795.739393,1.221989,0.364617,0.035019,0.083102,0.028414,-0.012717,12.323045,-0.131107,-1.595664,3.756569,-0.016310,-0.386438
1571103795.898903,1.199561,0.349048,0.032373,0.082643,0.027446,-0.012319,12.935284,-0.138112,-1.659504,3.846765,-0.066518,-0.532097
1571103796.023523,1.177045,0.337854,0.029497,0.083024,0.027551,-0.013743,13.409144,-0.154942,-1.710143,3.889643,-0.089909,-0.482772
1571103796.153113,1.159095,0.324357,0.027260,0.082720,0.027296,-0.014311,13.918944,-0.163011,-1.761393,3.910262,-0.006670,-0.471169
1571103796.277743,1.154230,0.327595,0.026447,0.082395,0.027955,-0.014378,14.393244,-0.166798,-1.814990,3.927331,-0.022658,-0.480962
1571103796.437253,1.151487,0.326030,0.026170,0.082497,0.028953,-0.016136,15.020808,-0.182407,-1.890324,3.990789,-0.110829,-0.452976
1571103796.561863,1.161862,0.324075,0.027668,0.082786,0.028988,-0.016061,15.521125,-0.195972,-1.952891,4.002270,-0.093877,-0.417410
1571103796.686483,1.164723,0.320431,0.028121,0.082523,0.028414,-0.016819,16.024486,-0.205495,-2.008698,4.025267,-0.058502,-0.420230
1571103796.816083,1.166231,0.308533,0.028521,0.081999,0.026613,-0.017207,16.555346,-0.214769,-2.066920,4.078910,-0.074351,-0.444348
1571103796.940713,1.158975,0.312435,0.027386,0.081416,0.025563,-0.018216,17.058995,-0.225013,-2.120910,4.099160,-0.078477,-0.527424
1571103797.100233,1.148011,0.296332,0.026124,0.081925,0.025226,-0.018088,17.716337,-0.239942,-2.195940,4.077158,-0.095011,-0.450230
1571103797.224853,1.138360,0.271034,0.025039,0.081056,0.023798,-0.018155,18.233515,-0.253496,-2.246087,4.077943,-0.076689,-0.405474
1571103797.349473,1.151203,0.257885,0.026905,0.081403,0.023633,-0.018566,18.741278,-0.265910,-2.317941,4.063547,-0.087661,-0.532691
1571103797.479083,1.153713,0.245494,0.027628,0.082669,0.024750,-0.018460,19.281379,-0.279208,-2.391629,4.051000,-0.121572,-0.468863
1571103797.633603,1.157943,0.237144,0.028573,0.084005,0.025971,-0.019260,19.903827,-0.298845,-2.465138,4.014401,-0.053910,-0.394076
1571103797.763203,1.175488,0.242744,0.031408,0.085700,0.026773,-0.019248,20.427790,-0.309056,-2.535887,4.005514,-0.129258,-0.445915
1571103797.887833,1.186382,0.250667,0.032953,0.087183,0.028335,-0.018677,20.932921,-0.317977,-2.607960,3.989525,-0.095453,-0.556009
1571103798.012463,1.186992,0.256961,0.032837,0.087686,0.029100,-0.018522,21.423691,-0.325211,-2.676781,3.975971,-0.049804,-0.567311
1571103798.142073,1.209281,0.280364,0.035431,0.089149,0.029991,-0.017631,21.919624,-0.327127,-2.757812,3.935758,-0.055516,-0.505522
1571103798.296593,1.228594,0.300343,0.037673,0.089900,0.030662,-0.017044,22.511542,-0.328786,-2.841073,3.903151,-0.039940,-0.469355
1571103798.426213,1.243861,0.332564,0.039152,0.089770,0.031440,-0.017292,22.980412,-0.337655,-2.902091,3.847776,-0.084734,-0.470235
1571103798.550823,1.242910,0.343854,0.039067,0.090204,0.031165,-0.017029,23.435097,-0.357452,-2.959280,3.805482,-0.108361,-0.514535
1571103798.675453,1.244090,0.354237,0.039194,0.089790,0.031176,-0.017453,23.891845,-0.370217,-3.023514,3.772449,-0.053420,-0.532453
1571103798.834973,1.252428,0.356816,0.040387,0.090479,0.032071,-0.017407,24.491228,-0.377191,-3.114877,3.743231,-0.060522,-0.542236
1571103798.959593,1.250351,0.373509,0.039867,0.091026,0.034246,-0.016978,24.942802,-0.386800,-3.176424,3.654065,-0.066404,-0.520670
1571103799.089213,1.230485,0.362471,0.037497,0.090782,0.034623,-0.017648,25.422232,-0.409747,-3.226485,3.565763,-0.131080,-0.400610
1571103799.213833,1.226049,0.360620,0.036817,0.092180,0.034580,-0.017112,25.862499,-0.422934,-3.268016,3.527508,-0.096208,-0.341259
1571103799.338453,1.227333,0.354668,0.036996,0.092412,0.034490,-0.016772,26.306019,-0.431746,-3.316733,3.514137,-0.062189,-0.415218
1571103799.497973,1.224508,0.355292,0.036545,0.094493,0.034922,-0.016355,26.884501,-0.441783,-3.385641,3.533848,-0.090411,-0.431606
1571103799.622603,1.232358,0.378697,0.037168,0.094412,0.035151,-0.015641,27.305022,-0.448665,-3.436514,3.509276,-0.052448,-0.433731
1571103799.752213,1.235866,0.403396,0.037440,0.095654,0.035091,-0.014438,27.767010,-0.451878,-3.489544,3.486997,-0.088495,-0.417858
1571103799.876833,1.236642,0.421412,0.037379,0.096360,0.036142,-0.013212,28.205361,-0.465279,-3.540638,3.532750,-0.103076,-0.459819
1571103800.036363,1.224044,0.439087,0.035860,0.095603,0.035614,-0.013575,28.761736,-0.483730,-3.604227,3.515816,-0.050678,-0.443503
1571103800.160993,1.220307,0.440939,0.035290,0.095910,0.035225,-0.013035,29.201629,-0.491597,-3.653236,3.539591,-0.099598,-0.414723
1571103800.285613,1.223938,0.458620,0.035578,0.096591,0.034969,-0.013094,29.615696,-0.505985,-3.702396,3.531758,-0.083137,-0.420714
1571103800.415233,1.233799,0.420573,0.036877,0.096307,0.035915,-0.013213,30.074733,-0.517894,-3.770221,3.572592,-0.064483,-0.446234
1571103800.539853,1.226076,0.412750,0.035807,0.096297,0.036286,-0.012231,30.529563,-0.525593,-3.819202,3.590815,-0.072380,-0.414875
1571103800.699383,1.208060,0.396908,0.033567,0.095824,0.035910,-0.012079,31.117423,-0.545877,-3.876467,3.646690,-0.072497,-0.411631
1571103800.824003,1.204149,0.381092,0.033236,0.095886,0.035231,-0.012431,31.576417,-0.564971,-3.928195,3.673221,-0.089824,-0.409338
1571103800.948633,1.197842,0.367162,0.032755,0.095650,0.035420,-0.012925,32.057272,-0.578558,-3.985870,3.718425,-0.075329,-0.473939
1571103801.078243,1.185552,0.360188,0.031454,0.095533,0.036168,-0.013307,32.546954,-0.591541,-4.042961,3.744244,-0.058777,-0.459957
1571103801.232783,1.180037,0.361308,0.030845,0.094644,0.036507,-0.013547,33.119794,-0.606526,-4.103715,3.741608,-0.064090,-0.364709
1571103801.362393,1.168837,0.363303,0.029546,0.094184,0.036511,-0.013401,33.616464,-0.615961,-4.146792,3.749367,-0.059484,-0.403310
1571103801.496993,1.159905,0.366427,0.028367,0.093830,0.036549,-0.013526,34.124104,-0.626738,-4.198760,3.752099,-0.076284,-0.447163
1571103801.611643,1.161942,0.379338,0.028628,0.093042,0.036998,-0.013159,34.540158,-0.633071,-4.247653,3.721339,-0.072362,-0.435311
1571103801.741263,1.166670,0.386042,0.029343,0.093425,0.037537,-0.012933,35.012312,-0.646523,-4.307358,3.718362,-0.092182,-0.419888
1571103801.895793,1.170856,0.393216,0.029880,0.092717,0.037164,-0.013498,35.580328,-0.649165,-4.369758,3.694876,0.043352,-0.407489
1571103802.025413,1.169734,0.397602,0.029689,0.092298,0.037509,-0.013720,36.042122,-0.647833,-4.421511,3.662796,0.001892,-0.434502
1571103802.150043,1.156612,0.388345,0.028087,0.092058,0.037423,-0.013961,36.504833,-0.654046,-4.468738,3.628070,-0.035603,-0.411350
1571103802.274663,1.146754,0.375132,0.026891,0.091915,0.037088,-0.014109,36.966357,-0.659775,-4.517191,3.623702,-0.003998,-0.449521
1571103802.434183,1.134821,0.367513,0.025364,0.093101,0.037019,-0.013578,37.545292,-0.658725,-4.575327,3.575012,0.031847,-0.360350
1571103802.558813,1.122113,0.355886,0.023919,0.093373,0.037970,-0.013281,38.007074,-0.649673,-4.616976,3.565644,0.091809,-0.366487
1571103802.688423,1.114145,0.343740,0.022855,0.092157,0.037864,-0.013725,38.465519,-0.641213,-4.661278,3.533722,0.073337,-0.389130
1571103802.813053,1.096109,0.335618,0.020476,0.091530,0.037671,-0.013657,38.891603,-0.635432,-4.698679,3.499181,0.062736,-0.419157
1571103802.937683,1.087893,0.323735,0.019395,0.091178,0.037814,-0.013683,39.321446,-0.624833,-4.744432,3.454417,0.158694,-0.370250
1571103803.097213,1.065713,0.302066,0.016628,0.090294,0.036693,-0.013971,39.887964,-0.600460,-4.789565,3.441660,0.251143,-0.375907
1571103803.221843,1.033705,0.267551,0.012524,0.090079,0.036195,-0.013933,40.325002,-0.569569,-4.816753,3.433323,0.283611,-0.392705
1571103803.351463,1.013803,0.238578,0.009972,0.090215,0.035704,-0.014528,40.789095,-0.532930,-4.856877,3.424459,0.358833,-0.391054
1571103803.476083,1.006637,0.222972,0.009169,0.089944,0.035733,-0.014455,41.242011,-0.480794,-4.903734,3.404604,0.492356,-0.373559
1571103803.635623,1.028512,0.242588,0.012018,0.088790,0.035538,-0.014696,41.803637,-0.392557,-4.977880,3.373359,0.618737,-0.362044
1571103803.760243,1.046608,0.260856,0.014415,0.088219,0.034833,-0.015829,42.256998,-0.312348,-5.039786,3.369541,0.731849,-0.386621
1571103803.884873,1.056635,0.272420,0.015517,0.088229,0.034336,-0.016227,42.675119,-0.211356,-5.089412,3.305479,0.927009,-0.352423
1571103804.014493,1.057607,0.278102,0.015755,0.088462,0.033839,-0.016601,43.114760,-0.079291,-5.134821,3.249633,1.135499,-0.349385
1571103804.139103,1.062901,0.293218,0.016560,0.087372,0.033358,-0.017127,43.546088,0.073933,-5.186967,3.201690,1.323694,-0.397098
1571103804.298633,1.066514,0.303906,0.017024,0.086639,0.033299,-0.017402,44.063431,0.294166,-5.253504,3.145380,1.425934,-0.407195
1571103804.423253,1.048519,0.317190,0.015313,0.086687,0.033849,-0.017386,44.449798,0.474545,-5.294049,3.081703,1.471874,-0.368190
1571103804.547883,1.046996,0.323073,0.015367,0.086336,0.033739,-0.017716,44.829517,0.667531,-5.339036,2.973683,1.636343,-0.342677
1571103804.677503,1.023340,0.295100,0.012546,0.085508,0.033778,-0.017621,45.187359,0.891991,-5.364946,2.832599,1.825936,-0.319706
1571103804.832033,0.972197,0.252005,0.006889,0.084971,0.034576,-0.017246,45.599941,1.189627,-5.379509,2.647186,1.980350,-0.251560
1571103804.961653,0.970888,0.238886,0.006659,0.084201,0.035415,-0.017591,45.914012,1.447397,-5.411861,2.511841,2.073337,-0.276068
1571103805.086273,0.931347,0.231953,0.002566,0.083755,0.035843,-0.017819,46.220490,1.720019,-5.430449,2.389200,2.164709,-0.289127
1571103805.210903,0.857762,0.180163,-0.005483,0.083410,0.036330,-0.017994,46.526296,2.015685,-5.420909,2.262273,2.256942,-0.205143
1571103805.340503,0.829063,0.161313,-0.008634,0.083354,0.036019,-0.018532,46.810437,2.318616,-5.423725,2.119256,2.343111,-0.134562
1571103805.500033,0.749889,0.129588,-0.016834,0.083335,0.035997,-0.018604,47.155709,2.728173,-5.407772,1.959466,2.406491,-0.114300
1571103805.624663,0.692945,0.108667,-0.022611,0.082792,0.036054,-0.018928,47.407857,3.057279,-5.397017,1.821162,2.476418,-0.108962
1571103805.749283,0.646050,0.099857,-0.027191,0.082291,0.036298,-0.018967,47.636133,3.395855,-5.393385,1.633512,2.586924,-0.087143
1571103805.873913,0.593945,0.087848,-0.032265,0.082267,0.036393,-0.018969,47.843116,3.755823,-5.382061,1.430920,2.674769,-0.013293
1571103806.033433,0.542286,0.084613,-0.037116,0.081712,0.035994,-0.019096,48.074736,4.223766,-5.370334,1.262070,2.725397,-0.011759
1571103806.158073,0.490519,0.091703,-0.041876,0.081334,0.036103,-0.019061,48.244359,4.607283,-5.360804,1.171068,2.734065,0.020229
1571103806.287693,0.451512,0.091814,-0.045270,0.080489,0.036613,-0.019468,48.409202,4.995719,-5.353296,1.141086,2.708106,0.022761
1571103806.412313,0.416435,0.091792,-0.048244,0.079664,0.037503,-0.019585,48.557982,5.371458,-5.348455,1.011925,2.747190,0.004101
1571103806.536943,0.383758,0.095934,-0.050948,0.078933,0.038555,-0.019825,48.694825,5.757950,-5.350325,0.861199,2.805241,-0.024131
1571103806.696473,0.348781,0.101139,-0.053839,0.077974,0.039483,-0.020768,48.846200,6.252530,-5.352523,0.777196,2.781840,0.027246
1571103806.826083,0.328511,0.108879,-0.055443,0.077693,0.040722,-0.021533,48.952012,6.644340,-5.350236,0.634635,2.776227,0.073576
1571103806.950713,0.324021,0.109114,-0.055478,0.077184,0.041496,-0.021499,49.019857,6.999159,-5.346638,0.463231,2.780450,0.054007
1571103807.075333,0.314731,0.104952,-0.056273,0.077479,0.041816,-0.021157,49.071787,7.361306,-5.341261,0.376971,2.759706,0.018667
1571103807.234853,0.301028,0.106913,-0.057202,0.077422,0.042321,-0.020928,49.129997,7.825724,-5.340685,0.261234,2.719873,0.054466
1571103807.359483,0.278727,0.112889,-0.058901,0.077438,0.043158,-0.020424,49.164040,8.211211,-5.337126,0.136701,2.721958,0.069461
1571103807.489093,0.269016,0.116819,-0.059416,0.076813,0.043608,-0.020381,49.186164,8.585461,-5.334474,0.122666,2.687862,0.043772
1571103807.678523,0.254601,0.120776,-0.060513,0.076424,0.043957,-0.019924,49.220361,9.125188,-5.333058,0.154267,2.628604,0.019562
1571103807.738333,0.239883,0.121750,-0.061433,0.076534,0.044659,-0.018868,49.228718,9.323605,-5.337636,0.123370,2.651844,0.014632
1571103807.962663,0.223708,0.124356,-0.062634,0.076583,0.045297,-0.018403,49.244196,9.958296,-5.332646,0.009072,2.601892,0.048934
1571103808.022483,0.214066,0.124346,-0.063014,0.077110,0.045896,-0.018140,49.244182,10.142542,-5.336567,0.023356,2.605324,0.040279
1571103808.152093,0.204392,0.127575,-0.063553,0.077408,0.045893,-0.018116,49.242708,10.506760,-5.335564,-0.051174,2.590534,0.042419
1571103808.276723,0.196270,0.126571,-0.063866,0.077655,0.045847,-0.018263,49.233756,10.856779,-5.334492,-0.084327,2.575718,0.044178
1571103808.401353,0.193004,0.129042,-0.063923,0.076308,0.045387,-0.018863,49.224678,11.186974,-5.332099,-0.102143,2.535917,0.028165
1571103808.560873,0.186217,0.130057,-0.064151,0.076069,0.045535,-0.019016,49.200309,11.613643,-5.333657,-0.181656,2.503062,0.037796
1571103808.685503,0.183613,0.128906,-0.064086,0.074908,0.045361,-0.019162,49.168976,11.933281,-5.331870,-0.266609,2.471194,0.042849
1571103808.815123,0.179222,0.128687,-0.064155,0.074654,0.045616,-0.019595,49.132548,12.268283,-5.332767,-0.233897,2.450188,0.021790
1571103808.939743,0.173388,0.128954,-0.064389,0.074566,0.045669,-0.019963,49.103002,12.593311,-5.332772,-0.190820,2.431159,0.038274
1571103809.099273,0.165886,0.128708,-0.064729,0.074972,0.045805,-0.020270,49.061276,13.005478,-5.329705,-0.263337,2.399833,0.057794
1571103809.223893,0.161483,0.127694,-0.064509,0.075289,0.045973,-0.020191,49.020512,13.319751,-5.331197,-0.283614,2.377710,0.043822
1571103809.348523,0.157643,0.128760,-0.064524,0.075421,0.046076,-0.020253,48.985317,13.628458,-5.331110,-0.226344,2.363024,0.028249
1571103809.478133,0.151917,0.126471,-0.064598,0.075960,0.045824,-0.020191,48.950155,13.956448,-5.331615,-0.183280,2.346658,0.027347
1571103809.602753,0.148291,0.127435,-0.064593,0.075909,0.045968,-0.020681,48.922432,14.262157,-5.329860,-0.204230,2.308392,0.080396
1571103809.717423,0.145933,0.127862,-0.064699,0.075824,0.045895,-0.020556,48.899135,14.535586,-5.320409,-0.120505,2.293201,0.085340
1571103809.837063,0.143567,0.127955,-0.064702,0.075854,0.046008,-0.020524,48.888966,14.821743,-5.316507,0.017807,2.285963,0.038300
1571103810.011533,0.136744,0.119451,-0.065095,0.076972,0.045897,-0.018887,48.869443,15.246804,-5.309571,-0.033300,2.258231,0.071659
1571103810.141153,0.138055,0.119225,-0.064015,0.076499,0.045932,-0.020619,48.864015,15.548207,-5.315017,-0.070528,2.222115,0.063425
1571103810.295683,0.134740,0.113555,-0.063763,0.076818,0.046071,-0.020327,48.834841,15.912097,-5.313599,-0.079421,2.194438,0.050750
1571103810.425293,0.132513,0.110776,-0.063472,0.076485,0.045954,-0.020379,48.814563,16.208193,-5.313857,-0.066926,2.167309,0.051236
1571103810.549913,0.130503,0.109556,-0.063160,0.077056,0.045859,-0.020101,48.798187,16.492487,-5.312397,-0.081998,2.186941,0.071636
1571103810.674533,0.129199,0.109912,-0.063020,0.077175,0.045453,-0.020275,48.782733,16.775026,-5.311052,-0.140913,2.210437,0.006315
1571103810.804153,0.127362,0.109660,-0.062869,0.077622,0.045394,-0.020165,48.758791,17.071751,-5.313111,-0.133686,2.247764,0.042597
1571103810.958673,0.125650,0.110671,-0.062728,0.078407,0.045048,-0.020174,48.743382,17.433449,-5.312666,-0.063877,2.337036,-0.005100
1571103811.088283,0.125001,0.109839,-0.062540,0.078541,0.045005,-0.019942,48.729380,17.741076,-5.315024,-0.091702,2.405908,0.018678
1571103811.212903,0.121515,0.112732,-0.062502,0.078806,0.044772,-0.019560,48.715437,18.058827,-5.315859,-0.084613,2.486864,0.016073
1571103811.337533,0.120134,0.112560,-0.062235,0.079451,0.044927,-0.019201,48.698691,18.380338,-5.316167,-0.125907,2.572461,0.042079
1571103811.497043,0.119953,0.112378,-0.061917,0.079640,0.045285,-0.018950,48.673751,18.802077,-5.314267,-0.140537,2.675740,0.019707
1571103811.621663,0.119989,0.112656,-0.061556,0.079220,0.045582,-0.018799,48.659828,19.143132,-5.314414,-0.117499,2.773432,0.050182
1571103811.751273,0.119843,0.112851,-0.061341,0.079195,0.045101,-0.018101,48.645148,19.517028,-5.310583,-0.111155,2.850556,0.058355
1571103811.875893,0.119694,0.112593,-0.061123,0.079128,0.044514,-0.017359,48.626681,19.884313,-5.305826,-0.157159,2.952286,0.070293
1571103812.000513,0.119875,0.112524,-0.060843,0.079110,0.043945,-0.016883,48.608693,20.260034,-5.300956,-0.137515,3.077301,0.049358
1571103812.160033,0.120779,0.112178,-0.060510,0.079746,0.043261,-0.016781,48.591310,20.757051,-5.298799,-0.099113,3.200415,0.038711
1571103812.284653,0.121761,0.111874,-0.060222,0.080030,0.042770,-0.016856,48.578154,21.158637,-5.297164,-0.136257,3.289353,0.039235
1571103812.414273,0.122932,0.110734,-0.059902,0.080585,0.042575,-0.016834,48.560643,21.587990,-5.294804,-0.115095,3.383263,0.052985
1571103812.538883,0.124424,0.109136,-0.059476,0.081627,0.042874,-0.016913,48.548236,22.012980,-5.295139,-0.103243,3.470108,0.028124
1571103812.698413,0.125916,0.107249,-0.059067,0.082141,0.043284,-0.016922,48.518310,22.570344,-5.295765,-0.201151,3.578688,0.017360
1571103812.823023,0.127361,0.105227,-0.058580,0.082406,0.043540,-0.016612,48.492525,23.021167,-5.298430,-0.168700,3.647032,0.046108
1571103812.947643,0.128646,0.104035,-0.058256,0.082433,0.043274,-0.016466,48.473477,23.484391,-5.297404,-0.131047,3.740250,0.025645
1571103813.077263,0.129134,0.103769,-0.058054,0.081941,0.042970,-0.016432,48.454796,23.980915,-5.299172,-0.172529,3.815636,-0.007223
1571103813.201883,0.129963,0.102701,-0.057833,0.081562,0.042536,-0.016104,48.433467,24.459439,-5.300319,-0.146002,3.879626,0.038337
1571103813.361403,0.130915,0.101625,-0.057402,0.081323,0.042141,-0.015494,48.403089,25.079322,-5.300185,-0.188402,3.927839,0.038280
1571103813.486023,0.131794,0.101276,-0.057043,0.081298,0.041636,-0.015068,48.380380,25.571295,-5.299771,-0.194055,3.982764,0.071804
1571103813.610653,0.132485,0.101074,-0.056803,0.081360,0.041268,-0.014644,48.361822,26.073450,-5.298002,-0.140326,4.037898,0.019666
1571103813.740273,0.133026,0.100616,-0.056542,0.081433,0.040959,-0.014378,48.339364,26.596092,-5.298777,-0.176829,4.071734,0.021696
1571103813.894793,0.133436,0.099743,-0.056294,0.081488,0.040849,-0.014355,48.309673,27.229793,-5.303045,-0.184287,4.133214,0.009003
1571103814.024413,0.134070,0.098587,-0.055978,0.081987,0.040938,-0.014473,48.279823,27.757366,-5.305438,-0.239723,4.162355,0.008035
1571103814.149023,0.134396,0.098279,-0.055682,0.081819,0.040863,-0.014917,48.248555,28.274947,-5.307452,-0.226803,4.165876,0.042972
1571103814.273653,0.134796,0.097966,-0.055373,0.082077,0.040807,-0.014850,48.222427,28.792394,-5.307667,-0.179406,4.143205,0.021105
1571103814.403263,0.134663,0.098009,-0.055228,0.082000,0.040646,-0.014770,48.196017,29.332768,-5.307378,-0.207546,4.109060,0.032614
1571103814.557793,0.135094,0.097484,-0.054841,0.082279,0.040702,-0.014608,48.159628,29.968914,-5.309478,-0.228770,4.076364,0.037211
1571103814.687403,0.135400,0.097271,-0.054689,0.082669,0.040783,-0.014489,48.130342,30.489835,-5.307190,-0.226827,4.030322,0.044801
1571103814.812013,0.135321,0.097372,-0.054440,0.082698,0.040784,-0.014206,48.104179,30.996466,-5.307759,-0.190572,4.017181,0.025883
1571103814.936643,0.135272,0.097457,-0.054173,0.082563,0.040641,-0.013839,48.075294,31.495817,-5.312496,-0.248054,3.972486,0.015097
1571103815.066253,0.136119,0.096525,-0.053819,0.082775,0.040801,-0.013411,48.038659,31.993749,-5.316248,-0.243230,3.929188,0.031953
1571103815.220783,0.136164,0.096384,-0.053475,0.083326,0.041131,-0.012917,48.001037,32.601445,-5.319451,-0.187716,3.893176,0.059214
1571103815.350393,0.135713,0.096284,-0.053305,0.084435,0.041297,-0.012013,47.965037,33.107506,-5.317460,-0.235523,3.863071,0.005767
1571103815.475013,0.134959,0.096551,-0.053173,0.084991,0.041214,-0.011299,47.927873,33.603217,-5.319550,-0.241781,3.824813,0.051284
1571103815.599633,0.134356,0.097067,-0.052961,0.085326,0.041029,-0.010563,47.889718,34.102901,-5.317258,-0.297544,3.802832,0.063645
1571103815.759163,0.134136,0.097292,-0.052886,0.085366,0.040750,-0.009866,47.850601,34.721449,-5.314218,-0.235863,3.796582,0.014827
1571103815.883783,0.133943,0.097619,-0.052827,0.085423,0.040244,-0.009736,47.820850,35.206894,-5.310141,-0.280346,3.761529,0.071833
1571103816.013403,0.133646,0.098143,-0.052807,0.085414,0.039439,-0.009534,47.786310,35.703168,-5.300008,-0.310812,3.731005,0.051690
1571103816.138023,0.133744,0.098001,-0.052658,0.085303,0.038654,-0.009191,47.748754,36.168898,-5.298986,-0.340609,3.710765,0.010125
1571103816.262643,0.133452,0.098321,-0.052640,0.085054,0.038120,-0.009053,47.702985,36.632590,-5.296680,-0.416724,3.653876,0.062908
1571103816.422163,0.131953,0.099674,-0.052559,0.084916,0.037586,-0.008626,47.628356,37.250339,-5.290910,-0.498579,3.632842,0.043744
1571103816.546783,0.131030,0.100794,-0.052436,0.084574,0.036958,-0.008048,47.562048,37.731225,-5.294483,-0.584231,3.620726,0.017003
1571103816.676403,0.129790,0.102244,-0.052287,0.084733,0.036262,-0.007351,47.482322,38.232358,-5.293825,-0.676469,3.601460,0.074786
1571103816.801013,0.128658,0.103457,-0.052313,0.084812,0.035126,-0.006651,47.392146,38.702739,-5.283903,-0.807154,3.565467,0.088874
1571103816.960533,0.127052,0.105060,-0.052196,0.085199,0.034555,-0.005847,47.241896,39.310083,-5.276870,-1.027025,3.515693,0.069059
1571103817.085153,0.125552,0.106718,-0.052016,0.085305,0.034157,-0.004966,47.104361,39.794673,-5.276994,-1.159250,3.474078,0.076362
1571103817.209773,0.124187,0.108210,-0.051836,0.085528,0.034289,-0.004781,46.951716,40.307197,-5.278681,-1.305128,3.476962,0.042274
1571103817.339393,0.123053,0.109599,-0.051561,0.085657,0.034213,-0.004475,46.773150,40.815800,-5.282957,-1.436974,3.453767,0.050468
1571103817.464003,0.122310,0.110675,-0.051214,0.085886,0.034112,-0.003776,46.579609,41.303206,-5.287561,-1.627708,3.393689,0.022423
1571103817.623523,0.121243,0.111902,-0.051087,0.085652,0.033874,-0.003055,46.303971,41.897204,-5.292376,-1.788440,3.336290,-0.007172
1571103817.748143,0.120310,0.113102,-0.050832,0.085463,0.034128,-0.002889,46.072929,42.381423,-5.305711,-1.890728,3.320792,-0.028848
1571103817.872773,0.120442,0.112996,-0.050710,0.084922,0.033736,-0.003020,45.827795,42.787457,-5.310729,-2.065304,3.182141,0.000003
1571103818.042263,0.120513,0.113046,-0.050660,0.084463,0.033484,-0.003032,45.459511,43.312714,-5.309576,-2.313059,3.006987,0.008674
1571103818.156903,0.120622,0.112968,-0.050593,0.084053,0.033019,-0.003292,45.189593,43.658147,-5.310347,-2.418191,2.902994,-0.000750
1571103818.286513,0.118874,0.115218,-0.050319,0.083380,0.031979,-0.003786,44.860281,44.120261,-5.320932,-2.541479,2.834817,0.009558
1571103818.411133,0.118550,0.115877,-0.049884,0.082807,0.032127,-0.003944,44.530922,44.493770,-5.332977,-2.708999,2.706146,-0.009303
1571103818.535753,0.117965,0.116743,-0.049706,0.082172,0.031881,-0.004240,44.181499,44.851474,-5.338720,-2.852741,2.567543,0.008115
1571103818.665363,0.117726,0.117459,-0.049339,0.081589,0.032183,-0.004499,43.805662,45.197729,-5.346865,-2.904099,2.458724,0.023822
1571103818.819893,0.117353,0.118241,-0.049093,0.081441,0.032476,-0.004451,43.348396,45.585453,-5.349733,-2.968463,2.332466,0.012893
1571103818.949503,0.117284,0.118440,-0.048896,0.081203,0.033014,-0.004097,42.955672,45.880927,-5.351817,-3.076060,2.185133,0.016570
1571103819.074113,0.116885,0.119028,-0.048754,0.080610,0.033305,-0.004028,42.563437,46.149513,-5.355250,-3.165355,2.017393,0.011522
1571103819.198743,0.116804,0.119103,-0.048552,0.079942,0.033544,-0.003879,42.165009,46.389358,-5.359067,-3.232656,1.875699,-0.013606
1571103819.358253,0.116337,0.119671,-0.048521,0.079715,0.033801,-0.003794,41.643559,46.665821,-5.359211,-3.285956,1.650667,0.065977
1571103819.482883,0.115205,0.120706,-0.048551,0.079540,0.033546,-0.003540,41.232233,46.867442,-5.347648,-3.285301,1.564090,0.092341
1571103819.612473,0.113891,0.122296,-0.048516,0.078941,0.033794,-0.003144,40.795724,47.073779,-5.345212,-3.353053,1.431950,-0.009123
1571103819.737103,0.113334,0.123350,-0.048439,0.078443,0.033838,-0.002619,40.370025,47.243769,-5.349995,-3.407393,1.243268,-0.012546
1571103819.896613,0.112729,0.123680,-0.048423,0.078043,0.033598,-0.002551,39.819149,47.433238,-5.348816,-3.426819,1.055638,0.015525
1571103820.021223,0.112393,0.123767,-0.048345,0.077728,0.033371,-0.002287,39.391188,47.557880,-5.352497,-3.436850,0.955837,-0.021197
1571103820.145833,0.111428,0.124786,-0.048221,0.077619,0.033667,-0.001828,38.956205,47.672339,-5.358780,-3.446452,0.815257,0.008911
1571103820.275423,0.111237,0.124844,-0.048014,0.077469,0.034029,-0.001567,38.512826,47.768377,-5.361543,-3.419950,0.722761,0.021320
1571103820.400043,0.111430,0.124557,-0.047890,0.077486,0.034508,-0.001356,38.088756,47.845316,-5.361789,-3.439830,0.535036,-0.009906
1571103820.559563,0.111925,0.124285,-0.047609,0.077362,0.035349,-0.001085,37.543728,47.904840,-5.372392,-3.443088,0.266779,-0.026171
1571103820.684173,0.112200,0.124443,-0.047574,0.077406,0.035819,-0.000684,37.116765,47.937759,-5.372799,-3.375622,0.261286,0.023183
1571103820.808793,0.113363,0.123266,-0.047385,0.076979,0.036362,-0.000173,36.706113,47.960983,-5.371118,-3.316147,0.198744,0.058073
1571103820.938393,0.115851,0.120619,-0.046958,0.076886,0.037033,0.000067,36.296044,47.962043,-5.372490,-3.288909,0.104621,0.029179
1571103821.063023,0.116450,0.119457,-0.046767,0.076838,0.037264,0.000321,35.891505,47.971020,-5.372919,-3.214466,0.124791,0.044104
1571103821.222543,0.116534,0.118774,-0.046639,0.076755,0.037093,0.000331,35.383978,47.982834,-5.368127,-3.197988,0.026556,-0.002786
1571103821.347153,0.116233,0.118589,-0.046539,0.075782,0.037144,0.000125,34.984995,47.983651,-5.376032,-3.184407,0.009634,-0.060760
1571103821.476763,0.115996,0.118651,-0.046420,0.075070,0.037400,0.000017,34.572876,47.990777,-5.384788,-3.146880,0.072728,-0.023327
1571103821.601383,0.115473,0.117638,-0.046311,0.074605,0.038279,0.000031,34.181036,47.993320,-5.388553,-3.122398,-0.006195,0.006944
1571103821.755903,0.114045,0.117211,-0.046329,0.073991,0.038595,-0.000381,33.699958,47.988143,-5.386458,-3.083367,-0.003841,0.031388
1571103821.885513,0.112518,0.118134,-0.046332,0.073769,0.038616,-0.000862,33.292212,47.990960,-5.388915,-3.076481,0.035562,-0.048364
1571103822.010123,0.110581,0.118504,-0.046381,0.073993,0.038677,-0.001228,32.898785,47.997515,-5.395487,-3.048997,0.135319,-0.009608
1571103822.139733,0.108968,0.117864,-0.046312,0.073741,0.038546,-0.001335,32.496854,48.012338,-5.397007,-3.025448,0.162312,0.024608
1571103822.264353,0.107030,0.117440,-0.046231,0.073965,0.038146,-0.001360,32.108850,48.028015,-5.397510,-3.021428,0.191082,0.037190
1571103822.423853,0.105641,0.116894,-0.046099,0.073898,0.038107,-0.001147,31.619097,48.051814,-5.388078,-2.965723,0.168955,0.135658
1571103822.548483,0.103799,0.116407,-0.045913,0.073779,0.038042,-0.000678,31.231766,48.066692,-5.385974,-2.981993,0.174567,0.003476
1571103822.737903,0.102194,0.115705,-0.045779,0.073744,0.038428,-0.000303,30.654069,48.097468,-5.398118,-2.981389,0.210018,-0.041849
1571103822.802713,0.100194,0.114279,-0.045701,0.073904,0.038803,-0.000084,30.446839,48.096947,-5.404443,-2.969890,0.171384,-0.013225
1571103822.957233,0.099403,0.113900,-0.045521,0.073603,0.039097,0.000490,29.980568,48.115450,-5.408600,-2.958675,0.145205,0.027965
1571103823.086853,0.097946,0.112502,-0.045492,0.073410,0.039249,0.000863,29.587592,48.124057,-5.406687,-2.954858,0.163416,0.002652
1571103823.211463,0.097164,0.112173,-0.045669,0.073299,0.039387,0.001386,29.214184,48.144866,-5.406682,-2.964115,0.244952,-0.067036
1571103823.336093,0.095642,0.110460,-0.045583,0.073395,0.039579,0.001936,28.841314,48.162022,-5.416592,-2.922921,0.285203,-0.046595
1571103823.465703,0.093957,0.109282,-0.045513,0.073490,0.039477,0.002405,28.455100,48.181890,-5.422010,-2.905175,0.248261,-0.011787
1571103823.620233,0.092547,0.108330,-0.045349,0.073784,0.039328,0.002764,27.995473,48.208696,-5.428969,-2.902128,0.255248,-0.008320
1571103823.749843,0.092398,0.108937,-0.045210,0.074158,0.039523,0.002820,27.616106,48.244834,-5.432440,-2.882732,0.259800,0.023894
1571103823.874463,0.090903,0.108522,-0.045221,0.074520,0.039346,0.002960,27.247484,48.261487,-5.431327,-2.843577,0.219043,0.012272
1571103823.999083,0.089538,0.108340,-0.045205,0.074188,0.038958,0.003038,26.883552,48.280586,-5.428689,-2.805133,0.249445,0.062706
1571103824.158603,0.087907,0.108105,-0.045081,0.074290,0.038252,0.002880,26.414236,48.309454,-5.419513,-2.919177,0.259010,0.081449
1571103824.283223,0.086690,0.107662,-0.045023,0.074495,0.037562,0.002629,26.033880,48.331143,-5.415909,-3.026045,0.224330,-0.011952
1571103824.412833,0.085667,0.107234,-0.045034,0.074785,0.037224,0.002530,25.631771,48.349002,-5.420141,-3.096675,0.205410,-0.004545
1571103824.602263,0.084925,0.107392,-0.045036,0.074756,0.037111,0.002625,25.022934,48.382273,-5.414838,-3.210168,0.204591,0.054443
1571103824.756783,0.084080,0.106879,-0.044968,0.074579,0.036853,0.002583,24.511349,48.405391,-5.409102,-3.344683,0.226579,0.032103
1571103824.821593,0.083347,0.106418,-0.044838,0.074693,0.036586,0.002538,24.286836,48.410807,-5.412031,-3.402104,0.232507,0.001924
1571103824.946203,0.082915,0.105826,-0.044632,0.074890,0.036528,0.002486,23.855946,48.431259,-5.421118,-3.491071,0.234415,-0.032784
1571103825.075803,0.082746,0.104943,-0.044350,0.075222,0.036235,0.002594,23.395399,48.450290,-5.427830,-3.587912,0.186911,0.007651
1571103825.200433,0.082959,0.103984,-0.044083,0.075154,0.036079,0.002893,22.944337,48.466707,-5.430848,-3.667005,0.163450,0.042933
1571103825.359953,0.083344,0.103352,-0.043817,0.075036,0.035963,0.003136,22.351199,48.493066,-5.430145,-3.789432,0.195072,-0.012972
1571103825.484573,0.083529,0.102479,-0.043626,0.075135,0.036215,0.003556,21.874735,48.515685,-5.438287,-3.878708,0.254917,-0.029966
1571103825.609193,0.083524,0.101806,-0.043518,0.075565,0.036087,0.004010,21.385492,48.540339,-5.440930,-3.934583,0.213906,0.023969
1571103825.738803,0.083604,0.101144,-0.043313,0.075974,0.035888,0.004308,20.867845,48.559644,-5.442267,-4.043455,0.172950,0.028253
1571103825.863423,0.083559,0.100558,-0.043081,0.075943,0.035951,0.004952,20.357185,48.572353,-5.447371,-4.128014,0.130532,-0.019049
1571103826.022943,0.083323,0.100372,-0.042994,0.075847,0.036019,0.005419,19.683752,48.598150,-5.456254,-4.223771,0.220636,-0.039490
1571103826.147573,0.083348,0.100020,-0.042851,0.075795,0.036006,0.006035,19.152010,48.621080,-5.463803,-4.285057,0.219578,-0.001113
1571103826.272193,0.083264,0.100062,-0.042762,0.075969,0.035709,0.006351,18.611583,48.645561,-5.463980,-4.358395,0.181807,0.014169
1571103826.401803,0.083420,0.099934,-0.042681,0.075852,0.035820,0.006623,18.045010,48.666967,-5.465165,-4.428939,0.166012,-0.000495
1571103826.556333,0.083412,0.099974,-0.042665,0.075786,0.035814,0.006836,17.357394,48.695605,-5.466356,-4.489558,0.221648,0.006522
1571103826.685943,0.083284,0.099802,-0.042632,0.075647,0.035536,0.007266,16.771885,48.719644,-5.470343,-4.568057,0.215082,-0.034979
1571103826.875363,0.083016,0.100044,-0.042630,0.075725,0.035533,0.007174,15.889111,48.755110,-5.472381,-4.652042,0.174200,0.037506
1571103826.935173,0.083116,0.100028,-0.042523,0.075486,0.035586,0.007381,15.616212,48.763869,-5.472974,-4.665004,0.188268,0.056024
1571103827.064783,0.082994,0.100239,-0.042447,0.075429,0.035442,0.007687,15.005605,48.791163,-5.469693,-4.711693,0.242127,0.046091
1571103827.219303,0.083035,0.100213,-0.042364,0.075763,0.034732,0.007915,14.274365,48.826386,-5.462546,-4.767811,0.239894,0.068060
1571103827.348913,0.082882,0.100184,-0.042261,0.075953,0.034194,0.007983,13.649197,48.852684,-5.454900,-4.822590,0.210820,0.085610
1571103827.473513,0.082755,0.100121,-0.042169,0.076007,0.034089,0.008220,13.043807,48.876544,-5.453746,-4.891468,0.221665,-0.004827
1571103827.598133,0.082583,0.099978,-0.042049,0.075951,0.034086,0.008350,12.431947,48.897748,-5.461533,-4.925909,0.192472,-0.042485
1571103827.757643,0.082459,0.100125,-0.041869,0.076014,0.034514,0.008132,11.632174,48.932651,-5.476320,-5.003714,0.238816,-0.090757
1571103827.882253,0.082612,0.099882,-0.041653,0.075973,0.035158,0.007800,11.014388,48.957025,-5.491319,-5.011375,0.212921,-0.006969
1571103828.011863,0.082810,0.099488,-0.041459,0.075981,0.035786,0.007818,10.371157,48.980661,-5.493077,-5.025487,0.249819,0.069183
1571103828.136473,0.082924,0.099099,-0.041299,0.075773,0.035718,0.007836,9.748848,49.001848,-5.487928,-5.053446,0.187276,0.055750
1571103828.261093,0.082975,0.099033,-0.041123,0.075783,0.035272,0.007949,9.114439,49.024280,-5.485252,-5.082356,0.155188,0.076531
1571103828.420603,0.082844,0.099261,-0.041065,0.075521,0.034760,0.008467,8.287526,49.058153,-5.484462,-5.169353,0.227958,-0.039859
1571103828.545223,0.083207,0.099146,-0.040874,0.075400,0.034970,0.008984,7.649413,49.091716,-5.496550,-5.186866,0.265815,-0.035852
1571103828.674833,0.083742,0.098699,-0.040709,0.075282,0.035257,0.009279,6.994009,49.117626,-5.503937,-5.188910,0.169909,0.010332
1571103828.799443,0.084020,0.098317,-0.040611,0.075159,0.035414,0.009478,6.357027,49.137721,-5.503413,-5.199797,0.233227,0.021958
1571103828.958943,0.084273,0.097974,-0.040439,0.074983,0.035550,0.009658,5.536830,49.171164,-5.504942,-5.211726,0.264053,0.013999
1571103829.083563,0.084418,0.097746,-0.040282,0.075186,0.035600,0.009815,4.889244,49.199966,-5.515492,-5.254920,0.267796,-0.093066
1571103829.208183,0.084746,0.097243,-0.040229,0.075125,0.036116,0.009663,4.247095,49.225344,-5.525982,-5.255633,0.264665,-0.036281
1571103829.397613,0.084427,0.097553,-0.040251,0.075018,0.036428,0.009337,3.244486,49.276950,-5.517147,-5.261357,0.266167,0.088835
1571103829.462413,0.084643,0.097118,-0.040178,0.074947,0.036328,0.009175,2.906555,49.289206,-5.513389,-5.263933,0.262740,0.094262
1571103829.621933,0.084362,0.097128,-0.040079,0.074970,0.035672,0.009375,2.052107,49.323609,-5.508979,-5.333996,0.228859,-0.049033
1571103829.746553,0.083955,0.097300,-0.040219,0.075029,0.035084,0.009675,1.370353,49.350528,-5.515324,-5.380261,0.258334,-0.086173
1571103829.871163,0.083558,0.097439,-0.040154,0.074691,0.034975,0.009825,0.687291,49.379637,-5.522316,-5.369042,0.279976,0.040179
1571103830.000753,0.083376,0.097287,-0.040132,0.074323,0.034730,0.009875,-0.008920,49.406426,-5.513179,-5.384190,0.266586,0.076586
1571103830.155293,0.083344,0.096971,-0.040032,0.074152,0.034439,0.009995,-0.837501,49.439288,-5.506989,-5.392803,0.307957,0.018309
1571103830.274933,0.082934,0.097239,-0.039876,0.074012,0.033845,0.009832,-1.504033,49.476918,-5.511965,-5.441293,0.316722,-0.011416
1571103830.409523,0.083229,0.096938,-0.039712,0.073893,0.034015,0.009649,-2.226408,49.521369,-5.517495,-5.457192,0.400600,0.002049
1571103830.534143,0.083999,0.096113,-0.039473,0.074360,0.034230,0.009721,-2.873941,49.558922,-5.521225,-5.405302,0.352534,0.044245
1571103830.663753,0.084171,0.095966,-0.039341,0.074996,0.034319,0.009742,-3.574151,49.598099,-5.520572,-5.447950,0.301719,-0.008523
1571103830.818273,0.084528,0.095471,-0.039081,0.075488,0.034543,0.010182,-4.402691,49.633406,-5.531805,-5.431263,0.308140,-0.020765
1571103830.947873,0.084898,0.094903,-0.038858,0.075756,0.034812,0.010476,-5.089901,49.661107,-5.540876,-5.391442,0.325464,-0.007729
1571103831.072503,0.085167,0.094714,-0.038645,0.075607,0.035059,0.010510,-5.756746,49.701286,-5.550698,-5.380486,0.312383,-0.029028
1571103831.197123,0.085267,0.094636,-0.038493,0.075217,0.035134,0.010451,-6.424833,49.737954,-5.559790,-5.367069,0.265029,-0.065590
1571103831.356633,0.085246,0.094593,-0.038395,0.074942,0.035279,0.010507,-7.279344,49.778520,-5.569504,-5.329325,0.290703,0.012068
1571103831.481253,0.085455,0.094172,-0.038187,0.075143,0.035611,0.010927,-7.930216,49.800071,-5.571068,-5.305999,0.296192,0.047076
1571103831.580953,0.085617,0.093755,-0.038002,0.075534,0.035727,0.011414,-8.450396,49.810904,-5.575944,-5.286536,0.268850,-0.020328
1571103831.735473,0.085587,0.093564,-0.037922,0.075793,0.035707,0.012044,-9.267999,49.837303,-5.584014,-5.277324,0.246959,-0.023607
1571103831.860093,0.085523,0.093579,-0.037888,0.075942,0.035925,0.012263,-9.930902,49.867631,-5.590284,-5.271179,0.250442,-0.046564
1571103832.019613,0.085338,0.093552,-0.037901,0.076303,0.036075,0.012752,-10.775431,49.893477,-5.591826,-5.225008,0.233795,0.038018
1571103832.144233,0.085078,0.093630,-0.037873,0.076360,0.035724,0.013070,-11.439576,49.916760,-5.589752,-5.237209,0.239424,0.017432
1571103832.273843,0.085264,0.093386,-0.037817,0.076156,0.035537,0.013177,-12.105880,49.941860,-5.591651,-5.215612,0.203387,-0.038087
1571103832.398453,0.085236,0.093299,-0.037878,0.076084,0.035281,0.013319,-12.753334,49.966104,-5.594545,-5.222511,0.229142,-0.056730
1571103832.557973,0.085102,0.093360,-0.037920,0.075804,0.035236,0.013408,-13.588492,49.999121,-5.603175,-5.213654,0.234153,-0.032052
1571103832.682583,0.085007,0.093404,-0.037804,0.075654,0.035174,0.013475,-14.240974,50.025441,-5.605188,-5.167001,0.241806,0.075520
1571103832.807203,0.085224,0.093149,-0.037700,0.075694,0.034882,0.013807,-14.871849,50.049056,-5.601604,-5.144639,0.231746,0.023846
1571103832.936813,0.085355,0.093002,-0.037595,0.075657,0.034678,0.014131,-15.532068,50.074133,-5.600648,-5.123449,0.225922,0.036514
1571103833.061433,0.084947,0.093306,-0.037498,0.075643,0.034090,0.014253,-16.198662,50.105108,-5.599907,-5.131229,0.253630,0.015264
1571103833.220953,0.085146,0.093088,-0.037490,0.075812,0.033841,0.014302,-17.004300,50.143005,-5.597791,-5.104384,0.272085,0.018773
1571103833.345563,0.085373,0.092846,-0.037466,0.075936,0.033702,0.014236,-17.624877,50.170027,-5.592704,-5.063907,0.248083,0.062596
1571103833.470183,0.085616,0.092624,-0.037251,0.076128,0.033771,0.014353,-18.247659,50.193399,-5.596442,-5.049534,0.229791,-0.002824
1571103833.599793,0.085966,0.092242,-0.037132,0.076133,0.033782,0.014506,-18.881549,50.214719,-5.596820,-5.006938,0.250639,0.075527
1571103833.724403,0.085797,0.092329,-0.037021,0.076417,0.033471,0.014819,-19.516112,50.241451,-5.587760,-4.993949,0.252684,0.073491
1571103833.883913,0.085726,0.092300,-0.036931,0.076623,0.033336,0.014875,-20.318094,50.270473,-5.588197,-4.985482,0.222365,0.008820
1571103833.948723,0.085643,0.092273,-0.036906,0.076664,0.033121,0.015026,-20.644255,50.276117,-5.589355,-4.985572,0.195263,0.018608
1571103834.138143,0.085437,0.092379,-0.036729,0.076463,0.033133,0.015225,-21.601295,50.312320,-5.599896,-4.992821,0.248843,-0.035105
1571103834.262753,0.085440,0.092341,-0.036636,0.076606,0.033245,0.015463,-22.219490,50.334369,-5.605051,-4.941098,0.245687,0.031652
1571103834.422273,0.084875,0.092809,-0.036612,0.076620,0.032804,0.015238,-23.045272,50.372728,-5.600129,-4.950283,0.197278,0.041673
1571103834.546883,0.085022,0.092687,-0.036388,0.076783,0.032553,0.015458,-23.656104,50.393408,-5.603048,-4.925218,0.229006,0.055654
1571103834.671503,0.085074,0.092686,-0.036174,0.077204,0.032672,0.015672,-24.271301,50.419083,-5.607634,-4.890694,0.256611,0.031647
1571103834.801113,0.085153,0.092625,-0.036029,0.077496,0.032632,0.016041,-24.902836,50.447407,-5.610184,-4.860708,0.244965,0.017216
1571103834.925723,0.085041,0.092680,-0.035976,0.077718,0.032576,0.016227,-25.512796,50.469058,-5.616500,-4.811781,0.171928,-0.083835
1571103835.085243,0.084767,0.092926,-0.035946,0.077758,0.032841,0.016567,-26.290105,50.497777,-5.629459,-4.689883,0.191037,-0.050307
1571103835.209853,0.084743,0.092960,-0.035738,0.077855,0.032885,0.016848,-26.872175,50.521302,-5.640587,-4.543712,0.215866,-0.020283
1571103835.364383,0.084534,0.093162,-0.035613,0.077990,0.032826,0.016826,-27.584231,50.555390,-5.652701,-4.382733,0.214393,-0.016204
1571103835.464063,0.084527,0.093184,-0.035467,0.077999,0.032607,0.016847,-28.022176,50.579411,-5.657863,-4.275820,0.222120,0.020944
1571103835.618593,0.084718,0.093048,-0.035295,0.078379,0.032448,0.016798,-28.663378,50.608238,-5.657770,-4.108856,0.179499,0.066172
1571103835.748193,0.084687,0.093085,-0.035184,0.078619,0.032374,0.016841,-29.195498,50.629180,-5.659275,-4.006080,0.192695,0.004133
1571103835.872803,0.084499,0.093201,-0.035079,0.078806,0.032080,0.016848,-29.705125,50.649083,-5.663560,-3.913730,0.200705,0.003022
1571103835.997423,0.084507,0.093139,-0.034939,0.078780,0.031785,0.017073,-30.188946,50.668151,-5.668254,-3.823649,0.199489,-0.003590
1571103836.127033,0.084326,0.093274,-0.034925,0.078499,0.031663,0.016733,-30.692953,50.697860,-5.668448,-3.733532,0.178256,0.022960
1571103836.281553,0.084647,0.092950,-0.034849,0.078861,0.031794,0.017195,-31.240737,50.703793,-5.672758,-3.605166,0.123225,-0.045678
1571103836.411143,0.084505,0.093055,-0.034746,0.078774,0.031743,0.017313,-31.712958,50.716963,-5.680627,-3.488925,0.125613,-0.011164
1571103836.535763,0.084222,0.093285,-0.034646,0.078930,0.031435,0.017584,-32.164282,50.729943,-5.681899,-3.398988,0.131703,0.028541
1571103836.670353,0.084012,0.093490,-0.034481,0.079271,0.031350,0.017880,-32.634665,50.740685,-5.687679,-3.309715,0.055228,-0.025238
1571103836.819883,0.083385,0.094024,-0.034474,0.079168,0.031212,0.018052,-33.176894,50.742745,-5.693652,-3.225691,-0.133536,-0.008666
1571103836.944503,0.082965,0.094386,-0.034448,0.079301,0.030926,0.018763,-33.612032,50.717269,-5.693915,-3.179972,-0.282793,0.022905
1571103837.074103,0.082323,0.094935,-0.034366,0.079334,0.030614,0.019772,-34.085921,50.672886,-5.695324,-3.201006,-0.423868,0.022310
1571103837.198713,0.081721,0.095391,-0.034367,0.079226,0.030202,0.020579,-34.555024,50.615701,-5.691994,-3.222100,-0.626888,0.025457
1571103837.323333,0.081135,0.095811,-0.034349,0.079118,0.029980,0.021288,-35.033996,50.528830,-5.691233,-3.221364,-0.891630,0.005738
1571103837.482843,0.080725,0.096160,-0.034286,0.078842,0.030101,0.021709,-35.590330,50.367585,-5.693340,-3.172595,-1.181881,0.003453
1571103837.607453,0.079894,0.096950,-0.034155,0.078729,0.030553,0.022203,-36.057588,50.217909,-5.699987,-3.174754,-1.333533,-0.009537
1571103837.737053,0.078734,0.097998,-0.034001,0.078609,0.031063,0.022278,-36.577235,50.045309,-5.713153,-3.173859,-1.531410,-0.077328
1571103837.861663,0.078071,0.098658,-0.034020,0.077955,0.031568,0.022582,-37.006285,49.840097,-5.722569,-3.051574,-1.862704,-0.055851
1571103838.021183,0.077388,0.099327,-0.033967,0.077440,0.031800,0.022713,-37.523651,49.520553,-5.721813,-2.853747,-2.151437,0.093102
1571103838.145793,0.076717,0.099970,-0.033893,0.076685,0.031841,0.022783,-37.932339,49.244278,-5.717744,-2.741841,-2.328767,0.038218
1571103838.270403,0.076211,0.100593,-0.033885,0.076223,0.031839,0.022544,-38.322397,48.943039,-5.714915,-2.603279,-2.501582,0.029337
1571103838.400023,0.075938,0.101008,-0.033899,0.075716,0.031662,0.022506,-38.672896,48.601754,-5.709275,-2.342080,-2.759208,0.050897
1571103838.524643,0.075761,0.101266,-0.033831,0.075120,0.032004,0.022290,-38.961918,48.244163,-5.707042,-2.082141,-2.963235,0.043813
1571103838.684153,0.075587,0.101538,-0.033763,0.074657,0.031994,0.022250,-39.273990,47.750377,-5.704879,-1.734014,-3.176202,0.027770
1571103838.808773,0.075533,0.101651,-0.033697,0.073905,0.032217,0.022369,-39.483028,47.350983,-5.700334,-1.499278,-3.242854,0.060137
1571103838.933383,0.075489,0.101889,-0.033667,0.073609,0.032193,0.022332,-39.668489,46.940850,-5.693785,-1.273470,-3.297070,0.045629
1571103839.062973,0.075467,0.102020,-0.033718,0.073365,0.032272,0.022432,-39.825017,46.507255,-5.687727,-0.973359,-3.361356,0.037787
1571103839.217503,0.075572,0.102064,-0.033665,0.073124,0.032313,0.022331,-39.951800,45.988181,-5.678683,-0.664940,-3.347334,0.097913
1571103839.347103,0.075490,0.102549,-0.033703,0.072976,0.032203,0.022569,-40.029638,45.548210,-5.661154,-0.363291,-3.374191,0.112603
1571103839.471723,0.075303,0.103246,-0.033721,0.072545,0.032077,0.022380,-40.071769,45.119283,-5.654571,-0.105181,-3.398003,0.010885
1571103839.596333,0.075138,0.104137,-0.033699,0.072218,0.032047,0.022417,-40.089950,44.690809,-5.657516,0.047404,-3.332370,-0.000479
1571103839.725943,0.075120,0.104363,-0.033690,0.071896,0.032123,0.022282,-40.072229,44.262075,-5.654368,0.276074,-3.252297,0.057552
1571103839.880463,0.075157,0.104248,-0.033713,0.071051,0.031949,0.022455,-40.004551,43.766824,-5.643552,0.605284,-3.178783,0.072656
1571103840.010053,0.075135,0.104754,-0.033666,0.070853,0.031873,0.022348,-39.919581,43.355222,-5.638589,0.805625,-3.112142,0.021508
1571103840.154633,0.075167,0.105257,-0.033570,0.070160,0.031981,0.022596,-39.800244,42.912758,-5.637169,0.930802,-2.967744,0.031030
1571103840.259303,0.075255,0.105646,-0.033394,0.069221,0.032058,0.022715,-39.699497,42.603278,-5.643627,1.127735,-2.909442,-0.053237
1571103840.418813,0.075017,0.106488,-0.033284,0.068214,0.032331,0.022554,-39.506638,42.148025,-5.656508,1.377669,-2.737489,-0.042679
1571103840.543443,0.074612,0.107429,-0.033139,0.067513,0.032937,0.022262,-39.330603,41.807693,-5.667120,1.536535,-2.619137,-0.013753
1571103840.673033,0.074007,0.108520,-0.033039,0.066976,0.033705,0.022170,-39.129511,41.467658,-5.671029,1.638797,-2.504044,0.012181
1571103840.797663,0.073732,0.109713,-0.032994,0.066512,0.034387,0.022074,-38.924842,41.153410,-5.678102,1.727729,-2.385707,-0.052847
1571103840.922283,0.072726,0.110969,-0.032945,0.066051,0.035354,0.021927,-38.705598,40.851541,-5.691386,1.834679,-2.253093,-0.066898
1571103841.081783,0.071011,0.112582,-0.032947,0.066027,0.036348,0.021607,-38.397254,40.484971,-5.708044,1.996022,-2.087331,-0.045394
1571103841.206403,0.070579,0.113426,-0.032912,0.066001,0.037025,0.021533,-38.138757,40.229022,-5.715231,2.118751,-1.917383,0.002813
1571103841.336013,0.069922,0.114196,-0.032935,0.065627,0.037380,0.021549,-37.855449,39.980750,-5.714809,2.248894,-1.748356,0.014517
1571103841.460633,0.069275,0.114844,-0.032933,0.065332,0.037691,0.021802,-37.572810,39.762287,-5.714077,2.273755,-1.625285,0.027940
1571103841.585253,0.068552,0.116016,-0.032988,0.064811,0.037934,0.021715,-37.290240,39.553537,-5.707838,2.330463,-1.474104,0.043105
1571103841.744763,0.067312,0.117065,-0.032975,0.064383,0.038112,0.021317,-36.906781,39.321844,-5.707194,2.415246,-1.282931,0.014574
1571103841.869383,0.066214,0.117947,-0.033011,0.063814,0.038138,0.021075,-36.605291,39.154729,-5.704431,2.382192,-1.216074,0.025958
1571103841.998993,0.064601,0.119092,-0.032904,0.063384,0.038553,0.020941,-36.286991,38.981859,-5.710267,2.425409,-1.138464,-0.011528
1571103842.123613,0.063585,0.120504,-0.032810,0.063164,0.039281,0.020783,-35.981850,38.827493,-5.718362,2.417306,-1.068556,-0.016582
1571103842.283103,0.063187,0.121671,-0.032765,0.062679,0.039712,0.020696,-35.598053,38.653165,-5.724725,2.433443,-0.947025,-0.038071
1571103842.407723,0.063089,0.122902,-0.032805,0.062666,0.040213,0.020601,-35.297897,38.529616,-5.731316,2.432116,-0.876280,-0.072444
1571103842.532343,0.061544,0.124651,-0.032942,0.062379,0.040671,0.020373,-34.988463,38.400425,-5.737814,2.357390,-0.900787,-0.010699
1571103842.661933,0.061454,0.125500,-0.033034,0.062460,0.040967,0.020230,-34.691711,38.277514,-5.729829,2.254396,-0.931805,0.083881
1571103842.786553,0.060731,0.126183,-0.033079,0.062319,0.041102,0.019784,-34.411482,38.154483,-5.719418,2.201206,-0.954934,0.069865
1571103842.946073,0.060920,0.127026,-0.033065,0.062239,0.041360,0.019314,-34.069328,38.003268,-5.712132,2.154781,-0.929341,0.042876
1571103843.070673,0.061197,0.126649,-0.033078,0.062089,0.041190,0.019029,-33.807052,37.891930,-5.704900,2.082531,-0.937250,0.060358
1571103843.200283,0.060615,0.126058,-0.032989,0.062165,0.041208,0.018765,-33.533610,37.764557,-5.700124,1.995360,-1.020302,0.065930
1571103843.324903,0.059699,0.126115,-0.032932,0.062074,0.041121,0.018292,-33.275946,37.629895,-5.693914,1.978000,-1.028338,0.071648
1571103843.484403,0.058150,0.124949,-0.032779,0.061987,0.040797,0.018041,-32.935236,37.460977,-5.692676,1.996172,-1.009684,0.022986
1571103843.609013,0.056832,0.124955,-0.032762,0.061808,0.040812,0.017856,-32.668332,37.331973,-5.695259,2.036080,-0.944752,-0.007798
1571103843.733633,0.055906,0.124633,-0.032770,0.061448,0.040695,0.017799,-32.402794,37.212735,-5.696522,2.012582,-0.942084,0.015618
1571103843.863243,0.054659,0.124910,-0.032743,0.061321,0.040649,0.017533,-32.131961,37.080154,-5.694687,1.956801,-0.992003,0.055355
1571103844.082553,0.053866,0.125127,-0.032705,0.061384,0.040647,0.017344,-31.695605,36.850030,-5.691290,1.932399,-1.064553,-0.000490
1571103844.147363,0.052849,0.125333,-0.032642,0.061454,0.040488,0.017119,-31.557538,36.773991,-5.695287,1.921453,-1.094526,-0.006509
1571103844.271973,0.051880,0.124993,-0.032577,0.061424,0.040268,0.016844,-31.302980,36.634867,-5.698391,1.936183,-1.088323,0.011014
1571103844.396583,0.051235,0.124783,-0.032560,0.061521,0.040144,0.016812,-31.053371,36.497790,-5.695970,1.906819,-1.094328,0.043572
1571103844.526183,0.050641,0.124805,-0.032513,0.061551,0.040045,0.016886,-30.797988,36.354233,-5.689593,1.909306,-1.066027,0.069523
1571103844.680693,0.050268,0.124576,-0.032416,0.061483,0.039822,0.017026,-30.492311,36.194091,-5.682139,1.963935,-0.981104,0.048127
1571103844.810293,0.049840,0.124763,-0.032320,0.061227,0.039822,0.017281,-30.229986,36.061819,-5.686287,1.973700,-1.013925,-0.038378
1571103844.999713,0.049457,0.125017,-0.032261,0.061368,0.039968,0.017491,-29.850767,35.857437,-5.689864,1.961033,-1.063606,0.046945
1571103845.059513,0.048775,0.125082,-0.032232,0.061646,0.039828,0.017760,-29.720636,35.792318,-5.688308,1.989775,-1.038557,0.068535
1571103845.189103,0.048391,0.125048,-0.032171,0.061758,0.039674,0.018070,-29.450351,35.660168,-5.683019,2.068152,-0.998427,0.032458
1571103845.348623,0.048207,0.125610,-0.032049,0.061853,0.039774,0.018211,-29.113088,35.491882,-5.687184,2.106668,-1.042108,-0.014923
1571103845.473233,0.047867,0.125941,-0.031951,0.061795,0.039909,0.018369,-28.844437,35.356757,-5.691046,2.128812,-1.072268,0.013700
1571103845.597833,0.047763,0.126207,-0.031824,0.061934,0.040068,0.018502,-28.573296,35.223392,-5.693178,2.159038,-1.036799,0.041405
1571103845.727423,0.047864,0.126298,-0.031624,0.061897,0.040243,0.018644,-28.290116,35.090234,-5.692872,2.213542,-1.009127,0.070037
1571103845.881953,0.047996,0.126373,-0.031528,0.061731,0.040314,0.018717,-27.944981,34.931720,-5.685634,2.271089,-1.041872,0.039716
1571103846.011553,0.048081,0.126205,-0.031455,0.061838,0.040382,0.018971,-27.649355,34.792274,-5.686740,2.332985,-1.136451,-0.026250
1571103846.136163,0.048274,0.126036,-0.031406,0.062166,0.040467,0.019090,-27.357696,34.651114,-5.691922,2.402057,-1.135253,-0.035646
1571103846.260773,0.048529,0.125895,-0.031406,0.062326,0.040300,0.019243,-27.059121,34.512483,-5.691486,2.465053,-1.112043,0.024309
1571103846.390363,0.048690,0.126093,-0.031413,0.062376,0.040111,0.019429,-26.742334,34.363698,-5.685572,2.517521,-1.172628,0.016346
1571103846.544893,0.048725,0.126125,-0.031395,0.062320,0.040131,0.019579,-26.350530,34.177516,-5.681813,2.598182,-1.200120,0.047487
1571103846.674483,0.048751,0.126046,-0.031345,0.062503,0.039948,0.019672,-26.014363,34.019077,-5.674178,2.609356,-1.271904,0.059576
1571103846.799103,0.048769,0.125989,-0.031211,0.062454,0.039932,0.019851,-25.683752,33.860610,-5.672722,2.677461,-1.298117,0.034500
1571103846.923713,0.048819,0.125976,-0.031063,0.062639,0.039987,0.019970,-25.344053,33.697054,-5.675859,2.769144,-1.302347,-0.039710
1571103847.083213,0.048985,0.126143,-0.030996,0.062946,0.040067,0.020057,-24.895872,33.484629,-5.686780,2.867780,-1.324489,-0.025256
1571103847.207823,0.049131,0.126301,-0.030969,0.062969,0.040231,0.020107,-24.538680,33.315436,-5.685630,2.897941,-1.377937,0.056373
1571103847.337433,0.049445,0.126304,-0.030853,0.062950,0.040208,0.020274,-24.163297,33.131504,-5.682072,2.952534,-1.447341,0.024124
1571103847.462033,0.049700,0.126181,-0.030785,0.063118,0.040325,0.020317,-23.794442,32.948501,-5.681382,3.005064,-1.467493,0.005112
1571103847.586643,0.049891,0.125929,-0.030720,0.063412,0.040390,0.020427,-23.419076,32.765672,-5.679889,3.059481,-1.467296,0.010700
1571103847.746153,0.050020,0.125921,-0.030700,0.063411,0.040439,0.020580,-22.924580,32.536756,-5.681205,3.152955,-1.422181,-0.026720
1571103847.870763,0.050095,0.126087,-0.030714,0.063423,0.040302,0.020711,-22.530595,32.354318,-5.683243,3.165663,-1.489531,-0.012079
1571103848.000373,0.050039,0.126100,-0.030655,0.063287,0.040352,0.020944,-22.115913,32.158126,-5.686289,3.208161,-1.519424,0.005304
1571103848.124983,0.049964,0.126089,-0.030523,0.063342,0.040388,0.021059,-21.713874,31.968400,-5.691001,3.225073,-1.527632,0.001709
1571103848.249593,0.049858,0.126131,-0.030443,0.063414,0.040437,0.021167,-21.308370,31.776598,-5.695243,3.257252,-1.549159,-0.021222
1571103848.409103,0.049965,0.126258,-0.030303,0.063561,0.040570,0.021054,-20.789590,31.530816,-5.701299,3.284669,-1.502558,-0.008746
1571103848.533703,0.050051,0.126323,-0.030243,0.063489,0.040629,0.021041,-20.381986,31.342754,-5.703520,3.302441,-1.526740,-0.003199
1571103848.663313,0.050194,0.126384,-0.030199,0.063404,0.040614,0.021016,-19.960760,31.140542,-5.705016,3.250548,-1.576023,0.003458
1571103848.817823,0.050094,0.126385,-0.030155,0.063159,0.040559,0.020935,-19.455073,30.896897,-5.706230,3.276145,-1.574461,-0.010342
1571103848.947423,0.050063,0.126425,-0.030085,0.063121,0.040641,0.020884,-19.030445,30.694446,-5.708666,3.260158,-1.546338,0.023850
1571103849.072043,0.049958,0.126238,-0.030020,0.063090,0.040645,0.020879,-18.621055,30.504128,-5.707872,3.249569,-1.562850,0.035458
1571103849.196653,0.049849,0.126188,-0.029897,0.063194,0.040507,0.020740,-18.215723,30.307878,-5.699326,3.198932,-1.607314,0.144287
1571103849.326263,0.049691,0.126049,-0.029830,0.063313,0.040209,0.020643,-17.797582,30.098105,-5.687869,3.160546,-1.639744,0.066939
1571103849.450873,0.049550,0.125885,-0.029812,0.063454,0.040007,0.020538,-17.397522,29.895098,-5.681677,3.165584,-1.642380,0.039386
1571103849.610393,0.049249,0.125916,-0.029750,0.063602,0.039907,0.020421,-16.879756,29.630975,-5.682353,3.195680,-1.626139,-0.021626
1571103849.735013,0.049063,0.125919,-0.029657,0.063818,0.040059,0.020284,-16.474845,29.429844,-5.684753,3.166032,-1.601397,0.066088
1571103849.859623,0.048721,0.126028,-0.029611,0.063991,0.040192,0.020194,-16.068361,29.224132,-5.680091,3.157077,-1.646898,0.020282
1571103849.989233,0.048363,0.126102,-0.029531,0.064206,0.040351,0.020262,-15.646261,29.008902,-5.681344,3.126455,-1.640311,0.013025
1571103850.143743,0.048441,0.126208,-0.029550,0.064631,0.040436,0.020297,-15.165330,28.757654,-5.678248,3.121811,-1.627491,0.019397
1571103850.273323,0.048404,0.126247,-0.029543,0.064868,0.040571,0.020485,-14.759756,28.548460,-5.677510,3.104362,-1.606228,0.022191
1571103850.397953,0.048551,0.126154,-0.029522,0.065212,0.040723,0.020623,-14.378864,28.354467,-5.675084,3.069228,-1.597123,0.026855
1571103850.522563,0.048555,0.126089,-0.029499,0.065395,0.040994,0.020657,-13.998034,28.155761,-5.673576,3.012604,-1.624774,0.046606
1571103850.652173,0.048447,0.125970,-0.029465,0.065461,0.040940,0.020690,-13.606238,27.946836,-5.668310,2.975146,-1.629532,0.059429
1571103850.806683,0.048430,0.125969,-0.029443,0.065464,0.040753,0.020694,-13.153768,27.686591,-5.661590,2.883851,-1.734682,0.042208
1571103850.936293,0.048414,0.125942,-0.029399,0.065648,0.040593,0.020398,-12.781642,27.458606,-5.659537,2.853626,-1.776141,0.005858
1571103851.060893,0.048342,0.126009,-0.029276,0.065962,0.040493,0.020088,-12.426204,27.232677,-5.662131,2.759129,-1.810981,0.039280
1571103851.185503,0.048214,0.126010,-0.029258,0.066273,0.040483,0.019934,-12.081176,26.997493,-5.656869,2.665340,-1.944539,0.059771
1571103851.345013,0.048128,0.126112,-0.029229,0.066553,0.040441,0.019441,-11.663275,26.671505,-5.652259,2.526398,-2.102580,0.006795
1571103851.469623,0.047502,0.126204,-0.029165,0.066847,0.040567,0.019113,-11.321445,26.390814,-5.653774,2.446553,-2.176588,0.034782
1571103851.659033,0.046726,0.126304,-0.029131,0.067058,0.040454,0.018948,-10.822063,25.947081,-5.654410,2.403960,-2.250996,-0.045634
1571103851.723833,0.046177,0.126411,-0.029110,0.067361,0.040521,0.018841,-10.637602,25.789800,-5.659604,2.378597,-2.289916,-0.045834
1571103851.848453,0.045636,0.126514,-0.029013,0.067513,0.040547,0.018898,-10.315532,25.489416,-5.667256,2.290808,-2.366478,-0.004196
1571103852.007953,0.044808,0.126675,-0.028949,0.067761,0.040444,0.018988,-9.908819,25.089110,-5.670536,2.214619,-2.442514,0.012548
1571103852.132563,0.044377,0.126703,-0.028853,0.068031,0.040200,0.019151,-9.607406,24.773578,-5.674304,2.167583,-2.488063,-0.001971
1571103852.262173,0.044070,0.126734,-0.028779,0.068153,0.039925,0.019240,-9.311791,24.437687,-5.679284,2.099679,-2.579700,-0.019089
1571103852.386783,0.043736,0.126805,-0.028732,0.068566,0.039615,0.019171,-9.035772,24.104765,-5.682453,2.003771,-2.630258,0.001032
1571103852.546283,0.043301,0.126880,-0.028677,0.068918,0.039386,0.019204,-8.691531,23.668028,-5.681597,1.917398,-2.691266,0.018983
1571103852.670883,0.043135,0.126897,-0.028594,0.068957,0.039231,0.019119,-8.446572,23.321001,-5.684648,1.806876,-2.792435,-0.014185
1571103852.860293,0.042967,0.126881,-0.028559,0.069116,0.039147,0.018842,-8.106990,22.773569,-5.691873,1.636723,-2.890973,-0.018687
1571103852.925093,0.042740,0.126925,-0.028454,0.069135,0.039110,0.018728,-7.985211,22.575126,-5.696884,1.591643,-2.904851,0.005609
1571103853.049703,0.042704,0.126890,-0.028366,0.069548,0.039037,0.018677,-7.784863,22.203290,-5.700048,1.471901,-2.995278,-0.007217
1571103853.209203,0.042484,0.126905,-0.028282,0.069813,0.039093,0.018750,-7.536318,21.709777,-5.704145,1.330506,-3.046696,0.015146
1571103853.333823,0.042373,0.126920,-0.028231,0.070071,0.039145,0.018747,-7.367661,21.320309,-5.699155,1.160195,-3.078076,0.087234
1571103853.463423,0.042174,0.126960,-0.028186,0.070821,0.039040,0.018795,-7.200069,20.900385,-5.689336,1.043260,-3.133088,0.047949
1571103853.588023,0.042190,0.126945,-0.028161,0.071455,0.038979,0.018627,-7.070892,20.506288,-5.687988,0.973101,-3.148402,-0.014273
1571103853.747513,0.042175,0.126938,-0.028127,0.071665,0.038952,0.018373,-6.924023,20.000354,-5.689020,0.825515,-3.163182,0.020690
1571103853.872123,0.041986,0.126985,-0.028058,0.072098,0.038877,0.018354,-6.800167,19.585985,-5.684306,0.721510,-3.155338,0.111193
1571103853.996733,0.042048,0.126994,-0.028026,0.072303,0.038860,0.018081,-6.713325,19.193581,-5.673123,0.651525,-3.145592,0.085172
1571103854.126323,0.042116,0.126941,-0.027981,0.072582,0.038839,0.017723,-6.633177,18.785182,-5.666014,0.570146,-3.143387,0.061777
1571103854.250933,0.042029,0.126958,-0.027900,0.072795,0.038753,0.017270,-6.562014,18.392139,-5.663438,0.529653,-3.105876,0.037292
1571103854.410443,0.041974,0.126898,-0.027821,0.072933,0.038570,0.016853,-6.472960,17.892617,-5.663472,0.525168,-3.083194,0.002653
1571103854.535043,0.042062,0.126743,-0.027720,0.073399,0.038425,0.016549,-6.403307,17.500121,-5.666129,0.463733,-3.079786,0.009394
1571103854.659653,0.042098,0.126617,-0.027707,0.073741,0.038315,0.016387,-6.344203,17.112788,-5.664999,0.440094,-3.066431,0.004179
1571103854.789253,0.042360,0.126265,-0.027705,0.074367,0.038139,0.016468,-6.268595,16.709480,-5.663067,0.558832,-3.012634,-0.001754
1571103854.943763,0.042431,0.126125,-0.027705,0.074549,0.038066,0.016468,-6.171485,16.247085,-5.660677,0.606017,-2.957766,0.008867
1571103855.073373,0.042645,0.125831,-0.027680,0.074919,0.037885,0.016479,-6.094806,15.863002,-5.657784,0.528814,-2.948729,0.026907
1571103855.197973,0.042957,0.125559,-0.027599,0.075460,0.037660,0.016656,-6.025291,15.501815,-5.653820,0.575991,-2.903736,0.055054
1571103855.322593,0.043295,0.125294,-0.027570,0.076134,0.037495,0.016828,-5.942380,15.148080,-5.647717,0.684078,-2.851302,0.041922
1571103855.452193,0.043665,0.124825,-0.027439,0.076676,0.037267,0.017350,-5.846205,14.777868,-5.646673,0.653994,-2.833158,0.043933
1571103855.606703,0.043726,0.124531,-0.027504,0.076695,0.036725,0.017333,-5.735214,14.336819,-5.641236,0.727536,-2.813891,-0.021424
1571103855.736293,0.043488,0.124451,-0.027522,0.076671,0.036374,0.017345,-5.634717,13.961292,-5.645001,0.752524,-2.812241,-0.038195
1571103855.860913,0.043185,0.124460,-0.027447,0.076406,0.035945,0.017148,-5.544476,13.600515,-5.648586,0.709540,-2.809250,0.018682
1571103855.985533,0.043147,0.124322,-0.027393,0.076398,0.035654,0.016999,-5.458769,13.247137,-5.643365,0.661186,-2.792775,0.070680
1571103856.145033,0.043108,0.124185,-0.027321,0.076437,0.035344,0.016647,-5.349746,12.799349,-5.636556,0.709056,-2.753284,0.061891
1571103856.269643,0.042994,0.124062,-0.027205,0.076594,0.035121,0.016450,-5.257101,12.452246,-5.634039,0.725965,-2.717954,0.042946
1571103856.399233,0.042795,0.123894,-0.027088,0.076339,0.034805,0.016311,-5.162768,12.089962,-5.638444,0.691307,-2.706921,-0.034375
1571103856.523853,0.042735,0.123725,-0.026981,0.076273,0.034641,0.016127,-5.078159,11.744726,-5.647203,0.673542,-2.718114,-0.019222
1571103856.648463,0.042708,0.123561,-0.026922,0.076435,0.034371,0.015868,-4.990749,11.399658,-5.649661,0.716819,-2.737885,0.022492
1571103856.872763,0.042585,0.123519,-0.026813,0.076293,0.034133,0.015633,-4.826860,10.782561,-5.644958,0.732919,-2.744235,0.032263
1571103856.937553,0.042460,0.123460,-0.026725,0.076000,0.033971,0.015554,-4.782669,10.598995,-5.647649,0.685856,-2.745202,0.010654
1571103857.062173,0.042364,0.123376,-0.026619,0.076280,0.033891,0.015290,-4.699213,10.248270,-5.652058,0.691213,-2.777535,-0.013307
1571103857.191773,0.042213,0.123342,-0.026563,0.076583,0.033935,0.014930,-4.610259,9.881861,-5.657200,0.694526,-2.765092,-0.013094
1571103857.316373,0.042080,0.123345,-0.026537,0.076250,0.033990,0.014684,-4.522189,9.532985,-5.658961,0.686937,-2.762954,0.019275
1571103857.470903,0.042030,0.123320,-0.026491,0.076098,0.033523,0.014382,-4.421209,9.098051,-5.659674,0.592970,-2.825724,-0.012931
1571103857.600503,0.042175,0.123278,-0.026458,0.076551,0.033277,0.014135,-4.338461,8.733157,-5.662008,0.661549,-2.834900,-0.000913
1571103857.725103,0.042169,0.123349,-0.026368,0.077083,0.033332,0.013966,-4.256558,8.382241,-5.665313,0.686335,-2.837178,-0.009502
1571103857.849723,0.042204,0.123357,-0.026240,0.076987,0.033630,0.013795,-4.174025,8.031914,-5.670515,0.650197,-2.812608,0.015985
1571103858.009233,0.042167,0.123366,-0.026156,0.077165,0.033701,0.013697,-4.070113,7.584647,-5.668090,0.612531,-2.790832,0.063952
1571103858.133843,0.042069,0.123434,-0.026176,0.077398,0.033588,0.013278,-3.993660,7.235126,-5.661149,0.652353,-2.796323,0.028292
1571103858.263443,0.041878,0.123469,-0.026145,0.077360,0.033610,0.012718,-3.910098,6.867791,-5.663258,0.665903,-2.823203,-0.028294
1571103858.388043,0.041860,0.123359,-0.026102,0.077257,0.033736,0.012579,-3.829155,6.512054,-5.669802,0.588969,-2.824407,-0.036848
1571103858.512653,0.041800,0.123311,-0.026086,0.077584,0.033930,0.012446,-3.751490,6.156341,-5.674747,0.649147,-2.802863,-0.032760
1571103858.672153,0.041794,0.123211,-0.026040,0.077814,0.034147,0.012596,-3.638038,5.706833,-5.676377,0.738784,-2.756156,0.048495
1571103858.796753,0.041757,0.123130,-0.026031,0.077722,0.034159,0.012577,-3.542668,5.359817,-5.666380,0.800319,-2.745665,0.090251
1571103858.926353,0.041750,0.123099,-0.026020,0.077880,0.034049,0.012572,-3.440184,5.003921,-5.659019,0.783047,-2.725470,0.035426
1571103859.050953,0.041738,0.123091,-0.026007,0.078112,0.034082,0.012666,-3.336350,4.665763,-5.658661,0.854852,-2.673930,-0.002099
1571103859.210463,0.041360,0.123257,-0.025907,0.078171,0.034094,0.012766,-3.191032,4.223279,-5.662261,0.981238,-2.625723,0.016815
1571103859.335063,0.041190,0.123369,-0.025902,0.078248,0.034234,0.012903,-3.067011,3.889435,-5.657092,1.008999,-2.600490,0.069331
1571103859.524473,0.041156,0.123408,-0.025892,0.078527,0.034231,0.013138,-2.870415,3.394275,-5.651802,1.069888,-2.573522,-0.002409
1571103859.649093,0.041041,0.123480,-0.025889,0.078480,0.034130,0.013231,-2.727564,3.070528,-5.653030,1.182030,-2.507875,-0.010921
1571103859.713893,0.040848,0.123534,-0.025900,0.078161,0.034047,0.013127,-2.651473,2.894740,-5.653593,1.177295,-2.502110,0.009024
1571103859.873393,0.040663,0.123641,-0.025792,0.077962,0.034169,0.013012,-2.462074,2.487493,-5.654814,1.235282,-2.452561,0.024870
1571103859.997993,0.040578,0.123672,-0.025763,0.077874,0.033978,0.013106,-2.305971,2.177365,-5.652842,1.281630,-2.418418,0.011094
1571103860.187403,0.040457,0.123711,-0.025697,0.077793,0.034025,0.012924,-2.053691,1.716490,-5.654649,1.420671,-2.326017,0.019764
1571103860.312013,0.040417,0.123774,-0.025569,0.077793,0.034387,0.012885,-1.876161,1.431046,-5.656170,1.470308,-2.247630,0.049506
1571103860.431643,0.040344,0.123859,-0.025510,0.077815,0.034578,0.012883,-1.701963,1.157943,-5.651394,1.465866,-2.210705,0.056486
1571103860.536303,0.040344,0.123883,-0.025506,0.077782,0.034524,0.013030,-1.542433,0.930494,-5.648099,1.606245,-2.124551,0.011162
1571103860.660923,0.040263,0.123879,-0.025440,0.077779,0.034471,0.013060,-1.326180,0.654871,-5.654855,1.790600,-2.015809,-0.064817
1571103860.785533,0.040206,0.123810,-0.025342,0.077743,0.034332,0.012871,-1.094846,0.391673,-5.665036,1.855454,-1.947030,-0.030412
1571103860.945033,0.040184,0.123784,-0.025210,0.077597,0.034277,0.012846,-0.787039,0.081984,-5.673000,1.983291,-1.812665,-0.032079
1571103861.069643,0.040157,0.123731,-0.025106,0.077422,0.034321,0.012853,-0.532613,-0.154146,-5.681649,2.014704,-1.759353,-0.008341
1571103861.199243,0.040132,0.123630,-0.025036,0.077365,0.034366,0.012730,-0.261745,-0.401245,-5.685305,2.062602,-1.704221,0.005809
1571103861.323853,0.040117,0.123613,-0.025001,0.077020,0.034439,0.012680,0.002957,-0.613983,-5.686232,2.135388,-1.611492,0.006582
1571103861.448463,0.040130,0.123594,-0.024955,0.076797,0.034651,0.012612,0.271717,-0.821523,-5.688859,2.137052,-1.590607,-0.016861
1571103861.607963,0.040168,0.123605,-0.024906,0.076438,0.034889,0.012549,0.606698,-1.069190,-5.693241,2.151584,-1.527761,-0.023790
1571103861.732583,0.040225,0.123599,-0.024914,0.076273,0.035068,0.012494,0.873444,-1.251178,-5.693448,2.210259,-1.421151,0.000366
1571103861.862183,0.040261,0.123616,-0.024938,0.075922,0.035139,0.012530,1.163549,-1.432517,-5.693027,2.255468,-1.348290,-0.024559
1571103862.051603,0.040281,0.123618,-0.024977,0.075801,0.035052,0.012420,1.599186,-1.689361,-5.698564,2.299248,-1.244179,-0.063318
1571103862.111403,0.040276,0.123581,-0.024970,0.075607,0.035133,0.012390,1.735637,-1.761282,-5.701953,2.359271,-1.214003,-0.075653
1571103862.270903,0.040288,0.123549,-0.024995,0.075311,0.035000,0.012324,2.110314,-1.950618,-5.703110,2.351589,-1.138805,0.022281
1571103862.400493,0.040315,0.123573,-0.024983,0.074919,0.034707,0.012072,2.419026,-2.103247,-5.700868,2.380888,-1.077339,0.018214
1571103862.525113,0.040344,0.123567,-0.024881,0.074506,0.034512,0.011696,2.718195,-2.237823,-5.700694,2.414821,-0.970137,0.039431
1571103862.649713,0.040414,0.123581,-0.024828,0.074261,0.034484,0.011339,3.022011,-2.361571,-5.696769,2.436276,-0.925293,0.037941
1571103862.779303,0.040447,0.123623,-0.024795,0.074028,0.034456,0.011138,3.341853,-2.483895,-5.696542,2.464924,-0.855046,-0.035443
1571103862.933833,0.040530,0.123583,-0.024767,0.073780,0.034698,0.011122,3.723584,-2.608464,-5.702325,2.497401,-0.730681,-0.010372
1571103863.063433,0.040647,0.123581,-0.024739,0.073650,0.034812,0.011190,4.047851,-2.705118,-5.700358,2.510541,-0.684184,0.049081
1571103863.188033,0.040697,0.123596,-0.024691,0.073382,0.034827,0.011187,4.363261,-2.785486,-5.697993,2.550713,-0.556502,0.017954
1571103863.312643,0.040813,0.123531,-0.024674,0.073091,0.034838,0.011071,4.679373,-2.851414,-5.698612,2.551149,-0.497304,-0.015408
1571103863.472143,0.040984,0.123409,-0.024640,0.072935,0.034841,0.010821,5.082076,-2.929005,-5.698067,2.540737,-0.468149,0.032891
1571103863.596753,0.041157,0.123249,-0.024577,0.072564,0.034823,0.010634,5.392446,-2.980047,-5.694812,2.538763,-0.351951,0.036652
1571103863.726343,0.041165,0.123217,-0.024478,0.072158,0.034871,0.010543,5.720671,-3.018432,-5.695077,2.557387,-0.273540,0.007954
1571103863.850963,0.041252,0.123106,-0.024409,0.071805,0.034947,0.010486,6.034735,-3.047176,-5.698548,2.546974,-0.217817,-0.021868
1571103864.010473,0.041226,0.122979,-0.024375,0.071710,0.035026,0.010305,6.436390,-3.072290,-5.702262,2.550346,-0.126161,-0.008521
1571103864.135083,0.041203,0.122990,-0.024388,0.071378,0.034939,0.009972,6.754725,-3.090704,-5.700894,2.555338,-0.122028,-0.002802
1571103864.259693,0.041301,0.122894,-0.024406,0.070913,0.034852,0.009771,7.070446,-3.105682,-5.701118,2.569726,-0.106151,-0.021519
1571103864.389293,0.041240,0.122854,-0.024427,0.070441,0.034593,0.009514,7.401677,-3.116186,-5.702220,2.553495,-0.084750,-0.010706
1571103864.513903,0.041280,0.122788,-0.024348,0.070097,0.034570,0.009318,7.718667,-3.126171,-5.703459,2.545944,-0.040304,0.019523
1571103864.673403,0.041272,0.122532,-0.024270,0.069929,0.034702,0.009101,8.121868,-3.120849,-5.705479,2.572438,0.047834,-0.013026
1571103864.798013,0.041301,0.122282,-0.024206,0.069829,0.034937,0.008824,8.437092,-3.112932,-5.709811,2.563283,0.026367,-0.006826
1571103864.922613,0.041463,0.122124,-0.024204,0.069748,0.035044,0.008643,8.751519,-3.110610,-5.708922,2.548638,-0.000486,0.008088
1571103865.052203,0.041422,0.121887,-0.024211,0.069773,0.035155,0.008521,9.078586,-3.110412,-5.705251,2.540256,-0.026573,0.035124
1571103865.251593,0.041523,0.121552,-0.024170,0.069741,0.035266,0.008477,9.581388,-3.111429,-5.705021,2.559158,0.013632,-0.013090
1571103865.336333,0.041593,0.121360,-0.024091,0.069670,0.035395,0.008425,9.795005,-3.109827,-5.708837,2.562122,-0.012683,-0.001625
1571103865.460933,0.041798,0.121252,-0.024076,0.069584,0.035426,0.008499,10.108371,-3.115138,-5.707091,2.551281,-0.073009,0.016733
1571103865.605493,0.041942,0.121129,-0.024055,0.069492,0.035527,0.008570,10.473640,-3.130470,-5.706678,2.566349,-0.131472,0.019241
1571103865.715153,0.042067,0.120985,-0.024028,0.069533,0.035665,0.008639,10.750795,-3.143482,-5.704827,2.560395,-0.135825,0.031738
1571103865.869663,0.041829,0.120671,-0.023980,0.069593,0.035732,0.008586,11.153869,-3.153199,-5.705166,2.624958,-0.059623,-0.001826
1571103865.999263,0.041800,0.120512,-0.023947,0.069641,0.035717,0.008535,11.497504,-3.159022,-5.709060,2.698967,-0.094883,-0.045117
1571103866.123873,0.041757,0.120392,-0.023904,0.069783,0.035714,0.008420,11.834834,-3.176316,-5.712897,2.724347,-0.196354,0.036078
1571103866.248483,0.041674,0.120252,-0.023807,0.069958,0.035672,0.008254,12.179117,-3.197303,-5.706764,2.787420,-0.176383,0.087264
1571103866.407983,0.041648,0.120066,-0.023757,0.070138,0.035641,0.008183,12.637095,-3.211866,-5.702176,2.918512,-0.106056,0.000803
1571103866.532593,0.041515,0.119926,-0.023668,0.070139,0.035851,0.008206,13.013762,-3.219655,-5.711226,3.017826,-0.158354,-0.043170
1571103866.662183,0.041472,0.119894,-0.023568,0.070066,0.036188,0.008263,13.413593,-3.240880,-5.717392,3.143991,-0.197536,0.035217
1571103866.786803,0.041378,0.120007,-0.023535,0.070258,0.036043,0.008270,13.809077,-3.267194,-5.705285,3.201946,-0.210186,0.148986
1571103866.911423,0.041464,0.120030,-0.023501,0.070188,0.035850,0.008459,14.215066,-3.288356,-5.691899,3.339351,-0.114171,0.055187
1571103867.070933,0.041604,0.120032,-0.023461,0.070220,0.035985,0.008557,14.764293,-3.313516,-5.701574,3.538032,-0.207629,-0.111827
1571103867.195543,0.041676,0.119949,-0.023426,0.070274,0.036197,0.008684,15.211928,-3.341712,-5.712210,3.612841,-0.221681,-0.009128
1571103867.325153,0.041655,0.119892,-0.023422,0.070658,0.036106,0.008776,15.688731,-3.362734,-5.706876,3.738974,-0.128183,0.064344
1571103867.449763,0.041626,0.119954,-0.023386,0.070905,0.036024,0.008801,16.159028,-3.382060,-5.704041,3.863718,-0.182315,-0.004268
1571103867.609273,0.041643,0.119969,-0.023363,0.070977,0.036145,0.008976,16.787275,-3.424458,-5.710996,4.008055,-0.304162,-0.028286
1571103867.733883,0.041685,0.120003,-0.023321,0.071023,0.036071,0.009034,17.286955,-3.465091,-5.710619,4.067302,-0.307092,0.058869
1571103867.858503,0.041735,0.120023,-0.023218,0.071150,0.035811,0.009119,17.798012,-3.498743,-5.705924,4.168244,-0.263157,0.072426
1571103867.988113,0.041655,0.119981,-0.023099,0.071099,0.035600,0.009313,18.346990,-3.527718,-5.704073,4.302515,-0.234858,0.013272
1571103868.112723,0.041665,0.119974,-0.023030,0.070760,0.035583,0.009524,18.889130,-3.558792,-5.708640,4.404368,-0.268170,-0.017109
1571103868.272213,0.041711,0.119956,-0.022928,0.070845,0.035627,0.009668,19.595211,-3.604669,-5.713746,4.486001,-0.311302,0.025086
1571103868.332033,0.041736,0.119842,-0.022814,0.071212,0.035749,0.009723,19.865144,-3.620104,-5.717907,4.536757,-0.298157,0.028082
1571103868.521443,0.041732,0.119822,-0.022697,0.071429,0.035913,0.009831,20.739491,-3.670391,-5.726421,4.681064,-0.275381,-0.052889
1571103868.651043,0.041797,0.119847,-0.022599,0.071588,0.036262,0.009889,21.347924,-3.710919,-5.733943,4.716660,-0.317819,0.023217
1571103868.805553,0.041950,0.119875,-0.022497,0.071829,0.036361,0.009813,22.080139,-3.758737,-5.729870,4.785389,-0.287291,0.078608
1571103868.935163,0.041993,0.119902,-0.022409,0.072180,0.036469,0.009680,22.705146,-3.797884,-5.730396,4.873810,-0.307246,-0.039168
1571103869.089673,0.042001,0.119955,-0.022352,0.072296,0.036552,0.009591,23.463692,-3.847404,-5.747125,4.939757,-0.316717,-0.093618
1571103869.184383,0.042014,0.119993,-0.022310,0.072588,0.036789,0.009499,23.932063,-3.876217,-5.755837,4.961093,-0.285464,-0.033085
1571103869.313973,0.042016,0.119974,-0.022276,0.072805,0.036854,0.009590,24.577798,-3.913684,-5.757693,4.998731,-0.292615,0.023477
1571103869.413683,0.041983,0.119982,-0.022288,0.072922,0.036879,0.009608,25.079344,-3.942299,-5.753021,5.028238,-0.312358,0.045104
1571103869.533303,0.041956,0.119987,-0.022279,0.072918,0.036879,0.009706,25.682764,-3.980229,-5.752346,5.055754,-0.322042,-0.023138
1571103869.722703,0.041907,0.119937,-0.022215,0.073530,0.037214,0.009832,26.645597,-4.030941,-5.761985,5.141485,-0.266458,-0.071063
1571103869.847313,0.042052,0.119974,-0.022155,0.073661,0.037230,0.009991,27.286107,-4.069570,-5.774549,5.153315,-0.277933,-0.044071
1571103870.071613,0.042078,0.119958,-0.022186,0.073888,0.037010,0.010274,28.438918,-4.130887,-5.758670,5.141827,-0.252392,0.107351
1571103870.136403,0.042119,0.119941,-0.022170,0.074082,0.036884,0.010418,28.771880,-4.146133,-5.754454,5.169135,-0.212230,0.052038
1571103870.261023,0.042139,0.119932,-0.022156,0.074440,0.036735,0.010628,29.418459,-4.169004,-5.750457,5.200733,-0.169726,0.026936
1571103870.385633,0.042155,0.119915,-0.022131,0.074685,0.036537,0.010816,30.067462,-4.187734,-5.749092,5.218864,-0.181451,0.013368
1571103870.515233,0.042137,0.119888,-0.022099,0.074738,0.036594,0.011066,30.746827,-4.208379,-5.754561,5.268557,-0.170709,-0.043443
1571103870.669743,0.042180,0.119962,-0.022058,0.074669,0.036548,0.011027,31.562446,-4.242044,-5.761652,5.248430,-0.167033,-0.012669
1571103870.799343,0.042122,0.120032,-0.021991,0.074827,0.036826,0.011026,32.244166,-4.262277,-5.765754,5.214833,-0.168263,0.003636
1571103870.923943,0.042069,0.120153,-0.021982,0.075008,0.036885,0.011000,32.900708,-4.281858,-5.765635,5.199570,-0.109970,0.028672
1571103871.048553,0.041980,0.120230,-0.021933,0.075328,0.036958,0.011137,33.552100,-4.294295,-5.763451,5.186782,-0.138002,0.041260
1571103871.208063,0.041987,0.120297,-0.021845,0.075536,0.036987,0.011072,34.379740,-4.323817,-5.761500,5.157881,-0.148756,0.016518
1571103871.332673,0.041997,0.120377,-0.021727,0.075723,0.037128,0.010902,35.026749,-4.346015,-5.771749,5.140367,-0.145326,-0.019659
1571103871.462273,0.042080,0.120395,-0.021606,0.075461,0.037296,0.010574,35.687066,-4.373050,-5.777333,5.084173,-0.159673,0.060701
1571103871.586883,0.042071,0.120440,-0.021456,0.075591,0.037724,0.010266,36.320049,-4.396170,-5.778716,5.077240,-0.175489,0.040400
1571103871.711493,0.042118,0.120480,-0.021438,0.075711,0.037950,0.009924,36.949956,-4.425981,-5.780057,5.042391,-0.215711,0.004909
1571103871.871003,0.042093,0.120536,-0.021399,0.075950,0.038115,0.009763,37.754860,-4.465664,-5.783492,5.007824,-0.260606,0.013584
1571103871.935813,0.042114,0.120557,-0.021375,0.076064,0.038279,0.009771,38.078276,-4.480772,-5.783822,5.001814,-0.197442,0.041483
1571103872.125213,0.042204,0.120573,-0.021363,0.076038,0.038392,0.009742,39.019317,-4.525156,-5.782204,4.964947,-0.216243,0.002648
1571103872.249813,0.042261,0.120548,-0.021439,0.075926,0.038352,0.009593,39.628476,-4.560394,-5.775199,4.907094,-0.286949,0.005127
1571103872.409323,0.042450,0.120451,-0.021440,0.075942,0.038510,0.009511,40.392820,-4.608727,-5.773884,4.843462,-0.252631,0.028713
1571103872.533923,0.042549,0.120412,-0.021467,0.075931,0.038522,0.009456,40.986923,-4.639556,-5.768163,4.809085,-0.173504,0.027334
1571103872.658533,0.042605,0.120421,-0.021526,0.075879,0.038487,0.009374,41.579151,-4.663425,-5.762154,4.757673,-0.128924,0.000729
1571103872.788143,0.042651,0.120452,-0.021524,0.075981,0.038304,0.009249,42.192870,-4.689933,-5.763326,4.699556,-0.133686,0.005842
1571103872.912753,0.042572,0.120569,-0.021439,0.075996,0.038341,0.009341,42.789132,-4.707884,-5.768806,4.655844,-0.115327,-0.013585
1571103873.072273,0.042484,0.120673,-0.021362,0.075918,0.038315,0.009457,43.540936,-4.716590,-5.781159,4.590092,-0.008078,-0.062449
1571103873.196873,0.042357,0.120802,-0.021378,0.075581,0.038280,0.009580,44.126680,-4.718736,-5.788569,4.527874,0.011705,-0.037364
1571103873.321483,0.042342,0.120858,-0.021327,0.075626,0.038251,0.009661,44.693817,-4.716680,-5.794480,4.441224,0.078833,0.001302
1571103873.451073,0.042339,0.120921,-0.021303,0.075554,0.038059,0.009670,45.276795,-4.710308,-5.795641,4.369507,0.185744,0.015901
1571103873.575693,0.042249,0.121020,-0.021306,0.075435,0.037894,0.009844,45.832361,-4.680849,-5.796730,4.307179,0.356187,-0.014089
1571103873.735203,0.042148,0.121141,-0.021338,0.075078,0.037466,0.009936,46.528999,-4.600969,-5.792623,4.175807,0.763171,-0.000359
1571103873.859813,0.042047,0.121261,-0.021334,0.075083,0.037374,0.010291,47.061141,-4.486142,-5.797210,4.101331,1.080513,-0.070108
1571103873.984423,0.041815,0.121497,-0.021371,0.074993,0.037258,0.010683,47.597858,-4.332296,-5.808379,4.024309,1.343198,-0.075255
1571103874.114023,0.041611,0.121718,-0.021327,0.074885,0.037175,0.010975,48.141280,-4.142469,-5.816612,3.929207,1.565161,0.004997
1571103874.268523,0.041573,0.121758,-0.021303,0.074606,0.037210,0.011083,48.742270,-3.874492,-5.814348,3.762535,1.946964,0.028521
1571103874.398123,0.041496,0.121841,-0.021239,0.074238,0.037228,0.011056,49.234915,-3.603261,-5.816568,3.570993,2.267720,0.015563
1571103874.522733,0.041175,0.122213,-0.021129,0.074046,0.037389,0.011163,49.725875,-3.303810,-5.824230,3.441364,2.535807,-0.001646
1571103874.647343,0.041200,0.122191,-0.021107,0.073805,0.037628,0.011357,50.143394,-2.976633,-5.829100,3.292204,2.710002,-0.048861
1571103874.776943,0.041066,0.122353,-0.021099,0.073670,0.037795,0.011513,50.582467,-2.612324,-5.835695,3.142585,2.868104,-0.021934
1571103874.931443,0.040923,0.122519,-0.021126,0.073594,0.037901,0.011560,51.076112,-2.154342,-5.830837,2.921874,3.046635,0.071285
1571103875.061033,0.040760,0.122739,-0.021032,0.073568,0.037906,0.011630,51.471303,-1.744961,-5.833014,2.717179,3.231451,-0.006931
1571103875.185653,0.040713,0.122817,-0.020971,0.073482,0.037980,0.011650,51.810645,-1.330318,-5.843299,2.523378,3.400486,-0.058655
1571103875.310253,0.040708,0.122803,-0.020979,0.073251,0.038025,0.011664,52.117711,-0.901638,-5.847524,2.301356,3.519446,-0.014991
1571103875.469753,0.040764,0.122629,-0.020960,0.072952,0.038093,0.011528,52.453061,-0.335119,-5.849902,2.024382,3.646292,-0.008229
1571103875.594363,0.040786,0.122542,-0.020899,0.072494,0.038272,0.011407,52.688435,0.122365,-5.854948,1.768574,3.744708,-0.021038
1571103875.723953,0.040889,0.122331,-0.020812,0.072033,0.038549,0.011288,52.887290,0.606952,-5.859523,1.488836,3.818021,0.024705
1571103875.848573,0.040962,0.122182,-0.020769,0.071648,0.038759,0.011113,53.053461,1.081279,-5.858639,1.248205,3.857586,0.024597
1571103875.973183,0.041007,0.122109,-0.020782,0.071398,0.038696,0.010781,53.199194,1.562829,-5.856248,1.023241,3.902722,-0.001081
1571103876.132683,0.040978,0.122232,-0.020827,0.070979,0.038799,0.010202,53.353386,2.189142,-5.858199,0.759515,3.932340,-0.028738
1571103876.257293,0.040999,0.122178,-0.020843,0.070653,0.038762,0.009722,53.439241,2.674401,-5.856605,0.568278,3.923743,0.026511
1571103876.386883,0.041026,0.122135,-0.020872,0.070496,0.038909,0.009388,53.504978,3.176955,-5.851158,0.391053,3.908749,-0.007575
1571103876.511503,0.041023,0.122141,-0.020875,0.070086,0.039084,0.009173,53.541456,3.661558,-5.853991,0.158740,3.885848,-0.020365
1571103876.671013,0.040976,0.122273,-0.020918,0.069675,0.039442,0.009090,53.553427,4.280051,-5.852143,-0.069840,3.852756,0.016173
1571103876.795613,0.040986,0.122322,-0.020925,0.069346,0.039627,0.009221,53.541275,4.754070,-5.842289,-0.160730,3.775682,0.091858
1571103876.920223,0.041083,0.122334,-0.020870,0.068857,0.039779,0.009335,53.523933,5.219896,-5.835527,-0.133220,3.731891,0.027774
1571103877.049823,0.041223,0.122180,-0.020883,0.068255,0.039680,0.009310,53.511054,5.694779,-5.833635,-0.100927,3.689574,-0.024454
1571103877.174423,0.041145,0.122176,-0.020886,0.067792,0.039621,0.009330,53.497722,6.151711,-5.837135,-0.138048,3.651769,-0.013636
1571103877.333923,0.041159,0.122145,-0.020889,0.067398,0.039602,0.009406,53.473928,6.727506,-5.836021,-0.167093,3.590528,0.026228
1571103877.418663,0.041150,0.122113,-0.020892,0.067083,0.039567,0.009364,53.461422,7.030087,-5.834028,-0.135701,3.565705,0.022446
1571103877.588113,0.041129,0.121856,-0.020829,0.066898,0.039787,0.009137,53.432574,7.628354,-5.834011,-0.141053,3.519521,0.023881
1571103877.712733,0.041224,0.121944,-0.020821,0.066644,0.039811,0.008779,53.421247,8.063371,-5.828398,-0.128804,3.496068,0.040478
1571103877.872223,0.041226,0.121943,-0.020764,0.066360,0.039947,0.008617,53.397106,8.616796,-5.828542,-0.183104,3.450277,0.015377
1571103877.986873,0.041194,0.121996,-0.020786,0.066109,0.039928,0.008475,53.373955,9.012169,-5.825811,-0.222481,3.434888,0.011185
1571103878.111493,0.041199,0.121736,-0.020675,0.065678,0.040275,0.008375,53.344120,9.435048,-5.833409,-0.171903,3.393139,-0.018747
1571103878.251053,0.041188,0.121507,-0.020627,0.065297,0.040417,0.008300,53.321895,9.905287,-5.835697,-0.111324,3.364888,0.020739
1571103878.375653,0.041264,0.121221,-0.020590,0.065094,0.040568,0.008324,53.302818,10.317722,-5.833034,-0.162861,3.328963,0.039145
1571103878.535163,0.041214,0.121128,-0.020596,0.065129,0.040567,0.008299,53.274882,10.847748,-5.827864,-0.139201,3.307348,0.018348
1571103878.724573,0.041197,0.121161,-0.020602,0.065268,0.040688,0.008128,53.256126,11.470799,-5.825104,-0.116518,3.259733,0.027807
1571103878.913973,0.041187,0.121239,-0.020663,0.065419,0.040823,0.008014,53.236485,12.082012,-5.807907,-0.045284,3.209520,0.065403
1571103879.198053,0.041168,0.121277,-0.020655,0.065369,0.040775,0.008010,53.242618,12.987556,-5.797463,0.004115,3.143620,0.047942
1571103879.387453,0.041146,0.121330,-0.020663,0.065224,0.040697,0.007994,53.239841,13.575693,-5.788721,-0.038026,3.067183,0.071561
1571103879.671563,0.041175,0.121291,-0.020661,0.065207,0.040609,0.007990,53.229068,14.456787,-5.765977,-0.042793,3.144977,0.004305
1571103879.796183,0.041038,0.121212,-0.020570,0.065479,0.040740,0.007879,53.216129,14.857365,-5.772156,-0.026183,3.198904,0.019692
1571103879.925783,0.040978,0.121202,-0.020494,0.065413,0.040646,0.007843,53.211809,15.279570,-5.775507,-0.014010,3.246303,0.005778
1571103880.040433,0.040989,0.121189,-0.020478,0.065475,0.040574,0.007714,53.212192,15.654911,-5.774044,0.003653,3.316221,0.027133
1571103880.115193,0.040946,0.121160,-0.020449,0.065617,0.040675,0.007648,53.209972,15.906210,-5.773594,0.005986,3.370591,0.035668
1571103880.194953,0.040681,0.121349,-0.020407,0.065860,0.040682,0.007527,53.202004,16.194151,-5.773919,-0.061194,3.415095,0.038045
1571103880.334503,0.040579,0.121373,-0.020370,0.065806,0.040749,0.007324,53.189102,16.680471,-5.770506,-0.099605,3.511052,0.045761
1571103880.399293,0.040362,0.121523,-0.020321,0.065896,0.040773,0.007071,53.181672,16.921335,-5.770721,-0.076666,3.557750,0.052410
1571103880.523913,0.040245,0.121507,-0.020280,0.065801,0.040693,0.007143,53.172807,17.373540,-5.765776,-0.067094,3.622687,0.067483
1571103880.648523,0.040081,0.121578,-0.020226,0.065855,0.040658,0.006997,53.160646,17.836302,-5.757893,-0.098411,3.715851,0.083105
1571103880.713323,0.039964,0.121722,-0.020152,0.065877,0.040603,0.006802,53.153874,18.083576,-5.757372,-0.119131,3.764079,0.058914
1571103880.778123,0.039815,0.121764,-0.020112,0.066248,0.040670,0.006790,53.141734,18.331739,-5.755958,-0.123791,3.812627,0.044612
1571103880.932643,0.039741,0.121822,-0.020091,0.066380,0.040641,0.006709,53.124077,18.930748,-5.751674,-0.096301,3.924102,0.021294
1571103880.997443,0.039689,0.121920,-0.020087,0.066454,0.040524,0.006738,53.118666,19.188158,-5.750644,-0.100534,3.956992,0.021879
1571103881.122053,0.039735,0.121961,-0.020057,0.066683,0.040490,0.006695,53.105777,19.684890,-5.746676,-0.135228,4.008016,0.058683
1571103881.206803,0.039807,0.121909,-0.020070,0.066826,0.040561,0.006761,53.098263,20.025186,-5.740871,-0.090385,4.053977,0.038088
1571103881.311463,0.039845,0.121878,-0.020086,0.066983,0.040608,0.006799,53.090503,20.449908,-5.737389,-0.096585,4.080475,0.032857
1571103881.441053,0.039889,0.121832,-0.020033,0.067163,0.040710,0.006852,53.072527,20.980559,-5.736068,-0.145299,4.130122,0.022396
1571103881.595563,0.039957,0.121812,-0.019972,0.067270,0.040700,0.006867,53.056598,21.617953,-5.730765,-0.090176,4.141681,0.058618
1571103881.725143,0.039979,0.121826,-0.019915,0.067427,0.040662,0.006851,53.047389,22.157990,-5.726670,-0.070260,4.198018,0.029957
1571103881.974363,0.040019,0.121848,-0.019842,0.067382,0.040624,0.006824,53.027925,23.205307,-5.725635,-0.083572,4.211888,0.049211
1571103882.198643,0.040048,0.121921,-0.019808,0.067338,0.040528,0.006742,53.005531,24.151786,-5.715029,-0.116113,4.227324,0.058777
1571103882.447853,0.040034,0.122024,-0.019741,0.067326,0.040417,0.006736,52.988623,25.211129,-5.707692,-0.082028,4.232261,0.038502
1571103882.637253,0.040006,0.122067,-0.019732,0.067269,0.040294,0.006798,52.974448,26.019796,-5.704562,-0.085511,4.255746,0.008429
1571103882.986153,0.039883,0.122195,-0.019692,0.067214,0.040047,0.006778,52.941740,27.522275,-5.694300,-0.068356,4.239299,0.086013
1571103883.155633,0.039852,0.122251,-0.019640,0.067127,0.039919,0.006647,52.933934,28.246601,-5.688175,-0.081254,4.253226,0.047297
1571103883.330083,0.039779,0.122352,-0.019615,0.067053,0.039654,0.006303,52.926057,29.001287,-5.683514,-0.093030,4.240276,0.041416
1571103883.394873,0.039746,0.122354,-0.019581,0.067016,0.039523,0.005979,52.919058,29.278602,-5.683297,-0.096311,4.240263,0.065381
1571103883.524473,0.039725,0.122418,-0.019528,0.067027,0.039432,0.005661,52.913993,29.834731,-5.679246,-0.060091,4.239100,0.055595
1571103883.584273,0.039711,0.122419,-0.019475,0.066900,0.039345,0.005469,52.911114,30.089055,-5.680163,-0.043315,4.242037,0.045948
1571103883.669023,0.039680,0.122425,-0.019419,0.066824,0.039309,0.005303,52.906652,30.449371,-5.682780,-0.031250,4.225866,0.020174
1571103883.773683,0.039660,0.122434,-0.019379,0.066817,0.039390,0.005120,52.901556,30.891569,-5.683809,-0.077931,4.203118,0.026074
1571103883.838473,0.039721,0.122374,-0.019281,0.066926,0.039540,0.005003,52.893501,31.152719,-5.689620,-0.110480,4.167386,0.041927
1571103883.997983,0.039726,0.122357,-0.019285,0.067192,0.039491,0.004897,52.878754,31.813290,-5.681816,-0.046756,4.134035,0.047220
1571103884.057803,0.039772,0.122282,-0.019271,0.067319,0.039547,0.004899,52.874101,32.051280,-5.680523,-0.021238,4.117978,0.033649
1571103884.187373,0.039739,0.122323,-0.019265,0.067392,0.039510,0.004741,52.873639,32.587956,-5.673953,-0.028451,4.087997,0.076690
1571103884.247193,0.039673,0.122350,-0.019211,0.067527,0.039561,0.004887,52.863846,32.836904,-5.675010,-0.071172,4.077089,0.034590
1571103884.376793,0.039564,0.122369,-0.019171,0.067888,0.039565,0.004998,52.842487,33.372523,-5.674687,-0.086497,4.038641,0.047968
1571103884.436603,0.039474,0.122390,-0.019094,0.068458,0.039555,0.005211,52.823852,33.622271,-5.675172,-0.131418,4.035547,0.069671
1571103884.596103,0.039569,0.122310,-0.019035,0.068592,0.039656,0.005432,52.804860,34.249777,-5.669094,-0.034289,4.016300,0.021585
1571103884.660893,0.039611,0.122292,-0.018948,0.068775,0.039752,0.005634,52.801285,34.505210,-5.674342,-0.034070,3.992369,0.002607
1571103884.760593,0.039646,0.122283,-0.018892,0.068876,0.039869,0.005781,52.796559,34.897323,-5.675096,-0.057420,3.919932,0.053551
1571103884.850313,0.039666,0.122277,-0.018849,0.068979,0.039929,0.005791,52.788036,35.247468,-5.672503,-0.112729,3.898565,0.053240
1571103884.974913,0.039598,0.122333,-0.018835,0.068917,0.039980,0.005708,52.777719,35.734656,-5.667320,-0.072938,3.811899,0.016995
1571103885.039703,0.039516,0.122401,-0.018771,0.068928,0.039976,0.005728,52.775294,35.991735,-5.671103,-0.009627,3.764905,-0.023768
1571103885.199203,0.039446,0.122461,-0.018801,0.069002,0.039952,0.005633,52.769607,36.592285,-5.672339,-0.054655,3.621506,0.006134
1571103885.388623,0.039456,0.122495,-0.018775,0.068977,0.039780,0.005428,52.763662,37.264556,-5.662490,-0.057251,3.457001,0.048572
1571103885.578013,0.039388,0.122552,-0.018791,0.068808,0.039546,0.005206,52.758147,37.918144,-5.663990,-0.054318,3.335987,-0.014422
1571103885.732533,0.039242,0.122669,-0.018757,0.068914,0.039503,0.005117,52.749436,38.443709,-5.660278,-0.056377,3.223027,0.073987
1571103885.986723,0.038874,0.122986,-0.018685,0.069108,0.039472,0.004982,52.702947,39.305201,-5.650956,-0.335854,3.118356,0.033049
1571103886.176123,0.038595,0.123216,-0.018652,0.069356,0.039381,0.004960,52.619092,39.930667,-5.654099,-0.556211,3.013848,0.006735
1571103886.460223,0.038261,0.123473,-0.018660,0.069398,0.039219,0.005100,52.373088,40.799152,-5.644268,-1.110973,2.772984,0.042988
1571103886.649623,0.038067,0.123614,-0.018685,0.069421,0.039070,0.005186,52.129468,41.341714,-5.636402,-1.373107,2.644182,0.042379
1571103886.774223,0.037863,0.123786,-0.018653,0.069628,0.039009,0.005206,51.944937,41.704533,-5.634710,-1.583082,2.534150,0.028496
1571103886.933713,0.037749,0.123878,-0.018631,0.069672,0.038946,0.005166,51.667538,42.115752,-5.637053,-1.838153,2.366993,-0.022852
1571103887.058313,0.037643,0.123957,-0.018620,0.069676,0.038912,0.005235,51.429704,42.423852,-5.641169,-1.912922,2.268866,-0.006604
1571103887.187893,0.037605,0.123979,-0.018620,0.069588,0.038994,0.005131,51.175812,42.717381,-5.642223,-1.999306,2.167892,-0.023926
1571103887.247713,0.037558,0.124002,-0.018652,0.069446,0.039016,0.004961,51.054683,42.853473,-5.641719,-2.044502,2.116895,-0.036347
1571103887.377293,0.037532,0.124010,-0.018684,0.069284,0.038951,0.004958,50.786826,43.124511,-5.642416,-2.104136,2.005663,-0.009654
1571103887.437103,0.037498,0.124023,-0.018707,0.068984,0.038964,0.004996,50.660613,43.249234,-5.641016,-2.147277,1.950025,-0.006312
1571103887.576663,0.037559,0.123953,-0.018713,0.068879,0.038905,0.005063,50.356882,43.502015,-5.638608,-2.250542,1.779513,0.004473
1571103887.661383,0.037609,0.123877,-0.018701,0.068713,0.038785,0.004964,50.168778,43.643770,-5.637713,-2.295475,1.687398,-0.010813
1571103887.785993,0.037660,0.123788,-0.018674,0.068598,0.038694,0.004977,49.881120,43.840965,-5.640485,-2.360313,1.560706,-0.038660
1571103887.850783,0.037680,0.123789,-0.018658,0.068501,0.038604,0.004980,49.728741,43.940550,-5.643323,-2.382329,1.486666,-0.024762
1571103887.910593,0.037735,0.123733,-0.018647,0.068409,0.038507,0.004956,49.588965,44.025503,-5.644721,-2.377756,1.445474,-0.014248
1571103888.040173,0.037788,0.123665,-0.018642,0.068238,0.038373,0.004873,49.281096,44.198908,-5.642614,-2.422452,1.311200,0.023229
1571103888.099993,0.037837,0.123651,-0.018541,0.067956,0.038420,0.004454,49.138932,44.275452,-5.645456,-2.422001,1.249380,0.036805
1571103888.194683,0.037905,0.123278,-0.018487,0.067706,0.038466,0.004373,48.914278,44.364037,-5.645060,-2.459008,1.147443,0.014604
1571103888.324263,0.037955,0.123169,-0.018398,0.067255,0.038716,0.004397,48.597976,44.500675,-5.650466,-2.449701,1.059778,-0.013393
1571103888.384083,0.037958,0.123189,-0.018328,0.067082,0.038952,0.004234,48.451372,44.563768,-5.655632,-2.454798,1.046743,-0.020498
1571103888.513663,0.037977,0.123125,-0.018309,0.066803,0.039111,0.004027,48.137435,44.693654,-5.657972,-2.432047,0.984375,-0.008488
1571103888.638273,0.038113,0.122881,-0.018274,0.066339,0.039378,0.004294,47.842333,44.806268,-5.659374,-2.385364,0.950254,0.016491
1571103888.797783,0.037964,0.123117,-0.018263,0.066178,0.039593,0.004318,47.457052,44.960532,-5.655039,-2.401967,0.897770,0.047595
1571103888.987173,0.037952,0.123059,-0.018230,0.065883,0.039898,0.004496,47.003770,45.127908,-5.655338,-2.374812,0.887987,-0.016877
1571103889.271253,0.037900,0.122979,-0.018187,0.065807,0.040161,0.004757,46.337373,45.380235,-5.657658,-2.319485,0.988685,0.013875
1571103889.495553,0.037975,0.123055,-0.018155,0.065684,0.040277,0.005038,45.822646,45.616671,-5.660523,-2.305776,1.089207,0.003188
1571103889.709853,0.038083,0.123092,-0.018117,0.065592,0.040324,0.005057,45.330365,45.857983,-5.661356,-2.343545,1.147469,-0.003292
1571103889.899253,0.038111,0.123026,-0.018085,0.065462,0.040411,0.005063,44.880978,46.067140,-5.663723,-2.413802,1.127766,0.018750
1571103890.123553,0.038061,0.122825,-0.018042,0.065371,0.040550,0.005112,44.333136,46.321835,-5.663087,-2.506331,1.188815,-0.009041
1571103890.248153,0.037876,0.122550,-0.018052,0.065275,0.040592,0.005272,44.013236,46.457681,-5.661791,-2.602844,1.211741,-0.005021
1571103890.312953,0.038157,0.122796,-0.018055,0.065009,0.040599,0.005220,43.857849,46.541844,-5.660968,-2.608631,1.200367,-0.017890
1571103890.437543,0.038333,0.123081,-0.018047,0.064874,0.040553,0.005238,43.534479,46.698073,-5.660524,-2.702444,1.229017,0.023208
1571103890.532243,0.038309,0.123274,-0.018045,0.064651,0.040623,0.005398,43.278878,46.819198,-5.657125,-2.703176,1.242116,0.081247
1571103890.661843,0.038367,0.123453,-0.018044,0.064493,0.040506,0.005653,42.923928,46.988368,-5.643670,-2.798029,1.293140,0.091992
1571103890.786443,0.038483,0.123592,-0.018058,0.064461,0.040388,0.006054,42.570308,47.146829,-5.633724,-2.945991,1.217278,0.016566
1571103890.851223,0.038551,0.123658,-0.018032,0.064335,0.040427,0.006401,42.378346,47.230055,-5.635422,-3.006915,1.235407,-0.048927
1571103890.950923,0.038518,0.123708,-0.018028,0.064096,0.040348,0.006585,42.075485,47.354828,-5.640445,-3.046623,1.284616,-0.068155
1571103891.040633,0.038455,0.123805,-0.017988,0.064012,0.040145,0.007090,41.794077,47.470014,-5.647671,-3.134081,1.245062,-0.028140
1571103891.150283,0.038477,0.123927,-0.017919,0.064024,0.040167,0.007596,41.445469,47.607067,-5.651687,-3.223171,1.166749,0.035192
1571103891.259923,0.038543,0.123990,-0.017872,0.064147,0.040245,0.008084,41.085472,47.733109,-5.647333,-3.309726,1.113092,0.092176
1571103891.384523,0.038489,0.123827,-0.017867,0.064110,0.040247,0.008782,40.659231,47.863976,-5.640447,-3.442930,1.074735,0.026550
1571103891.449313,0.038442,0.123599,-0.017832,0.064130,0.040305,0.009581,40.427924,47.928694,-5.641737,-3.479522,1.096983,-0.004808
1571103891.514103,0.038464,0.123529,-0.017812,0.064112,0.040431,0.010189,40.198211,47.998109,-5.642725,-3.515400,1.081627,0.013346
1571103891.598833,0.038420,0.123483,-0.017756,0.064176,0.040565,0.010638,39.896521,48.084743,-5.641508,-3.560897,1.037620,0.067422
1571103891.703493,0.038475,0.123535,-0.017691,0.064387,0.040510,0.010979,39.516465,48.193710,-5.639979,-3.654243,0.994428,0.002734
1571103891.858013,0.038612,0.123592,-0.017622,0.064519,0.040523,0.011154,38.936743,48.354077,-5.649490,-3.811422,0.959913,-0.072945
1571103891.987593,0.038860,0.123549,-0.017603,0.064208,0.040647,0.011300,38.432859,48.477949,-5.657373,-3.910211,0.835777,-0.032012
1571103892.112203,0.039031,0.123513,-0.017575,0.064060,0.040626,0.011255,37.939213,48.582185,-5.658790,-3.973562,0.767518,0.036113
1571103892.241793,0.039144,0.123681,-0.017614,0.063961,0.040498,0.011300,37.412389,48.691337,-5.656759,-4.065421,0.742607,-0.036202
1571103892.525883,0.039185,0.123704,-0.017594,0.063674,0.040432,0.011350,36.234202,48.894680,-5.659638,-4.186507,0.649132,0.097012
