1573523237.394610,0.000030,0.000200,0.010344,0.008069,-0.033935,-0.059419,0.572701,0.012547,0.003274,0.638265,0.014493,-0.001704
1573523237.459370,0.000756,0.000766,0.010384,0.008495,-0.033718,-0.058542,0.617216,0.013761,0.003108,0.670901,0.016130,-0.002148
1573523237.524120,0.001914,0.001321,0.010498,0.008974,-0.033457,-0.057622,0.665675,0.015160,0.002391,0.707525,0.016473,-0.004049
1573523237.583890,0.003292,0.002927,0.010448,0.009116,-0.034099,-0.057958,0.713420,0.017472,0.003086,0.744426,0.019923,-0.003966
1573523237.648650,0.004461,0.005049,0.010633,0.009873,-0.033667,-0.057313,0.764971,0.018151,0.001519,0.779430,0.022512,-0.004230
1573523237.713400,0.005538,0.007433,0.010699,0.009907,-0.033074,-0.056640,0.817199,0.020243,0.001359,0.812287,0.031517,0.000427
1573523237.773170,0.006565,0.010360,0.010760,0.009875,-0.032779,-0.055365,0.867742,0.022854,0.001692,0.839500,0.040650,0.005965
1573523237.997310,0.006750,0.012990,0.010778,0.010042,-0.032867,-0.054972,1.067452,0.033691,0.003569,0.946176,0.043722,0.003491
1573523238.057080,0.006128,0.018083,0.010814,0.009820,-0.032681,-0.053863,1.123067,0.036605,0.004580,0.969839,0.041744,0.003545
1573523238.246360,0.002710,0.022664,0.010695,0.009416,-0.032604,-0.052981,1.313095,0.044955,0.008127,1.045309,0.055993,0.020968
1573523238.375870,-0.007469,0.030409,0.010539,0.009637,-0.033080,-0.053698,1.455236,0.051091,0.013035,1.124550,0.058179,0.021063
1573523238.530280,-0.011960,0.033806,0.010464,0.009319,-0.033701,-0.053432,1.642898,0.058686,0.016609,1.244689,0.051106,0.013411
1573523238.595030,-0.030721,0.048111,0.010425,0.008966,-0.033978,-0.053803,1.735976,0.061272,0.019732,1.312217,0.062626,0.018310
1573523238.719560,-0.058365,0.063837,0.010321,0.008927,-0.033433,-0.053434,1.916939,0.069784,0.025845,1.431752,0.070534,0.029736
1573523238.854050,-0.116370,0.093302,0.009874,0.009102,-0.033653,-0.053520,2.125531,0.079378,0.040875,1.545279,0.068425,0.059031
1573523238.973590,-0.149553,0.110371,0.009625,0.009124,-0.033368,-0.052810,2.307635,0.086456,0.053144,1.644801,0.052680,0.051204
1573523239.197730,-0.181426,0.123890,0.009408,0.009776,-0.034095,-0.052478,2.680832,0.098994,0.069328,1.761969,0.071928,0.050553
1573523239.257500,-0.213910,0.134836,0.009154,0.010187,-0.034478,-0.052371,2.770617,0.101031,0.077710,1.794304,0.077081,0.060416
1573523239.416890,-0.225292,0.132721,0.008982,0.010614,-0.035176,-0.052171,3.062852,0.113168,0.090031,1.930661,0.073719,0.068349
1573523239.576280,-0.221880,0.127029,0.008958,0.010813,-0.035871,-0.052060,3.375262,0.113334,0.097483,1.990060,-0.015432,0.065305
1573523239.730690,-0.205447,0.111681,0.008923,0.010858,-0.036604,-0.051642,3.684169,0.115712,0.103609,2.060128,0.091499,0.089435
1573523239.810380,-0.189918,0.099945,0.008929,0.010576,-0.037105,-0.050718,3.848022,0.122474,0.106542,2.141672,0.125102,0.092079
1573523239.944870,-0.163783,0.081066,0.008929,0.010526,-0.037675,-0.050092,4.136274,0.133199,0.110340,2.281282,0.068509,0.059071
1573523240.109240,-0.148664,0.070734,0.008905,0.010245,-0.038765,-0.048839,4.521751,0.138269,0.114718,2.380163,0.035071,0.056691
1573523240.238740,-0.122820,0.057191,0.009084,0.010123,-0.039306,-0.047277,4.831849,0.142882,0.116771,2.473130,0.105806,0.094350
1573523240.398140,-0.113408,0.049062,0.009161,0.009730,-0.039284,-0.045969,5.269115,0.162003,0.125721,2.679094,0.099693,0.056977
1573523240.487790,-0.088579,0.027048,0.009050,0.009887,-0.038486,-0.044336,5.510280,0.163988,0.120987,2.742403,0.038366,0.018879
1573523240.587410,-0.083569,0.019847,0.009037,0.010957,-0.038133,-0.043665,5.802253,0.166262,0.119862,2.791414,0.010495,0.013608
1573523240.736840,-0.080384,0.007167,0.008736,0.011221,-0.037640,-0.041966,6.240219,0.166144,0.125262,2.899078,0.034297,0.075375
1573523240.911180,-0.079953,-0.000754,0.008507,0.010944,-0.037325,-0.040251,6.765846,0.179195,0.142081,2.993008,0.064770,0.074016
1573523240.995860,-0.088118,-0.005120,0.008195,0.010042,-0.037508,-0.038815,7.031437,0.182857,0.149590,3.060558,0.029690,0.037043
1573523241.120390,-0.090027,-0.003670,0.008137,0.009782,-0.037886,-0.037526,7.424670,0.188316,0.154505,3.161644,0.058253,0.031390
1573523241.249880,-0.084545,-0.000012,0.008331,0.009269,-0.038398,-0.036047,7.838072,0.205333,0.162301,3.208935,0.187187,0.111649
1573523241.374410,-0.074270,0.006795,0.008673,0.008699,-0.038836,-0.035106,8.233373,0.229916,0.173299,3.238306,0.143425,0.088526
1573523241.573650,-0.069088,0.014153,0.008909,0.007908,-0.039235,-0.034388,8.879923,0.239064,0.182885,3.329637,-0.027318,0.024037
1573523241.658330,-0.069547,0.027788,0.009261,0.007222,-0.039259,-0.033825,9.143720,0.237912,0.187984,3.297657,0.027580,0.056050
1573523241.787830,-0.073758,0.030295,0.009133,0.006577,-0.039497,-0.034261,9.576584,0.252182,0.203360,3.221876,0.151581,0.131513
1573523241.932290,-0.082463,0.032358,0.009005,0.006529,-0.039368,-0.033992,10.024553,0.271042,0.224660,3.165319,0.100055,0.103760
1573523242.036890,-0.082675,0.020806,0.008574,0.006652,-0.039568,-0.032854,10.364162,0.279289,0.233683,3.232702,0.051836,0.078303
1573523242.196280,-0.077820,0.009922,0.008360,0.006483,-0.040328,-0.031469,10.884367,0.293632,0.242780,3.232966,0.128135,0.079571
1573523242.320800,-0.075617,-0.011279,0.007589,0.006657,-0.040708,-0.030965,11.288938,0.309133,0.251293,3.257470,0.079179,0.052101
1573523242.455290,-0.067075,-0.034987,0.007039,0.006298,-0.040510,-0.030366,11.734439,0.314984,0.253047,3.363435,0.039163,0.063196
1573523242.574830,-0.049624,-0.053636,0.006937,0.005612,-0.041556,-0.029929,12.151897,0.322643,0.253383,3.499732,0.110149,0.093506
1573523242.734220,-0.029491,-0.058185,0.007202,0.004777,-0.042185,-0.029632,12.706477,0.344925,0.259459,3.505985,0.139685,0.069594
1573523242.858750,-0.014219,-0.050951,0.007888,0.003955,-0.042221,-0.029409,13.135489,0.356371,0.257574,3.464942,0.076410,0.033745
1573523242.983280,-0.008772,-0.050563,0.007970,0.003007,-0.042776,-0.029357,13.585917,0.366972,0.259962,3.564357,0.119821,0.057914
1573523243.112790,-0.008744,-0.045359,0.008259,0.002631,-0.042374,-0.029344,14.050277,0.384206,0.268128,3.660025,0.122947,0.080552
1573523243.237320,-0.011616,-0.038433,0.008445,0.000740,-0.042400,-0.028919,14.498145,0.392850,0.278717,3.729056,0.044545,0.049519
1573523243.396710,-0.023220,-0.041753,0.008036,-0.000143,-0.042347,-0.028539,15.126184,0.399959,0.288911,3.876366,0.092789,0.022182
1573523243.521240,-0.023823,-0.046166,0.007811,-0.001572,-0.041956,-0.028437,15.619776,0.417580,0.297124,3.980238,0.174491,0.080588
1573523243.650740,-0.025015,-0.054766,0.007367,-0.002078,-0.041713,-0.029003,16.145958,0.435885,0.311247,4.093690,0.108814,0.092149
1573523243.775270,-0.024743,-0.069522,0.006805,-0.002299,-0.042037,-0.029262,16.665158,0.446891,0.320997,4.196376,0.062973,0.063855
1573523243.909760,-0.020622,-0.074512,0.006674,-0.002788,-0.042947,-0.030411,17.235235,0.460264,0.329433,4.268890,0.080632,0.070236
1573523244.059180,-0.016504,-0.078498,0.006613,-0.002988,-0.043537,-0.030875,17.882155,0.477815,0.337726,4.281771,0.135850,0.085008
1573523244.183710,-0.010871,-0.080400,0.006670,-0.002903,-0.043546,-0.030877,18.424162,0.502131,0.347017,4.330814,0.173580,0.111547
1573523244.313210,-0.005676,-0.081858,0.006704,-0.003251,-0.043412,-0.030352,18.990063,0.521312,0.355373,4.374426,0.058774,0.035418
1573523244.437740,0.001029,-0.069356,0.007406,-0.002964,-0.044720,-0.029144,19.534361,0.528196,0.351026,4.388078,0.052832,0.003314
1573523244.597130,0.008264,-0.049636,0.008392,-0.002249,-0.044928,-0.028158,20.229534,0.549884,0.351966,4.395734,0.151811,0.072967
1573523244.721650,0.014993,-0.029335,0.009330,-0.001404,-0.045640,-0.027014,20.781061,0.573173,0.356439,4.402001,0.179162,0.088868
1573523244.851150,0.017791,-0.023384,0.009530,-0.000734,-0.047205,-0.026616,21.369119,0.597421,0.365978,4.419315,0.152424,0.065449
1573523244.975670,0.021249,-0.018627,0.009858,-0.000861,-0.048958,-0.024625,21.923385,0.612943,0.365593,4.433615,0.072467,-0.020788
1573523245.135070,0.023768,-0.012763,0.010160,-0.000571,-0.049813,-0.023029,22.630627,0.633491,0.362915,4.458821,0.149298,0.022233
1573523245.259600,0.024161,-0.011506,0.010196,-0.000795,-0.049580,-0.020972,23.202464,0.648614,0.365581,4.479125,0.087125,0.031796
1573523245.384120,0.022587,-0.006154,0.010465,-0.001400,-0.048816,-0.019392,23.757506,0.660187,0.371505,4.417690,0.134485,0.085696
1573523245.513630,0.020410,0.008200,0.011029,-0.001612,-0.048071,-0.018065,24.311858,0.682770,0.383516,4.404563,0.139062,0.072822
1573523245.638150,0.030499,0.023784,0.011658,-0.001694,-0.047336,-0.016847,24.825941,0.696081,0.385143,4.348576,0.098793,0.039332
1573523245.797550,0.041237,0.045348,0.012610,-0.001619,-0.045403,-0.015674,25.493432,0.719662,0.385031,4.385479,0.137687,0.024670
1573523245.922080,0.049383,0.069972,0.013552,-0.001441,-0.044472,-0.015421,26.003597,0.736054,0.382412,4.354499,0.093791,0.011722
1573523246.046610,0.048695,0.090015,0.014272,-0.002003,-0.044857,-0.014684,26.521906,0.755962,0.388103,4.337439,0.162611,0.061098
1573523246.176120,0.043388,0.105739,0.014559,-0.002049,-0.044289,-0.013861,27.073736,0.772384,0.398997,4.317337,0.098531,0.045639
1573523246.330540,0.033408,0.132314,0.015137,-0.001876,-0.044151,-0.011917,27.733237,0.787548,0.414567,4.278890,0.126520,0.058955
1573523246.460040,0.029765,0.165009,0.015871,-0.002304,-0.043718,-0.009991,28.261388,0.801151,0.428282,4.250124,0.102208,0.040422
1573523246.584570,0.028180,0.188205,0.016688,-0.002186,-0.043813,-0.010273,28.764300,0.808171,0.434660,4.214258,0.097053,0.059531
1573523246.714070,0.025278,0.201161,0.017105,-0.001394,-0.043795,-0.009716,29.304459,0.827026,0.443665,4.230534,0.131146,0.046912
1573523246.838600,0.026848,0.225040,0.017843,-0.001281,-0.043375,-0.009029,29.811380,0.843133,0.451683,4.192599,0.136374,0.066667
1573523246.997990,0.021433,0.234756,0.018065,-0.001251,-0.042199,-0.007363,30.462492,0.864056,0.467509,4.132965,0.102736,0.064713
1573523247.122520,0.014330,0.243209,0.018226,-0.000970,-0.041753,-0.006334,30.959436,0.871314,0.479363,4.138127,0.052555,0.055901
1573523247.252030,0.011379,0.250144,0.018396,-0.000143,-0.040668,-0.005494,31.479618,0.881910,0.488911,4.072471,0.100844,0.060786
1573523247.376560,0.003552,0.279134,0.019134,0.000157,-0.039758,-0.005055,31.931624,0.895896,0.505576,3.976194,0.130067,0.089515
1573523247.501090,-0.017366,0.300397,0.019352,0.000136,-0.038945,-0.003330,32.412025,0.910462,0.532544,3.981871,0.145307,0.110549
1573523247.660480,-0.035778,0.317890,0.019435,-0.000784,-0.039196,-0.001322,33.061241,0.924232,0.561756,3.959332,0.069742,0.091949
1573523247.785000,-0.042104,0.339739,0.019920,-0.001667,-0.039161,0.000737,33.553652,0.934013,0.580487,3.900198,0.095421,0.095869
1573523247.914510,-0.040991,0.355413,0.020468,-0.002311,-0.039141,0.002258,34.058960,0.953203,0.595684,3.899558,0.138809,0.116891
1573523248.039040,-0.038517,0.413203,0.022263,-0.003202,-0.039886,0.003070,34.520576,0.971262,0.613840,3.875358,0.113443,0.113455
1573523248.198440,-0.038357,0.451000,0.023571,-0.003693,-0.040249,0.004339,35.117562,0.990374,0.631837,3.794668,0.073876,0.099438
1573523248.322960,-0.031778,0.460687,0.024088,-0.003931,-0.040724,0.004343,35.570694,0.999110,0.640835,3.723296,0.014964,0.117275
1573523248.452470,-0.028864,0.445601,0.023726,-0.004407,-0.041131,0.004473,36.046070,1.003561,0.653591,3.699578,0.046947,0.128951
1573523248.576990,-0.023916,0.419024,0.023062,-0.004484,-0.041634,0.005175,36.509429,1.015102,0.665307,3.652698,0.131819,0.136263
1573523248.701510,-0.025303,0.369941,0.021521,-0.004317,-0.041634,0.005268,36.970034,1.037226,0.677611,3.648203,0.174966,0.100716
1573523248.860900,-0.023235,0.338006,0.020626,-0.004719,-0.041648,0.005542,37.564458,1.061423,0.686525,3.658067,0.090734,0.054170
1573523248.985430,-0.022689,0.310378,0.019824,-0.005128,-0.041340,0.005311,38.034460,1.073658,0.691795,3.644298,0.049772,0.082114
1573523249.114940,-0.027457,0.297659,0.019333,-0.004826,-0.040818,0.005353,38.536846,1.082637,0.705575,3.590853,0.036198,0.098478
1573523249.239480,-0.032784,0.290309,0.018994,-0.004379,-0.040981,0.005111,38.996319,1.093616,0.717556,3.572401,0.070190,0.080622
1573523249.364010,-0.034181,0.286547,0.018892,-0.003535,-0.041139,0.004714,39.426433,1.108925,0.726706,3.540256,0.170173,0.056982
1573523249.523400,-0.030010,0.278976,0.018841,-0.003497,-0.042352,0.005283,39.957588,1.141733,0.726325,3.499252,0.286619,0.006937
1573523249.647930,-0.025739,0.275325,0.018863,-0.003087,-0.042728,0.005705,40.378524,1.176089,0.724300,3.435601,0.263299,0.031206
1573523249.777440,-0.022529,0.278146,0.018997,-0.003074,-0.043008,0.005926,40.819456,1.209910,0.729781,3.389520,0.239974,0.083763
1573523249.901970,-0.015385,0.292174,0.019467,-0.004573,-0.043672,0.006651,41.246712,1.244934,0.737771,3.334103,0.306937,0.043384
1573523250.061370,-0.016614,0.293126,0.019493,-0.004303,-0.043027,0.006250,41.784747,1.306337,0.744334,3.277989,0.436290,0.031160
1573523250.185900,-0.030425,0.286636,0.019046,-0.004078,-0.043264,0.005706,42.178043,1.367037,0.752905,3.210995,0.570237,0.003096
1573523250.315410,-0.059919,0.273811,0.017980,-0.003257,-0.043254,0.005449,42.586984,1.452371,0.766179,3.212208,0.709027,-0.020745
1573523250.439930,-0.093859,0.260066,0.016820,-0.002681,-0.043832,0.004318,42.988776,1.550936,0.782413,3.201833,0.801888,0.019177
1573523250.564460,-0.122794,0.235656,0.015519,-0.001301,-0.043444,0.003329,43.358199,1.655523,0.798991,3.093873,0.911820,0.064304
1573523250.723850,-0.137955,0.210578,0.014445,-0.000544,-0.043686,0.001575,43.794486,1.813983,0.816897,2.937270,1.123461,0.067264
1573523250.848380,-0.092498,0.223920,0.015594,-0.001311,-0.043346,0.000487,44.163285,1.964952,0.807505,2.875231,1.268738,0.068986
1573523250.977890,-0.071660,0.225786,0.015980,-0.001702,-0.043101,-0.000087,44.568467,2.142485,0.803630,2.857656,1.376571,0.004706
1573523251.102420,-0.021446,0.224789,0.016753,-0.001949,-0.042492,-0.000679,44.917283,2.317648,0.780073,2.773231,1.489473,-0.057796
1573523251.261810,0.098795,0.270583,0.020387,-0.002020,-0.042156,-0.001159,45.334836,2.566240,0.717839,2.662021,1.710363,-0.055603
1573523251.386340,0.209621,0.333722,0.024703,-0.002372,-0.041792,-0.001832,45.640880,2.780081,0.661271,2.542259,1.836325,-0.036586
1573523251.515850,0.192217,0.364276,0.025355,-0.002921,-0.040279,-0.002032,45.952803,3.029278,0.663133,2.415475,1.945393,-0.017380
1573523251.640380,0.211643,0.375930,0.026203,-0.002749,-0.039522,-0.003230,46.255975,3.274551,0.644553,2.380817,2.007780,-0.079366
1573523251.764910,0.227710,0.389520,0.026783,-0.003015,-0.038292,-0.002769,46.546472,3.529073,0.628812,2.310106,2.082318,-0.099637
1573523251.924300,0.281606,0.404142,0.028175,-0.003135,-0.037369,-0.002806,46.905037,3.862458,0.593337,2.170959,2.198996,-0.117856
1573523252.048820,0.333105,0.390029,0.028659,-0.003568,-0.037045,-0.003005,47.161093,4.128342,0.564973,2.053943,2.279753,-0.116340
1573523252.178330,0.319698,0.343458,0.026611,-0.004226,-0.036610,-0.002716,47.410116,4.431951,0.569208,1.960150,2.367857,-0.070248
1573523252.302860,0.289010,0.319579,0.025044,-0.005069,-0.035689,-0.001746,47.654178,4.743023,0.580439,1.857951,2.447030,-0.025561
1573523252.462250,0.261723,0.298356,0.023720,-0.005648,-0.034493,-0.001625,47.940383,5.142468,0.588629,1.727095,2.471425,-0.048096
1573523252.586770,0.233218,0.274784,0.022278,-0.006327,-0.033055,-0.001898,48.146012,5.461473,0.597648,1.631483,2.526033,-0.056416
1573523252.716270,0.214750,0.249761,0.021023,-0.006863,-0.031792,-0.001749,48.345876,5.799834,0.603054,1.500152,2.613991,-0.037994
1573523252.840800,0.188753,0.223725,0.019591,-0.006945,-0.030536,-0.001422,48.533789,6.148870,0.612329,1.402305,2.644995,-0.033413
1573523252.965320,0.170737,0.196152,0.018195,-0.007303,-0.029124,-0.000895,48.696261,6.484101,0.622720,1.296881,2.625981,-0.025918
1573523253.124720,0.156324,0.172289,0.017011,-0.007310,-0.028250,-0.001267,48.881627,6.912046,0.630897,1.129266,2.653914,-0.016844
1573523253.249260,0.149034,0.157751,0.016404,-0.006998,-0.027527,-0.001086,49.004344,7.248096,0.635731,0.944523,2.720767,0.004585
1573523253.378760,0.139586,0.146925,0.015834,-0.006963,-0.026600,-0.000316,49.112551,7.610216,0.640237,0.784740,2.741344,-0.006184
1573523253.513250,0.128950,0.134006,0.015243,-0.006897,-0.025704,0.000849,49.202703,7.984595,0.645023,0.680221,2.728230,0.004947
1573523253.662680,0.128411,0.120714,0.014945,-0.006438,-0.024637,0.001396,49.284982,8.381305,0.648700,0.546255,2.706356,0.020232
1573523253.787210,0.126247,0.114563,0.014853,-0.006182,-0.023492,0.002005,49.338224,8.713444,0.650998,0.436300,2.699925,0.015842
1573523253.916710,0.125106,0.105934,0.014621,-0.005863,-0.022496,0.002475,49.387843,9.055551,0.653374,0.421124,2.648373,-0.005919
1573523254.041230,0.120848,0.101458,0.014301,-0.005745,-0.021961,0.002399,49.438145,9.388908,0.655170,0.425481,2.646893,-0.016561
1573523254.165760,0.115207,0.096162,0.013961,-0.005399,-0.021601,0.002382,49.480610,9.730569,0.658797,0.307668,2.676915,0.014740
1573523254.325150,0.108071,0.089152,0.013524,-0.005145,-0.021026,0.002727,49.510815,10.168355,0.664572,0.184192,2.646498,-0.009579
1573523254.449680,0.096097,0.076327,0.012868,-0.005096,-0.020226,0.003477,49.521853,10.521633,0.668167,0.186824,2.705025,-0.014050
1573523254.579180,0.089618,0.068288,0.012252,-0.005297,-0.019517,0.003244,49.537755,10.888006,0.675879,0.168682,2.769765,0.012653
1573523254.703700,0.083802,0.061158,0.011718,-0.005078,-0.019304,0.003213,49.545502,11.247418,0.685109,0.086271,2.806923,0.018407
1573523254.912900,0.079337,0.053474,0.011279,-0.004898,-0.019336,0.002884,49.544513,11.849065,0.694797,0.010020,2.866191,0.009893
1573523254.987610,0.076887,0.048431,0.010987,-0.004723,-0.019143,0.002726,49.536677,12.070542,0.699480,-0.017301,2.935667,0.011873
1573523255.117120,0.069833,0.044957,0.010585,-0.004690,-0.018658,0.003144,49.521345,12.474152,0.706794,-0.089944,3.001569,0.031367
1573523255.241640,0.066084,0.043830,0.010405,-0.004893,-0.018426,0.003872,49.498269,12.860798,0.713225,-0.190638,3.097530,0.033299
1573523255.366170,0.063764,0.040423,0.010285,-0.005305,-0.018307,0.004074,49.468822,13.249169,0.717153,-0.161334,3.168806,0.000624
1573523255.525560,0.062678,0.037581,0.010129,-0.005109,-0.017898,0.004532,49.441994,13.762121,0.719897,-0.159556,3.315198,0.024487
1573523255.650080,0.059600,0.035148,0.009841,-0.005043,-0.016867,0.005140,49.410031,14.193848,0.728617,-0.260280,3.376049,0.046901
1573523255.779590,0.058181,0.036574,0.009830,-0.005193,-0.016768,0.006028,49.372031,14.640312,0.734761,-0.275957,3.497773,0.023980
1573523255.904120,0.055825,0.037148,0.009834,-0.005310,-0.016676,0.007033,49.335574,15.090095,0.735400,-0.299906,3.595339,0.017106
1573523256.063510,0.056265,0.037774,0.009841,-0.005262,-0.016787,0.008162,49.277351,15.666094,0.741365,-0.466768,3.675615,0.074425
1573523256.188040,0.055350,0.038221,0.009822,-0.004912,-0.017218,0.008597,49.215581,16.131493,0.750930,-0.465410,3.756309,0.062606
1573523256.312570,0.057636,0.038557,0.009832,-0.004676,-0.017518,0.009560,49.166750,16.596027,0.757342,-0.377666,3.871092,0.043473
1573523256.442070,0.056279,0.038998,0.009792,-0.004432,-0.017396,0.009712,49.115314,17.106052,0.763532,-0.382268,3.959768,0.043735
1573523256.566600,0.055550,0.040116,0.009747,-0.004475,-0.017133,0.010429,49.065404,17.607703,0.769241,-0.443025,4.039788,0.053160
1573523256.725990,0.054982,0.040640,0.009699,-0.004570,-0.016484,0.011337,48.991979,18.259800,0.780797,-0.480077,4.122463,0.088343
1573523256.850510,0.055091,0.040394,0.009684,-0.004395,-0.015725,0.012076,48.932523,18.779309,0.791662,-0.481408,4.207686,0.080559
1573523256.980000,0.056585,0.040063,0.009651,-0.004594,-0.015764,0.013232,48.880159,19.322622,0.797602,-0.369202,4.275055,0.006720
1573523257.104530,0.059894,0.040384,0.009763,-0.004574,-0.014954,0.014433,48.843640,19.839697,0.798144,-0.354079,4.311660,0.018369
1573523257.229060,0.064625,0.038690,0.009844,-0.004370,-0.014757,0.014995,48.807348,20.348915,0.799383,-0.399653,4.301894,0.052401
1573523257.453200,0.066314,0.038497,0.009989,-0.004458,-0.014206,0.016482,48.712565,21.312356,0.814693,-0.414191,4.344577,0.069266
1573523257.512970,0.071488,0.037036,0.010161,-0.003865,-0.014132,0.017278,48.699714,21.541190,0.816902,-0.389507,4.308225,0.077659
1573523257.647460,0.074562,0.035035,0.010209,-0.003170,-0.014313,0.017866,48.651612,22.102707,0.825419,-0.426348,4.324079,0.072998
1573523257.767000,0.078445,0.032889,0.010285,-0.002385,-0.014568,0.017890,48.610333,22.589854,0.831292,-0.385201,4.324637,0.031048
1573523257.926390,0.078164,0.032401,0.010344,-0.002340,-0.014928,0.017786,48.547529,23.292393,0.837560,-0.412533,4.367257,0.053224
1573523258.050920,0.076725,0.031991,0.010346,-0.002082,-0.014759,0.017782,48.493695,23.858428,0.844881,-0.382677,4.385824,0.060688
1573523258.180430,0.075595,0.031361,0.010373,-0.002002,-0.014591,0.017411,48.443835,24.443683,0.850698,-0.362271,4.408850,0.048704
1573523258.304950,0.073361,0.030706,0.010310,-0.001933,-0.014421,0.017643,48.385702,25.021100,0.858956,-0.455667,4.421096,0.067707
1573523258.499220,0.072781,0.029760,0.010242,-0.001717,-0.014657,0.017594,48.298496,25.890702,0.869424,-0.410437,4.409048,0.050229
1573523258.588870,0.072428,0.028588,0.010127,-0.001535,-0.014639,0.017855,48.260122,26.291718,0.874645,-0.365706,4.433373,0.035242
1573523258.713400,0.072433,0.028089,0.010055,-0.001475,-0.014542,0.018117,48.211275,26.845252,0.881195,-0.398326,4.440692,0.036621
1573523258.842910,0.073567,0.027458,0.009956,-0.001519,-0.014590,0.018455,48.162102,27.403418,0.888160,-0.399703,4.395051,0.061384
1573523258.967450,0.075448,0.026794,0.009954,-0.001513,-0.014757,0.019049,48.113179,27.925046,0.896847,-0.430009,4.361045,0.059824
1573523259.126850,0.078908,0.025517,0.010000,-0.001176,-0.014990,0.019414,48.054397,28.575849,0.908687,-0.388609,4.330659,0.072993
1573523259.251380,0.080573,0.024688,0.010047,-0.001000,-0.014964,0.019952,48.013907,29.092854,0.913935,-0.333044,4.315443,0.024031
1573523259.375910,0.081151,0.024279,0.010065,-0.001256,-0.015258,0.020281,47.968769,29.621342,0.918243,-0.385503,4.286708,0.044532
1573523259.505410,0.078032,0.024908,0.009950,-0.001838,-0.014803,0.021450,47.912204,30.222584,0.924591,-0.350955,4.361088,0.025715
1573523259.629940,0.082629,0.023245,0.010104,-0.001544,-0.014871,0.021821,47.876841,30.698782,0.928489,-0.379597,4.265204,0.049823
1573523259.789340,0.084142,0.022934,0.010169,-0.001721,-0.014918,0.022214,47.815768,31.358106,0.938062,-0.403183,4.254734,0.066030
1573523259.913860,0.084621,0.022710,0.010273,-0.001630,-0.015032,0.022196,47.769970,31.878520,0.943005,-0.335952,4.225211,0.056005
1573523260.043360,0.083952,0.022897,0.010315,-0.001849,-0.014889,0.021981,47.725539,32.435210,0.948324,-0.333286,4.246104,0.035824
1573523260.167890,0.083037,0.023280,0.010336,-0.002079,-0.014654,0.021938,47.681416,32.977082,0.950356,-0.380340,4.245040,0.035948
1573523260.337250,0.082071,0.023553,0.010388,-0.002510,-0.014223,0.021893,47.612657,33.709338,0.956478,-0.386281,4.249543,0.043832
1573523260.451810,0.081620,0.024107,0.010368,-0.003411,-0.014205,0.022413,47.573977,34.204426,0.961576,-0.331152,4.247474,0.042485
1573523260.576330,0.082734,0.023731,0.010345,-0.003946,-0.013907,0.021861,47.539893,34.715490,0.968975,-0.297944,4.240425,0.040061
1573523260.705840,0.082158,0.024074,0.010361,-0.004846,-0.013470,0.021826,47.494505,35.271005,0.974290,-0.386073,4.213741,0.047565
1573523260.830370,0.080446,0.024314,0.010338,-0.005246,-0.012887,0.022043,47.438902,35.819122,0.980402,-0.358897,4.215457,0.052926
1573523260.989770,0.080437,0.023881,0.010305,-0.005649,-0.012591,0.021750,47.389194,36.489151,0.987821,-0.270521,4.214545,0.030146
1573523261.064490,0.081127,0.023582,0.010263,-0.007775,-0.011822,0.021498,47.373430,36.787454,0.994179,-0.280712,4.173407,0.060771
1573523261.243800,0.080826,0.023021,0.010021,-0.008532,-0.011070,0.021193,47.314507,37.532579,1.011104,-0.341656,4.122623,0.049700
1573523261.368330,0.079916,0.023155,0.009818,-0.008994,-0.010803,0.021573,47.268128,38.056549,1.025345,-0.339783,4.094714,0.084276
1573523261.527720,0.078329,0.022769,0.009714,-0.009476,-0.010692,0.021296,47.210325,38.734134,1.038865,-0.228995,4.127798,0.022636
1573523261.652250,0.079133,0.021695,0.009693,-0.009388,-0.010545,0.021025,47.173956,39.223289,1.044273,-0.309214,4.036513,0.084759
1573523261.781750,0.081925,0.020625,0.009885,-0.009233,-0.010149,0.020750,47.138081,39.689599,1.053716,-0.333846,3.954681,0.096131
1573523261.926200,0.082691,0.019856,0.009994,-0.008636,-0.009748,0.020192,47.090862,40.238858,1.062541,-0.263853,3.932174,0.042295
1573523262.030800,0.083948,0.019045,0.010025,-0.008783,-0.009574,0.020060,47.066150,40.622878,1.067760,-0.265505,3.898091,0.061538
1573523262.190200,0.084244,0.018786,0.010056,-0.009484,-0.009720,0.020092,47.019479,41.230256,1.077694,-0.301147,3.793694,0.059975
1573523262.314740,0.084283,0.018386,0.010106,-0.009502,-0.009977,0.019591,46.976056,41.697705,1.087054,-0.339194,3.797061,0.079852
1573523262.444250,0.083394,0.018516,0.010086,-0.009899,-0.009920,0.019667,46.933899,42.206712,1.096748,-0.280491,3.808501,0.054434
1573523262.568780,0.083102,0.018554,0.010104,-0.010112,-0.009751,0.019683,46.899477,42.680736,1.103575,-0.270911,3.729721,0.047173
1573523262.728170,0.082345,0.018569,0.010108,-0.010087,-0.009760,0.019032,46.845282,43.285168,1.113533,-0.339739,3.697149,0.081211
1573523262.852700,0.083697,0.018242,0.010248,-0.009996,-0.010152,0.018403,46.802366,43.718839,1.121432,-0.386981,3.677938,0.076507
1573523262.977230,0.081686,0.018841,0.010228,-0.010103,-0.010529,0.018330,46.745187,44.217255,1.129406,-0.437136,3.679918,0.046735
1573523263.106740,0.080265,0.019211,0.010203,-0.010002,-0.010711,0.018333,46.677254,44.718399,1.135972,-0.535646,3.638689,0.051767
1573523263.286060,0.079968,0.019544,0.010248,-0.009859,-0.010832,0.018326,46.568489,45.373885,1.149348,-0.651703,3.615207,0.079693
1573523263.390660,0.076278,0.019944,0.010147,-0.009607,-0.010712,0.018468,46.476833,45.825441,1.160111,-0.768671,3.624885,0.093995
1573523263.515190,0.076184,0.020007,0.010102,-0.009425,-0.011000,0.018922,46.369161,46.278131,1.173346,-0.929882,3.578681,0.085273
1573523263.644700,0.075703,0.020257,0.010058,-0.009223,-0.011248,0.019486,46.238616,46.751331,1.181985,-1.050137,3.549455,0.036635
1573523263.769220,0.075801,0.020366,0.010023,-0.009100,-0.011364,0.019810,46.100217,47.190932,1.186361,-1.161694,3.506902,0.020259
1573523263.893740,0.077243,0.020380,0.010294,-0.007980,-0.010532,0.020114,45.949776,47.591236,1.185039,-1.300837,3.403253,0.040219
1573523264.053140,0.078003,0.020353,0.010221,-0.008125,-0.010267,0.020137,45.729591,48.105998,1.196109,-1.506846,3.243018,0.093556
1573523264.177660,0.078724,0.020340,0.010160,-0.007962,-0.010130,0.020124,45.529727,48.491489,1.209454,-1.719313,3.122668,0.079862
1573523264.307170,0.079414,0.020428,0.010132,-0.007628,-0.010190,0.020225,45.298430,48.877817,1.215461,-1.848542,3.005360,0.002434
1573523264.431700,0.079407,0.020709,0.010084,-0.007262,-0.009993,0.020692,45.062034,49.250927,1.214945,-1.916129,2.927905,-0.017409
1573523264.591100,0.078026,0.021342,0.009887,-0.007678,-0.009423,0.021494,44.733811,49.740113,1.221186,-2.107319,2.797146,0.056375
1573523264.715620,0.076057,0.022349,0.009848,-0.008178,-0.008734,0.021980,44.452887,50.131571,1.227546,-2.247323,2.706927,0.044897
1573523264.845130,0.075175,0.022728,0.009724,-0.008156,-0.007693,0.022071,44.148987,50.495062,1.233290,-2.309865,2.608632,0.005993
1573523264.969650,0.075867,0.023306,0.009683,-0.007780,-0.007323,0.022548,43.856315,50.805831,1.234253,-2.423952,2.468305,0.017419
1573523265.094180,0.076093,0.023905,0.009660,-0.007507,-0.006437,0.022990,43.546323,51.108244,1.237151,-2.555823,2.309196,0.028887
1573523265.253570,0.075741,0.024626,0.009601,-0.007590,-0.005633,0.023502,43.122525,51.466679,1.244708,-2.695181,2.106967,0.049101
1573523265.378090,0.075523,0.025375,0.009585,-0.008075,-0.004837,0.023818,42.782184,51.730353,1.248730,-2.730567,2.015898,0.019012
1573523265.507590,0.075271,0.025907,0.009586,-0.007959,-0.004120,0.024424,42.432928,51.990487,1.249376,-2.693492,1.975307,0.013387
1573523265.676950,0.074522,0.026153,0.009589,-0.008212,-0.003242,0.024822,41.965790,52.318046,1.251953,-2.803791,1.781080,0.031033
1573523265.791510,0.073682,0.026656,0.009502,-0.008391,-0.002586,0.025185,41.631519,52.516285,1.259532,-2.933894,1.547390,0.084593
1573523265.916030,0.073139,0.027222,0.009407,-0.008794,-0.001930,0.025315,41.258963,52.704407,1.271860,-2.975488,1.405757,0.065349
1573523266.040550,0.072687,0.028059,0.009327,-0.009549,-0.001214,0.025168,40.885827,52.876072,1.280604,-2.968732,1.323449,0.028579
1573523266.170050,0.072625,0.030051,0.009154,-0.010099,-0.001101,0.025014,40.489639,53.061736,1.289496,-2.993545,1.226654,0.035854
1573523266.294580,0.071976,0.031421,0.009132,-0.010577,-0.000517,0.024876,40.101835,53.220568,1.295579,-3.076620,1.071128,0.058379
1573523266.453970,0.071161,0.033399,0.009120,-0.011100,-0.000519,0.024976,39.587835,53.391722,1.302737,-3.155028,0.847085,0.019368
1573523266.578490,0.070307,0.034494,0.009071,-0.011066,-0.000320,0.024416,39.181030,53.498079,1.307540,-3.181123,0.721945,0.034786
1573523266.707990,0.070120,0.035918,0.009088,-0.011426,-0.000715,0.024036,38.761725,53.600931,1.314281,-3.160221,0.636967,0.065980
1573523266.832510,0.069708,0.037294,0.009089,-0.012041,-0.001089,0.023808,38.359294,53.691214,1.320224,-3.143448,0.564176,0.028579
1573523266.991890,0.069263,0.038112,0.009089,-0.012037,-0.001127,0.023656,37.853183,53.782002,1.325313,-3.134487,0.493041,0.030082
1573523267.116420,0.069804,0.039054,0.009253,-0.011804,-0.001473,0.023697,37.457834,53.846040,1.325280,-3.152700,0.338959,0.044515
1573523267.240930,0.069154,0.038939,0.009185,-0.012469,-0.001168,0.023491,37.063847,53.882893,1.330929,-3.134834,0.296515,0.021696
1573523267.370420,0.069774,0.039174,0.009275,-0.012685,-0.001224,0.023497,36.665111,53.929385,1.329846,-3.064891,0.363905,-0.007919
1573523267.494950,0.070264,0.039387,0.009331,-0.012908,-0.000824,0.023737,36.290955,53.974064,1.328683,-3.039243,0.311280,0.026597
1573523267.654330,0.070838,0.039916,0.009448,-0.012798,-0.000836,0.024325,35.807093,54.012379,1.331036,-3.088578,0.172648,0.029803
1573523267.778860,0.071577,0.039970,0.009531,-0.012754,-0.000913,0.024788,35.430419,54.037117,1.332508,-3.073412,0.227602,0.014078
1573523267.908360,0.071909,0.039690,0.009576,-0.012457,-0.000522,0.025222,35.038742,54.067760,1.333073,-3.066831,0.183553,0.029168
1573523268.067750,0.070749,0.039130,0.009494,-0.012402,-0.000062,0.025463,34.534155,54.082265,1.335549,-3.139571,0.040616,-0.022782
1573523268.192270,0.070222,0.038383,0.009476,-0.012304,0.000164,0.025404,34.139979,54.086944,1.332722,-3.149996,0.084765,-0.025079
1573523268.316790,0.070337,0.037789,0.009467,-0.012103,0.000192,0.025608,33.745781,54.101036,1.331189,-3.177584,0.127885,0.021908
1573523268.441320,0.070941,0.037607,0.009543,-0.011966,-0.000152,0.025959,33.354674,54.112653,1.332777,-3.192069,0.051396,0.008578
1573523268.570820,0.071256,0.037321,0.009572,-0.011869,-0.000046,0.026281,32.944315,54.117028,1.333068,-3.207617,0.023354,0.021714
1573523268.695340,0.070744,0.037498,0.009577,-0.011776,0.000160,0.026998,32.536610,54.121748,1.332838,-3.269984,0.059637,-0.008718
1573523268.854730,0.070015,0.036792,0.009497,-0.011605,0.000321,0.027266,32.002705,54.126418,1.332945,-3.294937,0.051636,-0.033568
1573523268.979250,0.070425,0.036856,0.009492,-0.011631,0.000525,0.027394,31.599515,54.131119,1.329229,-3.313076,0.039926,-0.014663
1573523269.103770,0.070414,0.036840,0.009483,-0.011622,0.000750,0.027526,31.184617,54.134982,1.330644,-3.362401,0.046754,0.035658
1573523269.263150,0.070628,0.036627,0.009445,-0.011714,0.000835,0.027618,30.656181,54.140216,1.341992,-3.339136,0.044444,0.049888
1573523269.392650,0.070121,0.036467,0.009407,-0.011960,0.000890,0.028263,30.207548,54.147401,1.345170,-3.453682,0.073730,0.001599
1573523269.517170,0.070251,0.036565,0.009372,-0.012051,0.000813,0.028651,29.775736,54.157974,1.342283,-3.497335,0.076622,-0.046093
1573523269.641690,0.070619,0.036848,0.009363,-0.012022,0.000920,0.029389,29.340551,54.167966,1.338452,-3.545930,0.038900,-0.009582
1573523269.771190,0.071139,0.037240,0.009342,-0.012069,0.000735,0.029997,28.887583,54.172172,1.341238,-3.570114,-0.003866,0.041522
1573523269.895710,0.072028,0.037024,0.009373,-0.012427,0.000781,0.030400,28.451395,54.176773,1.347434,-3.624921,0.031907,0.046217
1573523270.055100,0.072945,0.036628,0.009403,-0.012784,0.000768,0.030596,27.879810,54.191486,1.352661,-3.669228,0.126560,-0.013826
1573523270.179620,0.074143,0.036028,0.009470,-0.012691,0.000755,0.030672,27.439187,54.211888,1.347484,-3.665009,0.126314,-0.048229
1573523270.304150,0.074666,0.035610,0.009540,-0.012723,0.000652,0.030727,26.986236,54.229881,1.340724,-3.698749,0.108869,-0.029016
1573523270.443630,0.074215,0.035214,0.009572,-0.012759,0.000406,0.030565,26.451979,54.246333,1.337625,-3.769833,0.103697,0.017379
1573523270.588070,0.074080,0.034561,0.009587,-0.012791,-0.000121,0.029969,25.898128,54.260853,1.342020,-3.812763,0.085626,0.035107
1573523270.717570,0.074186,0.033789,0.009609,-0.012826,-0.000571,0.029163,25.402480,54.274150,1.344477,-3.820355,0.119980,0.006114
1573523270.842090,0.072948,0.032996,0.009547,-0.013049,-0.000895,0.028490,24.899160,54.290800,1.343503,-3.867311,0.179063,-0.013084
1573523270.971590,0.072671,0.031858,0.009519,-0.012873,-0.001103,0.027369,24.388324,54.306997,1.341613,-3.959631,0.160159,-0.030325
1573523271.150910,0.072852,0.031151,0.009527,-0.012795,-0.001473,0.026296,23.678917,54.326366,1.339737,-4.010222,0.111159,0.009263
1573523271.255500,0.073465,0.030440,0.009610,-0.012551,-0.001911,0.025361,23.274161,54.332641,1.340991,-4.007705,0.091839,0.027144
1573523271.380020,0.074166,0.030228,0.009620,-0.012477,-0.002249,0.024708,22.788937,54.345358,1.344794,-4.041705,0.132215,0.020248
1573523271.504540,0.074175,0.030095,0.009623,-0.012728,-0.002319,0.024119,22.284772,54.362987,1.345812,-4.092328,0.171721,-0.014958
1573523271.634040,0.073525,0.030121,0.009597,-0.013217,-0.002534,0.024052,21.742465,54.382189,1.344038,-4.100493,0.130152,-0.016424
1573523271.758560,0.073268,0.030073,0.009631,-0.013492,-0.002722,0.024207,21.227120,54.392563,1.342948,-4.130584,0.063489,0.023723
1573523271.917950,0.073209,0.030220,0.009663,-0.013702,-0.002819,0.024523,20.565426,54.402287,1.348593,-4.187853,0.107982,0.021096
1573523272.042480,0.073128,0.030372,0.009686,-0.013842,-0.002678,0.025416,20.041679,54.419723,1.345965,-4.224751,0.185688,-0.044358
1573523272.171980,0.073295,0.030540,0.009701,-0.013969,-0.002605,0.026183,19.500165,54.442884,1.340485,-4.216710,0.159269,-0.029494
1573523272.296500,0.073160,0.030840,0.009717,-0.014227,-0.002480,0.026971,18.970530,54.457285,1.341433,-4.244424,0.050528,0.040564
1573523272.455890,0.073341,0.030828,0.009751,-0.014440,-0.002487,0.027438,18.293193,54.462712,1.348093,-4.315770,0.029070,0.046306
1573523272.580410,0.072984,0.030813,0.009747,-0.014654,-0.001922,0.028261,17.745534,54.472622,1.347968,-4.333809,0.122291,-0.039466
1573523272.704940,0.073898,0.030478,0.009786,-0.014399,-0.001612,0.028838,17.228913,54.488933,1.342106,-4.332703,0.129607,-0.039400
1573523272.864340,0.074194,0.030169,0.009778,-0.014017,-0.001519,0.029559,16.545333,54.504717,1.343395,-4.346194,0.060984,0.071987
1573523272.958980,0.074651,0.029894,0.009824,-0.013498,-0.001855,0.030152,16.144553,54.506422,1.347911,-4.365878,0.059842,0.028031
1573523273.118380,0.075123,0.029831,0.009871,-0.013044,-0.002005,0.030626,15.460062,54.520201,1.347497,-4.361747,0.128571,-0.028322
1573523273.242910,0.075293,0.029983,0.009892,-0.012836,-0.002560,0.031015,14.919714,54.541269,1.342246,-4.388725,0.123277,-0.034200
1573523273.367430,0.074576,0.030065,0.009890,-0.013043,-0.002655,0.031426,14.352198,54.551683,1.338719,-4.446499,0.075899,-0.003425
1573523273.511880,0.074177,0.029936,0.009937,-0.013046,-0.002577,0.031745,13.697326,54.559046,1.341946,-4.460950,0.060050,0.032914
1573523273.701160,0.074495,0.029745,0.009949,-0.012993,-0.002658,0.031946,12.863716,54.572346,1.345777,-4.452489,0.105695,-0.001097
1573523273.780850,0.074605,0.029526,0.009948,-0.012859,-0.002892,0.032294,12.511383,54.579639,1.345500,-4.466117,0.133411,-0.003659
1573523273.905380,0.074531,0.029394,0.009967,-0.012678,-0.003376,0.032884,11.952221,54.596285,1.343454,-4.472904,0.132980,-0.014551
1573523274.034880,0.074536,0.029267,0.009986,-0.012374,-0.003502,0.033821,11.371812,54.607728,1.344885,-4.485228,0.084545,0.039290
1573523274.159400,0.075723,0.029182,0.010047,-0.011886,-0.003752,0.034587,10.847178,54.618690,1.349935,-4.468184,0.069540,0.039051
1573523274.318780,0.076590,0.029135,0.010046,-0.011533,-0.003958,0.035363,10.156082,54.633407,1.353072,-4.492708,0.117158,-0.012922
1573523274.443300,0.076194,0.029243,0.010047,-0.011546,-0.004018,0.036076,9.582747,54.650023,1.350982,-4.518947,0.135723,-0.009834
1573523274.567830,0.077976,0.029189,0.010143,-0.010974,-0.004113,0.036873,9.071146,54.672254,1.349577,-4.509014,0.124120,0.006234
1573523274.697330,0.078640,0.029076,0.010177,-0.010857,-0.004179,0.037367,8.504632,54.691446,1.348760,-4.513812,0.139826,0.002700
1573523274.851740,0.078465,0.029001,0.010175,-0.010915,-0.004112,0.037663,7.806963,54.716956,1.347746,-4.468349,0.161877,-0.000622
1573523274.981250,0.077972,0.028881,0.010149,-0.010837,-0.003957,0.038265,7.213024,54.738076,1.348365,-4.484621,0.115417,0.027619
1573523275.105780,0.078987,0.028657,0.010215,-0.010444,-0.004192,0.038830,6.685160,54.751061,1.351937,-4.487595,0.058247,0.033276
1573523275.235280,0.078448,0.028497,0.010147,-0.010758,-0.004370,0.039072,6.088700,54.761321,1.355317,-4.487591,0.086487,0.011819
1573523275.359810,0.077470,0.028441,0.010041,-0.011363,-0.004513,0.039096,5.496850,54.774951,1.357798,-4.568262,0.154232,-0.004406
1573523275.519200,0.076522,0.028490,0.009992,-0.011737,-0.004681,0.039142,4.734577,54.801560,1.355701,-4.611811,0.171296,-0.003702
1573523275.643720,0.075986,0.028630,0.009991,-0.011799,-0.004780,0.039163,4.143602,54.814966,1.358221,-4.612321,0.068914,0.031981
1573523275.768250,0.076882,0.028554,0.010035,-0.011775,-0.005138,0.038828,3.599828,54.821270,1.363871,-4.593657,0.049524,0.064848
1573523275.897750,0.077613,0.028483,0.010051,-0.011834,-0.005408,0.038724,3.029966,54.833901,1.369084,-4.581064,0.146393,0.012679
1573523276.116910,0.077731,0.028526,0.010024,-0.011912,-0.005899,0.038994,2.030210,54.867813,1.367596,-4.609335,0.143335,-0.001223
1573523276.181660,0.077670,0.028553,0.010020,-0.011717,-0.006272,0.039180,1.727540,54.875547,1.367035,-4.645418,0.114887,-0.014004
1573523276.306180,0.077441,0.028489,0.010020,-0.012002,-0.006549,0.038631,1.141402,54.882350,1.367795,-4.651356,0.081852,0.023256
1573523276.490470,0.077196,0.028344,0.009997,-0.012346,-0.006882,0.037817,0.279273,54.903682,1.373402,-4.625924,0.165699,0.032496
1573523276.560200,0.076834,0.028151,0.010080,-0.012214,-0.007233,0.037830,-0.055683,54.909169,1.373032,-4.642756,0.122313,0.039583
1573523276.719580,0.077566,0.027991,0.010143,-0.012080,-0.007614,0.037792,-0.770337,54.926489,1.376354,-4.620142,0.113109,0.016384
1573523276.844100,0.078449,0.027732,0.010213,-0.011933,-0.008020,0.037649,-1.315204,54.939905,1.374306,-4.643498,0.100644,-0.018466
1573523276.968610,0.078970,0.027617,0.010213,-0.011966,-0.008354,0.037410,-1.879700,54.954330,1.373116,-4.701820,0.145749,-0.027008
1573523277.098110,0.079006,0.027506,0.010284,-0.012136,-0.008335,0.037325,-2.482498,54.974864,1.369507,-4.654213,0.132452,0.022332
1573523277.317270,0.077457,0.027443,0.010235,-0.012539,-0.008360,0.037346,-3.554104,55.005700,1.377009,-4.688887,0.143700,0.036507
1573523277.441790,0.079609,0.027333,0.010368,-0.011971,-0.008540,0.037333,-4.056193,55.028447,1.376907,-4.630472,0.123894,-0.000907
1573523277.506540,0.080244,0.027128,0.010370,-0.012049,-0.008849,0.036795,-4.329931,55.037175,1.377316,-4.613046,0.151622,-0.033281
1573523277.636030,0.079713,0.027024,0.010306,-0.012205,-0.008931,0.036647,-4.948031,55.052434,1.376434,-4.659313,0.149431,0.011568
1573523277.760540,0.079145,0.026922,0.010351,-0.012342,-0.009067,0.036844,-5.549074,55.073758,1.377428,-4.707314,0.174224,0.030950
1573523277.914940,0.080050,0.026825,0.010387,-0.012104,-0.009204,0.036496,-6.239146,55.106171,1.379773,-4.646338,0.194432,0.001549
1573523278.044440,0.080109,0.026661,0.010446,-0.011842,-0.009542,0.036312,-6.837811,55.132525,1.378118,-4.647549,0.168528,0.003435
1573523278.168950,0.079005,0.026443,0.010490,-0.011897,-0.009739,0.035698,-7.457717,55.150457,1.377541,-4.713050,0.144398,0.006608
1573523278.298450,0.078163,0.026297,0.010562,-0.011885,-0.009896,0.035564,-8.098977,55.170669,1.374315,-4.744217,0.154245,0.001091
1573523278.487720,0.077641,0.026261,0.010584,-0.011818,-0.009919,0.035653,-9.015422,55.206878,1.370331,-4.750492,0.217557,-0.016413
1573523278.582350,0.077073,0.026230,0.010578,-0.011666,-0.009710,0.036121,-9.486301,55.226012,1.368471,-4.787655,0.199132,-0.005533
1573523278.706870,0.077896,0.026132,0.010649,-0.011173,-0.009807,0.035967,-10.051552,55.245438,1.367054,-4.770210,0.139052,-0.012062
1573523278.896140,0.078399,0.026151,0.010674,-0.010991,-0.009798,0.035902,-10.930337,55.273001,1.363244,-4.783836,0.148699,-0.018700
1573523279.020660,0.078483,0.026005,0.010685,-0.011064,-0.009696,0.035791,-11.522651,55.295598,1.360223,-4.768572,0.189449,-0.002011
1573523279.115300,0.077895,0.025873,0.010612,-0.011380,-0.009551,0.035789,-11.993320,55.311796,1.363377,-4.757144,0.194000,0.019453
1573523279.244800,0.077496,0.025749,0.010537,-0.011373,-0.009670,0.035877,-12.625528,55.327188,1.367476,-4.775249,0.163514,-0.005839
1573523279.369310,0.078286,0.025658,0.010540,-0.011124,-0.010245,0.035817,-13.191465,55.344433,1.367066,-4.808379,0.142131,-0.034946
1573523279.498810,0.078134,0.025506,0.010492,-0.011281,-0.010506,0.035390,-13.819673,55.357857,1.365585,-4.800115,0.160247,-0.017078
1573523279.633300,0.078328,0.025445,0.010508,-0.011239,-0.010776,0.035288,-14.458937,55.379434,1.365933,-4.823651,0.177505,0.017362
1573523279.782720,0.078138,0.025388,0.010485,-0.011150,-0.010812,0.035187,-15.187868,55.399902,1.369026,-4.817103,0.154387,0.001406
1573523279.907240,0.077804,0.025312,0.010443,-0.011357,-0.010960,0.035030,-15.799310,55.415640,1.370250,-4.792761,0.137880,-0.002218
1573523280.036740,0.077088,0.025239,0.010416,-0.011732,-0.010944,0.035152,-16.452883,55.432419,1.370767,-4.854779,0.163333,0.011526
1573523280.161260,0.076293,0.025179,0.010369,-0.011939,-0.010857,0.035339,-17.093750,55.452068,1.372236,-4.903828,0.169253,-0.002179
1573523280.315660,0.076520,0.025177,0.010354,-0.011783,-0.010792,0.035424,-17.839941,55.476153,1.370867,-4.894441,0.169773,-0.022644
1573523280.445160,0.077072,0.025111,0.010384,-0.011793,-0.011035,0.035447,-18.451320,55.495916,1.368625,-4.913737,0.147223,-0.016348
1573523280.569680,0.077725,0.025076,0.010397,-0.011989,-0.010900,0.034806,-19.033318,55.513777,1.369483,-4.886178,0.166230,0.011365
1573523280.694200,0.078175,0.025019,0.010368,-0.012211,-0.010836,0.034340,-19.616396,55.535601,1.374786,-4.814600,0.192768,0.030871
1573523280.863550,0.078534,0.024879,0.010411,-0.011793,-0.010884,0.033757,-20.416530,55.565448,1.374288,-4.839385,0.182241,-0.007323
1573523280.983090,0.078926,0.024758,0.010490,-0.011453,-0.010922,0.033378,-20.975161,55.585284,1.371140,-4.819204,0.164419,-0.012574
1573523281.107610,0.079417,0.024592,0.010600,-0.011229,-0.011190,0.032948,-21.551318,55.604141,1.369473,-4.814189,0.180601,0.025148
1573523281.281940,0.078686,0.024361,0.010585,-0.011143,-0.011498,0.032524,-22.425366,55.635673,1.371917,-4.852911,0.217127,0.004112
1573523281.366620,0.077896,0.024189,0.010572,-0.011047,-0.011801,0.032657,-22.869118,55.649490,1.371619,-4.848987,0.185151,0.000989
1573523281.516040,0.079138,0.024188,0.010694,-0.010454,-0.012125,0.032610,-23.539449,55.672293,1.372146,-4.830680,0.148088,0.015251
1573523281.645550,0.079702,0.024124,0.010748,-0.010255,-0.012334,0.032463,-24.140760,55.691506,1.373150,-4.831597,0.168279,0.018148
1573523281.770060,0.079858,0.024117,0.010766,-0.010472,-0.012196,0.032178,-24.731938,55.714785,1.373508,-4.774609,0.221941,0.009366
1573523281.894580,0.080150,0.024163,0.010791,-0.010091,-0.012161,0.032344,-25.310757,55.744537,1.375720,-4.727392,0.210850,0.040198
1573523282.118710,0.080661,0.024174,0.010873,-0.009686,-0.012177,0.032621,-26.352071,55.787185,1.376638,-4.729548,0.165330,-0.002061
1573523282.178480,0.081123,0.024172,0.010886,-0.009632,-0.011923,0.032601,-26.610769,55.798271,1.376509,-4.694157,0.193885,-0.015060
1573523282.307980,0.080691,0.024103,0.010815,-0.009843,-0.011839,0.032209,-27.239692,55.821534,1.378696,-4.736922,0.213373,0.011874
1573523282.432500,0.080581,0.024047,0.010777,-0.009936,-0.011827,0.031936,-27.833384,55.850185,1.381165,-4.728448,0.229513,0.020783
1573523282.562010,0.080128,0.023989,0.010702,-0.010099,-0.011733,0.031683,-28.463401,55.874632,1.383467,-4.687871,0.221287,-0.012822
1573523282.716410,0.080259,0.023879,0.010701,-0.010042,-0.011894,0.031198,-29.179647,55.898266,1.387264,-4.676969,0.144300,0.033847
1573523282.845910,0.080073,0.023763,0.010665,-0.010249,-0.012230,0.030622,-29.797897,55.912922,1.393406,-4.686944,0.146918,0.029695
1573523282.970430,0.079478,0.023676,0.010633,-0.010730,-0.012379,0.030421,-30.407239,55.934788,1.395572,-4.694594,0.208801,0.009512
1573523283.094950,0.079072,0.023699,0.010660,-0.010599,-0.012419,0.030717,-31.010679,55.961879,1.394161,-4.692559,0.211251,0.003698
1573523283.224450,0.079215,0.023680,0.010723,-0.010410,-0.012575,0.030552,-31.614146,55.986200,1.396057,-4.692779,0.169131,0.032319
1573523283.378850,0.078714,0.023570,0.010724,-0.010436,-0.012690,0.030115,-32.365957,56.003861,1.398239,-4.730824,0.120285,-0.011774
1573523283.508350,0.078109,0.023538,0.010708,-0.010758,-0.012684,0.029933,-33.004424,56.023417,1.396166,-4.671321,0.175819,-0.003680
1573523283.632870,0.078284,0.023599,0.010706,-0.010870,-0.012683,0.029998,-33.574207,56.044233,1.397063,-4.557635,0.153123,0.026565
1573523283.757380,0.078522,0.023613,0.010743,-0.010890,-0.012724,0.029950,-34.127431,56.064915,1.397481,-4.481579,0.166006,-0.003003
1573523283.916770,0.078728,0.023616,0.010805,-0.010700,-0.012768,0.029886,-34.818928,56.090789,1.393018,-4.298259,0.144966,-0.024538
1573523284.046260,0.078414,0.023545,0.010802,-0.010803,-0.013099,0.029715,-35.386230,56.110648,1.391111,-4.230591,0.156676,0.017415
1573523284.170780,0.077828,0.023485,0.010783,-0.010934,-0.013213,0.029751,-35.936112,56.127759,1.396051,-4.160161,0.120376,0.046231
1573523284.305260,0.077691,0.023467,0.010819,-0.011177,-0.013317,0.029638,-36.495061,56.143691,1.399250,-4.075256,0.140541,-0.007658
1573523284.424800,0.077747,0.023406,0.010845,-0.011149,-0.013710,0.029450,-36.972664,56.161168,1.395764,-3.967316,0.146916,-0.025860
1573523284.579200,0.077831,0.023374,0.010879,-0.011084,-0.013888,0.029384,-37.573013,56.186510,1.392471,-3.880787,0.173639,-0.001107
1573523284.708700,0.077630,0.023350,0.010903,-0.010744,-0.014003,0.029505,-38.080319,56.206853,1.393613,-3.788584,0.136817,0.035153
1573523284.833230,0.077503,0.023359,0.010997,-0.010566,-0.014026,0.029918,-38.549870,56.219392,1.396723,-3.696522,0.083941,0.036008
1573523284.957750,0.077465,0.023312,0.011013,-0.010721,-0.013985,0.029576,-39.001171,56.229507,1.396637,-3.598073,0.108498,-0.028733
1573523285.132080,0.077361,0.023258,0.010953,-0.010650,-0.013954,0.029348,-39.618204,56.248165,1.395317,-3.464850,0.126937,0.006433
1573523285.241650,0.077341,0.023182,0.010922,-0.010422,-0.014065,0.029069,-39.994630,56.256241,1.399369,-3.400700,0.090989,0.035066
1573523285.371160,0.077224,0.023150,0.010967,-0.010160,-0.014283,0.029417,-40.438308,56.261393,1.399552,-3.344926,0.012509,-0.001500
1573523285.495680,0.077304,0.023147,0.010986,-0.010058,-0.014467,0.029333,-40.852861,56.253794,1.398930,-3.308736,-0.110720,0.006709
1573523285.625190,0.077172,0.023159,0.011003,-0.010022,-0.014446,0.029659,-41.285200,56.231209,1.399888,-3.242037,-0.194797,0.000894
1573523285.779590,0.077464,0.023222,0.011035,-0.009883,-0.014493,0.029786,-41.773168,56.197649,1.397840,-3.232297,-0.279884,-0.009551
1573523285.909100,0.077524,0.023256,0.011046,-0.009899,-0.014468,0.029865,-42.190078,56.152622,1.398706,-3.228474,-0.445287,0.035976
1573523286.048560,0.077391,0.023260,0.011021,-0.010048,-0.014371,0.029944,-42.644434,56.081846,1.406396,-3.199424,-0.561346,0.040093
1573523286.158140,0.076816,0.023231,0.010950,-0.010343,-0.014067,0.030332,-43.017992,56.012074,1.410930,-3.187262,-0.650064,-0.014617
1573523286.287640,0.076492,0.023219,0.010893,-0.010399,-0.013985,0.030699,-43.442047,55.917298,1.410382,-3.154786,-0.789924,-0.022250
1573523286.442040,0.076646,0.023207,0.010939,-0.010160,-0.013894,0.030669,-43.914278,55.780486,1.408777,-3.092853,-0.988951,0.021187
1573523286.571540,0.076929,0.023200,0.010959,-0.009932,-0.013729,0.030428,-44.294113,55.644387,1.410027,-3.050400,-1.080947,-0.003679
1573523286.696060,0.077741,0.023269,0.011016,-0.009621,-0.013755,0.030068,-44.632424,55.507456,1.405956,-2.962434,-1.208285,-0.033731
1573523286.830550,0.078198,0.023329,0.011040,-0.009360,-0.013487,0.029636,-45.001263,55.328240,1.404897,-2.825653,-1.473133,0.011727
1573523286.979970,0.078563,0.023404,0.011084,-0.009087,-0.013136,0.029148,-45.391563,55.089776,1.406834,-2.673130,-1.688062,0.018932
1573523287.109470,0.078879,0.023518,0.011098,-0.008798,-0.012905,0.028657,-45.715053,54.863253,1.408561,-2.528451,-1.806411,0.016651
1573523287.263870,0.079270,0.023664,0.011105,-0.008475,-0.012665,0.028280,-46.080824,54.574871,1.411619,-2.384594,-1.947555,0.025375
1573523287.358510,0.079326,0.023840,0.011053,-0.008330,-0.012196,0.028073,-46.299303,54.383593,1.418373,-2.258946,-2.058229,0.043544
1573523287.488010,0.079229,0.024025,0.011017,-0.008224,-0.011763,0.027965,-46.586128,54.106892,1.423709,-2.133346,-2.160677,-0.003210
1573523287.642420,0.079167,0.024231,0.010986,-0.007974,-0.011308,0.027864,-46.909698,53.760310,1.423033,-1.976293,-2.294447,-0.000853
1573523287.771920,0.079023,0.024402,0.010951,-0.007786,-0.010871,0.027879,-47.158339,53.453822,1.427765,-1.769598,-2.397900,0.046271
1573523287.896440,0.078881,0.024579,0.010928,-0.007569,-0.010425,0.028076,-47.368219,53.143719,1.434566,-1.582060,-2.536988,0.027189
1573523288.020960,0.078786,0.024816,0.010917,-0.007291,-0.009954,0.028293,-47.556757,52.821363,1.437824,-1.444642,-2.591878,0.013392
1573523288.180340,0.078720,0.024938,0.010912,-0.007213,-0.009294,0.028188,-47.771553,52.410533,1.440249,-1.301420,-2.556680,0.014935
1573523288.309840,0.078698,0.024917,0.010909,-0.007192,-0.008477,0.027836,-47.921668,52.074206,1.444694,-1.087577,-2.652389,0.064520
1573523288.434360,0.078736,0.025059,0.010885,-0.007413,-0.007807,0.027692,-48.046308,51.741029,1.451561,-0.930880,-2.709109,0.022641
1573523288.558870,0.078757,0.025107,0.010866,-0.007578,-0.007244,0.027636,-48.149821,51.401339,1.454795,-0.795242,-2.725256,-0.000022
1573523288.688370,0.079310,0.026216,0.010725,-0.007545,-0.006703,0.027996,-48.263898,51.043675,1.458225,-0.708283,-2.719909,-0.016837
1573523288.842780,0.079521,0.026371,0.010678,-0.007582,-0.006253,0.028114,-48.357321,50.621990,1.460164,-0.501078,-2.748674,0.028860
1573523288.972260,0.079876,0.026257,0.010611,-0.007696,-0.005985,0.027874,-48.407148,50.270870,1.466336,-0.354655,-2.741061,0.020473
1573523289.101760,0.080405,0.026546,0.010629,-0.007495,-0.005659,0.027743,-48.452191,49.914360,1.467720,-0.213445,-2.749360,0.018896
1573523289.221300,0.080499,0.025871,0.010597,-0.007556,-0.005359,0.027308,-48.461071,49.591410,1.472056,-0.037114,-2.746451,0.030158
1573523289.380680,0.080672,0.024942,0.010566,-0.007739,-0.005212,0.026749,-48.454371,49.160757,1.478664,0.058981,-2.725808,0.008173
1573523289.505200,0.080375,0.024184,0.010529,-0.008014,-0.004818,0.026587,-48.433821,48.828066,1.481698,0.222121,-2.671967,0.012490
1573523289.634700,0.081002,0.023911,0.010551,-0.008105,-0.004630,0.026684,-48.397287,48.486469,1.480947,0.360136,-2.649393,-0.026283
1573523289.759210,0.081418,0.023280,0.010550,-0.008391,-0.004302,0.026600,-48.340977,48.164613,1.479511,0.503738,-2.641300,0.000981
1573523289.898680,0.081672,0.022824,0.010562,-0.008642,-0.003887,0.026737,-48.251365,47.799510,1.480578,0.706079,-2.645757,-0.001282
1573523290.043120,0.081626,0.021976,0.010583,-0.008687,-0.003301,0.027014,-48.138527,47.430559,1.478302,0.783170,-2.547237,-0.022496
1573523290.172610,0.081781,0.021381,0.010556,-0.008742,-0.002704,0.027193,-48.027747,47.105809,1.474996,0.917998,-2.564987,-0.016303
1573523290.297130,0.081951,0.020577,0.010559,-0.008760,-0.002155,0.027139,-47.898976,46.796821,1.476269,1.069932,-2.496528,0.008677
1573523290.426630,0.082443,0.020900,0.010543,-0.008667,-0.001478,0.027461,-47.755847,46.479247,1.479693,1.184649,-2.429852,0.011865
1573523290.581030,0.083292,0.021494,0.010554,-0.008546,-0.000729,0.027639,-47.572871,46.107625,1.480944,1.288269,-2.409138,-0.004186
1573523290.705560,0.083900,0.021070,0.010626,-0.008261,-0.000433,0.027661,-47.408073,45.817509,1.477997,1.402241,-2.353339,-0.030092
1573523290.835050,0.084466,0.020053,0.010682,-0.008099,-0.000296,0.027616,-47.210844,45.529344,1.475912,1.621128,-2.267373,0.005636
1573523290.959570,0.084789,0.018150,0.010695,-0.008053,-0.000027,0.027507,-46.995211,45.269107,1.477415,1.753929,-2.171820,0.005352
1573523291.089060,0.085604,0.016880,0.010718,-0.007904,0.000129,0.027590,-46.760846,45.009540,1.476255,1.874071,-2.098762,-0.022858
1573523291.243470,0.086457,0.016444,0.010770,-0.007618,0.000279,0.027980,-46.464604,44.698476,1.476294,2.002026,-2.036948,0.010627
1573523291.372970,0.087316,0.015574,0.010804,-0.007357,0.000493,0.027931,-46.202402,44.449468,1.475452,2.118748,-2.052250,-0.021872
1573523291.497480,0.087833,0.014659,0.010785,-0.007098,0.000728,0.027839,-45.932015,44.216853,1.476446,2.212252,-1.948331,-0.004854
1573523291.626980,0.086859,0.014692,0.010737,-0.006975,0.000961,0.027732,-45.632418,43.955507,1.472802,2.289094,-1.993091,-0.042055
1573523291.751500,0.086645,0.014629,0.010712,-0.006882,0.001035,0.027550,-45.339813,43.710070,1.470816,2.328047,-1.973426,-0.010382
1573523291.910880,0.086352,0.014191,0.010705,-0.006881,0.001185,0.027591,-44.951484,43.406868,1.473018,2.533313,-1.839103,0.043776
1573523292.035410,0.086612,0.014011,0.010756,-0.006862,0.001358,0.027841,-44.630406,43.187839,1.477367,2.609627,-1.740408,0.032879
1573523292.159940,0.086576,0.013076,0.010702,-0.006929,0.001432,0.027869,-44.298865,42.978269,1.483209,2.676131,-1.762873,0.018931
1573523292.289450,0.086652,0.012170,0.010703,-0.006948,0.001445,0.027909,-43.948705,42.756987,1.486704,2.701745,-1.765160,0.030578
1573523292.448870,0.087570,0.012120,0.010744,-0.006785,0.001481,0.027785,-43.525696,42.484779,1.488860,2.737857,-1.791403,-0.021453
1573523292.573390,0.087809,0.012000,0.010786,-0.006613,0.001543,0.028023,-43.181828,42.266208,1.484864,2.840943,-1.716535,-0.017066
1573523292.697920,0.086851,0.010850,0.010727,-0.006670,0.001760,0.027852,-42.806317,42.053216,1.486533,2.985824,-1.706009,0.033459
1573523292.827430,0.086818,0.010569,0.010707,-0.006636,0.001910,0.028105,-42.419182,41.835210,1.490938,2.959410,-1.696295,0.012405
1573523292.951960,0.086265,0.009726,0.010635,-0.006620,0.002031,0.028134,-42.039456,41.623980,1.493416,3.043864,-1.704081,0.003868
1573523293.116350,0.086574,0.009437,0.010622,-0.006522,0.002030,0.028036,-41.533636,41.355907,1.496312,3.142179,-1.634883,0.023653
1573523293.235890,0.086604,0.009064,0.010585,-0.006557,0.001993,0.027904,-41.154633,41.162313,1.502237,3.172697,-1.644513,0.039342
1573523293.360420,0.086318,0.008352,0.010519,-0.006594,0.001878,0.027882,-40.755893,40.959256,1.510472,3.149010,-1.652837,0.056915
1573523293.489940,0.087310,0.008582,0.010564,-0.006352,0.001775,0.027826,-40.362266,40.751133,1.512967,3.178775,-1.741938,-0.043561
1573523293.614460,0.087691,0.008476,0.010576,-0.006199,0.001712,0.027724,-39.970400,40.533054,1.507855,3.189800,-1.792275,-0.025052
1573523293.773840,0.087404,0.007931,0.010549,-0.006278,0.001660,0.027775,-39.452881,40.252273,1.507533,3.291820,-1.740102,0.016504
1573523293.898360,0.087505,0.007564,0.010572,-0.006213,0.001443,0.027714,-39.041294,40.037425,1.507669,3.349252,-1.739333,0.020186
1573523294.032840,0.087121,0.007091,0.010519,-0.006308,0.001396,0.027934,-38.579830,39.803426,1.514520,3.402371,-1.753064,0.053882
1573523294.152370,0.086130,0.006488,0.010379,-0.006697,0.001509,0.028129,-38.154527,39.589594,1.524559,3.419510,-1.768939,0.054142
1573523294.311760,0.086497,0.006623,0.010374,-0.006818,0.001524,0.028548,-37.619989,39.311336,1.527678,3.447662,-1.820350,-0.002182
1573523294.436270,0.088516,0.007841,0.010502,-0.006408,0.001414,0.029083,-37.225317,39.092756,1.526603,3.509430,-1.836570,0.008304
1573523294.560790,0.090579,0.009054,0.010660,-0.006123,0.000975,0.029371,-36.828542,38.877127,1.525248,3.499160,-1.805568,0.006444
1573523294.690290,0.091073,0.009250,0.010693,-0.006191,0.000920,0.029572,-36.382031,38.645126,1.526445,3.540179,-1.809192,0.026282
1573523294.849680,0.090973,0.009135,0.010707,-0.006469,0.000907,0.029673,-35.813970,38.349182,1.533434,3.544889,-1.878770,0.060757
1573523294.974200,0.090522,0.008798,0.010708,-0.006629,0.001034,0.030380,-35.359842,38.104579,1.538519,3.566559,-1.893877,0.035068
1573523295.098730,0.090554,0.008580,0.010722,-0.006540,0.000979,0.030863,-34.911906,37.866253,1.538006,3.632879,-1.877069,-0.034372
1573523295.228220,0.089538,0.007722,0.010654,-0.006841,0.000814,0.030934,-34.409914,37.615877,1.534000,3.715153,-1.844563,-0.000357
1573523295.352740,0.089264,0.007210,0.010651,-0.006936,0.000757,0.030923,-33.940711,37.381714,1.534646,3.706932,-1.874928,0.027897
1573523295.537030,0.089171,0.006887,0.010680,-0.006881,0.000520,0.030772,-33.252424,37.027664,1.538811,3.730812,-1.968769,0.034926
1573523295.636640,0.089231,0.006542,0.010714,-0.006703,0.000434,0.030807,-32.882766,36.836707,1.540298,3.730286,-1.925965,0.029157
1573523295.761160,0.090493,0.006804,0.010781,-0.006218,0.000222,0.030546,-32.444591,36.614801,1.540661,3.780581,-1.811499,-0.020624
1573523295.890660,0.090496,0.006718,0.010784,-0.006245,0.000164,0.030695,-31.954804,36.386710,1.538731,3.801489,-1.786710,0.002834
1573523296.050060,0.090599,0.006911,0.010754,-0.006291,0.000106,0.030994,-31.354985,36.089542,1.541692,3.749926,-1.890806,0.014225
1573523296.174580,0.091354,0.007305,0.010744,-0.006660,-0.000118,0.030692,-30.911369,35.856309,1.544279,3.713479,-1.923416,-0.005644
1573523296.299100,0.090374,0.006900,0.010709,-0.006856,-0.000288,0.030918,-30.421763,35.605695,1.543192,3.745421,-1.903566,0.001431
1573523296.428600,0.089221,0.006279,0.010648,-0.007217,-0.000257,0.031157,-29.906346,35.357547,1.542768,3.759037,-1.800691,-0.002399
1573523296.553120,0.089167,0.006331,0.010655,-0.007297,-0.000148,0.031235,-29.433783,35.131281,1.544093,3.757374,-1.784817,0.018886
1573523296.677640,0.089003,0.006095,0.010647,-0.007615,-0.000199,0.031354,-28.965526,34.904253,1.545689,3.698555,-1.865282,0.009706
1573523296.837030,0.089400,0.006089,0.010658,-0.007478,-0.000146,0.031463,-28.391710,34.611732,1.545965,3.666327,-1.852238,-0.011397
1573523296.961550,0.090431,0.006311,0.010717,-0.007151,-0.000376,0.031502,-27.967074,34.395186,1.545266,3.639419,-1.785517,0.012497
1573523297.091050,0.090655,0.006223,0.010775,-0.006831,-0.000434,0.031558,-27.504461,34.174887,1.547614,3.624796,-1.746326,0.022534
1573523297.250440,0.090158,0.005933,0.010772,-0.007159,-0.000322,0.031760,-26.920497,33.893236,1.553758,3.530058,-1.768848,0.066851
1573523297.374960,0.090058,0.005769,0.010720,-0.007098,-0.000314,0.031926,-26.480371,33.672870,1.562480,3.517532,-1.784625,0.046127
1573523297.499480,0.090145,0.005797,0.010692,-0.007139,-0.000120,0.031710,-26.046558,33.452260,1.568840,3.499920,-1.758731,0.019523
1573523297.624000,0.090005,0.005832,0.010661,-0.007381,0.000120,0.031809,-25.606504,33.232246,1.572403,3.503488,-1.730011,0.024048
1573523297.753500,0.089504,0.005690,0.010633,-0.007701,0.000242,0.031748,-25.134995,33.004211,1.577073,3.523718,-1.712870,0.052111
1573523297.878020,0.089436,0.005757,0.010675,-0.007818,0.000455,0.031707,-24.700890,32.786313,1.582418,3.443156,-1.772133,0.078882
1573523298.037410,0.089643,0.005951,0.010708,-0.007923,0.000491,0.031627,-24.162964,32.503779,1.594261,3.399074,-1.766702,0.047553
1573523298.161920,0.089781,0.006119,0.010740,-0.007939,0.000570,0.031587,-23.747966,32.282639,1.597299,3.366837,-1.774218,0.024952
1573523298.291420,0.089179,0.006090,0.010733,-0.008183,0.000530,0.031525,-23.293346,32.041435,1.598870,3.365891,-1.795461,0.018608
1573523298.415940,0.088148,0.005790,0.010715,-0.008580,0.000491,0.031557,-22.839631,31.804379,1.601464,3.371235,-1.772516,0.040861
1573523298.575330,0.087575,0.005540,0.010751,-0.008789,0.000354,0.031486,-22.283337,31.515410,1.609378,3.369747,-1.793091,0.073264
1573523298.699850,0.087062,0.005345,0.010742,-0.009086,0.000304,0.031653,-21.850976,31.281953,1.616954,3.291887,-1.835409,0.049040
1573523298.824360,0.087635,0.005553,0.010858,-0.008836,0.000129,0.031328,-21.466293,31.052604,1.616135,3.222765,-1.893075,0.011912
1573523298.953860,0.087773,0.005533,0.010849,-0.008645,0.000163,0.031127,-21.059176,30.806074,1.617269,3.148435,-1.938068,0.011571
1573523299.078390,0.088231,0.005632,0.010865,-0.008566,0.000140,0.030848,-20.685099,30.572875,1.621380,3.130151,-1.905734,0.039980
1573523299.237770,0.088475,0.005623,0.010882,-0.008515,0.000070,0.030604,-20.201264,30.268619,1.627144,3.052689,-1.942014,0.055274
1573523299.362290,0.088595,0.005641,0.010886,-0.008632,0.000039,0.030545,-19.831451,30.023488,1.633886,2.970863,-2.011670,0.044541
1573523299.491790,0.088320,0.005456,0.010867,-0.008620,0.000146,0.030628,-19.440356,29.756708,1.639963,2.922232,-2.056604,0.040907
1573523299.616310,0.088560,0.005459,0.010892,-0.008413,0.000297,0.030639,-19.088901,29.504488,1.643153,2.870552,-2.089564,0.021553
1573523299.775700,0.088767,0.005431,0.010918,-0.008038,0.000428,0.030721,-18.647428,29.171433,1.645964,2.760561,-2.158967,0.017369
1573523299.900220,0.089465,0.005666,0.010961,-0.007606,0.000500,0.030870,-18.331583,28.914940,1.646787,2.759103,-2.163439,0.005715
1573523300.024750,0.089615,0.005742,0.010966,-0.007444,0.000489,0.031254,-17.995029,28.645305,1.646331,2.709448,-2.219371,0.005572
1573523300.154250,0.089799,0.005924,0.010959,-0.007395,0.000557,0.031835,-17.659217,28.358388,1.648319,2.608009,-2.250698,0.032204
1573523300.278770,0.090084,0.006122,0.010961,-0.007286,0.000441,0.032118,-17.350860,28.078345,1.651506,2.551012,-2.281997,0.024560
1573523300.438150,0.090600,0.006401,0.010978,-0.007077,0.000267,0.032290,-16.971937,27.719141,1.652580,2.483738,-2.342415,0.013242
1573523300.562660,0.091220,0.006637,0.011047,-0.006881,0.000024,0.032332,-16.696034,27.431768,1.650258,2.375896,-2.425054,-0.001891
1573523300.692160,0.091664,0.006835,0.011100,-0.006715,-0.000163,0.032356,-16.411814,27.127944,1.647307,2.319518,-2.388912,-0.008185
1573523300.816690,0.092197,0.007014,0.011174,-0.006838,-0.000326,0.032422,-16.149629,26.842491,1.646676,2.273931,-2.389923,0.030609
1573523300.976070,0.092196,0.006974,0.011200,-0.007114,-0.000674,0.032125,-15.802340,26.448675,1.651877,2.119858,-2.529224,0.035225
1573523301.100590,0.091960,0.006852,0.011223,-0.007377,-0.001086,0.031763,-15.537813,26.118478,1.651650,2.013208,-2.645577,-0.023967
1573523301.225110,0.091603,0.006719,0.011256,-0.007614,-0.001378,0.031690,-15.279137,25.775768,1.646300,1.947357,-2.687995,-0.022753
1573523301.354620,0.091284,0.006601,0.011288,-0.007669,-0.001595,0.031984,-15.016384,25.414768,1.642378,1.888886,-2.754366,-0.016749
1573523301.479140,0.091033,0.006563,0.011322,-0.007818,-0.001826,0.032467,-14.774891,25.062061,1.640734,1.877272,-2.755045,0.019196
1573523301.638520,0.090841,0.006563,0.011332,-0.007981,-0.002006,0.032931,-14.475333,24.611720,1.645199,1.771106,-2.825751,0.039577
1573523301.763040,0.090894,0.006649,0.011318,-0.007967,-0.002401,0.033113,-14.271007,24.257541,1.649409,1.616343,-2.876834,0.040418
1573523301.902510,0.091091,0.006630,0.011362,-0.007930,-0.002633,0.033170,-14.054653,23.860076,1.651850,1.578791,-2.919410,-0.003337
1573523302.046940,0.091229,0.006635,0.011374,-0.008041,-0.003017,0.033009,-13.834559,23.440258,1.649945,1.533709,-2.965323,-0.010278
1573523302.171480,0.091428,0.006613,0.011408,-0.008026,-0.003366,0.033104,-13.654122,23.074714,1.649157,1.462767,-2.998425,0.014409
1573523302.300980,0.091504,0.006546,0.011435,-0.007964,-0.003651,0.033071,-13.469858,22.688286,1.651487,1.416065,-2.973478,0.040422
1573523302.425500,0.091457,0.006425,0.011466,-0.007890,-0.003803,0.033501,-13.289454,22.310027,1.656253,1.396942,-3.040061,0.056636
1573523302.555000,0.091365,0.006329,0.011477,-0.007842,-0.003960,0.033954,-13.108026,21.904812,1.662114,1.330734,-3.092122,0.053464
1573523302.684510,0.091373,0.006228,0.011473,-0.007693,-0.003991,0.034326,-12.932472,21.506036,1.669610,1.323392,-3.034864,0.049643
1573523302.838920,0.091322,0.006107,0.011450,-0.007665,-0.004070,0.034498,-12.723496,21.028151,1.674449,1.271561,-3.101465,0.010523
1573523302.963430,0.091512,0.006008,0.011448,-0.007461,-0.004235,0.034643,-12.574969,20.640502,1.674704,1.119131,-3.187919,-0.007448
1573523303.087950,0.091754,0.005929,0.011447,-0.007281,-0.004479,0.034563,-12.441671,20.248098,1.676201,1.092716,-3.195836,0.030993
1573523303.232400,0.091724,0.005936,0.011428,-0.007251,-0.004666,0.034726,-12.282102,19.787946,1.682514,1.091440,-3.145529,0.057353
1573523303.371860,0.091606,0.005921,0.011436,-0.007368,-0.004721,0.034926,-12.129892,19.339674,1.689397,1.018145,-3.191619,0.042771
1573523303.501360,0.091643,0.005972,0.011448,-0.007376,-0.004883,0.034919,-12.005007,18.926723,1.693597,0.921470,-3.201607,0.024790
1573523303.630860,0.091765,0.005948,0.011512,-0.007285,-0.004892,0.034924,-11.888707,18.516027,1.695963,0.857141,-3.179918,0.028065
1573523303.755370,0.091788,0.005913,0.011572,-0.007200,-0.005097,0.034836,-11.781251,18.115185,1.696539,0.812994,-3.236126,0.007941
1573523303.924720,0.091737,0.005932,0.011560,-0.007568,-0.005125,0.034917,-11.638461,17.557749,1.700540,0.828505,-3.291890,0.015768
1573523304.039280,0.092102,0.005949,0.011605,-0.007555,-0.005358,0.034807,-11.554326,17.195606,1.701189,0.789546,-3.340950,0.023418
1573523304.163790,0.092389,0.005943,0.011658,-0.007626,-0.005454,0.034735,-11.471259,16.790129,1.699938,0.651630,-3.371939,-0.015789
1573523304.353060,0.092581,0.005881,0.011662,-0.007437,-0.005804,0.034772,-11.347508,16.148789,1.698550,0.666970,-3.443462,0.015743
1573523304.417810,0.092605,0.005966,0.011628,-0.007393,-0.005879,0.034881,-11.306255,15.929025,1.702120,0.698787,-3.433940,0.060533
1573523304.572210,0.092493,0.005857,0.011643,-0.007439,-0.006027,0.035112,-11.193079,15.381308,1.709641,0.642200,-3.512949,0.040540
1573523304.701700,0.092603,0.005670,0.011703,-0.007294,-0.006080,0.035315,-11.108447,14.918508,1.708456,0.576687,-3.595103,-0.046620
1573523304.826220,0.092674,0.005513,0.011736,-0.007120,-0.006252,0.035272,-11.032725,14.464624,1.703042,0.592692,-3.633165,-0.010751
1573523304.950740,0.092836,0.005343,0.011754,-0.007068,-0.006310,0.035361,-10.947977,14.007521,1.703021,0.694283,-3.652585,0.018291
1573523305.080240,0.092974,0.005224,0.011714,-0.007099,-0.006593,0.035518,-10.852118,13.526309,1.710689,0.665508,-3.726697,0.040459
1573523305.239620,0.092612,0.005202,0.011782,-0.007063,-0.006500,0.035893,-10.745588,12.899764,1.711510,0.571547,-3.822342,0.013095
1573523305.364140,0.092805,0.005102,0.011832,-0.006705,-0.006539,0.036219,-10.668030,12.418079,1.708894,0.590016,-3.858047,-0.033407
1573523305.488660,0.092971,0.005068,0.011845,-0.006499,-0.006428,0.036628,-10.588019,11.932689,1.703816,0.613201,-3.896552,-0.036290
1573523305.618160,0.093253,0.005154,0.011922,-0.005985,-0.006391,0.036656,-10.504877,11.438717,1.700501,0.712295,-3.898492,0.022915
1573523305.742680,0.093367,0.005201,0.011920,-0.005688,-0.006438,0.036787,-10.409959,10.952052,1.704455,0.748769,-3.915325,0.012470
1573523305.902060,0.093315,0.005218,0.011913,-0.005584,-0.006321,0.037210,-10.285860,10.315736,1.705478,0.741712,-3.910147,-0.001467
1573523306.031560,0.093848,0.005251,0.011938,-0.005153,-0.006277,0.037495,-10.186997,9.830599,1.706399,0.766354,-3.842849,0.006524
1573523306.156080,0.094628,0.005364,0.011953,-0.004472,-0.006318,0.037941,-10.089677,9.391045,1.710218,0.845427,-3.805259,0.014085
1573523306.280590,0.095302,0.005250,0.011943,-0.004117,-0.006396,0.038239,-9.975260,8.938133,1.712495,0.898759,-3.814597,-0.020106
1573523306.439970,0.095910,0.005245,0.011942,-0.003712,-0.006426,0.038415,-9.825393,8.364343,1.712949,0.986547,-3.717082,0.000342
1573523306.564490,0.096403,0.005229,0.011925,-0.003373,-0.006457,0.038463,-9.697029,7.929515,1.719849,1.077883,-3.621698,0.050564
1573523306.693980,0.097085,0.005196,0.011913,-0.002691,-0.006504,0.038595,-9.561707,7.498310,1.727518,1.078055,-3.583224,0.041997
1573523306.818500,0.097338,0.005163,0.011843,-0.002624,-0.006426,0.039042,-9.429882,7.067053,1.731537,1.086909,-3.561711,-0.020833
1573523306.943020,0.097676,0.005153,0.011797,-0.002371,-0.006310,0.039564,-9.286146,6.656368,1.737259,1.295820,-3.376623,0.044132
1573523307.102400,0.097994,0.005194,0.011753,-0.002097,-0.006130,0.039727,-9.065289,6.155728,1.750699,1.519452,-3.247707,0.080790
1573523307.231890,0.098152,0.005067,0.011721,-0.001936,-0.005782,0.040566,-8.869139,5.741684,1.761275,1.491574,-3.245306,0.047099
1573523307.356400,0.098244,0.004998,0.011716,-0.001695,-0.005947,0.041111,-8.692553,5.343979,1.763771,1.394300,-3.242403,-0.020464
1573523307.480910,0.098252,0.004868,0.011721,-0.001414,-0.006078,0.041431,-8.510921,4.942049,1.760277,1.506553,-3.146044,-0.029957
1573523307.640280,0.098146,0.004708,0.011700,-0.001195,-0.006072,0.042103,-8.242432,4.440188,1.763559,1.816288,-2.934757,0.103975
1573523307.764790,0.097915,0.004682,0.011653,-0.001206,-0.005914,0.042358,-7.999805,4.063210,1.778232,2.025603,-2.843905,0.105047
1573523307.894290,0.097682,0.004661,0.011663,-0.001443,-0.005775,0.042508,-7.735554,3.679887,1.782943,1.998668,-2.807017,0.021551
1573523308.018810,0.097434,0.004613,0.011630,-0.001589,-0.005719,0.042757,-7.484130,3.302969,1.781235,1.968976,-2.842360,-0.023147
1573523308.143320,0.097291,0.004588,0.011562,-0.001755,-0.005417,0.042988,-7.227206,2.933300,1.780708,2.096939,-2.782482,0.008551
1573523308.302700,0.097205,0.004589,0.011576,-0.001874,-0.005170,0.043105,-6.880428,2.490997,1.779551,2.220712,-2.631546,0.038811
1573523308.427220,0.097208,0.004571,0.011618,-0.001954,-0.005154,0.042806,-6.601220,2.167094,1.781652,2.230369,-2.583326,0.038075
1573523308.556710,0.097199,0.004614,0.011593,-0.002319,-0.005003,0.042921,-6.310028,1.836285,1.787160,2.305357,-2.475582,0.020726
1573523308.681220,0.097037,0.004508,0.011542,-0.002798,-0.004697,0.043431,-6.000772,1.510812,1.791050,2.436721,-2.386647,0.024010
1573523308.840600,0.096994,0.004471,0.011455,-0.003166,-0.004639,0.043551,-5.596871,1.130190,1.796503,2.562249,-2.243242,0.011529
1573523308.965110,0.096966,0.004517,0.011438,-0.003391,-0.004408,0.043629,-5.272757,0.851153,1.794480,2.608816,-2.162689,-0.053195
1573523309.094600,0.096904,0.004480,0.011388,-0.003637,-0.004384,0.043604,-4.911893,0.565711,1.792871,2.747189,-2.004146,-0.001315
1573523309.219120,0.096888,0.004444,0.011346,-0.003765,-0.004487,0.043473,-4.552810,0.308538,1.798841,2.829991,-1.889208,0.068970
1573523309.343640,0.096908,0.004444,0.011357,-0.003801,-0.004546,0.043384,-4.189403,0.066954,1.806329,2.902470,-1.776819,0.061947
1573523309.503040,0.096901,0.004499,0.011317,-0.003947,-0.004550,0.043337,-3.714472,-0.210853,1.815999,2.967101,-1.657677,0.039540
1573523309.627550,0.096929,0.004547,0.011280,-0.004066,-0.004692,0.043438,-3.340241,-0.407049,1.822314,3.038737,-1.495972,0.024704
1573523309.757050,0.096972,0.004594,0.011286,-0.004105,-0.004528,0.043229,-2.934003,-0.601838,1.821412,3.118809,-1.376381,-0.018705
1573523309.881570,0.097010,0.004706,0.011299,-0.004245,-0.004374,0.043219,-2.533783,-0.770034,1.819180,3.205522,-1.212505,0.007909
1573523310.080800,0.097092,0.004794,0.011259,-0.004614,-0.004009,0.043552,-1.878871,-0.998577,1.828385,3.257993,-0.984404,0.081486
1573523310.165460,0.097180,0.004891,0.011245,-0.005031,-0.004002,0.043389,-1.600760,-1.079132,1.836766,3.269972,-0.850652,0.085555
1573523310.294960,0.097264,0.004975,0.011248,-0.005368,-0.004018,0.043229,-1.175289,-1.183857,1.845524,3.276000,-0.761294,0.034775
1573523310.484230,0.097277,0.005093,0.011198,-0.005734,-0.003941,0.043303,-0.545282,-1.314251,1.851517,3.370287,-0.635435,0.002720
1573523310.544000,0.097395,0.005186,0.011171,-0.006209,-0.003779,0.043024,-0.341792,-1.355752,1.852698,3.343614,-0.611952,-0.008508
1573523310.703380,0.097425,0.005215,0.011203,-0.006392,-0.003555,0.043009,0.206046,-1.457571,1.853966,3.372087,-0.514602,0.042587
1573523310.827900,0.097520,0.005231,0.011281,-0.006575,-0.003529,0.042855,0.635318,-1.522603,1.856942,3.409779,-0.448939,0.047313
1573523310.957390,0.097508,0.005195,0.011320,-0.006747,-0.003725,0.042973,1.089326,-1.588749,1.860719,3.443356,-0.446677,0.045627
1573523311.081910,0.097403,0.005205,0.011342,-0.006774,-0.003840,0.043006,1.529243,-1.647354,1.865511,3.437012,-0.435753,0.026414
1573523311.206430,0.097215,0.005087,0.011346,-0.006622,-0.003807,0.043043,1.961887,-1.701072,1.866333,3.452562,-0.448071,-0.002658
1573523311.365830,0.097125,0.004979,0.011365,-0.006496,-0.003906,0.042943,2.511762,-1.770074,1.864712,3.462260,-0.434495,0.040522
1573523311.495310,0.097147,0.004919,0.011404,-0.006383,-0.004102,0.042869,2.958189,-1.826660,1.870935,3.471095,-0.459407,0.059255
1573523311.619840,0.097100,0.005012,0.011497,-0.006099,-0.004135,0.043192,3.396638,-1.884659,1.871286,3.507476,-0.461599,0.004630
1573523311.749340,0.096975,0.005158,0.011542,-0.005985,-0.004303,0.043356,3.865331,-1.943790,1.866219,3.578429,-0.427116,-0.019495
1573523311.903740,0.096962,0.005328,0.011597,-0.006058,-0.004414,0.043584,4.420786,-2.009505,1.864513,3.560624,-0.414290,0.034567
1573523312.028260,0.096882,0.005356,0.011634,-0.005954,-0.004387,0.043734,4.863811,-2.061625,1.867139,3.589877,-0.443061,0.034367
1573523312.157770,0.096648,0.005412,0.011672,-0.005890,-0.004237,0.044188,5.339482,-2.118773,1.867941,3.692831,-0.444021,0.010264
1573523312.282290,0.096583,0.005537,0.011676,-0.005962,-0.004290,0.044684,5.802165,-2.173659,1.870059,3.707243,-0.435946,0.029982
1573523312.406810,0.096125,0.005480,0.011664,-0.006012,-0.004544,0.045132,6.275405,-2.219995,1.874688,3.700498,-0.412360,0.023962
1573523312.566190,0.095910,0.005539,0.011698,-0.005918,-0.004437,0.045370,6.877092,-2.284099,1.873040,3.843327,-0.398757,0.008257
1573523312.690710,0.095843,0.005522,0.011770,-0.005978,-0.004835,0.045762,7.366474,-2.334804,1.872517,3.894518,-0.406065,0.031312
1573523312.820200,0.095778,0.005519,0.011764,-0.006128,-0.005197,0.046446,7.873773,-2.389970,1.875223,3.890670,-0.452261,-0.003922
1573523312.944720,0.096002,0.005637,0.011798,-0.006132,-0.005567,0.046556,8.357207,-2.445766,1.872698,3.949745,-0.418332,-0.013352
1573523313.104090,0.095988,0.005793,0.011785,-0.006330,-0.005784,0.046713,8.997948,-2.516794,1.874422,4.052154,-0.481503,0.016562
1573523313.228610,0.096056,0.005904,0.011810,-0.006305,-0.005872,0.046939,9.497122,-2.581591,1.874083,4.008269,-0.520048,-0.005841
1573523313.358100,0.096049,0.005839,0.011846,-0.006364,-0.005778,0.047226,10.018250,-2.644153,1.872377,4.073011,-0.474500,0.024635
1573523313.482620,0.096196,0.005692,0.011858,-0.006421,-0.005881,0.047300,10.521324,-2.704284,1.876703,4.102478,-0.533767,0.027412
1573523313.607130,0.096144,0.005631,0.011826,-0.006644,-0.005763,0.047836,11.039341,-2.774012,1.878648,4.138604,-0.593215,-0.030566
1573523313.766510,0.096270,0.005481,0.011822,-0.006676,-0.005667,0.048097,11.700909,-2.867412,1.873025,4.205071,-0.549630,-0.017025
1573523313.891030,0.096262,0.005367,0.011815,-0.006600,-0.005554,0.048200,12.227646,-2.929319,1.876374,4.245388,-0.487868,0.057829
1573523314.020530,0.096230,0.005335,0.011801,-0.006771,-0.005673,0.048464,12.781055,-2.990434,1.885049,4.300421,-0.487008,0.046533
1573523314.145040,0.096181,0.005313,0.011788,-0.006811,-0.005764,0.048335,13.321699,-3.055823,1.886803,4.375102,-0.585691,-0.013023
1573523314.304420,0.096210,0.005338,0.011733,-0.007110,-0.006025,0.048155,14.019053,-3.152790,1.885195,4.376946,-0.568517,-0.009679
1573523314.428940,0.096140,0.005390,0.011733,-0.007589,-0.006136,0.047983,14.571897,-3.217275,1.889361,4.435803,-0.484371,0.060792
1573523314.558440,0.096108,0.005316,0.011755,-0.007808,-0.006221,0.047609,15.152374,-3.278310,1.900206,4.508353,-0.499520,0.072377
1573523314.682950,0.095932,0.005241,0.011731,-0.007891,-0.006200,0.047571,15.725002,-3.344493,1.903527,4.501343,-0.592590,-0.036378
1573523314.807460,0.095766,0.005191,0.011703,-0.008018,-0.006289,0.047481,16.299749,-3.416632,1.899835,4.535568,-0.575677,-0.028516
1573523314.966840,0.095825,0.005126,0.011697,-0.008079,-0.006340,0.047431,17.023295,-3.501656,1.904405,4.573873,-0.504263,0.057389
1573523315.091350,0.096121,0.004913,0.011697,-0.008233,-0.006515,0.047034,17.568148,-3.561599,1.915071,4.558419,-0.527422,0.063680
1573523315.220840,0.096242,0.004753,0.011742,-0.008305,-0.006499,0.046838,18.145776,-3.627869,1.918867,4.534908,-0.545152,-0.003275
1573523315.410100,0.095987,0.004820,0.011777,-0.008688,-0.006618,0.046992,19.028913,-3.731482,1.914018,4.564771,-0.514090,0.008194
1573523315.564510,0.095938,0.004802,0.011838,-0.009030,-0.006708,0.047065,19.741089,-3.818483,1.912967,4.592968,-0.549639,0.005757
1573523315.629260,0.095790,0.004741,0.011876,-0.009061,-0.006923,0.047213,20.051403,-3.853114,1.911471,4.589598,-0.526112,0.024315
1573523315.758760,0.095767,0.004598,0.011927,-0.008908,-0.007096,0.047208,20.642537,-3.916642,1.914056,4.526605,-0.544863,0.026131
1573523315.903200,0.095771,0.004468,0.011973,-0.008940,-0.006954,0.047281,21.292338,-3.993474,1.914130,4.484632,-0.539550,0.008594
1573523316.007800,0.095822,0.004289,0.011992,-0.008813,-0.006882,0.047142,21.755973,-4.039510,1.916423,4.525821,-0.455537,0.034815
1573523316.167190,0.095940,0.004116,0.011982,-0.008557,-0.006848,0.047280,22.461323,-4.107876,1.918617,4.464919,-0.494275,-0.011721
1573523316.291710,0.096455,0.003958,0.011948,-0.008552,-0.006425,0.047323,22.972206,-4.168272,1.922472,4.448976,-0.499686,0.015141
1573523316.426190,0.096629,0.003791,0.011953,-0.008500,-0.006181,0.047424,23.550072,-4.237151,1.924159,4.403435,-0.585451,0.003081
1573523316.545720,0.096720,0.003705,0.011919,-0.008343,-0.006125,0.048063,24.062383,-4.300093,1.929182,4.348364,-0.542525,0.037571
1573523316.705100,0.096862,0.003627,0.011859,-0.008399,-0.005745,0.048222,24.738471,-4.376823,1.938501,4.321584,-0.489787,0.025010
1573523316.829620,0.096929,0.003543,0.011880,-0.008174,-0.005839,0.048209,25.268084,-4.438735,1.941319,4.279593,-0.530811,0.025700
1573523316.954140,0.096876,0.003492,0.011884,-0.008080,-0.005976,0.048696,25.802612,-4.497837,1.945597,4.263941,-0.516761,0.036036
1573523317.083630,0.096948,0.003395,0.011907,-0.008028,-0.005832,0.049200,26.344966,-4.557844,1.949996,4.248654,-0.523767,0.019776
1573523317.208140,0.096959,0.003355,0.011924,-0.007872,-0.005555,0.049719,26.869144,-4.617267,1.953863,4.231264,-0.506560,0.036628
1573523317.367520,0.096861,0.003324,0.011906,-0.007671,-0.005415,0.050105,27.547487,-4.685301,1.960389,4.202276,-0.485803,0.029963
1573523317.492040,0.096799,0.003302,0.011886,-0.007430,-0.005222,0.050568,28.076001,-4.744060,1.962604,4.223948,-0.528060,0.001599
1573523317.621530,0.096822,0.003224,0.011850,-0.007128,-0.005223,0.050673,28.614087,-4.795855,1.967928,4.160028,-0.446065,0.051244
1573523317.746050,0.096933,0.003179,0.011849,-0.007009,-0.005268,0.050931,29.117701,-4.843616,1.977213,4.123522,-0.424485,0.067198
1573523317.905430,0.097228,0.003075,0.011901,-0.006956,-0.005092,0.050993,29.740077,-4.905641,1.986380,4.078359,-0.437324,0.048396
1573523318.029950,0.097298,0.003049,0.011938,-0.007166,-0.005052,0.051303,30.239274,-4.957585,1.990122,4.055491,-0.449835,0.021098
1573523318.154470,0.097224,0.003087,0.011895,-0.007424,-0.004961,0.051473,30.747197,-5.011790,1.994022,3.998171,-0.430433,0.028582
1573523318.283970,0.097061,0.003154,0.011856,-0.007643,-0.005123,0.051814,31.285922,-5.066561,2.000805,4.053516,-0.389163,0.063079
1573523318.408470,0.096984,0.003224,0.011833,-0.007934,-0.005081,0.052083,31.796859,-5.120970,2.009992,4.026625,-0.439850,0.057300
1573523318.567860,0.097096,0.003241,0.011809,-0.007947,-0.005048,0.052325,32.420777,-5.197692,2.019497,3.928374,-0.521442,0.028400
1573523318.692380,0.097230,0.003205,0.011803,-0.007903,-0.005085,0.052471,32.891860,-5.259676,2.024645,3.891651,-0.501207,0.044087
1573523318.821880,0.097357,0.003190,0.011825,-0.007826,-0.005078,0.052621,33.382725,-5.319036,2.032024,3.891628,-0.439554,0.074303
1573523318.946390,0.097686,0.003104,0.011884,-0.007653,-0.004956,0.052643,33.827921,-5.370538,2.036058,3.834222,-0.420129,0.038355
1573523319.070910,0.097926,0.003014,0.011954,-0.007556,-0.004915,0.052725,34.277422,-5.418088,2.038312,3.816041,-0.391472,0.034329
1573523319.230300,0.097893,0.002992,0.011981,-0.007524,-0.004881,0.052824,34.885536,-5.477653,2.042303,3.780531,-0.376882,0.044742
1573523319.354810,0.097646,0.003050,0.011969,-0.007662,-0.004925,0.052975,35.382006,-5.527565,2.050127,3.764806,-0.428952,0.058990
1573523319.484310,0.097505,0.003092,0.011974,-0.007498,-0.004947,0.053248,35.885134,-5.583276,2.054320,3.764108,-0.448320,0.011524
1573523319.608830,0.097440,0.003093,0.011984,-0.007262,-0.004947,0.053455,36.359567,-5.638028,2.052499,3.757045,-0.443712,-0.016258
1573523319.768210,0.097516,0.003062,0.011981,-0.007020,-0.004979,0.053403,36.950455,-5.697349,2.048083,3.771059,-0.270624,-0.011000
1573523319.892720,0.097781,0.002976,0.011953,-0.006837,-0.005227,0.053507,37.387394,-5.727279,2.048800,3.742856,-0.226054,0.023798
1573523320.022220,0.097839,0.002944,0.011945,-0.006760,-0.005542,0.053437,37.862926,-5.755580,2.054274,3.699252,-0.253030,0.048934
1573523320.146730,0.097841,0.002918,0.011949,-0.006763,-0.005744,0.053329,38.324747,-5.778924,2.059457,3.693407,-0.192754,0.014937
1573523320.271250,0.097854,0.002919,0.011981,-0.006669,-0.005740,0.053239,38.785529,-5.798626,2.056343,3.711562,-0.067616,-0.016423
1573523320.365880,0.097601,0.002985,0.011999,-0.006637,-0.005530,0.053363,39.164323,-5.798381,2.054098,3.707707,0.044786,-0.013236
1573523320.495380,0.097422,0.003028,0.011980,-0.006714,-0.005447,0.053451,39.664773,-5.777288,2.052361,3.737178,0.273402,-0.023903
1573523320.684650,0.097310,0.003034,0.011971,-0.006623,-0.005506,0.053142,40.391805,-5.700895,2.049098,3.782477,0.494162,-0.006534
1573523320.873910,0.097289,0.003037,0.011924,-0.006625,-0.005490,0.052784,41.103129,-5.591720,2.052799,3.687936,0.697770,0.023338
1573523320.968550,0.097233,0.003055,0.011935,-0.006358,-0.005219,0.052774,41.458431,-5.517190,2.052833,3.653602,0.805326,0.013933
1573523321.093060,0.097390,0.003011,0.011961,-0.006265,-0.004904,0.052741,41.887225,-5.398994,2.055847,3.596705,1.001710,0.023547
1573523321.217580,0.097506,0.002999,0.011977,-0.006151,-0.004517,0.052677,42.318776,-5.262854,2.053528,3.531242,1.185854,-0.039532
1573523321.347080,0.097569,0.002985,0.011917,-0.006088,-0.004398,0.052445,42.765001,-5.092857,2.048004,3.424122,1.422325,-0.051669
1573523321.471600,0.097631,0.003017,0.011837,-0.006058,-0.004261,0.052198,43.184904,-4.900564,2.048915,3.324569,1.672116,0.019210
1573523321.630980,0.097636,0.003052,0.011816,-0.006122,-0.003992,0.051937,43.700764,-4.613535,2.059330,3.145622,1.908344,0.077455
1573523321.755490,0.097639,0.003032,0.011823,-0.006087,-0.003746,0.051682,44.077228,-4.366954,2.064880,3.045063,2.005582,0.019168
1573523321.884990,0.097418,0.003230,0.011768,-0.006059,-0.003766,0.051138,44.516956,-4.093582,2.067631,2.982556,2.141166,-0.004281
1573523322.009510,0.097397,0.003312,0.011718,-0.006069,-0.003512,0.050614,44.888170,-3.813922,2.069779,2.819851,2.326570,-0.007594
1573523322.168900,0.097349,0.003361,0.011677,-0.006180,-0.003213,0.050181,45.331835,-3.422730,2.071173,2.599416,2.547715,0.022370
1573523322.268510,0.097300,0.003475,0.011631,-0.006240,-0.003100,0.049717,45.601500,-3.160988,2.077979,2.499652,2.665764,0.061091
1573523322.417940,0.097195,0.003656,0.011562,-0.006203,-0.002869,0.049634,45.985720,-2.747505,2.092098,2.345949,2.771519,0.071530
1573523322.547430,0.097137,0.003800,0.011510,-0.006201,-0.002654,0.049242,46.290258,-2.381985,2.100234,2.221617,2.799554,0.028848
1573523322.671950,0.097124,0.003942,0.011460,-0.006152,-0.002180,0.048646,46.562189,-2.023954,2.106215,2.059569,2.918369,0.035525
1573523322.831320,0.097072,0.004076,0.011440,-0.006253,-0.001843,0.048285,46.877317,-1.543559,2.113745,1.861459,3.045788,0.046347
1573523322.955840,0.097073,0.004340,0.011391,-0.006271,-0.001686,0.048106,47.116762,-1.158745,2.121437,1.765885,3.057062,0.044833
1573523323.085330,0.096980,0.004585,0.011382,-0.006243,-0.001413,0.048010,47.349266,-0.753886,2.126440,1.607787,3.107420,0.046728
1573523323.209850,0.096961,0.004956,0.011374,-0.006157,-0.001345,0.048026,47.549283,-0.353059,2.133746,1.401453,3.205580,0.063140
1573523323.369220,0.096870,0.005147,0.011403,-0.006118,-0.001050,0.048029,47.761151,0.168222,2.140493,1.248026,3.255434,0.054966
1573523323.493730,0.096799,0.005317,0.011405,-0.006079,-0.000637,0.048211,47.913680,0.576886,2.147485,1.152870,3.236837,0.052320
1573523323.618250,0.096670,0.005513,0.011426,-0.006009,-0.000231,0.048530,48.059112,0.988519,2.152517,1.039501,3.246257,0.055793
1573523323.747750,0.096610,0.005581,0.011399,-0.006094,0.000120,0.048597,48.193731,1.413976,2.160010,0.996903,3.258769,0.050587
1573523323.872270,0.096943,0.005705,0.011429,-0.006308,0.000270,0.048385,48.313555,1.806887,2.165633,0.932476,3.240935,0.054739
1573523324.031650,0.097003,0.005626,0.011456,-0.006237,0.000637,0.048208,48.448076,2.322893,2.172173,0.735886,3.219359,0.037767
1573523324.156160,0.097101,0.005722,0.011464,-0.006238,0.000837,0.047948,48.538893,2.722169,2.175809,0.700268,3.188992,0.035930
1573523324.285660,0.097144,0.005831,0.011511,-0.006051,0.000883,0.047698,48.636435,3.138922,2.177174,0.694669,3.189911,0.038543
1573523324.410190,0.097301,0.005848,0.011523,-0.005916,0.000962,0.047394,48.721915,3.534706,2.181873,0.635530,3.170444,0.035174
1573523324.569580,0.097429,0.005941,0.011519,-0.005826,0.000989,0.047159,48.812878,4.038452,2.188801,0.501564,3.161600,0.033854
1573523324.694100,0.097463,0.006098,0.011524,-0.005787,0.000961,0.047085,48.874657,4.436316,2.191839,0.422514,3.169515,0.032923
1573523324.818610,0.097421,0.006171,0.011530,-0.005637,0.000914,0.047136,48.920853,4.833688,2.196257,0.296241,3.160612,0.040927
1573523324.948110,0.097432,0.006373,0.011553,-0.005583,0.000806,0.047469,48.956952,5.244470,2.199254,0.250943,3.165740,0.021572
1573523325.072630,0.097542,0.006700,0.011576,-0.005431,0.000881,0.047918,48.994215,5.638421,2.199354,0.268617,3.135673,0.018705
1573523325.232010,0.097380,0.006781,0.011601,-0.005197,0.001140,0.048299,49.032022,6.141072,2.203041,0.185057,3.108400,0.035885
1573523325.356530,0.097454,0.007042,0.011599,-0.005056,0.001041,0.048611,49.052645,6.525926,2.208281,0.125071,3.085028,0.043300
1573523325.481050,0.097178,0.007261,0.011607,-0.004733,0.001208,0.048975,49.073281,6.921140,2.209860,0.165443,3.069035,0.003464
1573523325.610550,0.096872,0.007459,0.011605,-0.004506,0.001311,0.049758,49.093997,7.332780,2.209944,0.097163,3.068556,0.023152
1573523325.735070,0.096638,0.007683,0.011600,-0.004403,0.001360,0.050234,49.098528,7.722508,2.216086,-0.033842,3.022460,0.084478
1573523325.894450,0.096507,0.007947,0.011608,-0.004630,0.000985,0.050701,49.096588,8.206565,2.227301,0.047468,3.040941,0.047669
1573523326.018970,0.095985,0.008054,0.011591,-0.004711,0.001040,0.051608,49.110400,8.608342,2.231091,0.188915,3.089921,0.015312
1573523326.208230,0.095747,0.008376,0.011554,-0.004825,0.001269,0.052333,49.146986,9.204148,2.236611,0.153299,3.103484,0.045793
1573523326.337730,0.096381,0.008644,0.011586,-0.004973,0.001032,0.052012,49.167803,9.580106,2.243400,0.139775,3.109105,0.039578
1573523326.492130,0.096253,0.008841,0.011567,-0.004993,0.001191,0.052212,49.189460,10.074702,2.251208,0.148031,3.166836,0.041346
1573523326.556880,0.096107,0.008938,0.011574,-0.005051,0.001526,0.052606,49.198641,10.288812,2.253396,0.139019,3.195889,0.057195
1573523326.681400,0.096386,0.009089,0.011612,-0.005245,0.001618,0.052868,49.219135,10.680920,2.261031,0.119223,3.262292,0.066358
1573523326.815880,0.096725,0.009258,0.011634,-0.005337,0.001770,0.052899,49.237971,11.110969,2.268025,0.107404,3.306857,0.049615
1573523326.935420,0.096934,0.009368,0.011649,-0.005416,0.001844,0.052931,49.260135,11.502007,2.270163,0.189807,3.361932,0.007615
1573523327.094800,0.097370,0.009561,0.011727,-0.005463,0.001786,0.053005,49.298188,12.032811,2.270790,0.204528,3.458842,0.035043
1573523327.219330,0.098178,0.009745,0.011832,-0.005512,0.001529,0.052806,49.334932,12.434583,2.270545,0.213521,3.510135,0.030912
1573523327.348810,0.098285,0.009697,0.011896,-0.005445,0.001527,0.053079,49.363901,12.895352,2.273431,0.173040,3.611337,0.051518
1573523327.503210,0.098458,0.009545,0.011941,-0.005279,0.001415,0.053154,49.395931,13.455151,2.278156,0.225084,3.698182,0.024081
1573523327.692480,0.098954,0.009417,0.012004,-0.004990,0.001153,0.053032,49.442653,14.143514,2.281817,0.214641,3.799322,0.040286
1573523327.757230,0.099281,0.009311,0.012021,-0.004759,0.001215,0.053209,49.457490,14.376374,2.284262,0.174040,3.827643,0.058943
1573523327.881750,0.099162,0.009223,0.012005,-0.004605,0.001283,0.053405,49.481840,14.871969,2.290894,0.223034,3.945527,0.026134
1573523328.011250,0.099378,0.009130,0.012017,-0.004526,0.001362,0.053929,49.514784,15.380335,2.295109,0.231692,4.010911,0.043864
1573523328.135760,0.099483,0.009046,0.012024,-0.004502,0.001424,0.054259,49.544053,15.881186,2.300095,0.228054,4.084264,0.047099
1573523328.295140,0.099583,0.008998,0.012023,-0.004421,0.001612,0.054313,49.585616,16.530671,2.306376,0.279557,4.138648,0.036598
1573523328.419660,0.099783,0.008940,0.012030,-0.004396,0.001570,0.054662,49.622773,17.045371,2.311315,0.221669,4.201024,0.066851
1573523328.608930,0.099695,0.008898,0.011993,-0.004579,0.001686,0.055252,49.665238,17.856178,2.323173,0.227065,4.252684,0.056513
1573523328.693600,0.099664,0.008850,0.011990,-0.004741,0.001699,0.055582,49.686982,18.221245,2.328193,0.276170,4.272924,0.043507
1573523328.833060,0.099545,0.008842,0.011948,-0.004826,0.001780,0.055767,49.730088,18.831560,2.333567,0.300992,4.349848,0.030092
1573523328.957580,0.099786,0.008824,0.011950,-0.004901,0.001669,0.055644,49.766864,19.363264,2.338141,0.277341,4.381161,0.029334
1573523329.082100,0.099981,0.008846,0.011940,-0.004939,0.001534,0.055584,49.801311,19.896460,2.345278,0.259927,4.379080,0.058676
1573523329.246470,0.100226,0.008731,0.011930,-0.004956,0.001287,0.055631,49.842475,20.600958,2.355920,0.265389,4.419361,0.067650
1573523329.336120,0.100456,0.008643,0.011935,-0.004923,0.001122,0.055582,49.866015,20.978737,2.363128,0.305141,4.406790,0.055484
1573523329.495500,0.099476,0.008780,0.011893,-0.005075,0.001176,0.056317,49.914352,21.756427,2.365775,0.284792,4.491987,0.031291
1573523329.620020,0.099828,0.008725,0.011926,-0.005305,0.001056,0.056326,49.949034,22.290454,2.371969,0.296468,4.515698,0.038203
1573523329.744540,0.100145,0.008644,0.011962,-0.005273,0.001009,0.056319,49.991289,22.830065,2.374318,0.330233,4.499206,0.029456
1573523329.874040,0.100288,0.008631,0.011976,-0.005351,0.001186,0.056711,50.031254,23.401902,2.379714,0.262079,4.516917,0.071680
1573523330.033420,0.100390,0.008637,0.011990,-0.005543,0.001303,0.056940,50.076970,24.114909,2.389629,0.318400,4.499099,0.050809
1573523330.157940,0.100465,0.008601,0.012038,-0.005608,0.001385,0.056812,50.120398,24.669517,2.394964,0.369095,4.517503,0.044508
1573523330.282460,0.100367,0.008620,0.012047,-0.005700,0.001510,0.056944,50.165731,25.239990,2.397186,0.352384,4.509751,0.013351
1573523330.411950,0.100205,0.008681,0.012014,-0.005874,0.001696,0.057114,50.208846,25.837307,2.402662,0.316967,4.495066,0.040137
1573523330.536470,0.100188,0.008708,0.012081,-0.006263,0.001750,0.057167,50.250581,26.396738,2.405660,0.337711,4.462934,0.044276
1573523330.695850,0.100358,0.008812,0.012000,-0.006670,0.001650,0.056947,50.321640,27.097939,2.418703,0.411397,4.436903,0.057416
1573523330.755620,0.100305,0.008845,0.012010,-0.006821,0.001889,0.056783,50.347810,27.367752,2.421471,0.368303,4.431983,0.048820
1573523330.944890,0.100169,0.008881,0.012009,-0.006705,0.001980,0.057109,50.408047,28.213543,2.430730,0.323905,4.388058,0.058901
1573523331.074400,0.099961,0.008856,0.011997,-0.007171,0.002125,0.057107,50.455918,28.794178,2.436443,0.423790,4.375878,0.032706
1573523331.228800,0.099927,0.008843,0.012004,-0.007778,0.002416,0.056986,50.522904,29.464184,2.444660,0.418281,4.327005,0.068790
1573523331.348330,0.099877,0.008834,0.011991,-0.008124,0.002722,0.056871,50.570952,29.981737,2.451062,0.382281,4.300356,0.037760
1573523331.482810,0.099759,0.008807,0.011967,-0.008415,0.002703,0.056733,50.616830,30.565343,2.459964,0.353005,4.270505,0.069400
1573523331.612310,0.099730,0.008699,0.011963,-0.008472,0.002777,0.056626,50.657906,31.114183,2.470779,0.419548,4.260280,0.051106
1573523331.736830,0.099658,0.008666,0.011923,-0.008610,0.002874,0.056566,50.711241,31.647089,2.477123,0.419727,4.223541,0.052685
1573523331.896210,0.099553,0.008673,0.011926,-0.008968,0.002798,0.056646,50.771421,32.325811,2.491171,0.355080,4.175634,0.079196
1573523332.020720,0.099420,0.008688,0.011927,-0.009527,0.002740,0.056785,50.821133,32.854961,2.499054,0.411527,4.173483,0.044705
1573523332.145230,0.099282,0.008672,0.011949,-0.009777,0.002628,0.056608,50.871918,33.387393,2.504932,0.394528,4.174443,0.067013
1573523332.274720,0.099198,0.008709,0.011959,-0.010148,0.002908,0.056879,50.920025,33.929598,2.512904,0.367878,4.100551,0.052233
1573523332.429130,0.099189,0.008651,0.011964,-0.010123,0.002913,0.056927,50.965265,34.559318,2.524706,0.313664,4.102062,0.070452
1573523332.558620,0.099244,0.008624,0.011993,-0.010299,0.002922,0.057043,51.004844,35.081550,2.532967,0.317811,4.070855,0.054099
1573523332.683140,0.099549,0.008519,0.012025,-0.010170,0.002819,0.056949,51.039725,35.547112,2.540030,0.279996,3.959027,0.044454
1573523332.812630,0.099421,0.008525,0.012028,-0.010140,0.002828,0.057027,51.069674,36.071740,2.548007,0.197462,3.944284,0.073807
1573523332.937150,0.099296,0.008509,0.012057,-0.010021,0.002932,0.056999,51.083619,36.574059,2.557557,0.125639,3.938373,0.081841
1573523333.096530,0.098706,0.008561,0.012043,-0.009847,0.002942,0.057245,51.090525,37.262720,2.567469,0.054127,3.914683,0.051594
1573523333.221050,0.098696,0.008518,0.012078,-0.009593,0.002857,0.057209,51.087145,37.749676,2.572333,-0.023780,3.869499,0.057608
1573523333.345570,0.098881,0.008438,0.012117,-0.009149,0.002759,0.056921,51.075535,38.211092,2.579558,-0.084471,3.829759,0.073027
1573523333.475070,0.099228,0.008342,0.012157,-0.008806,0.002683,0.056601,51.049776,38.666646,2.589599,-0.223876,3.742148,0.089971
1573523333.599600,0.099600,0.008267,0.012187,-0.008572,0.002518,0.056327,51.009297,39.091514,2.601219,-0.353428,3.676935,0.075853
1573523333.758970,0.099755,0.008273,0.012230,-0.008554,0.002627,0.056499,50.949134,39.658081,2.605279,-0.412895,3.634546,0.004008
1573523333.883490,0.099914,0.008279,0.012271,-0.008470,0.002814,0.056656,50.894068,40.090462,2.603335,-0.498323,3.568827,0.010041
1573523334.008010,0.100007,0.008296,0.012309,-0.008431,0.003027,0.056731,50.823392,40.521143,2.604289,-0.637864,3.489348,0.036312
1573523334.137510,0.100042,0.008330,0.012328,-0.008303,0.003294,0.057017,50.727105,40.964624,2.611277,-0.850293,3.395856,0.082650
1573523334.291910,0.100144,0.008342,0.012327,-0.008282,0.003478,0.057106,50.576654,41.470679,2.621449,-1.090102,3.295624,0.029015
1573523334.356660,0.100240,0.008347,0.012320,-0.008088,0.003644,0.057286,50.505986,41.671218,2.621495,-1.108919,3.253122,-0.018795
1573523334.540940,0.100260,0.008386,0.012310,-0.007864,0.003716,0.057413,50.292650,42.263194,2.616158,-1.235132,3.158921,-0.020002
1573523334.675420,0.100211,0.008439,0.012248,-0.007669,0.003755,0.057663,50.113219,42.690346,2.620420,-1.455518,3.054558,0.036450
1573523334.799940,0.100044,0.008487,0.012168,-0.007648,0.003934,0.057372,49.915268,43.087473,2.629465,-1.665328,2.944687,0.036555
1573523334.959320,0.099834,0.008586,0.012055,-0.007608,0.004007,0.057256,49.638755,43.583755,2.638059,-1.792116,2.844413,-0.002898
1573523335.058940,0.099720,0.008648,0.012016,-0.007549,0.004390,0.057007,49.450785,43.880090,2.640645,-1.932743,2.748072,0.020292
1573523335.208360,0.099639,0.008720,0.011993,-0.007690,0.004685,0.056935,49.148116,44.292139,2.643737,-2.128559,2.590612,0.029737
1573523335.337860,0.099503,0.008815,0.011940,-0.007895,0.004782,0.056925,48.863078,44.639766,2.651162,-2.255298,2.438006,0.037532
1573523335.492260,0.099327,0.008930,0.011879,-0.008118,0.004909,0.056800,48.507539,45.035342,2.657672,-2.309374,2.339522,0.009545
1573523335.616780,0.099135,0.009050,0.011835,-0.008252,0.005013,0.056603,48.212448,45.352325,2.661441,-2.372290,2.248804,0.021390
1573523335.686500,0.098963,0.009180,0.011793,-0.008295,0.005156,0.056394,48.040775,45.536189,2.665008,-2.436758,2.190592,0.034287
1573523335.875760,0.098868,0.009197,0.011778,-0.008420,0.005466,0.056250,47.560797,45.920381,2.676599,-2.628472,1.887774,0.077666
1573523336.000290,0.098667,0.009427,0.011735,-0.008474,0.005461,0.056058,47.221407,46.203991,2.687813,-2.681407,1.798975,0.052785
1573523336.159670,0.098521,0.009552,0.011738,-0.008554,0.005688,0.055796,46.785492,46.502394,2.694700,-2.723078,1.654402,0.035734
1573523336.284190,0.098416,0.009665,0.011706,-0.008622,0.006001,0.055499,46.439233,46.720317,2.701455,-2.764656,1.538511,0.037419
1573523336.408700,0.098289,0.009796,0.011705,-0.008464,0.006160,0.055120,46.083530,46.927785,2.706724,-2.843597,1.416447,0.060233
1573523336.538200,0.098117,0.009952,0.011739,-0.008091,0.005901,0.055033,45.698827,47.123704,2.709547,-2.912517,1.275980,0.019146
1573523336.737430,0.098018,0.010036,0.011771,-0.007571,0.006177,0.054655,45.105431,47.357865,2.711592,-2.949965,1.073653,0.040067
1573523336.822100,0.097917,0.010139,0.011786,-0.007370,0.006307,0.054481,44.849630,47.456591,2.714218,-2.948522,0.991351,0.057841
1573523336.946620,0.097816,0.010169,0.011765,-0.007279,0.006512,0.054252,44.481170,47.575877,2.719487,-2.922881,0.922203,0.020474
1573523337.071130,0.097808,0.010231,0.011761,-0.007220,0.006656,0.053963,44.117679,47.687665,2.722095,-2.888781,0.853269,0.023437
1573523337.200630,0.097670,0.010320,0.011762,-0.007187,0.006801,0.053823,43.736713,47.793954,2.725080,-2.925007,0.735897,0.041194
1573523337.360000,0.097465,0.010348,0.011755,-0.007150,0.007032,0.053685,43.262341,47.896810,2.730210,-2.941367,0.603182,0.021806
1573523337.484520,0.097352,0.010492,0.011763,-0.007168,0.007215,0.053429,42.892870,47.974689,2.730180,-2.929073,0.673401,-0.010245
1573523337.609040,0.097333,0.010635,0.011775,-0.007245,0.007140,0.053110,42.528256,48.061053,2.730375,-2.901752,0.672835,0.033669
1573523337.738540,0.097397,0.010711,0.011804,-0.007183,0.007033,0.052614,42.150066,48.144250,2.734456,-2.957192,0.612300,0.023908
1573523337.892940,0.097557,0.010804,0.011838,-0.007278,0.006774,0.052511,41.696342,48.240631,2.736171,-2.936348,0.603565,0.017199
1573523338.022450,0.097729,0.010866,0.011875,-0.007326,0.006632,0.052448,41.320390,48.326713,2.736885,-2.927005,0.623745,0.030714
1573523338.146950,0.097794,0.010963,0.011881,-0.007372,0.006739,0.052284,40.955354,48.397068,2.740433,-2.953991,0.511963,-0.012044
1573523338.271460,0.097869,0.011061,0.011882,-0.007447,0.006767,0.052252,40.586674,48.464575,2.736799,-2.970916,0.543682,-0.028264
1573523338.480660,0.098201,0.011290,0.011882,-0.007622,0.006562,0.052166,39.979888,48.596625,2.736341,-2.963440,0.620783,0.044893
1573523338.560350,0.098575,0.011482,0.011913,-0.007813,0.006318,0.052190,39.756341,48.648548,2.740178,-2.971617,0.577759,0.040482
1573523338.684860,0.098910,0.011685,0.011937,-0.008064,0.006126,0.052319,39.396988,48.723782,2.742875,-2.948321,0.557912,0.023412
