1573525413.180667,-0.013407,-0.001917,0.013498,0.000141,-0.038621,-0.060483,1.082520,0.124596,0.021677,0.940266,0.143052,0.022273
1573525413.320097,-0.038194,-0.006069,0.012849,-0.000408,-0.038816,-0.060383,1.221363,0.146014,0.030503,1.005250,0.160407,0.027325
1573525413.399757,-0.039505,-0.008284,0.012905,0.000328,-0.040048,-0.059191,1.304884,0.157056,0.031582,1.045796,0.164748,0.026087
1573525413.409727,-0.039998,-0.010983,0.012870,0.001229,-0.039939,-0.060392,1.322769,0.159336,0.031807,1.055391,0.167652,0.026948
1573525413.464507,-0.037817,-0.007096,0.012703,0.002002,-0.039873,-0.061305,1.388631,0.168303,0.034024,1.086472,0.172955,0.028085
1573525413.524257,-0.036200,0.007460,0.012676,0.001925,-0.041121,-0.061217,1.455593,0.178980,0.037053,1.118054,0.181416,0.032984
1573525413.588997,-0.045251,0.024644,0.012605,0.001624,-0.041113,-0.061547,1.531686,0.192232,0.040488,1.149284,0.191961,0.036835
1573525413.653717,-0.064260,0.053770,0.012421,0.001422,-0.041881,-0.061257,1.611532,0.207249,0.045062,1.187134,0.203563,0.037707
1573525413.718467,-0.062813,0.092608,0.012656,-0.000605,-0.041006,-0.063003,1.702100,0.223104,0.047459,1.232555,0.214169,0.036355
1573525413.842957,-0.062327,0.125499,0.012880,-0.001622,-0.040323,-0.062004,1.874545,0.249846,0.051157,1.313968,0.215946,0.034624
1573525414.002307,-0.063363,0.129458,0.012941,-0.001665,-0.040129,-0.061589,2.098754,0.285440,0.056407,1.420985,0.232630,0.040681
1573525414.126787,-0.079448,0.118572,0.012545,-0.001781,-0.039557,-0.061325,2.265986,0.314742,0.065077,1.492816,0.240625,0.049105
1573525414.251297,-0.086671,0.126330,0.012469,-0.001106,-0.039069,-0.059658,2.473864,0.346101,0.071298,1.589447,0.243763,0.046231
1573525414.380767,-0.123328,0.154355,0.011719,-0.000568,-0.038357,-0.056997,2.688893,0.378648,0.085402,1.671847,0.244050,0.060278
1573525414.535147,-0.065269,0.199420,0.012980,-0.000528,-0.037747,-0.056990,3.006078,0.413459,0.080264,1.796664,0.239778,0.054891
1573525414.664617,-0.074753,0.217939,0.012936,-0.000484,-0.036733,-0.058015,3.270680,0.442908,0.088200,1.915234,0.257126,0.053974
1573525414.789107,-0.029966,0.230697,0.013667,-0.001246,-0.035887,-0.057886,3.527009,0.471541,0.084715,2.004911,0.257622,0.046050
1573525414.918567,-0.040090,0.235287,0.013650,-0.001200,-0.036890,-0.058588,3.796777,0.503060,0.092319,2.054663,0.242244,0.046094
1573525415.043077,0.010178,0.238197,0.014576,-0.001781,-0.036693,-0.058177,4.056690,0.525894,0.084247,2.084656,0.206237,0.032356
1573525415.202427,-0.002812,0.240319,0.014616,-0.002449,-0.037696,-0.058334,4.395564,0.556959,0.092859,2.169652,0.200523,0.046361
1573525415.326907,-0.004069,0.227337,0.014539,-0.003502,-0.038781,-0.058309,4.667677,0.582551,0.099892,2.211074,0.196130,0.055260
1573525415.451407,-0.009841,0.211158,0.014680,-0.004599,-0.040922,-0.057875,4.941297,0.606078,0.107099,2.229163,0.169767,0.045846
1573525415.580867,-0.002094,0.200405,0.014790,-0.005767,-0.040603,-0.058516,5.217793,0.625881,0.111849,2.282124,0.144384,0.046600
1573525415.735247,0.036501,0.185272,0.015150,-0.005715,-0.041444,-0.057224,5.510580,0.641174,0.110932,2.325760,0.108667,0.047010
1573525415.804967,0.067256,0.155649,0.015446,-0.006531,-0.043048,-0.055946,5.605698,0.641544,0.107355,2.296145,0.090979,0.042364
1573525415.989227,0.066726,0.154733,0.015573,-0.006362,-0.043534,-0.057409,6.021479,0.654026,0.115614,2.397321,0.048531,0.038164
1573525416.118697,0.078590,0.141511,0.015192,-0.006554,-0.042668,-0.056303,6.319515,0.654985,0.120645,2.504069,0.021287,0.038232
1573525416.243207,0.082829,0.127025,0.015041,-0.007722,-0.041490,-0.059534,6.628598,0.653400,0.124387,2.597002,-0.007464,0.036216
1573525416.402567,0.066282,0.138093,0.015052,-0.009503,-0.039558,-0.058263,7.066077,0.652181,0.134867,2.753192,-0.051616,0.038992
1573525416.527047,0.049723,0.159289,0.015063,-0.009440,-0.038633,-0.057730,7.452256,0.642820,0.144758,2.901663,-0.080336,0.055444
1573525416.646577,0.054161,0.158444,0.015094,-0.009593,-0.038069,-0.058742,7.829187,0.627953,0.151072,3.009209,-0.099173,0.065767
1573525416.781027,0.068089,0.118501,0.014902,-0.008645,-0.038992,-0.058618,8.209306,0.610810,0.153826,3.096515,-0.144831,0.044834
1573525416.935407,0.086675,0.079450,0.014739,-0.007762,-0.039964,-0.056999,8.652408,0.582802,0.154098,3.095063,-0.194111,0.037337
1573525417.000137,0.096987,0.047360,0.014717,-0.005954,-0.039287,-0.056367,8.831455,0.567200,0.150988,3.059947,-0.205399,0.030632
1573525417.189357,0.102288,0.016409,0.014025,-0.006414,-0.040395,-0.055170,9.354353,0.527284,0.159784,2.952883,-0.207630,0.048392
1573525417.318837,0.110270,0.001974,0.013817,-0.006654,-0.041290,-0.055811,9.711498,0.501698,0.164173,2.924982,-0.232158,0.039538
1573525417.443347,0.125696,-0.015868,0.013922,-0.006496,-0.040143,-0.053399,10.035400,0.471155,0.163405,2.921728,-0.264045,0.029122
1573525417.602707,0.184863,-0.012915,0.014747,-0.005871,-0.038716,-0.050899,10.486095,0.433492,0.146766,3.015665,-0.264110,0.015068
1573525417.722217,0.215834,0.021158,0.015746,-0.006211,-0.037916,-0.049991,10.832968,0.404751,0.137575,3.034457,-0.253288,0.007291
1573525417.831767,0.244114,0.044851,0.016405,-0.005962,-0.038370,-0.049568,11.152157,0.379993,0.128919,3.071365,-0.264265,-0.003446
1573525417.981157,0.264243,0.056511,0.017245,-0.005941,-0.037775,-0.047039,11.603553,0.341020,0.118130,3.167161,-0.277824,-0.008487
1573525418.105637,0.281250,0.037700,0.017414,-0.005088,-0.037049,-0.045255,11.995000,0.308414,0.107832,3.273319,-0.285994,-0.015499
1573525418.264987,0.274417,0.027731,0.017284,-0.004269,-0.037400,-0.042592,12.522825,0.259524,0.106000,3.421409,-0.303776,-0.019760
1573525418.329737,0.276884,0.052478,0.017781,-0.003353,-0.038217,-0.044082,12.746656,0.241844,0.103421,3.494632,-0.299193,-0.018498
1573525418.518967,0.262193,0.068388,0.017899,-0.003209,-0.039338,-0.044158,13.430869,0.178395,0.105134,3.699478,-0.323830,-0.012859
1573525418.643467,0.266797,0.095138,0.018267,-0.003196,-0.039253,-0.042242,13.895622,0.135651,0.103849,3.834883,-0.340536,-0.010867
1573525418.802817,0.214286,0.115054,0.017382,-0.004209,-0.040919,-0.041087,14.525847,0.060436,0.131213,4.027188,-0.402039,0.011942
1573525418.877517,0.183259,0.148945,0.017651,-0.004907,-0.041944,-0.041877,14.840708,0.021308,0.145562,4.128549,-0.410688,0.020266
1573525419.051817,0.179763,0.149410,0.017790,-0.005256,-0.041471,-0.040421,15.580238,-0.053638,0.149384,4.320212,-0.427692,0.027976
1573525419.181287,0.184726,0.147431,0.017850,-0.005714,-0.041749,-0.038711,16.144899,-0.109138,0.150992,4.451964,-0.452536,0.017031
1573525419.305767,0.202199,0.163805,0.018354,-0.006338,-0.041727,-0.038271,16.694415,-0.159590,0.147235,4.535444,-0.451556,0.016712
1573525419.465137,0.192625,0.150071,0.018272,-0.006529,-0.041326,-0.037355,17.440551,-0.237230,0.151651,4.647159,-0.469730,0.029813
1573525419.524897,0.194493,0.149312,0.018385,-0.006389,-0.040361,-0.038627,17.723491,-0.265412,0.151189,4.685812,-0.482987,0.024852
1573525419.719107,0.188480,0.147018,0.018464,-0.005698,-0.039808,-0.038403,18.654545,-0.361692,0.159402,4.825339,-0.491611,0.038667
1573525419.843607,0.177511,0.154570,0.018583,-0.006083,-0.037324,-0.039055,19.265039,-0.427305,0.169005,4.904256,-0.495715,0.034438
1573525420.002967,0.186270,0.141717,0.018575,-0.005502,-0.037521,-0.036650,20.075582,-0.507739,0.165935,5.021854,-0.508568,0.035517
1573525420.112517,0.188721,0.150957,0.018678,-0.005062,-0.037271,-0.037301,20.617790,-0.563360,0.171084,5.065608,-0.521042,0.035621
1573525420.217087,0.191246,0.165886,0.018735,-0.004179,-0.036774,-0.037052,21.132911,-0.615515,0.179214,5.103699,-0.528945,0.043798
1573525420.381427,0.192427,0.157111,0.018670,-0.004451,-0.036892,-0.036224,21.969821,-0.703378,0.185135,5.135860,-0.529444,0.040083
1573525420.505917,0.194681,0.157189,0.018856,-0.004466,-0.036523,-0.035518,22.606974,-0.769134,0.187555,5.171812,-0.533132,0.034026
1573525420.615477,0.194037,0.169288,0.018915,-0.004916,-0.036546,-0.035280,23.164076,-0.826974,0.195374,5.184439,-0.535027,0.037755
1573525420.789767,0.193303,0.172779,0.018949,-0.004931,-0.035679,-0.034766,24.066680,-0.921729,0.204885,5.219471,-0.546714,0.051834
1573525420.919227,0.199933,0.170893,0.018906,-0.004892,-0.036394,-0.032813,24.743737,-0.988208,0.207284,5.253700,-0.547289,0.047157
1573525421.043737,0.205410,0.162099,0.018698,-0.005430,-0.036552,-0.032221,25.422133,-1.056374,0.208554,5.294976,-0.554245,0.039263
1573525421.203097,0.209248,0.151132,0.018446,-0.005418,-0.037151,-0.031418,26.298960,-1.146387,0.212399,5.358249,-0.553418,0.053285
1573525421.262857,0.211376,0.143771,0.018367,-0.005443,-0.037679,-0.030399,26.646082,-1.181956,0.211594,5.390298,-0.549334,0.054467
1573525421.392337,0.209667,0.146005,0.018392,-0.005313,-0.037861,-0.028872,27.350204,-1.252734,0.218394,5.415414,-0.541596,0.038424
1573525421.581567,0.213422,0.145535,0.018364,-0.005321,-0.038297,-0.028471,28.387958,-1.356286,0.222713,5.462990,-0.550134,0.033544
1573525421.706067,0.216070,0.135978,0.018380,-0.005530,-0.037394,-0.027344,29.066825,-1.423410,0.223773,5.481959,-0.532427,0.036557
1573525421.865427,0.211747,0.126670,0.018193,-0.005859,-0.037208,-0.026021,29.935654,-1.511165,0.229807,5.508734,-0.521218,0.024502
1573525421.979957,0.211375,0.113015,0.018000,-0.005685,-0.036926,-0.025612,30.583376,-1.573657,0.229087,5.542412,-0.510082,0.026339
1573525422.119397,0.210288,0.098909,0.017728,-0.006337,-0.036993,-0.025727,31.389814,-1.652995,0.230251,5.583245,-0.513003,0.040633
1573525422.243897,0.210420,0.085520,0.017437,-0.006356,-0.037836,-0.024483,32.142431,-1.728082,0.229782,5.647668,-0.510648,0.031447
1573525422.403247,0.213137,0.078025,0.017317,-0.005557,-0.038154,-0.023832,33.076421,-1.808304,0.228059,5.708952,-0.493525,0.010569
1573525422.527747,0.209491,0.093513,0.017657,-0.005527,-0.036514,-0.023347,33.692833,-1.854065,0.239434,5.655788,-0.455130,0.038779
1573525422.652247,0.211717,0.094505,0.017923,-0.004489,-0.036084,-0.021731,34.372709,-1.898605,0.241587,5.663383,-0.407059,0.051685
1573525422.781717,0.213709,0.095942,0.018068,-0.002835,-0.035638,-0.020281,35.106773,-1.943828,0.243533,5.680848,-0.375512,0.019352
1573525422.906217,0.214990,0.097139,0.018166,-0.002164,-0.035390,-0.019338,35.811881,-1.984496,0.243863,5.708507,-0.343071,0.010343
1573525423.065567,0.214493,0.094396,0.018064,-0.003186,-0.036246,-0.018288,36.744916,-2.038450,0.246060,5.750729,-0.260677,0.024956
1573525423.130307,0.216842,0.092915,0.018000,-0.003380,-0.036090,-0.017676,37.136948,-2.054724,0.246578,5.767205,-0.219187,0.039310
1573525423.319527,0.220348,0.078853,0.017812,-0.004593,-0.037096,-0.016218,38.287967,-2.096263,0.242714,5.870093,-0.120620,-0.005316
1573525423.444037,0.223384,0.070740,0.017652,-0.006004,-0.037365,-0.016517,39.055675,-2.114881,0.237240,5.910587,-0.036979,-0.006400
1573525423.603387,0.234870,0.048794,0.017278,-0.008089,-0.038118,-0.016131,40.127697,-2.141167,0.222826,6.046889,0.042716,0.002301
1573525423.663127,0.242985,0.033566,0.017081,-0.008497,-0.038978,-0.016437,40.576181,-2.155601,0.210977,6.123534,0.068169,-0.028519
1573525423.792617,0.247097,0.023741,0.016984,-0.009226,-0.039543,-0.015919,41.409009,-2.147803,0.199177,6.163149,0.195558,-0.047079
1573525423.996787,0.247468,0.020230,0.016917,-0.010891,-0.039383,-0.015656,42.698091,-2.099623,0.187829,6.241503,0.350168,-0.053527
1573525424.106337,0.250506,0.014536,0.017008,-0.011609,-0.037426,-0.015277,43.373404,-2.067579,0.176635,6.242551,0.432869,-0.076775
1573525424.265697,0.251257,0.015959,0.017124,-0.014191,-0.033249,-0.015828,44.323322,-1.990810,0.169341,6.168267,0.609043,-0.029595
1573525424.325457,0.247956,0.020216,0.017199,-0.015816,-0.032508,-0.014841,44.657363,-1.951564,0.173050,6.135413,0.675385,-0.017625
1573525424.519657,0.245346,0.026180,0.017278,-0.017240,-0.031175,-0.014642,45.783768,-1.795830,0.174064,6.089438,0.878090,-0.044404
1573525424.644177,0.247335,0.022018,0.017298,-0.018739,-0.030917,-0.014580,46.553408,-1.678947,0.166432,6.119876,1.067619,-0.031040
1573525424.803517,0.241037,0.023533,0.017280,-0.018902,-0.028971,-0.013567,47.495040,-1.486810,0.167496,6.076409,1.306173,-0.032937
1573525424.863287,0.233250,0.036697,0.017433,-0.018365,-0.028378,-0.012018,47.788634,-1.401193,0.174701,5.995479,1.390687,-0.016700
1573525425.012687,0.227689,0.045001,0.017504,-0.017560,-0.027899,-0.010899,48.640617,-1.173719,0.177398,5.910967,1.601980,-0.019846
1573525425.182007,0.226722,0.051540,0.017563,-0.016188,-0.028184,-0.009916,49.619700,-0.877323,0.173975,5.843193,1.868496,-0.041615
1573525425.306507,0.222429,0.056628,0.017531,-0.014618,-0.029189,-0.007940,50.379890,-0.631844,0.169811,5.836424,2.042235,-0.045493
1573525425.465867,0.216810,0.064234,0.017761,-0.013261,-0.029884,-0.006340,51.297819,-0.283422,0.163080,5.755047,2.291220,-0.034644
1573525425.525627,0.215235,0.066833,0.017849,-0.012157,-0.030711,-0.005340,51.662833,-0.140296,0.158620,5.733153,2.373775,-0.033477
1573525425.655107,0.213967,0.076785,0.017931,-0.011481,-0.030802,-0.005643,52.383443,0.182196,0.156760,5.634266,2.524615,-0.027097
1573525425.844347,0.199797,0.079844,0.017920,-0.010490,-0.031309,-0.005118,53.416823,0.696424,0.157528,5.521133,2.841947,-0.041696
1573525426.003707,0.199209,0.080259,0.017901,-0.010269,-0.030468,-0.004637,54.307572,1.173177,0.150698,5.398332,3.084117,-0.022282
1573525426.063467,0.192745,0.080217,0.017880,-0.009444,-0.030746,-0.004277,54.638061,1.365844,0.151389,5.365973,3.151202,-0.019967
1573525426.192957,0.202678,0.084882,0.018195,-0.009279,-0.032970,-0.004082,55.351550,1.780256,0.139779,5.249341,3.285330,-0.032809
1573525426.382177,0.206990,0.086385,0.018483,-0.009188,-0.034278,-0.003992,56.356727,2.424636,0.124808,5.060331,3.576229,-0.031926
1573525426.506677,0.202994,0.089913,0.018431,-0.009241,-0.034892,-0.002967,56.983934,2.883959,0.122992,4.949356,3.751105,-0.059926
1573525426.666047,0.215468,0.076597,0.018216,-0.010838,-0.033869,-0.003532,57.740554,3.477868,0.114975,4.787783,3.881440,-0.051444
1573525426.725807,0.219094,0.077192,0.018313,-0.011146,-0.034029,-0.003427,58.034827,3.709030,0.110102,4.736596,3.955559,-0.029251
1573525426.875207,0.216647,0.074807,0.018212,-0.011186,-0.033740,-0.003504,58.720941,4.317402,0.111352,4.561685,4.181724,-0.014627
1573525427.044527,0.212338,0.064145,0.017828,-0.010842,-0.032715,-0.003318,59.467908,5.051457,0.115820,4.427017,4.466903,-0.026879
1573525427.169017,0.204702,0.069422,0.017948,-0.010070,-0.033434,-0.002824,60.021718,5.629491,0.110542,4.367607,4.708958,-0.032008
1573525427.328387,0.206950,0.055646,0.017521,-0.010106,-0.032772,-0.001851,60.684363,6.392559,0.115022,4.208425,4.983230,-0.012875
1573525427.442907,0.217836,0.041658,0.017158,-0.010995,-0.032354,-0.001377,61.121818,6.948898,0.121205,4.072314,5.127829,-0.010650
1573525427.582347,0.207654,0.032608,0.016637,-0.010174,-0.031828,-0.000751,61.711345,7.709302,0.127906,3.993879,5.396957,-0.014143
1573525427.706837,0.203749,0.034957,0.016584,-0.009675,-0.033047,-0.000075,62.217140,8.401388,0.124843,3.996194,5.576227,-0.050929
1573525427.866187,0.211248,0.030131,0.016802,-0.010253,-0.031846,-0.000831,62.853860,9.290276,0.109720,4.021123,5.721242,-0.080082
1573525427.925937,0.211593,0.018330,0.016466,-0.010469,-0.031453,-0.000242,63.084688,9.629983,0.112137,3.982165,5.791723,-0.063229
1573525428.055407,0.210176,0.001614,0.015879,-0.010441,-0.030973,0.000609,63.589454,10.387920,0.115985,3.926553,5.913944,-0.056324
1573525428.244617,0.208415,-0.020125,0.014994,-0.009703,-0.030798,0.001077,64.317703,11.524694,0.122238,3.933608,6.111197,-0.071022
1573525428.369117,0.195660,-0.022967,0.014678,-0.008782,-0.031145,0.002536,64.834621,12.334033,0.119371,3.949962,6.289513,-0.054057
1573525428.528477,0.199429,-0.036596,0.014485,-0.008700,-0.030827,0.003321,65.444030,13.325758,0.120345,3.955306,6.394938,-0.044185
1573525428.593207,0.203776,-0.043700,0.014455,-0.008744,-0.030545,0.003073,65.674471,13.716982,0.120564,3.956378,6.409127,-0.049161
1573525428.782437,0.197478,-0.041658,0.014535,-0.008325,-0.030372,0.002919,66.443406,14.962606,0.107988,4.051207,6.572675,-0.049946
1573525428.906927,0.199831,-0.038875,0.014706,-0.008667,-0.030745,0.003311,66.945757,15.773558,0.100843,4.086432,6.653405,-0.041026
1573525429.031417,0.207538,-0.041732,0.014843,-0.008923,-0.029684,0.003691,67.438285,16.574828,0.094049,4.126247,6.707796,-0.055791
1573525429.131017,0.200410,-0.036737,0.014835,-0.008535,-0.030251,0.003710,67.870078,17.277036,0.086669,4.185166,6.818789,-0.050179
1573525429.255517,0.192924,-0.035447,0.014751,-0.008264,-0.030060,0.004565,68.409145,18.165631,0.079183,4.254212,6.959926,-0.075386
1573525429.444727,0.176078,-0.032395,0.014410,-0.007167,-0.030890,0.005451,69.258247,19.573008,0.066157,4.364072,7.137756,-0.075414
1573525429.569237,0.166170,-0.029943,0.014258,-0.005876,-0.031455,0.005393,69.824268,20.513658,0.057779,4.405080,7.242889,-0.066205
1573525429.728587,0.168117,-0.039054,0.014146,-0.004969,-0.031091,0.005693,70.509277,21.660758,0.052757,4.453688,7.358454,-0.069557
1573525429.793317,0.166619,-0.037161,0.014197,-0.005094,-0.030971,0.006102,70.804861,22.148276,0.046524,4.493907,7.422605,-0.069941
1573525429.982537,0.158770,-0.032230,0.014130,-0.004958,-0.031192,0.006625,71.689060,23.611038,0.033909,4.558855,7.568385,-0.036054
1573525430.107027,0.150531,-0.030008,0.014061,-0.004401,-0.031317,0.006528,72.281230,24.607134,0.026868,4.626522,7.696626,-0.053388
1573525430.231517,0.147179,-0.029614,0.013864,-0.004177,-0.032000,0.006874,72.868549,25.593591,0.022959,4.690160,7.823643,-0.051676
1573525430.326137,0.148899,-0.031845,0.013761,-0.004780,-0.032414,0.007624,73.307355,26.324716,0.021377,4.745232,7.870750,-0.050352
1573525430.455607,0.144893,-0.029307,0.013705,-0.004908,-0.032936,0.007828,73.936589,27.375572,0.014079,4.775140,7.973114,-0.060541
1573525430.644837,0.139548,-0.027261,0.013685,-0.004782,-0.033112,0.008154,74.863929,28.931755,0.000116,4.855168,8.109177,-0.062761
1573525430.769337,0.122784,-0.012630,0.013965,-0.004730,-0.032448,0.008271,75.553031,30.080090,-0.022405,4.965975,8.290729,-0.053326
1573525430.928697,0.113780,-0.005316,0.013996,-0.004585,-0.032921,0.008649,76.392289,31.485712,-0.036242,5.068425,8.455210,-0.064510
1573525430.993417,0.114892,-0.006499,0.014070,-0.004349,-0.032573,0.008936,76.716649,32.027282,-0.040813,5.079700,8.503694,-0.057343
1573525431.182667,0.115371,-0.006765,0.014063,-0.003776,-0.032637,0.009229,77.684210,33.647470,-0.051286,5.146169,8.606551,-0.055985
1573525431.307157,0.126774,-0.018685,0.013945,-0.003275,-0.032311,0.009283,78.258526,34.622195,-0.047846,5.109609,8.588822,-0.033942
1573525431.431637,0.132455,-0.023716,0.013814,-0.003565,-0.032046,0.009276,78.865895,35.641684,-0.044824,5.130510,8.599772,-0.013868
1573525431.590997,0.133018,-0.023944,0.013800,-0.003972,-0.031713,0.009372,79.688252,37.013328,-0.045986,5.196175,8.691979,-0.011461
1573525431.655717,0.136240,-0.028141,0.013738,-0.002943,-0.032558,0.009670,80.001699,37.554253,-0.043726,5.192336,8.715210,-0.006633
1573525431.844967,0.134368,-0.026256,0.013808,-0.003399,-0.032284,0.009171,81.001933,39.226851,-0.048979,5.267208,8.808583,-0.025455
1573525431.969457,0.131160,-0.022715,0.013762,-0.004159,-0.032745,0.009277,81.684510,40.356083,-0.053123,5.328529,8.887763,-0.023431
1573525432.098937,0.129160,-0.021223,0.013883,-0.003624,-0.032308,0.009217,82.383311,41.536281,-0.059368,5.356612,8.964996,-0.013870
1573525432.193547,0.124617,-0.016058,0.013980,-0.003487,-0.033072,0.009046,82.925851,42.435924,-0.065842,5.409421,9.061210,-0.015440
1573525432.318027,0.119991,-0.011692,0.014051,-0.002838,-0.033273,0.009344,83.631042,43.623500,-0.073410,5.481219,9.191931,-0.028549
1573525432.507257,0.124277,-0.016127,0.013992,-0.002765,-0.033118,0.009415,84.640881,45.324399,-0.074206,5.495702,9.245286,-0.024885
1573525432.631767,0.123163,-0.014537,0.013992,-0.003527,-0.032910,0.009155,85.339277,46.485110,-0.077660,5.532745,9.300134,-0.021892
1573525432.726397,0.124049,-0.015671,0.014012,-0.003066,-0.032781,0.009351,85.854352,47.360852,-0.080025,5.555404,9.349826,-0.023327
1573525432.855877,0.123504,-0.014207,0.014108,-0.003577,-0.032003,0.009661,86.584150,48.576394,-0.084450,5.604673,9.402027,-0.012488
1573525433.045107,0.125350,-0.016204,0.013929,-0.004282,-0.032814,0.009672,87.643438,50.337175,-0.079847,5.661365,9.469554,-0.010047
1573525433.169607,0.129294,-0.020522,0.013988,-0.002777,-0.031811,0.009639,88.303553,51.484862,-0.079634,5.648476,9.512203,-0.008524
1573525433.264207,0.130841,-0.022130,0.014017,-0.001835,-0.031430,0.010049,88.820719,52.376657,-0.081136,5.662891,9.544205,-0.018714
1573525433.393697,0.125297,-0.016314,0.014038,-0.003025,-0.032310,0.009863,89.612391,53.675292,-0.087714,5.738669,9.654446,-0.022437
1573525433.518197,0.126774,-0.018045,0.014013,-0.002661,-0.032202,0.009943,90.313818,54.864783,-0.088893,5.762195,9.689054,-0.024616
1573525433.707417,0.127249,-0.018807,0.013905,-0.002889,-0.032574,0.010436,91.407019,56.697369,-0.087824,5.800358,9.753965,0.000175
1573525433.831927,0.127060,-0.018611,0.013915,-0.003144,-0.032586,0.010283,92.132930,57.915598,-0.088064,5.819103,9.808882,0.016758
1573525433.926547,0.128876,-0.020171,0.013938,-0.003641,-0.032523,0.010380,92.672347,58.812433,-0.085568,5.819494,9.771854,0.009060
1573525434.056027,0.132114,-0.023598,0.013857,-0.004379,-0.032376,0.010250,93.401827,60.023268,-0.079794,5.792760,9.703924,0.004619
1573525434.245257,0.119803,-0.010709,0.014058,-0.005094,-0.033336,0.009537,94.622150,62.035188,-0.098310,5.878575,9.825208,-0.042652
1573525434.369757,0.115915,-0.006640,0.014138,-0.005102,-0.033271,0.009536,95.387619,63.316999,-0.108319,5.885851,9.855929,-0.034813
1573525434.499237,0.110684,-0.001797,0.014162,-0.006272,-0.033898,0.009915,96.204496,64.664784,-0.118621,5.961106,9.934201,-0.046313
1573525434.593857,0.105842,0.003071,0.014117,-0.005818,-0.034483,0.009354,96.817303,65.691632,-0.126009,6.020831,10.018436,-0.030482
1573525434.718337,0.100866,0.008586,0.014231,-0.005174,-0.035178,0.009526,97.619641,67.032821,-0.137327,6.093881,10.169985,-0.037443
1573525434.907587,0.104237,0.005100,0.014208,-0.004973,-0.035015,0.009386,98.746804,68.910161,-0.141030,6.144928,10.233680,-0.038582
1573525435.032067,0.104339,0.004099,0.014119,-0.005527,-0.035960,0.009593,99.517446,70.181455,-0.144321,6.195338,10.326682,-0.046975
1573525435.191437,0.106084,0.002485,0.014213,-0.005691,-0.035251,0.009214,100.489158,71.800791,-0.153773,6.259997,10.429727,-0.056705
1573525435.256167,0.108008,-0.000120,0.014174,-0.006528,-0.035316,0.009439,100.873339,72.432165,-0.153621,6.272996,10.431482,-0.052501
1573525435.445407,0.107435,0.000407,0.014213,-0.006795,-0.035396,0.009585,102.073108,74.426155,-0.163429,6.374901,10.586363,-0.047439
1573525435.569887,0.111010,-0.003079,0.014181,-0.006155,-0.035378,0.009940,102.829913,75.697431,-0.165554,6.423146,10.660539,-0.037966
1573525435.699377,0.113352,-0.006242,0.014115,-0.007577,-0.035024,0.009937,103.637803,77.016257,-0.164012,6.453790,10.686723,-0.025988
1573525435.793997,0.111621,-0.003807,0.014234,-0.007786,-0.034630,0.010587,104.270224,78.059356,-0.172514,6.537763,10.791349,-0.047728
1573525435.918487,0.107637,-0.001190,0.014262,-0.010092,-0.035463,0.010425,105.136966,79.447622,-0.181997,6.661492,10.936132,-0.062564
1573525436.107707,0.097442,0.009234,0.014492,-0.011930,-0.035842,0.009880,106.541419,81.695536,-0.213416,6.857032,11.199553,-0.105716
1573525436.232197,0.095760,0.010828,0.014523,-0.011892,-0.036427,0.010082,107.420448,83.131843,-0.228405,6.922796,11.323745,-0.087866
1573525436.391567,0.095583,0.010378,0.014541,-0.012760,-0.036693,0.010173,108.533304,84.934988,-0.240791,7.030644,11.449498,-0.067543
1573525436.456307,0.095941,0.009565,0.014549,-0.013253,-0.037036,0.010389,108.983973,85.666060,-0.244273,7.071593,11.491342,-0.066760
1573525436.645537,0.092915,0.012893,0.014639,-0.013226,-0.037425,0.010507,110.373241,87.920613,-0.265781,7.213100,11.700158,-0.079320
1573525436.770017,0.100081,0.004184,0.014511,-0.014027,-0.037612,0.010731,111.175641,89.224090,-0.262733,7.203648,11.672618,-0.093229
1573525436.899507,0.107228,-0.005490,0.014368,-0.015547,-0.038125,0.011346,112.006222,90.561144,-0.258388,7.178861,11.612044,-0.064399
1573525437.053877,0.126823,-0.025815,0.014165,-0.015247,-0.036347,0.011871,112.832651,91.959210,-0.237537,7.027382,11.386665,-0.051103
1573525437.118617,0.132695,-0.031589,0.014163,-0.015367,-0.035999,0.012279,113.207166,92.590289,-0.233828,6.985952,11.318930,-0.032111
1573525437.307847,0.143380,-0.041427,0.014089,-0.014291,-0.034876,0.012203,114.379104,94.549191,-0.221847,6.899224,11.212797,0.020355
1573525437.432337,0.145148,-0.043863,0.013975,-0.014007,-0.035183,0.012847,115.209469,95.915705,-0.211678,6.930843,11.254113,0.030192
1573525437.591687,0.137865,-0.037950,0.013962,-0.015431,-0.036215,0.013413,116.418594,97.835485,-0.216151,7.030081,11.408237,-0.030528
1573525437.656427,0.138079,-0.038412,0.013922,-0.015636,-0.036163,0.013418,116.866441,98.571603,-0.216554,7.030422,11.410271,-0.039664
1573525437.845657,0.135595,-0.036094,0.013907,-0.016039,-0.036086,0.013584,118.232123,100.775148,-0.225678,7.066546,11.454222,-0.013868
1573525437.970127,0.135372,-0.036613,0.013799,-0.016441,-0.036163,0.013664,119.116479,102.195411,-0.222409,7.115227,11.493384,-0.001383
1573525438.099607,0.134850,-0.035086,0.013847,-0.015241,-0.036651,0.014068,120.048610,103.737485,-0.227697,7.143952,11.555989,0.003718
1573525438.194207,0.134995,-0.033513,0.014018,-0.014757,-0.035426,0.014172,120.720290,104.841016,-0.234305,7.139417,11.563845,-0.026634
1573525438.318707,0.139078,-0.036343,0.014082,-0.013669,-0.034538,0.014174,121.543475,106.216835,-0.237626,7.079468,11.494285,-0.048632
1573525438.507937,0.135350,-0.031645,0.014275,-0.013881,-0.034038,0.014216,122.940096,108.462727,-0.258141,7.089320,11.488512,-0.046394
1573525438.632437,0.135612,-0.031934,0.014268,-0.013843,-0.034050,0.014229,123.817294,109.885953,-0.260687,7.064763,11.465013,-0.010390
1573525438.791797,0.135733,-0.032064,0.014265,-0.013842,-0.034028,0.014229,124.942135,111.709855,-0.261585,7.075334,11.463651,-0.011830
1573525438.856527,0.135839,-0.032176,0.014262,-0.013841,-0.034008,0.014227,125.398386,112.449277,-0.262630,7.071578,11.454204,-0.029767
1573525439.045757,0.135949,-0.032288,0.014259,-0.013839,-0.033988,0.014225,126.732791,114.608601,-0.270457,7.056735,11.388954,-0.065617
1573525439.170257,0.134574,-0.031084,0.014261,-0.014014,-0.034274,0.014405,127.636700,116.053758,-0.279390,7.055801,11.384564,-0.046639
1573525439.299717,0.129214,-0.026070,0.014303,-0.014612,-0.035005,0.014216,128.649178,117.646335,-0.292855,7.141522,11.441269,-0.031925
1573525439.394347,0.129498,-0.025074,0.014389,-0.013415,-0.034598,0.014308,129.312534,118.752509,-0.299610,7.129695,11.451910,-0.023630
1573525439.518837,0.130655,-0.025802,0.014413,-0.013039,-0.034278,0.014409,130.179610,120.155906,-0.303045,7.131614,11.401251,-0.030565
1573525439.708067,0.123167,-0.019202,0.014441,-0.014663,-0.035158,0.014208,131.679604,122.464993,-0.319061,7.221902,11.485689,-0.031232
1573525439.832557,0.125177,-0.020192,0.014500,-0.013770,-0.034432,0.014549,132.534517,123.859539,-0.324128,7.188679,11.453687,-0.045210
1573525439.927167,0.123154,-0.019177,0.014443,-0.014657,-0.035159,0.014210,133.260274,124.976023,-0.329181,7.229048,11.450124,-0.055072
1573525440.056627,0.123132,-0.019158,0.014443,-0.014657,-0.035169,0.014210,134.194489,126.455711,-0.334430,7.215769,11.397403,-0.039973
1573525440.181147,0.129476,-0.025235,0.014365,-0.013708,-0.034492,0.014328,134.969087,127.726699,-0.325806,7.118799,11.258657,-0.004352
1573525440.370367,0.125742,-0.022223,0.014370,-0.014548,-0.035279,0.014212,136.397950,129.939392,-0.330950,7.194088,11.314292,-0.029930
1573525440.499847,0.135028,-0.029940,0.014366,-0.012908,-0.033294,0.014397,137.133193,131.182669,-0.325132,7.040917,11.141389,-0.061251
1573525440.594457,0.135855,-0.031341,0.014282,-0.012748,-0.033838,0.014283,137.782823,132.218847,-0.327855,7.007474,11.079564,-0.080866
1573525440.718947,0.137942,-0.033369,0.014248,-0.012356,-0.033717,0.014177,138.611384,133.549351,-0.333018,6.947497,11.005371,-0.056329
1573525440.908157,0.140082,-0.035639,0.014184,-0.012030,-0.033694,0.014196,139.881655,135.577297,-0.332727,6.916213,10.956804,-0.006308
1573525441.032667,0.140184,-0.035757,0.014180,-0.012036,-0.033671,0.014194,140.741242,136.937278,-0.335494,6.936099,10.936624,-0.055445
1573525441.162127,0.140287,-0.035873,0.014175,-0.012040,-0.033646,0.014191,141.634360,138.347116,-0.341538,6.877838,10.894980,-0.037279
1573525441.256757,0.147036,-0.041389,0.014115,-0.010352,-0.032379,0.014334,142.139671,139.226468,-0.337026,6.776136,10.753279,-0.079186
1573525441.381237,0.149300,-0.045539,0.013871,-0.010094,-0.033915,0.014075,142.936522,140.514969,-0.330591,6.722089,10.699642,-0.027332
1573525441.570477,0.141175,-0.036828,0.014143,-0.011931,-0.033565,0.014181,144.393176,142.719004,-0.358273,6.862947,10.815270,-0.032615
1573525441.699947,0.139232,-0.035218,0.014092,-0.011363,-0.034877,0.014284,145.329565,144.210039,-0.364038,6.903320,10.853136,-0.025996
1573525441.854327,0.132484,-0.026690,0.014395,-0.011707,-0.033774,0.014387,146.537172,146.065720,-0.389840,6.979226,10.950014,-0.047463
1573525441.919067,0.141095,-0.035355,0.014214,-0.010083,-0.033592,0.014300,146.797722,146.567578,-0.374404,6.832191,10.808270,-0.041380
1573525442.108297,0.142767,-0.036807,0.014202,-0.009637,-0.033391,0.014218,148.049536,148.570078,-0.379332,6.779302,10.730804,-0.050720
1573525442.232777,0.128084,-0.023086,0.014384,-0.012230,-0.035356,0.014194,149.255549,150.306869,-0.412913,6.996616,11.020787,-0.031381
1573525442.362267,0.141112,-0.034572,0.014274,-0.009774,-0.032870,0.014533,149.835540,151.362565,-0.397052,6.791202,10.697593,-0.028235
1573525442.456867,0.135496,-0.030618,0.014193,-0.010616,-0.035321,0.014319,150.625465,152.555837,-0.402842,6.870528,10.837072,-0.014311
1573525442.581387,0.127414,-0.022379,0.014398,-0.012281,-0.035411,0.014193,151.677912,154.100322,-0.424861,7.035867,10.970887,-0.017380
1573525442.770607,0.133359,-0.026419,0.014512,-0.010964,-0.032760,0.014313,152.826534,155.980590,-0.424428,6.867473,10.837987,-0.039523
1573525442.900087,0.128541,-0.023589,0.014345,-0.011873,-0.035648,0.014162,153.870291,157.565478,-0.431968,6.950837,10.958275,-0.069024
1573525443.054457,0.145234,-0.039109,0.014091,-0.008294,-0.033631,0.014345,154.484913,158.782447,-0.407487,6.584996,10.559584,-0.042589
1573525443.119187,0.140698,-0.035812,0.014033,-0.009211,-0.035168,0.014118,155.039130,159.602056,-0.413908,6.677881,10.657714,-0.031878
1573525443.308417,0.148546,-0.042007,0.014061,-0.007956,-0.032532,0.014111,156.069056,161.354082,-0.405652,6.479436,10.456901,0.006019
1573525443.432897,0.157847,-0.049260,0.014081,-0.005994,-0.030213,0.013813,156.616230,162.387009,-0.393466,6.255538,10.232164,0.005384
1573525443.562387,0.160736,-0.051857,0.014056,-0.005328,-0.029968,0.013647,157.346948,163.636519,-0.387245,6.162115,10.162776,0.007476
1573525443.656997,0.162347,-0.055199,0.013802,-0.005559,-0.031092,0.013838,157.893932,164.544049,-0.373680,6.131267,10.110959,0.006742
1573525443.781497,0.162608,-0.054623,0.013873,-0.005164,-0.030322,0.013461,158.642588,165.802333,-0.375549,6.095112,10.086776,-0.003283
1573525443.970727,0.162869,-0.055600,0.013733,-0.005467,-0.030450,0.013303,159.781387,167.687637,-0.368192,6.045166,10.017707,0.024491
1573525444.100197,0.163111,-0.056803,0.013590,-0.005133,-0.031519,0.013074,160.562699,168.993492,-0.358151,6.031896,10.017364,0.040111
1573525444.254547,0.164145,-0.059278,0.013421,-0.005810,-0.032308,0.013032,161.477194,170.478564,-0.344075,6.051636,9.932292,0.031398
1573525444.319307,0.159072,-0.052659,0.013610,-0.005032,-0.033121,0.013136,162.013120,171.363447,-0.360273,6.139369,10.104406,0.017061
1573525444.508527,0.151811,-0.043797,0.013878,-0.004547,-0.034805,0.013463,163.412627,173.626095,-0.382953,6.314495,10.315041,-0.003179
1573525444.633007,0.151883,-0.043111,0.014005,-0.003701,-0.034168,0.013443,164.185883,174.909991,-0.387985,6.306797,10.313554,-0.016811
1573525444.762497,0.154297,-0.045944,0.013870,-0.003488,-0.034646,0.013436,164.947011,176.169031,-0.381362,6.254292,10.206654,-0.006998
1573525444.857107,0.153727,-0.045649,0.013856,-0.004214,-0.034438,0.013252,165.551675,177.135762,-0.382161,6.267796,10.173871,-0.000247
1573525444.981587,0.157134,-0.049347,0.013745,-0.003897,-0.033999,0.013164,166.232195,178.265803,-0.370995,6.201187,10.041911,0.021208
1573525445.170837,0.155592,-0.047615,0.013786,-0.003715,-0.034369,0.013217,167.451546,180.240104,-0.369756,6.231420,10.091377,0.019778
1573525445.300307,0.158753,-0.050227,0.013771,-0.003181,-0.033203,0.013026,168.157947,181.414868,-0.362956,6.150146,9.979743,-0.010012
1573525445.454677,0.161056,-0.052664,0.013738,-0.003818,-0.032524,0.013064,169.036117,182.834942,-0.359370,6.080510,9.827304,-0.013495
1573525445.519417,0.163570,-0.056056,0.013610,-0.004372,-0.032694,0.012990,169.359440,183.358746,-0.350495,6.023137,9.709527,0.003239
1573525445.708627,0.153525,-0.045571,0.013812,-0.004242,-0.034462,0.013044,170.812840,185.636408,-0.369993,6.246517,10.008959,0.046696
1573525445.833137,0.150217,-0.041555,0.013933,-0.003712,-0.034257,0.013217,171.679190,187.020299,-0.375031,6.325699,10.127373,0.030326
1573525445.962607,0.150185,-0.041509,0.013936,-0.003770,-0.034144,0.013221,172.495970,188.326752,-0.372392,6.315490,10.095363,-0.000465
1573525446.057227,0.151463,-0.042220,0.013991,-0.003677,-0.033013,0.013504,173.038493,189.209553,-0.372885,6.263215,10.010269,-0.021249
1573525446.181737,0.152051,-0.043137,0.013922,-0.003386,-0.033805,0.013248,173.816051,190.459773,-0.373437,6.256350,9.987172,-0.036663
1573525446.370957,0.154623,-0.045474,0.013913,-0.003552,-0.032708,0.013073,174.907873,192.211552,-0.371164,6.160643,9.831632,0.009413
1573525446.500427,0.153853,-0.044346,0.013976,-0.003986,-0.031968,0.013372,175.719949,193.489935,-0.373019,6.178761,9.824715,0.019677
1573525446.624917,0.153684,-0.044812,0.013870,-0.003784,-0.033091,0.013109,176.509432,194.747259,-0.365508,6.178133,9.834689,0.030402
1573525446.719517,0.155130,-0.046292,0.013838,-0.003698,-0.033038,0.013416,177.046398,195.613918,-0.359304,6.131002,9.772443,0.028562
1573525446.908757,0.150243,-0.040888,0.013956,-0.003494,-0.033472,0.013591,178.359930,197.688683,-0.366466,6.219912,9.903653,0.021375
1573525447.033247,0.149049,-0.039903,0.013970,-0.004004,-0.033547,0.013597,179.171671,198.958501,-0.366217,6.246585,9.930907,0.005895
1573525447.162697,0.143255,-0.033432,0.014182,-0.003235,-0.033969,0.013596,180.152104,200.521010,-0.383963,6.364249,10.101877,-0.006253
1573525447.322057,0.139318,-0.029386,0.014295,-0.002699,-0.034407,0.013709,181.277966,202.312568,-0.394518,6.417877,10.193064,0.009332
1573525447.381807,0.138159,-0.028317,0.014313,-0.002672,-0.034950,0.013853,181.706704,202.982292,-0.396781,6.469059,10.240257,0.003658
1573525447.571037,0.138172,-0.028281,0.014296,-0.002616,-0.035018,0.013941,182.930588,204.924312,-0.394593,6.450809,10.252793,0.001338
1573525447.700487,0.141635,-0.031763,0.014213,-0.002753,-0.035046,0.013966,183.665105,206.106591,-0.386818,6.345196,10.131465,-0.019423
1573525447.824977,0.139148,-0.029949,0.014190,-0.004049,-0.035218,0.014401,184.530923,207.427875,-0.392358,6.391209,10.144475,-0.030526
1573525447.919587,0.146061,-0.035128,0.014255,-0.002495,-0.033376,0.014255,184.916248,208.118294,-0.387103,6.206540,9.904421,-0.014068
1573525448.108807,0.141479,-0.031821,0.014157,-0.003385,-0.034825,0.014266,186.238530,210.184690,-0.386232,6.284251,10.037330,0.041206
1573525448.233307,0.140928,-0.030629,0.014219,-0.002714,-0.034518,0.014062,187.039357,211.478389,-0.385455,6.294684,10.068123,0.049795
1573525448.362777,0.140721,-0.030372,0.014213,-0.002498,-0.034689,0.013918,187.863080,212.800146,-0.378586,6.263792,10.053124,0.056240
1573525448.522127,0.143123,-0.032461,0.014196,-0.002131,-0.033835,0.013871,188.761403,214.274311,-0.364574,6.183242,9.938909,0.057507
1573525448.611747,0.144745,-0.034053,0.014114,-0.002185,-0.033190,0.014013,189.244070,215.066776,-0.351638,6.109240,9.857493,0.079511
1573525448.771117,0.153431,-0.043303,0.013929,-0.002702,-0.031753,0.014307,189.880059,216.155243,-0.311997,5.828584,9.452686,0.114445
1573525448.900587,0.156545,-0.046436,0.013944,-0.003211,-0.031151,0.014617,190.523134,217.209834,-0.290950,5.734934,9.312967,0.121234
1573525449.054957,0.154942,-0.044895,0.013965,-0.003358,-0.031354,0.014570,191.464241,218.721081,-0.276959,5.752301,9.352623,0.118506
1573525449.119677,0.149835,-0.039761,0.014077,-0.003768,-0.032052,0.014500,192.019684,219.577241,-0.282887,5.869640,9.516215,0.109275
1573525449.308907,0.139753,-0.029711,0.014296,-0.004529,-0.033649,0.014465,193.521395,221.897845,-0.292752,6.128480,9.886146,0.075163
1573525449.438377,0.134839,-0.025008,0.014366,-0.005085,-0.034226,0.014626,194.496332,223.409323,-0.295670,6.255437,10.047576,0.047310
1573525449.562847,0.138063,-0.028027,0.014317,-0.004422,-0.034352,0.014473,195.165533,224.538110,-0.282950,6.134077,9.912268,0.047987
1573525449.722197,0.136582,-0.026505,0.014345,-0.004411,-0.034638,0.014415,196.199986,226.198925,-0.279529,6.119507,9.913033,0.046153
1573525449.811847,0.131698,-0.021986,0.014424,-0.005219,-0.035200,0.014143,196.936953,227.312744,-0.286033,6.222622,10.017134,0.054354
1573525449.911437,0.132212,-0.022680,0.014439,-0.005341,-0.035257,0.014055,197.533133,228.281094,-0.278671,6.117916,9.906304,0.079334
1573525450.100647,0.133944,-0.024120,0.014503,-0.004996,-0.034365,0.014310,198.600198,230.043924,-0.263439,5.962222,9.693944,0.094431
1573525450.225147,0.134112,-0.024318,0.014501,-0.005337,-0.034073,0.014735,199.325331,231.214944,-0.249756,5.876136,9.581055,0.090360
1573525450.319767,0.136990,-0.027354,0.014438,-0.005655,-0.033864,0.014724,199.775681,231.965100,-0.234621,5.748193,9.416993,0.088963
1573525450.508977,0.136359,-0.026973,0.014400,-0.006361,-0.033713,0.015014,200.872881,233.730150,-0.215917,5.661067,9.282569,0.092559
1573525450.638457,0.135831,-0.026404,0.014504,-0.005760,-0.034145,0.014623,201.626665,234.995570,-0.209034,5.575860,9.233777,0.106084
1573525450.762937,0.135565,-0.026166,0.014515,-0.005815,-0.034096,0.014612,202.325178,236.150179,-0.197017,5.510488,9.159602,0.095849
1573525450.922287,0.139802,-0.030654,0.014411,-0.006462,-0.033038,0.014484,203.016367,237.311612,-0.168642,5.234259,8.804909,0.132324
1573525451.031847,0.142580,-0.033122,0.014581,-0.006270,-0.031583,0.014882,203.471644,238.119779,-0.158301,5.061186,8.575871,0.115686
1573525451.111527,0.137526,-0.028450,0.014650,-0.006850,-0.032530,0.015010,204.075005,239.058584,-0.159270,5.153539,8.723469,0.105064
1573525451.300737,0.140702,-0.031431,0.014627,-0.006765,-0.031756,0.015065,204.901561,240.520666,-0.135259,4.894359,8.514080,0.085246
1573525451.425227,0.142292,-0.032759,0.014610,-0.006516,-0.031181,0.015004,205.432033,241.487242,-0.121780,4.678320,8.360394,0.074050
1573525451.519837,0.142764,-0.032982,0.014573,-0.006546,-0.030966,0.015278,205.842684,242.244649,-0.112284,4.506128,8.271558,0.083716
1573525451.644347,0.141374,-0.032081,0.014713,-0.006652,-0.031142,0.015132,206.456659,243.356015,-0.108349,4.422033,8.293149,0.087152
1573525451.838547,0.141722,-0.032396,0.014672,-0.006870,-0.030865,0.015080,207.272723,244.924697,-0.088580,4.192498,8.177189,0.088703
1573525451.963037,0.143185,-0.033990,0.014641,-0.006961,-0.030279,0.015037,207.714402,245.831113,-0.073357,3.981424,8.031895,0.089539
1573525452.122377,0.142147,-0.032930,0.014722,-0.006441,-0.030205,0.014724,208.378688,247.188421,-0.066138,3.849887,8.009532,0.079322
1573525452.182147,0.144740,-0.035986,0.014948,-0.006569,-0.029543,0.014958,208.530031,247.541836,-0.068671,3.732152,7.901400,0.063180
1573525452.341507,0.145570,-0.036592,0.014901,-0.006862,-0.028979,0.015396,209.071081,248.728747,-0.061087,3.540992,7.800324,0.013426
1573525452.500857,0.145815,-0.036875,0.014884,-0.006783,-0.028948,0.015636,209.599022,249.941070,-0.056795,3.290686,7.722683,0.015526
1573525452.625337,0.146271,-0.037585,0.014991,-0.006803,-0.029034,0.015877,209.993294,250.893861,-0.060259,3.082915,7.735277,-0.009078
1573525452.719967,0.146568,-0.037607,0.015014,-0.007150,-0.029316,0.016604,210.282997,251.625396,-0.062430,2.954046,7.786988,-0.017847
1573525452.844457,0.146268,-0.037438,0.015079,-0.007423,-0.029002,0.016707,210.651460,252.618170,-0.065760,2.720797,7.867808,0.010316
1573525453.038667,0.146661,-0.037597,0.015049,-0.007522,-0.029331,0.016627,211.130999,254.141126,-0.062892,2.309393,7.944828,-0.009950
1573525453.163157,0.146637,-0.037564,0.015043,-0.007693,-0.029410,0.016717,211.400818,255.137946,-0.063341,2.004297,8.041585,0.002478
1573525453.322507,0.145042,-0.036317,0.014977,-0.007386,-0.028871,0.016466,211.712613,256.479392,-0.062989,1.622272,8.148695,0.006119
1573525453.382267,0.144280,-0.035779,0.014908,-0.007375,-0.028865,0.016805,211.815831,256.990642,-0.061652,1.455175,8.181574,-0.001964
1573525453.511717,0.146060,-0.037231,0.014967,-0.007963,-0.028983,0.017516,211.944544,257.978904,-0.060099,1.058629,8.145249,0.008755
1573525453.700957,0.145359,-0.037107,0.014871,-0.007812,-0.028433,0.018010,212.069533,259.503229,-0.055526,0.439505,8.187102,-0.005085
1573525453.825447,0.145297,-0.037005,0.014843,-0.008098,-0.028390,0.018542,212.089888,260.510120,-0.052933,0.007290,8.166769,0.027392
1573525453.984777,0.144969,-0.036427,0.014838,-0.008016,-0.028297,0.018285,212.057563,261.838223,-0.049129,-0.535515,8.103708,0.033294
1573525454.109287,0.144575,-0.036393,0.014730,-0.008472,-0.028254,0.018717,211.956798,262.831192,-0.041216,-0.916340,8.034638,0.024901
1573525454.238747,0.143862,-0.035316,0.014604,-0.008548,-0.028016,0.018671,211.825241,263.903680,-0.033163,-1.310567,7.964119,0.067082
1573525454.363217,0.142987,-0.033869,0.014640,-0.008155,-0.027632,0.018518,211.650562,264.941070,-0.028446,-1.699176,7.886175,0.074628
1573525454.487717,0.142935,-0.032560,0.014706,-0.007942,-0.027443,0.018614,211.415734,265.939386,-0.025855,-2.083697,7.808802,0.058250
1573525454.582327,0.142386,-0.032479,0.014698,-0.008394,-0.026550,0.018988,211.189600,266.642719,-0.020486,-2.365728,7.710937,0.048259
1573525454.711797,0.142919,-0.029978,0.014769,-0.007854,-0.026568,0.018259,210.872234,267.688212,-0.021408,-2.727540,7.601530,0.033960
1573525454.901027,0.142775,-0.027709,0.014855,-0.007364,-0.026129,0.017158,210.324888,269.161618,-0.024319,-3.165189,7.370090,0.016741
1573525455.025507,0.143881,-0.026692,0.014912,-0.007083,-0.026434,0.016756,209.923705,270.093563,-0.023346,-3.372187,7.231977,0.038126
1573525455.184857,0.143922,-0.026295,0.014970,-0.006966,-0.026549,0.016738,209.369083,271.248174,-0.021083,-3.602322,7.102624,0.018272
1573525455.279487,0.145469,-0.026894,0.015082,-0.007306,-0.026913,0.017197,209.023719,271.896815,-0.019975,-3.720105,6.995536,0.002958
1573525455.438817,0.146731,-0.025159,0.015293,-0.007013,-0.027103,0.017449,208.417864,273.019052,-0.029693,-3.927789,6.802507,-0.011303
1573525455.563317,0.145757,-0.025825,0.015209,-0.007234,-0.026793,0.017883,207.916068,273.854595,-0.029871,-4.065663,6.716876,-0.032121
1573525455.687807,0.144028,-0.032509,0.015072,-0.008310,-0.026240,0.017734,207.396905,274.603488,-0.021276,-4.163421,6.598743,-0.025592
1573525455.782417,0.145661,-0.031621,0.015245,-0.008365,-0.026378,0.017775,207.004069,275.236340,-0.028168,-4.216716,6.570402,-0.030608
1573525455.911887,0.140409,-0.034316,0.014887,-0.008549,-0.025407,0.018360,206.436106,276.086670,-0.027641,-4.331530,6.563546,-0.046356
1573525456.101117,0.141245,-0.034580,0.014977,-0.008205,-0.025666,0.019020,205.599334,277.335975,-0.039401,-4.495102,6.556597,-0.052483
1573525456.225587,0.140813,-0.033806,0.015081,-0.007933,-0.025392,0.020084,205.024273,278.176503,-0.053599,-4.630195,6.582556,-0.066843
1573525456.384947,0.136533,-0.034648,0.014719,-0.007905,-0.024857,0.020117,204.264906,279.241426,-0.057327,-4.667170,6.653308,-0.049711
1573525456.454657,0.138816,-0.036777,0.014849,-0.008181,-0.025269,0.020438,203.952478,279.687886,-0.059576,-4.645729,6.682452,-0.043372
1573525456.574177,0.138116,-0.039980,0.014638,-0.008224,-0.025401,0.020058,203.394307,280.487241,-0.057428,-4.644253,6.740216,-0.053713
1573525456.763397,0.138573,-0.038524,0.014773,-0.007873,-0.024988,0.020215,202.501863,281.779117,-0.071850,-4.766949,6.886064,-0.046971
1573525456.887867,0.139311,-0.038615,0.014875,-0.007991,-0.025096,0.020037,201.907458,282.640780,-0.079929,-4.816059,6.953651,-0.053477
1573525456.982477,0.137460,-0.038498,0.014697,-0.007723,-0.024729,0.020222,201.437802,283.309635,-0.082001,-4.859756,7.006777,-0.043756
1573525457.111947,0.140859,-0.038067,0.014716,-0.008104,-0.025600,0.019949,200.827480,284.194999,-0.082372,-4.888920,7.071694,-0.052249
1573525457.301187,0.135060,-0.038561,0.014422,-0.007485,-0.024675,0.020095,199.850886,285.581613,-0.091371,-5.010425,7.215233,-0.027326
1573525457.425677,0.132533,-0.041808,0.014296,-0.007211,-0.024541,0.020669,199.205395,286.482917,-0.092522,-5.081334,7.284662,-0.026278
1573525457.585027,0.130949,-0.045324,0.014248,-0.007114,-0.024617,0.020985,198.375886,287.650736,-0.095611,-5.174577,7.383431,-0.016561
1573525457.649747,0.131729,-0.047226,0.014237,-0.007231,-0.025058,0.020856,198.046668,288.114678,-0.093135,-5.193072,7.426117,-0.013984
1573525457.774237,0.127301,-0.045502,0.013979,-0.006718,-0.024572,0.021388,197.357254,289.080348,-0.095133,-5.294028,7.521745,-0.004461
1573525457.963467,0.125334,-0.043075,0.013899,-0.006836,-0.024391,0.021496,196.330434,290.547516,-0.100102,-5.386293,7.695132,-0.004145
1573525458.087967,0.123047,-0.040693,0.013838,-0.006856,-0.023967,0.021785,195.633808,291.540939,-0.104789,-5.462317,7.799154,-0.006564
1573525458.187557,0.124356,-0.040611,0.013957,-0.007442,-0.024064,0.022268,195.103409,292.317890,-0.107422,-5.472476,7.887624,-0.016819
1573525458.371807,0.120430,-0.036615,0.013809,-0.007374,-0.023509,0.022276,194.047580,293.842877,-0.118376,-5.586062,8.062083,-0.011612
1573525458.501277,0.119412,-0.035342,0.013807,-0.007773,-0.023032,0.021739,193.310416,294.919038,-0.124267,-5.645104,8.181402,-0.021385
1573525458.625767,0.119588,-0.035267,0.013714,-0.007980,-0.023176,0.022043,192.609128,295.938322,-0.121636,-5.688939,8.269012,0.003103
1573525458.785127,0.121713,-0.037712,0.013836,-0.008067,-0.023302,0.022748,191.723702,297.227274,-0.116438,-5.739601,8.350018,0.005250
1573525458.849847,0.122466,-0.038359,0.013889,-0.008365,-0.023381,0.023144,191.362742,297.760229,-0.115751,-5.757395,8.402017,-0.001508
1573525458.974357,0.123926,-0.040271,0.013931,-0.008144,-0.023505,0.023354,190.656324,298.785667,-0.113192,-5.801276,8.484830,-0.009513
1573525459.163587,0.124745,-0.040397,0.013941,-0.008703,-0.023514,0.024013,189.570213,300.393513,-0.111873,-5.839588,8.585186,-0.004670
1573525459.288077,0.126177,-0.041625,0.014004,-0.009194,-0.023658,0.024451,188.865122,301.446104,-0.109995,-5.863657,8.677860,-0.002099
1573525459.382697,0.125762,-0.040567,0.014009,-0.009831,-0.023805,0.024204,188.312402,302.281499,-0.110480,-5.893867,8.756519,0.008225
1573525459.512177,0.125429,-0.040236,0.013972,-0.009883,-0.024033,0.024055,187.542245,303.426948,-0.108019,-5.954609,8.845488,0.013679
1573525459.701407,0.125249,-0.040172,0.013963,-0.009637,-0.024008,0.024107,186.400800,305.114540,-0.106854,-6.047873,8.958927,-0.001232
1573525459.825897,0.125154,-0.040043,0.013978,-0.009636,-0.023840,0.024180,185.644370,306.234964,-0.108674,-6.081314,9.008134,-0.008090
1573525459.985227,0.124988,-0.039620,0.013992,-0.009712,-0.023628,0.024146,184.671684,307.680290,-0.112696,-6.107295,9.078795,-0.019157
1573525460.049977,0.124028,-0.038544,0.013975,-0.009599,-0.023700,0.024282,184.259630,308.288296,-0.116234,-6.146362,9.110761,-0.009868
1573525460.174467,0.127066,-0.042186,0.014012,-0.009572,-0.024087,0.024481,183.537510,309.365325,-0.106777,-6.130649,9.103370,0.009909
1573525460.363677,0.128089,-0.044019,0.014016,-0.009529,-0.024746,0.024678,182.384251,311.068878,-0.099982,-6.174021,9.146996,0.021699
1573525460.488167,0.127012,-0.042809,0.014037,-0.009990,-0.024866,0.024959,181.606890,312.231321,-0.101396,-6.178801,9.189772,0.014510
1573525460.582797,0.126891,-0.042847,0.014089,-0.009258,-0.024984,0.024637,181.006438,313.105534,-0.103181,-6.225299,9.219232,0.007295
1573525460.712267,0.127652,-0.043953,0.014135,-0.008361,-0.025252,0.025259,180.193309,314.286358,-0.102117,-6.245715,9.252447,0.015260
1573525460.901487,0.127496,-0.043313,0.014158,-0.008932,-0.024250,0.025194,179.016757,316.039424,-0.101950,-6.260404,9.275220,0.018048
1573525461.025977,0.126324,-0.041710,0.014119,-0.009521,-0.024025,0.024375,178.233616,317.225019,-0.100723,-6.257611,9.319559,0.035864
1573525461.155467,0.126485,-0.041995,0.014123,-0.009476,-0.024120,0.024471,177.422820,318.430476,-0.095725,-6.283580,9.357741,0.030205
1573525461.255057,0.127889,-0.043863,0.014149,-0.009158,-0.024580,0.024142,176.815721,319.335763,-0.087936,-6.280150,9.360608,0.045450
1573525461.374547,0.127686,-0.043733,0.014118,-0.010195,-0.024910,0.024623,176.090328,320.463734,-0.079137,-6.251022,9.371591,0.052004
1573525461.563767,0.129073,-0.045454,0.014168,-0.010067,-0.025028,0.024973,174.923292,322.208344,-0.069741,-6.276055,9.415952,0.022840
1573525461.688267,0.129468,-0.045624,0.014201,-0.009614,-0.024830,0.025260,174.135839,323.371038,-0.068345,-6.275591,9.405853,0.014712
1573525461.847617,0.127359,-0.043050,0.014158,-0.010379,-0.024720,0.024939,173.123783,324.923206,-0.072091,-6.247806,9.415156,0.009942
1573525461.912357,0.128416,-0.043996,0.014156,-0.009742,-0.024634,0.025412,172.721567,325.508244,-0.068305,-6.238968,9.389395,0.019491
1573525462.101597,0.127630,-0.043649,0.014129,-0.010436,-0.024972,0.025069,171.546353,327.299844,-0.060868,-6.209399,9.359740,0.058814
1573525462.226087,0.126618,-0.042166,0.014138,-0.010521,-0.024723,0.024805,170.759757,328.495669,-0.060032,-6.205544,9.399347,0.025314
1573525462.320707,0.126154,-0.041403,0.014138,-0.010386,-0.024558,0.024772,170.158858,329.398064,-0.059023,-6.220200,9.398690,0.031140
1573525462.450177,0.126703,-0.042211,0.014139,-0.010378,-0.024677,0.024766,169.365671,330.596449,-0.053505,-6.179082,9.349502,0.017782
1573525462.574667,0.126589,-0.041853,0.014145,-0.010176,-0.024601,0.024906,168.590256,331.764360,-0.053379,-6.165022,9.341814,0.002726
1573525462.763897,0.125360,-0.040348,0.014114,-0.010102,-0.024687,0.024631,167.400566,333.570035,-0.054910,-6.157624,9.332143,0.022344
1573525462.888377,0.126125,-0.041557,0.014111,-0.010039,-0.025088,0.024892,166.648559,334.708218,-0.047795,-6.127669,9.296749,0.028482
1573525463.047747,0.127219,-0.042940,0.014140,-0.009962,-0.025176,0.025172,165.694560,336.153892,-0.039167,-6.097900,9.249623,0.040449
1573525463.112487,0.128662,-0.044666,0.014197,-0.009540,-0.025307,0.025101,165.318192,336.710329,-0.033848,-6.089215,9.196995,0.041711
1573525463.301717,0.128397,-0.044189,0.014195,-0.009107,-0.025453,0.024943,164.147393,338.463803,-0.032850,-6.103091,9.189854,0.004567
1573525463.426207,0.131882,-0.047728,0.014293,-0.008456,-0.024919,0.025392,163.443208,339.491425,-0.024329,-6.035177,9.056064,-0.001137
1573525463.555687,0.131094,-0.047482,0.014223,-0.009035,-0.025297,0.025328,162.661905,340.681460,-0.022288,-6.017415,9.041776,0.002571
1573525463.650297,0.131875,-0.048564,0.014202,-0.008907,-0.025474,0.025415,162.104706,341.511442,-0.017997,-6.010173,9.017888,0.013049
1573525463.774777,0.132018,-0.049110,0.014147,-0.008817,-0.026011,0.025715,161.355186,342.629871,-0.011967,-6.006962,8.994331,0.024908
1573525463.964027,0.130569,-0.046580,0.014242,-0.008875,-0.025271,0.025783,160.193590,344.379180,-0.020115,-6.004341,8.994029,0.009617
1573525464.088527,0.130269,-0.045745,0.014265,-0.008608,-0.024992,0.025855,159.432693,345.511354,-0.021625,-6.007761,8.986332,0.003646
1573525464.247887,0.128153,-0.043248,0.014183,-0.008365,-0.025457,0.025429,158.417066,347.029804,-0.025610,-6.046050,9.023590,0.013247
1573525464.312627,0.128485,-0.042844,0.014240,-0.007610,-0.025112,0.025626,158.013260,347.608426,-0.027959,-6.049021,9.011327,-0.000563
1573525464.501877,0.129343,-0.043874,0.014224,-0.007083,-0.025483,0.025634,156.871582,349.285332,-0.023297,-6.028588,8.954760,0.020623
1573525464.626387,0.131276,-0.046261,0.014275,-0.007145,-0.025321,0.025923,156.170206,350.318733,-0.014566,-5.993670,8.855802,0.032799
1573525464.755867,0.131404,-0.046385,0.014279,-0.007271,-0.025151,0.025881,155.401113,351.457635,-0.010999,-5.981061,8.857495,0.018746
1573525464.850497,0.130723,-0.045938,0.014220,-0.007613,-0.025445,0.026007,154.830047,352.319463,-0.009149,-5.950889,8.868741,0.007653
1573525464.974997,0.126300,-0.040883,0.014137,-0.008534,-0.025591,0.025596,154.020115,353.595883,-0.018732,-5.987801,8.955607,0.027487
1573525465.164247,0.125342,-0.040036,0.014092,-0.009084,-0.025639,0.025487,152.876772,355.324291,-0.017668,-5.998341,8.996350,-0.003245
1573525465.288747,0.127224,-0.041575,0.014124,-0.008033,-0.025443,0.025695,152.143201,356.373252,-0.012785,-5.986573,8.900811,-0.000700
1573525465.448127,0.127183,-0.041403,0.014134,-0.007968,-0.025364,0.025707,151.189461,357.790031,-0.015250,-5.950446,8.860397,-0.003999
1573525465.512867,0.128185,-0.042561,0.014139,-0.007851,-0.025278,0.025814,150.828322,358.320471,-0.011839,-5.907082,8.820996,0.010354
1573525465.637377,0.128459,-0.042914,0.014121,-0.007739,-0.025377,0.025816,150.094700,359.408733,-0.008491,-5.923822,8.806846,0.017027
1573525465.826617,0.129028,-0.043540,0.014097,-0.007440,-0.025516,0.025876,148.981306,361.053102,-0.000661,-5.901243,8.762793,0.032200
1573525465.956107,0.132599,-0.048563,0.014094,-0.007666,-0.025584,0.025965,148.325422,362.016264,0.018241,-5.793869,8.623600,0.018486
1573525466.050727,0.133506,-0.050192,0.014055,-0.007721,-0.025961,0.026033,147.802272,362.787037,0.027281,-5.770074,8.578023,0.030497
1573525466.175227,0.133869,-0.050748,0.014048,-0.007730,-0.026014,0.026074,147.095335,363.835108,0.033897,-5.747670,8.534840,0.042504
1573525466.364477,0.131687,-0.047632,0.014067,-0.007778,-0.025734,0.025887,145.945767,365.555568,0.029069,-5.773555,8.599579,0.025877
1573525466.488977,0.130756,-0.046255,0.014077,-0.007693,-0.025577,0.025791,145.197793,366.667865,0.028238,-5.769223,8.603878,0.028142
1573525466.648347,0.129334,-0.044183,0.014051,-0.007351,-0.025686,0.025720,144.224392,368.116463,0.028644,-5.799641,8.639910,0.026235
1573525466.713097,0.128667,-0.043601,0.013989,-0.007346,-0.026217,0.025766,143.825333,368.714097,0.030086,-5.812383,8.677667,0.021455
1573525466.837587,0.126884,-0.041393,0.014030,-0.007697,-0.025829,0.025380,143.065058,369.869878,0.024683,-5.837374,8.720767,0.021471
1573525467.026837,0.124906,-0.039618,0.013910,-0.008257,-0.026612,0.024639,141.911226,371.626158,0.027182,-5.839872,8.766990,0.014554
1573525467.151337,0.125286,-0.039753,0.013966,-0.008074,-0.026220,0.024965,141.194610,372.692699,0.027956,-5.826031,8.745180,0.015372
1573525467.250947,0.124534,-0.038678,0.013987,-0.008260,-0.025900,0.024953,140.600352,373.596478,0.025692,-5.823361,8.752159,0.017537
1573525467.440197,0.123474,-0.038051,0.013964,-0.008742,-0.026324,0.024277,139.480814,375.305210,0.027168,-5.808803,8.749811,0.030406
1573525467.564707,0.124125,-0.038418,0.013944,-0.008194,-0.026405,0.024639,138.756974,376.372335,0.033317,-5.805781,8.738134,0.020503
1573525467.689207,0.124209,-0.038310,0.013984,-0.008072,-0.026123,0.024651,138.034241,377.451005,0.034866,-5.833251,8.718044,0.008608
1573525467.848577,0.124479,-0.039048,0.013992,-0.008720,-0.026032,0.024665,137.138457,378.814610,0.032591,-5.783310,8.680961,-0.033473
1573525467.913317,0.126041,-0.040868,0.014008,-0.008681,-0.025852,0.024820,136.811996,379.290861,0.036852,-5.735500,8.580974,-0.018635
1573525468.037837,0.129104,-0.044249,0.014066,-0.008012,-0.025870,0.025314,136.173932,380.208623,0.045073,-5.652004,8.404282,0.017140
1573525468.227077,0.131436,-0.047647,0.014022,-0.008349,-0.026160,0.025486,135.188850,381.663966,0.063016,-5.599378,8.332620,0.060585
1573525468.351587,0.130119,-0.045915,0.014029,-0.008580,-0.025912,0.025419,134.456366,382.765901,0.063742,-5.616002,8.366535,0.028699
1573525468.446217,0.129426,-0.045137,0.014048,-0.008783,-0.025921,0.025685,133.909711,383.587153,0.062938,-5.597032,8.378045,0.005429
1573525468.575707,0.129374,-0.045381,0.014067,-0.009000,-0.026147,0.025883,133.186255,384.668453,0.061533,-5.607546,8.347677,-0.009263
1573525468.764957,0.128674,-0.044864,0.014091,-0.009587,-0.026174,0.026197,132.122719,386.269676,0.059112,-5.556997,8.331153,0.027699
1573525468.889467,0.130008,-0.046190,0.014061,-0.009238,-0.025890,0.025638,131.468271,387.230196,0.069844,-5.528806,8.259671,0.022918
1573525469.018947,0.130490,-0.046753,0.014061,-0.009261,-0.025796,0.025593,130.768993,388.271923,0.071667,-5.528961,8.282899,-0.006816
1573525469.113567,0.128703,-0.044714,0.014073,-0.009480,-0.025863,0.025482,130.191945,389.152114,0.065068,-5.548034,8.297084,0.009365
1573525469.238077,0.128783,-0.044859,0.014053,-0.009585,-0.025926,0.025772,129.511108,390.172758,0.067559,-5.482420,8.226583,0.013936
1573525469.427327,0.131468,-0.047597,0.014068,-0.008994,-0.025749,0.026467,128.549294,391.573202,0.085539,-5.430409,8.133596,0.072449
1573525469.551827,0.131585,-0.047806,0.014086,-0.009292,-0.025688,0.026935,127.891706,392.571574,0.095001,-5.394019,8.121279,0.071894
1573525469.711207,0.131482,-0.047444,0.014154,-0.009218,-0.025753,0.027900,127.028431,393.875548,0.098036,-5.395696,8.088670,0.030179
1573525469.775947,0.128680,-0.044269,0.014196,-0.009838,-0.025659,0.027501,126.605736,394.564764,0.088100,-5.445914,8.192607,0.034760
1573525469.965197,0.127881,-0.043325,0.014209,-0.009882,-0.025885,0.028044,125.543074,396.171469,0.091153,-5.434772,8.197852,0.044002
1573525470.089707,0.126477,-0.041564,0.014249,-0.010234,-0.025385,0.027116,124.830811,397.273727,0.090610,-5.457982,8.266768,0.055491
1573525470.219197,0.127107,-0.042412,0.014241,-0.010643,-0.025364,0.028467,124.167858,398.280768,0.101748,-5.373791,8.205277,0.051677
1573525470.373597,0.127419,-0.043146,0.014300,-0.010684,-0.025368,0.026858,123.347985,399.536526,0.106019,-5.345809,8.181024,0.037058
1573525470.448297,0.130623,-0.047278,0.014316,-0.011082,-0.025232,0.026324,123.082268,399.953822,0.121369,-5.229072,8.020217,0.061933
1573525470.627587,0.132750,-0.049734,0.014383,-0.010743,-0.025152,0.025717,122.205944,401.264825,0.137536,-5.173840,7.865700,0.084038
1573525470.816837,0.131772,-0.048476,0.014338,-0.010799,-0.025282,0.026187,121.191108,402.814095,0.153118,-5.156985,7.912789,0.078277
1573525470.976217,0.130900,-0.047470,0.014341,-0.010775,-0.025442,0.025964,120.324411,404.142693,0.162060,-5.190493,7.934756,0.082664
1573525471.035987,0.129901,-0.046386,0.014341,-0.010835,-0.025625,0.025962,119.971977,404.684924,0.163162,-5.219527,7.972315,0.072684
1573525471.165467,0.129325,-0.045772,0.014351,-0.010913,-0.025700,0.025969,119.278251,405.753343,0.169675,-5.182830,7.964047,0.085375
1573525471.289977,0.129023,-0.045620,0.014361,-0.010837,-0.026121,0.026334,118.615161,406.774012,0.177749,-5.174865,7.978236,0.063612
1573525471.419467,0.128950,-0.045479,0.014347,-0.010476,-0.026444,0.026554,117.927315,407.831104,0.184374,-5.201773,7.997363,0.063538
1573525471.514097,0.130489,-0.047501,0.014357,-0.010095,-0.026866,0.027114,117.479946,408.494161,0.195893,-5.143036,7.903777,0.075397
1573525471.638617,0.131532,-0.048893,0.014360,-0.009789,-0.027193,0.027425,116.871310,409.413316,0.207881,-5.058633,7.803290,0.064301
1573525471.827857,0.131232,-0.048239,0.014468,-0.009514,-0.026936,0.027013,115.888517,410.928378,0.213290,-5.095324,7.848371,0.077306
1573525471.957347,0.130797,-0.047733,0.014458,-0.009824,-0.026872,0.027370,115.220693,411.963694,0.222370,-5.087611,7.839707,0.060591
1573525472.111737,0.130692,-0.047900,0.014470,-0.010337,-0.026813,0.027359,114.447054,413.157475,0.230429,-5.047992,7.792506,0.043839
1573525472.176487,0.131650,-0.048623,0.014461,-0.009681,-0.026588,0.026874,114.144951,413.610615,0.236288,-5.023544,7.724693,0.056148
1573525472.365737,0.130934,-0.047878,0.014476,-0.009831,-0.026828,0.027486,113.166983,415.121833,0.245902,-4.999582,7.748292,0.061008
1573525472.490247,0.131523,-0.048198,0.014541,-0.009415,-0.026514,0.027142,112.551212,416.049950,0.252155,-4.991008,7.708290,0.074210
1573525472.619737,0.132682,-0.049106,0.014401,-0.008690,-0.026367,0.026567,111.935089,416.972146,0.274343,-4.976617,7.613368,0.095762
1573525472.714367,0.131426,-0.047269,0.014351,-0.008441,-0.026213,0.026287,111.407600,417.788859,0.280501,-5.007991,7.673751,0.084250
1573525472.838877,0.131322,-0.046485,0.014397,-0.008115,-0.025709,0.026369,110.769289,418.752900,0.287812,-5.003822,7.657373,0.088301
1573525473.028127,0.129070,-0.044083,0.014475,-0.008602,-0.025740,0.026608,109.742468,420.366424,0.290716,-5.045104,7.756976,0.062176
1573525473.157607,0.128989,-0.044092,0.014498,-0.008729,-0.025719,0.026579,109.093220,421.370234,0.298166,-5.004906,7.744484,0.062132
1573525473.312007,0.128676,-0.044001,0.014476,-0.008938,-0.025931,0.026539,108.312775,422.583388,0.308030,-5.006223,7.719016,0.062851
1573525473.376747,0.128554,-0.043977,0.014495,-0.009014,-0.025964,0.026472,107.987374,423.088430,0.310819,-4.997573,7.716314,0.063050
1573525473.565997,0.127301,-0.042373,0.014485,-0.009082,-0.025820,0.026335,106.991300,424.639611,0.321422,-5.004441,7.754942,0.071753
1573525473.690507,0.126446,-0.041308,0.014472,-0.009182,-0.025670,0.026056,106.335590,425.668083,0.325606,-5.038612,7.802599,0.043813
1573525473.819997,0.126601,-0.041609,0.014469,-0.009288,-0.025533,0.025466,105.700817,426.658072,0.334352,-5.024601,7.739727,0.083090
1573525473.914617,0.127936,-0.043041,0.014483,-0.008936,-0.025429,0.025362,105.275889,427.281935,0.345417,-4.955164,7.611335,0.080452
1573525474.039127,0.131661,-0.046931,0.014523,-0.008200,-0.024790,0.024647,104.805128,427.930378,0.362655,-4.829508,7.372462,0.081079
1573525474.168607,0.131933,-0.047574,0.014443,-0.008357,-0.025012,0.024759,104.204794,428.847009,0.381260,-4.810078,7.342825,0.109537
1573525474.357847,0.132184,-0.047541,0.014499,-0.008001,-0.024969,0.024946,103.293387,430.232212,0.396331,-4.762951,7.299707,0.080345
1573525474.512237,0.132356,-0.047386,0.014611,-0.007756,-0.024801,0.025163,102.550547,431.365824,0.402177,-4.754627,7.274564,0.080604
1573525474.576977,0.132292,-0.047376,0.014588,-0.007823,-0.024834,0.025220,102.242643,431.840267,0.408625,-4.735073,7.275517,0.078448
1573525474.701487,0.132209,-0.047301,0.014540,-0.008172,-0.024622,0.025244,101.670119,432.726961,0.420228,-4.675271,7.198845,0.073019
1573525474.890737,0.132535,-0.047322,0.014529,-0.007912,-0.024297,0.025097,100.805291,434.044125,0.438736,-4.605534,7.074048,0.106202
1573525475.020227,0.132263,-0.046922,0.014518,-0.007479,-0.024456,0.024554,100.171796,435.002034,0.451531,-4.649174,7.145453,0.091311
1573525475.114857,0.131402,-0.045972,0.014536,-0.007570,-0.024601,0.024595,99.684802,435.760014,0.456464,-4.725485,7.248931,0.098596
1573525475.239357,0.132201,-0.046608,0.014648,-0.007066,-0.024487,0.024730,99.113076,436.623643,0.466047,-4.691903,7.211164,0.094409
1573525475.368847,0.131977,-0.046451,0.014708,-0.006959,-0.024623,0.024678,98.483408,437.586267,0.473823,-4.696295,7.214427,0.078653
1573525475.558097,0.131393,-0.045517,0.014696,-0.006842,-0.024467,0.024680,97.559716,439.002967,0.488239,-4.756999,7.284584,0.098642
1573525475.682607,0.131732,-0.045708,0.014764,-0.006530,-0.024402,0.024899,96.970710,439.900685,0.497056,-4.741041,7.304353,0.083203
1573525475.841977,0.133703,-0.047912,0.014897,-0.006502,-0.024194,0.024698,96.305714,440.914035,0.506467,-4.678753,7.225354,0.053141
1573525475.906727,0.135359,-0.050186,0.014915,-0.006979,-0.024306,0.024429,96.094882,441.232315,0.515781,-4.632128,7.107748,0.077690
1573525476.095967,0.135757,-0.050980,0.014856,-0.007593,-0.024429,0.024778,95.267404,442.511936,0.537986,-4.568461,7.064630,0.089987
1573525476.220457,0.136251,-0.051473,0.014944,-0.007796,-0.024306,0.024925,94.717976,443.361242,0.546867,-4.592890,7.082611,0.098844
1573525476.379807,0.135901,-0.051313,0.014976,-0.008066,-0.024298,0.023989,93.967100,444.530078,0.559495,-4.593872,7.133957,0.101312
1573525476.504287,0.134029,-0.049015,0.014939,-0.008146,-0.024167,0.024393,93.311115,445.569238,0.566912,-4.646267,7.253685,0.089879
1573525476.569037,0.131896,-0.046541,0.014937,-0.008303,-0.024210,0.025306,92.914013,446.210882,0.566471,-4.730719,7.404032,0.082991
1573525476.758267,0.128342,-0.042668,0.014930,-0.008794,-0.024075,0.026462,91.872558,447.877363,0.572115,-4.844612,7.645380,0.066334
1573525476.882757,0.125507,-0.039296,0.014889,-0.008468,-0.024375,0.027580,91.113825,449.091382,0.570911,-4.960233,7.874738,0.031893
1573525476.977377,0.125190,-0.038908,0.014873,-0.008516,-0.024339,0.027134,90.627286,449.868788,0.575089,-4.998805,7.888709,0.062347
1573525477.106857,0.127026,-0.040632,0.014997,-0.007895,-0.024166,0.028146,90.055573,450.736799,0.583526,-4.922285,7.765511,0.071293
1573525477.296087,0.129962,-0.042935,0.015067,-0.006865,-0.023805,0.029080,89.236017,451.970463,0.601967,-4.872070,7.656446,0.079125
1573525477.420577,0.128719,-0.042737,0.015010,-0.007936,-0.024285,0.028354,88.610017,453.002155,0.613644,-4.899217,7.735309,0.089000
1573525477.579937,0.130362,-0.044189,0.015056,-0.007442,-0.024062,0.028390,87.898491,454.093603,0.628394,-4.836438,7.633813,0.080067
1573525477.639697,0.130505,-0.044310,0.015111,-0.007567,-0.023723,0.027810,87.621298,454.529879,0.631013,-4.828448,7.630294,0.079956
1573525477.769157,0.132297,-0.046043,0.015118,-0.007571,-0.023256,0.027667,87.097215,455.334732,0.647473,-4.767661,7.506524,0.097479
1573525477.958407,0.133056,-0.046322,0.015078,-0.007336,-0.022724,0.027600,86.237519,456.673710,0.671464,-4.737063,7.485208,0.097497
1573525478.082897,0.132525,-0.045728,0.015134,-0.006971,-0.023100,0.028061,85.586237,457.704502,0.676058,-4.794850,7.584354,0.066502
1573525478.242247,0.133225,-0.046359,0.015125,-0.006554,-0.023143,0.027973,84.845258,458.853569,0.689418,-4.784649,7.541802,0.061914
1573525478.306987,0.135049,-0.048335,0.015116,-0.006876,-0.022540,0.027442,84.664881,459.126864,0.701515,-4.681511,7.374806,0.061264
1573525478.496217,0.137049,-0.050450,0.015109,-0.007443,-0.021825,0.026985,83.937705,460.271792,0.724423,-4.558469,7.213491,0.088547
1573525478.620717,0.136469,-0.050310,0.015266,-0.007143,-0.022593,0.027234,83.300081,461.298956,0.724057,-4.626300,7.326140,0.082235
1573525478.780077,0.135779,-0.049879,0.015268,-0.007145,-0.022990,0.027335,82.515000,462.549172,0.734505,-4.672689,7.396777,0.075474
1573525478.839837,0.136087,-0.050201,0.015230,-0.007119,-0.022930,0.027214,82.254617,462.953279,0.741483,-4.617098,7.374461,0.054284
1573525478.969317,0.136076,-0.049958,0.015185,-0.006831,-0.022976,0.027604,81.648004,463.910029,0.750047,-4.623224,7.345089,0.053515
1573525479.158547,0.134743,-0.048730,0.015175,-0.007142,-0.023075,0.027625,80.717532,465.405521,0.762995,-4.601280,7.347621,0.093475
1573525479.283027,0.133758,-0.048107,0.015241,-0.007261,-0.023578,0.027958,80.083338,466.438267,0.765785,-4.660644,7.431227,0.073836
1573525479.377657,0.132798,-0.047329,0.015280,-0.007540,-0.023680,0.027998,79.598705,467.228508,0.769018,-4.711087,7.481215,0.095618
1573525479.507127,0.131667,-0.046065,0.015312,-0.007397,-0.024000,0.029021,78.918588,468.323670,0.774366,-4.709452,7.542150,0.080124
1573525479.696357,0.130435,-0.044964,0.015347,-0.007481,-0.024454,0.029811,77.953106,469.886733,0.784424,-4.733645,7.595337,0.100353
1573525479.820877,0.128459,-0.043293,0.015367,-0.007773,-0.024970,0.029707,77.243841,471.064891,0.790010,-4.805367,7.769150,0.110851
1573525480.039987,0.126280,-0.041294,0.015397,-0.008254,-0.025061,0.029385,76.071171,473.009676,0.802514,-4.866636,7.880673,0.093388
1573525480.104727,0.126463,-0.041435,0.015445,-0.007826,-0.025417,0.030381,75.728612,473.543133,0.805474,-4.891389,7.878244,0.094312
1573525480.204327,0.124983,-0.039967,0.015470,-0.008237,-0.024418,0.028982,75.222755,474.390469,0.809507,-4.893206,7.885309,0.095488
1573525480.358697,0.128204,-0.043560,0.015560,-0.007834,-0.024849,0.029792,74.606316,475.335339,0.828685,-4.787425,7.644775,0.115943
1573525480.483197,0.127616,-0.042979,0.015546,-0.008317,-0.024556,0.029419,73.997153,476.329975,0.840860,-4.786839,7.655009,0.102922
1573525480.612667,0.127867,-0.043181,0.015579,-0.008340,-0.024552,0.030007,73.379843,477.309182,0.851945,-4.759169,7.621236,0.082530
1573525480.707297,0.127961,-0.042779,0.015561,-0.008295,-0.024360,0.030882,72.932505,478.010729,0.860132,-4.753266,7.584325,0.064995
1573525480.896537,0.128832,-0.043717,0.015622,-0.007995,-0.024524,0.031455,72.061216,479.368817,0.877913,-4.709189,7.422465,0.128123
1573525481.021027,0.129971,-0.045050,0.015609,-0.008016,-0.024453,0.031034,71.545162,480.163280,0.899674,-4.652092,7.294668,0.139738
1573525481.150507,0.131309,-0.047034,0.015590,-0.007767,-0.024572,0.029749,71.008381,480.977350,0.924345,-4.643488,7.194307,0.155910
1573525481.245127,0.131875,-0.048323,0.015642,-0.007959,-0.025019,0.029867,70.590840,481.618845,0.938257,-4.600753,7.150868,0.138019
1573525481.424407,0.133041,-0.049583,0.015642,-0.008044,-0.024970,0.030472,69.835497,482.773683,0.965390,-4.504573,6.971370,0.118791
1573525481.558857,0.133464,-0.050462,0.015601,-0.008298,-0.024889,0.029732,69.271077,483.636271,0.987346,-4.440913,6.897263,0.124481
1573525481.683347,0.133848,-0.051457,0.015575,-0.008537,-0.025079,0.029204,68.753690,484.427848,1.009052,-4.417395,6.800970,0.154828
1573525481.812827,0.132860,-0.050619,0.015583,-0.008667,-0.025323,0.029278,68.113557,485.422605,1.025555,-4.467557,6.848646,0.146942
1573525481.907437,0.132208,-0.050028,0.015584,-0.008336,-0.025622,0.028850,67.627041,486.165786,1.036827,-4.510753,6.886191,0.156756
1573525482.031917,0.131228,-0.049055,0.015553,-0.008196,-0.026056,0.028997,66.996254,487.140407,1.054220,-4.533011,6.950843,0.135433
1573525482.221167,0.129248,-0.046570,0.015496,-0.008245,-0.025977,0.029367,66.020067,488.663920,1.079713,-4.631752,7.017862,0.168107
1573525482.350647,0.128096,-0.045277,0.015459,-0.008318,-0.026152,0.029468,65.353190,489.699166,1.099058,-4.664018,7.075113,0.162278
1573525482.505017,0.126221,-0.043298,0.015399,-0.008714,-0.026249,0.029026,64.535561,490.993439,1.123547,-4.710892,7.181858,0.172744
1573525482.574737,0.127012,-0.044039,0.015477,-0.008560,-0.025694,0.029871,64.257232,491.386742,1.134145,-4.645256,7.083642,0.164055
1573525482.758997,0.126894,-0.044099,0.015483,-0.008631,-0.025860,0.029781,63.391810,492.700121,1.168301,-4.668823,7.011282,0.204838
1573525482.883487,0.126679,-0.043999,0.015503,-0.008693,-0.025858,0.029983,62.804732,493.591381,1.190789,-4.647104,7.000322,0.197127
1573525483.012967,0.126699,-0.043971,0.015498,-0.008894,-0.025656,0.030395,62.225213,494.463601,1.216574,-4.602802,6.941119,0.197015
1573525483.107567,0.126055,-0.042936,0.015424,-0.009171,-0.025442,0.030449,61.768508,495.167201,1.237733,-4.633050,6.949143,0.180945
1573525483.237057,0.126209,-0.043068,0.015428,-0.009282,-0.025168,0.030195,61.186203,496.034147,1.262034,-4.598860,6.867971,0.195278
1573525483.421287,0.127264,-0.044047,0.015427,-0.009281,-0.025015,0.030163,60.417079,497.157588,1.299613,-4.505785,6.690859,0.170476
1573525483.550777,0.127961,-0.045209,0.015519,-0.009575,-0.025052,0.030472,59.876422,497.959495,1.319702,-4.464857,6.613925,0.175494
1573525483.705147,0.129040,-0.046481,0.015609,-0.008980,-0.025209,0.030554,59.212837,498.902584,1.344197,-4.421814,6.471422,0.170670
1573525483.829637,0.130881,-0.048731,0.015731,-0.008734,-0.025163,0.029832,58.755123,499.536766,1.362169,-4.296125,6.238603,0.161362
1573525483.959117,0.133765,-0.052558,0.015897,-0.008834,-0.025622,0.029891,58.364712,500.050511,1.381081,-4.107066,5.898200,0.167421
1573525484.083607,0.132651,-0.051438,0.015845,-0.008935,-0.025828,0.030054,57.798376,500.891821,1.402440,-4.080638,5.852156,0.157338
1573525484.213077,0.132332,-0.051201,0.015836,-0.008871,-0.026081,0.030222,57.245956,501.685229,1.420873,-4.057500,5.755384,0.131178
1573525484.367447,0.131395,-0.050535,0.015873,-0.008711,-0.026152,0.030412,56.552415,502.686515,1.435158,-4.046604,5.657311,0.124278
1573525484.496917,0.129762,-0.048834,0.015775,-0.009002,-0.026195,0.030361,55.962094,503.547395,1.452382,-4.012034,5.587667,0.095144
1573525484.621407,0.130174,-0.050509,0.015912,-0.008795,-0.027343,0.030440,55.441943,504.259999,1.455696,-3.984260,5.449978,0.057915
1573525484.750877,0.128646,-0.048653,0.015823,-0.008772,-0.027077,0.029942,54.842416,505.100369,1.465390,-4.029006,5.368652,0.057728
1573525484.905247,0.127136,-0.047939,0.015835,-0.008701,-0.027393,0.029399,54.126009,506.082070,1.471341,-4.037776,5.247234,0.052724
1573525485.034727,0.126809,-0.048072,0.015863,-0.008630,-0.027931,0.029650,53.568683,506.810477,1.473867,-4.058005,5.079647,0.023314
1573525485.159217,0.127208,-0.049245,0.015932,-0.008881,-0.028365,0.029415,53.079177,507.406527,1.473988,-4.080543,4.849592,0.021325
1573525485.283717,0.125600,-0.046635,0.015788,-0.008278,-0.028485,0.028941,52.448209,508.171864,1.480973,-4.203579,4.765640,0.038206
1573525485.413187,0.125868,-0.047445,0.015829,-0.008535,-0.028871,0.028771,51.911486,508.755641,1.485155,-4.260723,4.485958,0.045350
1573525485.567567,0.125419,-0.046932,0.015809,-0.008666,-0.029266,0.028832,51.205519,509.498488,1.492119,-4.396489,4.261485,0.044641
1573525485.632287,0.124998,-0.047005,0.015839,-0.008673,-0.029793,0.029172,50.884275,509.831283,1.492502,-4.473361,4.195907,0.047805
1573525485.821527,0.123705,-0.045746,0.015833,-0.008759,-0.029808,0.028954,49.923571,510.757963,1.499642,-4.717646,3.961725,0.043674
1573525485.950987,0.123081,-0.045850,0.015896,-0.008991,-0.030116,0.028802,49.255209,511.336779,1.500832,-4.846525,3.784363,0.043254
1573525486.045617,0.122801,-0.045496,0.015910,-0.008999,-0.030180,0.028774,48.761999,511.732530,1.504678,-4.936209,3.636322,0.060048
1573525486.170097,0.122669,-0.045830,0.015957,-0.009014,-0.030346,0.029057,48.129112,512.188169,1.509850,-5.002534,3.441469,0.052234
1573525486.359327,0.122768,-0.046722,0.016003,-0.008722,-0.031066,0.029817,47.179771,512.789143,1.517640,-5.076228,3.093713,0.054973
1573525486.483837,0.123026,-0.047438,0.016071,-0.008753,-0.031173,0.029822,46.545577,513.149962,1.521675,-5.124697,2.876505,0.045730
1573525486.613307,0.123065,-0.048152,0.016130,-0.008759,-0.031308,0.029692,45.882840,513.500088,1.524243,-5.167440,2.661878,0.028726
1573525486.707927,0.122724,-0.047857,0.016109,-0.008818,-0.031178,0.030194,45.386338,513.751847,1.526839,-5.191670,2.510489,0.026931
1573525486.897147,0.122785,-0.048994,0.016169,-0.008868,-0.031319,0.030088,44.432576,514.155604,1.529524,-5.178534,2.155489,0.032984
1573525487.021637,0.122987,-0.048950,0.016207,-0.009050,-0.031355,0.030308,43.785195,514.408261,1.532877,-5.190425,1.920649,0.029138
1573525487.151097,0.123496,-0.048576,0.016298,-0.009044,-0.031222,0.029969,43.079943,514.679850,1.531146,-5.220105,1.736939,0.008603
1573525487.275597,0.123158,-0.047761,0.016258,-0.009144,-0.030725,0.030513,42.418795,514.896598,1.534161,-5.223825,1.540047,0.022003
1573525487.434947,0.122693,-0.048313,0.016310,-0.009210,-0.030863,0.030549,41.583519,515.118784,1.534105,-5.209994,1.280778,0.020146
1573525487.559437,0.122518,-0.048876,0.016354,-0.009681,-0.030557,0.031435,40.941921,515.265607,1.533830,-5.158661,1.092154,0.014249
1573525487.683927,0.121681,-0.047741,0.016419,-0.009598,-0.030556,0.031483,40.267547,515.407800,1.529250,-5.160267,0.914825,0.003798
1573525487.813387,0.121216,-0.047553,0.016456,-0.009688,-0.030409,0.031501,39.587531,515.522517,1.526158,-5.146020,0.732493,-0.010477
1573525487.967777,0.120894,-0.047176,0.016489,-0.009841,-0.030113,0.031245,38.794853,515.618078,1.519915,-5.133484,0.536223,-0.038753
1573525488.097247,0.120311,-0.046805,0.016533,-0.009897,-0.029943,0.031824,38.126472,515.674528,1.511413,-5.149593,0.354393,-0.034493
1573525488.221717,0.119429,-0.047338,0.016608,-0.010194,-0.029816,0.031141,37.519496,515.678248,1.501019,-5.115189,0.169081,-0.049938
1573525488.351187,0.118094,-0.045333,0.016522,-0.010025,-0.029131,0.031163,36.829423,515.691937,1.492647,-5.122501,-0.007033,-0.046137
1573525488.475687,0.117398,-0.042962,0.016408,-0.009977,-0.028399,0.031266,36.180109,515.679165,1.486605,-5.117481,-0.176937,-0.063198
1573525488.635027,0.116524,-0.044094,0.016418,-0.010121,-0.028353,0.031139,35.390825,515.619468,1.476423,-5.074035,-0.367936,-0.051196
1573525488.759517,0.117176,-0.043008,0.016460,-0.010047,-0.028387,0.031589,34.762640,515.562801,1.468794,-5.070194,-0.534447,-0.052744
1573525488.884037,0.117393,-0.041517,0.016433,-0.010047,-0.027924,0.031821,34.116403,515.492631,1.461568,-5.067509,-0.689436,-0.059154
1573525489.013507,0.117070,-0.040181,0.016368,-0.009916,-0.027624,0.032630,33.438554,515.400404,1.453121,-5.033493,-0.797956,-0.060512
1573525489.108127,0.114926,-0.038459,0.016159,-0.009704,-0.026621,0.032660,32.939017,515.318347,1.452442,-5.004271,-0.904506,-0.002298
1573525489.297357,0.113617,-0.036849,0.015968,-0.009455,-0.025815,0.032474,31.971453,515.117617,1.459946,-4.943071,-1.214146,0.015958
1573525489.411897,0.112329,-0.033908,0.015801,-0.009105,-0.025010,0.032717,31.372099,514.973417,1.461092,-4.931702,-1.342536,-0.003962
1573525489.551327,0.110754,-0.032135,0.015651,-0.009297,-0.024509,0.033800,30.681589,514.770916,1.461107,-4.939932,-1.480570,-0.022585
1573525489.675817,0.110184,-0.029765,0.015640,-0.009370,-0.024210,0.034659,30.067525,514.579908,1.458311,-4.915998,-1.576599,-0.000824
1573525489.835177,0.108875,-0.027408,0.015544,-0.009547,-0.023674,0.034812,29.291708,514.311347,1.458412,-4.770194,-1.758987,-0.003448
1573525489.959667,0.107777,-0.025014,0.015493,-0.009458,-0.023122,0.034960,28.673065,514.084062,1.453395,-4.708787,-1.883287,-0.003159
1573525490.084167,0.107693,-0.024941,0.015483,-0.009708,-0.022913,0.035358,28.099411,513.843734,1.453124,-4.606429,-1.993773,-0.023180
1573525490.213647,0.110398,-0.024305,0.015662,-0.010120,-0.023228,0.036071,27.556504,513.588679,1.450763,-4.485647,-2.089177,-0.045011
1573525490.372997,0.109089,-0.022670,0.015569,-0.009956,-0.022705,0.036046,26.827030,513.246167,1.442142,-4.250648,-2.138044,-0.018400
1573525490.497487,0.110771,-0.021089,0.015640,-0.009976,-0.022675,0.036719,26.315561,512.991155,1.440701,-3.982239,-2.106041,0.016558
1573525490.621977,0.111226,-0.021379,0.015663,-0.010064,-0.022761,0.037294,25.840966,512.733795,1.444462,-3.731465,-2.067091,0.027013
1573525490.751447,0.109987,-0.019581,0.015590,-0.009912,-0.022173,0.037378,25.343987,512.460206,1.442268,-3.516465,-2.039540,-0.011356
1573525490.875927,0.107918,-0.018629,0.015466,-0.009940,-0.021741,0.037730,24.893787,512.197181,1.438795,-3.337628,-2.011265,-0.017486
1573525491.035287,0.107149,-0.019224,0.015431,-0.009884,-0.021518,0.037891,24.367362,511.874642,1.438824,-3.087773,-1.952242,0.025278
1573525491.095047,0.104280,-0.020768,0.015281,-0.009824,-0.021207,0.037598,24.164976,511.741428,1.440623,-2.997279,-1.935256,0.017981
1573525491.284277,0.103916,-0.021150,0.015284,-0.010021,-0.020955,0.037267,23.618196,511.383069,1.440312,-2.675535,-1.810880,-0.000429
1573525491.413747,0.103141,-0.022556,0.015323,-0.010254,-0.021365,0.037388,23.293906,511.155949,1.441109,-2.457663,-1.696189,0.002919
1573525491.568117,0.102542,-0.023051,0.015341,-0.010520,-0.021537,0.037446,22.945528,510.910691,1.442778,-2.222058,-1.526046,0.006410
1573525491.697577,0.101361,-0.024746,0.015319,-0.010867,-0.021944,0.037611,22.671390,510.719518,1.444714,-2.036086,-1.385891,0.007114
1573525491.822067,0.100576,-0.026294,0.015302,-0.011173,-0.022314,0.037166,22.425189,510.552394,1.446223,-1.887097,-1.236427,0.001924
1573525491.951537,0.099361,-0.027977,0.015235,-0.011427,-0.022186,0.036310,22.192775,510.396227,1.449317,-1.722186,-1.105723,0.004812
1573525492.076027,0.097143,-0.030284,0.015115,-0.011788,-0.022298,0.036103,21.972808,510.248987,1.452807,-1.580121,-1.019788,0.010233
1573525492.235387,0.096209,-0.031878,0.015136,-0.011918,-0.022607,0.035272,21.730210,510.089345,1.453528,-1.413909,-0.908623,0.009769
1573525492.359877,0.095706,-0.032567,0.015131,-0.012053,-0.022593,0.034645,21.559959,509.978620,1.455157,-1.285365,-0.825326,0.016046
1573525492.484347,0.095210,-0.036101,0.015132,-0.011980,-0.022650,0.032971,21.398815,509.870002,1.457530,-1.167530,-0.751331,0.016738
1573525492.613827,0.094372,-0.038635,0.015108,-0.012015,-0.022829,0.031745,21.249472,509.768812,1.460426,-1.044245,-0.675019,0.016267
1573525492.768197,0.094543,-0.041728,0.015148,-0.011860,-0.023152,0.030215,21.096181,509.668578,1.462100,-0.916811,-0.582586,0.016507
1573525492.897667,0.094356,-0.044150,0.015178,-0.011832,-0.023560,0.029241,20.980976,509.592212,1.463286,-0.816962,-0.525422,0.014234
1573525493.022147,0.094369,-0.046331,0.015216,-0.011715,-0.023994,0.028296,20.886647,509.529699,1.464231,-0.726279,-0.470168,0.014278
1573525493.151617,0.094140,-0.046848,0.015225,-0.011803,-0.024107,0.028144,20.798954,509.472391,1.465585,-0.638996,-0.410586,0.011922
1573525493.276107,0.094213,-0.048187,0.015278,-0.011747,-0.024416,0.027677,20.728206,509.426533,1.465133,-0.554200,-0.352977,0.007812
1573525493.435447,0.093857,-0.048771,0.015281,-0.011713,-0.024571,0.027393,20.648194,509.373000,1.466308,-0.444912,-0.287457,0.009161
1573525493.559937,0.094257,-0.049787,0.015359,-0.011556,-0.024738,0.027033,20.603279,509.344356,1.464941,-0.355471,-0.231941,0.008272
1573525493.684427,0.094394,-0.049950,0.015379,-0.011568,-0.024831,0.027004,20.565780,509.321116,1.465156,-0.266830,-0.172598,0.007656
1573525493.813897,0.094188,-0.049672,0.015395,-0.011614,-0.024863,0.027088,20.540964,509.304772,1.465979,-0.174489,-0.108548,0.006868
1573525493.973247,0.094327,-0.050017,0.015425,-0.011577,-0.025012,0.027032,20.524285,509.294566,1.466314,-0.054456,-0.032269,0.006797
1573525494.032987,0.094591,-0.050760,0.015465,-0.011466,-0.025201,0.026514,20.524173,509.295100,1.465340,-0.006611,-0.000974,0.006313
1573525494.222207,0.094778,-0.051638,0.015497,-0.011400,-0.025398,0.025966,20.529175,509.297737,1.467655,0.002250,-0.002111,0.023441
1573525494.351697,0.094941,-0.052396,0.015525,-0.011362,-0.025551,0.025348,20.530369,509.298153,1.468903,-0.003628,0.002579,0.004375
1573525494.476167,0.095065,-0.053082,0.015547,-0.011301,-0.025691,0.024731,20.530995,509.298972,1.468275,-0.010620,0.001405,0.001693
1573525494.635527,0.095148,-0.053638,0.015568,-0.011233,-0.025824,0.024018,20.530600,509.299132,1.468202,0.000385,0.006667,0.002191
1573525494.695267,0.095234,-0.054166,0.015586,-0.011153,-0.025951,0.023378,20.531119,509.299194,1.467710,0.002271,0.006257,0.002827
1573525494.884507,0.095281,-0.054634,0.015604,-0.011071,-0.026045,0.022767,20.530703,509.299480,1.467554,-0.002580,0.009565,-0.000195
1573525495.028917,0.095258,-0.054867,0.015618,-0.010975,-0.026099,0.022162,20.531000,509.299893,1.466882,0.001969,0.007128,0.003719
1573525495.233077,0.095386,-0.055103,0.015639,-0.010777,-0.026111,0.021428,20.532028,509.302412,1.465324,0.003407,0.013426,0.000761
1573525495.297807,0.095404,-0.055463,0.015645,-0.010747,-0.026187,0.020903,20.531668,509.301790,1.465436,0.005322,0.011384,0.001750
1573525495.362547,0.095343,-0.055608,0.015648,-0.010705,-0.026241,0.020359,20.531180,509.300893,1.465419,0.003898,0.010679,0.000582
1573525495.551767,0.095264,-0.055727,0.015653,-0.010679,-0.026279,0.019818,20.531338,509.301433,1.465331,0.007151,0.012535,0.000958
1573525495.676237,0.095173,-0.055842,0.015656,-0.010651,-0.026327,0.019242,20.531139,509.301263,1.465218,0.005729,0.013962,-0.000406
1573525495.835597,0.095088,-0.055993,0.015659,-0.010627,-0.026399,0.018624,20.531197,509.301385,1.465165,0.006457,0.013951,0.000787
1573525495.960067,0.095005,-0.056137,0.015662,-0.010613,-0.026464,0.018076,20.530962,509.301003,1.465173,0.005066,0.014789,-0.000232
1573525496.084557,0.094880,-0.056084,0.015665,-0.010585,-0.026514,0.017525,20.531014,509.300978,1.464722,0.005448,0.015632,0.000032
1573525496.214037,0.094838,-0.056347,0.015668,-0.010609,-0.026588,0.017066,20.530616,509.300802,1.465008,0.006243,0.015462,-0.000350
1573525496.393307,0.094724,-0.056279,0.015670,-0.010579,-0.026605,0.016551,20.531224,509.301755,1.464550,0.006817,0.016167,-0.000096
1573525496.497857,0.094654,-0.056445,0.015669,-0.010594,-0.026635,0.016070,20.530865,509.301085,1.464919,0.008750,0.016556,-0.000392
1573525496.622357,0.093774,-0.054629,0.015640,-0.010634,-0.026447,0.015350,20.530918,509.301098,1.464079,0.006105,0.013612,-0.000360
1573525496.751827,0.094485,-0.056477,0.015673,-0.010547,-0.026673,0.014988,20.531077,509.300851,1.464572,0.010207,0.016769,-0.001273
1573525496.876307,0.094398,-0.056446,0.015673,-0.010535,-0.026679,0.014528,20.530922,509.300632,1.464585,0.008636,0.016309,-0.000989
1573525497.035657,0.094344,-0.056346,0.015676,-0.010448,-0.026715,0.014028,20.531531,509.301283,1.463956,0.009598,0.017772,-0.001031
1573525497.095427,0.094322,-0.056509,0.015680,-0.010436,-0.026766,0.013644,20.530306,509.299791,1.464262,0.009688,0.015841,-0.000963
1573525497.224897,0.094262,-0.056527,0.015682,-0.010420,-0.026811,0.013234,20.530077,509.299725,1.464131,0.010390,0.016368,-0.001118
1573525497.414117,0.094222,-0.056583,0.015683,-0.010418,-0.026875,0.012867,20.530604,509.300782,1.464073,0.011060,0.018362,-0.000847
1573525497.538607,0.094173,-0.056582,0.015685,-0.010396,-0.026946,0.012437,20.530526,509.300863,1.464052,0.010572,0.017498,-0.000834
1573525497.633207,0.094168,-0.056663,0.015688,-0.010354,-0.027002,0.012001,20.530091,509.300324,1.463972,0.010307,0.017529,-0.000703
1573525497.762687,0.094125,-0.056626,0.015689,-0.010312,-0.027039,0.011527,20.530187,509.300505,1.463874,0.010195,0.017482,-0.000849
1573525497.976807,0.093400,-0.055025,0.015666,-0.010325,-0.026885,0.010920,20.530997,509.302114,1.462958,0.007436,0.015461,-0.001255
1573525498.076377,0.094085,-0.056747,0.015695,-0.010248,-0.027131,0.010679,20.530563,509.301325,1.463597,0.009666,0.017663,-0.002041
1573525498.235737,0.094054,-0.056734,0.015694,-0.010202,-0.027150,0.010236,20.530904,509.301689,1.463636,0.010887,0.017727,-0.001605
1573525498.295497,0.094020,-0.056725,0.015699,-0.010166,-0.027166,0.009847,20.530034,509.300383,1.463707,0.010381,0.016184,-0.001486
1573525498.424967,0.093969,-0.056745,0.015703,-0.010156,-0.027181,0.009473,20.529835,509.300365,1.463524,0.010389,0.016914,-0.001858
1573525498.678927,0.093904,-0.056591,0.015704,-0.010105,-0.027205,0.009012,20.531559,509.302968,1.462699,0.009995,0.018564,-0.001578
1573525498.808397,0.093891,-0.056646,0.015707,-0.010064,-0.027247,0.008639,20.531408,509.302986,1.462432,0.010509,0.018185,-0.000668
1573525498.898027,0.093872,-0.056811,0.015708,-0.010072,-0.027286,0.008320,20.530460,509.301885,1.462917,0.010498,0.018313,-0.001770
1573525498.972727,0.093841,-0.056804,0.015706,-0.010041,-0.027318,0.007996,20.529724,509.300740,1.463014,0.008921,0.018123,-0.004029
1573525499.211747,0.093786,-0.056654,0.015709,-0.009994,-0.027320,0.007556,20.530336,509.301963,1.462378,0.002429,0.013334,-0.000178
1573525499.276487,0.093742,-0.056778,0.015707,-0.010012,-0.027330,0.007188,20.528783,509.300076,1.463063,0.001390,0.014868,-0.002927
1573525499.495587,0.093076,-0.055221,0.015683,-0.010002,-0.027150,0.006583,20.526536,509.299570,1.462122,-0.014808,-0.000499,-0.001913
1573525499.560327,0.093731,-0.056828,0.015711,-0.009927,-0.027399,0.006379,20.524919,509.297349,1.462987,-0.009869,0.003373,-0.001428
1573525499.635027,0.093705,-0.056888,0.015715,-0.009929,-0.027432,0.005943,20.522952,509.295568,1.463137,-0.009960,0.006671,-0.000319
1573525499.814287,0.093699,-0.056983,0.015716,-0.009924,-0.027475,0.005575,20.519956,509.294457,1.462959,-0.004032,0.004103,-0.001947
1573525499.998537,0.093689,-0.056855,0.015718,-0.009859,-0.027497,0.005218,20.515950,509.292193,1.462383,-0.036850,-0.010301,-0.001065
1573525500.098137,0.093680,-0.056996,0.015719,-0.009874,-0.027535,0.004958,20.508237,509.287285,1.462663,-0.071790,-0.034260,-0.000640
1573525500.162867,0.093699,-0.057049,0.015720,-0.009822,-0.027558,0.004700,20.500992,509.281931,1.462635,-0.098058,-0.053975,-0.001003
1573525500.357067,0.093657,-0.057002,0.015722,-0.009815,-0.027551,0.004549,20.473494,509.264561,1.462797,-0.166013,-0.099371,-0.000088
1573525500.476577,0.093036,-0.055388,0.015700,-0.009907,-0.027309,0.004571,20.451222,509.250077,1.463762,-0.222937,-0.133165,-0.003194
1573525500.635917,0.092886,-0.054847,0.015682,-0.009871,-0.027346,0.004504,20.408256,509.223068,1.463512,-0.312712,-0.192442,-0.000826
1573525500.760407,0.092760,-0.054487,0.015669,-0.009846,-0.027368,0.004488,20.363234,509.193514,1.463796,-0.399270,-0.255922,0.002187
1573525500.889877,0.092597,-0.054278,0.015651,-0.009875,-0.027447,0.004390,20.304187,509.153876,1.464536,-0.502739,-0.326282,0.003972
1573525501.014367,0.092511,-0.053965,0.015639,-0.009848,-0.027453,0.004215,20.234134,509.107606,1.464813,-0.622175,-0.397389,-0.000253
1573525501.203567,0.091821,-0.052285,0.015602,-0.010076,-0.027151,0.004475,20.097780,509.020296,1.466243,-0.826242,-0.522073,-0.004653
1573525501.298177,0.091655,-0.051646,0.015605,-0.010089,-0.027110,0.004293,20.015674,508.968403,1.465032,-0.935279,-0.595318,-0.004549
1573525501.422677,0.091213,-0.050006,0.015580,-0.010254,-0.026795,0.004672,19.891397,508.888856,1.465673,-1.082809,-0.700239,0.000997
1573525501.596957,0.091111,-0.049697,0.015578,-0.010243,-0.026829,0.004771,19.682428,508.754207,1.466074,-1.311831,-0.851692,0.003418
1573525501.676627,0.090517,-0.047704,0.015539,-0.010265,-0.026698,0.005696,19.574801,508.683525,1.466775,-1.421258,-0.927477,0.005173
1573525501.821027,0.090238,-0.046466,0.015524,-0.010328,-0.026606,0.006767,19.353636,508.542355,1.466747,-1.602242,-1.034966,0.005387
1573525501.960447,0.089659,-0.044755,0.015504,-0.010456,-0.026526,0.008058,19.120933,508.392321,1.467563,-1.727573,-1.122932,0.002495
1573525502.089917,0.088945,-0.042744,0.015470,-0.010599,-0.026377,0.009281,18.890390,508.243466,1.467465,-1.851300,-1.198062,-0.002217
1573525502.214397,0.088468,-0.041210,0.015441,-0.010846,-0.026064,0.010150,18.651862,508.091653,1.467692,-2.000317,-1.285185,-0.006122
1573525502.403627,0.088034,-0.039951,0.015411,-0.011141,-0.025870,0.010971,18.254978,507.837980,1.467887,-2.185873,-1.404520,0.001204
1573525502.498237,0.087776,-0.039094,0.015366,-0.011427,-0.025778,0.011762,18.044352,507.702024,1.470684,-2.268012,-1.467263,0.001597
1573525502.622727,0.087617,-0.038568,0.015325,-0.011666,-0.025555,0.012170,17.755954,507.514084,1.472823,-2.370611,-1.538629,-0.001190
1573525502.757177,0.087284,-0.037850,0.015279,-0.011883,-0.025303,0.012563,17.429592,507.299544,1.475730,-2.491016,-1.607750,0.003039
1573525502.876687,0.086919,-0.037322,0.015279,-0.012147,-0.025282,0.013069,17.127802,507.101736,1.477237,-2.573748,-1.661352,0.007530
1573525503.001177,0.086917,-0.037535,0.015317,-0.012323,-0.025327,0.013380,16.803708,506.891532,1.477239,-2.619625,-1.697942,0.002866
1573525503.160527,0.086855,-0.037389,0.015315,-0.012488,-0.025168,0.013719,16.385035,506.622281,1.476739,-2.604249,-1.675668,-0.008094
1573525503.289977,0.086925,-0.037352,0.015327,-0.012704,-0.025446,0.014263,16.046723,506.409276,1.475559,-2.601583,-1.664788,-0.003188
1573525503.414467,0.086872,-0.037418,0.015353,-0.012903,-0.025776,0.015424,15.724405,506.202177,1.475267,-2.592308,-1.671597,0.002365
1573525503.538967,0.086728,-0.037631,0.015355,-0.013244,-0.026013,0.015993,15.401509,505.992825,1.475394,-2.615919,-1.679437,-0.007640
1573525503.698317,0.086659,-0.037915,0.015351,-0.013367,-0.026311,0.016618,14.977456,505.717972,1.475742,-2.734759,-1.761542,0.002716
1573525503.822807,0.086276,-0.037712,0.015320,-0.013757,-0.026481,0.017130,14.628946,505.491043,1.477818,-2.806717,-1.803136,0.009980
1573525503.952277,0.086131,-0.037925,0.015311,-0.013874,-0.026549,0.016991,14.263746,505.252380,1.479930,-2.858346,-1.844492,0.005018
1573525504.076767,0.086021,-0.038089,0.015305,-0.013899,-0.026509,0.016958,13.903636,505.015856,1.481680,-2.951274,-1.906796,0.008277
1573525504.201257,0.085830,-0.037932,0.015287,-0.013951,-0.026579,0.017610,13.530918,504.771233,1.484022,-3.054187,-1.983640,0.011687
1573525504.360617,0.085627,-0.038172,0.015327,-0.014038,-0.026797,0.018040,13.028682,504.442243,1.483870,-3.246113,-2.110187,-0.002322
1573525504.490077,0.085416,-0.038286,0.015366,-0.014211,-0.027028,0.018427,12.594126,504.159102,1.480966,-3.426471,-2.221371,-0.010454
1573525504.614577,0.085215,-0.038486,0.015373,-0.014344,-0.027259,0.018639,12.157488,503.871669,1.479947,-3.578631,-2.326012,0.002260
1573525504.739067,0.085294,-0.038882,0.015420,-0.014343,-0.027452,0.019237,11.704098,503.577157,1.477841,-3.743861,-2.435010,-0.001409
1573525504.898417,0.085288,-0.039279,0.015442,-0.014343,-0.027774,0.019665,11.092879,503.176788,1.477363,-3.955693,-2.587064,0.000973
1573525505.022907,0.085239,-0.039472,0.015438,-0.014379,-0.028044,0.020113,10.588922,502.845899,1.476285,-4.127946,-2.701616,-0.023730
1573525505.152387,0.085098,-0.039763,0.015471,-0.014452,-0.028496,0.020758,10.040206,502.486472,1.470922,-4.313552,-2.807619,-0.027290
1573525505.276877,0.085080,-0.039908,0.015501,-0.014317,-0.028567,0.021320,9.494152,502.128420,1.466582,-4.455025,-2.909829,-0.019934
1573525505.401357,0.085171,-0.040159,0.015554,-0.014383,-0.028566,0.021809,8.935889,501.762397,1.462401,-4.566581,-2.995811,-0.027135
1573525505.560707,0.085337,-0.040491,0.015571,-0.014312,-0.028422,0.022299,8.205493,501.277385,1.457692,-4.687393,-3.083446,-0.031573
1573525505.670277,0.085469,-0.040733,0.015571,-0.013990,-0.028367,0.023050,7.693268,500.932538,1.454910,-4.771943,-3.145210,-0.030813
1573525505.814697,0.085655,-0.041165,0.015573,-0.013688,-0.028393,0.023269,7.005972,500.468727,1.451643,-4.863451,-3.228063,-0.028324
1573525505.939187,0.085853,-0.041510,0.015581,-0.013505,-0.028233,0.023487,6.404064,500.061077,1.448834,-4.937537,-3.293538,-0.026748
1573525506.098537,0.085941,-0.041962,0.015588,-0.013497,-0.028541,0.023536,5.614573,499.528281,1.446118,-5.044123,-3.367824,-0.023898
1573525506.223017,0.086050,-0.042365,0.015581,-0.012943,-0.028564,0.023259,4.987210,499.096296,1.443345,-5.111552,-3.419597,-0.021264
1573525506.352487,0.085741,-0.042240,0.015572,-0.012724,-0.029083,0.023407,4.306669,498.638929,1.439620,-5.204749,-3.483754,-0.020472
1573525506.476967,0.085641,-0.042338,0.015559,-0.012679,-0.029303,0.022906,3.647490,498.196217,1.436942,-5.286820,-3.537879,-0.026232
1573525506.606447,0.085552,-0.042273,0.015548,-0.012796,-0.029592,0.023031,2.951420,497.735858,1.434365,-5.354398,-3.565310,-0.012426
1573525506.760817,0.085593,-0.042343,0.015552,-0.012497,-0.029819,0.023162,2.115962,497.175608,1.429834,-5.458576,-3.640388,-0.036748
1573525506.870367,0.085546,-0.042428,0.015547,-0.012382,-0.030166,0.023299,1.510142,496.771500,1.424872,-5.519506,-3.670959,-0.050349
1573525507.014777,0.085644,-0.042567,0.015553,-0.012261,-0.030273,0.023285,0.704510,496.240345,1.417722,-5.608265,-3.709075,-0.038988
1573525507.139267,0.085993,-0.043047,0.015610,-0.012025,-0.030297,0.024068,0.018614,495.781001,1.410786,-5.626537,-3.731385,-0.041264
1573525507.298617,0.086369,-0.043306,0.015638,-0.011267,-0.030046,0.024434,-0.866089,495.179269,1.402994,-5.626597,-3.763002,-0.053246
1573525507.423097,0.086555,-0.043232,0.015632,-0.011010,-0.029935,0.025333,-1.562347,494.712422,1.397406,-5.621548,-3.767003,-0.047211
1573525507.547607,0.086602,-0.043225,0.015640,-0.010669,-0.029730,0.025083,-2.262665,494.239523,1.390712,-5.618213,-3.759035,-0.035109
1573525507.677077,0.086816,-0.043308,0.015634,-0.010436,-0.029932,0.025879,-2.984421,493.756222,1.387322,-5.603878,-3.756592,-0.029509
1573525507.806547,0.086885,-0.043177,0.015615,-0.010378,-0.029808,0.026197,-3.710132,493.271800,1.384561,-5.596940,-3.758355,-0.026020
1573525507.960887,0.086874,-0.043041,0.015608,-0.010404,-0.029951,0.027049,-4.580371,492.692637,1.379321,-5.658407,-3.786597,-0.043143
1573525508.035597,0.086916,-0.042838,0.015579,-0.010210,-0.030118,0.027937,-5.006401,492.407893,1.377786,-5.671503,-3.809640,-0.030650
1573525508.214847,0.086516,-0.042760,0.015611,-0.010504,-0.030737,0.028397,-6.037507,491.715339,1.372030,-5.689704,-3.857304,-0.001777
1573525508.339347,0.086388,-0.042371,0.015590,-0.010339,-0.030677,0.028701,-6.760933,491.230416,1.371531,-5.743899,-3.879625,-0.009516
1573525508.468817,0.086295,-0.042305,0.015606,-0.010411,-0.030865,0.029129,-7.516528,490.725245,1.369146,-5.835844,-3.945375,-0.011888
1573525508.623187,0.086244,-0.042367,0.015646,-0.010724,-0.030885,0.029411,-8.427299,490.116831,1.366946,-5.936277,-4.027641,0.015864
1573525508.687927,0.086350,-0.042485,0.015674,-0.010938,-0.030774,0.029794,-8.805634,489.863460,1.367375,-5.965913,-4.047345,0.025211
1573525508.877137,0.086580,-0.042758,0.015682,-0.010997,-0.031027,0.030583,-9.935006,489.103145,1.369892,-6.096253,-4.095047,-0.000102
1573525509.006617,0.086855,-0.042899,0.015679,-0.010986,-0.030842,0.031070,-10.718152,488.577982,1.370568,-6.189411,-4.153640,-0.001633
1573525509.160977,0.086761,-0.042911,0.015703,-0.011037,-0.030911,0.031000,-11.684312,487.926483,1.370166,-6.288157,-4.217797,0.024912
1573525509.290447,0.086855,-0.042875,0.015686,-0.010895,-0.030919,0.031583,-12.500922,487.377223,1.373509,-6.384621,-4.267451,0.005614
1573525509.414917,0.086648,-0.042599,0.015671,-0.011040,-0.030776,0.031569,-13.312811,486.836039,1.373806,-6.487576,-4.340927,0.005662
1573525509.539407,0.086848,-0.042789,0.015671,-0.010911,-0.030749,0.031524,-14.113827,486.295194,1.376608,-6.547947,-4.388209,0.031621
1573525509.668887,0.086861,-0.042752,0.015669,-0.010880,-0.030745,0.031720,-14.965763,485.724269,1.381514,-6.606569,-4.413315,0.042168
1573525509.823237,0.086717,-0.042628,0.015647,-0.010955,-0.030839,0.031710,-15.999881,485.032170,1.388176,-6.689783,-4.476838,0.037168
1573525509.912877,0.086705,-0.042612,0.015585,-0.010972,-0.031039,0.032082,-16.603766,484.626720,1.394733,-6.758575,-4.532470,0.047491
1573525510.077187,0.086339,-0.042274,0.015504,-0.011639,-0.031052,0.032514,-17.736984,483.878037,1.405765,-6.853288,-4.567900,0.051609
1573525510.206657,0.086532,-0.042286,0.015468,-0.011422,-0.030938,0.032919,-18.618740,483.287452,1.415068,-6.899251,-4.591443,0.038045
1573525510.361037,0.086485,-0.042226,0.015428,-0.011515,-0.031048,0.033360,-19.691889,482.574871,1.422725,-6.985328,-4.638960,0.031092
1573525510.435727,0.086545,-0.042150,0.015449,-0.011383,-0.030866,0.033514,-20.212240,482.223943,1.424810,-7.013259,-4.668962,0.036046
1573525510.614997,0.086599,-0.042141,0.015451,-0.011152,-0.031108,0.034151,-21.477458,481.379790,1.431633,-7.107005,-4.698603,0.033418
1573525510.739467,0.086433,-0.041929,0.015467,-0.011181,-0.031253,0.034750,-22.377260,480.783689,1.433986,-7.167662,-4.737462,0.029998
1573525510.868937,0.086293,-0.041864,0.015466,-0.011310,-0.031458,0.035029,-23.319713,480.163608,1.436990,-7.238557,-4.797428,0.035683
1573525510.978507,0.086523,-0.042115,0.015480,-0.011204,-0.031439,0.034886,-24.096256,479.642161,1.441833,-7.265294,-4.813140,0.044843
1573525511.088067,0.086796,-0.042295,0.015491,-0.010985,-0.031506,0.035414,-24.880177,479.120226,1.446427,-7.299029,-4.834429,0.034514
1573525511.277267,0.086730,-0.042160,0.015526,-0.010985,-0.031533,0.035811,-26.275295,478.196238,1.449574,-7.389471,-4.896246,0.033109
1573525511.406747,0.086763,-0.042036,0.015540,-0.010765,-0.031442,0.036070,-27.238895,477.555491,1.453387,-7.435341,-4.931825,0.042843
1573525511.561117,0.086560,-0.041913,0.015548,-0.011130,-0.031564,0.036472,-28.401797,476.793505,1.456148,-7.513880,-4.970423,0.028582
1573525511.645767,0.086617,-0.041886,0.015554,-0.011239,-0.031407,0.036795,-29.030303,476.377434,1.460147,-7.528713,-4.998838,0.043840
1573525511.815067,0.086622,-0.041899,0.015523,-0.011330,-0.031436,0.036998,-30.307722,475.530262,1.469483,-7.591762,-5.030955,0.042143
1573525511.939557,0.086633,-0.041962,0.015495,-0.011456,-0.031411,0.036890,-31.250076,474.904557,1.478772,-7.635952,-5.072579,0.054931
1573525512.069007,0.086779,-0.041929,0.015475,-0.011171,-0.031305,0.037148,-32.235383,474.238797,1.486787,-7.687124,-5.129412,0.035225
