1573538003.227609,0.001138,0.000959,0.006111,-0.007371,0.072117,-0.073282,0.829624,-0.007305,-0.007171,1.033716,0.010078,-0.030891
1573538003.352169,0.003294,0.002763,0.005881,-0.006927,0.072334,-0.072974,0.960648,-0.010384,-0.008851,1.136234,0.001286,-0.029343
1573538003.416939,0.002471,0.004570,0.005790,-0.007475,0.073253,-0.078343,1.033873,-0.011141,-0.010406,1.182157,-0.010614,-0.019838
1573538003.476729,0.004873,0.006834,0.005947,-0.009345,0.073914,-0.076321,1.104684,-0.014283,-0.012576,1.230846,-0.023935,-0.017863
1573538003.541499,0.011432,0.009231,0.006114,-0.010749,0.075046,-0.078886,1.183014,-0.016854,-0.015103,1.286023,-0.021711,-0.021196
1573538003.636169,0.019723,0.010428,0.006327,-0.011931,0.075929,-0.079687,1.306915,-0.019087,-0.019030,1.354559,-0.022934,-0.025547
1573538003.760729,0.035641,0.012980,0.006535,-0.013242,0.077409,-0.082638,1.477285,-0.021422,-0.024913,1.452626,-0.000276,-0.032466
1573538003.890279,0.058925,0.017693,0.006807,-0.015072,0.078480,-0.084827,1.671883,-0.020766,-0.033889,1.586246,0.005661,-0.047355
1573538004.079609,0.073455,0.019749,0.007023,-0.016665,0.079166,-0.088328,1.986595,-0.025087,-0.045716,1.771683,-0.053349,-0.035201
1573538004.204179,0.079111,0.021201,0.007044,-0.017930,0.080021,-0.089850,2.221552,-0.034181,-0.049671,1.892216,-0.067020,-0.020075
1573538004.363619,0.126819,0.022424,0.008124,-0.018506,0.079893,-0.090139,2.519838,-0.037479,-0.067444,2.084620,-0.054064,-0.055954
1573538004.418439,0.130937,0.024305,0.008083,-0.018333,0.079337,-0.090521,2.639188,-0.040046,-0.071454,2.166099,-0.061446,-0.055733
1573538004.587849,0.134558,0.027689,0.007982,-0.018147,0.078802,-0.091147,3.023424,-0.052064,-0.080553,2.339558,-0.105489,-0.041709
1573538004.742309,0.149109,0.051183,0.007619,-0.016996,0.077863,-0.093957,3.381869,-0.056775,-0.096191,2.409406,-0.053574,-0.089911
1573538004.807079,0.185670,0.097951,0.007593,-0.016898,0.077858,-0.094893,3.541208,-0.055911,-0.112255,2.437698,-0.010032,-0.099295
1573538004.961539,0.246180,0.147776,0.008431,-0.016419,0.077731,-0.095521,3.931986,-0.060807,-0.142972,2.577063,-0.094957,-0.073911
1573538005.091079,0.281807,0.166935,0.009243,-0.016402,0.077582,-0.095696,4.276460,-0.071068,-0.165210,2.728237,-0.098908,-0.092097
1573538005.215639,0.326886,0.169738,0.010559,-0.016094,0.076949,-0.097245,4.615825,-0.077354,-0.193512,2.781451,-0.058347,-0.125120
1573538005.340209,0.376234,0.159464,0.012108,-0.016038,0.077137,-0.098581,4.963378,-0.079271,-0.225712,2.846834,-0.043860,-0.133580
1573538005.504629,0.383113,0.119053,0.013355,-0.017766,0.078406,-0.098294,5.439298,-0.091919,-0.255017,2.948049,-0.133094,-0.159692
1573538005.624209,0.365868,0.077624,0.013904,-0.017337,0.077858,-0.096962,5.797729,-0.105879,-0.270526,2.993542,-0.120774,-0.175277
1573538005.753749,0.322738,0.058361,0.013321,-0.017185,0.077512,-0.097589,6.191595,-0.111786,-0.278791,3.045851,-0.026963,-0.138165
1573538005.878319,0.302830,0.058772,0.012833,-0.016538,0.076762,-0.098076,6.572780,-0.115265,-0.285826,3.072263,-0.059806,-0.089297
1573538006.002879,0.289875,0.061889,0.012474,-0.017853,0.077833,-0.098346,6.959256,-0.128429,-0.293666,3.137200,-0.159881,-0.104487
1573538006.162319,0.272810,0.078120,0.011625,-0.017240,0.078039,-0.099000,7.467000,-0.153388,-0.307861,3.220955,-0.108917,-0.152236
1573538006.291859,0.251689,0.095197,0.010646,-0.015843,0.077779,-0.099635,7.885407,-0.164565,-0.317297,3.197047,-0.029699,-0.130327
1573538006.481189,0.247396,0.099883,0.010306,-0.016330,0.077897,-0.100438,8.494404,-0.174424,-0.335969,3.258356,-0.073525,-0.107446
1573538006.540979,0.230101,0.110266,0.009601,-0.016744,0.077969,-0.102017,8.693745,-0.182719,-0.334157,3.308240,-0.122602,-0.097859
1573538006.700419,0.202850,0.123058,0.008606,-0.016543,0.078192,-0.103650,9.230205,-0.201770,-0.338723,3.380546,-0.119624,-0.080237
1573538006.824979,0.190805,0.131718,0.008094,-0.015928,0.078589,-0.105753,9.653176,-0.214609,-0.342682,3.340802,-0.095164,-0.080526
1573538006.954509,0.180220,0.125972,0.007933,-0.014933,0.078137,-0.107155,10.088438,-0.229241,-0.347880,3.331950,-0.112306,-0.068512
1573538007.079069,0.178669,0.120723,0.007986,-0.014722,0.078222,-0.106804,10.510377,-0.241014,-0.357642,3.447221,-0.088314,-0.089156
1573538007.203629,0.173136,0.121118,0.007691,-0.013436,0.078139,-0.107496,10.950107,-0.254436,-0.363967,3.499763,-0.079684,-0.083804
1573538007.363069,0.165057,0.120355,0.007365,-0.012581,0.078387,-0.108061,11.514869,-0.272954,-0.372869,3.484860,-0.127345,-0.097189
1573538007.487629,0.152099,0.120961,0.006929,-0.012098,0.078237,-0.108342,11.955660,-0.288217,-0.380083,3.513351,-0.116961,-0.090155
1573538007.617179,0.144699,0.122049,0.006604,-0.011326,0.077946,-0.108751,12.420113,-0.299610,-0.388134,3.604032,-0.053778,-0.088505
1573538007.741739,0.142310,0.120876,0.006448,-0.010476,0.078937,-0.107965,12.875088,-0.307451,-0.394911,3.633956,-0.061561,-0.066213
1573538007.901169,0.143252,0.109717,0.006678,-0.010020,0.079331,-0.107056,13.461000,-0.324523,-0.406800,3.601904,-0.116613,-0.082284
1573538008.025739,0.152440,0.087989,0.007490,-0.010524,0.079666,-0.105100,13.917513,-0.336699,-0.424022,3.628951,-0.072062,-0.081781
1573538008.210089,0.164799,0.066267,0.008285,-0.009775,0.079189,-0.103989,14.596091,-0.350442,-0.446521,3.700729,-0.096670,-0.091530
1573538008.299769,0.174347,0.047103,0.009043,-0.008986,0.078858,-0.103051,14.933041,-0.360426,-0.462356,3.733209,-0.109514,-0.123178
1573538008.409369,0.176865,0.043421,0.009401,-0.008085,0.078165,-0.102156,15.342203,-0.372339,-0.480167,3.722839,-0.068173,-0.138811
1573538008.533939,0.167654,0.041625,0.009290,-0.007899,0.077170,-0.102268,15.814873,-0.379160,-0.492659,3.750073,-0.027411,-0.100757
1573538008.628609,0.157769,0.040870,0.009154,-0.008782,0.077080,-0.100850,16.176419,-0.385631,-0.497200,3.789434,-0.065863,-0.077988
1573538008.817949,0.151862,0.041069,0.009045,-0.008374,0.076587,-0.100186,16.904277,-0.403661,-0.512727,3.845883,-0.079111,-0.110651
1573538009.007279,0.149780,0.041698,0.009019,-0.008150,0.076922,-0.099954,17.628070,-0.418340,-0.533037,3.795688,-0.064179,-0.114088
1573538009.072049,0.142925,0.043686,0.008806,-0.008067,0.076550,-0.099696,17.875812,-0.423314,-0.536674,3.801875,-0.049751,-0.107988
1573538009.226519,0.140237,0.044329,0.008680,-0.008771,0.076797,-0.099290,18.462915,-0.424664,-0.550416,3.781241,0.042226,-0.089778
1573538009.356049,0.135625,0.045366,0.008597,-0.010570,0.077341,-0.097684,18.953005,-0.428320,-0.558702,3.781597,-0.062702,-0.092464
1573538009.480619,0.137793,0.047458,0.008615,-0.011964,0.078070,-0.096018,19.414838,-0.440575,-0.571926,3.750019,-0.133549,-0.116958
1573538009.669959,0.137253,0.047530,0.008690,-0.010978,0.077466,-0.094701,20.122428,-0.452429,-0.594413,3.729065,0.045039,-0.103559
1573538009.734729,0.136025,0.051005,0.008540,-0.011371,0.077332,-0.092976,20.358612,-0.450876,-0.599490,3.717753,0.054779,-0.094632
1573538009.894169,0.137857,0.049820,0.008624,-0.012004,0.077984,-0.091390,20.947466,-0.445939,-0.613557,3.678210,0.048711,-0.082479
1573538010.018729,0.140766,0.045690,0.008684,-0.013026,0.077964,-0.088291,21.398568,-0.441526,-0.623994,3.646820,0.047753,-0.091875
1573538010.143289,0.147767,0.041882,0.008982,-0.013129,0.077530,-0.086763,21.849327,-0.439951,-0.641552,3.616998,0.016095,-0.118307
1573538010.367509,0.153896,0.038238,0.009172,-0.012380,0.076875,-0.085462,22.668994,-0.423255,-0.675548,3.631809,0.156842,-0.120228
1573538010.427299,0.176497,0.018446,0.009928,-0.012238,0.076727,-0.083553,22.887733,-0.417216,-0.692409,3.616633,0.128800,-0.108015
1573538010.556839,0.193610,-0.002353,0.010563,-0.011689,0.076809,-0.081142,23.348788,-0.403094,-0.711443,3.593440,0.064310,-0.071758
1573538010.681399,0.215657,-0.008352,0.011158,-0.011045,0.076274,-0.081124,23.803800,-0.390971,-0.731347,3.541692,0.185453,-0.094248
1573538010.805959,0.236576,0.002436,0.011603,-0.010821,0.075462,-0.081204,24.248126,-0.359877,-0.756514,3.544796,0.273928,-0.134069
1573538010.935509,0.274192,0.002012,0.012705,-0.011107,0.074840,-0.080574,24.719568,-0.329009,-0.794501,3.507922,0.224741,-0.129037
1573538011.089979,0.334350,-0.014123,0.014533,-0.011300,0.074644,-0.078915,25.262171,-0.295670,-0.841345,3.506589,0.266116,-0.145084
1573538011.219509,0.379236,-0.034764,0.016089,-0.011084,0.074865,-0.080142,25.727990,-0.255246,-0.882777,3.510537,0.265662,-0.163131
1573538011.408849,0.387509,-0.033802,0.016372,-0.010431,0.074681,-0.081041,26.408203,-0.202100,-0.915914,3.506055,0.319148,-0.130843
1573538011.468639,0.400381,0.009164,0.016269,-0.009755,0.074846,-0.081699,26.618289,-0.177941,-0.933269,3.482446,0.395476,-0.150017
1573538011.628079,0.411452,0.057048,0.016005,-0.010457,0.075964,-0.081399,27.170470,-0.107538,-0.970822,3.444430,0.450643,-0.203047
1573538011.752639,0.383631,0.108805,0.014482,-0.010839,0.075427,-0.082363,27.604304,-0.048734,-0.983627,3.462120,0.427908,-0.151493
1573538011.882179,0.310078,0.132390,0.011854,-0.010943,0.075680,-0.082809,28.045026,0.012109,-0.965742,3.392474,0.439777,-0.110751
1573538012.006749,0.234995,0.169310,0.009056,-0.010703,0.075486,-0.083901,28.464847,0.082642,-0.950652,3.361732,0.577286,-0.153772
1573538012.136289,0.185671,0.198272,0.007013,-0.010967,0.076070,-0.084887,28.895533,0.163410,-0.944501,3.344946,0.593390,-0.093487
1573538012.290759,0.109466,0.218517,0.004452,-0.010728,0.075829,-0.087904,29.408215,0.260971,-0.921267,3.335024,0.587957,-0.044741
1573538012.420299,0.060921,0.222021,0.003003,-0.011274,0.075995,-0.090641,29.838712,0.347635,-0.908562,3.299339,0.660521,-0.068170
1573538012.544859,0.020814,0.220680,0.001873,-0.011002,0.075850,-0.093334,30.243031,0.437539,-0.897529,3.252287,0.710725,-0.044007
1573538012.734189,0.019804,0.214974,0.001901,-0.011772,0.076150,-0.094137,30.845959,0.582949,-0.909355,3.216818,0.786964,-0.083730
1573538012.893619,-0.035046,0.193976,0.000684,-0.012028,0.075981,-0.096464,31.358365,0.709926,-0.888447,3.226313,0.689577,0.029617
1573538012.953409,-0.059057,0.181607,0.000201,-0.011623,0.075723,-0.097753,31.551438,0.756956,-0.876630,3.220970,0.748535,-0.005108
1573538013.082949,-0.085657,0.172050,-0.000397,-0.011216,0.075787,-0.099489,31.962574,0.857147,-0.862833,3.163577,0.740646,0.033757
1573538013.207509,-0.078695,0.177578,-0.000272,-0.011445,0.076374,-0.100373,32.347171,0.950427,-0.863434,3.097942,0.751085,0.034507
1573538013.366949,-0.107920,0.171441,-0.000988,-0.011156,0.076211,-0.101886,32.851010,1.074367,-0.843393,3.183280,0.743130,0.028130
1573538013.491509,-0.117598,0.180061,-0.001399,-0.010268,0.075851,-0.103413,33.250756,1.171751,-0.841285,3.160770,0.780450,-0.029165
1573538013.616069,-0.124567,0.184716,-0.001676,-0.009754,0.075552,-0.105324,33.644242,1.271813,-0.841407,3.128319,0.802846,-0.002620
1573538013.745609,-0.119014,0.176260,-0.001326,-0.009977,0.076306,-0.106249,34.045509,1.375860,-0.842206,3.114498,0.830523,0.010269
1573538013.870169,-0.124291,0.172367,-0.001341,-0.009552,0.076159,-0.107522,34.435775,1.482543,-0.842644,3.139993,0.804932,-0.024826
1573538014.029599,-0.119901,0.170540,-0.001126,-0.008840,0.076151,-0.108769,34.942847,1.601366,-0.846394,3.174229,0.737616,0.009731
1573538014.154169,-0.118752,0.165423,-0.001001,-0.007887,0.076169,-0.110130,35.330601,1.698278,-0.843026,3.057385,0.836303,0.033702
1573538014.283699,-0.115243,0.152856,-0.000597,-0.008002,0.075723,-0.109725,35.713105,1.809249,-0.840274,2.888621,0.887179,0.044693
1573538014.408269,-0.117883,0.128373,-0.000128,-0.008814,0.074918,-0.109774,36.059318,1.925993,-0.835475,2.842668,0.913938,0.041308
1573538014.532829,-0.112167,0.111790,0.000365,-0.009058,0.074553,-0.110389,36.414395,2.028890,-0.831696,2.930292,0.777453,0.029982
1573538014.692259,-0.105253,0.091936,0.000896,-0.009462,0.074524,-0.110326,36.870618,2.142354,-0.833289,2.901620,0.693806,-0.020611
1573538014.816829,-0.100156,0.083906,0.001187,-0.009328,0.074356,-0.111060,37.220654,2.221534,-0.839923,2.861439,0.655454,-0.054874
1573538014.946369,-0.093839,0.083774,0.001316,-0.008965,0.074373,-0.111712,37.588225,2.301823,-0.847412,2.908305,0.680648,-0.023121
1573538015.070939,-0.088716,0.086342,0.001380,-0.008734,0.074496,-0.112310,37.947996,2.388088,-0.849848,2.915148,0.751206,0.001254
1573538015.230379,-0.085770,0.090538,0.001355,-0.008986,0.074636,-0.112448,38.411018,2.501582,-0.845968,2.906592,0.722605,0.045310
1573538015.354939,-0.084138,0.100207,0.001201,-0.009273,0.074661,-0.113186,38.772124,2.594404,-0.844177,2.817566,0.784440,0.008443
1573538015.479499,-0.085860,0.107482,0.001009,-0.010093,0.075115,-0.113787,39.118059,2.690830,-0.844238,2.717818,0.785213,-0.007981
1573538015.609039,-0.087389,0.107603,0.000902,-0.010527,0.076153,-0.114352,39.467459,2.788630,-0.843914,2.739659,0.736084,-0.004995
1573538015.733599,-0.084253,0.111354,0.000912,-0.010781,0.076359,-0.114563,39.806261,2.868921,-0.843363,2.734124,0.586724,0.033817
1573538015.893039,-0.082658,0.112556,0.000979,-0.011162,0.076626,-0.114680,40.239296,2.953239,-0.840319,2.734096,0.523861,0.005913
1573538016.017599,-0.081298,0.111675,0.001128,-0.011307,0.076692,-0.114747,40.575331,3.021992,-0.846439,2.740467,0.638288,-0.084620
1573538016.142159,-0.082624,0.109337,0.001206,-0.011337,0.077412,-0.116132,40.916916,3.108472,-0.859577,2.747364,0.669428,-0.091984
1573538016.366359,-0.080720,0.108184,0.001394,-0.011811,0.077732,-0.116093,41.531401,3.246040,-0.876279,2.699303,0.665515,-0.026700
1573538016.426149,-0.082712,0.106257,0.001447,-0.012017,0.077788,-0.116277,41.689599,3.291052,-0.877756,2.633882,0.752183,0.010958
1573538016.555679,-0.083456,0.104581,0.001496,-0.012318,0.077712,-0.116839,42.023744,3.393695,-0.874307,2.566799,0.784405,0.021104
1573538016.680239,-0.086065,0.105880,0.001293,-0.012736,0.077830,-0.118271,42.343241,3.486302,-0.870721,2.571139,0.660242,0.031122
1573538016.809779,-0.087198,0.105450,0.001184,-0.013020,0.078073,-0.119066,42.673919,3.563862,-0.865386,2.604310,0.532001,0.031832
1573538016.994129,-0.089077,0.105541,0.001132,-0.013167,0.077930,-0.119469,43.146096,3.669038,-0.863909,2.478276,0.605119,0.004448
1573538017.093769,-0.092743,0.105707,0.000995,-0.012506,0.077718,-0.119687,43.389889,3.740758,-0.865590,2.412028,0.745674,-0.050617
1573538017.218339,-0.092700,0.111802,0.000830,-0.012420,0.077505,-0.119742,43.698362,3.835858,-0.871024,2.437531,0.746836,-0.050329
1573538017.342899,-0.091905,0.113208,0.000906,-0.012340,0.077557,-0.119977,44.009027,3.919298,-0.876033,2.502493,0.602592,0.006167
1573538017.532229,-0.090755,0.112017,0.001024,-0.012147,0.077611,-0.120024,44.484253,4.042897,-0.869987,2.458786,0.763525,0.042940
1573538017.596999,-0.090601,0.109738,0.001115,-0.012259,0.077643,-0.119852,44.640126,4.094576,-0.869064,2.395352,0.840827,0.021212
1573538017.756429,-0.090635,0.108777,0.001129,-0.012463,0.077680,-0.119652,45.013337,4.231080,-0.867680,2.304662,0.855703,0.003401
1573538017.880999,-0.091935,0.108548,0.001054,-0.012435,0.078021,-0.120042,45.297523,4.332050,-0.865404,2.304684,0.800527,0.011313
1573538018.005559,-0.092163,0.106020,0.001087,-0.012198,0.077387,-0.119442,45.578101,4.436224,-0.865270,2.257275,0.916329,0.004042
1573538018.135089,-0.093595,0.105060,0.001084,-0.012392,0.077111,-0.119051,45.859328,4.559965,-0.864203,2.164636,1.039431,0.000167
1573538018.289549,-0.095589,0.103799,0.001051,-0.012808,0.076980,-0.118638,46.179265,4.722221,-0.863892,2.098182,1.049322,-0.006522
1573538018.419079,-0.097526,0.100810,0.001139,-0.012934,0.076697,-0.118488,46.436549,4.858683,-0.870537,2.053222,1.055325,-0.045250
1573538018.543639,-0.098552,0.096195,0.001290,-0.013061,0.076329,-0.118529,46.678962,4.992292,-0.874309,2.010242,1.121576,-0.000288
1573538018.668199,-0.101804,0.092304,0.001361,-0.013181,0.075829,-0.118393,46.912169,5.139443,-0.872732,1.937178,1.217312,0.013737
1573538018.797739,-0.104308,0.089965,0.001433,-0.013547,0.075614,-0.118161,47.150481,5.296573,-0.873238,1.898438,1.200267,0.012892
1573538018.957169,-0.105351,0.088084,0.001527,-0.013863,0.075534,-0.117387,47.443896,5.485399,-0.871420,1.879545,1.211008,0.020582
1573538019.081729,-0.109329,0.086995,0.001558,-0.013612,0.074840,-0.117805,47.667116,5.641601,-0.869677,1.830944,1.271691,0.031673
1573538019.206289,-0.113465,0.087978,0.001467,-0.013500,0.074255,-0.118487,47.888792,5.806689,-0.865644,1.760976,1.329172,0.034301
1573538019.335829,-0.115675,0.087561,0.001484,-0.013737,0.073650,-0.119402,48.113019,5.983606,-0.862625,1.708219,1.410128,-0.009078
1573538019.490299,-0.116969,0.087799,0.001506,-0.013684,0.072685,-0.120701,48.376764,6.203202,-0.863576,1.684108,1.401594,0.000698
1573538019.619839,-0.117371,0.085463,0.001600,-0.014157,0.071813,-0.121795,48.594882,6.395184,-0.864470,1.655558,1.509997,0.004688
1573538019.744409,-0.119450,0.080920,0.001651,-0.014792,0.071212,-0.122708,48.797488,6.589190,-0.861786,1.590024,1.611260,0.012783
1573538019.873959,-0.119744,0.076871,0.001749,-0.015189,0.070789,-0.123656,48.997353,6.801696,-0.860838,1.511483,1.626383,-0.012225
1573538019.998519,-0.121367,0.070198,0.001887,-0.015481,0.070141,-0.124312,49.178915,7.004621,-0.862410,1.498432,1.622369,0.007293
1573538020.152979,-0.121259,0.065537,0.002002,-0.015345,0.069216,-0.124537,49.410807,7.261891,-0.857809,1.506587,1.711904,0.045027
1573538020.282519,-0.122954,0.060798,0.002059,-0.015634,0.068422,-0.124381,49.599189,7.485434,-0.850827,1.452770,1.738235,0.052226
1573538020.407089,-0.125830,0.056497,0.002095,-0.015975,0.067478,-0.124548,49.771455,7.708702,-0.845381,1.349288,1.841506,0.017476
1573538020.531649,-0.127870,0.053147,0.002160,-0.016304,0.066628,-0.124704,49.933644,7.943136,-0.843698,1.305139,1.895811,0.012165
1573538020.740919,-0.126856,0.049638,0.002365,-0.017077,0.066087,-0.124331,50.200609,8.344149,-0.840143,1.241395,1.966843,0.030239
1573538020.820629,-0.129452,0.044398,0.002463,-0.017416,0.065456,-0.124877,50.290986,8.503808,-0.837123,1.157629,2.009087,0.025265
1573538021.009949,-0.127894,0.043564,0.002566,-0.017659,0.064989,-0.124630,50.498524,8.888044,-0.834331,1.058704,2.043943,0.021738
1573538021.069739,-0.132665,0.038946,0.002603,-0.017780,0.064387,-0.125014,50.557534,9.012615,-0.831416,1.024346,2.069110,0.023841
1573538021.293939,-0.130171,0.037612,0.002694,-0.018053,0.063953,-0.124546,50.774529,9.481882,-0.827468,0.923724,2.134036,0.002261
1573538021.353729,-0.127590,0.037370,0.002679,-0.018220,0.063922,-0.123655,50.832697,9.609397,-0.826406,0.914715,2.156917,0.005079
1573538021.483269,-0.131073,0.032818,0.002841,-0.018574,0.063005,-0.124402,50.943253,9.890088,-0.824958,0.866453,2.171165,0.032356
1573538021.672609,-0.130974,0.032215,0.002872,-0.018773,0.062542,-0.124730,51.096805,10.304508,-0.817808,0.740894,2.249066,0.024907
1573538021.772259,-0.131016,0.033625,0.002847,-0.019084,0.062153,-0.124931,51.169779,10.534481,-0.816430,0.653533,2.308771,0.009904
1573538021.891839,-0.132408,0.032840,0.002817,-0.019111,0.061339,-0.125334,51.241584,10.814541,-0.814932,0.576683,2.348227,0.010438
1573538022.021379,-0.133248,0.033546,0.002809,-0.019443,0.060424,-0.125998,51.315882,11.122052,-0.812946,0.542646,2.379827,0.025165
1573538022.145939,-0.134748,0.033617,0.002836,-0.019707,0.059567,-0.126747,51.380092,11.423283,-0.809998,0.449190,2.420379,0.025296
1573538022.270499,-0.135493,0.032974,0.002910,-0.019958,0.058884,-0.127235,51.431158,11.727445,-0.808819,0.386511,2.458705,0.013660
1573538022.400039,-0.135770,0.031018,0.003033,-0.020455,0.057934,-0.127240,51.475539,12.049946,-0.809284,0.303568,2.525236,0.006945
1573538022.554499,-0.136717,0.029145,0.003129,-0.020465,0.057065,-0.127461,51.516273,12.442097,-0.806620,0.230036,2.545312,0.027193
1573538022.684039,-0.131157,-0.115143,0.008492,-0.023878,0.055083,-0.125522,51.235738,12.432987,-0.810903,-0.218412,2.227053,0.022360
1573538022.808599,-0.132255,0.021158,0.003469,-0.021539,0.055950,-0.128495,51.528175,13.050338,-0.798127,0.134904,2.590474,0.027908
1573538022.933159,-0.132229,0.018729,0.003624,-0.022054,0.055122,-0.128560,51.546632,13.374937,-0.795101,0.153335,2.638155,0.030836
1573538023.157359,-0.130459,0.017219,0.003727,-0.022092,0.054512,-0.128421,51.566563,13.970863,-0.788953,-0.011542,2.723022,0.009720
1573538023.217149,-0.128980,0.016347,0.003864,-0.022321,0.053892,-0.128484,51.566527,14.133105,-0.790186,-0.020795,2.731753,0.005595
1573538023.346689,-0.127490,0.015699,0.003962,-0.022303,0.053451,-0.128552,51.565544,14.483366,-0.789437,-0.000235,2.728370,0.023984
1573538023.536019,-0.125642,0.016707,0.004009,-0.022649,0.053116,-0.129130,51.565091,15.003440,-0.783118,-0.063999,2.814400,0.037864
1573538023.595809,-0.124924,0.017144,0.004053,-0.022659,0.052754,-0.129738,51.562154,15.173284,-0.782130,-0.090779,2.826971,0.011587
1573538023.755249,-0.124885,0.017882,0.004036,-0.023003,0.052382,-0.130613,51.548414,15.628262,-0.782191,-0.055611,2.862085,0.011995
1573538023.884779,-0.124010,0.019682,0.004008,-0.023085,0.052069,-0.131195,51.545567,16.002144,-0.779958,-0.042997,2.903978,0.034259
1573538024.009339,-0.123862,0.021092,0.004000,-0.023238,0.051741,-0.131676,51.539336,16.366184,-0.775215,-0.104250,2.938341,0.029328
1573538024.133899,-0.124769,0.021075,0.004024,-0.023027,0.051314,-0.132382,51.525570,16.738871,-0.773102,-0.110321,2.965051,0.010152
1573538024.263429,-0.124624,0.022166,0.003981,-0.023098,0.051082,-0.133108,51.507321,17.125939,-0.771116,-0.195354,2.987052,0.021453
1573538024.417889,-0.124696,0.023121,0.003938,-0.023058,0.050916,-0.133627,51.476141,17.591412,-0.767051,-0.200368,3.029881,0.027045
1573538024.547419,-0.125413,0.023189,0.003867,-0.023091,0.050453,-0.134041,51.452006,17.984217,-0.762600,-0.173835,3.035955,0.033472
1573538024.671989,-0.125718,0.023104,0.003861,-0.023055,0.049925,-0.134063,51.427078,18.361017,-0.758630,-0.221068,3.055331,0.023525
1573538024.796549,-0.125171,0.023822,0.003884,-0.022930,0.049922,-0.134094,51.398303,18.742565,-0.758493,-0.267499,3.092431,-0.003217
1573538024.955989,-0.124125,0.024939,0.003831,-0.022670,0.050379,-0.133712,51.366424,19.238498,-0.755853,-0.167627,3.150461,0.016877
1573538025.080549,-0.122707,0.025887,0.003854,-0.022469,0.050437,-0.132946,51.350757,19.630964,-0.753556,-0.163367,3.198608,0.026848
1573538025.210079,-0.121562,0.026287,0.003844,-0.022505,0.050784,-0.132451,51.328034,20.040354,-0.750998,-0.209740,3.196537,0.015482
1573538025.334639,-0.121813,0.025568,0.003803,-0.022565,0.050968,-0.131687,51.302256,20.436556,-0.747503,-0.173392,3.218784,0.033369
1573538025.543909,-0.122420,0.025783,0.003815,-0.022874,0.050734,-0.131826,51.270178,21.124013,-0.739991,-0.165870,3.292922,0.032691
1573538025.618639,-0.122432,0.025047,0.003807,-0.022840,0.050647,-0.131487,51.253692,21.361809,-0.738400,-0.232638,3.283931,0.016959
1573538025.743199,-0.122794,0.024306,0.003797,-0.023161,0.050422,-0.131463,51.219707,21.768523,-0.737895,-0.256871,3.297871,-0.002011
1573538025.872739,-0.123285,0.023812,0.003855,-0.023565,0.050308,-0.131849,51.191297,22.195335,-0.737368,-0.160988,3.320000,0.034148
1573538025.997299,-0.123423,0.023392,0.003916,-0.023570,0.050252,-0.131608,51.169677,22.609591,-0.733381,-0.155646,3.340241,0.045783
1573538026.156729,-0.123314,0.023299,0.003973,-0.023292,0.050370,-0.131315,51.142418,23.148052,-0.729343,-0.187978,3.397017,0.015512
1573538026.281289,-0.122969,0.024091,0.003978,-0.023139,0.050551,-0.131103,51.118281,23.574348,-0.729006,-0.212093,3.412351,0.001614
1573538026.410819,-0.122854,0.024264,0.004037,-0.023233,0.050731,-0.130635,51.093252,24.015236,-0.728278,-0.171964,3.423605,0.041576
1573538026.535379,-0.122592,0.024949,0.004063,-0.023164,0.050969,-0.130515,51.072085,24.446523,-0.725848,-0.206106,3.453525,0.005965
1573538026.659939,-0.122213,0.025063,0.004113,-0.023240,0.051126,-0.130007,51.047734,24.870978,-0.724998,-0.195893,3.474711,0.017784
1573538026.819369,-0.122636,0.025370,0.004107,-0.023490,0.051167,-0.129805,51.014799,25.434192,-0.721350,-0.170106,3.494679,0.040005
1573538026.943929,-0.123527,0.025137,0.004125,-0.023516,0.050907,-0.129343,50.991257,25.876429,-0.719546,-0.158804,3.528055,0.007444
1573538027.073469,-0.124060,0.024938,0.004136,-0.023491,0.050774,-0.128528,50.961567,26.336172,-0.720216,-0.243025,3.544043,0.000150
1573538027.198029,-0.124477,0.025345,0.004120,-0.023624,0.050702,-0.127710,50.935113,26.786331,-0.718044,-0.174075,3.601327,0.030619
1573538027.357459,-0.124620,0.025757,0.004137,-0.023433,0.050688,-0.126357,50.907502,27.363654,-0.716513,-0.210798,3.613769,0.011926
1573538027.427229,-0.125069,0.026158,0.004087,-0.023434,0.050735,-0.125358,50.891564,27.619991,-0.715018,-0.230154,3.620697,0.011997
1573538027.606579,-0.125897,0.026052,0.004090,-0.023701,0.050786,-0.124556,50.840223,28.278499,-0.714772,-0.254365,3.671125,0.009384
1573538027.736119,-0.126108,0.026172,0.004099,-0.023908,0.050827,-0.123813,50.811583,28.754491,-0.712684,-0.174076,3.664761,0.037160
1573538027.860669,-0.126373,0.025794,0.004117,-0.023711,0.050687,-0.122682,50.787484,29.213853,-0.707251,-0.185570,3.718449,0.036561
1573538028.020099,-0.126052,0.025850,0.004151,-0.023232,0.050497,-0.121280,50.755311,29.801419,-0.705571,-0.246481,3.714293,-0.012340
1573538028.144659,-0.125596,0.026162,0.004172,-0.023134,0.050282,-0.120092,50.724145,30.264171,-0.706670,-0.255765,3.744925,0.013566
1573538028.274209,-0.125300,0.026454,0.004166,-0.023244,0.050035,-0.118969,50.697261,30.751379,-0.704316,-0.206875,3.762989,0.018953
1573538028.398769,-0.124888,0.027072,0.004185,-0.023295,0.049826,-0.117988,50.677631,31.224050,-0.701064,-0.179865,3.791164,0.038626
1573538028.617999,-0.124594,0.027693,0.004123,-0.023150,0.049875,-0.117339,50.638344,32.058535,-0.692302,-0.259708,3.823924,-0.009778
1573538028.682769,-0.124495,0.028490,0.004071,-0.022919,0.049991,-0.116607,50.623384,32.312746,-0.692673,-0.281910,3.823729,-0.012010
1573538028.807329,-0.124514,0.028785,0.004056,-0.023132,0.049801,-0.116358,50.590150,32.788285,-0.692979,-0.237534,3.834184,0.012049
1573538028.936859,-0.124534,0.029436,0.004053,-0.022930,0.049753,-0.116039,50.567140,33.290017,-0.687640,-0.153508,3.871428,0.055702
1573538029.091319,-0.125003,0.029594,0.004037,-0.022605,0.049808,-0.114953,50.537264,33.889405,-0.679677,-0.226463,3.866863,0.044955
1573538029.220859,-0.125334,0.030249,0.004051,-0.022245,0.049884,-0.113739,50.503488,34.398997,-0.675043,-0.278760,3.903640,0.014386
1573538029.345429,-0.125585,0.030641,0.004104,-0.022294,0.049586,-0.112716,50.468857,34.892210,-0.676526,-0.298131,3.914667,-0.011470
1573538029.469999,-0.125555,0.030920,0.004132,-0.022083,0.049529,-0.111633,50.434367,35.383419,-0.674716,-0.264858,3.902478,0.040946
1573538029.599539,-0.125458,0.030955,0.004145,-0.022005,0.049669,-0.110169,50.402933,35.889444,-0.668587,-0.219487,3.898162,0.048909
1573538029.753999,-0.125195,0.030756,0.004139,-0.021592,0.049675,-0.108699,50.368511,36.485761,-0.663945,-0.277906,3.855662,0.013910
1573538029.883539,-0.124927,0.031048,0.004169,-0.021777,0.049111,-0.107566,50.328504,36.982788,-0.661413,-0.350169,3.824520,0.044723
1573538030.008109,-0.125047,0.031418,0.004173,-0.022026,0.048463,-0.106660,50.288277,37.456460,-0.658679,-0.285476,3.798975,0.028587
1573538030.132679,-0.125294,0.031462,0.004112,-0.021662,0.048213,-0.105712,50.250560,37.933856,-0.653204,-0.293281,3.823993,0.045339
1573538030.262219,-0.125292,0.031478,0.004045,-0.021280,0.048136,-0.104550,50.207415,38.427181,-0.645876,-0.382077,3.776021,0.030215
1573538030.416679,-0.125120,0.031458,0.004076,-0.020918,0.047755,-0.103517,50.143612,39.006514,-0.643746,-0.429420,3.695696,0.013315
1573538030.610999,-0.124673,0.031437,0.004116,-0.020907,0.047289,-0.103365,50.057633,39.727374,-0.639163,-0.477355,3.723674,0.033366
1573538030.670789,-0.124140,0.031351,0.004159,-0.020495,0.047439,-0.103085,50.031482,39.943892,-0.637679,-0.473054,3.690010,0.029493
1573538030.800329,-0.123920,0.031194,0.004183,-0.020338,0.047242,-0.103122,49.967264,40.416667,-0.633208,-0.516351,3.618488,0.035813
1573538030.954779,-0.123598,0.031045,0.004209,-0.020425,0.047032,-0.103222,49.877644,40.961740,-0.629130,-0.639088,3.551846,0.038298
1573538031.084319,-0.123725,0.030621,0.004241,-0.020771,0.046730,-0.103329,49.783833,41.409487,-0.625896,-0.764601,3.499263,0.027725
1573538031.208879,-0.123582,0.029736,0.004249,-0.020838,0.046736,-0.103174,49.678265,41.815591,-0.621170,-0.844812,3.424232,0.042368
1573538031.333439,-0.123655,0.029266,0.004229,-0.021265,0.046595,-0.103331,49.566417,42.224492,-0.616456,-0.913373,3.340236,0.030505
1573538031.492879,-0.123725,0.028751,0.004203,-0.021462,0.046305,-0.102887,49.403068,42.731708,-0.613647,-1.088369,3.229834,0.021242
1573538031.617439,-0.123709,0.028232,0.004254,-0.021429,0.045803,-0.102525,49.257002,43.113064,-0.611006,-1.201199,3.156752,0.038567
1573538031.746979,-0.123649,0.027855,0.004258,-0.021335,0.045202,-0.101725,49.088843,43.500746,-0.606265,-1.354339,3.023529,0.032841
1573538031.871549,-0.123556,0.027404,0.004302,-0.021286,0.044530,-0.100877,48.912037,43.857409,-0.602312,-1.452589,2.923386,0.026870
1573538031.996109,-0.123215,0.026612,0.004392,-0.021190,0.043977,-0.099780,48.726276,44.194276,-0.602909,-1.514186,2.890274,0.005312
1573538032.125639,-0.122968,0.026068,0.004540,-0.021233,0.043425,-0.098621,48.526203,44.548154,-0.604850,-1.579093,2.830123,0.016188
1573538032.280099,-0.122743,0.025554,0.004631,-0.021298,0.043365,-0.097669,48.269499,44.946998,-0.606338,-1.748409,2.667922,0.006261
1573538032.409639,-0.122773,0.025225,0.004689,-0.021623,0.043240,-0.097215,48.035072,45.272437,-0.607445,-1.840155,2.564581,0.007562
1573538032.534199,-0.122696,0.024649,0.004765,-0.021882,0.043089,-0.096683,47.804547,45.567606,-0.607489,-1.866982,2.526698,0.037217
1573538032.693639,-0.122548,0.023923,0.004808,-0.022434,0.042565,-0.096171,47.505781,45.937685,-0.603988,-1.925694,2.474405,0.024396
1573538032.818199,-0.122455,0.023092,0.004821,-0.022652,0.042321,-0.095934,47.263475,46.209880,-0.603070,-2.027926,2.375831,0.013626
1573538032.947739,-0.122426,0.022565,0.004838,-0.023048,0.041569,-0.096223,46.997293,46.491310,-0.603788,-2.114227,2.285479,-0.003758
1573538033.137059,-0.122534,0.022325,0.004843,-0.023265,0.041127,-0.096467,46.585930,46.900695,-0.604775,-2.243728,2.187707,-0.002453
1573538033.196849,-0.122731,0.022317,0.004814,-0.023437,0.040593,-0.096923,46.449139,47.023569,-0.604792,-2.284628,2.135096,-0.000655
1573538033.406119,-0.122864,0.022445,0.004860,-0.022951,0.040481,-0.097616,45.962121,47.459293,-0.597955,-2.368076,2.048394,0.068598
1573538033.480849,-0.123013,0.022531,0.004928,-0.022424,0.040322,-0.098005,45.781673,47.608327,-0.594652,-2.413552,2.012937,0.064789
1573538033.570539,-0.123231,0.022626,0.004994,-0.021956,0.040090,-0.098142,45.560559,47.780723,-0.592787,-2.499853,1.938300,0.015110
1573538033.734949,-0.123666,0.022029,0.004940,-0.021914,0.039420,-0.098180,45.144029,48.078419,-0.593266,-2.585394,1.855358,-0.015056
1573538033.859519,-0.124142,0.021203,0.004961,-0.022036,0.038723,-0.098465,44.820244,48.290450,-0.593718,-2.653258,1.794089,0.011219
1573538033.999029,-0.124797,0.020492,0.005013,-0.022050,0.038065,-0.098593,44.445030,48.529189,-0.591605,-2.711717,1.787164,0.033721
1573538034.143519,-0.125129,0.019933,0.005129,-0.021847,0.037812,-0.098761,44.050883,48.774556,-0.587355,-2.788281,1.704332,0.056000
1573538034.273069,-0.125769,0.020008,0.005205,-0.021753,0.037638,-0.098805,43.679292,48.980763,-0.586362,-2.907517,1.589245,0.016559
1573538034.397629,-0.126381,0.019705,0.005265,-0.021817,0.037408,-0.098548,43.316215,49.163188,-0.587964,-2.949436,1.520153,-0.008127
1573538034.557059,-0.126989,0.019407,0.005321,-0.021585,0.037102,-0.098513,42.840755,49.397615,-0.589062,-3.030043,1.503894,0.000941
1573538034.681629,-0.127347,0.019161,0.005423,-0.022074,0.036956,-0.098832,42.456958,49.575932,-0.593525,-3.118975,1.442846,0.003975
1573538034.806199,-0.127357,0.018480,0.005500,-0.022325,0.036421,-0.099023,42.069329,49.747127,-0.593625,-3.126688,1.400156,0.028654
1573538034.935739,-0.127415,0.018191,0.005527,-0.022482,0.036166,-0.099308,41.661149,49.927088,-0.587164,-3.186111,1.351265,0.066787
1573538035.060309,-0.127327,0.017666,0.005585,-0.022636,0.035843,-0.099842,41.256309,50.077364,-0.585611,-3.333381,1.156606,-0.008891
1573538035.219749,-0.127055,0.017324,0.005645,-0.022697,0.035633,-0.100337,40.724366,50.253977,-0.590215,-3.380650,1.149314,-0.042047
1573538035.344309,-0.126883,0.016479,0.005668,-0.022806,0.035542,-0.100814,40.306948,50.393160,-0.594019,-3.414147,1.202590,0.004485
1573538035.473849,-0.126826,0.015734,0.005696,-0.023040,0.035405,-0.100981,39.866870,50.534613,-0.595560,-3.469979,1.099326,-0.001629
1573538035.598419,-0.126954,0.015202,0.005675,-0.022920,0.034983,-0.101329,39.433571,50.662760,-0.591751,-3.528189,1.008244,0.050315
1573538035.757859,-0.126905,0.015365,0.005700,-0.022881,0.034937,-0.101665,38.859048,50.821490,-0.585442,-3.630949,0.927071,0.034838
1573538035.882419,-0.127009,0.015139,0.005676,-0.023074,0.034707,-0.101622,38.405805,50.930017,-0.584529,-3.639898,0.864741,-0.003688
1573538036.006979,-0.126867,0.015336,0.005669,-0.023060,0.034432,-0.101514,37.949043,51.044908,-0.586444,-3.699415,0.891181,-0.036483
1573538036.136519,-0.127057,0.013871,0.005685,-0.022772,0.034248,-0.100995,37.470583,51.149319,-0.589217,-3.792133,0.838931,-0.018388
1573538036.261089,-0.127305,0.013442,0.005695,-0.022990,0.034093,-0.101056,36.994891,51.241958,-0.590448,-3.845990,0.740526,0.020316
1573538036.365729,-0.127234,0.012471,0.005777,-0.022806,0.034311,-0.100439,36.596747,51.307726,-0.590911,-3.872903,0.649805,-0.005171
1573538036.545089,-0.127225,0.012260,0.005823,-0.022886,0.034551,-0.100116,35.902938,51.423944,-0.592488,-3.927064,0.642512,-0.016182
1573538036.669639,-0.127200,0.011675,0.005839,-0.022725,0.034649,-0.099578,35.416125,51.497273,-0.594564,-3.966099,0.608222,-0.008871
1573538036.799169,-0.127311,0.011152,0.005857,-0.022961,0.034469,-0.099422,34.905652,51.565099,-0.597439,-3.971911,0.529222,-0.004122
1573538036.953629,-0.127667,0.011089,0.005877,-0.022874,0.034281,-0.099587,34.288787,51.639273,-0.592843,-4.012118,0.462324,0.043790
1573538037.083169,-0.128135,0.010669,0.005913,-0.022718,0.034533,-0.100074,33.760954,51.693610,-0.592025,-4.104026,0.448901,-0.013982
1573538037.207719,-0.128438,0.010167,0.005921,-0.022590,0.034600,-0.100468,33.246810,51.745871,-0.595537,-4.144711,0.420657,-0.038961
1573538037.332279,-0.128715,0.009651,0.005935,-0.022777,0.034578,-0.101034,32.732847,51.787420,-0.600356,-4.173106,0.322028,-0.032976
1573538037.526589,-0.128932,0.008766,0.005970,-0.022919,0.034495,-0.101305,31.919027,51.836628,-0.601964,-4.289896,0.299038,0.031284
1573538037.621249,-0.128890,0.008277,0.006039,-0.023077,0.034669,-0.101755,31.516841,51.859400,-0.601775,-4.293407,0.299999,-0.003136
1573538037.745809,-0.128862,0.007774,0.006112,-0.023316,0.034936,-0.102108,30.988867,51.888473,-0.608352,-4.278354,0.238601,-0.068138
1573538037.870369,-0.129040,0.007169,0.006185,-0.023769,0.034859,-0.102694,30.456302,51.910982,-0.618165,-4.337261,0.225121,-0.042906
1573538037.999909,-0.128897,0.006396,0.006298,-0.023836,0.035108,-0.103101,29.900486,51.932871,-0.623540,-4.379348,0.202917,-0.012041
1573538038.124459,-0.128816,0.005838,0.006361,-0.024016,0.035124,-0.103570,29.357577,51.955243,-0.626855,-4.385737,0.211998,-0.020516
1573538038.283899,-0.128660,0.005774,0.006345,-0.024092,0.035387,-0.104234,28.659084,51.995406,-0.629171,-4.394003,0.284186,-0.012047
1573538038.408449,-0.128370,0.005706,0.006365,-0.023933,0.035455,-0.104727,28.108668,52.029555,-0.633570,-4.478886,0.245409,-0.048254
1573538038.533009,-0.127857,0.005988,0.006353,-0.023769,0.035710,-0.105248,27.553000,52.058830,-0.639855,-4.513371,0.194639,-0.042231
1573538038.662539,-0.127909,0.005973,0.006386,-0.024146,0.035860,-0.105773,26.970499,52.080600,-0.644896,-4.520035,0.175669,-0.027921
1573538038.816989,-0.127911,0.006074,0.006359,-0.024217,0.036085,-0.106188,26.272149,52.111483,-0.646836,-4.563668,0.218857,-0.010405
1573538038.946529,-0.127811,0.006373,0.006340,-0.024147,0.036357,-0.106696,25.680034,52.142526,-0.647835,-4.579814,0.217401,-0.023785
1573538039.071079,-0.128013,0.006498,0.006282,-0.023988,0.036617,-0.107108,25.101000,52.166230,-0.652958,-4.603740,0.138809,-0.058557
1573538039.195629,-0.128065,0.006416,0.006254,-0.024175,0.036544,-0.107939,24.528880,52.177416,-0.657855,-4.619163,0.102681,-0.025819
1573538039.325169,-0.128056,0.006791,0.006179,-0.024330,0.036748,-0.108359,23.923628,52.200032,-0.659112,-4.671628,0.211025,-0.027888
1573538039.464679,-0.127957,0.006981,0.006149,-0.024466,0.036623,-0.108612,23.271517,52.232170,-0.661430,-4.675743,0.214776,-0.010291
1573538039.559339,-0.127786,0.007111,0.006099,-0.024422,0.036583,-0.108424,22.832669,52.250939,-0.661160,-4.675221,0.140017,-0.012688
1573538039.733719,-0.127874,0.006938,0.006054,-0.024009,0.036491,-0.108393,22.014025,52.265240,-0.664350,-4.742654,0.038675,-0.039365
1573538039.863249,-0.127862,0.006984,0.006108,-0.024804,0.036460,-0.108330,21.400553,52.273890,-0.672353,-4.754951,0.108024,-0.055812
1573538040.017709,-0.127735,0.007016,0.006132,-0.025004,0.036637,-0.107825,20.668412,52.295995,-0.680366,-4.767692,0.153740,-0.018625
1573538040.147249,-0.128201,0.006566,0.006172,-0.024829,0.036803,-0.107078,20.043718,52.307139,-0.681205,-4.804752,0.046660,-0.009931
1573538040.336569,-0.128130,0.006699,0.006234,-0.024786,0.037273,-0.106288,19.128652,52.320193,-0.687097,-4.814815,0.078292,-0.043222
1573538040.396359,-0.128068,0.006944,0.006220,-0.025281,0.037442,-0.105694,18.837086,52.329625,-0.689518,-4.816603,0.131690,-0.030891
1573538040.525899,-0.127934,0.007064,0.006187,-0.025007,0.037321,-0.105607,18.209463,52.346976,-0.694345,-4.869509,0.105927,-0.054371
1573538040.680349,-0.127671,0.006988,0.006127,-0.024521,0.037677,-0.104695,17.460260,52.359337,-0.696838,-4.897336,0.047475,-0.007023
1573538040.809889,-0.126653,0.007096,0.006108,-0.024842,0.038223,-0.103622,16.849131,52.368964,-0.698301,-4.859971,0.036778,-0.023198
1573538040.934449,-0.126084,0.007027,0.006159,-0.025765,0.038250,-0.103003,16.259390,52.379939,-0.702261,-4.853345,0.114428,-0.004066
1573538041.059009,-0.125385,0.006887,0.006183,-0.025913,0.038175,-0.102137,15.674953,52.396785,-0.702016,-4.844489,0.144785,-0.002873
1573538041.283199,-0.125178,0.006893,0.006137,-0.025313,0.037985,-0.101774,14.592923,52.422553,-0.697470,-4.857769,0.085123,0.017267
1573538041.342989,-0.125232,0.006843,0.006089,-0.024726,0.037976,-0.101515,14.299828,52.425501,-0.695876,-4.877354,0.055717,-0.011189
1573538041.472529,-0.125533,0.006554,0.006072,-0.024803,0.037845,-0.101126,13.660570,52.428862,-0.698765,-4.916054,0.068003,-0.032699
1573538041.597089,-0.125576,0.006626,0.006018,-0.024844,0.038121,-0.100394,13.048838,52.437033,-0.700960,-4.927227,0.079683,-0.021046
1573538041.726619,-0.125859,0.006819,0.005917,-0.024809,0.038437,-0.100179,12.398320,52.448777,-0.701197,-4.970835,0.076889,-0.017538
1573538041.881069,-0.125970,0.006841,0.005927,-0.024838,0.039043,-0.100115,11.627600,52.460563,-0.704518,-4.952278,0.078892,-0.003061
1573538042.010599,-0.126139,0.006959,0.006014,-0.024901,0.039620,-0.100280,10.984597,52.471666,-0.707734,-4.928016,0.107888,0.001778
1573538042.199929,-0.126418,0.007270,0.006006,-0.024350,0.039855,-0.100395,10.034779,52.484068,-0.709833,-4.964769,0.004383,-0.025792
1573538042.259719,-0.126572,0.007743,0.005976,-0.024016,0.039751,-0.100821,9.722791,52.488129,-0.710452,-4.976173,0.001335,-0.034694
1573538042.419149,-0.126715,0.007721,0.006018,-0.024913,0.039423,-0.100927,8.927341,52.489056,-0.717863,-5.022821,0.056060,-0.020563
1573538042.543699,-0.126413,0.007502,0.006183,-0.025686,0.039045,-0.100413,8.312529,52.499635,-0.726579,-5.045398,0.132594,-0.016281
1573538042.608469,-0.126003,0.006954,0.006323,-0.025864,0.038884,-0.099985,8.009599,52.502576,-0.732338,-5.022213,0.118325,-0.016841
1573538042.797809,-0.125532,0.006875,0.006346,-0.025757,0.038859,-0.099735,7.075562,52.508638,-0.739176,-4.989801,-0.005862,-0.028226
1573538042.922369,-0.125052,0.006715,0.006349,-0.026098,0.039204,-0.099435,6.473149,52.509215,-0.741065,-4.974917,0.065576,-0.001990
1573538043.022019,-0.124766,0.006450,0.006348,-0.026521,0.039499,-0.099484,5.991600,52.514670,-0.742475,-4.950177,0.080031,-0.038385
1573538043.176469,-0.124454,0.006378,0.006334,-0.026373,0.039929,-0.099262,5.236557,52.532683,-0.745959,-4.979468,0.100049,-0.037046
1573538043.335899,-0.124241,0.006425,0.006298,-0.026014,0.040297,-0.099468,4.442167,52.545286,-0.755356,-5.001621,0.036867,-0.051784
1573538043.490359,-0.123971,0.006147,0.006297,-0.026037,0.040863,-0.098905,3.690691,52.551640,-0.757312,-4.942817,0.095659,0.010098
1573538043.619899,-0.123712,0.006133,0.006264,-0.025879,0.040974,-0.098291,3.059596,52.560589,-0.756032,-4.943599,0.031794,-0.005517
1573538043.744449,-0.123530,0.006079,0.006172,-0.026019,0.040604,-0.098367,2.451343,52.567278,-0.753431,-4.914005,0.044884,-0.027575
1573538043.809219,-0.123488,0.005970,0.006130,-0.026000,0.040359,-0.098404,2.133796,52.568477,-0.754823,-4.934189,0.032204,-0.058136
1573538043.998549,-0.123203,0.005830,0.006169,-0.026612,0.040343,-0.098558,1.202269,52.574174,-0.767074,-5.012143,0.065979,-0.046659
1573538044.123099,-0.122905,0.005961,0.006214,-0.026753,0.040937,-0.098417,0.585712,52.587633,-0.772414,-4.970788,0.066957,-0.010071
1573538044.217769,-0.122519,0.005952,0.006172,-0.026618,0.041345,-0.098466,0.129956,52.597556,-0.769066,-4.925157,0.069285,0.025328
1573538044.357269,-0.122373,0.005963,0.006134,-0.026557,0.041703,-0.098659,-0.554581,52.609494,-0.764994,-4.938748,0.072381,-0.007651
1573538044.536619,-0.122214,0.005784,0.006148,-0.026931,0.042046,-0.098712,-1.427929,52.617864,-0.774069,-4.932455,0.074069,-0.062358
1573538044.661179,-0.122300,0.005492,0.006230,-0.027175,0.042215,-0.099110,-2.035867,52.619037,-0.783020,-4.964022,0.062659,-0.011801
1573538044.820609,-0.122249,0.005923,0.006227,-0.027054,0.042549,-0.098902,-2.841736,52.644978,-0.782347,-4.978062,0.139795,0.003902
1573538044.920259,-0.122113,0.006014,0.006168,-0.026545,0.042677,-0.098754,-3.334794,52.660968,-0.780589,-4.955411,0.136993,-0.011153
1573538045.069719,-0.121984,0.006224,0.006169,-0.026221,0.042725,-0.098914,-4.075558,52.681405,-0.785641,-4.954769,0.067290,-0.037325
1573538045.199259,-0.121801,0.006204,0.006115,-0.026149,0.042674,-0.098626,-4.709512,52.689855,-0.789561,-4.991967,0.064738,-0.036555
1573538045.323809,-0.121727,0.006220,0.006142,-0.026621,0.042554,-0.098499,-5.327265,52.702871,-0.794231,-4.955130,0.123078,-0.021921
1573538045.483249,-0.121663,0.006208,0.006101,-0.026530,0.042700,-0.098360,-6.113747,52.725646,-0.794618,-4.958786,0.135477,-0.006186
1573538045.602829,-0.121504,0.006301,0.005963,-0.026092,0.042604,-0.098266,-6.708433,52.743600,-0.788966,-4.988042,0.093174,-0.030590
1573538045.732359,-0.121599,0.006236,0.005654,-0.025371,0.042849,-0.098180,-7.350905,52.749642,-0.781619,-4.958886,0.071238,-0.044060
1573538045.891789,-0.121649,0.006273,0.005611,-0.025661,0.043135,-0.097989,-8.142860,52.761833,-0.783355,-4.976310,0.104353,-0.011803
1573538046.021329,-0.121751,0.006302,0.005605,-0.025851,0.043440,-0.097575,-8.788944,52.774599,-0.780409,-4.937957,0.121686,0.041671
1573538046.140909,-0.121754,0.006392,0.005606,-0.025709,0.043618,-0.097037,-9.382484,52.787927,-0.776999,-4.950400,0.101689,0.002706
1573538046.270449,-0.121724,0.006540,0.005679,-0.025555,0.043467,-0.096500,-10.032474,52.803854,-0.782724,-4.999045,0.077141,-0.048909
1573538046.399979,-0.121827,0.006650,0.005717,-0.025947,0.043474,-0.096422,-10.687706,52.816397,-0.789905,-4.995407,0.105406,-0.026627
1573538046.524539,-0.121990,0.006487,0.005786,-0.026147,0.043666,-0.096668,-11.308560,52.823645,-0.792754,-5.015007,0.117500,0.016514
1573538046.683969,-0.122104,0.006461,0.005789,-0.025822,0.043949,-0.096618,-12.111146,52.835193,-0.791324,-4.993366,0.093471,-0.000282
1573538046.808519,-0.122218,0.006270,0.005880,-0.025939,0.044350,-0.097164,-12.726322,52.838096,-0.799267,-4.962039,0.074250,-0.035287
1573538046.933079,-0.122247,0.005949,0.005914,-0.026194,0.044399,-0.097464,-13.333528,52.840921,-0.804247,-4.973955,0.086166,-0.006891
1573538047.062619,-0.121968,0.005746,0.005939,-0.026161,0.044753,-0.097519,-13.958524,52.851099,-0.805276,-4.986679,0.076698,-0.025161
1573538047.217069,-0.121663,0.005513,0.005932,-0.026209,0.045038,-0.097882,-14.701612,52.858918,-0.809206,-4.957637,0.083762,-0.042256
1573538047.346589,-0.121765,0.005620,0.005851,-0.025890,0.045505,-0.097765,-15.355705,52.868469,-0.812978,-4.983935,0.047577,-0.042753
1573538047.406379,-0.121668,0.005489,0.005904,-0.026043,0.046204,-0.097580,-15.641039,52.868935,-0.816749,-4.966793,0.050289,-0.012610
1573538047.595699,-0.121770,0.005532,0.005918,-0.026059,0.046659,-0.097053,-16.580936,52.881159,-0.817052,-4.919438,0.074688,-0.000316
1573538047.725239,-0.121694,0.005302,0.005858,-0.025958,0.046759,-0.096124,-17.201970,52.882466,-0.817586,-4.919450,0.039023,-0.037379
1573538047.879689,-0.121522,0.004994,0.005761,-0.025971,0.046630,-0.095667,-17.935940,52.881891,-0.817796,-4.903484,0.051582,-0.013012
1573538048.009219,-0.121553,0.004831,0.005720,-0.026060,0.046379,-0.095532,-18.564017,52.886608,-0.813938,-4.921147,0.116158,0.042843
1573538048.133779,-0.121803,0.004850,0.005708,-0.025574,0.046463,-0.095979,-19.192817,52.896814,-0.810051,-4.929436,0.091968,0.015172
1573538048.263319,-0.121818,0.004797,0.005724,-0.025031,0.046818,-0.096610,-19.823907,52.901243,-0.810897,-4.896725,0.038581,-0.009700
1573538048.482529,-0.122245,0.004996,0.005767,-0.025045,0.046967,-0.096964,-20.940950,52.912526,-0.815275,-4.961577,0.058756,-0.005857
1573538048.547299,-0.121931,0.004949,0.005883,-0.025734,0.046958,-0.097584,-21.234959,52.920989,-0.818849,-4.913077,0.104893,0.016451
1573538048.671849,-0.122100,0.004997,0.005972,-0.026139,0.046930,-0.098415,-21.850610,52.932425,-0.818601,-4.880220,0.129305,0.041159
1573538048.796409,-0.122493,0.005142,0.005952,-0.026018,0.046720,-0.099804,-22.482513,52.941736,-0.814957,-4.937932,0.092481,0.006996
1573538048.925949,-0.122934,0.005194,0.005961,-0.025918,0.046706,-0.101102,-23.141280,52.942813,-0.819255,-4.946621,0.053451,-0.036332
1573538049.080409,-0.123256,0.005221,0.006007,-0.025966,0.046615,-0.101630,-23.919213,52.948101,-0.827121,-4.950073,0.079853,-0.019601
1573538049.165119,-0.123451,0.005191,0.006045,-0.025874,0.046572,-0.102288,-24.345153,52.952130,-0.828619,-4.968443,0.132811,0.031049
1573538049.334509,-0.123799,0.005288,0.006034,-0.025473,0.046607,-0.102391,-25.205704,52.966934,-0.828073,-4.904719,0.098767,-0.005273
1573538049.459069,-0.124155,0.005441,0.005998,-0.025077,0.046853,-0.102687,-25.844845,52.972828,-0.830281,-4.914679,0.026726,-0.024838
1573538049.588609,-0.124018,0.005388,0.005954,-0.024905,0.047075,-0.102893,-26.468115,52.974838,-0.831326,-4.899441,0.015699,-0.020712
1573538049.743059,-0.123665,0.005197,0.005968,-0.025311,0.047259,-0.103108,-27.188523,52.982336,-0.831218,-4.850676,0.075673,0.002856
1573538049.812819,-0.123487,0.005099,0.005992,-0.025416,0.047540,-0.102981,-27.509808,52.987150,-0.831196,-4.823330,0.096689,0.012920
1573538049.997159,-0.123281,0.004985,0.006030,-0.024674,0.047844,-0.102812,-28.380063,53.000126,-0.828672,-4.809214,0.034070,-0.005458
1573538050.121719,-0.123416,0.005011,0.005975,-0.024472,0.048214,-0.103052,-28.987452,52.995840,-0.832700,-4.823606,-0.022239,-0.047696
1573538050.281149,-0.123256,0.004884,0.005973,-0.024682,0.048871,-0.103072,-29.732724,52.994959,-0.837032,-4.766696,0.028539,-0.014001
1573538050.410689,-0.123365,0.004904,0.005990,-0.024716,0.049014,-0.102709,-30.356895,52.996862,-0.837382,-4.757487,0.024159,0.007060
1573538050.535249,-0.123505,0.005035,0.005947,-0.024487,0.049422,-0.102101,-30.967533,53.001669,-0.837889,-4.766426,0.026272,-0.022307
1573538050.724579,-0.123439,0.004965,0.005885,-0.024392,0.049652,-0.102209,-31.848055,53.004287,-0.842189,-4.651475,0.018060,-0.008663
1573538050.789349,-0.123268,0.004909,0.005844,-0.024241,0.049909,-0.101788,-32.134968,53.007008,-0.840569,-4.608001,-0.002467,0.018745
1573538050.943809,-0.122742,0.004659,0.005785,-0.024099,0.050041,-0.101100,-32.791462,53.004343,-0.834594,-4.471540,-0.021943,-0.002389
1573538051.008579,-0.122281,0.004435,0.005782,-0.024080,0.049826,-0.100369,-33.041384,53.005919,-0.833742,-4.374570,0.001099,-0.025973
1573538051.197899,-0.122198,0.004435,0.005776,-0.023997,0.049702,-0.099845,-33.853333,53.013492,-0.834770,-4.250782,0.038896,0.015054
1573538051.322459,-0.122234,0.004422,0.005792,-0.023876,0.049636,-0.099354,-34.381184,53.014911,-0.832387,-4.171761,-0.000436,0.045866
1573538051.481889,-0.122083,0.004373,0.005758,-0.023750,0.049857,-0.098580,-35.024111,53.008819,-0.827716,-4.047513,-0.046633,-0.020919
1573538051.546659,-0.121992,0.004451,0.005776,-0.023785,0.050331,-0.097782,-35.284404,53.010975,-0.829253,-3.990391,-0.027159,-0.036129
1573538051.671229,-0.122017,0.004579,0.005825,-0.023899,0.050572,-0.097131,-35.786625,53.013523,-0.832084,-3.887677,-0.004545,0.022224
1573538051.925329,-0.121982,0.004676,0.005850,-0.023818,0.050696,-0.096307,-36.755384,53.010267,-0.823888,-3.720301,-0.105479,0.017771
1573538051.985119,-0.121805,0.004654,0.005833,-0.023823,0.050831,-0.095907,-36.963969,53.004240,-0.822543,-3.660540,-0.190742,-0.004636
1573538052.079789,-0.121515,0.004437,0.005912,-0.023899,0.050772,-0.095379,-37.268969,52.978241,-0.827310,-3.519879,-0.273326,-0.024952
1573538052.209329,-0.121362,0.004358,0.005910,-0.024151,0.050431,-0.094817,-37.704115,52.935783,-0.830871,-3.435761,-0.359991,-0.009181
1573538052.398649,-0.121464,0.004470,0.005990,-0.024196,0.050396,-0.094030,-38.359974,52.856117,-0.825248,-3.317031,-0.511497,0.053232
1573538052.573049,-0.121795,0.004718,0.006057,-0.024277,0.050098,-0.093265,-38.968959,52.748492,-0.823519,-3.205193,-0.766461,-0.007931
1573538052.682649,-0.122368,0.005128,0.006104,-0.024175,0.049794,-0.092945,-39.387580,52.658061,-0.827565,-3.181246,-0.941382,-0.013267
1573538052.747409,-0.123282,0.005811,0.006130,-0.023892,0.049408,-0.093185,-39.713345,52.603355,-0.828654,-3.237465,-1.002731,0.008597
1573538052.936739,-0.123766,0.006137,0.006127,-0.023781,0.049434,-0.093490,-40.381770,52.398887,-0.825640,-3.175590,-1.231875,-0.001764
1573538053.061299,-0.124479,0.006676,0.006102,-0.023619,0.049060,-0.093664,-40.873750,52.233117,-0.825450,-3.096361,-1.503657,-0.015029
1573538053.185839,-0.124885,0.006947,0.006093,-0.023610,0.048629,-0.093804,-41.307044,52.035776,-0.825032,-2.946529,-1.683049,0.006332
1573538053.335309,-0.125332,0.007261,0.006135,-0.023597,0.047781,-0.093558,-41.802926,51.775466,-0.823370,-2.831753,-1.831965,0.030026
1573538053.410029,-0.125599,0.007481,0.006192,-0.023507,0.047010,-0.093073,-42.060306,51.634718,-0.821561,-2.770760,-1.932279,0.048195
1573538053.599359,-0.125737,0.007615,0.006184,-0.023605,0.046216,-0.092650,-42.589571,51.243576,-0.814782,-2.444453,-2.202808,0.009386
1573538053.723919,-0.125758,0.007672,0.006159,-0.023866,0.045359,-0.092172,-42.898086,50.954326,-0.812259,-2.230763,-2.453946,-0.006416
1573538053.883349,-0.125746,0.007705,0.006152,-0.024141,0.044734,-0.092056,-43.234257,50.550651,-0.813376,-1.963668,-2.557364,0.006373
1573538053.943139,-0.125840,0.007798,0.006168,-0.024236,0.044095,-0.091963,-43.358406,50.395528,-0.813124,-1.895377,-2.582562,0.014620
1573538054.072669,-0.125919,0.007820,0.006185,-0.024439,0.043406,-0.092064,-43.587940,50.051474,-0.810855,-1.670726,-2.710224,0.043555
1573538054.261999,-0.125972,0.007860,0.006228,-0.024577,0.042660,-0.091981,-43.868404,49.520784,-0.804221,-1.272439,-2.859848,0.049780
1573538054.386559,-0.126021,0.007971,0.006273,-0.024645,0.041768,-0.091676,-44.018526,49.161309,-0.800389,-0.982572,-2.876019,0.029672
1573538054.545989,-0.126115,0.008205,0.006316,-0.024767,0.040765,-0.091308,-44.164087,48.694091,-0.802022,-0.694016,-2.961754,-0.033265
1573538054.610759,-0.126158,0.008495,0.006285,-0.024769,0.039843,-0.091195,-44.217757,48.496429,-0.802649,-0.609219,-2.993717,-0.015546
1573538054.800079,-0.126235,0.008878,0.006261,-0.024767,0.038818,-0.091215,-44.331402,47.924353,-0.796960,-0.417095,-2.946540,0.040035
1573538054.924639,-0.126402,0.009166,0.006227,-0.024887,0.037886,-0.091140,-44.374039,47.552798,-0.792977,-0.146701,-2.939819,0.008704
1573538055.049189,-0.126583,0.009585,0.006207,-0.024884,0.036840,-0.091082,-44.387868,47.178759,-0.789297,0.046466,-2.938124,0.046893
1573538055.143849,-0.126688,0.009819,0.006165,-0.024702,0.036321,-0.090869,-44.386125,46.894099,-0.781473,0.139863,-2.950158,0.070420
1573538055.273389,-0.126821,0.009994,0.006121,-0.024594,0.035899,-0.090788,-44.361629,46.512074,-0.773054,0.327309,-2.893614,0.023326
1573538055.462709,-0.126914,0.010046,0.006091,-0.024390,0.035404,-0.090633,-44.272504,45.970104,-0.775061,0.651938,-2.813306,-0.031302
1573538055.587269,-0.127079,0.010097,0.006067,-0.024165,0.034560,-0.090473,-44.180726,45.620376,-0.776307,0.841176,-2.746942,-0.004449
1573538055.746699,-0.127283,0.010130,0.006041,-0.023919,0.033773,-0.090372,-44.035819,45.188260,-0.771648,1.004251,-2.657393,0.021430
1573538055.806499,-0.127398,0.010252,0.006037,-0.023621,0.033003,-0.090357,-43.974368,45.026296,-0.770744,1.097793,-2.637634,0.002622
1573538055.936039,-0.127479,0.010402,0.006002,-0.023227,0.032230,-0.090362,-43.826692,44.685276,-0.767721,1.208578,-2.568439,0.007083
1573538056.125359,-0.127518,0.010655,0.005986,-0.022876,0.031454,-0.090403,-43.578804,44.206516,-0.768932,1.451672,-2.421147,-0.009391
1573538056.249919,-0.127660,0.010971,0.005951,-0.022748,0.030887,-0.090494,-43.390191,43.906586,-0.768497,1.621326,-2.286133,-0.000334
1573538056.344589,-0.127808,0.011253,0.005938,-0.022693,0.030299,-0.090601,-43.235046,43.687251,-0.767299,1.698187,-2.218336,0.019682
1573538056.469149,-0.127954,0.011197,0.006001,-0.022796,0.029812,-0.090516,-43.019124,43.414108,-0.764043,1.737381,-2.161722,0.067394
1573538056.663449,-0.128151,0.010880,0.006119,-0.023046,0.029358,-0.090597,-42.654902,43.021554,-0.763527,1.957608,-1.914628,0.012437
1573538056.787999,-0.128155,0.010623,0.006197,-0.023197,0.028720,-0.090778,-42.402060,42.795656,-0.769542,2.053203,-1.786139,-0.043594
1573538056.947429,-0.128019,0.010257,0.006223,-0.023329,0.028026,-0.090850,-42.067917,42.522692,-0.773101,2.115835,-1.734726,0.019888
1573538057.007219,-0.127869,0.009902,0.006280,-0.023436,0.027440,-0.091065,-41.937526,42.427087,-0.774394,2.187591,-1.685844,0.011743
1573538057.136759,-0.127743,0.009535,0.006327,-0.023490,0.026912,-0.091322,-41.646615,42.223408,-0.775724,2.264480,-1.557375,-0.008550
1573538057.385879,-0.127704,0.009286,0.006365,-0.023656,0.026426,-0.091608,-41.066816,41.856919,-0.783107,2.378735,-1.449733,-0.011934
1573538057.450659,-0.127603,0.008928,0.006375,-0.023871,0.025905,-0.091931,-40.912311,41.769894,-0.783280,2.365024,-1.434709,0.022020
1573538057.560269,-0.127507,0.008578,0.006393,-0.023871,0.025549,-0.092081,-40.653695,41.622412,-0.779419,2.342580,-1.387273,0.065333
1573538057.669869,-0.127344,0.008054,0.006407,-0.023713,0.025153,-0.092052,-40.393742,41.484949,-0.771399,2.391694,-1.302839,0.066345
1573538057.859199,-0.127332,0.007854,0.006423,-0.023625,0.024751,-0.091901,-39.929267,41.258640,-0.765300,2.480678,-1.147203,0.007876
1573538057.988739,-0.127486,0.007731,0.006432,-0.023496,0.024430,-0.091738,-39.606736,41.112045,-0.765559,2.463964,-1.136723,0.008328
1573538058.143189,-0.127382,0.007604,0.006487,-0.023367,0.024142,-0.091661,-39.224595,40.936138,-0.765636,2.477198,-1.210279,0.024639
1573538058.207959,-0.127202,0.007425,0.006528,-0.023239,0.023948,-0.091675,-39.065786,40.863212,-0.765863,2.460298,-1.247314,0.024571
1573538058.397279,-0.127029,0.007213,0.006557,-0.023117,0.023780,-0.091833,-38.600345,40.628782,-0.764550,2.500187,-1.257367,-0.001686
1573538058.521839,-0.126806,0.006959,0.006615,-0.022968,0.023588,-0.091933,-38.287889,40.482830,-0.766349,2.537101,-1.221060,0.019045
1573538058.651379,-0.126569,0.006828,0.006673,-0.022836,0.023505,-0.092025,-37.964558,40.329591,-0.763316,2.496036,-1.251817,0.048408
1573538058.765979,-0.126254,0.006872,0.006740,-0.022661,0.023450,-0.091965,-37.684408,40.191545,-0.761595,2.465404,-1.258926,0.029544
1573538058.870599,-0.125934,0.007075,0.006788,-0.022531,0.023489,-0.091794,-37.430213,40.063872,-0.761147,2.485981,-1.239424,0.005708
1573538059.059929,-0.125650,0.007331,0.006837,-0.022491,0.023595,-0.091505,-36.961458,39.836482,-0.762759,2.486753,-1.215039,0.008535
1573538059.189469,-0.125412,0.007694,0.006833,-0.022441,0.023767,-0.091186,-36.646895,39.678230,-0.759924,2.432729,-1.236892,0.038441
1573538059.343919,-0.125225,0.007947,0.006847,-0.022312,0.023924,-0.090826,-36.277339,39.490207,-0.754485,2.417139,-1.177314,0.020463
1573538059.408679,-0.125090,0.008117,0.006874,-0.022274,0.023990,-0.090432,-36.122633,39.415463,-0.754465,2.429529,-1.122699,0.002588
1573538059.597999,-0.124873,0.008200,0.006924,-0.022259,0.024068,-0.090036,-35.659430,39.204148,-0.761386,2.481198,-1.184704,-0.031787
1573538059.722549,-0.124733,0.008315,0.006945,-0.022170,0.024240,-0.089856,-35.355778,39.050131,-0.761871,2.440615,-1.261590,0.030703
1573538059.852089,-0.124508,0.008415,0.006962,-0.021956,0.024353,-0.089786,-35.041510,38.891876,-0.758368,2.488622,-1.189199,0.015036
1573538060.006539,-0.124347,0.008614,0.006931,-0.021739,0.024446,-0.089764,-34.652068,38.710618,-0.758282,2.582281,-1.169119,-0.028623
1573538060.106189,-0.124054,0.008524,0.006959,-0.021625,0.024491,-0.089612,-34.400121,38.596600,-0.761117,2.598658,-1.202467,-0.013131
1573538060.260629,-0.123708,0.008468,0.006974,-0.021550,0.024520,-0.089550,-34.002136,38.413345,-0.760050,2.647070,-1.216746,0.021539
1573538060.385189,-0.123322,0.008442,0.006994,-0.021522,0.024568,-0.089535,-33.679099,38.270328,-0.757374,2.681754,-1.154449,0.024770
1573538060.544619,-0.122957,0.008379,0.007035,-0.021660,0.024593,-0.089556,-33.259355,38.093424,-0.759009,2.682160,-1.160412,-0.021595
1573538060.609379,-0.122704,0.008139,0.007091,-0.021775,0.024684,-0.089611,-33.092169,38.024223,-0.762599,2.692081,-1.212546,-0.009885
1573538060.733939,-0.122533,0.007915,0.007112,-0.021674,0.024886,-0.089933,-32.755234,37.873920,-0.762707,2.789169,-1.271525,0.007026
1573538060.923259,-0.122459,0.007755,0.007117,-0.021551,0.025069,-0.089970,-32.222146,37.642526,-0.764679,2.836058,-1.212842,-0.025796
1573538061.052779,-0.122441,0.007755,0.007124,-0.021501,0.025237,-0.090092,-31.849917,37.482825,-0.766992,2.907801,-1.252935,-0.012154
1573538061.152429,-0.122370,0.007953,0.007123,-0.021473,0.025416,-0.089976,-31.558538,37.355727,-0.767816,2.958809,-1.261513,0.002109
1573538061.296899,-0.122264,0.008237,0.007105,-0.021290,0.025583,-0.089993,-31.129350,37.169547,-0.762773,2.999998,-1.288287,0.043043
1573538061.501179,-0.122105,0.008514,0.007125,-0.021161,0.025760,-0.090036,-30.514629,36.894285,-0.756408,3.048391,-1.379987,0.022083
1573538061.585869,-0.121948,0.008827,0.007145,-0.021051,0.025958,-0.090104,-30.257430,36.774516,-0.757590,3.106671,-1.372856,-0.042910
1573538061.745299,-0.121764,0.009174,0.007153,-0.020957,0.026168,-0.090194,-29.756551,36.553369,-0.767227,3.215521,-1.355686,-0.052541
1573538061.810059,-0.121577,0.009525,0.007128,-0.020968,0.026341,-0.090159,-29.552292,36.461628,-0.768315,3.219633,-1.386224,-0.009459
1573538061.934619,-0.121367,0.009909,0.007124,-0.020952,0.026538,-0.090113,-29.154610,36.280338,-0.766674,3.247694,-1.413892,0.006237
1573538062.163799,-0.120982,0.010250,0.007125,-0.020890,0.026553,-0.090002,-28.410661,35.938019,-0.760239,3.326154,-1.517739,0.020571
1573538062.248489,-0.120733,0.010374,0.007105,-0.020797,0.026500,-0.089741,-28.137058,35.811042,-0.757442,3.353977,-1.491165,0.016504
1573538062.407919,-0.120652,0.010440,0.007046,-0.020681,0.026507,-0.089517,-27.594811,35.579583,-0.761563,3.476726,-1.421833,-0.082743
1573538062.532459,-0.120523,0.010541,0.007025,-0.020701,0.026440,-0.088946,-27.162842,35.401621,-0.769791,3.543034,-1.466841,-0.037770
1573538062.661989,-0.120461,0.010671,0.007007,-0.020673,0.026578,-0.088539,-26.704801,35.202105,-0.768636,3.582946,-1.560390,0.010075
1573538062.786549,-0.120518,0.010750,0.007026,-0.020931,0.027067,-0.088207,-26.253971,35.004441,-0.767954,3.611683,-1.586086,-0.002927
1573538062.911099,-0.120565,0.010904,0.007015,-0.020516,0.027340,-0.087970,-25.795507,34.800584,-0.767572,3.700743,-1.635915,-0.003323
1573538063.010729,-0.120503,0.011056,0.007037,-0.020409,0.027623,-0.087618,-25.424051,34.637035,-0.769486,3.735248,-1.594168,-0.022841
1573538063.135289,-0.120419,0.011222,0.007046,-0.020330,0.027834,-0.087280,-24.958919,34.439321,-0.772890,3.778320,-1.555606,-0.035489
1573538063.324609,-0.120355,0.011403,0.007043,-0.020482,0.028143,-0.086987,-24.234368,34.138890,-0.777344,3.864601,-1.611524,-0.010356
1573538063.503969,-0.120300,0.011538,0.007042,-0.020634,0.028379,-0.086796,-23.538237,33.844718,-0.780137,3.930476,-1.635713,-0.036891
1573538063.608589,-0.120223,0.011648,0.007036,-0.020636,0.028537,-0.086713,-23.129446,33.672751,-0.783508,3.943974,-1.632324,-0.027689
1573538063.738129,-0.120182,0.011756,0.007021,-0.020540,0.028621,-0.086620,-22.615054,33.461965,-0.785197,4.003088,-1.639237,-0.006473
1573538063.862679,-0.120047,0.011847,0.006976,-0.020361,0.028640,-0.086611,-22.124871,33.258568,-0.779838,3.967292,-1.652342,0.063685
1573538063.987239,-0.119956,0.011994,0.006937,-0.020279,0.028589,-0.086409,-21.633041,33.049383,-0.771114,3.997147,-1.678070,0.037593
1573538064.116769,-0.119860,0.012144,0.006932,-0.020110,0.028523,-0.086057,-21.116344,32.830560,-0.768337,4.029648,-1.672511,-0.007362
1573538064.271219,-0.119720,0.012272,0.006922,-0.020010,0.028570,-0.085765,-20.495255,32.572390,-0.771081,4.093872,-1.648564,-0.026194
1573538064.385809,-0.119649,0.012336,0.006962,-0.020205,0.029034,-0.085366,-20.030616,32.381215,-0.773561,4.045172,-1.696418,0.033846
1573538064.525309,-0.119573,0.012420,0.006990,-0.020409,0.029627,-0.085071,-19.469014,32.139772,-0.766821,4.047996,-1.753326,0.057236
1573538064.649859,-0.119545,0.012522,0.006992,-0.020402,0.030059,-0.084980,-18.968295,31.918732,-0.761943,4.027156,-1.780764,0.018200
1573538064.809289,-0.119554,0.012604,0.007015,-0.020495,0.030462,-0.085005,-18.327074,31.632849,-0.763108,4.011111,-1.796618,-0.002527
1573538064.933849,-0.119777,0.012876,0.006976,-0.020382,0.030814,-0.085091,-17.811022,31.399358,-0.764664,4.039874,-1.780493,-0.020083
1573538064.998609,-0.119763,0.013004,0.006898,-0.020393,0.031074,-0.085089,-17.549162,31.280219,-0.761204,4.036389,-1.834571,0.026550
1573538065.187929,-0.119554,0.013107,0.006869,-0.020360,0.031038,-0.085065,-16.804192,30.926499,-0.754809,3.928903,-1.944105,0.031986
1573538065.312489,-0.119487,0.013188,0.006848,-0.020382,0.031224,-0.085002,-16.322603,30.678981,-0.749754,3.870520,-2.029047,0.032032
1573538065.407149,-0.119329,0.013281,0.006790,-0.020180,0.031411,-0.085012,-15.963480,30.486845,-0.744312,3.874904,-2.042868,0.016067
1573538065.536689,-0.119091,0.013311,0.006774,-0.020042,0.031692,-0.085033,-15.475732,30.225117,-0.741673,3.839989,-2.063811,0.009332
1573538065.726009,-0.118916,0.013350,0.006751,-0.020192,0.032050,-0.084900,-14.769711,29.826425,-0.735604,3.723226,-2.216779,0.039394
1573538065.850559,-0.118830,0.013400,0.006681,-0.020321,0.032575,-0.084820,-14.314854,29.547525,-0.729315,3.665667,-2.317267,0.030053
1573538066.009989,-0.118740,0.013461,0.006689,-0.020360,0.033030,-0.084784,-13.745022,29.169812,-0.723288,3.578545,-2.423124,0.016242
1573538066.074759,-0.118711,0.013540,0.006658,-0.020381,0.033434,-0.084591,-13.515160,29.012351,-0.722240,3.574520,-2.448142,-0.013111
1573538066.199319,-0.118679,0.013602,0.006653,-0.020546,0.033762,-0.084502,-13.074461,28.703944,-0.725160,3.525741,-2.521248,-0.016677
1573538066.388629,-0.118599,0.013653,0.006613,-0.020590,0.034057,-0.084447,-12.424208,28.215871,-0.722801,3.392003,-2.649089,-0.003380
1573538066.513189,-0.118443,0.013690,0.006636,-0.020551,0.034505,-0.084395,-12.018322,27.884643,-0.724460,3.290160,-2.744133,-0.002645
1573538066.672619,-0.118381,0.013768,0.006639,-0.020494,0.034938,-0.084315,-11.506811,27.433882,-0.723952,3.194672,-2.877786,-0.020226
1573538066.737379,-0.118200,0.013824,0.006645,-0.020528,0.035361,-0.084165,-11.314327,27.251351,-0.726773,3.154120,-2.872978,-0.057362
1573538066.926709,-0.117377,0.013675,0.006804,-0.020708,0.035745,-0.084073,-10.790810,26.727657,-0.742563,3.007828,-2.958782,-0.029011
1573538067.051269,-0.116983,0.013654,0.006826,-0.020791,0.036247,-0.084013,-10.455626,26.361068,-0.746799,2.856086,-3.120349,-0.042772
1573538067.210699,-0.116755,0.013676,0.006832,-0.020856,0.036744,-0.083897,-10.034317,25.860114,-0.752259,2.660626,-3.248554,-0.025483
1573538067.325289,-0.116693,0.013745,0.006825,-0.020883,0.037248,-0.083794,-9.739617,25.485196,-0.755373,2.604475,-3.300532,-0.051641
1573538067.400009,-0.116283,0.013716,0.006853,-0.021054,0.037457,-0.083654,-9.580374,25.252103,-0.760491,2.571189,-3.278989,-0.059569
1573538067.589329,-0.116315,0.013822,0.006802,-0.021063,0.037847,-0.083660,-9.117921,24.616143,-0.759065,2.278147,-3.423785,0.031042
1573538067.748759,-0.116571,0.014005,0.006693,-0.021077,0.038169,-0.083674,-8.744425,24.046384,-0.754748,2.142073,-3.566288,-0.034006
1573538067.808549,-0.116804,0.014188,0.006595,-0.020943,0.038648,-0.083616,-8.595722,23.821741,-0.753888,2.113261,-3.604455,-0.031551
1573538067.938079,-0.116821,0.014301,0.006519,-0.020840,0.039054,-0.083557,-8.328057,23.348878,-0.752760,1.990788,-3.645308,-0.012177
1573538068.127409,-0.116915,0.014445,0.006422,-0.020528,0.039441,-0.083514,-7.957428,22.651212,-0.744079,1.806031,-3.717772,0.070607
1573538068.251969,-0.117227,0.014659,0.006336,-0.020361,0.039767,-0.083315,-7.709739,22.167443,-0.730984,1.722361,-3.754507,0.065989
1573538068.411399,-0.117372,0.014827,0.006223,-0.020219,0.040109,-0.083035,-7.422704,21.560174,-0.724925,1.659014,-3.756370,-0.034350
1573538068.471179,-0.117463,0.014970,0.006149,-0.020107,0.040549,-0.082775,-7.314371,21.326719,-0.723733,1.590630,-3.812438,-0.017286
1573538068.600719,-0.117567,0.015116,0.006077,-0.019935,0.041046,-0.082614,-7.108106,20.819231,-0.718617,1.451435,-3.895891,0.039577
1573538068.790029,-0.117580,0.015198,0.006023,-0.019604,0.041415,-0.082387,-6.824251,20.087505,-0.707623,1.478672,-3.810626,0.031129
1573538068.954449,-0.117640,0.015332,0.005964,-0.019402,0.041947,-0.082101,-6.572918,19.457261,-0.701348,1.428105,-3.816667,0.025465
1573538069.074009,-0.117733,0.015474,0.005925,-0.019305,0.042347,-0.081908,-6.394085,18.995175,-0.696822,1.363833,-3.816728,0.039362
1573538069.133799,-0.117786,0.015584,0.005921,-0.019159,0.042571,-0.081574,-6.299418,18.760400,-0.694720,1.334470,-3.815862,0.042139
1573538069.323119,-0.117809,0.015671,0.005915,-0.019102,0.042819,-0.081279,-6.041452,18.032290,-0.688938,1.386220,-3.831874,-0.005602
1573538069.452649,-0.117862,0.015779,0.005949,-0.018942,0.043064,-0.081391,-5.856713,17.532093,-0.692459,1.360277,-3.837778,-0.004037
1573538069.577199,-0.117924,0.015899,0.005982,-0.018950,0.043390,-0.081600,-5.691097,17.050480,-0.693946,1.290340,-3.857876,0.003626
1573538069.671859,-0.117989,0.016038,0.005990,-0.018822,0.043678,-0.081758,-5.572130,16.685678,-0.691901,1.261731,-3.844213,0.034771
1573538069.801389,-0.118034,0.016195,0.005932,-0.018818,0.044049,-0.081889,-5.406441,16.191352,-0.684171,1.300011,-3.806437,0.045270
1573538069.990709,-0.118087,0.016346,0.005878,-0.018846,0.044389,-0.082074,-5.169730,15.467922,-0.676492,1.206775,-3.846340,-0.000918
1573538070.115269,-0.118046,0.016483,0.005796,-0.018632,0.044679,-0.082319,-5.022343,14.994412,-0.671168,1.206744,-3.810668,0.009499
1573538070.274689,-0.118006,0.016601,0.005770,-0.018458,0.045017,-0.082406,-4.824889,14.393848,-0.668882,1.258455,-3.758471,0.014772
1573538070.334479,-0.117916,0.016676,0.005747,-0.018361,0.045341,-0.082460,-4.748107,14.171676,-0.666461,1.235584,-3.746269,0.031368
1573538070.463999,-0.117791,0.016717,0.005761,-0.018299,0.045550,-0.082435,-4.587202,13.689058,-0.659269,1.176285,-3.760695,0.084903
1573538070.653319,-0.117789,0.016872,0.005696,-0.018018,0.045772,-0.082807,-4.370173,12.982136,-0.642834,1.155575,-3.713167,0.038427
1573538070.777869,-0.117603,0.016863,0.005706,-0.017714,0.045856,-0.082795,-4.211774,12.524499,-0.641672,1.319703,-3.680741,-0.019776
1573538070.872529,-0.117408,0.016842,0.005749,-0.017595,0.045990,-0.082730,-4.076326,12.181305,-0.647479,1.399559,-3.643478,-0.030988
1573538070.997079,-0.117166,0.016781,0.005822,-0.017582,0.046076,-0.082523,-3.898299,11.732216,-0.653407,1.339926,-3.654672,0.013612
1573538071.186409,-0.116869,0.016698,0.005913,-0.017402,0.046155,-0.082255,-3.646182,11.047199,-0.646325,1.260904,-3.614489,0.092684
1573538071.345839,-0.116776,0.016691,0.005982,-0.017208,0.046211,-0.082006,-3.433078,10.474779,-0.641354,1.361300,-3.564169,0.028281
1573538071.535159,-0.116626,0.016647,0.006061,-0.017129,0.046353,-0.081720,-3.156832,9.802270,-0.653142,1.452827,-3.575306,-0.032326
1573538071.599919,-0.116596,0.016690,0.006113,-0.017184,0.046518,-0.081636,-3.059661,9.570239,-0.658175,1.467427,-3.563800,-0.019221
1573538071.694579,-0.116555,0.016739,0.006139,-0.017260,0.046653,-0.081593,-2.918197,9.236475,-0.660339,1.490129,-3.513877,0.021079
1573538071.854009,-0.116494,0.016703,0.006131,-0.017349,0.046575,-0.081509,-2.675786,8.684019,-0.649846,1.491595,-3.424031,0.085444
1573538071.978569,-0.116486,0.016656,0.006099,-0.017392,0.046406,-0.081364,-2.484373,8.255173,-0.640313,1.519908,-3.366543,0.058986
1573538072.083199,-0.116594,0.016638,0.006081,-0.017415,0.046233,-0.081447,-2.318892,7.890202,-0.636039,1.585324,-3.326475,-0.014753
1573538072.197779,-0.116668,0.016613,0.006067,-0.017405,0.046107,-0.081430,-2.126533,7.502788,-0.638948,1.697078,-3.278784,-0.024301
1573538072.387099,-0.116742,0.016603,0.006062,-0.017541,0.046075,-0.081316,-1.787630,6.867928,-0.642824,1.838089,-3.297119,-0.009410
1573538072.516629,-0.116765,0.016576,0.006083,-0.017788,0.046060,-0.081020,-1.547717,6.436683,-0.639052,1.790769,-3.227600,0.065689
1573538072.671079,-0.116836,0.016554,0.006129,-0.017810,0.045987,-0.080724,-1.264219,5.936854,-0.628293,1.860592,-3.073949,0.067223
1573538072.800619,-0.116868,0.016501,0.006163,-0.017784,0.045745,-0.080347,-1.005977,5.532992,-0.623860,2.052812,-2.982764,0.001691
1573538072.925169,-0.117007,0.016511,0.006213,-0.017959,0.045409,-0.079973,-0.728035,5.149032,-0.628382,2.265802,-2.876171,-0.032235
1573538073.114489,-0.117090,0.016593,0.006236,-0.018224,0.045115,-0.079605,-0.289522,4.602385,-0.635880,2.334300,-2.793404,-0.032179
1573538073.179259,-0.117168,0.016666,0.006265,-0.018415,0.044828,-0.079176,-0.133019,4.412050,-0.639334,2.404153,-2.761913,-0.039894
1573538073.333709,-0.117318,0.016702,0.006281,-0.018582,0.044410,-0.078807,0.248145,3.964743,-0.640343,2.510394,-2.722804,0.027941
1573538073.398479,-0.117436,0.016732,0.006300,-0.018774,0.043976,-0.078484,0.418288,3.771536,-0.638731,2.575999,-2.685940,0.039568
1573538073.587799,-0.117566,0.016777,0.006293,-0.018924,0.043626,-0.078109,0.929441,3.265861,-0.633681,2.742692,-2.453649,0.018460
1573538073.712359,-0.117707,0.016812,0.006287,-0.019148,0.043218,-0.077737,1.285629,2.942602,-0.632772,2.843971,-2.375533,-0.003397
1573538073.871789,-0.117817,0.016845,0.006275,-0.019287,0.042784,-0.077469,1.753473,2.550072,-0.631893,2.914228,-2.303863,-0.022710
1573538074.001329,-0.117904,0.016899,0.006284,-0.019429,0.042422,-0.076952,2.147731,2.248001,-0.635438,3.057466,-2.119342,0.004321
1573538074.125889,-0.117950,0.016972,0.006288,-0.019547,0.042018,-0.076390,2.544300,1.988313,-0.635243,3.258263,-1.926753,0.003477
1573538074.250439,-0.117985,0.017065,0.006301,-0.019501,0.041471,-0.075802,2.958680,1.753882,-0.634102,3.316635,-1.792430,0.042530
1573538074.379979,-0.118020,0.017171,0.006340,-0.019404,0.040867,-0.075252,3.395064,1.520702,-0.631744,3.402621,-1.687886,0.006373
1573538074.474639,-0.118036,0.017301,0.006396,-0.019290,0.040384,-0.074832,3.721749,1.364049,-0.634638,3.457235,-1.596208,-0.005040
1573538074.599189,-0.118048,0.017438,0.006441,-0.019203,0.040019,-0.074514,4.159226,1.174019,-0.639752,3.575150,-1.423971,-0.042050
1573538074.788519,-0.118055,0.017565,0.006478,-0.019093,0.039559,-0.074219,4.852162,0.924526,-0.641842,3.690920,-1.137444,0.020720
1573538074.913069,-0.118075,0.017705,0.006513,-0.019204,0.039186,-0.074014,5.309445,0.800310,-0.641381,3.683784,-0.955342,0.020164
1573538075.072509,-0.118081,0.017857,0.006565,-0.019270,0.038817,-0.073874,5.906592,0.657152,-0.642802,3.806312,-0.835831,-0.002880
1573538075.137269,-0.118076,0.018012,0.006616,-0.019346,0.038491,-0.073857,6.156257,0.603924,-0.646138,3.820363,-0.802952,-0.014730
1573538075.261829,-0.118084,0.018152,0.006646,-0.019577,0.038107,-0.073892,6.634748,0.517399,-0.652329,3.869328,-0.590122,-0.038828
1573538075.451149,-0.118095,0.018312,0.006662,-0.019741,0.037999,-0.073851,7.378341,0.430275,-0.658262,3.964264,-0.390053,-0.008261
1573538075.575709,-0.118096,0.018457,0.006684,-0.019830,0.037894,-0.073862,7.873432,0.382183,-0.658415,4.008618,-0.430954,0.030104
1573538075.670369,-0.118099,0.018610,0.006701,-0.020055,0.037852,-0.073821,8.253184,0.342761,-0.658477,4.025621,-0.391400,-0.007619
1573538075.799909,-0.118146,0.018688,0.006664,-0.020095,0.037593,-0.073887,8.770998,0.302214,-0.660449,4.065957,-0.268185,-0.025786
1573538075.989239,-0.118166,0.018816,0.006648,-0.020087,0.037358,-0.073916,9.548395,0.262641,-0.659350,4.129621,-0.162900,0.009058
1573538076.113799,-0.118224,0.018938,0.006625,-0.020156,0.037159,-0.074068,10.064332,0.243449,-0.659598,4.176684,-0.178078,-0.000508
1573538076.323059,-0.118303,0.019069,0.006607,-0.020064,0.037175,-0.074165,10.934973,0.222767,-0.658676,4.172546,-0.058545,0.012496
1573538076.337999,-0.118384,0.019211,0.006602,-0.019962,0.037123,-0.074115,10.994464,0.226358,-0.658700,4.173277,-0.037396,0.010962
1573538076.462549,-0.118399,0.019427,0.006593,-0.019800,0.036956,-0.074032,11.519821,0.223081,-0.656709,4.234883,0.000651,0.010297
1573538076.651879,-0.118418,0.019644,0.006609,-0.019709,0.036801,-0.073913,12.327027,0.234205,-0.654875,4.236210,0.053728,0.021754
1573538076.776439,-0.118423,0.019836,0.006612,-0.019602,0.036685,-0.073884,12.855713,0.236689,-0.653775,4.253506,0.037703,-0.012234
1573538076.935869,-0.118435,0.019939,0.006607,-0.019553,0.036816,-0.074308,13.539190,0.252008,-0.654153,4.315846,0.089205,0.023583
1573538077.000639,-0.118402,0.020154,0.006605,-0.019600,0.036934,-0.074671,13.819552,0.256403,-0.652581,4.311069,0.062746,0.033839
1573538077.189959,-0.118298,0.020396,0.006600,-0.019565,0.036978,-0.075027,14.634671,0.265287,-0.651649,4.340577,0.074155,-0.014501
1573538077.314509,-0.118207,0.020619,0.006582,-0.019586,0.037010,-0.075228,15.176239,0.268821,-0.650924,4.355639,-0.012907,0.019418
1573538077.439069,-0.118182,0.020873,0.006558,-0.019475,0.037013,-0.075315,15.715878,0.264775,-0.648329,4.295818,-0.002386,0.005429
1573538077.598499,-0.118230,0.021033,0.006498,-0.019491,0.037024,-0.075242,16.400489,0.276554,-0.647730,4.280607,0.122952,0.011064
1573538077.698149,-0.118306,0.021183,0.006456,-0.019458,0.037148,-0.075211,16.827680,0.286105,-0.643939,4.267731,0.054275,0.035598
1573538077.852579,-0.118328,0.021386,0.006424,-0.019301,0.037264,-0.075228,17.487363,0.286137,-0.639785,4.252542,-0.013335,-0.000582
1573538077.977139,-0.118383,0.021589,0.006402,-0.019113,0.037341,-0.075211,18.018905,0.287483,-0.639008,4.248948,0.056712,0.011675
1573538078.136559,-0.118426,0.021790,0.006405,-0.019064,0.037552,-0.075167,18.694508,0.305604,-0.636440,4.220145,0.154621,0.023260
1573538078.201329,-0.118352,0.022135,0.006449,-0.019038,0.037702,-0.075206,18.970168,0.311308,-0.638263,4.233599,0.138249,0.011451
1573538078.390649,-0.118383,0.022352,0.006485,-0.018996,0.037953,-0.075309,19.772604,0.325530,-0.640565,4.220969,0.013897,0.009044
1573538078.515209,-0.118436,0.022494,0.006468,-0.018870,0.038196,-0.075626,20.294299,0.331608,-0.639423,4.186268,0.090713,-0.002775
1573538078.639759,-0.118476,0.022577,0.006501,-0.018774,0.038482,-0.076080,20.811087,0.358186,-0.642254,4.163905,0.267710,0.005202
1573538078.734409,-0.118504,0.022739,0.006510,-0.018843,0.038745,-0.076424,21.201994,0.387758,-0.641853,4.134807,0.300314,0.021521
1573538078.863949,-0.118487,0.022953,0.006521,-0.018799,0.038996,-0.076824,21.737423,0.421234,-0.641866,4.124426,0.197634,-0.003533
1573538079.053279,-0.118502,0.023169,0.006563,-0.018715,0.039167,-0.077158,22.515208,0.462575,-0.647438,4.101421,0.277188,-0.006558
1573538079.177839,-0.118603,0.023243,0.006560,-0.018807,0.039364,-0.077447,23.020542,0.509891,-0.648615,4.073369,0.416700,0.004301
1573538079.337269,-0.118642,0.023370,0.006583,-0.018854,0.039504,-0.077630,23.661825,0.592010,-0.649831,4.028930,0.555362,0.010420
1573538079.397059,-0.118654,0.023545,0.006595,-0.018817,0.039527,-0.077748,23.899946,0.626437,-0.650365,4.004221,0.558412,0.005440
1573538079.541549,-0.118651,0.023766,0.006597,-0.018754,0.039619,-0.077817,24.476779,0.704357,-0.652303,3.993035,0.530602,-0.022646
1573538079.715929,-0.118604,0.023867,0.006614,-0.018852,0.039753,-0.077740,25.161342,0.814665,-0.660471,3.973117,0.689758,-0.029945
1573538079.840489,-0.118544,0.024370,0.006631,-0.018871,0.039843,-0.077701,25.672443,0.893437,-0.664692,3.971555,0.705069,-0.003650
1573538079.935149,-0.118513,0.024612,0.006604,-0.018863,0.039970,-0.077609,26.046992,0.959526,-0.662309,3.924877,0.727822,0.042488
1573538080.064689,-0.118466,0.024790,0.006618,-0.018898,0.040128,-0.077422,26.546261,1.060540,-0.659183,3.877561,0.821816,0.027930
1573538080.254009,-0.118445,0.025044,0.006617,-0.018886,0.040200,-0.077180,27.279875,1.225684,-0.660531,3.812824,0.906678,0.001885
1573538080.378569,-0.118386,0.025257,0.006584,-0.018966,0.040329,-0.077078,27.755247,1.336782,-0.659803,3.838597,0.930195,-0.022151
1573538080.537989,-0.118362,0.025629,0.006580,-0.019087,0.040472,-0.077141,28.377068,1.486121,-0.667446,3.845506,1.022480,-0.067783
1573538080.597779,-0.118309,0.025804,0.006550,-0.019333,0.040632,-0.077216,28.601950,1.546847,-0.670559,3.871831,1.030890,-0.044185
1573538080.727309,-0.118280,0.026034,0.006530,-0.019478,0.040727,-0.077202,29.101739,1.675975,-0.672289,3.829067,0.996704,0.003914
1573538080.916619,-0.118244,0.026145,0.006491,-0.019690,0.041068,-0.077382,29.810716,1.862645,-0.666310,3.780167,1.012151,0.047117
1573538081.041169,-0.118166,0.026275,0.006460,-0.019717,0.041207,-0.077462,30.271402,1.981707,-0.659333,3.750586,0.997104,-0.001754
1573538081.200589,-0.118088,0.026329,0.006427,-0.019962,0.041743,-0.077886,30.846103,2.145158,-0.662703,3.657074,1.038527,-0.013494
1573538081.305219,-0.118043,0.026479,0.006400,-0.020041,0.041998,-0.077852,31.218375,2.244892,-0.659756,3.661177,0.892904,0.059664
1573538081.449689,-0.117967,0.026596,0.006371,-0.020086,0.042507,-0.078190,31.735755,2.375244,-0.652080,3.710028,0.909930,0.062387
1573538081.579219,-0.117898,0.026744,0.006334,-0.020054,0.042906,-0.078746,32.200229,2.490335,-0.646410,3.676715,0.897691,0.020246
1573538081.733659,-0.117859,0.026874,0.006308,-0.020142,0.043275,-0.079187,32.745587,2.632201,-0.644523,3.584732,0.948528,-0.020746
1573538081.863189,-0.117843,0.027035,0.006294,-0.020010,0.043509,-0.079985,33.191951,2.756360,-0.644562,3.571417,0.936159,0.025803
1573538081.987739,-0.118404,0.027448,0.006299,-0.019828,0.044005,-0.080868,33.676767,2.884039,-0.642319,3.710625,0.818679,0.045007
1573538082.112289,-0.118685,0.027884,0.006316,-0.019579,0.044332,-0.081466,34.156771,2.984263,-0.638155,3.627570,0.681598,0.089641
1573538082.241819,-0.118933,0.028410,0.006304,-0.019444,0.044598,-0.081796,34.639186,3.077772,-0.623832,3.506804,0.699001,0.121304
1573538082.336479,-0.119185,0.028913,0.006291,-0.019319,0.044789,-0.081942,34.997973,3.151752,-0.614989,3.600398,0.755091,0.070099
1573538082.525789,-0.119242,0.029324,0.006272,-0.019309,0.045042,-0.082156,35.686053,3.305675,-0.614369,3.634159,0.787314,-0.018412
1573538082.650339,-0.119511,0.029823,0.006258,-0.019157,0.045182,-0.082188,36.164368,3.411545,-0.619962,3.598206,0.857166,-0.078418
1573538082.779869,-0.119644,0.030252,0.006251,-0.019121,0.045212,-0.082134,36.644208,3.513877,-0.629775,3.614656,0.650499,-0.056229
1573538082.939309,-0.119794,0.030719,0.006258,-0.018933,0.045229,-0.082482,37.252667,3.599508,-0.626119,3.756469,0.524174,0.092569
1573538083.063859,-0.119857,0.031156,0.006281,-0.018793,0.045410,-0.082895,37.721379,3.675223,-0.617113,3.582140,0.669471,0.063102
1573538083.188409,-0.119831,0.031587,0.006281,-0.018804,0.045648,-0.083350,38.156487,3.768078,-0.613517,3.388881,0.863372,0.017275
1573538083.317939,-0.119804,0.031971,0.006268,-0.019052,0.046012,-0.083847,38.595409,3.877503,-0.610092,3.385062,0.777509,0.036360
1573538083.442489,-0.119762,0.032281,0.006264,-0.019274,0.046275,-0.084237,39.015295,3.964730,-0.606959,3.455495,0.671293,0.011668
1573538083.601909,-0.119798,0.032641,0.006249,-0.019315,0.046607,-0.084542,39.567429,4.053751,-0.609314,3.472110,0.450403,-0.041553
1573538083.726469,-0.119803,0.032984,0.006229,-0.019350,0.046896,-0.084862,39.996788,4.110934,-0.614468,3.495257,0.510606,-0.022392
1573538083.851019,-0.119829,0.033324,0.006202,-0.019313,0.047111,-0.085395,40.431875,4.180399,-0.613746,3.496864,0.593059,0.022735
1573538083.980549,-0.119871,0.033689,0.006193,-0.019293,0.047351,-0.085929,40.891598,4.264192,-0.609654,3.480947,0.697301,0.033284
1573538084.105099,-0.119900,0.034071,0.006156,-0.019276,0.047586,-0.086474,41.323341,4.355845,-0.606823,3.380885,0.696666,0.019449
1573538084.264519,-0.119944,0.034409,0.006111,-0.019456,0.047875,-0.086913,41.856603,4.464162,-0.603858,3.329770,0.638996,0.023440
1573538084.389069,-0.119944,0.034691,0.006070,-0.019552,0.048266,-0.087254,42.256555,4.535119,-0.599310,3.332093,0.466256,0.037831
1573538084.513629,-0.119934,0.035048,0.006046,-0.019344,0.048488,-0.087328,42.670833,4.588284,-0.598052,3.377489,0.428610,-0.039012
1573538084.643159,-0.119989,0.035397,0.006006,-0.019194,0.048696,-0.087552,43.115355,4.654439,-0.607259,3.387083,0.587857,-0.097948
1573538084.802579,-0.120018,0.035758,0.006013,-0.019177,0.048897,-0.087660,43.658724,4.739888,-0.624134,3.387050,0.489120,-0.080566
1573538084.927129,-0.120039,0.036110,0.006036,-0.019273,0.049134,-0.087722,44.072972,4.809503,-0.629676,3.225454,0.634828,0.045271
1573538085.051669,-0.120009,0.036414,0.006042,-0.019330,0.049275,-0.087697,44.457052,4.890765,-0.617487,3.135184,0.668135,0.121028
1573538085.181209,-0.119972,0.036683,0.006028,-0.019293,0.049465,-0.087822,44.849201,4.978196,-0.605636,3.164530,0.563941,0.099223
1573538085.305749,-0.119991,0.036991,0.006020,-0.019250,0.049685,-0.088086,45.239936,5.040951,-0.600536,3.157838,0.427738,0.001668
1573538085.405399,-0.120001,0.037328,0.006017,-0.019069,0.049941,-0.088339,45.550486,5.086756,-0.603970,3.111520,0.539174,-0.068774
1573538085.544879,-0.119988,0.037651,0.006023,-0.019112,0.050083,-0.088141,45.974475,5.185271,-0.617626,3.002098,0.773348,-0.083290
1573538085.714259,-0.119991,0.038011,0.006052,-0.019201,0.050295,-0.088058,46.485300,5.301615,-0.625122,3.096558,0.691385,0.030066
1573538085.843789,-0.119975,0.038308,0.006054,-0.019401,0.050521,-0.087766,46.879241,5.393776,-0.615785,3.097837,0.654454,0.122677
1573538085.998229,-0.119962,0.038661,0.006052,-0.019359,0.050817,-0.087765,47.346891,5.497393,-0.608311,3.007372,0.690265,0.030116
1573538086.127759,-0.119933,0.039006,0.006019,-0.019400,0.050963,-0.087623,47.724478,5.590780,-0.606348,2.888725,0.837782,-0.034520
1573538086.252319,-0.119912,0.039385,0.006002,-0.019485,0.051095,-0.087338,48.080762,5.702188,-0.609461,2.847580,0.952368,0.001916
1573538086.376869,-0.119896,0.039761,0.005970,-0.019588,0.051153,-0.086906,48.434998,5.834344,-0.613618,2.778414,1.166187,-0.046134
1573538086.506399,-0.119907,0.040155,0.005947,-0.019592,0.051187,-0.086542,48.788971,5.988948,-0.613496,2.632015,1.149301,0.046538
1573538086.710669,-0.119917,0.040529,0.005943,-0.019659,0.051283,-0.086477,49.327797,6.210163,-0.605464,2.640908,1.001114,0.068597
1573538086.790379,-0.119891,0.040876,0.005961,-0.019608,0.051356,-0.086568,49.523902,6.291424,-0.602387,2.612392,1.088653,0.024419
1573538086.914929,-0.119886,0.041221,0.005948,-0.019508,0.051370,-0.086525,49.832797,6.443094,-0.603442,2.497328,1.329050,-0.021988
1573538087.044459,-0.119902,0.041567,0.005928,-0.019652,0.051475,-0.086280,50.140658,6.626872,-0.609373,2.347954,1.472035,-0.046982
1573538087.198909,-0.119922,0.041970,0.005936,-0.019774,0.051583,-0.086098,50.500958,6.848356,-0.610866,2.281471,1.379748,0.036474
1573538087.328439,-0.119960,0.042356,0.005951,-0.019870,0.051519,-0.085683,50.793271,7.036353,-0.606277,2.205515,1.536762,0.060841
1573538087.452989,-0.119992,0.042776,0.005949,-0.020057,0.051556,-0.085288,51.057943,7.246373,-0.602125,1.994963,1.736523,0.014573
1573538087.577539,-0.120012,0.043158,0.005935,-0.020126,0.051503,-0.085057,51.288734,7.465053,-0.601874,1.837908,1.773614,0.005383
1573538087.707069,-0.120052,0.043525,0.005937,-0.020260,0.051452,-0.084507,51.518918,7.694287,-0.600215,1.805218,1.741639,0.039449
1573538087.806709,-0.120093,0.043919,0.005924,-0.020226,0.051294,-0.084181,51.690995,7.869381,-0.596859,1.762171,1.770471,0.049916
1573538087.951189,-0.120142,0.044328,0.005905,-0.020240,0.051281,-0.083970,51.931018,8.135448,-0.594298,1.547138,1.916523,-0.026289
1573538088.115589,-0.120175,0.044681,0.005897,-0.020312,0.051263,-0.083687,52.155301,8.457381,-0.599940,1.374848,1.983931,0.015683
1573538088.240149,-0.120230,0.045067,0.005898,-0.020437,0.051389,-0.083457,52.319748,8.705412,-0.593927,1.377405,2.021091,0.076056
1573538088.399579,-0.120282,0.045508,0.005928,-0.020622,0.051403,-0.083261,52.525833,9.031811,-0.587404,1.212598,2.071432,0.028036
1573538088.464339,-0.120321,0.045964,0.005954,-0.020848,0.051442,-0.082979,52.601171,9.168912,-0.588651,1.112670,2.128381,0.001416
1573538088.588909,-0.120336,0.046404,0.005971,-0.021149,0.051482,-0.082762,52.734086,9.437830,-0.590671,1.020581,2.168075,0.002727
1573538088.778219,-0.120306,0.046811,0.005978,-0.021403,0.051458,-0.082406,52.927417,9.848564,-0.585430,0.971614,2.192435,0.045128
1573538088.907749,-0.120258,0.047194,0.005980,-0.021595,0.051426,-0.082081,53.046877,10.137284,-0.582004,0.845202,2.254436,0.022155
1573538089.062199,-0.120201,0.047624,0.005957,-0.021723,0.051367,-0.081771,53.170236,10.491514,-0.578889,0.706839,2.306246,0.019222
1573538089.191729,-0.120207,0.047955,0.005921,-0.022017,0.051461,-0.081475,53.255436,10.792918,-0.576471,0.612110,2.362667,0.009063
1573538089.316289,-0.120196,0.048281,0.005891,-0.022177,0.051524,-0.081157,53.323587,11.086786,-0.574576,0.537939,2.395782,0.006617
1573538089.440849,-0.120223,0.048729,0.005860,-0.022292,0.051519,-0.080977,53.386805,11.389713,-0.574974,0.432090,2.456596,-0.017914
1573538089.600279,-0.120259,0.049232,0.005827,-0.022410,0.051477,-0.080475,53.451128,11.785289,-0.574113,0.353783,2.487140,0.023297
1573538089.724829,-0.120351,0.049755,0.005799,-0.022503,0.051570,-0.080209,53.497985,12.099103,-0.569881,0.365773,2.535952,0.035036
1573538089.854359,-0.120439,0.050237,0.005764,-0.022561,0.051579,-0.080244,53.541290,12.431153,-0.565717,0.288413,2.585391,0.027175
1573538089.978909,-0.120565,0.050703,0.005726,-0.022596,0.051577,-0.080513,53.567428,12.757061,-0.563011,0.158847,2.634742,0.009645
1573538090.103459,-0.120683,0.051173,0.005682,-0.022662,0.051690,-0.081000,53.581790,13.089065,-0.560710,0.122298,2.674142,0.028719
1573538090.252919,-0.120801,0.051673,0.005639,-0.022706,0.051800,-0.081483,53.600984,13.494291,-0.554694,0.148204,2.740827,0.040068
1573538090.387429,-0.120925,0.052171,0.005607,-0.022767,0.051901,-0.081972,53.611102,13.868121,-0.551417,0.031412,2.809509,0.014936
1573538090.516959,-0.121055,0.052587,0.005587,-0.022848,0.052066,-0.082582,53.602977,14.231808,-0.551124,-0.057324,2.820313,0.006894
1573538090.641509,-0.121138,0.052837,0.005589,-0.022960,0.052227,-0.083167,53.585863,14.578885,-0.549344,-0.079927,2.844389,0.048304
1573538090.800939,-0.121226,0.053191,0.005584,-0.023007,0.052417,-0.083624,53.572059,15.038109,-0.541598,-0.045109,2.933760,0.056455
1573538090.925479,-0.121334,0.053503,0.005572,-0.023072,0.052600,-0.084126,53.558415,15.404509,-0.536517,-0.105714,2.979655,0.040263
1573538090.990249,-0.121472,0.053812,0.005567,-0.023214,0.052711,-0.084614,53.545415,15.596636,-0.535571,-0.150251,3.003280,0.026770
1573538091.179569,-0.121615,0.053924,0.005568,-0.023327,0.052808,-0.085195,53.501680,16.164654,-0.534460,-0.218407,3.048102,0.028320
1573538091.304119,-0.121676,0.054240,0.005573,-0.023455,0.052832,-0.085559,53.469984,16.543716,-0.530857,-0.246794,3.079402,0.048313
1573538091.463539,-0.121706,0.054472,0.005596,-0.023517,0.052781,-0.085850,53.424612,17.039962,-0.523887,-0.300732,3.161928,0.029012
1573538091.588089,-0.121669,0.054741,0.005625,-0.023646,0.052899,-0.086028,53.385369,17.432429,-0.524970,-0.272791,3.167866,0.009709
1573538091.777409,-0.121539,0.055012,0.005649,-0.023650,0.053002,-0.086066,53.336563,18.033606,-0.522126,-0.258469,3.214542,0.040010
1573538091.842179,-0.121277,0.055437,0.005659,-0.023572,0.053236,-0.085931,53.320973,18.239182,-0.520881,-0.252940,3.230277,0.025628
1573538091.966719,-0.120986,0.055943,0.005657,-0.023542,0.053512,-0.085784,53.288141,18.636437,-0.518867,-0.316691,3.216696,0.024335
1573538092.126149,-0.120788,0.056407,0.005624,-0.023586,0.053768,-0.085622,53.235921,19.144514,-0.513310,-0.334359,3.225120,0.029852
1573538092.250699,-0.120652,0.056820,0.005595,-0.023681,0.054014,-0.085361,53.200519,19.540555,-0.508978,-0.242544,3.221142,0.039075
1573538092.380229,-0.120481,0.057327,0.005548,-0.023694,0.054259,-0.085186,53.170761,19.950125,-0.502808,-0.260208,3.188055,0.036085
1573538092.504779,-0.120383,0.057880,0.005514,-0.023793,0.054444,-0.084863,53.134126,20.344963,-0.500619,-0.348457,3.208994,0.009265
1573538092.664199,-0.120270,0.058506,0.005486,-0.023817,0.054798,-0.084739,53.086095,20.857903,-0.498116,-0.262818,3.253618,0.008299
1573538092.788759,-0.120189,0.059080,0.005451,-0.023974,0.054943,-0.084464,53.056167,21.265510,-0.494975,-0.259160,3.338769,0.037027
1573538092.918289,-0.120173,0.059654,0.005422,-0.024053,0.055276,-0.084238,53.017072,21.699893,-0.492264,-0.329896,3.356163,0.017586
1573538093.042849,-0.120290,0.059920,0.005417,-0.024138,0.055503,-0.083878,52.974652,22.117348,-0.490104,-0.275715,3.407112,0.034425
1573538093.167399,-0.120462,0.060150,0.005421,-0.024084,0.055774,-0.083614,52.936503,22.548858,-0.485386,-0.242747,3.516314,0.051555
1573538093.326839,-0.120540,0.060453,0.005418,-0.024030,0.056087,-0.083298,52.884972,23.112620,-0.481454,-0.343440,3.570527,0.014290
1573538093.391589,-0.120591,0.060756,0.005393,-0.023957,0.056317,-0.082951,52.858950,23.343097,-0.481021,-0.342262,3.603213,0.002314
1573538093.580909,-0.120527,0.061325,0.005371,-0.023935,0.056737,-0.082630,52.800213,24.028154,-0.477206,-0.286353,3.685897,0.039680
1573538093.705459,-0.120510,0.061944,0.005339,-0.023924,0.057138,-0.082367,52.766982,24.492509,-0.471446,-0.266548,3.788241,0.037686
1573538093.864879,-0.120424,0.062687,0.005318,-0.024001,0.057455,-0.082205,52.723102,25.102946,-0.467893,-0.304461,3.855472,0.012270
1573538093.989429,-0.120419,0.063347,0.005308,-0.024103,0.057638,-0.082131,52.685916,25.584427,-0.465721,-0.308156,3.914493,0.027114
1573538094.113979,-0.120405,0.064048,0.005266,-0.024262,0.057946,-0.082207,52.646513,26.075606,-0.463289,-0.324785,3.968894,0.019886
1573538094.243519,-0.120377,0.064713,0.005197,-0.024416,0.058235,-0.082220,52.606685,26.594356,-0.457568,-0.300627,4.042765,0.052125
1573538094.368069,-0.120490,0.065174,0.005132,-0.024430,0.058594,-0.082266,52.569335,27.099947,-0.449545,-0.250997,4.097945,0.032030
1573538094.527489,-0.120602,0.065510,0.005104,-0.024364,0.058835,-0.082227,52.517075,27.754809,-0.446285,-0.311947,4.149644,0.029749
1573538094.652049,-0.120679,0.066022,0.005085,-0.024280,0.059101,-0.082115,52.478027,28.277123,-0.442245,-0.280976,4.217101,0.027723
1573538094.781569,-0.120799,0.066543,0.005044,-0.024236,0.059418,-0.082082,52.434405,28.828599,-0.437528,-0.325748,4.240690,0.033440
1573538094.906119,-0.120838,0.067098,0.005021,-0.024233,0.059661,-0.081865,52.387801,29.360225,-0.435214,-0.368645,4.275383,0.020510
1573538095.065549,-0.120869,0.067563,0.005032,-0.024243,0.059975,-0.081856,52.331169,30.039351,-0.431242,-0.305064,4.287764,0.055561
1573538095.190099,-0.120948,0.068076,0.005036,-0.024253,0.060340,-0.081788,52.292432,30.578462,-0.426319,-0.283902,4.315134,0.036092
1573538095.264839,-0.121024,0.068664,0.005021,-0.024193,0.060714,-0.081811,52.268947,30.906641,-0.424584,-0.311501,4.336604,0.013513
1573538095.444179,-0.121089,0.069271,0.005022,-0.024199,0.061011,-0.081720,52.206160,31.691680,-0.422881,-0.346417,4.363630,0.013150
1573538095.568739,-0.121158,0.069810,0.004998,-0.024265,0.061157,-0.081442,52.164040,32.238718,-0.419929,-0.300756,4.388482,0.049421
1573538095.728159,-0.121243,0.070345,0.004980,-0.024369,0.061242,-0.081121,52.117753,32.943133,-0.411650,-0.305108,4.411763,0.027848
1573538095.787939,-0.121259,0.070845,0.004958,-0.024432,0.061319,-0.080973,52.097187,33.204204,-0.411297,-0.347153,4.397402,0.012445
1573538095.977259,-0.121318,0.071417,0.004937,-0.024500,0.061508,-0.080909,52.029743,34.030109,-0.408789,-0.304834,4.344830,0.036372
1573538096.106789,-0.121431,0.071982,0.004921,-0.024497,0.061777,-0.080807,51.993480,34.597102,-0.403069,-0.244125,4.336686,0.058493
1573538096.261229,-0.121502,0.072516,0.004927,-0.024420,0.062030,-0.080809,51.950226,35.265289,-0.394576,-0.283442,4.312755,0.038415
1573538096.390759,-0.121544,0.072999,0.004939,-0.024395,0.062277,-0.080636,51.906734,35.819341,-0.394092,-0.349014,4.263685,0.012822
1573538096.515319,-0.121616,0.073523,0.004935,-0.024343,0.062552,-0.080627,51.862365,36.352464,-0.391461,-0.310449,4.256830,0.044523
1573538096.644849,-0.121734,0.074074,0.004916,-0.024278,0.062803,-0.080718,51.826332,36.912213,-0.385644,-0.209266,4.269824,0.046059
1573538096.769399,-0.121934,0.074487,0.004902,-0.024146,0.063075,-0.080646,51.782001,37.444579,-0.382115,-0.326872,4.224569,0.054836
1573538096.928819,-0.122035,0.074942,0.004871,-0.024125,0.063293,-0.080636,51.723775,38.112252,-0.375120,-0.307051,4.178719,0.024907
1573538096.993589,-0.122153,0.075514,0.004850,-0.024063,0.063436,-0.080762,51.701113,38.393178,-0.373573,-0.273762,4.209605,0.040654
1573538097.177919,-0.122230,0.076176,0.004854,-0.024024,0.063505,-0.081034,51.648398,39.181182,-0.367797,-0.298999,4.174954,0.021239
1573538097.307449,-0.122280,0.076764,0.004829,-0.024013,0.063544,-0.081397,51.608303,39.721568,-0.364932,-0.322395,4.122960,0.018284
1573538097.461899,-0.122285,0.077285,0.004802,-0.024024,0.063657,-0.081645,51.558342,40.364465,-0.361419,-0.289420,4.153481,0.032994
1573538097.526669,-0.122273,0.077832,0.004762,-0.023995,0.063877,-0.081821,51.540898,40.631744,-0.358569,-0.270726,4.121342,0.041374
1573538097.715979,-0.122309,0.078425,0.004718,-0.023992,0.064066,-0.081868,51.493535,41.412133,-0.349870,-0.262165,4.061850,0.051959
1573538097.840529,-0.122279,0.078891,0.004707,-0.023928,0.064337,-0.081740,51.454784,41.908896,-0.344293,-0.330259,4.035352,0.046643
1573538097.970069,-0.122249,0.079391,0.004666,-0.023927,0.064496,-0.081761,51.411926,42.427521,-0.337180,-0.362225,4.007569,0.023861
1573538098.124509,-0.122244,0.079948,0.004628,-0.023859,0.064713,-0.082108,51.353312,43.039699,-0.333534,-0.418223,3.916657,0.032313
1573538098.254039,-0.122291,0.080577,0.004574,-0.023806,0.064781,-0.082289,51.296558,43.554177,-0.326123,-0.452484,3.910729,0.071290
1573538098.378599,-0.122336,0.081090,0.004524,-0.023718,0.064961,-0.082343,51.231520,44.035518,-0.315939,-0.558332,3.849342,0.071464
1573538098.503149,-0.122426,0.081724,0.004460,-0.023641,0.065062,-0.082459,51.150640,44.522025,-0.307920,-0.719647,3.788629,0.028778
1573538098.632689,-0.122537,0.082380,0.004387,-0.023564,0.065187,-0.082717,51.051895,45.022623,-0.303572,-0.807274,3.736715,0.008166
1573538098.792119,-0.122642,0.083035,0.004361,-0.023512,0.065341,-0.082937,50.909781,45.629070,-0.301144,-0.975049,3.671840,0.028257
1573538098.916679,-0.122721,0.083626,0.004329,-0.023518,0.065537,-0.083083,50.778573,46.086227,-0.295256,-1.091095,3.564047,0.069233
1573538099.086079,-0.122770,0.084151,0.004322,-0.023500,0.065731,-0.083162,50.563817,46.676014,-0.287874,-1.418318,3.414466,0.023346
1573538099.170759,-0.122799,0.084637,0.004327,-0.023481,0.065958,-0.083262,50.433223,46.954162,-0.289895,-1.559734,3.311700,-0.025190
1573538099.325209,-0.122791,0.085049,0.004323,-0.023598,0.066132,-0.083280,50.176739,47.435660,-0.296607,-1.674550,3.152367,-0.019562
1573538099.454739,-0.122782,0.085474,0.004342,-0.023718,0.066323,-0.083178,49.954902,47.822716,-0.299456,-1.713550,3.100871,0.021562
1573538099.579289,-0.122723,0.085833,0.004376,-0.023780,0.066450,-0.083003,49.728922,48.173897,-0.298207,-1.893597,2.943743,0.041907
1573538099.708829,-0.122731,0.086332,0.004388,-0.023703,0.066717,-0.082914,49.464853,48.531427,-0.295050,-2.137578,2.701862,0.032684
1573538099.833379,-0.122763,0.086874,0.004373,-0.023695,0.066960,-0.082682,49.185551,48.851773,-0.294169,-2.315898,2.488891,-0.001866
1573538099.992799,-0.122752,0.087339,0.004352,-0.023627,0.067272,-0.082584,48.805822,49.221396,-0.298558,-2.440690,2.280845,-0.036763
1573538100.057579,-0.122777,0.087878,0.004343,-0.023610,0.067663,-0.082448,48.644989,49.365256,-0.301506,-2.497644,2.215578,-0.025724
1573538100.241909,-0.122824,0.088452,0.004313,-0.023555,0.068030,-0.082314,48.170601,49.757683,-0.297713,-2.629603,2.024833,0.048093
1573538100.371439,-0.122872,0.089030,0.004294,-0.023513,0.068484,-0.082312,47.823107,50.013322,-0.293206,-2.704116,1.871564,0.026246
1573538100.525879,-0.122915,0.089590,0.004259,-0.023561,0.068862,-0.082346,47.394580,50.285806,-0.291508,-2.808826,1.658327,0.015456
1573538100.590649,-0.122976,0.090188,0.004220,-0.023576,0.069330,-0.082495,47.208653,50.393405,-0.289956,-2.869699,1.555755,0.023230
1573538100.779969,-0.123027,0.090788,0.004164,-0.023579,0.069732,-0.082599,46.656763,50.666295,-0.282335,-2.938770,1.279271,0.020569
1573538100.904519,-0.123061,0.091371,0.004110,-0.023536,0.070031,-0.082845,46.285335,50.818843,-0.279747,-3.009486,1.126628,-0.006148
1573538101.034059,-0.123068,0.091900,0.004120,-0.023800,0.070362,-0.082928,45.894292,50.957111,-0.283381,-3.010460,1.039877,0.007476
1573538101.128709,-0.123074,0.092415,0.004112,-0.023972,0.070581,-0.083368,45.609205,51.049125,-0.283529,-3.004762,0.994564,0.027174
1573538101.253269,-0.123064,0.093010,0.004087,-0.024046,0.070882,-0.084054,45.230917,51.162933,-0.280366,-3.056955,0.881482,0.030663
1573538101.442589,-0.123134,0.093491,0.004080,-0.024143,0.071082,-0.084080,44.640975,51.314045,-0.280970,-3.133161,0.711970,-0.021798
1573538101.572119,-0.123183,0.093977,0.004062,-0.024430,0.071252,-0.084068,44.236443,51.399282,-0.283340,-3.101714,0.635887,0.007528
1573538101.666779,-0.123248,0.094479,0.004039,-0.024614,0.071400,-0.083943,43.943715,51.454436,-0.282604,-3.084929,0.570020,0.017852
1573538101.791329,-0.123311,0.094990,0.003982,-0.024570,0.071777,-0.083845,43.559635,51.523728,-0.278772,-3.079046,0.526442,0.017237
1573538101.980639,-0.123361,0.095501,0.003916,-0.024494,0.072166,-0.083775,42.974831,51.610859,-0.271906,-3.104420,0.356310,0.019054
1573538102.105189,-0.123425,0.096006,0.003845,-0.024383,0.072543,-0.083715,42.582888,51.644808,-0.269807,-3.140404,0.220608,-0.019784
1573538102.234729,-0.123470,0.096547,0.003777,-0.024255,0.073035,-0.083655,42.176984,51.669339,-0.271051,-3.097218,0.164145,-0.028916
1573538102.329389,-0.123510,0.097036,0.003724,-0.024138,0.073416,-0.083675,41.884071,51.682069,-0.271476,-3.086931,0.126507,-0.006431
1573538102.453939,-0.123551,0.097550,0.003681,-0.024067,0.073706,-0.083690,41.497269,51.692949,-0.268064,-3.117500,0.072227,0.034158
1573538102.643259,-0.123586,0.098029,0.003625,-0.023935,0.074099,-0.083509,40.900325,51.698813,-0.261229,-3.171025,0.032382,0.043189
1573538102.767809,-0.123616,0.098554,0.003589,-0.023800,0.074401,-0.083510,40.504291,51.700347,-0.253616,-3.186606,-0.032754,0.037018
1573538102.927239,-0.123650,0.099083,0.003559,-0.023690,0.074737,-0.083544,39.988007,51.685264,-0.259095,-3.263310,-0.116445,-0.083226
