1573539864.641674,-0.818831,0.227932,0.231096,0.448064,0.089242,1.888210,-0.038905,-0.254928,-0.049101,-0.159197,-0.469820,-0.106962
1573539864.736294,-0.702471,0.408679,0.203223,0.144591,-0.633988,4.497344,-0.065532,-0.281109,-0.055706,-0.203024,-0.525169,-0.103147
1573539864.801033,-0.083699,0.163384,0.113180,0.264040,-1.473745,4.842371,-0.043286,-0.296131,-0.064390,-0.128548,-0.513768,-0.093507
1573539864.865773,-0.021581,0.088996,0.104547,0.178207,-1.439235,4.827403,-0.051956,-0.335724,-0.067552,-0.138759,-0.556522,-0.090800
1573539864.865773,-0.017950,0.074696,0.104852,0.176427,-1.416246,4.819026,-0.052406,-0.335940,-0.068088,-0.140405,-0.556900,-0.091551
1573539864.865773,-0.112199,-0.009175,0.154529,0.149482,-1.486960,4.973036,-0.046706,-0.322993,-0.103641,-0.124476,-0.539300,-0.161843
1573539864.895653,-0.097927,0.030259,0.124907,0.203846,-1.503309,4.836285,-0.047132,-0.341349,-0.080573,-0.124280,-0.552067,-0.113752
1573539864.960393,-0.060822,0.066344,0.115019,0.191783,-1.480593,4.850476,-0.063097,-0.385316,-0.082755,-0.146462,-0.590142,-0.113338
1573539865.055013,-0.043196,0.045751,0.110578,0.207746,-1.488907,4.852949,-0.074102,-0.450745,-0.091355,-0.169765,-0.632157,-0.120181
1573539865.149633,-0.134659,-0.016684,0.161472,0.146628,-1.486762,4.991178,-0.102890,-0.501896,-0.154068,-0.226650,-0.668007,-0.221483
1573539865.234293,-0.108569,-0.020595,0.131063,0.208830,-1.521982,4.873001,-0.117983,-0.565304,-0.135098,-0.280358,-0.708812,-0.172476
1573539865.368763,-0.121693,0.000177,0.136607,0.182382,-1.512670,4.864362,-0.169562,-0.668732,-0.166601,-0.415209,-0.784378,-0.197975
1573539865.463383,-0.139952,-0.044894,0.137612,0.191025,-1.549588,4.868289,-0.196722,-0.747651,-0.184059,-0.452336,-0.806852,-0.214365
1573539865.558003,-0.032453,0.186695,0.128192,0.126431,-1.446294,4.941913,-0.308488,-0.800249,-0.211285,-0.619485,-0.802015,-0.243887
1573539865.652623,-0.174743,-0.014040,0.147678,0.166183,-1.536527,4.907361,-0.292711,-0.921305,-0.243034,-0.548531,-0.913967,-0.267797
1573539865.757213,-0.188976,0.010160,0.147269,0.169218,-1.501205,4.933605,-0.375464,-1.008341,-0.270245,-0.592439,-0.949572,-0.279837
1573539865.841873,-0.256902,-0.081759,0.163500,0.157734,-1.543306,4.946452,-0.393172,-1.107481,-0.311628,-0.516864,-1.026217,-0.310282
1573539865.936493,-0.099849,0.137861,0.136457,0.112328,-1.517170,5.008515,-0.502939,-1.175331,-0.317430,-0.627886,-1.023124,-0.290196
1573539866.065974,-0.203272,-0.031796,0.150776,0.121281,-1.544620,4.973878,-0.524622,-1.359094,-0.366637,-0.615074,-1.154248,-0.330998
1573539866.160594,-0.192904,0.012701,0.148515,0.102560,-1.498804,5.017629,-0.620761,-1.465026,-0.398648,-0.667601,-1.204132,-0.342995
1573539866.255224,-0.192904,0.012701,0.148515,0.102560,-1.498804,5.017629,-0.682529,-1.581913,-0.431439,-0.628975,-1.271710,-0.348133
1573539866.349844,-0.129455,0.113326,0.141170,0.074243,-1.490788,5.056340,-0.771284,-1.692362,-0.460404,-0.640058,-1.318333,-0.353357
1573539866.444463,-0.243511,-0.073800,0.161465,0.115883,-1.533400,4.996799,-0.749503,-1.850065,-0.519827,-0.488613,-1.419510,-0.401285
1573539866.539093,-0.301240,-0.284016,0.174311,0.140349,-1.543121,5.042128,-0.728565,-1.996345,-0.572233,-0.359175,-1.512805,-0.436800
1573539866.663594,-0.202991,0.019539,0.161916,0.107371,-1.500238,4.993906,-0.931021,-2.135198,-0.625526,-0.484067,-1.544303,-0.454177
1573539866.758214,-0.281737,-0.134694,0.168971,0.117461,-1.530488,5.090056,-0.862866,-2.349183,-0.668595,-0.258067,-1.713726,-0.466744
1573539866.852834,-0.274976,-0.356887,0.175002,0.125530,-1.530913,5.062461,-0.792413,-2.510757,-0.721189,-0.056466,-1.776344,-0.500887
1573539866.947453,-0.274976,-0.356887,0.175002,0.125530,-1.530913,5.062461,-0.793724,-2.682946,-0.769239,0.034651,-1.869704,-0.511282
1573539867.042073,0.029908,-0.727347,0.153539,0.179164,-1.580167,5.118453,-0.543298,-2.696864,-0.781521,0.445665,-1.730022,-0.490794
1573539867.106823,0.029908,-0.727347,0.153539,0.179164,-1.580167,5.118453,-0.512139,-2.810844,-0.813549,0.515778,-1.793378,-0.499771
1573539867.266193,0.198720,-0.768530,0.136906,0.203229,-1.606737,5.116360,-0.388323,-3.025232,-0.867208,0.758083,-1.814588,-0.496456
1573539867.360813,0.598392,-0.999277,0.099411,0.250320,-1.630533,5.163773,-0.079012,-2.925251,-0.835149,1.187426,-1.536629,-0.425782
1573539867.455433,0.674638,-0.965845,0.092123,0.256834,-1.634486,5.160046,0.022807,-3.033944,-0.867466,1.310466,-1.545333,-0.430014
1573539867.550063,0.674638,-0.965845,0.092123,0.256834,-1.634486,5.160046,0.153445,-3.182851,-0.908918,1.452345,-1.597385,-0.448196
1573539867.644683,0.544266,-0.956477,0.107688,0.239375,-1.621786,5.200244,0.251229,-3.476823,-0.989919,1.530173,-1.857548,-0.504174
1573539867.779143,0.924801,-0.913404,0.061935,0.283976,-1.615663,5.101772,0.512991,-3.340608,-0.947579,1.808682,-1.473702,-0.396359
1573539867.863813,0.838099,-0.907366,0.072815,0.266995,-1.602915,5.145631,0.637992,-3.611847,-1.014036,1.901522,-1.703662,-0.447094
1573539867.978364,0.948346,-0.890001,0.059749,0.273025,-1.594714,5.117231,0.863087,-3.702652,-1.032889,2.090465,-1.648919,-0.438028
1573539868.053063,0.793959,-0.923845,0.078418,0.257367,-1.595106,5.144871,1.017771,-4.014934,-1.114541,2.202258,-1.926439,-0.501627
1573539868.147683,0.775533,-0.922619,0.082675,0.243225,-1.569000,5.159098,1.221438,-4.203343,-1.176679,2.350655,-1.986597,-0.535371
1573539868.242313,0.784744,-0.914913,0.082186,0.242490,-1.555310,5.170075,1.449638,-4.378682,-1.228936,2.519946,-2.000008,-0.561830
1573539868.336933,0.778724,-0.929089,0.083896,0.239187,-1.542746,5.170112,1.704677,-4.586386,-1.287289,2.699729,-2.066673,-0.580853
1573539868.466413,0.781670,-0.921082,0.083534,0.239925,-1.537636,5.166174,2.059417,-4.852471,-1.363170,2.886457,-2.132249,-0.591772
1573539868.575974,0.927776,-0.839150,0.064850,0.260203,-1.529823,5.151616,2.344695,-4.861093,-1.375620,3.029041,-1.919603,-0.545899
1573539868.660634,0.851620,-0.839299,0.073425,0.256689,-1.529510,5.161504,2.613462,-5.114028,-1.450032,3.165846,-2.079597,-0.574281
1573539868.750273,0.817944,-0.829395,0.077042,0.255345,-1.524083,5.179748,2.897646,-5.332622,-1.515858,3.311191,-2.142758,-0.628145
1573539868.844893,0.782435,-0.835609,0.081215,0.246539,-1.524737,5.180026,3.218570,-5.599301,-1.590531,3.474458,-2.272430,-0.666788
1573539868.939523,0.669741,-0.878519,0.095528,0.227497,-1.521818,5.198174,3.563579,-6.012982,-1.701548,3.658559,-2.551871,-0.743410
1573539869.034143,0.634023,-0.927548,0.101381,0.225712,-1.521068,5.181746,3.960975,-6.332533,-1.789721,3.874491,-2.706723,-0.774707
1573539869.158643,0.651869,-0.933601,0.100421,0.224899,-1.516121,5.174048,4.470175,-6.650927,-1.884824,4.088860,-2.780054,-0.784195
1573539869.283154,0.618666,-0.958756,0.104651,0.228888,-1.520211,5.158442,5.026585,-7.062232,-1.998600,4.288245,-2.883165,-0.821213
1573539869.347893,0.598309,-0.968044,0.106438,0.238223,-1.527942,5.148959,5.327399,-7.279440,-2.057256,4.383427,-2.918813,-0.835757
1573539869.442523,0.564478,-0.977424,0.109798,0.242277,-1.537995,5.136524,5.765887,-7.608408,-2.149461,4.510480,-2.967538,-0.871645
1573539869.537143,0.532558,-0.984131,0.112313,0.254263,-1.549828,5.125946,6.214174,-7.941439,-2.239738,4.630766,-3.044425,-0.875267
1573539869.666623,0.560525,-0.945254,0.107763,0.254635,-1.546510,5.140909,6.783008,-8.259598,-2.336031,4.751682,-2.994396,-0.850767
1573539869.761253,0.557405,-0.940405,0.107562,0.255826,-1.550135,5.132862,7.239971,-8.542459,-2.416546,4.887735,-3.016413,-0.870157
1573539869.855883,0.559018,-0.939049,0.106929,0.258800,-1.551518,5.121238,7.705692,-8.822876,-2.495601,5.006664,-3.041289,-0.884332
1573539869.950503,0.531969,-0.978468,0.111087,0.264039,-1.552317,5.095649,8.245275,-9.184503,-2.595654,5.206694,-3.140347,-0.915261
1573539870.045133,0.513500,-1.000722,0.113964,0.268090,-1.548821,5.096570,8.782866,-9.525125,-2.693995,5.368611,-3.193901,-0.923377
1573539870.139753,0.513441,-1.012495,0.114687,0.267167,-1.544469,5.085026,9.313146,-9.837867,-2.784056,5.510934,-3.208921,-0.931923
1573539870.234373,0.512601,-1.021608,0.115332,0.264976,-1.551083,5.073685,9.862816,-10.164194,-2.877410,5.693198,-3.277310,-0.962066
1573539870.388763,0.505067,-1.023518,0.115925,0.265364,-1.544061,5.070327,10.757360,-10.691451,-3.030072,5.980859,-3.402915,-1.001170
1573539870.483383,0.483551,-1.047361,0.118918,0.262962,-1.547930,5.053651,11.373111,-11.095227,-3.140829,6.236391,-3.571336,-1.052850
1573539870.548133,0.490396,-1.044438,0.118336,0.258994,-1.545456,5.054414,11.771815,-11.320356,-3.206681,6.356181,-3.621777,-1.062717
1573539870.642753,0.420782,-1.127058,0.128381,0.260722,-1.542907,5.007792,12.517976,-11.875555,-3.354059,6.719068,-3.924779,-1.152993
1573539870.737373,0.475246,-1.055850,0.120406,0.249289,-1.539591,5.047503,13.032937,-12.084289,-3.428037,6.799770,-3.823986,-1.149406
1573539870.832003,0.457503,-1.071811,0.122600,0.251551,-1.534454,5.045126,13.715456,-12.502920,-3.549595,7.057237,-3.987877,-1.204514
1573539870.961483,0.429487,-1.113989,0.127456,0.253510,-1.529364,5.039055,14.727461,-13.137787,-3.733955,7.464338,-4.271638,-1.277317
1573539871.076033,0.396670,-1.168665,0.133440,0.253710,-1.529295,5.014273,15.698813,-13.780643,-3.913856,7.849685,-4.552564,-1.345821
1573539871.150733,0.392987,-1.167600,0.133601,0.245536,-1.534904,5.004198,16.281214,-14.143546,-4.016483,8.007648,-4.664439,-1.389339
1573539871.245353,0.373593,-1.195056,0.136621,0.247719,-1.530072,4.993898,17.099688,-14.662378,-4.165423,8.290785,-4.841492,-1.453723
1573539871.339983,0.345020,-1.246722,0.142265,0.245296,-1.526837,4.974018,17.992064,-15.258908,-4.335595,8.621554,-5.082609,-1.515307
1573539871.434613,0.327412,-1.271664,0.145111,0.242132,-1.523460,4.954255,18.849585,-15.816915,-4.492202,8.883372,-5.273775,-1.554236
1573539871.564093,0.324966,-1.281255,0.145765,0.237592,-1.522963,4.940456,20.025697,-16.540894,-4.699201,9.199168,-5.452004,-1.613980
1573539871.653733,0.333153,-1.273894,0.144441,0.233236,-1.522421,4.937419,20.828018,-17.015997,-4.835405,9.379967,-5.529644,-1.648013
1573539871.748363,0.337152,-1.257276,0.142690,0.226309,-1.524497,4.930977,21.675709,-17.517931,-4.979977,9.563655,-5.616475,-1.675372
1573539871.857924,0.312406,-1.288599,0.146457,0.227648,-1.527076,4.914665,22.822598,-18.247650,-5.192353,9.944516,-5.813987,-1.739829
1573539871.937613,0.301829,-1.285029,0.146510,0.225634,-1.535160,4.904242,23.615721,-18.737208,-5.331202,10.153011,-5.885008,-1.760754
1573539872.032233,0.296776,-1.288515,0.146794,0.228416,-1.527766,4.905405,24.583397,-19.301469,-5.497219,10.410471,-5.952585,-1.813009
1573539872.161713,0.296475,-1.298811,0.147781,0.222799,-1.527962,4.901833,25.982431,-20.110078,-5.745956,10.806668,-6.073957,-1.894507
1573539872.256343,0.263920,-1.335530,0.152046,0.223610,-1.525498,4.875081,27.096529,-20.829588,-5.952805,11.162117,-6.288307,-1.945985
1573539872.350963,0.287400,-1.316967,0.149969,0.215038,-1.536720,4.889804,28.147081,-21.367628,-6.131220,11.411800,-6.308966,-1.952387
1573539872.445593,0.288493,-1.308732,0.149010,0.215189,-1.528135,4.893547,29.196399,-21.936240,-6.305044,11.618183,-6.335068,-1.991537
1573539872.540223,0.293835,-1.298752,0.147970,0.214278,-1.528157,4.901368,30.288879,-22.504971,-6.489073,11.895826,-6.322638,-2.035667
1573539872.599993,0.191811,-1.426225,0.162035,0.223849,-1.504534,4.801595,31.228246,-23.345011,-6.687220,12.316442,-6.846223,-2.131240
1573539872.759353,0.267117,-1.354632,0.153738,0.214773,-1.526230,4.879569,33.152454,-24.142283,-6.997419,12.759874,-6.617863,-2.168207
1573539872.853973,0.215575,-1.421200,0.160939,0.222163,-1.513877,4.832978,34.504101,-25.039076,-7.246780,13.183834,-6.915591,-2.234164
1573539872.948603,0.211949,-1.423168,0.161225,0.222696,-1.519291,4.834783,35.779784,-25.716338,-7.461443,13.498032,-6.944387,-2.228797
1573539873.043213,0.189760,-1.455297,0.164711,0.222117,-1.509509,4.808526,37.115326,-26.497488,-7.688305,13.849273,-7.079497,-2.246702
1573539873.107973,0.194146,-1.466137,0.165569,0.222094,-1.518223,4.815266,38.085515,-26.996492,-7.850778,14.143980,-7.128350,-2.277330
1573539873.232473,0.175100,-1.494049,0.168256,0.224459,-1.514119,4.791035,39.918110,-28.008630,-8.151555,14.617915,-7.274875,-2.348198
1573539873.361964,0.174867,-1.500399,0.168874,0.222830,-1.517146,4.789603,41.873171,-28.983508,-8.466527,15.132921,-7.338612,-2.390287
1573539873.456594,0.196176,-1.467630,0.165112,0.221295,-1.521495,4.809919,43.244093,-29.541215,-8.668032,15.386052,-7.209968,-2.396191
1573539873.551224,0.194463,-1.474107,0.165666,0.221674,-1.519267,4.806450,44.730392,-30.247740,-8.898146,15.704840,-7.234809,-2.409115
1573539873.645844,0.176092,-1.493730,0.167787,0.225503,-1.514605,4.792033,46.269628,-31.027329,-9.137288,16.067312,-7.307670,-2.440494
1573539873.740484,0.190605,-1.458158,0.163878,0.226284,-1.516664,4.807255,47.703904,-31.569100,-9.337062,16.294768,-7.128607,-2.439983
1573539873.835104,0.196217,-1.443214,0.162103,0.227313,-1.512606,4.808261,49.199516,-32.171839,-9.549220,16.553875,-7.034491,-2.453320
1573539873.929734,0.205532,-1.433039,0.161013,0.225972,-1.518125,4.822970,50.787661,-32.793130,-9.783005,16.904297,-6.960626,-2.476194
1573539874.054244,0.200720,-1.435724,0.161349,0.228342,-1.516816,4.823218,52.928516,-33.672475,-10.093008,17.350149,-6.932434,-2.492502
1573539874.148874,0.182116,-1.459967,0.164018,0.231172,-1.510053,4.805669,54.636805,-34.442720,-10.342180,17.712346,-7.001518,-2.506988
1573539874.243494,0.200651,-1.437719,0.161375,0.230622,-1.510606,4.822581,56.270722,-34.970877,-10.559205,17.951340,-6.831392,-2.474599
1573539874.313213,0.204898,-1.423209,0.159705,0.230430,-1.506562,4.821391,57.455310,-35.379071,-10.709265,18.108407,-6.736173,-2.463097
1573539874.402853,0.215587,-1.399168,0.156905,0.232056,-1.502850,4.829518,58.996463,-35.855154,-10.901242,18.322367,-6.572822,-2.466990
1573539874.527364,0.206985,-1.413017,0.158490,0.230432,-1.495275,4.818596,61.325102,-36.731266,-11.215537,18.769100,-6.559622,-2.495693
1573539874.686723,0.227893,-1.385518,0.155099,0.229568,-1.491561,4.832803,64.245994,-37.589499,-11.575774,19.177886,-6.350116,-2.449365
1573539874.751473,0.237670,-1.361466,0.152238,0.231700,-1.487359,4.839456,65.382289,-37.862075,-11.700077,19.251740,-6.166755,-2.415839
1573539874.846093,0.241519,-1.340092,0.149699,0.235308,-1.479700,4.836729,67.078932,-38.317928,-11.886563,19.383712,-5.976866,-2.375210
1573539874.940713,0.239116,-1.330939,0.148668,0.239063,-1.476309,4.833991,68.866872,-38.829918,-12.093431,19.647778,-5.833742,-2.396256
1573539875.010443,0.237354,-1.345377,0.149967,0.242713,-1.477617,4.843889,70.348130,-39.288303,-12.282976,19.989047,-5.850205,-2.434170
1573539875.129973,0.222517,-1.376675,0.153200,0.250494,-1.480446,4.844826,72.935627,-40.140631,-12.613756,20.538362,-5.932985,-2.466255
1573539875.254493,0.213899,-1.384947,0.153913,0.256235,-1.476590,4.841300,75.537263,-40.910792,-12.917923,20.917846,-5.918397,-2.426234
1573539875.349133,0.206332,-1.382202,0.153425,0.262434,-1.473370,4.836321,77.496484,-41.450710,-13.132692,21.154277,-5.788365,-2.404566
1573539875.443763,0.207329,-1.381914,0.153341,0.266184,-1.480113,4.847369,79.567380,-41.993096,-13.373507,21.491344,-5.699686,-2.432152
1573539875.538404,0.205737,-1.387877,0.153912,0.267849,-1.481085,4.846951,81.651859,-42.559140,-13.610561,21.822303,-5.686261,-2.450228
1573539875.633044,0.194887,-1.397834,0.154869,0.273853,-1.480417,4.843542,83.780919,-43.156862,-13.850180,22.176864,-5.712645,-2.451875
1573539875.747613,0.194606,-1.389956,0.153927,0.276626,-1.484478,4.842703,86.320280,-43.776353,-14.124948,22.503234,-5.616224,-2.462792
1573539875.852223,0.189535,-1.391481,0.154172,0.279921,-1.489649,4.845486,88.733690,-44.389330,-14.395638,22.824052,-5.580966,-2.495921
1573539875.946853,0.181288,-1.400325,0.155171,0.283346,-1.490982,4.842488,90.958577,-44.978005,-14.644153,23.142033,-5.619766,-2.532716
1573539876.046474,0.173133,-1.406092,0.155791,0.288322,-1.493855,4.842142,93.331078,-45.586070,-14.909585,23.493433,-5.705566,-2.589376
1573539876.141114,0.168979,-1.392423,0.154232,0.292251,-1.494478,4.839807,95.495780,-46.070907,-15.138886,23.705852,-5.701123,-2.617523
1573539876.200883,0.163494,-1.409003,0.156210,0.293299,-1.498682,4.835924,97.024229,-46.517844,-15.321450,23.991151,-5.856159,-2.659433
1573539876.360273,0.156432,-1.398770,0.155107,0.295846,-1.495390,4.828065,100.795809,-47.415122,-15.728665,24.341006,-5.857171,-2.694479
1573539876.454913,0.165243,-1.391922,0.154151,0.298173,-1.502609,4.833792,103.134430,-47.923041,-15.989283,24.619157,-5.840332,-2.726158
1573539876.549553,0.170117,-1.361675,0.150569,0.303371,-1.507159,4.839834,105.362502,-48.317177,-16.224413,24.777577,-5.728094,-2.747354
1573539876.644183,0.163367,-1.382639,0.152971,0.304964,-1.507863,4.834775,107.837977,-48.987385,-16.511233,25.176879,-5.908271,-2.825513
1573539876.738813,0.159172,-1.372602,0.151742,0.307144,-1.503548,4.828506,110.142698,-49.491303,-16.754747,25.385017,-5.907989,-2.832489
1573539876.833433,0.163173,-1.377624,0.152238,0.307125,-1.506170,4.836768,112.630104,-50.066355,-17.040521,25.743052,-5.984692,-2.886533
1573539876.898183,0.162715,-1.370165,0.151373,0.308377,-1.507619,4.839157,114.280752,-50.418087,-17.223162,25.911557,-5.996447,-2.909388
1573539877.052573,0.156011,-1.377900,0.152255,0.308652,-1.502301,4.832580,118.315989,-51.394573,-17.674332,26.363072,-6.142688,-2.992839
1573539877.147193,0.155662,-1.378744,0.152278,0.310547,-1.504416,4.835151,120.858029,-51.984826,-17.966903,26.698247,-6.231952,-3.058237
1573539877.241823,0.156271,-1.391029,0.153686,0.309868,-1.505349,4.836006,123.479607,-52.647512,-18.274514,27.068123,-6.394885,-3.105302
1573539877.336443,0.160888,-1.369518,0.151085,0.309962,-1.504150,4.842404,125.943992,-53.116902,-18.543910,27.246169,-6.356031,-3.126800
1573539877.431073,0.156749,-1.361622,0.150044,0.310983,-1.497002,4.840907,128.451104,-53.661873,-18.818192,27.445245,-6.396621,-3.161823
1573539877.495813,0.152231,-1.381383,0.152460,0.311548,-1.500724,4.837350,130.365196,-54.212825,-19.055786,27.782866,-6.598737,-3.233353
1573539877.655184,0.152638,-1.393114,0.153923,0.310829,-1.504509,4.836347,134.924758,-55.363182,-19.601062,28.391347,-6.851492,-3.369888
1573539877.749814,0.156378,-1.371489,0.151137,0.312715,-1.502526,4.842248,137.508476,-55.857932,-19.891603,28.577553,-6.785026,-3.415258
1573539877.844434,0.150242,-1.372707,0.151155,0.313295,-1.494654,4.834596,140.167014,-56.500194,-20.195979,28.808686,-6.880775,-3.444515
1573539877.909184,0.150635,-1.390923,0.153501,0.311509,-1.499992,4.831914,142.168826,-57.082134,-20.453528,29.139961,-7.094185,-3.506250
1573539878.003814,0.151057,-1.394239,0.153927,0.311277,-1.501251,4.834813,144.979436,-57.781282,-20.797337,29.456940,-7.203744,-3.556445
1573539878.133303,0.150499,-1.373247,0.151162,0.314009,-1.496635,4.836332,148.673942,-58.562653,-21.221073,29.681537,-7.151922,-3.589166
1573539878.252823,0.140613,-1.378322,0.152095,0.312786,-1.493462,4.842369,152.320442,-59.496654,-21.686075,30.105737,-7.344507,-3.684342
1573539878.352433,0.153350,-1.393906,0.153844,0.311560,-1.503417,4.839269,155.448579,-60.324214,-22.075167,30.494356,-7.527517,-3.736946
1573539878.442073,0.148973,-1.384841,0.152549,0.312733,-1.495733,4.832293,158.060725,-60.924055,-22.369239,30.608743,-7.517780,-3.720030
1573539878.536703,0.136033,-1.393167,0.153529,0.314781,-1.487363,4.818199,160.917927,-61.701151,-22.702157,30.806882,-7.649432,-3.741279
1573539878.631333,0.148971,-1.395660,0.153858,0.312229,-1.496921,4.830100,163.978205,-62.443479,-23.097671,31.223115,-7.758855,-3.841485
1573539878.725963,0.149757,-1.391583,0.153429,0.312026,-1.498867,4.833420,166.951664,-63.168545,-23.467313,31.522839,-7.858977,-3.896371
1573539878.855453,0.144709,-1.399492,0.154429,0.311427,-1.495590,4.820453,171.034861,-64.271716,-23.966414,31.890833,-8.054238,-3.956395
1573539878.950083,0.133139,-1.391515,0.153172,0.315660,-1.485087,4.811388,173.911747,-64.952349,-24.289990,31.997987,-8.041045,-3.947687
1573539879.044703,0.149062,-1.386659,0.152512,0.312773,-1.492785,4.831567,177.066266,-65.646972,-24.699016,32.379388,-8.059961,-4.033048
1573539879.139333,0.140181,-1.404274,0.155113,0.311214,-1.493987,4.818748,180.207478,-66.624463,-25.108802,32.720193,-8.366390,-4.115304
1573539879.233963,0.139843,-1.399600,0.154416,0.312002,-1.492303,4.819246,183.283155,-67.369510,-25.486655,32.986503,-8.409907,-4.145529
1573539879.328583,0.133686,-1.388243,0.152359,0.316820,-1.479942,4.812833,186.238478,-68.003511,-25.810794,33.115536,-8.336130,-4.125069
1573539879.453094,0.146971,-1.398392,0.154114,0.311618,-1.493546,4.830031,190.637283,-69.175609,-26.413927,33.778995,-8.582405,-4.273265
1573539879.547724,0.135947,-1.394969,0.153396,0.312772,-1.480602,4.805956,193.608109,-69.962206,-26.742081,33.855258,-8.654365,-4.267121
1573539879.642354,0.134826,-1.389805,0.152644,0.313959,-1.479065,4.806345,196.793395,-70.727136,-27.135203,34.166220,-8.700644,-4.323394
1573539879.736984,0.116327,-1.404888,0.154100,0.315071,-1.456446,4.767505,199.772418,-71.649750,-27.450362,34.227854,-8.885500,-4.283642
1573539879.831604,0.145602,-1.398329,0.154149,0.310750,-1.493273,4.823838,203.575396,-72.510349,-28.048679,35.148184,-9.028346,-4.564310
1573539879.926234,0.097172,-1.456183,0.161691,0.305483,-1.451225,4.715068,206.366996,-74.023409,-28.321824,34.906903,-9.782565,-4.461537
1573539880.055723,0.134306,-1.389773,0.152542,0.313792,-1.478252,4.810692,211.255863,-74.466049,-28.985497,35.759853,-9.117080,-4.654286
1573539880.150343,0.124993,-1.387832,0.152015,0.315791,-1.467535,4.801646,214.501359,-75.297797,-29.373987,35.981778,-9.185013,-4.676249
1573539880.244973,0.146183,-1.397579,0.154278,0.310236,-1.498110,4.832297,218.436162,-76.390268,-30.006312,36.885936,-9.540724,-4.952918
1573539880.309713,0.124155,-1.405056,0.154754,0.312896,-1.475584,4.796831,220.493241,-77.071019,-30.210746,36.789986,-9.678378,-4.886972
1573539880.434223,0.134646,-1.407762,0.155647,0.310129,-1.490415,4.816251,225.375386,-78.356898,-30.924992,37.593315,-9.908009,-5.124768
1573539880.513913,0.119678,-1.396850,0.153213,0.315355,-1.465950,4.796873,227.990891,-78.917524,-31.181220,37.515413,-9.765241,-5.036321
1573539880.593593,0.150166,-1.398657,0.154551,0.309105,-1.502569,4.838037,231.575486,-79.826771,-31.799142,38.479146,-10.016660,-5.349234
1573539880.747983,0.127340,-1.415919,0.156153,0.309048,-1.472945,4.790423,237.097366,-81.555161,-32.472449,38.641661,-10.379243,-5.344860
1573539880.842613,0.132430,-1.419203,0.157234,0.305872,-1.484742,4.797185,240.956811,-82.667533,-33.060992,39.219754,-10.648447,-5.518992
1573539880.907353,0.136774,-1.401768,0.154309,0.310086,-1.481783,4.815730,243.487242,-83.044846,-33.389119,39.487463,-10.418409,-5.545989
1573539881.001983,0.152742,-1.402532,0.155533,0.306902,-1.510077,4.844610,247.707922,-84.184819,-34.103192,40.378806,-10.713369,-5.852081
1573539881.096603,0.119838,-1.417906,0.156231,0.307721,-1.462172,4.774376,250.738432,-85.290951,-34.361635,39.921221,-10.909088,-5.619712
1573539881.255973,0.125618,-1.422142,0.157684,0.304727,-1.478849,4.785577,257.443618,-87.218372,-35.396260,40.884129,-11.307545,-5.930970
1573539881.350603,0.135188,-1.406652,0.155198,0.309240,-1.484238,4.814795,261.498652,-87.982518,-35.994548,41.464469,-11.125222,-6.069587
1573539881.445223,0.134752,-1.413561,0.156708,0.306558,-1.490888,4.812279,265.538833,-89.248899,-36.629618,41.954912,-11.469493,-6.229220
1573539881.539853,0.131373,-1.411535,0.155795,0.306218,-1.476285,4.799179,269.268601,-90.226757,-37.113359,42.083004,-11.475668,-6.210856
1573539881.614553,0.132545,-1.409312,0.155711,0.306212,-1.481148,4.804196,272.504673,-91.089112,-37.612164,42.484422,-11.583823,-6.331687
1573539881.699214,0.142854,-1.403645,0.155323,0.306997,-1.496058,4.830122,276.431469,-92.010963,-38.265715,43.187825,-11.626521,-6.541927
1573539881.793844,0.136254,-1.412818,0.156714,0.304184,-1.490739,4.808855,280.389862,-93.335169,-38.851721,43.441214,-12.002141,-6.598375
1573539881.948223,0.129198,-1.414188,0.156154,0.305126,-1.473525,4.795179,286.865670,-95.101121,-39.756354,43.816553,-12.100223,-6.622448
1573539882.042853,0.134834,-1.410754,0.156260,0.304772,-1.487069,4.809654,291.286618,-96.277242,-40.493165,44.494371,-12.257918,-6.842859
1573539882.137473,0.138498,-1.406042,0.155788,0.305753,-1.493422,4.826404,295.689933,-97.364881,-41.206520,45.090760,-12.314912,-7.012435
1573539882.202214,0.137200,-1.411160,0.156913,0.302992,-1.496303,4.817689,298.617302,-98.360417,-41.683919,45.376324,-12.613102,-7.110232
1573539882.316753,0.134933,-1.411884,0.157021,0.302118,-1.493304,4.815423,303.795540,-99.832696,-42.489890,45.836228,-12.790945,-7.233451
1573539882.456203,0.132895,-1.407446,0.156393,0.303457,-1.493705,4.818895,310.240734,-101.554925,-43.507755,46.454201,-12.915101,-7.390350
1573539882.550823,0.126562,-1.407507,0.156132,0.305712,-1.486890,4.822310,314.592301,-102.704876,-44.174524,46.819913,-12.945325,-7.465966
1573539882.645443,0.129598,-1.413375,0.157529,0.300581,-1.491226,4.812525,319.053064,-104.192639,-44.923275,47.256833,-13.335262,-7.608009
1573539882.740063,0.128480,-1.402742,0.155743,0.302561,-1.487197,4.823498,323.508214,-105.184826,-45.609620,47.646004,-13.196307,-7.678096
1573539882.834693,0.122274,-1.402674,0.156196,0.302563,-1.491438,4.838257,328.269064,-106.448223,-46.436647,48.319107,-13.324163,-7.878820
1573539882.929323,0.205124,-1.138042,0.126616,0.336289,-1.673380,5.601801,339.765313,-98.819271,-49.669852,55.854252,-4.590749,-10.619861
1573539882.994063,0.124270,-1.435925,0.159125,0.303579,-1.475361,4.772770,336.006185,-108.531954,-47.681565,48.378355,-14.384606,-7.822446
1573539883.148463,0.115452,-1.436883,0.161826,0.289304,-1.482020,4.757902,343.520513,-111.254439,-49.027376,49.066498,-15.074083,-8.106414
1573539883.243093,0.247324,-1.088526,0.126436,0.332185,-1.763631,5.659666,357.882380,-101.448633,-53.430311,59.352153,-4.165684,-12.035893
1573539883.337723,0.164643,-1.342820,0.151122,0.343335,-1.626378,5.137238,359.201644,-109.229074,-52.652877,55.491042,-11.575239,-10.217096
1573539883.417403,0.119202,-1.443327,0.162285,0.292019,-1.487361,4.758816,358.330434,-114.264129,-51.761529,50.421689,-15.815338,-8.512589
1573539883.526973,0.127032,-1.400534,0.156700,0.296236,-1.495779,4.834533,364.472029,-114.766837,-52.847254,51.547935,-14.721520,-8.836031
1573539883.641523,0.208808,-1.168230,0.131938,0.318195,-1.662889,5.484612,377.139050,-107.960977,-56.332561,58.910649,-6.534256,-11.554615
1573539883.751083,0.215924,-1.191044,0.130102,0.322862,-1.597586,5.346496,381.109740,-109.879503,-56.522571,57.008969,-7.801240,-10.628509
1573539883.845713,0.228113,-1.176039,0.129390,0.323296,-1.619403,5.383074,387.083570,-110.238528,-57.788313,58.075285,-7.518974,-11.044702
1573539883.975204,0.153431,-1.348984,0.148250,0.312919,-1.518246,4.995727,390.957711,-117.102503,-57.801497,55.161388,-13.318739,-9.819415
1573539884.034963,0.211514,-1.192777,0.132304,0.319645,-1.618082,5.369239,398.031853,-112.616753,-59.871615,59.308180,-8.154333,-11.438178
1573539884.129593,0.137723,-1.409329,0.156614,0.303104,-1.498500,4.828976,398.367356,-121.297973,-59.056727,54.420874,-16.163927,-9.631573
1573539884.224213,0.127954,-1.398925,0.156760,0.295598,-1.499323,4.845793,403.682390,-122.792063,-60.093548,55.026125,-16.269634,-9.894835
1573539884.348723,0.090717,-1.333424,0.140380,0.312408,-1.406759,5.241913,411.843548,-117.653473,-61.113273,56.874859,-9.442455,-9.823980
1573539884.443353,0.102534,-1.448645,0.160259,0.299979,-1.447895,4.741748,414.416617,-126.569328,-61.580923,54.561748,-17.416941,-9.505166
1573539884.537973,0.128026,-1.394549,0.156857,0.293526,-1.504360,4.855038,421.330186,-127.465263,-63.284616,56.770763,-16.849589,-10.471969
1573539884.632603,0.150744,-1.297895,0.142023,0.312951,-1.518848,5.157854,429.217353,-123.717655,-64.872395,59.777975,-11.710342,-11.250631
1573539884.727213,0.093854,-1.458800,0.161653,0.296253,-1.437746,4.723023,430.276229,-131.541551,-64.452225,55.589154,-18.529654,-9.846909
1573539884.821833,0.109483,-1.428368,0.162350,0.283862,-1.492136,4.774880,436.777542,-133.662073,-66.119346,57.302778,-19.055969,-10.735750
1573539884.951334,0.123447,-1.391112,0.156580,0.292850,-1.502462,4.867663,445.287614,-134.333619,-67.749033,59.005024,-17.529055,-11.163721
1573539885.045954,0.068638,-1.457610,0.160786,0.290573,-1.401057,4.715383,447.829005,-137.226151,-67.468419,56.419361,-18.883352,-9.951147
1573539885.140584,0.060212,-1.476229,0.165407,0.277076,-1.402964,4.648338,452.525458,-140.573978,-68.409843,56.227145,-20.589741,-10.073806
1573539885.235204,0.072307,-1.412885,0.153698,0.295075,-1.392269,4.866060,459.706649,-138.191671,-69.554379,58.518813,-16.488750,-10.391964
1573539885.329834,0.021844,-1.456414,0.155266,0.297047,-1.307048,4.831698,463.720631,-139.372644,-69.656459,57.398644,-16.220251,-9.599656
1573539885.424453,0.054560,-1.436290,0.157343,0.284112,-1.366721,4.761799,469.282061,-142.931613,-71.042593,57.998259,-18.407658,-10.228141
1573539885.548964,0.100681,-1.405560,0.155359,0.293290,-1.441993,4.849403,478.826031,-144.476913,-73.295797,60.918757,-17.926873,-11.425822
1573539885.643594,0.037342,-1.470261,0.156849,0.297186,-1.309310,4.761582,481.538425,-145.813749,-72.694275,58.299352,-17.702858,-9.854922
1573539885.802963,0.100183,-1.429583,0.160761,0.283409,-1.460046,4.757302,493.605122,-151.406052,-76.191709,61.702712,-20.566182,-11.959951
1573539885.832854,0.084558,-1.440108,0.161598,0.280684,-1.440802,4.739165,494.880627,-152.426154,-76.332765,61.264218,-21.039246,-11.788435
1573539885.927474,-0.003942,-1.513079,0.160939,0.295142,-1.256213,4.682375,497.225889,-152.345929,-75.210400,58.154667,-19.102073,-9.603566
1573539886.022104,0.072155,-1.475499,0.169762,0.253159,-1.439547,4.584839,504.291667,-159.666274,-78.168204,60.285982,-24.816065,-11.871633
1573539886.151593,0.094829,-1.395446,0.158302,0.274647,-1.469225,4.816880,515.455454,-158.467939,-80.531998,64.194514,-20.829643,-12.902756
1573539886.246213,0.096648,-1.417821,0.158976,0.284645,-1.459132,4.804525,521.396889,-160.233245,-81.540763,64.538106,-20.842031,-12.847019
1573539886.340843,0.088698,-1.431281,0.160957,0.279137,-1.450961,4.761717,526.837764,-163.149366,-82.581165,64.367196,-21.951786,-12.832731
1573539886.435463,0.084766,-1.404250,0.153965,0.288951,-1.412882,4.939047,534.106645,-161.007793,-83.696721,66.005976,-17.983129,-12.883581
1573539886.495234,0.104971,-1.419561,0.158724,0.288721,-1.464431,4.812611,537.862954,-164.972868,-84.789473,66.145141,-21.065599,-13.348678
1573539886.589854,0.105091,-1.405908,0.158470,0.283615,-1.477905,4.827068,544.502902,-167.093629,-86.313776,67.037592,-21.398074,-13.803882
1573539886.744263,0.100545,-1.409866,0.158377,0.285142,-1.469239,4.827087,554.780215,-170.312348,-88.361337,67.737404,-21.639549,-13.999474
1573539886.843863,0.051452,-1.470276,0.160974,0.280502,-1.361077,4.739778,558.333761,-173.011680,-88.118193,65.055138,-22.351371,-12.515146
1573539886.938493,0.122160,-1.367202,0.155014,0.283489,-1.503465,4.883811,569.032681,-173.442187,-91.542660,70.101275,-20.924194,-14.976727
1573539887.033123,0.121275,-1.385260,0.156449,0.289160,-1.504366,4.879517,575.845471,-175.568809,-92.981494,70.797010,-21.268601,-15.186021
1573539887.097873,0.117697,-1.388992,0.156871,0.288161,-1.500620,4.872985,580.284566,-177.137746,-93.913980,70.999093,-21.605858,-15.260852
1573539887.192493,0.034212,-1.514918,0.169207,0.265327,-1.375126,4.599855,581.134694,-184.440593,-93.194556,65.360306,-27.203036,-13.136447
1573539887.346884,0.158660,-1.151508,0.133907,0.244797,-1.525944,5.239147,600.758737,-175.153220,-98.836685,75.552131,-14.500196,-17.040478
1573539887.446493,0.118279,-1.411510,0.156178,0.296781,-1.464221,4.873081,604.389648,-183.670979,-98.608887,72.277888,-21.539966,-15.329178
1573539887.541123,0.039602,-1.509223,0.167686,0.267581,-1.369384,4.613107,605.673228,-191.719697,-98.263100,67.222215,-27.625944,-13.650798
1573539887.635753,0.012249,-1.508833,0.161928,0.268776,-1.267331,4.835089,612.756213,-188.226971,-98.696211,68.359912,-21.827882,-12.934088
1573539887.695513,-0.089582,-1.658000,0.182191,0.243764,-1.186326,4.260978,607.962756,-200.000180,-97.155755,59.483289,-32.585844,-10.602894
1573539887.790143,0.205197,-1.031398,0.119871,0.229475,-1.509732,5.282876,629.550585,-184.046547,-104.384512,76.575631,-13.456249,-17.340171
1573539887.949523,0.097946,-1.454877,0.160793,0.293786,-1.438810,4.805849,638.484334,-196.626294,-105.378883,74.207119,-23.843727,-15.981712
1573539888.044143,0.149820,-1.302593,0.148549,0.291308,-1.550123,5.104521,651.381476,-192.064628,-109.506653,80.543881,-17.429604,-18.838899
1573539888.138763,0.112947,-1.414984,0.156241,0.294494,-1.455881,4.945918,655.166244,-197.355677,-109.344361,77.253998,-21.216754,-17.080549
1573539888.233383,0.088514,-1.421368,0.156628,0.277688,-1.409215,4.899025,660.376122,-200.683901,-110.130545,75.647884,-22.738491,-16.406052
1573539888.298123,0.087722,-1.426521,0.157163,0.279619,-1.406852,4.915759,665.595698,-201.687141,-111.249997,76.330676,-22.418719,-16.600081
1573539888.392753,0.111974,-1.383356,0.152706,0.282614,-1.434972,5.047135,674.964358,-200.609379,-113.596810,79.069762,-19.398050,-17.610248
1573539888.527213,0.177414,-1.289764,0.142639,0.293914,-1.497467,5.232640,688.744657,-197.472421,-117.234156,83.015622,-14.036596,-19.226660
1573539888.646744,0.133909,-1.401265,0.154277,0.301274,-1.468594,5.019462,696.538104,-205.196663,-118.649358,81.598805,-20.195202,-18.648510
1573539888.741364,0.089217,-1.444187,0.159278,0.285024,-1.420933,4.942304,702.129785,-209.943382,-119.642778,80.002744,-23.194822,-18.071797
1573539888.835994,0.062000,-1.473286,0.162492,0.275650,-1.389271,4.909331,708.528052,-213.459366,-120.890703,79.358589,-24.735754,-17.826865
1573539888.930624,0.137993,-1.340929,0.148550,0.278827,-1.455622,5.199162,720.622642,-207.327414,-124.272360,84.473895,-16.656909,-19.782027
1573539888.990383,0.132483,-1.400416,0.154894,0.296560,-1.471553,4.942385,723.523602,-214.579365,-124.847884,82.635528,-23.199394,-19.338358
1573539889.119864,0.097732,-1.424586,0.156755,0.276849,-1.408968,4.950166,732.453085,-218.019387,-126.470081,81.552180,-23.997148,-18.720417
1573539889.244374,0.005106,-1.576081,0.174161,0.264706,-1.344515,4.631804,736.890364,-230.609010,-127.218439,76.597434,-33.631758,-17.426913
1573539889.339004,0.083827,-1.372597,0.155652,0.255800,-1.444419,4.946247,750.572894,-225.699522,-131.357738,83.499431,-26.035786,-20.166944
1573539889.433624,0.062123,-1.473849,0.162985,0.267326,-1.387139,4.851315,756.144353,-230.148892,-131.960888,81.713583,-28.262182,-19.073864
1573539889.508323,0.102052,-1.383826,0.155683,0.269692,-1.455386,4.944363,765.040588,-229.709124,-134.758996,85.009151,-25.926019,-20.676680
1573539889.592983,0.059121,-1.449422,0.162625,0.259181,-1.409965,4.847368,769.910762,-235.203493,-135.660216,83.108898,-29.533554,-20.004730
1573539889.712513,0.099067,-1.366050,0.157732,0.267658,-1.512239,4.831474,782.208827,-239.264673,-139.758610,86.230532,-30.423209,-22.114705
1573539889.846973,0.089905,-1.394009,0.159535,0.269703,-1.492671,4.840645,793.642740,-243.173660,-142.471720,86.858308,-30.672801,-22.234390
1573539889.941593,-0.046005,-1.668372,0.178887,0.245517,-1.201013,4.818221,794.469260,-246.448365,-139.529879,79.988212,-31.322000,-17.362083
1573539890.036213,-0.001196,-1.549673,0.172357,0.240853,-1.320971,4.600625,800.382944,-255.717215,-142.345495,78.935821,-37.757008,-18.786016
1573539890.130833,0.023353,-1.464429,0.164220,0.231528,-1.345856,4.766039,810.903363,-255.377268,-145.093280,82.467065,-34.253499,-19.990599
1573539890.190603,0.091380,-1.364667,0.155414,0.255623,-1.456609,4.893257,821.045923,-253.083326,-148.554242,88.225171,-30.026817,-22.559083
1573539890.320083,0.012656,-1.505006,0.168400,0.238035,-1.349460,4.852478,829.588060,-259.475972,-149.848454,86.020924,-32.933746,-21.216820
1573539890.444593,0.002723,-1.570730,0.171383,0.242311,-1.278003,4.778176,837.024893,-264.504458,-150.594385,83.507621,-34.220492,-19.643023
1573539890.539213,0.038679,-1.467288,0.162633,0.231239,-1.322299,4.877820,847.044403,-265.176202,-153.495180,86.140843,-32.040925,-20.914663
1573539890.633833,0.042764,-1.423891,0.159372,0.218301,-1.332951,4.907287,855.558747,-268.028598,-155.801745,87.009650,-32.197661,-21.478743
1573539890.728453,0.024420,-1.456048,0.163687,0.220030,-1.335930,4.800355,862.275843,-274.486619,-157.664991,86.044051,-35.874900,-21.569203
1573539890.823073,0.072882,-1.436274,0.159392,0.241155,-1.361789,4.991239,874.928596,-270.846923,-160.766161,91.086356,-29.265619,-22.905166
1573539890.917713,0.036306,-1.495664,0.166920,0.242211,-1.356659,4.816508,880.984447,-279.428731,-162.475398,89.066145,-35.347368,-22.699772
1573539891.047194,0.026876,-1.470793,0.165566,0.227378,-1.355468,4.833362,892.432353,-284.304205,-165.544874,89.693184,-36.092434,-23.160980
1573539891.141814,-0.000894,-1.471549,0.169545,0.214844,-1.382851,4.617728,897.058849,-295.713130,-167.732551,86.486018,-44.191846,-23.458143
1573539891.236434,-0.029397,-1.489218,0.168325,0.185506,-1.277842,4.916018,908.241259,-291.669764,-169.091093,89.861941,-36.564104,-22.817953
1573539891.331043,0.010792,-1.542326,0.169904,0.224905,-1.286564,4.786894,914.830499,-296.174845,-170.405795,88.546325,-37.902406,-22.255467
1573539891.425663,0.014646,-1.467304,0.163858,0.198922,-1.286583,4.888940,924.217574,-297.906005,-172.897368,90.052732,-36.448713,-22.883439
1573539891.520283,0.059274,-1.362726,0.154029,0.200534,-1.344790,4.910214,934.049849,-300.178163,-175.991146,91.931670,-35.621868,-24.103386
1573539891.644794,-0.012699,-1.550699,0.172969,0.217864,-1.298232,4.700535,941.864078,-311.531504,-177.905526,89.073187,-42.740242,-23.355225
1573539891.739413,-0.051568,-1.508293,0.172849,0.174915,-1.285156,4.625160,946.942872,-320.540722,-179.787012,86.268653,-47.961004,-23.266393
1573539891.834044,0.014181,-1.396302,0.159173,0.168348,-1.289250,4.989004,962.395369,-312.691213,-183.055911,93.926041,-36.285628,-24.571286
1573539891.928663,0.053981,-1.474486,0.163502,0.233922,-1.341613,4.795549,970.456166,-318.820537,-185.423464,93.713250,-39.267937,-24.933515
1573539891.993403,0.010817,-1.450187,0.165501,0.200689,-1.346882,4.712885,974.331338,-326.325780,-187.262845,91.834929,-44.579097,-25.360441
1573539892.088023,-0.033442,-1.472716,0.169514,0.175558,-1.309021,4.698415,981.438836,-332.699904,-189.161135,90.679742,-47.174124,-25.100061
1573539892.247373,-0.030410,-1.511310,0.171582,0.190982,-1.305958,4.641665,994.823150,-341.196238,-192.778818,90.462551,-48.756530,-25.205711
1573539892.342013,-0.015867,-1.410175,0.162392,0.161856,-1.298235,4.787185,1005.392455,-342.058385,-195.371825,92.897104,-45.555834,-25.685026
1573539892.436633,0.029379,-1.319974,0.153151,0.165818,-1.345500,4.822768,1015.754596,-344.389435,-198.592891,94.995064,-44.010484,-26.760464
1573539892.531253,0.005831,-1.438067,0.163624,0.178361,-1.302653,4.839304,1024.996907,-347.549722,-200.607032,95.739869,-43.402893,-26.494544
1573539892.625883,0.037849,-1.381066,0.157296,0.184177,-1.330540,4.894048,1035.742938,-349.120880,-203.705949,97.963615,-41.296407,-27.379665
1573539892.720503,0.004798,-1.483262,0.167833,0.210279,-1.344755,4.658747,1041.613625,-360.634902,-206.062300,95.132798,-49.204590,-27.461130
1573539892.845013,-0.095645,-1.614247,0.182529,0.158846,-1.217204,4.673257,1049.668313,-369.530704,-207.371893,92.002981,-52.440768,-25.694863
1573539892.939633,-0.002554,-1.338567,0.156729,0.144391,-1.326027,4.707894,1060.109267,-373.038531,-211.378883,94.252195,-51.464476,-27.579186
1573539893.034253,-0.015031,-1.371819,0.160310,0.153278,-1.323473,4.689755,1069.062996,-378.327727,-214.081864,94.789503,-52.296759,-27.969828
1573539893.128873,0.022549,-1.444916,0.163623,0.182183,-1.311619,4.890391,1083.774111,-374.146635,-217.332827,100.931320,-43.808366,-28.839808
1573539893.193624,-0.072209,-1.715291,0.187045,0.198190,-1.185247,4.593297,1081.247332,-386.507612,-215.452441,91.998994,-53.662694,-25.150186
1573539893.288244,0.003903,-1.339297,0.156202,0.154995,-1.334024,4.601399,1090.635630,-393.279136,-220.422010,93.296804,-55.817386,-28.125196
1573539893.447613,0.037434,-1.339822,0.154566,0.152827,-1.312716,4.979824,1115.256742,-388.232817,-226.328341,103.439262,-43.164816,-29.971172
1573539893.542243,0.020424,-1.473716,0.166374,0.210248,-1.350024,4.708933,1122.204197,-400.183647,-229.302326,101.295641,-51.177970,-30.463182
1573539893.636863,0.010057,-1.423490,0.162922,0.174806,-1.325360,4.832213,1132.949127,-402.378808,-232.200882,102.904293,-49.022781,-30.729965
1573539893.731493,0.092772,-1.235261,0.143491,0.190470,-1.411442,4.954777,1147.193325,-400.305928,-236.979115,107.927129,-42.873563,-32.919168
1573539893.791254,0.018792,-1.506941,0.169814,0.201078,-1.325173,4.817804,1150.264509,-408.500112,-237.239182,104.772909,-48.869851,-31.353480
1573539893.885883,-0.001473,-1.503531,0.169534,0.200945,-1.330247,4.678444,1156.649099,-418.490032,-239.703403,101.696348,-54.757632,-31.165063
1573539894.045233,0.022499,-1.436262,0.163728,0.194003,-1.352671,4.795049,1176.348784,-422.888455,-245.748740,105.919762,-51.318195,-32.702088
1573539894.139853,0.053666,-1.351800,0.155573,0.184310,-1.372053,4.916711,1189.240337,-422.868657,-249.592380,109.262229,-47.026362,-33.744311
1573539894.234483,0.051668,-1.382654,0.158163,0.189352,-1.363236,4.914746,1199.591671,-427.201285,-252.635329,109.813673,-47.336933,-33.918379
1573539894.329103,0.071289,-1.356693,0.154942,0.194778,-1.374670,4.954122,1211.149521,-429.551662,-256.149928,111.504168,-45.694495,-34.571709
1573539894.398834,0.036340,-1.586256,0.174983,0.190977,-1.264477,4.908202,1215.468741,-434.778861,-255.848427,108.348002,-48.065207,-32.010680
1573539894.503413,0.013903,-1.579478,0.175993,0.170120,-1.249245,4.879187,1224.954298,-442.225286,-258.808230,107.060372,-50.944480,-31.934878
1573539894.583093,0.009336,-1.425226,0.162786,0.189490,-1.352911,4.636519,1230.005959,-455.052925,-262.717794,103.989995,-60.220197,-33.656389
1573539894.742463,0.016517,-1.410555,0.161769,0.143256,-1.287175,4.962191,1252.340546,-453.896602,-267.900307,110.340807,-50.645076,-33.919652
1573539894.837083,0.067756,-1.448946,0.163419,0.177352,-1.313808,4.984814,1265.070453,-454.885148,-271.726201,113.108935,-47.434200,-34.856621
1573539894.931704,0.003142,-1.540431,0.172031,0.215365,-1.334833,4.624565,1268.941928,-473.606886,-274.534162,106.970981,-61.670354,-34.737683
1573539895.026333,0.014596,-1.395628,0.160541,0.160115,-1.330682,4.833942,1282.411168,-473.572917,-278.422578,110.743469,-56.458809,-35.623974
1573539895.120954,0.013874,-1.590235,0.176593,0.165119,-1.239089,4.894152,1292.196793,-475.553235,-279.668554,110.541351,-53.574009,-33.781263
1573539895.215574,0.027764,-1.537096,0.171533,0.156620,-1.248131,4.939108,1303.410668,-479.029483,-283.099813,111.784311,-52.475350,-34.307041
1573539895.340073,0.015241,-1.446595,0.164050,0.174955,-1.317885,4.702911,1313.092559,-494.758763,-288.135372,108.390700,-61.937367,-35.538387
1573539895.434703,0.014077,-1.373958,0.158593,0.157112,-1.333816,4.779328,1325.451855,-498.731902,-292.357025,110.913608,-60.601999,-36.725405
1573539895.529323,-0.100238,-1.630352,0.184717,0.150467,-1.242625,4.519880,1325.938336,-517.227142,-293.365909,101.533068,-73.492241,-34.615397
1573539895.594064,0.048799,-1.238410,0.146423,0.149731,-1.380426,4.902382,1346.646667,-504.576872,-299.586874,116.255992,-56.341613,-38.935125
1573539895.688694,0.027164,-1.449972,0.165622,0.176287,-1.339447,4.838743,1356.739108,-511.666287,-302.616945,115.827520,-58.573590,-38.607440
1573539895.813194,0.031534,-1.403965,0.160609,0.197121,-1.381610,4.764057,1370.921949,-521.296435,-308.244713,116.309955,-61.490193,-39.887788
1573539895.942683,-0.000388,-1.561028,0.177386,0.143443,-1.271996,4.945201,1387.116750,-524.468963,-311.738001,118.016576,-57.568683,-38.648329
1573539896.037303,0.050638,-1.427308,0.161840,0.205908,-1.377512,4.811308,1398.978407,-531.871644,-317.160851,119.318902,-59.920217,-40.810842
1573539896.131933,0.023124,-1.423141,0.163231,0.186483,-1.370467,4.783196,1408.817433,-540.237353,-321.003085,118.408136,-63.037811,-41.151062
1573539896.191704,0.043635,-1.362528,0.156961,0.184189,-1.385114,4.845289,1417.561332,-541.190485,-323.870052,120.432432,-60.526066,-41.792568
1573539896.321193,-0.001492,-1.438438,0.165767,0.180536,-1.367670,4.719722,1429.525837,-555.450765,-328.782640,117.547951,-67.479078,-41.806657
1573539896.415823,0.029700,-1.283164,0.150892,0.170963,-1.409433,4.799857,1443.212020,-558.352014,-333.738877,120.622599,-64.556120,-43.178972
1573539896.540334,0.046658,-1.273756,0.149366,0.174479,-1.411014,4.862934,1460.133896,-563.174744,-339.358991,123.140313,-62.120228,-43.891812
1573539896.634953,-0.009311,-1.435375,0.166195,0.175308,-1.368578,4.722330,1467.454664,-576.249573,-342.481084,119.413211,-69.587772,-43.280181
1573539896.729584,-0.024873,-1.455970,0.168805,0.155012,-1.341835,4.752189,1478.354130,-582.775621,-346.041637,119.490021,-70.066495,-43.094179
1573539896.799304,0.025243,-1.573505,0.177281,0.135960,-1.258029,4.965264,1489.340657,-577.713067,-346.948383,122.497656,-60.521596,-41.157267
1573539896.918833,0.024723,-1.523457,0.171910,0.150885,-1.286291,4.867583,1502.074152,-588.642142,-352.066320,121.258103,-64.750813,-41.816863
1573539896.983573,0.038305,-1.470332,0.166362,0.153644,-1.302463,4.888017,1510.669359,-591.658400,-355.092233,122.381736,-63.915920,-42.391859
1573539897.142953,0.015966,-1.510487,0.171594,0.149066,-1.291004,4.828799,1528.343378,-605.108949,-361.563718,121.428565,-67.885696,-42.682110
1573539897.237573,0.036988,-1.388630,0.159652,0.152091,-1.334825,4.846951,1541.170204,-610.308107,-366.608351,123.239204,-67.226465,-44.049660
1573539897.332203,0.052107,-1.366822,0.157181,0.152657,-1.338700,4.902060,1554.492150,-613.945442,-371.038219,125.336687,-65.118386,-44.657134
1573539897.391963,0.061886,-1.352343,0.155304,0.162670,-1.352571,4.893834,1562.414516,-617.567405,-374.016854,126.118775,-65.186810,-45.209476
1573539897.521443,0.012599,-1.539997,0.172961,0.167491,-1.295398,4.764614,1574.317402,-632.477542,-378.258162,122.415403,-72.199706,-44.130171
1573539897.586184,-0.003815,-1.497572,0.170428,0.138504,-1.285499,4.788999,1581.327717,-637.711894,-380.868916,121.802006,-73.131104,-44.129964
1573539897.770453,0.000689,-1.501822,0.171259,0.121661,-1.266322,4.864547,1605.205138,-648.360198,-388.721859,123.980448,-71.532763,-44.504687
1573539897.840173,-0.016977,-1.425912,0.163856,0.145498,-1.324778,4.615564,1607.241716,-664.086871,-392.367325,117.995439,-82.238406,-45.389563
1573539897.929823,-0.022751,-1.408791,0.163230,0.124521,-1.308321,4.676396,1618.836349,-669.908774,-396.169191,119.367129,-81.282349,-45.471931
1573539898.024443,0.056631,-1.266743,0.148192,0.162209,-1.393707,4.866103,1640.500607,-666.071408,-403.858020,130.062611,-70.629192,-49.180405
1573539898.119073,0.034405,-1.367896,0.158570,0.157868,-1.363579,4.837321,1651.630467,-674.654147,-407.949694,129.379815,-73.020662,-48.993271
1573539898.213703,0.041741,-1.330884,0.154120,0.177796,-1.396469,4.792475,1664.122382,-682.781400,-413.454991,130.154083,-74.744333,-50.269755
1573539898.343184,0.050094,-1.324035,0.153544,0.171167,-1.391107,4.854012,1682.617995,-689.739188,-420.055290,132.387661,-72.893851,-50.839931
1573539898.437814,0.016028,-1.405936,0.162104,0.175611,-1.379639,4.745633,1692.157035,-702.338464,-424.649750,129.995404,-78.922777,-51.052425
1573539898.532434,0.016397,-1.403319,0.162118,0.165521,-1.370004,4.792171,1705.419358,-708.088599,-429.382930,131.399567,-77.818879,-51.352628
1573539898.627053,0.024676,-1.384990,0.160167,0.162220,-1.370567,4.831373,1718.935194,-713.604473,-434.323456,132.937967,-76.594535,-51.808822
1573539898.721673,0.025078,-1.402689,0.161991,0.157856,-1.361287,4.851986,1731.880502,-720.035630,-439.074692,133.760243,-76.355083,-52.051888
1573539898.816303,-0.031540,-1.518807,0.173437,0.167195,-1.342953,4.628028,1737.052017,-738.485345,-443.077135,126.846302,-87.898810,-51.607261
1573539898.940804,-0.089362,-1.747771,0.195469,0.095507,-1.168688,4.687337,1746.143838,-749.728406,-443.620634,120.821532,-88.920395,-46.270868
1573539899.035424,-0.031079,-1.506563,0.172537,0.073283,-1.214961,4.814176,1761.530069,-751.842856,-448.513805,125.092066,-83.437688,-47.112353
1573539899.130054,-0.018755,-1.473773,0.168738,0.080036,-1.227873,4.820562,1773.952387,-758.866737,-453.213414,126.100939,-83.164631,-47.699329
1573539899.224684,-0.015900,-1.513780,0.171320,0.129874,-1.268202,4.677472,1784.176134,-771.121184,-458.939896,124.932332,-88.008185,-49.267564
1573539899.289423,-0.006724,-1.470453,0.167220,0.122761,-1.272634,4.724500,1793.642235,-774.911020,-462.263819,126.633903,-86.503453,-49.655865
1573539899.413924,0.023899,-1.380145,0.159752,0.105086,-1.291276,4.851939,1813.773774,-779.891783,-469.301919,131.494832,-81.596996,-50.993643
1573539899.478663,-0.057303,-1.668436,0.188918,0.092136,-1.205372,4.679371,1814.668117,-794.732744,-470.469746,123.950361,-91.715721,-49.079046
1573539899.638023,-0.008563,-1.296503,0.151138,0.107611,-1.312566,4.680452,1835.602004,-808.584272,-480.090049,125.856776,-91.941568,-51.472326
1573539899.732633,-0.004704,-1.562746,0.177392,0.083744,-1.215673,4.836471,1851.470993,-809.781651,-483.260129,130.045480,-85.316844,-50.136412
1573539899.827273,0.007866,-1.514898,0.172143,0.088741,-1.230135,4.850407,1864.529430,-816.781787,-488.275680,131.216852,-84.861105,-50.785305
1573539899.921893,-0.003229,-1.486175,0.168422,0.136618,-1.289409,4.675860,1874.386235,-831.834826,-494.834362,129.212805,-92.282220,-52.972971
1573539900.016523,0.002730,-1.448965,0.165091,0.127285,-1.290608,4.725356,1888.031236,-838.632977,-499.955548,131.033076,-90.998881,-53.463466
1573539900.141013,0.009980,-1.441844,0.164838,0.115357,-1.281713,4.795981,1906.406895,-846.884314,-506.579150,133.586260,-88.851973,-53.911480
1573539900.235633,-0.004144,-1.643001,0.186031,0.073370,-1.199320,4.852739,1918.212373,-853.659564,-509.525354,133.134006,-87.903559,-52.138890
1573539900.330263,0.008440,-1.580035,0.179013,0.081790,-1.218038,4.859471,1931.396455,-861.185597,-514.794021,134.132012,-87.743824,-52.847508
1573539900.424883,-0.028797,-1.551416,0.176393,0.092493,-1.236580,4.670169,1937.029082,-879.412496,-519.710914,127.694392,-97.965532,-53.217486
1573539900.519503,-0.007762,-1.530282,0.175795,0.050389,-1.205674,4.868320,1954.569831,-880.191889,-524.110463,133.384523,-90.329310,-52.897105
1573539900.614133,-0.068197,-1.552459,0.174664,0.118482,-1.242975,4.462718,1952.769187,-907.011672,-528.976904,119.669816,-108.767731,-53.267377
1573539900.708753,-0.158350,-1.578277,0.183496,0.013756,-1.153944,4.468730,1956.636830,-923.784198,-531.052796,112.474191,-115.764063,-50.653411
1573539900.838233,-0.123056,-1.405549,0.165363,-0.002107,-1.168426,4.541655,1973.375077,-935.358364,-536.599895,114.951513,-113.367947,-50.115810
1573539900.932863,-0.064170,-1.247966,0.147901,0.013220,-1.214961,4.633212,1989.865377,-939.836150,-542.160743,120.761063,-107.996894,-51.311154
1573539901.027483,-0.074716,-1.533011,0.174778,0.026156,-1.143737,4.643094,2000.957850,-947.296856,-545.814145,120.715450,-105.970743,-50.442147
1573539901.122113,-0.103137,-1.470199,0.169681,0.018776,-1.161996,4.479321,2003.596073,-966.488137,-550.181725,112.458486,-115.489116,-50.434337
1573539901.216733,-0.089630,-1.425526,0.165146,0.015946,-1.167590,4.527568,2016.638950,-975.171206,-555.021377,115.125587,-113.940985,-50.841999
1573539901.281483,-0.126027,-1.424898,0.165788,-0.004720,-1.142448,4.460485,2018.364805,-987.258994,-556.889429,109.493374,-119.116130,-49.642645
1573539901.435863,-0.109731,-1.381124,0.161208,-0.005992,-1.149241,4.511108,2038.129271,-1003.154174,-564.692860,112.699352,-117.764859,-50.324978
1573539901.530483,-0.045323,-1.220543,0.144525,-0.008289,-1.181653,4.683907,2057.949744,-1004.913065,-570.044390,121.828180,-109.401881,-51.191448
1573539901.625103,-0.039334,-1.229000,0.144978,-0.003107,-1.183991,4.696720,2070.416436,-1014.133074,-575.105859,123.046285,-108.946605,-51.738340
1573539901.719733,-0.030526,-1.219291,0.143446,0.005242,-1.193075,4.702184,2082.848572,-1023.550753,-580.332764,124.140004,-108.716887,-52.435002
1573539901.814353,-0.088373,-1.602216,0.183549,-0.016466,-1.096389,4.647047,2090.590432,-1036.870639,-583.961674,120.407859,-112.307941,-51.452829
1573539901.908973,-0.072494,-1.540602,0.176696,-0.010381,-1.113333,4.668645,2103.409620,-1046.063733,-589.119889,122.107373,-111.538052,-52.093385
1573539902.033484,-0.061204,-1.452966,0.167185,0.000064,-1.141934,4.629654,2117.118187,-1061.503629,-595.902845,121.073720,-113.850462,-52.856978
1573539902.128103,-0.048354,-1.393171,0.160970,0.001818,-1.156246,4.652200,2129.879402,-1071.051946,-601.133971,122.642230,-113.311081,-53.436256
1573539902.227703,-0.085659,-1.573761,0.178226,0.003125,-1.103926,4.576779,2137.306116,-1085.862963,-605.075604,118.275146,-117.365473,-52.435268
1573539902.322324,-0.014362,-1.274695,0.148795,-0.008151,-1.170160,4.742248,2156.768284,-1088.836107,-611.094644,126.645531,-110.160126,-53.801233
1573539902.416944,-0.001599,-1.256853,0.146468,-0.000042,-1.179868,4.764781,2170.354921,-1097.460117,-616.547799,128.521002,-109.051110,-54.481377
1573539902.496624,0.006741,-1.238431,0.144060,0.010439,-1.192136,4.760940,2181.073095,-1105.705780,-621.258756,129.269313,-109.164745,-55.154412
1573539902.636073,-0.004801,-1.576819,0.178629,0.020083,-1.143934,4.756351,2201.751060,-1119.432943,-629.835380,132.201146,-108.701540,-56.509211
1573539902.730693,-0.020030,-1.407965,0.160973,0.038215,-1.193093,4.634665,2208.739057,-1136.877754,-635.881056,127.250401,-116.219866,-57.617737
1573539902.825314,-0.026192,-1.359498,0.157011,0.027451,-1.198262,4.640052,2220.484378,-1148.636558,-641.389356,127.254851,-117.608487,-58.041893
1573539902.919943,-0.012370,-1.312301,0.151920,0.030658,-1.209905,4.677419,2234.581933,-1157.678390,-647.176946,129.558952,-116.244393,-58.710300
1573539903.014573,-0.042757,-1.408611,0.163139,0.011487,-1.180457,4.638544,2244.070221,-1171.751279,-652.198761,127.077741,-119.907166,-58.567207
1573539903.109184,-0.053293,-1.383838,0.160660,0.008644,-1.183245,4.612206,2254.448130,-1185.074211,-657.651111,125.734744,-122.519735,-58.858527
1573539903.233693,-0.153251,-1.659539,0.188970,-0.023874,-1.081297,4.448687,2256.893068,-1211.159224,-661.967477,113.290373,-133.710480,-56.430757
1573539903.328313,-0.137416,-1.598196,0.182625,-0.024912,-1.092853,4.488195,2270.020600,-1221.841389,-667.397099,115.849067,-132.511346,-56.887279
1573539903.427923,-0.131115,-1.462240,0.168877,-0.046215,-1.094730,4.500472,2279.481351,-1235.608330,-671.498424,114.076671,-133.762862,-55.762941
1573539903.522543,-0.112422,-1.405064,0.162695,-0.042460,-1.109228,4.539774,2292.961421,-1245.995575,-677.027886,116.906182,-132.269000,-56.365966
1573539903.617163,-0.097328,-1.347827,0.156694,-0.039075,-1.125493,4.554580,2305.193238,-1257.459154,-682.572376,118.277596,-131.936708,-56.938205
1573539903.711783,-0.080756,-1.310839,0.152671,-0.036285,-1.135248,4.598179,2319.139073,-1267.396531,-688.206637,121.213264,-130.133715,-57.561029
1573539903.836283,-0.068161,-1.274891,0.148578,-0.029486,-1.147845,4.614307,2335.600598,-1282.359855,-695.697991,122.861753,-129.840904,-58.353953
1573539903.930903,-0.071652,-1.346129,0.156599,-0.039981,-1.130641,4.631209,2347.979837,-1293.548877,-701.071026,123.807103,-129.470682,-58.565109
1573539904.025533,-0.060912,-1.319735,0.153499,-0.034194,-1.140317,4.646500,2360.922413,-1304.607039,-706.864268,125.238010,-129.002605,-59.187655
1573539904.120153,-0.047663,-1.291100,0.150159,-0.027943,-1.150952,4.669870,2374.483531,-1315.127119,-712.772683,127.145649,-128.056640,-59.863324
1573539904.214773,-0.093837,-1.543787,0.177222,-0.044280,-1.096037,4.549670,2379.278178,-1333.251615,-717.600670,120.232596,-134.583623,-59.468477
1573539904.289474,-0.082200,-1.493486,0.171817,-0.042149,-1.106256,4.578947,2389.966947,-1341.830899,-722.158042,122.122536,-133.662728,-59.860815
1573539904.433893,-0.088169,-1.469071,0.169533,-0.046525,-1.107729,4.556792,2405.755188,-1362.922979,-730.591303,120.685011,-136.386523,-60.203147
1573539904.528513,-0.074291,-1.343509,0.156128,-0.040861,-1.132751,4.569261,2417.658090,-1375.526389,-736.319549,121.412212,-136.782588,-60.640405
1573539904.623133,-0.066655,-1.325614,0.154225,-0.040670,-1.136275,4.595446,2430.764147,-1387.026894,-742.152838,123.167208,-136.089318,-61.102974
1573539904.722733,-0.062806,-1.316454,0.153200,-0.039772,-1.138886,4.605745,2443.727455,-1399.961414,-748.319050,124.055153,-136.231931,-61.562675
1573539904.782493,-0.053259,-1.275600,0.148512,-0.031552,-1.152028,4.612304,2451.897120,-1407.472878,-752.257313,124.971999,-136.050655,-62.058024
1573539904.911973,-0.202954,-1.740757,0.195204,-0.054478,-1.008071,4.283916,2442.867178,-1442.405709,-756.258897,100.466639,-153.776335,-58.622918
1573539905.036484,-0.135514,-1.229093,0.145837,-0.111119,-1.077329,4.402863,2458.690651,-1460.104122,-761.350142,103.831066,-153.303833,-57.056260
1573539905.131104,-0.235899,-1.476254,0.171174,-0.128744,-0.993118,4.175523,2447.560577,-1485.080977,-763.986830,83.705080,-163.966707,-54.758995
1573539905.225734,-0.167805,-1.167216,0.141633,-0.188512,-0.999654,4.373062,2466.025627,-1494.771238,-765.309959,93.939346,-159.066907,-51.382015
1573539905.320364,-0.154562,-1.144858,0.138511,-0.180987,-1.006829,4.409855,2478.175022,-1507.574117,-770.440446,97.219812,-157.597269,-51.977969
1573539905.414984,-0.181313,-1.217394,0.144321,-0.163589,-1.001488,4.279127,2477.756029,-1526.805440,-775.359897,87.933950,-162.465601,-52.359317
1573539905.484704,-0.195618,-1.310219,0.151298,-0.149837,-0.969088,4.202941,2476.478525,-1537.979486,-777.176862,80.528717,-162.783717,-50.707571
1573539905.599253,-0.141432,-1.031168,0.123221,-0.170945,-1.004742,4.256365,2487.597564,-1555.378245,-780.815219,82.481942,-162.383247,-48.988696
1573539905.728734,-0.137229,-1.025936,0.122970,-0.174428,-1.002700,4.282532,2500.246086,-1575.434955,-787.099325,84.473566,-162.389677,-49.381201
1573539905.823364,-0.129144,-1.008630,0.121264,-0.175327,-1.005580,4.309167,2510.391576,-1589.676868,-791.802372,86.621699,-162.006793,-49.733009
1573539905.922953,-0.126062,-1.011535,0.121791,-0.178726,-1.002530,4.332723,2520.777955,-1604.780644,-796.710329,88.398641,-161.749249,-50.060117
1573539905.992683,-0.118818,-0.988771,0.119244,-0.175931,-1.010243,4.337504,2527.534143,-1615.710484,-800.309606,89.036431,-161.922028,-50.438920
1573539906.077343,-0.119477,-0.999918,0.120509,-0.178046,-1.006323,4.347860,2535.767260,-1628.969802,-804.559723,89.777754,-162.091557,-50.729498
1573539906.206823,-0.108162,-0.997954,0.120209,-0.177984,-1.007947,4.395630,2551.346972,-1647.494167,-811.376685,93.763285,-160.629462,-51.395920
1573539906.331333,-0.226479,-1.518905,0.172468,-0.183942,-0.881473,4.195531,2544.857956,-1673.481854,-816.310928,76.334479,-167.161674,-50.358783
1573539906.425963,-0.192872,-1.244144,0.148372,-0.254110,-0.886436,4.253929,2549.663655,-1691.277296,-817.002422,73.992711,-169.718307,-46.829593
1573539906.520583,-0.176549,-1.193542,0.142752,-0.249786,-0.898513,4.285830,2559.890376,-1705.947006,-821.532121,77.107666,-169.078233,-47.266809
1573539906.615203,-0.145095,-1.087112,0.129182,-0.232246,-0.919533,4.331900,2571.924723,-1718.479834,-825.644971,81.744306,-166.419297,-47.231862
1573539906.709823,-0.203043,-1.389346,0.157885,-0.205678,-0.864343,4.184119,2568.266299,-1735.683652,-829.986528,70.609450,-168.462049,-47.371251
1573539906.804443,-0.119171,-1.021739,0.123955,-0.262201,-0.907569,4.362297,2585.245277,-1748.371079,-831.887126,80.742679,-165.979297,-45.197154
1573539906.928943,-0.103133,-0.977304,0.118535,-0.251535,-0.921914,4.392102,2598.638988,-1767.328578,-837.908760,84.027843,-165.235204,-45.988124
1573539907.023573,-0.112840,-1.013384,0.121929,-0.249242,-0.915787,4.369940,2604.970217,-1783.558494,-842.373518,82.475260,-166.485484,-46.431127
1573539907.113214,-0.133132,-1.074338,0.127750,-0.245396,-0.906909,4.304250,2607.132599,-1800.569718,-846.628500,77.386252,-169.171479,-46.846736
1573539907.217793,-0.120088,-1.046397,0.124946,-0.247306,-0.911485,4.351939,2619.389874,-1816.273407,-851.574840,81.447224,-168.022007,-47.252285
1573539907.282543,-0.109129,-1.017603,0.121572,-0.241838,-0.920539,4.374272,2626.927364,-1825.986629,-854.844582,83.746813,-167.346217,-47.693064
1573539907.372184,-0.096983,-0.981502,0.117317,-0.233910,-0.932550,4.392908,2636.477412,-1839.936515,-859.395225,85.875679,-166.946328,-48.280473
1573539907.531554,-0.098238,-0.990785,0.117812,-0.225956,-0.938532,4.368594,2648.882208,-1867.074711,-867.529508,84.736614,-168.609560,-49.281577
1573539907.626184,-0.088757,-0.970522,0.115468,-0.219206,-0.951437,4.376599,2658.396203,-1882.172588,-872.697051,86.243306,-168.518517,-50.127656
1573539907.720803,-0.177264,-1.306169,0.151323,-0.246370,-0.868092,4.228927,2651.808739,-1904.192891,-876.720391,71.920214,-175.027051,-49.763286
1573539907.815423,-0.138122,-1.053445,0.126253,-0.261705,-0.904728,4.254564,2657.987555,-1922.165324,-879.610776,71.328650,-177.100541,-48.430612
1573539907.885144,-0.126720,-1.019958,0.122595,-0.259538,-0.911644,4.287244,2666.090824,-1933.249797,-883.055804,74.485947,-176.385864,-48.768546
1573539908.004673,-0.102581,-0.950379,0.114785,-0.252788,-0.928067,4.353505,2681.526898,-1951.436701,-889.161881,80.954125,-174.494650,-49.486361
1573539908.129174,-0.120165,-1.026082,0.121185,-0.239120,-0.919624,4.304554,2688.601918,-1973.778614,-895.885849,78.167437,-176.030530,-50.504616
1573539908.223804,-0.105480,-0.982380,0.116411,-0.234280,-0.931369,4.336914,2699.339420,-1988.967607,-900.874304,81.438460,-175.367128,-51.111136
1573539908.318424,-0.082678,-0.940939,0.112139,-0.231572,-0.946518,4.401588,2713.424279,-2002.332209,-906.255139,87.660903,-173.027264,-52.006500
1573539908.413054,-0.037251,-0.840724,0.100375,-0.199864,-0.992926,4.481037,2731.396460,-2013.173160,-912.929483,97.243672,-168.474713,-54.113986
1573539908.487753,-0.059810,-0.932541,0.110056,-0.198230,-0.981432,4.408721,2733.434931,-2028.550723,-917.340760,92.134725,-171.857372,-54.805277
1573539908.572413,-0.048151,-0.900049,0.106399,-0.191537,-0.992054,4.434400,2743.823392,-2041.720783,-922.294127,94.899832,-171.165361,-55.482898
1573539908.731783,-0.028691,-0.874934,0.103684,-0.181517,-1.010009,4.481099,2764.291010,-2066.021470,-932.196709,100.239345,-169.624239,-57.215684
1573539908.826413,-0.019985,-0.859819,0.101760,-0.171952,-1.020892,4.493079,2775.683638,-2080.956435,-938.172048,102.242627,-169.369952,-58.198295
1573539908.921033,-0.012750,-0.845407,0.099979,-0.164433,-1.029096,4.504979,2787.016792,-2096.004478,-944.083364,104.025253,-169.225765,-59.010069
1573539909.015653,-0.001258,-0.821860,0.097188,-0.155723,-1.039870,4.529838,2799.650795,-2110.279243,-950.144997,106.931826,-168.332276,-59.905516
1573539909.080404,0.007470,-0.833331,0.098423,-0.152312,-1.046206,4.551542,2809.112960,-2119.482296,-954.629566,109.640196,-167.185350,-60.807131
1573539909.175024,0.014642,-0.817398,0.096399,-0.142159,-1.056222,4.557509,2820.802484,-2134.497439,-960.842041,111.201609,-167.186260,-61.716205
1573539909.329403,0.023914,-0.799302,0.094195,-0.132542,-1.066696,4.571570,2840.035767,-2159.050282,-970.920411,113.529497,-167.242486,-62.970776
1573539909.424023,0.028149,-0.850705,0.099953,-0.127182,-1.073304,4.567482,2852.209409,-2174.104137,-978.045458,115.163487,-167.313603,-64.552467
1573539909.518653,0.039914,-0.853804,0.100446,-0.125096,-1.081006,4.600022,2866.513705,-2187.622329,-984.811432,118.707675,-165.887943,-65.618229
1573539909.613283,0.014111,-0.928932,0.108251,-0.097288,-1.092304,4.469049,2870.686502,-2209.748116,-992.778431,112.132676,-172.910603,-67.815265
1573539909.707903,-0.047748,-1.210349,0.139511,-0.148005,-1.030169,4.429765,2875.801013,-2232.105201,-1000.046343,106.946775,-179.507674,-69.017133
1573539909.802533,0.012358,-0.844928,0.100558,-0.097017,-1.124798,4.576503,2902.265445,-2240.712152,-1009.209127,123.261166,-172.137347,-72.167862
1573539909.932014,0.022030,-0.908149,0.106539,-0.067575,-1.142841,4.564452,2921.285510,-2261.703246,-1020.751284,126.579212,-171.987438,-74.859748
1573539910.026644,-0.066221,-1.201432,0.137887,-0.087454,-1.084925,4.353569,2914.302337,-2292.893680,-1028.077615,108.648645,-187.016668,-75.499717
1573539910.121274,-0.010488,-1.077259,0.127680,-0.141286,-1.106361,4.634085,2947.304545,-2296.331356,-1036.400041,130.764658,-174.128884,-77.056660
1573539910.215894,0.000369,-1.009048,0.116751,-0.045920,-1.153287,4.527789,2957.953347,-2315.014067,-1045.771970,129.474365,-177.038000,-79.650957
1573539910.280653,-0.020260,-1.056693,0.123095,-0.057806,-1.148756,4.499428,2964.005699,-2329.512275,-1051.720299,127.327268,-180.614162,-80.795213
1573539910.405133,-0.010755,-1.061692,0.124284,-0.071416,-1.149535,4.559797,2984.664850,-2348.861583,-1062.280717,132.387446,-178.587099,-81.868146
1573539910.529644,-0.006078,-1.108653,0.129602,-0.078610,-1.146402,4.579073,3003.103960,-2369.951638,-1072.993304,134.631640,-178.464200,-82.916027
1573539910.624264,0.002208,-1.099065,0.128297,-0.070593,-1.154128,4.595047,3018.290354,-2385.236608,-1081.352616,137.290996,-177.667976,-83.859414
1573539910.723863,0.013007,-1.051199,0.122478,-0.050575,-1.169623,4.608530,3034.938572,-2400.930990,-1090.301628,140.492497,-176.533734,-84.926001
1573539910.818483,0.017275,-1.086684,0.126575,-0.052814,-1.169642,4.612872,3049.193632,-2417.178520,-1098.787003,141.706163,-176.833703,-85.768507
1573539910.913113,-0.057378,-1.408716,0.161146,-0.086279,-1.094949,4.446764,3042.729741,-2449.897025,-1106.153024,122.622994,-192.999553,-85.375490
1573539911.007733,-0.021879,-0.987495,0.115926,-0.058019,-1.169157,4.611864,3073.493564,-2455.502910,-1115.398083,141.579402,-181.483022,-87.068835
1573539911.102353,0.034133,-1.134566,0.132359,-0.034935,-1.196339,4.666085,3097.847310,-2464.590976,-1127.075729,152.602811,-174.327681,-90.842979
1573539911.226863,0.036718,-1.126288,0.130787,-0.014477,-1.205929,4.643386,3117.145453,-2486.836230,-1138.907677,153.244999,-175.782004,-91.906578
1573539911.321483,-0.026842,-1.334073,0.151845,0.000043,-1.177407,4.478596,3118.402650,-2519.193272,-1149.385980,140.735991,-191.568428,-94.089917
1573539911.416093,0.014706,-1.166311,0.136562,-0.024209,-1.222938,4.690712,3153.028599,-2519.922150,-1160.946984,161.596439,-175.537158,-97.052715
1573539911.480844,-0.012006,-1.295592,0.147536,0.028178,-1.210561,4.521744,3152.725155,-2543.472762,-1167.551890,151.035430,-188.158704,-97.711832
1573539911.575474,-0.018753,-1.214924,0.140250,0.006483,-1.223333,4.601762,3173.541446,-2556.138836,-1178.033448,157.824286,-183.756499,-99.370546
1573539911.670094,-0.083422,-1.437156,0.162239,0.005547,-1.169069,4.410186,3165.329258,-2592.835967,-1186.269828,134.599259,-203.908605,-98.633022
1573539911.829463,-0.082822,-1.249848,0.145041,-0.049435,-1.182267,4.556877,3199.417851,-2615.274548,-1201.707480,146.930698,-195.589292,-99.088999
1573539911.924083,-0.037157,-1.265727,0.146376,-0.024817,-1.203513,4.590538,3221.017736,-2626.802710,-1211.919849,154.542561,-189.666769,-100.303964
1573539912.018703,-0.014627,-1.238867,0.142791,0.010132,-1.230324,4.582268,3240.492070,-2641.717103,-1222.675823,159.438685,-187.511409,-101.991526
1573539912.103364,-0.074723,-1.390071,0.157888,0.006840,-1.190675,4.421247,3232.021524,-2676.038198,-1230.512225,138.057163,-206.111796,-101.646231
1573539912.207943,-0.060763,-1.412447,0.164962,-0.106049,-1.164549,4.622511,3259.413743,-2686.392380,-1240.343982,150.737860,-196.047730,-101.248647
1573539912.302563,0.075658,-0.984164,0.117282,0.010817,-1.306061,4.830546,3312.471336,-2666.071537,-1253.726802,189.157732,-158.976417,-105.416977
1573539912.427073,0.019581,-1.493559,0.168123,0.045622,-1.215772,4.468965,3301.439172,-2727.430340,-1264.618340,156.305553,-199.430697,-103.924382
1573539912.521693,-0.108013,-1.562010,0.177653,-0.056712,-1.141636,4.424847,3287.488757,-2762.802121,-1273.015700,128.681319,-215.917351,-102.937647
1573539912.616313,0.097065,-1.168786,0.144383,-0.144240,-1.268999,4.961348,3365.346023,-2720.682404,-1285.494049,192.374479,-156.616541,-105.863577
1573539912.681053,0.143909,-1.174749,0.141073,-0.018671,-1.302375,4.795729,3376.030797,-2736.077526,-1291.633535,190.849007,-162.361902,-105.561841
1573539912.805553,0.027833,-1.542108,0.174217,0.016023,-1.196165,4.466337,3360.855605,-2798.032286,-1302.469762,153.033580,-203.770732,-103.958407
1573539912.900173,0.021819,-1.465349,0.166092,0.001794,-1.203044,4.534790,3382.335536,-2810.987489,-1313.048644,160.057843,-198.354276,-105.111178
1573539913.029664,-0.023310,-1.374333,0.156347,-0.004029,-1.207081,4.516639,3398.426490,-2839.614910,-1327.516329,155.835811,-202.176777,-106.565317
1573539913.124274,-0.055552,-1.263253,0.145451,-0.004015,-1.226045,4.500819,3411.028073,-2859.864066,-1338.435608,153.927777,-204.029156,-107.885570
1573539913.218894,0.017782,-1.129266,0.133061,0.000653,-1.281262,4.676354,3452.282723,-2855.315490,-1350.921141,179.880125,-181.958432,-110.474546
1573539913.313514,0.050036,-1.382554,0.161757,-0.026005,-1.251081,4.635743,3462.073514,-2880.407574,-1360.467659,172.987429,-190.262712,-109.988620
1573539913.408134,0.056724,-1.350614,0.157349,-0.019954,-1.254049,4.678465,3483.793477,-2893.059280,-1371.264397,178.423700,-185.832214,-110.805665
1573539913.477854,0.072325,-1.276925,0.148581,0.005707,-1.274011,4.697322,3501.665063,-2900.738957,-1379.404751,184.046962,-181.140965,-111.573720
1573539913.627254,-0.005053,-1.412119,0.160515,0.040355,-1.231496,4.455120,3501.017726,-2956.798346,-1394.996034,157.411360,-209.839929,-111.400695
1573539913.721874,0.046157,-1.259581,0.149511,-0.051398,-1.271139,4.762652,3546.260808,-2945.296333,-1407.913731,186.698379,-180.687534,-113.990929
1573539913.816504,0.092241,-1.252179,0.147866,-0.004032,-1.294827,4.741429,3568.145195,-2959.061374,-1418.641037,191.011426,-178.252928,-114.403437
1573539913.911124,-0.006594,-1.383659,0.155872,0.079367,-1.246392,4.406098,3552.379721,-3012.569027,-1428.049160,158.417169,-214.331589,-113.737257
1573539914.005744,-0.014711,-1.362877,0.154422,0.046091,-1.241495,4.483319,3573.447269,-3027.263741,-1439.374151,164.449756,-209.698153,-114.739651
1573539914.100363,0.000600,-1.246117,0.144131,0.005206,-1.268102,4.659280,3607.127258,-3028.820446,-1452.301497,182.352184,-192.692282,-117.163104
1573539914.229843,0.009013,-1.626904,0.187577,-0.053398,-1.195887,4.559414,3608.502288,-3073.412050,-1464.819432,161.253956,-212.240840,-115.209143
1573539914.324463,-0.028346,-1.517332,0.175108,-0.063028,-1.195260,4.574886,3622.864148,-3092.943018,-1475.574158,160.505516,-212.500637,-115.568515
1573539914.419093,-0.022909,-1.448620,0.167409,-0.054161,-1.208355,4.601450,3643.129819,-3108.622335,-1486.726876,165.523464,-209.054854,-116.260809
1573539914.513713,-0.007754,-1.380795,0.160154,-0.038181,-1.228147,4.613415,3663.075267,-3124.288333,-1497.924659,169.806406,-205.886710,-116.926745
1573539914.578454,0.031919,-1.450805,0.168998,-0.056973,-1.223038,4.649900,3676.827866,-3134.077326,-1504.729656,172.630933,-202.884554,-116.416651
1573539914.702953,0.046410,-1.418962,0.165704,-0.053787,-1.233455,4.671889,3701.934872,-3155.781204,-1519.316898,176.357117,-200.429513,-117.124147
1573539914.767694,0.040899,-1.359168,0.158079,-0.022458,-1.244754,4.635021,3712.367686,-3170.041776,-1526.937423,175.497704,-202.269175,-117.544550
1573539914.922073,0.045939,-1.307704,0.152113,-0.005774,-1.257644,4.640512,3742.562039,-3198.863157,-1545.536699,178.712794,-201.219026,-118.726100
1573539915.016693,-0.146859,-1.747926,0.195294,-0.033774,-1.093959,4.217663,3672.197674,-3274.227675,-1551.360333,94.591643,-255.745630,-114.074141
1573539915.111313,-0.130514,-1.164931,0.138894,-0.183627,-1.137093,4.577073,3726.225147,-3271.744176,-1556.248252,138.030725,-230.926258,-108.815622
1573539915.205933,0.012672,-1.303297,0.154703,-0.150395,-1.176191,4.708723,3763.981130,-3269.651783,-1569.318984,162.166527,-208.541628,-111.784040
1573539915.270674,-0.059954,-1.301434,0.147910,-0.012688,-1.175901,4.370380,3740.702533,-3308.577904,-1576.485545,128.306839,-234.542878,-112.263022
1573539915.430033,-0.078071,-1.255001,0.146050,-0.085138,-1.165240,4.471159,3767.007689,-3342.388616,-1593.759596,133.819809,-232.447811,-112.411508
1573539915.524663,-0.058697,-1.184944,0.138605,-0.088115,-1.181181,4.543069,3791.407632,-3356.534894,-1604.738182,145.085197,-225.784480,-113.168491
1573539915.619283,-0.022977,-1.619120,0.188485,-0.194642,-1.080509,4.570648,3790.528663,-3382.672166,-1611.325065,130.908880,-230.942504,-109.434504
1573539915.713903,-0.088160,-1.236705,0.143923,-0.119116,-1.131711,4.442394,3789.111556,-3412.190807,-1620.681839,117.635344,-239.133758,-109.123672
1573539915.808523,-0.019433,-1.035363,0.124218,-0.130435,-1.181910,4.627608,3831.174349,-3414.964853,-1631.113168,147.652896,-220.825165,-109.605693
1573539915.903143,0.000930,-1.384388,0.161536,-0.141121,-1.125224,4.556442,3832.097133,-3443.273047,-1641.109685,134.911302,-228.699184,-109.597955
1573539916.027643,-0.059102,-1.185625,0.138277,-0.106566,-1.144268,4.461886,3835.424809,-3480.012575,-1654.199735,122.103610,-237.536647,-109.776255
1573539916.122263,-0.041551,-1.128650,0.132672,-0.113189,-1.156952,4.530623,3858.129045,-3496.177747,-1664.766497,132.758325,-232.326092,-110.393822
1573539916.216863,0.011916,-1.103938,0.131547,-0.127877,-1.178949,4.652651,3889.507296,-3505.207929,-1676.197528,150.878576,-220.711648,-111.695734
1573539916.311493,0.043194,-1.501534,0.176568,-0.185125,-1.112132,4.628619,3894.051112,-3532.095489,-1685.993792,141.404480,-227.143578,-111.257469
1573539916.376233,-0.013378,-1.012814,0.117896,-0.027101,-1.210796,4.500492,3903.790688,-3548.751958,-1695.711214,142.210967,-229.748515,-114.339095
1573539916.500713,-0.004207,-0.926007,0.108219,-0.012902,-1.232986,4.536916,3929.018114,-3572.695260,-1710.761313,149.662262,-226.248255,-115.748650
1573539916.595343,0.020185,-1.035226,0.122117,-0.050402,-1.220960,4.598786,3948.559895,-3590.422242,-1722.226305,154.948890,-223.404981,-116.625248
1573539916.724823,0.036338,-1.084019,0.128120,-0.059313,-1.219805,4.619337,3971.491501,-3617.488019,-1737.791868,157.766272,-222.676145,-117.647226
1573539916.819443,0.047404,-1.051404,0.124016,-0.040727,-1.232160,4.630248,3990.430357,-3635.874314,-1749.480312,161.710191,-220.895958,-118.641089
1573539916.914063,0.081850,-1.117214,0.132734,-0.062016,-1.233791,4.690852,4013.121203,-3651.112024,-1761.427472,168.885501,-216.221061,-119.718036
1573539917.008683,0.098130,-1.351253,0.159926,-0.105000,-1.197247,4.678576,4025.147483,-3675.991079,-1772.827480,165.062342,-221.217236,-120.196199
1573539917.103303,-0.023518,-1.369378,0.157741,-0.064765,-1.154478,4.443928,4005.831782,-3722.095511,-1783.023053,131.122400,-246.334124,-119.636901
1573539917.197923,0.004982,-1.203175,0.143576,-0.143875,-1.183642,4.664840,4042.444820,-3728.014670,-1794.340920,154.743284,-230.200502,-119.976372
1573539917.322413,0.130350,-1.184804,0.143890,-0.107068,-1.255474,4.810476,4091.555551,-3733.091647,-1813.721288,183.416006,-208.835866,-124.745270
1573539917.417033,0.141758,-1.150407,0.138929,-0.060543,-1.269261,4.766727,4109.088825,-3753.980423,-1825.515922,183.730243,-210.696635,-125.242377
1573539917.511653,0.022719,-1.457560,0.168828,-0.053287,-1.166092,4.449301,4081.040068,-3811.727395,-1834.720946,139.898098,-247.724681,-123.288585
1573539917.576393,-0.043749,-1.288105,0.150717,-0.119417,-1.165662,4.554310,4093.110400,-3823.529681,-1842.550552,142.856247,-244.048505,-123.427156
1573539917.700893,0.010477,-1.122410,0.132593,-0.082903,-1.217569,4.655759,4130.864629,-3839.700754,-1859.119237,162.419748,-231.321313,-125.178203
1573539917.765633,0.029764,-1.097291,0.129261,-0.054355,-1.232514,4.651905,4144.371194,-3852.588401,-1867.690270,165.511659,-229.787649,-125.986186
1573539917.924994,-0.090344,-1.402322,0.160011,-0.050062,-1.138528,4.300791,4112.378220,-3925.828048,-1885.364883,109.914834,-265.701273,-124.636727
1573539918.019593,-0.012883,-0.919189,0.112373,-0.119451,-1.236698,4.712429,4181.901361,-3914.216357,-1897.251068,166.486245,-231.581240,-125.098048
1573539918.114213,0.049608,-1.152375,0.135092,-0.028314,-1.232156,4.594322,4192.692101,-3940.028976,-1911.417136,161.852459,-236.106919,-127.824547
1573539918.208843,-0.049719,-1.194568,0.136934,-0.011184,-1.200276,4.401444,4179.745186,-3982.337990,-1923.285583,134.556022,-256.106252,-128.238643
1573539918.303463,-0.037141,-1.165150,0.135186,-0.046457,-1.204246,4.507293,4204.575616,-3999.235827,-1935.608268,146.296297,-249.817708,-128.857544
1573539918.398083,0.083441,-1.280165,0.154633,-0.155700,-1.222810,4.787696,4250.477398,-3997.263699,-1949.206804,177.522174,-225.704694,-130.477310
1573539918.522573,0.068885,-1.210827,0.144418,-0.078768,-1.236032,4.666375,4263.928099,-4033.509944,-1965.283173,169.385508,-234.468332,-131.079485
1573539918.617193,-0.012672,-1.322064,0.151917,-0.035846,-1.184777,4.466614,4252.730595,-4076.979385,-1976.851608,143.341097,-255.545698,-130.881601
1573539918.711793,0.022631,-1.252533,0.146797,-0.089154,-1.204419,4.660855,4289.300490,-4084.904315,-1990.183378,165.485207,-240.761310,-132.144839
1573539918.806413,0.010417,-1.359893,0.157641,-0.063718,-1.188188,4.550257,4293.100247,-4117.307856,-2002.980146,154.056961,-250.817768,-132.987940
1573539918.901043,-0.058344,-1.290453,0.149063,-0.065460,-1.180641,4.462199,4291.486562,-4150.413875,-2014.889729,138.288578,-260.692032,-132.933504
1573539918.995663,-0.013051,-0.980211,0.116056,-0.031674,-1.260857,4.612501,4330.430307,-4157.732231,-2029.105656,163.622052,-244.686990,-135.032722
1573539919.125144,0.024235,-1.160498,0.137381,-0.051136,-1.240659,4.609563,4351.608015,-4189.741448,-2046.812561,163.612268,-246.062609,-135.855817
1573539919.219774,0.029574,-1.179468,0.139210,-0.048722,-1.238271,4.613341,4367.973067,-4212.634722,-2059.821346,164.488331,-246.505135,-136.513382
1573539919.314384,0.055833,-1.169757,0.138299,-0.046142,-1.248800,4.667803,4391.701441,-4230.115754,-2073.374314,172.355129,-241.725510,-137.604284
1573539919.409014,0.070861,-1.109752,0.130990,-0.018647,-1.266284,4.685646,4412.780157,-4249.643911,-2086.902175,176.996877,-239.321888,-138.609519
1573539919.478724,0.105222,-1.135289,0.134793,-0.019207,-1.275593,4.721602,4431.319062,-4261.868241,-2097.121757,183.191762,-235.519343,-139.510988
1573539919.568363,0.117593,-1.093489,0.129802,0.005905,-1.289851,4.722572,4450.373829,-4281.465471,-2110.060402,185.912382,-234.780431,-140.444136
1573539919.722744,0.124994,-1.172712,0.139733,-0.011163,-1.281684,4.702069,4477.408380,-4320.183324,-2132.025051,184.392414,-238.376507,-141.526932
1573539919.817364,0.114790,-1.152996,0.136743,0.004201,-1.283418,4.682043,4493.388391,-4344.638102,-2145.785749,183.027233,-240.995731,-142.436447
1573539919.911983,0.129407,-1.154165,0.137145,-0.001511,-1.289083,4.727532,4516.234634,-4363.144571,-2159.959011,188.369171,-237.693020,-143.575899
1573539920.006603,0.134762,-1.131719,0.134489,0.011278,-1.296737,4.729811,4535.659720,-4384.792429,-2173.886449,189.983172,-237.699448,-144.428629
1573539920.101223,0.126370,-1.111299,0.131771,0.028743,-1.300698,4.698721,4551.551645,-4409.883143,-2187.842281,188.037765,-241.042677,-145.294212
1573539920.165963,0.126033,-1.108935,0.131436,0.030635,-1.303549,4.702736,4564.668885,-4425.216220,-2197.746346,189.016713,-241.332544,-146.158329
1573539920.325323,0.097647,-1.416618,0.167320,-0.058986,-1.237551,4.652871,4583.278954,-4474.364129,-2220.914933,177.998343,-252.713395,-146.856588
1573539920.419943,0.122015,-1.397036,0.165621,-0.075119,-1.248520,4.746675,4611.395760,-4488.749563,-2235.581993,188.741125,-244.479711,-148.026938
1573539920.514564,0.113947,-1.323033,0.156368,-0.039282,-1.262072,4.712650,4627.282321,-4513.946812,-2249.773716,186.908134,-247.279038,-148.788140
1573539920.609194,0.120819,-1.277280,0.150988,-0.023170,-1.274335,4.724944,4647.768621,-4535.280312,-2264.251191,189.623632,-246.094361,-149.705743
1573539920.683893,-0.023969,-1.598541,0.184715,-0.070107,-1.156967,4.401755,4608.878185,-4590.949702,-2272.261436,137.177122,-283.285118,-147.194216
1573539920.798424,0.082441,-1.318501,0.160522,-0.179473,-1.247031,4.817229,4677.519356,-4580.343854,-2289.433704,188.493284,-242.618393,-147.867233
1573539920.922933,-0.033620,-1.431591,0.165384,-0.029766,-1.174313,4.309421,4632.927564,-4658.207649,-2304.206548,123.901182,-288.701938,-145.426189
1573539921.017554,-0.017335,-1.369449,0.163338,-0.207423,-1.173125,4.671476,4683.647304,-4658.621471,-2316.190124,160.855550,-263.910420,-144.005870
1573539921.112174,-0.025006,-1.438247,0.167166,-0.118084,-1.146847,4.474646,4672.851470,-4698.377671,-2328.323906,135.870290,-278.800060,-143.170988
1573539921.206794,-0.038353,-1.402883,0.163384,-0.131514,-1.148102,4.491836,4686.496316,-4724.113274,-2341.602379,136.498127,-278.992378,-143.435756
1573539921.271513,-0.027759,-1.351662,0.157531,-0.125812,-1.160328,4.534943,4702.424596,-4738.170872,-2351.107917,143.512084,-275.592504,-144.002429
1573539921.396013,0.008928,-1.291686,0.152257,-0.136716,-1.184739,4.627209,4734.568480,-4762.839723,-2369.429590,157.297305,-267.282715,-144.989909
1573539921.490644,0.031313,-1.244993,0.146698,-0.114610,-1.200600,4.659976,4756.191466,-4783.694707,-2383.586146,163.842626,-263.771443,-145.907823
1573539921.620103,-0.231592,-1.803460,0.202221,-0.147667,-0.966353,4.044457,4635.831931,-4872.378050,-2393.996884,28.794059,-316.168707,-138.698176
1573539921.714733,0.024013,-0.992670,0.128374,-0.397592,-1.152554,4.858692,4786.080297,-4840.300753,-2395.431283,169.449318,-258.160451,-127.877216
1573539921.809353,-0.055798,-1.334404,0.150522,-0.081168,-1.070089,4.235875,4710.427725,-4905.476239,-2412.069613,81.471616,-297.793145,-132.778548
1573539921.903973,-0.056204,-1.108992,0.133666,-0.269108,-1.100477,4.556458,4756.739450,-4915.801695,-2420.374743,118.367931,-281.400792,-129.096025
1573539921.998593,-0.043151,-1.100601,0.131427,-0.240545,-1.104620,4.550369,4769.212143,-4941.255997,-2433.067732,119.448889,-281.040038,-130.021966
1573539922.093214,0.017577,-1.574751,0.187461,-0.336957,-1.012397,4.571883,4776.552759,-4965.536464,-2443.176376,115.249526,-279.400430,-128.116965
1573539922.217713,-0.056059,-1.130186,0.132839,-0.199601,-1.083692,4.392645,4765.743094,-5010.283207,-2458.746910,91.184311,-289.932295,-128.593846
1573539922.312333,-0.043721,-1.078117,0.128685,-0.222005,-1.096869,4.468656,4786.729596,-5033.371977,-2470.591296,102.789741,-286.563152,-128.766678
1573539922.406963,-0.030654,-1.024068,0.122265,-0.207689,-1.111075,4.501597,4803.698032,-5057.520032,-2483.100551,109.570437,-284.499608,-129.542824
1573539922.501583,0.002527,-1.161943,0.138040,-0.216824,-1.088598,4.510642,4816.413976,-5082.035739,-2495.297550,111.616958,-282.904632,-129.864349
1573539922.566324,0.014309,-1.130527,0.135437,-0.225873,-1.100365,4.539408,4828.452507,-5097.797165,-2503.667389,116.297130,-280.890343,-130.129912
1573539922.690824,0.023299,-1.085745,0.130031,-0.211464,-1.111806,4.561646,4847.905674,-5130.525766,-2520.190550,120.966035,-279.720428,-131.043109
1573539922.820303,0.039888,-1.059039,0.127006,-0.202896,-1.122070,4.598404,4870.992854,-5163.126699,-2537.608701,127.777263,-277.319763,-132.105430
1573539922.914923,0.052802,-1.026047,0.122997,-0.182741,-1.134856,4.604624,4886.523735,-5187.598164,-2550.728190,130.891068,-276.405054,-133.149784
1573539923.009543,0.070213,-1.013547,0.121791,-0.173991,-1.144874,4.627608,4904.383601,-5210.860969,-2563.943819,136.008761,-274.415425,-134.184316
1573539923.104163,0.035547,-1.285860,0.153803,-0.226194,-1.087451,4.491415,4892.473605,-5249.849923,-2576.562058,111.858202,-287.603062,-134.620955
1573539923.198783,0.067476,-1.089044,0.132913,-0.237348,-1.140672,4.670386,4931.827986,-5262.849689,-2590.347587,139.585987,-274.706467,-136.031807
1573539923.293413,0.052618,-1.140219,0.135894,-0.162300,-1.130388,4.516935,4927.413177,-5299.357716,-2604.464352,122.294527,-285.694089,-137.780823
1573539923.417913,0.020520,-1.232194,0.146462,-0.207429,-1.103535,4.516375,4937.581845,-5338.321862,-2621.842371,117.137845,-289.850860,-138.614457
1573539923.512533,0.024091,-1.147056,0.137064,-0.203576,-1.123874,4.554936,4955.271946,-5362.660129,-2635.271646,123.258747,-287.691628,-139.403423
1573539923.607153,0.047543,-1.122653,0.134644,-0.200226,-1.136197,4.611564,4977.446339,-5384.598304,-2648.986425,133.189546,-283.420180,-140.330585
1573539923.671903,0.058815,-1.092820,0.131022,-0.185284,-1.145842,4.627684,4989.977336,-5400.905558,-2658.421498,136.988289,-281.933762,-140.999877
1573539923.766523,0.073517,-1.054137,0.126373,-0.162335,-1.159903,4.636892,5006.666459,-5425.632442,-2672.339986,140.567296,-280.760875,-142.052595
1573539923.891013,0.100282,-1.044157,0.125752,-0.153463,-1.173220,4.673137,5032.090156,-5456.191088,-2690.837766,148.093527,-277.490116,-143.411345
1573539924.020504,0.052317,-1.198186,0.142555,-0.151774,-1.135771,4.496095,5023.913405,-5508.777302,-2709.988806,121.876260,-294.256335,-144.753553
1573539924.115124,0.052082,-1.137408,0.135292,-0.144269,-1.147890,4.527455,5040.332262,-5534.359911,-2724.005607,126.342826,-292.878314,-145.554760
1573539924.209754,-0.069111,-1.260815,0.147960,-0.199618,-1.082759,4.333398,5007.133719,-5580.184341,-2735.662048,82.748911,-310.835518,-144.178434
1573539924.304374,-0.008092,-1.067527,0.130139,-0.262561,-1.138860,4.635622,5065.304386,-5589.693708,-2748.637658,130.946667,-292.576939,-143.887726
1573539924.374094,-0.023542,-1.275237,0.149822,-0.201266,-1.083180,4.412793,5040.370989,-5623.494959,-2758.479369,97.043262,-306.328911,-144.099438
1573539924.463733,-0.078508,-1.081729,0.127889,-0.219447,-1.102223,4.399206,5040.251187,-5653.417878,-2769.222812,87.960217,-309.512893,-142.489494
1573539924.588243,-0.072371,-1.134407,0.134842,-0.264219,-1.075828,4.425699,5051.301385,-5690.443684,-2783.858631,87.613880,-308.948779,-140.068050
1573539924.712754,-0.075056,-1.061129,0.126685,-0.258452,-1.085566,4.415491,5059.489979,-5728.822559,-2799.935389,84.649182,-309.840600,-139.455653
1573539924.807374,-0.077156,-1.003099,0.119951,-0.250895,-1.090871,4.404603,5064.743089,-5758.152199,-2811.840698,81.744783,-310.602983,-138.737989
1573539924.902004,-0.040367,-1.023943,0.123089,-0.265274,-1.087190,4.468179,5083.937966,-5782.063803,-2823.532685,92.510880,-306.063416,-137.767237
1573539924.996624,-0.035561,-1.004764,0.120668,-0.256527,-1.091813,4.476308,5094.728873,-5810.247432,-2836.673801,94.213610,-306.062078,-138.356081
1573539925.061363,-0.018436,-1.115194,0.133495,-0.267700,-1.069433,4.460832,5098.476589,-5829.439122,-2845.009058,91.630211,-305.907374,-138.017849
1573539925.220723,-0.003703,-1.039129,0.125038,-0.256021,-1.090514,4.506446,5122.741978,-5874.738454,-2867.344036,100.336692,-303.891190,-139.094332
1573539925.315343,-0.078384,-1.194495,0.139879,-0.258661,-1.020862,4.307543,5087.901135,-5916.726083,-2877.950348,57.810230,-317.056704,-137.223535
1573539925.409963,-0.094657,-1.014327,0.123152,-0.337370,-1.045492,4.402302,5103.206784,-5944.720081,-2886.645487,66.795181,-315.875845,-133.664516
1573539925.504583,-0.080488,-0.966665,0.117271,-0.319896,-1.058069,4.432926,5117.088063,-5972.564991,-2899.572228,73.749301,-314.661072,-134.413177
1573539925.599203,0.038375,-0.849925,0.104552,-0.240331,-1.120671,4.569456,5160.206219,-5985.654721,-2914.683773,108.508653,-299.425517,-137.069345
1573539925.693823,0.047272,-0.932219,0.114059,-0.245045,-1.107906,4.550506,5168.579502,-6014.591864,-2928.083929,106.368084,-300.680126,-137.923417
1573539925.818323,0.054633,-0.918787,0.112229,-0.232440,-1.113214,4.559521,5184.555301,-6050.967122,-2945.683110,108.637222,-300.616120,-138.922593
1573539925.912943,-0.018731,-1.114394,0.133045,-0.250592,-1.050984,4.360690,5153.931643,-6094.048850,-2958.125753,69.296287,-315.192223,-138.847412
1573539926.007553,0.032621,-0.923702,0.115276,-0.307728,-1.112423,4.593740,5201.894154,-6110.082139,-2970.954917,108.674429,-302.842651,-138.936402
1573539926.102174,-0.001975,-1.058620,0.126276,-0.231478,-1.066019,4.394040,5179.087695,-6150.260635,-2984.777004,76.535890,-314.577161,-140.106997
1573539926.196803,-0.037925,-0.992773,0.121327,-0.301409,-1.076805,4.419241,5183.747076,-6181.190261,-2996.747069,73.574947,-316.406140,-139.412226
1573539926.261544,-0.141812,-1.017634,0.121737,-0.306155,-1.030496,4.178299,5132.883166,-6211.952219,-3002.653212,17.550915,-327.031693,-136.847814
1573539926.420903,0.000539,-0.565075,0.076161,-0.327895,-1.146390,4.611521,5225.332398,-6244.274343,-3020.156360,101.841554,-309.728608,-133.422197
1573539926.515523,-0.024978,-0.884725,0.103859,-0.186841,-1.067896,4.323568,5188.817396,-6283.947056,-3037.316549,57.737080,-320.157506,-138.192585
1573539926.610143,-0.131470,-0.948503,0.116076,-0.344112,-1.035547,4.226933,5157.164659,-6321.238657,-3046.484453,21.698637,-327.377194,-135.174213
1573539926.704763,-0.160426,-0.932173,0.118303,-0.444203,-1.019448,4.277948,5159.444710,-6354.006762,-3053.849486,21.374704,-329.717405,-130.513367
1573539926.769503,-0.099163,-0.790283,0.098821,-0.393775,-1.030924,4.406068,5189.586502,-6370.310300,-3059.550292,49.751089,-325.286576,-127.968037
1573539926.864123,-0.090292,-0.811319,0.099733,-0.372183,-1.023027,4.397728,5193.401271,-6400.341307,-3071.935620,48.507843,-325.227283,-128.707699
1573539926.958743,-0.081276,-0.784939,0.096128,-0.355178,-1.029879,4.406162,5200.715609,-6430.261402,-3084.393584,50.833960,-325.013624,-129.447384
1573539927.128073,-0.156591,-1.095005,0.129369,-0.390227,-0.926289,4.187689,5150.804191,-6488.628380,-3103.527037,-4.932584,-329.028790,-127.654374
1573539927.207753,-0.053811,-0.589236,0.077704,-0.406275,-1.048005,4.452067,5211.155113,-6508.235082,-3107.425670,52.978561,-323.550006,-122.045935
1573539927.302383,-0.012716,-0.732492,0.089214,-0.306513,-1.027698,4.411895,5216.029772,-6533.395122,-3123.245010,52.631131,-318.988664,-126.413341
1573539927.367133,-0.119388,-0.891510,0.107932,-0.364843,-0.969275,4.157848,5157.021377,-6560.317141,-3129.182644,-9.993637,-325.478778,-124.649421
1573539927.491633,-0.094373,-0.805160,0.101772,-0.485788,-0.947780,4.360568,5186.719912,-6601.474624,-3134.674292,19.351282,-326.868468,-115.451620
1573539927.586253,0.004703,-0.618028,0.079529,-0.382621,-1.020795,4.474352,5225.373180,-6622.009109,-3148.657660,55.099947,-317.559672,-118.739199
1573539927.715724,0.006535,-0.661936,0.082441,-0.339040,-1.011381,4.422353,5225.124680,-6663.220280,-3165.575349,47.650356,-318.509224,-120.802026
1573539927.810354,-0.049700,-0.699066,0.085577,-0.322688,-0.996557,4.265188,5194.784361,-6697.552131,-3177.579280,13.968568,-323.091671,-121.888379
1573539927.904974,-0.036314,-0.822969,0.105970,-0.477394,-0.975191,4.414371,5218.624047,-6727.064619,-3185.617987,34.976071,-322.655892,-118.916732
1573539927.964733,-0.010539,-0.715017,0.091535,-0.416718,-0.999719,4.450979,5232.436485,-6744.021597,-3193.544300,46.510882,-320.832983,-119.972379
1573539928.064333,-0.014670,-0.779297,0.096039,-0.358218,-0.985312,4.350937,5221.604088,-6776.496847,-3207.414111,30.695017,-322.003388,-122.337832
1573539928.158933,0.007279,-0.621404,0.080923,-0.370305,-1.037881,4.435436,5241.747709,-6804.714958,-3219.200067,47.567071,-320.491697,-123.010481
1573539928.313334,0.019254,-0.593130,0.077132,-0.351386,-1.045375,4.460429,5255.534624,-6852.929601,-3238.664973,53.131022,-320.342928,-124.113775
1573539928.407964,0.036392,-0.535702,0.068381,-0.267982,-1.067262,4.435456,5262.661262,-6882.137793,-3253.494286,54.872574,-320.005526,-127.499552
1573539928.502584,0.056667,-0.611678,0.078916,-0.294583,-1.074588,4.481209,5279.527038,-6909.989810,-3268.013973,65.707115,-318.363801,-130.236684
1573539928.567323,0.065386,-0.589356,0.076076,-0.281361,-1.081192,4.502558,5288.757846,-6929.384606,-3276.800321,70.435109,-317.638039,-130.832283
1573539928.661953,0.072682,-0.597477,0.076893,-0.275832,-1.082048,4.513604,5298.568662,-6958.643857,-3289.616471,73.257475,-317.524576,-131.693584
1573539928.786453,0.087358,-0.561280,0.072376,-0.255069,-1.093056,4.548412,5315.915947,-6995.919354,-3306.596989,80.877837,-316.259758,-132.786785
1573539928.915933,0.076790,-0.611040,0.077921,-0.247988,-1.085560,4.478679,5314.818454,-7040.307718,-3324.742168,69.396152,-320.384506,-134.280161
1573539929.010553,0.034276,-0.808221,0.101029,-0.306581,-1.048180,4.387962,5300.841458,-7076.922126,-3339.172890,49.306707,-326.943467,-136.432094
1573539929.105183,0.042389,-0.750820,0.094443,-0.296919,-1.063226,4.427917,5313.785117,-7106.431116,-3352.340031,56.862885,-326.270767,-137.150262
1573539929.164943,0.052217,-0.631024,0.081030,-0.275415,-1.100046,4.488336,5329.524124,-7123.956398,-3362.203166,68.968916,-324.806041,-139.086328
1573539929.264554,-0.067079,-0.899508,0.108044,-0.308648,-0.999728,4.188911,5268.612853,-7168.410518,-3374.438784,0.877756,-337.320830,-138.107457
1573539929.359174,-0.091127,-0.771962,0.100190,-0.471617,-1.023848,4.332966,5284.727471,-7201.841582,-3382.043526,16.321657,-339.445211,-133.199965
1573539929.513563,-0.150317,-0.905138,0.110282,-0.451705,-0.942385,4.152558,5237.973697,-7253.698308,-3398.902216,-31.304180,-339.636195,-130.444031
1573539929.608183,0.049415,-0.510403,0.072748,-0.456483,-1.079554,4.593219,5345.398604,-7271.343078,-3408.110412,73.764660,-326.860425,-127.736741
1573539929.702813,-0.037726,-0.848388,0.100461,-0.293940,-0.963890,4.184344,5270.730690,-7311.301074,-3423.956029,-4.922261,-335.906121,-131.736412
1573539929.767554,-0.113810,-0.856932,0.110152,-0.529747,-0.955767,4.258861,5263.680464,-7335.625830,-3426.496921,-12.201556,-338.727607,-126.271285
1573539929.882103,-0.129947,-0.917519,0.115916,-0.562844,-0.906339,4.249771,5253.006565,-7374.409438,-3436.115826,-21.968283,-339.265043,-122.053415
1573539929.956804,0.013836,-0.373453,0.054154,-0.418237,-1.056419,4.505134,5319.132439,-7393.176855,-3445.580570,45.881595,-333.579712,-122.694890
1573539930.116174,0.012668,-0.578714,0.071236,-0.290950,-1.011893,4.338151,5301.680638,-7445.331898,-3470.862471,21.842532,-333.581985,-128.743140
1573539930.210793,0.013659,-0.580997,0.073115,-0.320763,-1.019586,4.364309,5308.293114,-7476.540226,-3483.120170,25.717520,-333.864525,-129.250280
1573539930.305423,-0.062874,-1.050030,0.129969,-0.507295,-0.902164,4.267954,5275.726438,-7510.473376,-3492.868431,-8.500803,-336.341273,-127.295579
1573539930.400043,0.028748,-0.520047,0.072147,-0.442739,-1.049579,4.494934,5330.984395,-7538.228416,-3504.289852,45.057600,-333.403366,-127.195270
1573539930.459803,-0.001659,-0.683469,0.084372,-0.328491,-0.994485,4.298197,5299.068757,-7560.679306,-3515.013114,10.247055,-336.234506,-130.526530
1573539930.609213,-0.088878,-0.872535,0.109772,-0.493860,-0.935533,4.217683,5264.902138,-7613.055994,-3530.593443,-24.765660,-338.913205,-127.564884
1573539930.713794,-0.054709,-0.772447,0.102507,-0.555876,-0.970291,4.383408,5299.096002,-7649.591135,-3541.459458,9.515744,-340.681623,-125.732292
1573539930.808424,0.087503,-0.322937,0.047163,-0.316130,-1.099486,4.583258,5361.152748,-7669.067023,-3559.031605,67.816327,-329.553459,-131.381874
1573539930.903044,-0.039082,-0.833105,0.101492,-0.338731,-0.956937,4.121310,5267.399340,-7710.150075,-3572.253559,-28.895269,-339.262807,-132.807114
1573539930.997663,-0.045850,-0.678487,0.093182,-0.559146,-1.007342,4.392214,5306.192825,-7745.508264,-3579.317079,10.420108,-342.997812,-128.000326
1573539931.062403,-0.010453,-0.698229,0.090838,-0.478010,-0.987950,4.420905,5318.279202,-7765.384966,-3588.596419,21.568429,-341.114624,-129.136154
1573539931.157033,-0.031222,-0.613532,0.077261,-0.382461,-0.994963,4.269093,5289.946876,-7797.922080,-3601.744048,-9.292678,-341.957502,-130.592009
1573539931.316403,-0.062355,-0.595470,0.079461,-0.469336,-1.006400,4.258805,5279.631464,-7853.330519,-3620.625509,-18.612751,-343.690878,-129.610697
1573539931.411033,0.014613,-0.483591,0.067593,-0.450444,-1.043476,4.451510,5325.645761,-7883.103936,-3632.603879,26.422855,-341.831946,-129.642868
1573539931.505653,-0.109883,-0.748024,0.091551,-0.414748,-0.935197,4.038011,5228.038619,-7911.643667,-3644.185266,-69.849563,-338.426234,-129.612140
1573539931.600273,0.017504,-0.264835,0.046474,-0.516232,-1.069675,4.521921,5327.372116,-7950.356568,-3648.565312,31.407286,-345.799193,-122.459656
1573539931.694903,-0.042487,-0.621189,0.074599,-0.341391,-0.947380,4.169816,5259.582081,-7978.909044,-3665.393647,-37.295041,-342.122507,-127.805656
1573539931.789533,-0.004963,-0.265274,0.043809,-0.444640,-1.071739,4.413900,5303.876869,-8013.880451,-3675.267019,8.521087,-345.392350,-126.198510
1573539931.914033,-0.016382,-0.464415,0.060256,-0.365462,-1.002222,4.287899,5282.230734,-8055.005420,-3693.258251,-13.587680,-344.258285,-128.872410
1573539932.008663,-0.031773,-0.683646,0.089908,-0.512250,-0.965458,4.321090,5283.744131,-8087.633659,-3703.852228,-11.608303,-344.752819,-127.804485
1573539932.103283,-0.024270,-0.651519,0.085982,-0.499409,-0.973697,4.340119,5287.776183,-8120.254540,-3716.081906,-7.181549,-345.352543,-128.341344
1573539932.197913,-0.023543,-0.515154,0.066672,-0.387002,-0.996645,4.267450,5273.976464,-8152.142226,-3729.722747,-20.198400,-345.204578,-130.212750
1573539932.292543,-0.111903,-0.572496,0.073917,-0.474337,-0.955758,4.104900,5221.567940,-8182.116303,-3737.765360,-69.764961,-342.932696,-126.755287
1573539932.407084,-0.146298,-0.627986,0.089184,-0.679660,-0.940962,4.194181,5221.854899,-8226.539040,-3744.449084,-62.800650,-348.321886,-120.040584
1573539932.481783,-0.149228,-0.673990,0.091071,-0.664745,-0.894395,4.178152,5210.260642,-8251.235478,-3750.168633,-69.996917,-347.336338,-117.160165
1573539932.611274,-0.099110,-0.544952,0.076124,-0.633697,-0.924868,4.288888,5232.956089,-8300.066488,-3763.836189,-40.604289,-351.800885,-116.317366
1573539932.705894,-0.058775,-0.521822,0.067930,-0.497643,-0.920149,4.224105,5222.265728,-8325.822757,-3776.951889,-47.557766,-345.142249,-118.563228
1573539932.800514,-0.138212,-0.692013,0.092012,-0.641120,-0.876952,4.080859,5169.952609,-8350.586099,-3784.687987,-94.202273,-337.756364,-115.886829
1573539932.895144,-0.123467,-0.528410,0.079962,-0.739776,-0.916203,4.247278,5195.798371,-8393.373120,-3788.422490,-61.427929,-348.770703,-109.536536
1573539932.989774,-0.108739,-0.581996,0.077216,-0.627973,-0.852928,4.188020,5176.739487,-8421.504519,-3798.180211,-74.731950,-344.434792,-109.146021
1573539933.084394,-0.085310,-0.354908,0.052920,-0.598378,-0.912641,4.202324,5174.467239,-8454.247966,-3806.520016,-70.651953,-345.203003,-107.730967
1573539933.208904,-0.092947,-0.372198,0.054766,-0.605671,-0.899971,4.169354,5156.344665,-8494.517563,-3818.501048,-80.317824,-343.163677,-106.954263
1573539933.303534,-0.106430,-0.648729,0.083674,-0.639084,-0.795899,4.156112,5143.080108,-8521.838474,-3824.557243,-86.356777,-338.412548,-103.307861
1573539933.398154,-0.095805,-0.510626,0.073543,-0.708430,-0.846648,4.197898,5141.574934,-8556.216169,-3830.816730,-80.704588,-341.154252,-100.544321
1573539933.492784,-0.067116,-0.301900,0.047745,-0.627706,-0.888888,4.197531,5136.617061,-8588.478834,-3839.599936,-78.645224,-341.717570,-100.261171
1573539933.587404,-0.081723,-0.319945,0.049716,-0.632873,-0.875761,4.152004,5116.487894,-8617.321127,-3848.137672,-91.568762,-338.708405,-99.775934
1573539933.682034,-0.109638,-0.443947,0.065594,-0.707697,-0.833472,4.148977,5101.278206,-8648.195378,-3854.371491,-98.657962,-337.823409,-97.105121
1573539933.811513,-0.091777,-0.278546,0.046491,-0.678073,-0.865426,4.154769,5089.557091,-8692.723061,-3864.318664,-98.523720,-339.204827,-95.259775
1573539933.906143,-0.055370,-0.260628,0.043999,-0.661611,-0.863947,4.238054,5104.906570,-8729.335366,-3872.363809,-75.617210,-344.001005,-94.653808
1573539933.970883,-0.044120,-0.247509,0.041802,-0.643260,-0.866663,4.257817,5106.182876,-8752.321133,-3878.894173,-69.929216,-345.033700,-95.307824
1573539934.095393,-0.057103,-0.333869,0.050213,-0.639809,-0.839539,4.195296,5082.290814,-8790.868274,-3891.350120,-85.328370,-341.206484,-96.392364
